2 0.35179 0.648112 8.05606e-05 1.08386e-05 4.5464e-06 1.27873e-06 2.70503e-07 1.39397e-07 0 0 
3 0.285512 0.712268 0.0022009 1.18744e-05 4.9809e-06 1.40094e-06 2.96355e-07 1.5272e-07 0 0 
4 0.646796 0.349683 0.00349193 1.91396e-05 7.54389e-06 2.12181e-06 4.48849e-07 2.31303e-07 0 0 
5 0.763369 0.234226 0.00146747 8.62615e-05 0.000845531 5.1458e-06 4.48849e-07 2.31303e-07 0 0 
6 0.00301693 0.996864 8.36431e-05 2.27925e-05 9.56066e-06 2.68905e-06 5.68844e-07 2.9314e-07 0 0 
7 0.682469 0.307764 0.0097236 2.77311e-05 1.1366e-05 3.19682e-06 6.76258e-07 3.48493e-07 0 0 
8 0.80439 0.19075 0.00481174 3.12946e-05 1.29112e-05 3.63144e-06 7.68197e-07 3.95871e-07 0 0 
9 0.590181 0.408321 0.00144667 3.23734e-05 1.35455e-05 3.80985e-06 8.05937e-07 4.1532e-07 0 0 
10 0.68993 0.303792 0.00620389 4.76379e-05 1.93815e-05 5.45127e-06 1.15317e-06 5.94256e-07 0 0 
11 0.49451 0.503247 0.00174147 0.000310027 0.000140121 4.04926e-05 8.1096e-06 3.61403e-06 0 0 
12 0.626037 0.371872 0.00148112 0.000376769 0.000170286 4.92097e-05 9.85542e-06 4.39205e-06 0 0 
13 0.791259 0.198045 0.0099084 0.000515064 0.000198552 5.73781e-05 1.14913e-05 5.12109e-06 0 0 
14 0.030049 0.968089 0.00173207 8.28314e-05 3.47448e-05 9.77241e-06 2.06726e-06 1.06531e-06 0 0 
15 0.0131487 0.986342 0.000356158 9.7031e-05 4.07011e-05 1.14477e-05 2.42165e-06 1.24794e-06 0 0 
16 0.78644 0.212639 0.000760099 0.000102395 4.29509e-05 1.20805e-05 2.55551e-06 1.31692e-06 0 0 
17 0.899019 0.0709524 0.0289006 0.000756262 0.000270953 7.83005e-05 1.56815e-05 6.98844e-06 0 0 
18 0.710069 0.286338 0.00261653 0.00060283 0.000272458 7.87355e-05 1.57687e-05 7.02727e-06 0 0 
19 0.0365916 0.959792 0.00251037 0.000682449 0.000308443 8.91345e-05 1.78513e-05 7.9554e-06 0 0 
20 0.671046 0.291411 0.0372495 0.00021636 5.62318e-05 1.58159e-05 3.3457e-06 1.72412e-06 0 0 
21 0.488429 0.510807 0.000534212 0.000145547 6.10517e-05 1.71715e-05 3.63247e-06 1.87191e-06 0 0 
22 0.551152 0.384785 0.0562406 0.00732435 0.00036584 0.000102698 2.05678e-05 9.16601e-06 0 0 
23 0.529636 0.458998 0.0111036 0.000167021 7.00593e-05 1.9705e-05 4.16841e-06 2.14809e-06 0 0 
24 0.728174 0.270898 0.000651483 0.00017566 7.3683e-05 2.07242e-05 4.38402e-06 2.2592e-06 0 0 
25 0.139862 0.859175 0.000673977 0.000183572 7.70021e-05 2.16578e-05 4.5815e-06 2.36096e-06 0 0 
26 0.483381 0.51562 0.00069894 0.000190435 7.98807e-05 2.24674e-05 4.75277e-06 2.44922e-06 0 0 
27 0.56144 0.437447 0.000788627 0.000205823 8.63357e-05 2.42829e-05 5.13683e-06 2.64714e-06 0 0 
28 0.323509 0.62748 0.047227 0.0011043 0.000495378 0.000143155 2.86703e-05 1.27769e-05 0 0 
29 0.79461 0.182045 0.0194458 0.00276471 0.000906837 0.000199461 2.87838e-05 0 0 0 
30 0.60108 0.25887 0.136142 0.00274947 0.000925535 0.000203573 2.93773e-05 0 0 0 
31 0.746761 0.247204 0.0042027 0.00113031 0.000510859 0.000147629 2.95663e-05 1.31761e-05 0 0 
32 0.229689 0.747096 0.0191896 0.00282964 0.000955073 0.00021007 3.03149e-05 0 0 0 
33 0.0199836 0.962641 0.0154434 0.00119241 0.000538928 0.000155741 3.11908e-05 1.39001e-05 0 0 
34 0.575952 0.346536 0.0755483 0.00121558 0.000544916 0.000157471 3.15373e-05 1.40545e-05 0 0 
35 0.492259 0.483098 0.0242822 0.000229009 9.60363e-05 2.70114e-05 5.714e-06 2.94457e-06 0 0 
36 0.496635 0.502062 0.000911896 0.000248494 0.000104235 2.93172e-05 6.20178e-06 3.19594e-06 0 0 
37 0.400688 0.577018 0.020096 0.00135637 0.000613031 0.000177155 3.54795e-05 1.58114e-05 0 0 
38 0.263801 0.734845 0.000946932 0.000257931 0.000108193 3.04305e-05 6.43729e-06 3.3173e-06 0 0 
39 0.0103567 0.969936 0.0174814 0.00137354 0.00062079 0.000179397 3.59286e-05 1.60115e-05 0 0 
40 0.243193 0.742431 0.000972552 0.0132516 0.000111005 3.12209e-05 6.6045e-06 3.40347e-06 0 0 
41 0.844121 0.147746 0.00578785 0.00144679 0.000653899 0.000188965 3.78448e-05 1.68655e-05 0 0 
42 0.367683 0.630849 0.00102834 0.00027913 0.000117085 3.29317e-05 6.96639e-06 3.58996e-06 0 0 
43 0.230792 0.732965 0.0338342 0.00148745 0.000671814 0.000194142 3.88816e-05 1.73275e-05 0 0 
44 0.349741 0.648754 0.00105318 0.000286993 0.000120384 3.38593e-05 7.16262e-06 3.69108e-06 0 0 
45 0.216308 0.782118 0.0011018 0.000299655 0.000125695 3.53531e-05 7.47862e-06 3.85393e-06 0 0 
46 0.547694 0.443257 0.0064631 0.00159573 0.000721212 0.000208418 4.17406e-05 1.86016e-05 0 0 
47 0.473489 0.524916 0.00111605 0.000304127 0.000127571 3.58808e-05 7.59024e-06 3.91145e-06 0 0 
48 0.808455 0.189914 0.00114504 0.000308735 0.000129504 3.64244e-05 7.70525e-06 3.97071e-06 0 0 
49 0.275238 0.393548 0.312413 0.0177496 0.000766288 0.000221444 4.43494e-05 1.97642e-05 0 0 
50 0.0288584 0.962003 0.00634809 0.00172237 0.000778452 0.000224959 4.50533e-05 2.00779e-05 0 0 
51 0.0605077 0.930366 0.00633503 0.00172237 0.000778452 0.000224959 4.50533e-05 2.00779e-05 0 0 
52 0.527715 0.470561 0.00120629 0.000328653 0.000137859 3.87744e-05 8.20236e-06 4.22688e-06 0 0 
53 0.599006 0.365679 0.0347973 0.000328966 0.000137859 3.87744e-05 8.20236e-06 4.22689e-06 0 0 
54 0.0609597 0.91387 0.0223342 0.00175028 0.000791007 0.000228587 4.578e-05 2.04018e-05 0 0 
55 0.127318 0.863409 0.00643683 0.00175015 0.000791007 0.000228587 4.578e-05 2.04018e-05 0 0 
56 0.0471798 0.936309 0.0104095 0.00428921 0.00144801 0.000318493 4.59612e-05 0 0 0 
57 0.0468627 0.943713 0.00654209 0.00177884 0.000803975 0.000232334 4.65305e-05 2.07362e-05 0 0 
58 0.661784 0.326719 0.0086143 0.00177884 0.000803975 0.000232334 4.65305e-05 2.07362e-05 0 0 
59 0.612024 0.386195 0.0012464 0.000339609 0.000142454 4.00669e-05 8.47577e-06 4.36778e-06 0 0 
60 0.730609 0.259476 0.00688418 0.00187085 0.000845559 0.000244352 4.89372e-05 2.18088e-05 0 0 
61 0.295615 0.702451 0.00137077 0.000357483 0.000149951 4.21756e-05 8.92186e-06 4.59766e-06 0 0 
62 0.378061 0.620021 0.00134435 0.000363866 0.000152629 4.29288e-05 9.08118e-06 4.67977e-06 0 0 
63 0.0691588 0.901982 0.0257161 0.00194092 0.000875758 0.000253078 5.0685e-05 2.25877e-05 0 0 
64 0.0689868 0.920485 0.00738895 0.00193767 0.000875758 0.000253078 5.0685e-05 2.25877e-05 0 0 
65 0.0148752 0.97467 0.00725776 0.0019729 0.000891681 0.00025768 5.16065e-05 2.29983e-05 0 0 
66 0.395096 0.593998 0.0077095 0.0019729 0.000891681 0.00025768 5.16065e-05 2.29983e-05 0 0 
67 0.673054 0.236669 0.0896744 0.000386242 0.000158282 4.45187e-05 9.41752e-06 4.85309e-06 0 0 
68 0.072224 0.908825 0.0119457 0.00492465 0.00166253 0.000365678 5.27703e-05 0 0 0 
69 0.631088 0.340117 0.0255395 0.00200946 0.000908194 0.000262452 5.25622e-05 2.34242e-05 0 0 
70 0.488388 0.457004 0.0473877 0.00513916 0.00166253 0.000365678 5.27703e-05 0 0 0 
71 0.635769 0.343346 0.0202791 0.000384462 0.000161268 4.53587e-05 9.59521e-06 4.94466e-06 0 0 
72 0.358286 0.639697 0.00141088 0.000384462 0.000161269 4.53587e-05 9.59521e-06 4.94466e-06 0 0 
73 0.134938 0.648322 0.216135 0.000384475 0.000161269 4.53587e-05 9.59521e-06 4.94466e-06 0 0 
74 0.447599 0.550384 0.0014109 0.000384462 0.000161268 4.53587e-05 9.59521e-06 4.94466e-06 0 0 
75 0.655618 0.318179 0.0187857 0.00521434 0.00176033 0.000387188 5.58745e-05 0 0 0 
76 0.0167066 0.971545 0.00815979 0.00221448 0.00100087 0.000289233 5.79257e-05 2.58145e-05 0 0 
77 0.159508 0.808354 0.0285488 0.00221479 0.00100087 0.000289232 5.79257e-05 2.58145e-05 0 0 
78 0.263864 0.675488 0.0427513 0.0176556 0.000176523 4.90615e-05 1.03785e-05 5.3483e-06 0 0 
79 0.478117 0.496367 0.0174662 0.00565811 0.00191015 0.00042014 6.06297e-05 0 0 0 
80 0.633953 0.332308 0.0299983 0.00230873 0.00104346 0.00030154 6.03906e-05 2.6913e-05 0 0 
81 0.741703 0.230359 0.024187 0.00231851 0.00104346 0.00030154 6.03906e-05 2.6913e-05 0 0 
82 0.0664171 0.930226 0.00267415 0.000433543 0.000181856 5.11492e-05 1.08201e-05 5.57589e-06 0 0 
83 0.426139 0.500937 0.0722217 0.000447214 0.000185809 5.22611e-05 1.10554e-05 5.69711e-06 0 0 
84 0.147259 0.840193 0.00872547 0.0023589 0.00106614 0.000308096 6.17035e-05 2.7498e-05 0 0 
85 0.449864 0.493291 0.0382665 0.0170815 0.00109036 0.000314942 6.30747e-05 2.81091e-05 0 0 
86 0.264098 0.723052 0.00894319 0.00241132 0.00108983 0.000314942 6.30747e-05 2.81091e-05 0 0 
87 0.0729601 0.895391 0.0211154 0.00657327 0.00343686 0.000209224 0.000104827 0 0.00020965 0 
88 0.0605114 0.895086 0.0436892 0.000452828 0.000189938 5.34225e-05 1.1301e-05 5.82371e-06 0 0 
89 0.777435 0.15089 0.0629327 0.00618823 0.00204038 0.000448786 6.47636e-05 0 0 0 
90 0.307141 0.641751 0.0423096 0.00618445 0.00208783 0.000459223 6.62697e-05 0 0 0 
91 0.119849 0.877665 0.00173916 0.000473872 0.000198773 5.59072e-05 1.18267e-05 6.09458e-06 0 0 
92 0.286831 0.641433 0.0709861 0.000477222 0.000198773 5.59072e-05 1.18267e-05 6.09458e-06 0 0 
93 0.556244 0.397284 0.0376741 0.00618455 0.00208783 0.000459223 6.62697e-05 0 0 0 
94 0.0896313 0.896679 0.00950338 0.00258356 0.00116768 0.000337438 6.758e-05 3.01169e-05 0 0 
95 0.326791 0.670665 0.00178039 0.000485155 0.000203505 5.72384e-05 1.21082e-05 6.23969e-06 0 0 
96 0.303593 0.670053 0.00178053 0.0242947 0.000203523 5.72384e-05 1.21082e-05 6.23969e-06 0 0 
97 0.757885 0.239569 0.00178178 0.000485155 0.000203505 5.72384e-05 1.21082e-05 6.23969e-06 0 0 
98 0.0194795 0.966829 0.00950492 0.00258356 0.00116768 0.000337438 6.758e-05 3.01169e-05 0 0 
99 0.0433397 0.942972 0.00950167 0.00258356 0.00116768 0.000337438 6.758e-05 3.01169e-05 0 0 
100 0.469149 0.528306 0.00178046 0.000485155 0.000203505 5.72384e-05 1.21082e-05 6.23969e-06 0 0 
101 0.0196241 0.966543 0.00964597 0.00258356 0.00116768 0.000337438 6.758e-05 3.01169e-05 0 0 
102 0.211072 0.775195 0.00954688 0.00258356 0.00116768 0.000337438 6.758e-05 3.01169e-05 0 0 
103 0.319327 0.666327 0.010057 0.00264657 0.00119616 0.000345668 6.92283e-05 3.08514e-05 0 0 
104 0.0443739 0.91717 0.0341682 0.00264657 0.00119616 0.000345668 6.92283e-05 3.08514e-05 0 0 
105 0.372628 0.6247 0.00186939 0.000509413 0.000213681 6.01003e-05 1.27137e-05 6.55167e-06 0 0 
106 0.0454512 0.940176 0.00997675 0.00271273 0.00122606 0.00035431 7.0959e-05 3.16227e-05 0 0 
107 0.256312 0.599396 0.139776 0.00279098 0.0012575 0.000363395 7.27785e-05 3.24336e-05 0 0 
108 0.671671 0.323799 0.00368523 0.000536224 0.000224927 6.32635e-05 1.33828e-05 6.8965e-06 0 0 
109 0.127255 0.857614 0.0105042 0.00285551 0.00129059 0.000372958 7.46937e-05 3.32871e-05 0 0 
110 0.331445 0.570784 0.0642472 0.031753 0.00129059 0.000372958 7.46937e-05 3.32871e-05 0 0 
111 0.443038 0.526896 0.020111 0.00699819 0.00236255 0.000519647 7.49894e-05 0 0 0 
112 0.710328 0.260021 0.0288067 0.000536247 0.000224927 6.32635e-05 1.33828e-05 6.8965e-06 0 0 
113 0.155303 0.829159 0.0107859 0.00293268 0.00132547 0.000383038 7.67124e-05 3.41867e-05 0 0 
114 0.130212 0.852904 0.0121321 0.00293268 0.00132547 0.000383038 7.67124e-05 3.41867e-05 0 0 
115 0.102039 0.854497 0.0386904 0.00295428 0.00132547 0.000383038 7.67124e-05 3.41867e-05 0 0 
116 0.306158 0.650105 0.0269111 0.0121394 0.00385591 0.000830253 0 0 0 0 
117 0.431673 0.508483 0.0589479 0.000570644 0.000237423 6.67781e-05 1.41263e-05 7.27964e-06 0 0 
118 0.436323 0.560509 0.00227634 0.000566014 0.000237423 6.67781e-05 1.41263e-05 7.27963e-06 0 0 
119 0.0782419 0.905787 0.0110873 0.00301415 0.00136229 0.000393678 7.88433e-05 3.51364e-05 0 0 
120 0.605155 0.391876 0.00207744 0.000566014 0.000237423 6.67781e-05 1.41263e-05 7.27964e-06 0 0 
121 0.206342 0.763555 0.0292108 0.000566065 0.000237423 6.67781e-05 1.41263e-05 7.27964e-06 0 0 
122 0.0783213 0.905688 0.0111067 0.00301415 0.00136229 0.000393678 7.88433e-05 3.51364e-05 0 0 
123 0.325899 0.671132 0.00207729 0.000566014 0.000237423 6.67781e-05 1.41263e-05 7.27963e-06 0 0 
124 0.53483 0.462009 0.00224426 0.000582186 0.000244207 6.8686e-05 1.45299e-05 7.48762e-06 0 0 
125 0.0233852 0.960189 0.0114019 0.00310027 0.00140121 0.000404925 8.1096e-05 3.61403e-05 0 0 
126 0.0233752 0.960199 0.0114019 0.00310027 0.00140121 0.000404925 8.1096e-05 3.61403e-05 0 0 
127 0.190722 0.792005 0.0121018 0.00319145 0.00144242 0.000416835 8.34812e-05 3.72032e-05 0 0 
128 0.0502316 0.902414 0.042183 0.00319145 0.00144242 0.000416835 8.34812e-05 3.72032e-05 0 0 
129 0.731656 0.265028 0.00234344 0.00061747 0.000259007 7.28488e-05 1.54105e-05 7.94142e-06 0 0 
130 0.0853943 0.897185 0.012093 0.00328816 0.00148613 0.000429466 8.60109e-05 3.83306e-05 0 0 
131 0.144562 0.838013 0.0120961 0.00328816 0.00148613 0.000429466 8.60109e-05 3.83306e-05 0 0 
132 0.024792 0.930917 0.0389626 0.00328818 0.00148613 0.000429466 8.60109e-05 3.83306e-05 0 0 
133 0.414545 0.582216 0.0022659 0.00061747 0.000259007 7.28488e-05 1.54105e-05 7.94142e-06 0 0 
134 0.467905 0.528051 0.0030711 0.00061747 0.000259007 7.28488e-05 1.54105e-05 7.94142e-06 0 0 
135 0.433168 0.548809 0.0125281 0.00339092 0.00153258 0.000442887 8.86987e-05 3.95284e-05 0 0 
136 0.459205 0.505975 0.0229979 0.00831035 0.00280553 0.000617081 8.90499e-05 0 0 0 
137 0.180294 0.770414 0.0437977 0.00339092 0.00153258 0.000442887 8.86987e-05 3.95284e-05 0 0 
138 0.150578 0.831416 0.0125114 0.00339092 0.00153258 0.000442887 8.86987e-05 3.95284e-05 0 0 
139 0.0901438 0.877876 0.0201582 0.00831035 0.00280553 0.000617081 8.90499e-05 0 0 0 
140 0.41208 0.569769 0.0126565 0.00339092 0.00153258 0.000442887 8.86987e-05 3.95284e-05 0 0 
141 0.15547 0.639329 0.19953 0.00350069 0.00158201 0.000457174 9.156e-05 4.08035e-05 0 0 
142 0.0263916 0.953818 0.0141188 0.0035003 0.00158201 0.000457174 9.156e-05 4.08035e-05 0 0 
143 0.0263914 0.795597 0.172323 0.00351647 0.00158201 0.000457174 9.156e-05 4.08035e-05 0 0 
144 0.328854 0.61952 0.0459519 0.00350254 0.00158201 0.000457174 9.156e-05 4.08035e-05 0 0 
145 0.218838 0.730358 0.0451321 0.00350031 0.00158201 0.000457174 9.156e-05 4.08035e-05 0 0 
146 0.758354 0.20593 0.00242206 0.000657307 0.000275724 0.0323345 1.74784e-05 8.45377e-06 0 0 
147 0.609053 0.306541 0.0534795 0.027519 0.00281798 0.000457174 9.156e-05 4.08035e-05 0 0 
148 0.57114 0.425289 0.00250088 0.000679217 0.000284908 8.01337e-05 1.69515e-05 8.73556e-06 0 0 
149 0.0942437 0.75216 0.145908 0.00544481 0.00163475 0.000472413 9.4612e-05 4.21636e-05 0 0 
150 0.182908 0.676123 0.139899 0.000679217 0.000284908 8.01337e-05 1.69515e-05 8.73556e-06 0 0 
151 0.0272711 0.953566 0.0133022 0.00361698 0.00163475 0.000472413 9.4612e-05 4.21636e-05 0 0 
152 0.31174 0.684657 0.00253287 0.000679217 0.000284908 8.01337e-05 1.69515e-05 8.73556e-06 0 0 
153 0.403389 0.592909 0.0025951 0.000702638 0.000294732 8.2897e-05 1.75361e-05 9.03679e-06 0 0 
154 0.0632814 0.815631 0.115024 0.00374188 0.00169112 0.000488703 9.78745e-05 4.36176e-05 0 0 
155 0.0282115 0.951881 0.0138446 0.0037417 0.00169112 0.000488703 9.78745e-05 4.36176e-05 0 0 
156 0.0781415 0.902035 0.0137611 0.0037417 0.00169112 0.000488703 9.78745e-05 4.36176e-05 0 0 
157 0.570891 0.391509 0.0364931 0.000702638 0.000294732 8.2897e-05 1.75361e-05 9.03679e-06 0 0 
158 0.128895 0.816776 0.0482655 0.00374189 0.00169112 0.000488703 9.78745e-05 4.36176e-05 0 0 
159 0.0869209 0.877163 0.0228708 0.00917004 0.00309575 0.000680917 9.8262e-05 0 0 0 
160 0.214206 0.747624 0.0370631 0.000702643 0.000294732 8.2897e-05 1.75361e-05 9.03679e-06 0 0 
161 0.0292191 0.950249 0.0142523 0.00387533 0.00175152 0.000506157 0.00010137 4.51753e-05 0 0 
162 0.412436 0.583748 0.00267059 0.000727733 0.000305258 8.58576e-05 1.81624e-05 9.35953e-06 0 0 
163 0.241254 0.618111 0.134355 0.00387533 0.00175152 0.000506157 0.00010137 4.51753e-05 0 0 
164 0.132887 0.846581 0.0142525 0.00387533 0.00175152 0.000506157 0.00010137 4.51753e-05 0 0 
165 0.136336 0.843133 0.0142524 0.00387533 0.00175152 0.000506157 0.00010137 4.51753e-05 0 0 
166 0.424514 0.554912 0.0142947 0.00387533 0.00175152 0.000506157 0.00010137 4.51753e-05 0 0 
167 0.517387 0.373189 0.0624308 0.0429443 0.00324168 0.000705236 0.000101771 0 0 0 
168 0.596249 0.382454 0.0147852 0.00401886 0.00181639 0.000524903 0.000105124 4.68485e-05 0 0 
169 0.479334 0.499261 0.014893 0.00401886 0.00181639 0.000524903 0.000105124 4.68485e-05 0 0 
170 0.304742 0.691193 0.00287668 0.000754686 0.000316564 8.90375e-05 1.8835e-05 9.70618e-06 0 0 
171 0.0974208 0.881287 0.0147805 0.00401887 0.00181639 0.000524904 0.000105124 4.68485e-05 0 0 
172 0.250459 0.617194 0.125835 0.00401887 0.00181639 0.000524904 0.000105124 4.68485e-05 0 0 
173 0.102783 0.765223 0.125451 0.00405015 0.00181639 0.000524903 0.000105124 4.68485e-05 0 0 
174 0.0673787 0.911327 0.014782 0.00401886 0.00181639 0.000524904 0.000105124 4.68485e-05 0 0 
175 0.0673289 0.911375 0.0147844 0.00401886 0.00181639 0.000524904 0.000105124 4.68485e-05 0 0 
176 0.259631 0.597869 0.0872206 0.0486792 0.00572811 0.000348707 0.000174712 0 0.000349416 0 
177 0.279787 0.601649 0.10455 0.00985085 0.00332507 0.000731355 0.000105541 0 0 0 
178 0.223039 0.482759 0.249801 0.0417577 0.00194004 0.000545092 0.000109168 4.86503e-05 0 0 
179 0.0698669 0.907882 0.0154886 0.00417344 0.00188625 0.000545092 0.000109168 4.86503e-05 0 0 
180 0.152672 0.746242 0.0943206 0.00417604 0.00188625 0.000545092 0.000109168 4.86503e-05 0 0 
181 0.461029 0.153455 0.332489 0.0487052 0.00345296 0.000759484 0.0001096 0 0 0 
182 0.476815 0.478243 0.0303913 0.0102281 0.00345296 0.000759484 0.0001096 0 0 0 
183 0.335607 0.660282 0.00287597 0.000783712 0.00032874 9.2462e-05 1.95595e-05 1.00795e-05 0 0 
184 0.135936 0.859899 0.00293131 0.000783712 0.00032874 9.2462e-05 1.95595e-05 1.00795e-05 0 0 
185 0.403464 0.592413 0.00288778 0.000783712 0.00032874 9.2462e-05 1.95595e-05 1.00795e-05 0 0 
186 0.0126155 0.191409 0.516329 0.272791 0.00567392 0.00118151 0 0 0 0 
187 0.402039 0.593524 0.00315383 0.00081506 0.000341889 9.61605e-05 2.03418e-05 1.04827e-05 0 0 
188 0.152724 0.784279 0.0559642 0.00434037 0.0019617 0.000566896 0.000113534 5.05964e-05 0 0 
189 0.545381 0.450344 0.00299197 0.00081506 0.000341889 9.61605e-05 2.03418e-05 1.04827e-05 0 0 
190 0.672617 0.184388 0.135956 0.00434693 0.0019617 0.000566896 0.000113534 5.05964e-05 0 0 
191 0.1901 0.786904 0.015963 0.00434037 0.0019617 0.000566896 0.000113534 5.05964e-05 0 0 
192 0.509006 0.486719 0.002991 0.00081506 0.000341889 9.61605e-05 2.03418e-05 1.04827e-05 0 0 
193 0.232155 0.744849 0.0159629 0.00434037 0.0019617 0.000566896 0.000113534 5.05964e-05 0 0 
194 0.0917811 0.75759 0.130449 0.0130508 0.00618634 0.000376604 0.000188689 0 0.00037737 0 
195 0.0340933 0.941949 0.016632 0.00452122 0.00204344 0.000590516 0.000118265 5.27045e-05 0 0 
196 0.117288 0.775827 0.0995588 0.00452184 0.00204344 0.000590516 0.000118265 5.27045e-05 0 0 
197 0.281011 0.590147 0.127501 0.000852319 0.000356135 0.000100167 2.11894e-05 1.09195e-05 0 0 
198 0.28307 0.712477 0.00311574 0.000849021 0.000356135 0.000100167 2.11894e-05 1.09195e-05 0 0 
199 0.0341027 0.94193 0.0166415 0.00452122 0.00204344 0.000590516 0.000118265 5.27045e-05 0 0 
200 0.0710137 0.196743 0.683237 0.00489988 0.0433392 0.000596415 0.000118265 5.27045e-05 0 0 
201 0.243263 0.484744 0.264667 0.00452123 0.00204344 0.000590516 0.000118265 5.27045e-05 0 0 
202 0.117418 0.858628 0.0166279 0.00452122 0.00204344 0.000590516 0.000118265 5.27045e-05 0 0 
203 0.364167 0.611876 0.016631 0.00452122 0.00204344 0.000590516 0.000118265 5.27045e-05 0 0 
204 0.569596 0.342305 0.0867624 0.000849021 0.000356135 0.000100167 2.11894e-05 1.09195e-05 0 0 
205 0.213248 0.715766 0.0483584 0.0125261 0.00604294 0.00327605 0.000783227 0 0 0 
206 0.659905 0.297397 0.0269346 0.0110805 0.0037407 0.000822775 0.000118733 0 0 0 
207 0.696408 0.195776 0.0588192 0.00453083 0.0437002 0.000594676 0.000118265 5.27045e-05 0 0 
208 0.509662 0.354858 0.134084 0.000885936 0.000371619 0.000104522 2.21107e-05 1.13942e-05 0 0 
209 0.487364 0.487638 0.0173533 0.0047178 0.00213228 0.000616191 0.000123407 5.4996e-05 0 0 
210 0.289343 0.514461 0.145073 0.00656747 0.0437606 0.000616535 0.000123407 5.4996e-05 0 0 
211 0.248111 0.747243 0.00325139 0.000885935 0.000371619 0.000104522 2.21107e-05 1.13942e-05 0 0 
212 0.195269 0.779736 0.0173509 0.0047178 0.00213228 0.000616191 0.000123407 5.4996e-05 0 0 
213 0.0790565 0.895837 0.0174622 0.0047178 0.00213228 0.000616191 0.000123407 5.4996e-05 0 0 
214 0.0790411 0.895964 0.0173508 0.0047178 0.00213228 0.000616191 0.000123407 5.4996e-05 0 0 
215 0.1185 0.876853 0.00325109 0.000885935 0.000371619 0.000104522 2.21107e-05 1.13942e-05 0 0 
216 0.164895 0.726142 0.101318 0.00471781 0.00213228 0.000616191 0.000123407 5.4996e-05 0 0 
217 0.0355711 0.852488 0.104297 0.0047178 0.00213228 0.000616191 0.000123407 5.4996e-05 0 0 
218 0.035571 0.895965 0.0608197 0.0047178 0.00213228 0.000616191 0.000123407 5.4996e-05 0 0 
219 0.167938 0.827415 0.00325147 0.000885935 0.000371619 0.000104522 2.21107e-05 1.13942e-05 0 0 
220 0.371084 0.582023 0.0304453 0.0115622 0.00390334 0.000858548 0.000123896 0 0 0 
221 0.641533 0.249033 0.101781 0.00472588 0.00213228 0.000616191 0.000123407 5.4996e-05 0 0 
222 0.341248 0.406912 0.24381 0.0049697 0.0022292 0.0006442 0.000129016 5.74959e-05 0 0 
223 0.629128 0.366014 0.00339889 0.000926205 0.00038851 0.000109273 2.31157e-05 1.19121e-05 0 0 
224 0.441872 0.553268 0.00340115 0.000926205 0.00038851 0.000109273 2.31157e-05 1.19121e-05 0 0 
225 0.264416 0.66173 0.0658619 0.00493224 0.0022292 0.0006442 0.000129016 5.74959e-05 0 0 
226 0.037188 0.893916 0.0609036 0.00493224 0.0022292 0.0006442 0.000129016 5.74959e-05 0 0 
227 0.0826414 0.711665 0.197701 0.00493238 0.0022292 0.0006442 0.000129016 5.74959e-05 0 0 
228 0.128033 0.800436 0.063539 0.00493224 0.0022292 0.0006442 0.000129016 5.74959e-05 0 0 
229 0.532796 0.462181 0.00356438 0.000926205 0.00038851 0.000109273 2.31157e-05 1.19121e-05 0 0 
230 0.0825874 0.891281 0.0181398 0.00493224 0.0022292 0.0006442 0.000129016 5.74959e-05 0 0 
231 0.329999 0.665132 0.00340979 0.000926205 0.00038851 0.000109273 2.31157e-05 1.19121e-05 0 0 
232 0.0442865 0.929345 0.0183762 0.00493224 0.0022292 0.0006442 0.000129016 5.74959e-05 0 0 
233 0.182614 0.812529 0.00339886 0.000926205 0.00038851 0.000109273 2.31157e-05 1.19121e-05 0 0 
234 0.583841 0.299016 0.10915 0.00493318 0.0022292 0.0006442 0.000129016 5.74959e-05 0 0 
235 0.363476 0.631434 0.00356157 0.00097031 0.000407011 0.000114477 2.42165e-05 1.24794e-05 0 0 
236 0.229433 0.743191 0.0190041 0.00516711 0.00233535 0.000674876 0.00013516 6.02338e-05 0 0 
237 0.411728 0.583183 0.00356129 0.00097031 0.000407011 0.000114477 2.42165e-05 1.24794e-05 0 0 
238 0.038959 0.886046 0.0666227 0.00516711 0.00233535 0.000674876 0.00013516 6.02338e-05 0 0 
239 0.0389587 0.933659 0.01901 0.00516711 0.00233535 0.000674876 0.00013516 6.02338e-05 0 0 
240 0.0396909 0.790348 0.161574 0.00518161 0.00233535 0.000674876 0.00013516 6.02338e-05 0 0 
241 0.507668 0.487243 0.00356085 0.00097031 0.000407011 0.000114477 2.42165e-05 1.24794e-05 0 0 
242 0.0389868 0.851524 0.101116 0.00516755 0.00233535 0.000674876 0.00013516 6.02338e-05 0 0 
243 0.232445 0.521767 0.227503 0.0129346 0.00427509 0.000940314 0.000135695 0 0 0 
244 0.514091 0.480803 0.00357741 0.00097031 0.000407011 0.000114477 2.42165e-05 1.24794e-05 0 0 
245 0.316947 0.531042 0.150481 0.000970944 0.000407011 0.000114477 2.42165e-05 1.24794e-05 0 0 
246 0.181816 0.790743 0.0190682 0.00516711 0.00233535 0.000674876 0.00013516 6.02338e-05 0 0 
247 0.0863434 0.886255 0.0190289 0.00516711 0.00233535 0.000674876 0.00013516 6.02338e-05 0 0 
248 0.137369 0.813892 0.0307243 0.0126634 0.00427509 0.000940314 0.000135695 0 0 0 
249 0.408773 0.563851 0.0190033 0.00516711 0.00233535 0.000674876 0.00013516 6.02338e-05 0 0 
250 0.450472 0.372882 0.168009 0.0054313 0.00233535 0.000674876 0.00013516 6.02338e-05 0 0 
251 0.138493 0.832761 0.0199553 0.00542547 0.00245212 0.00070862 0.000141918 6.32455e-05 0 0 
252 0.49685 0.47439 0.0199689 0.00542547 0.00245212 0.00070862 0.000141918 6.32454e-05 0 0 
253 0.0409156 0.930335 0.0199577 0.00542547 0.00245212 0.00070862 0.000141918 6.32455e-05 0 0 
254 0.0409119 0.930343 0.0199542 0.00542547 0.00245212 0.00070862 0.000141918 6.32455e-05 0 0 
255 0.0409067 0.876544 0.0737581 0.00542552 0.00245212 0.00070862 0.000141918 6.32454e-05 0 0 
256 0.140906 0.830345 0.0199577 0.00542547 0.00245212 0.00070862 0.000141918 6.32455e-05 0 0 
257 0.290811 0.680445 0.0199533 0.00542547 0.00245212 0.00070862 0.000141918 6.32454e-05 0 0 
258 0.140915 0.734055 0.116234 0.00543066 0.00245212 0.00070862 0.000141918 6.32455e-05 0 0 
259 0.140888 0.780357 0.0199634 0.0554254 0.00245213 0.00070862 0.000141918 6.32454e-05 0 0 
260 0.14092 0.830333 0.0199559 0.00542547 0.00245212 0.00070862 0.000141918 6.32455e-05 0 0 
261 0.22297 0.770958 0.00446679 0.00101883 0.000427361 0.000120201 2.54273e-05 1.31033e-05 0 0 
262 0.281634 0.639618 0.0699207 0.00546174 0.00245212 0.00070862 0.000141918 6.32455e-05 0 0 
263 0.0409067 0.898896 0.051405 0.00542653 0.00245212 0.00070862 0.000141918 6.32454e-05 0 0 
264 0.649517 0.344986 0.0038922 0.00101883 0.000427362 0.000120201 2.54273e-05 1.31033e-05 0 0 
265 0.151692 0.769326 0.0701908 0.00542547 0.00245212 0.00070862 0.000141918 6.32455e-05 0 0 
266 0.386278 0.55943 0.0526877 0.0010191 0.000427361 0.000120201 2.54273e-05 1.31033e-05 0 0 
267 0.097681 0.817139 0.0580265 0.0150313 0.00725153 0.00393126 0.000939872 0 0 0 
268 0.605085 0.316873 0.0692501 0.00542549 0.00245212 0.00070862 0.000141918 6.32455e-05 0 0 
269 0.740653 0.186334 0.064221 0.00542554 0.00245212 0.00070862 0.000141918 6.32454e-05 0 0 
270 0.0442299 0.904594 0.0322612 0.0132966 0.00448884 0.00098733 0.00014248 0 0 0 
271 0.096849 0.817877 0.0760204 0.00571103 0.00258118 0.000745916 0.000149387 6.65742e-05 0 0 
272 0.358751 0.400461 0.231534 0.00571119 0.00258118 0.000745916 0.000149387 6.65742e-05 0 0 
273 0.149313 0.715524 0.125708 0.00591206 0.00258118 0.000745915 0.000149387 6.65742e-05 0 0 
274 0.309793 0.635666 0.0346299 0.0139964 0.0047251 0.00103929 0.000149979 0 0 0 
275 0.0959454 0.873797 0.0210037 0.00571102 0.00258118 0.000745916 0.000149387 6.65742e-05 0 0 
276 0.0430599 0.926682 0.0210044 0.00571102 0.00258118 0.000745915 0.000149387 6.65742e-05 0 0 
277 0.555163 0.439196 0.00395161 0.00107245 0.000449854 0.000126527 2.67656e-05 1.3793e-05 0 0 
278 0.405074 0.427599 0.165634 0.00107529 0.000449854 0.000126527 2.67656e-05 1.3793e-05 0 0 
279 0.19611 0.745633 0.0565676 0.00107245 0.000449854 0.000126527 2.67656e-05 1.3793e-05 0 0 
280 0.197845 0.771897 0.0210035 0.00571102 0.00258118 0.000745916 0.000149387 6.65742e-05 0 0 
281 0.0446341 0.924993 0.0211192 0.00571102 0.00258118 0.000745916 0.000149387 6.65742e-05 0 0 
282 0.0430596 0.926683 0.0210036 0.00571102 0.00258118 0.000745915 0.000149387 6.65742e-05 0 0 
283 0.0957026 0.874036 0.0210075 0.00571102 0.00258118 0.000745916 0.000149387 6.65742e-05 0 0 
284 0.406613 0.497298 0.0944001 0.00107245 0.000449854 0.000126527 2.67656e-05 1.3793e-05 0 0 
285 0.0431198 0.926611 0.0210149 0.00571102 0.00258118 0.000745915 0.000149387 6.65742e-05 0 0 
286 0.631317 0.181047 0.178364 0.00572848 0.00258118 0.000745916 0.000149387 6.65742e-05 0 0 
287 0.429207 0.564856 0.00415423 0.00113203 0.000474846 0.000133556 2.82526e-05 1.45593e-05 0 0 
288 0.199308 0.794755 0.00415415 0.00113203 0.000474846 0.000133556 2.82526e-05 1.45593e-05 0 0 
289 0.0454519 0.87518 0.0691914 0.00643663 0.00272458 0.000787355 0.000157687 7.02727e-05 0 0 
290 0.0454519 0.922609 0.0221709 0.0060283 0.00272458 0.000787355 0.000157687 7.02727e-05 0 0 
291 0.101762 0.796631 0.091838 0.00602853 0.00272458 0.000787355 0.000157687 7.02727e-05 0 0 
292 0.708818 0.174133 0.00416943 0.112226 0.000476289 0.000133556 2.82526e-05 1.45593e-05 0 0 
293 0.0647769 0.7175 0.207955 0.00602833 0.00272458 0.000787355 0.000157687 7.02727e-05 0 0 
294 0.045452 0.589154 0.355625 0.00602867 0.00272458 0.000787355 0.000157687 7.02727e-05 0 0 
295 0.0454732 0.922568 0.0221904 0.0060283 0.00272458 0.000787355 0.000157687 7.02727e-05 0 0 
296 0.0454518 0.843527 0.101253 0.0060283 0.00272458 0.000787355 0.000157687 7.02727e-05 0 0 
297 0.045452 0.92261 0.0221704 0.0060283 0.00272458 0.000787355 0.000157687 7.02727e-05 0 0 
298 0.545905 0.442346 0.00996587 0.00113203 0.000474846 0.000133556 2.82526e-05 1.45593e-05 0 0 
299 0.151411 0.84265 0.00415603 0.00113203 0.000474846 0.000133556 2.82526e-05 1.45593e-05 0 0 
300 0.156364 0.808675 0.0251933 0.0060283 0.00272458 0.000787355 0.000157687 7.02727e-05 0 0 
301 0.104699 0.33893 0.480346 0.0697736 0.0049956 0.00109703 0.000158311 0 0 0 
302 0.309724 0.628795 0.0596982 0.00113203 0.000474846 0.000133556 2.82526e-05 1.45593e-05 0 0 
303 0.281532 0.630959 0.0777415 0.00602835 0.00272458 0.000787355 0.000157687 7.02727e-05 0 0 
304 0.272291 0.448612 0.25808 0.0147743 0.0049876 0.00109703 0.000158311 0 0 0 
305 0.0454914 0.701461 0.243279 0.00602831 0.00272458 0.000787355 0.000157687 7.02727e-05 0 0 
306 0.522807 0.471015 0.00439527 0.00113203 0.000474846 0.000133556 2.82526e-05 1.45593e-05 0 0 
307 0.0454519 0.92261 0.0221705 0.0060283 0.00272458 0.000787355 0.000157687 7.02727e-05 0 0 
308 0.0454587 0.92064 0.024133 0.0060283 0.00272458 0.000787355 0.000157687 7.02727e-05 0 0 
309 0.412082 0.555979 0.0221708 0.0060283 0.00272458 0.000787355 0.000157687 7.02727e-05 0 0 
310 0.0388449 0.765214 0.169598 0.0164417 0.00859214 0.000523061 0.000262068 0 0.000524124 0 
311 0.48491 0.435967 0.0527886 0.0164332 0.00859214 0.000523061 0.000262069 0 0.000524124 0 
312 0.73408 0.259981 0.0041562 0.00113203 0.000474846 0.000133556 2.82526e-05 1.45593e-05 0 0 
313 0.49009 0.474115 0.0260271 0.0060283 0.00272458 0.000787355 0.000157687 7.02727e-05 0 0 
314 0.318099 0.675963 0.00415417 0.00113203 0.000474846 0.000133556 2.82526e-05 1.45593e-05 0 0 
315 0.160429 0.833283 0.00439985 0.00119862 0.000502778 0.000141412 2.99145e-05 1.54157e-05 0 0 
316 0.571881 0.36297 0.0632613 0.00119868 0.000502778 0.000141412 2.99145e-05 1.54157e-05 0 0 
317 0.219052 0.774661 0.00439876 0.00119862 0.000502778 0.000141412 2.99145e-05 1.54157e-05 0 0 
318 0.336914 0.656743 0.00445493 0.00119862 0.000502778 0.000141412 2.99145e-05 1.54157e-05 0 0 
319 0.106934 0.744885 0.137831 0.00639056 0.00288485 0.00083367 0.000166962 7.44064e-05 0 0 
320 0.1604 0.805782 0.0234752 0.0063829 0.00288485 0.00083367 0.000166962 7.44064e-05 0 0 
321 0.106919 0.797912 0.0848268 0.0063829 0.00288485 0.00083367 0.000166962 7.44064e-05 0 0 
322 0.616046 0.377495 0.00457149 0.00119862 0.000502778 0.000141412 2.99145e-05 1.54157e-05 0 0 
323 0.106436 0.742184 0.141037 0.00638293 0.00288485 0.00083367 0.000166962 7.44064e-05 0 0 
324 0.165666 0.800516 0.0234746 0.0063829 0.00288485 0.00083367 0.000166962 7.44064e-05 0 0 
325 0.393122 0.60059 0.00440022 0.00119862 0.000502778 0.000141412 2.99145e-05 1.54157e-05 0 0 
326 0.211009 0.751268 0.0273799 0.0063829 0.00288485 0.00083367 0.000166962 7.44064e-05 0 0 
327 0.21924 0.482714 0.296159 0.00119862 0.000502778 0.000141412 2.99145e-05 1.54157e-05 0 0 
328 0.156958 0.808407 0.0242918 0.0063829 0.00288485 0.00083367 0.000166962 7.44064e-05 0 0 
329 0.0481255 0.859248 0.0822834 0.0063829 0.00288485 0.00083367 0.000166962 7.44064e-05 0 0 
330 0.226203 0.622212 0.0824993 0.0651256 0.0028853 0.00083367 0.000166962 7.44064e-05 0 0 
331 0.0481419 0.917722 0.0237933 0.0063829 0.00288485 0.00083367 0.000166962 7.44064e-05 0 0 
332 0.0481255 0.153704 0.51564 0.219661 0.00300245 0.0594811 0.000312589 7.44064e-05 0 0 
333 0.335113 0.599778 0.0632208 0.00119865 0.000502778 0.000141412 2.99145e-05 1.54157e-05 0 0 
334 0.379784 0.409929 0.0822984 0.0652086 0.0617057 0.000833684 0.000166962 7.44064e-05 0 0 
335 0.539942 0.340141 0.0974981 0.0158082 0.00528099 0.00116156 0.000167623 0 0 0 
336 0.0481256 0.918004 0.0235275 0.0063829 0.00288485 0.00083367 0.000166962 7.44064e-05 0 0 
337 0.278933 0.655897 0.00446297 0.0600151 0.000505529 0.000141412 2.99145e-05 1.54157e-05 0 0 
338 0.401076 0.565107 0.0234746 0.0063829 0.00288485 0.00083367 0.000166962 7.44064e-05 0 0 
339 0.230312 0.608546 0.138888 0.0156435 0.00528099 0.00116156 0.000167623 0 0 0 
340 0.45414 0.421926 0.0638094 0.0594354 0.000502778 0.000141412 2.99145e-05 1.54157e-05 0 0 
341 0.10601 0.860172 0.023475 0.0063829 0.00288485 0.00083367 0.000166962 7.44064e-05 0 0 
342 0.106923 0.5651 0.317633 0.00638309 0.00288485 0.00083367 0.000166962 7.44064e-05 0 0 
343 0.110243 0.679153 0.1414 0.0652441 0.00288485 0.00083367 0.000166962 7.44064e-05 0 0 
344 0.0975784 0.801782 0.0902815 0.00639804 0.00288485 0.00083367 0.000166962 7.44064e-05 0 0 
345 0.285847 0.623441 0.0803692 0.00638291 0.00288485 0.00083367 0.000166962 7.44064e-05 0 0 
346 0.110587 0.82921 0.03795 0.015643 0.00528099 0.00116156 0.000167623 0 0 0 
347 0.569685 0.166315 0.252822 0.0072184 0.00288485 0.00083367 0.000166962 7.44064e-05 0 0 
348 0.64046 0.181696 0.0967676 0.015643 0.005281 0.0599851 0.000167623 0 0 0 
349 0.27903 0.614684 0.095943 0.00638298 0.00288485 0.00083367 0.000166962 7.44064e-05 0 0 
350 0.351402 0.492862 0.0277458 0.00639246 0.120466 0.000889532 0.000166962 7.44064e-05 0 0 
351 0.134407 0.781782 0.0559274 0.0173998 0.00909756 0.000553829 0.000277484 0 0.000554955 0 
352 0.576896 0.38886 0.0239019 0.0063829 0.00288485 0.00083367 0.000166962 7.44064e-05 0 0 
353 0.623158 0.34182 0.0246795 0.0063829 0.00288485 0.00083367 0.000166962 7.44064e-05 0 0 
354 0.229946 0.592141 0.155657 0.0156461 0.00528099 0.00116156 0.000167623 0 0 0 
355 0.428129 0.537891 0.023638 0.0063829 0.00288485 0.00083367 0.000166962 7.44064e-05 0 0 
356 0.0217663 0.758695 0.189906 0.018494 0.00966616 0.000588443 0.000294827 0 0.00058964 0 
357 0.238694 0.725375 0.0249416 0.00678183 0.00306515 0.000885775 0.000177397 7.90568e-05 0 0 
358 0.482869 0.447943 0.0671818 0.00127353 0.000534202 0.000150251 3.17841e-05 1.63792e-05 0 0 
359 0.176143 0.414292 0.398576 0.00678204 0.00306515 0.000885775 0.000177397 7.90568e-05 0 0 
360 0.0552874 0.818291 0.102777 0.0166208 0.00561105 0.00123416 0.0001781 0 0 0 
361 0.0511333 0.853159 0.0847186 0.00678185 0.00306515 0.000885775 0.000177397 7.90568e-05 0 0 
362 0.294143 0.669926 0.0249416 0.00678183 0.00306515 0.000885775 0.000177397 7.90568e-05 0 0 
363 0.107862 0.885459 0.00467345 0.00127353 0.000534202 0.000150251 3.17841e-05 1.63792e-05 0 0 
364 0.0511847 0.912858 0.0249677 0.00678183 0.00306515 0.000885775 0.000177397 7.90568e-05 0 0 
365 0.0511334 0.788205 0.149673 0.00678183 0.00306515 0.000885775 0.000177397 7.90568e-05 0 0 
366 0.0511333 0.912936 0.0249418 0.00678183 0.00306515 0.000885775 0.000177397 7.90568e-05 0 0 
367 0.0511333 0.912936 0.0249416 0.00678183 0.00306515 0.000885775 0.000177397 7.90568e-05 0 0 
368 0.0624654 0.89035 0.0361955 0.00678183 0.00306515 0.000885775 0.000177397 7.90568e-05 0 0 
369 0.45358 0.539595 0.00481888 0.00127353 0.000534202 0.000150251 3.17841e-05 1.63792e-05 0 0 
370 0.294437 0.580634 0.122918 0.0012788 0.000534202 0.000150251 3.17841e-05 1.63792e-05 0 0 
371 0.113657 0.850405 0.0249486 0.00678183 0.00306515 0.000885775 0.000177397 7.90568e-05 0 0 
372 0.0548411 0.909057 0.0251124 0.00678183 0.00306515 0.000885775 0.000177397 7.90568e-05 0 0 
373 0.226821 0.737248 0.0249416 0.00678183 0.00306515 0.000885775 0.000177397 7.90568e-05 0 0 
374 0.2946 0.636221 0.0671733 0.00127353 0.000534202 0.000150251 3.17841e-05 1.63792e-05 0 0 
375 0.23877 0.725115 0.0251257 0.00678183 0.00306515 0.000885775 0.000177397 7.90568e-05 0 0 
376 0.113633 0.850435 0.0249422 0.00678183 0.00306515 0.000885775 0.000177397 7.90568e-05 0 0 
377 0.176133 0.600572 0.212285 0.00680286 0.00306515 0.000885775 0.000177397 7.90568e-05 0 0 
378 0.295361 0.697959 0.00467354 0.00127353 0.000534202 0.000150251 3.17841e-05 1.63792e-05 0 0 
379 0.232863 0.760456 0.00467427 0.00127353 0.000534202 0.000150251 3.17841e-05 1.63792e-05 0 0 
380 0.0511333 0.887316 0.0505619 0.00678183 0.00306515 0.000885775 0.000177397 7.90568e-05 0 0 
381 0.238632 0.725437 0.0249416 0.00678183 0.00306515 0.000885775 0.000177397 7.90568e-05 0 0 
382 0.0538641 0.909494 0.0256529 0.00678183 0.00306515 0.000885775 0.000177397 7.90568e-05 0 0 
383 0.0634528 0.900417 0.0251415 0.00678183 0.00306515 0.000885775 0.000177397 7.90568e-05 0 0 
384 0.242886 0.630276 0.103093 0.0167204 0.00561105 0.00123416 0.0001781 0 0 0 
385 0.008018 0.822146 0.135893 0.0187897 0.00906441 0.00491407 0.00117484 0 0 0 
386 0.238623 0.28819 0.462197 0.00678218 0.00306515 0.000885775 0.000177397 7.90568e-05 0 0 
387 0.0855788 0.750293 0.132527 0.0197198 0.0103106 0.000627673 0.000314482 0 0.000628949 0 
388 0.0189132 0.819473 0.130012 0.0197198 0.0103106 0.000627673 0.000314482 0 0.000628949 0 
389 0.254514 0.580191 0.152749 0.00805711 0.0032695 0.000944826 0.000189224 8.43273e-05 0 0 
390 0.121209 0.840465 0.0266045 0.00723396 0.0032695 0.000944826 0.000189224 8.43273e-05 0 0 
391 0.448385 0.14449 0.404985 0.00135843 0.000569815 0.000160267 3.39031e-05 1.74711e-05 0 0 
392 0.0545422 0.907075 0.0266614 0.00723396 0.0032695 0.000944826 0.000189224 8.43273e-05 0 0 
393 0.134341 0.680771 0.173162 0.00723758 0.0032695 0.000944826 0.000189224 8.43273e-05 0 0 
394 0.325623 0.206154 0.104679 0.240179 0.121847 0.00132899 0.000189973 0 0 0 
395 0.380558 0.477153 0.140148 0.00136006 0.000569815 0.000160267 3.39031e-05 1.74711e-05 0 0 
396 0.321201 0.506004 0.161073 0.00723471 0.0032695 0.000944826 0.000189224 8.43273e-05 0 0 
397 0.186618 0.775055 0.0266045 0.00723396 0.0032695 0.000944826 0.000189224 8.43273e-05 0 0 
398 0.0545422 0.907129 0.0266065 0.00723396 0.0032695 0.000944826 0.000189224 8.43273e-05 0 0 
399 0.0545422 0.907131 0.0266045 0.00723396 0.0032695 0.000944826 0.000189224 8.43273e-05 0 0 
400 0.0545423 0.84047 0.0932642 0.00723556 0.0032695 0.000944826 0.000189224 8.43273e-05 0 0 
401 0.0545422 0.907132 0.0266044 0.00723396 0.0032695 0.000944826 0.000189224 8.43273e-05 0 0 
402 0.192301 0.536871 0.113238 0.150098 0.00598512 0.00131644 0.000189973 0 0 0 
403 0.121208 0.840466 0.0266047 0.00723396 0.0032695 0.000944826 0.000189224 8.43273e-05 0 0 
404 0.121208 0.840064 0.0270068 0.00723396 0.0032695 0.000944826 0.000189224 8.43273e-05 0 0 
405 0.17639 0.685627 0.126261 0.00723396 0.0032695 0.000944826 0.000189224 8.43273e-05 0 0 
406 0.205047 0.784648 0.0081653 0.00135843 0.000569815 0.000160267 3.39031e-05 1.74711e-05 0 0 
407 0.187918 0.773756 0.0266044 0.00723396 0.0032695 0.000944826 0.000189224 8.43273e-05 0 0 
408 0.383166 0.609698 0.00499615 0.00135843 0.000569815 0.000160267 3.39031e-05 1.74711e-05 0 0 
409 0.387803 0.505419 0.0950552 0.00723448 0.0032695 0.000944826 0.000189224 8.43273e-05 0 0 
410 0.187831 0.773843 0.0266044 0.00723396 0.0032695 0.000944826 0.000189224 8.43273e-05 0 0 
411 0.381702 0.611173 0.00498501 0.00135843 0.000569815 0.000160267 3.39031e-05 1.74711e-05 0 0 
412 0.254287 0.707253 0.026738 0.00723396 0.0032695 0.000944826 0.000189224 8.43273e-05 0 0 
413 0.0550572 0.840061 0.0931217 0.00727229 0.0032695 0.000944826 0.000189224 8.43273e-05 0 0 
414 0.0545426 0.840464 0.0932353 0.00727017 0.0032695 0.000944826 0.000189224 8.43273e-05 0 0 
415 0.0545422 0.509567 0.424168 0.0072348 0.0032695 0.000944826 0.000189224 8.43273e-05 0 0 
416 0.187875 0.363674 0.436729 0.00723402 0.0032695 0.000944826 0.000189224 8.43273e-05 0 0 
417 0.387832 0.320945 0.146186 0.139195 0.00462322 0.000944826 0.000189224 8.43273e-05 0 0 
418 0.0574439 0.902825 0.0280095 0.00723396 0.0032695 0.000944826 0.000189224 8.43273e-05 0 0 
419 0.059415 0.837225 0.0916243 0.00724809 0.0032695 0.000944826 0.000189224 8.43273e-05 0 0 
420 0.381305 0.607454 0.00910144 0.00135843 0.000569815 0.000160267 3.39031e-05 1.74711e-05 0 0 
421 0.0545548 0.84045 0.093273 0.00723396 0.0032695 0.000944826 0.000189224 8.43273e-05 0 0 
422 0.254541 0.707133 0.0266046 0.00723396 0.0032695 0.000944826 0.000189224 8.43273e-05 0 0 
423 0.121207 0.840466 0.0266048 0.00723396 0.0032695 0.000944826 0.000189224 8.43273e-05 0 0 
424 0.448397 0.544479 0.00498498 0.00135843 0.000569815 0.000160267 3.39031e-05 1.74711e-05 0 0 
425 0.315014 0.677862 0.00498502 0.00135843 0.000569815 0.000160267 3.39031e-05 1.74711e-05 0 0 
426 0.121229 0.840417 0.0266325 0.00723396 0.0032695 0.000944826 0.000189224 8.43273e-05 0 0 
427 0.257581 0.607644 0.109554 0.0177297 0.00598512 0.00131644 0.000189973 0 0 0 
428 0.224529 0.603841 0.15988 0.00726323 0.0032695 0.000944826 0.000189224 8.43273e-05 0 0 
429 0.190442 0.615177 0.169078 0.0178119 0.00598512 0.00131644 0.000189973 0 0 0 
430 0.0545424 0.840518 0.0928632 0.00758795 0.0032695 0.000944826 0.000189224 8.43273e-05 0 0 
431 0.12683 0.773491 0.0879572 0.00723396 0.0032695 0.000944826 0.000189224 8.43273e-05 0 0 
432 0.621639 0.298177 0.077892 0.00145562 0.000610516 0.000171715 3.63247e-05 1.87191e-05 0 0 
433 0.129911 0.75657 0.10096 0.00775082 0.00350303 0.00101231 0.00020274 9.03506e-05 0 0 
434 0.0584405 0.828934 0.0286383 0.0791773 0.00350448 0.00101231 0.00020274 9.03506e-05 0 0 
435 0.197891 0.72297 0.0768469 0.00145546 0.000610516 0.000171715 3.63247e-05 1.87191e-05 0 0 
436 0.467134 0.491796 0.0285114 0.00775067 0.00350303 0.00101231 0.00020274 9.03506e-05 0 0 
437 0.0584381 0.900498 0.0285047 0.00775067 0.00350303 0.00101231 0.00020274 9.03506e-05 0 0 
438 0.266124 0.517744 0.142384 0.00152176 0.0719998 0.000171721 3.63247e-05 1.87191e-05 0 0 
439 0.266097 0.726101 0.00550931 0.00145547 0.000610516 0.000171715 3.63247e-05 1.87191e-05 0 0 
440 0.337182 0.655182 0.0053426 0.00145547 0.000610516 0.000171715 3.63247e-05 1.87191e-05 0 0 
441 0.129866 0.829062 0.0285123 0.00775067 0.00350303 0.00101231 0.00020274 9.03506e-05 0 0 
442 0.0584381 0.830087 0.0989148 0.0077515 0.00350303 0.00101231 0.00020274 9.03506e-05 0 0 
443 0.0584381 0.829068 0.0285071 0.0791785 0.0035031 0.00101231 0.00020274 9.03506e-05 0 0 
444 0.200638 0.758292 0.0285108 0.00775067 0.00350303 0.00101231 0.00020274 9.03506e-05 0 0 
445 0.0584381 0.900498 0.0285047 0.00775067 0.00350303 0.00101231 0.00020274 9.03506e-05 0 0 
446 0.12327 0.869096 0.00534105 0.00145547 0.000610516 0.000171715 3.63247e-05 1.87191e-05 0 0 
447 0.0584381 0.900498 0.0285047 0.00775067 0.00350303 0.00101231 0.00020274 9.03506e-05 0 0 
448 0.0584381 0.900498 0.0285048 0.00775067 0.00350303 0.00101231 0.00020274 9.03506e-05 0 0 
449 0.0585133 0.831479 0.0974482 0.00775121 0.00350303 0.00101231 0.00020274 9.03506e-05 0 0 
450 0.194699 0.797667 0.00534106 0.00145546 0.000610516 0.000171715 3.63247e-05 1.87191e-05 0 0 
451 0.266122 0.654883 0.0767023 0.00145567 0.000610516 0.000171715 3.63247e-05 1.87191e-05 0 0 
452 0.0584919 0.899037 0.0299123 0.00775067 0.00350303 0.00101231 0.00020274 9.03506e-05 0 0 
453 0.619923 0.307454 0.0703296 0.00145559 0.000610516 0.000171715 3.63247e-05 1.87191e-05 0 0 
454 0.272726 0.686209 0.0285052 0.00775067 0.00350303 0.00101231 0.00020274 9.03506e-05 0 0 
455 0.203614 0.755322 0.0285049 0.00775067 0.00350303 0.00101231 0.00020274 9.03506e-05 0 0 
456 0.693441 0.227549 0.0767172 0.00145559 0.000610516 0.000171715 3.63247e-05 1.87191e-05 0 0 
457 0.0584383 0.830287 0.0987155 0.00775067 0.00350303 0.00101231 0.00020274 9.03506e-05 0 0 
458 0.268553 0.664284 0.064606 0.00172004 0.000610516 0.000171715 3.63247e-05 1.87191e-05 0 0 
459 0.0584382 0.900494 0.028509 0.00775067 0.00350303 0.00101231 0.00020274 9.03506e-05 0 0 
460 0.265931 0.594996 0.136776 0.0014607 0.000610516 0.000171715 3.63247e-05 1.87191e-05 0 0 
461 0.337555 0.512828 0.147323 0.00145564 0.000610516 0.000171715 3.63247e-05 1.87191e-05 0 0 
462 0.128326 0.830566 0.0285485 0.00775067 0.00350303 0.00101231 0.00020274 9.03506e-05 0 0 
463 0.129573 0.829271 0.0285974 0.00775067 0.00350303 0.00101231 0.00020274 9.03506e-05 0 0 
464 0.129844 0.616661 0.167274 0.0103555 0.0745408 0.00103221 0.00020274 9.03506e-05 0 0 
465 0.129859 0.828813 0.0287685 0.00775067 0.00350303 0.00101231 0.00020274 9.03506e-05 0 0 
466 0.0584381 0.899773 0.0292294 0.00775067 0.00350303 0.00101231 0.00020274 9.03506e-05 0 0 
467 0.134228 0.503816 0.264809 0.089105 0.00642721 0.00141047 0.000203543 0 0 0 
468 0.0585824 0.82805 0.0293998 0.0791591 0.00350341 0.00101231 0.00020274 9.03506e-05 0 0 
469 0.272726 0.68621 0.0285048 0.00775067 0.00350303 0.00101231 0.00020274 9.03506e-05 0 0 
470 0.0584381 0.90049 0.0285131 0.00775067 0.00350303 0.00101231 0.00020274 9.03506e-05 0 0 
471 0.199019 0.609563 0.178859 0.00775067 0.00350303 0.00101231 0.00020274 9.03506e-05 0 0 
472 0.129827 0.829108 0.0285052 0.00775067 0.00350303 0.00101231 0.00020274 9.03506e-05 0 0 
473 0.12327 0.37376 0.429974 0.0721538 0.000615629 0.000171715 3.63247e-05 1.87191e-05 0 0 
474 0.126929 0.651381 0.126209 0.085978 0.00788892 0.00141047 0.000203543 0 0 0 
475 0.126706 0.736676 0.109596 0.0189953 0.00641263 0.00141047 0.000203543 0 0 0 
476 0.333476 0.542427 0.0401113 0.0791765 0.00350401 0.00101231 0.00020274 9.03506e-05 0 0 
477 0.0602732 0.682894 0.244273 0.00775107 0.00350303 0.00101231 0.00020274 9.03506e-05 0 0 
478 0.558368 0.258111 0.170939 0.00777394 0.00350303 0.00101231 0.00020274 9.03506e-05 0 0 
479 0.0218782 0.876245 0.0680186 0.0211284 0.011047 0.000672507 0.000336945 0 0.000673874 0 
480 0.216779 0.580998 0.188698 0.00834687 0.0037725 0.00109018 0.000218335 9.73007e-05 0 0 
481 0.139857 0.81592 0.0306974 0.00834687 0.0037725 0.00109018 0.000218335 9.73007e-05 0 0 
482 0.139862 0.815913 0.0306993 0.00834687 0.0037725 0.00109018 0.000218335 9.73007e-05 0 0 
483 0.216779 0.738424 0.0312713 0.00834687 0.0037725 0.00109018 0.000218335 9.73007e-05 0 0 
484 0.293712 0.662065 0.0306974 0.00834687 0.0037725 0.00109018 0.000218335 9.73007e-05 0 0 
485 0.140004 0.815759 0.0307116 0.00834687 0.0037725 0.00109018 0.000218335 9.73007e-05 0 0 
486 0.0629383 0.892839 0.0306978 0.00834687 0.0037725 0.00109018 0.000218335 9.73007e-05 0 0 
487 0.0629333 0.665547 0.257992 0.00834937 0.0037725 0.00109018 0.000218335 9.73007e-05 0 0 
488 0.384382 0.571102 0.0309912 0.00834687 0.0037725 0.00109018 0.000218335 9.73007e-05 0 0 
489 0.0629343 0.739001 0.184535 0.00835161 0.0037725 0.00109018 0.000218335 9.73007e-05 0 0 
490 0.216764 0.739013 0.0306975 0.00834687 0.0037725 0.00109018 0.000218335 9.73007e-05 0 0 
491 0.291117 0.587097 0.108261 0.00834687 0.0037725 0.00109018 0.000218335 9.73007e-05 0 0 
492 0.0629339 0.815848 0.107693 0.00834688 0.0037725 0.00109018 0.000218335 9.73007e-05 0 0 
493 0.678269 0.200585 0.0306973 0.0851897 0.00385268 0.00109018 0.000218335 9.73007e-05 0 0 
494 0.364395 0.627384 0.00575227 0.00156742 0.000657479 0.000184924 3.91189e-05 2.0159e-05 0 0 
495 0.21678 0.508231 0.261465 0.00834689 0.0037725 0.00109018 0.000218335 9.73007e-05 0 0 
496 0.0629334 0.892839 0.0307024 0.00834687 0.0037725 0.00109018 0.000218335 9.73007e-05 0 0 
497 0.139803 0.815975 0.0306975 0.00834687 0.0037725 0.00109018 0.000218335 9.73007e-05 0 0 
498 0.139855 0.815922 0.0306977 0.00834687 0.0037725 0.00109018 0.000218335 9.73007e-05 0 0 
499 0.0629333 0.892842 0.0306996 0.00834687 0.0037725 0.00109018 0.000218335 9.73007e-05 0 0 
500 0.0629356 0.801379 0.0452371 0.00834687 0.0806933 0.00109245 0.000218335 9.73007e-05 0 0 
501 0.139899 0.584815 0.261744 0.00836361 0.0037725 0.00109018 0.000218335 9.73007e-05 0 0 
502 0.0629336 0.815921 0.107621 0.00834693 0.0037725 0.00109018 0.000218335 9.73007e-05 0 0 
503 0.139856 0.208751 0.637867 0.0083471 0.0037725 0.00109018 0.000218335 9.73007e-05 0 0 
504 0.134137 0.703635 0.00973483 0.151592 0.000657479 0.000184924 3.91189e-05 2.0159e-05 0 0 
505 0.0629333 0.815929 0.107612 0.00834687 0.0037725 0.00109018 0.000218335 9.73007e-05 0 0 
506 0.158117 0.756677 0.0827365 0.00156744 0.000657479 0.000184924 3.91189e-05 2.0159e-05 0 0 
507 0.137759 0.743186 0.105529 0.00834731 0.0037725 0.00109018 0.000218335 9.73007e-05 0 0 
508 0.0629334 0.892836 0.0307051 0.00834687 0.0037725 0.00109018 0.000218335 9.73007e-05 0 0 
509 0.481874 0.329464 0.152199 0.0227538 0.0118968 0.000724238 0.000362864 0 0.000725711 0 
510 0.216694 0.739083 0.0306974 0.00834687 0.0037725 0.00109018 0.000218335 9.73007e-05 0 0 
511 0.0629334 0.892844 0.0306974 0.00834687 0.0037725 0.00109018 0.000218335 9.73007e-05 0 0 
512 0.293702 0.662069 0.0307037 0.00834687 0.0037725 0.00109018 0.000218335 9.73007e-05 0 0 
513 0.139313 0.816447 0.0307149 0.00834687 0.0037725 0.00109018 0.000218335 9.73007e-05 0 0 
514 0.0721057 0.806748 0.107621 0.00834687 0.0037725 0.00109018 0.000218335 9.73007e-05 0 0 
515 0.132757 0.856405 0.00836904 0.00156742 0.000657479 0.000184924 3.91189e-05 2.0159e-05 0 0 
516 0.215624 0.654853 0.115998 0.00834687 0.0037725 0.00109018 0.000218335 9.73007e-05 0 0 
517 0.511941 0.403004 0.0825706 0.00158347 0.000657479 0.000184924 3.91189e-05 2.0159e-05 0 0 
518 0.132754 0.859022 0.00575497 0.00156742 0.000657479 0.000184924 3.91189e-05 2.0159e-05 0 0 
519 0.139855 0.815923 0.0306974 0.00834687 0.0037725 0.00109018 0.000218335 9.73007e-05 0 0 
520 0.0629333 0.585131 0.184565 0.156619 0.00934541 0.00109018 0.000218335 9.73007e-05 0 0 
521 0.216626 0.585469 0.18438 0.00834687 0.0037725 0.00109018 0.000218335 9.73007e-05 0 0 
522 0.0629334 0.892808 0.0307333 0.00834687 0.0037725 0.00109018 0.000218335 9.73007e-05 0 0 
523 0.51732 0.320714 0.159496 0.00156747 0.000657479 0.000184924 3.91189e-05 2.0159e-05 0 0 
524 0.134187 0.821589 0.030698 0.00834687 0.0037725 0.00109018 0.000218335 9.73007e-05 0 0 
525 0.0664429 0.811615 0.108144 0.0086196 0.0037725 0.00109018 0.000218335 9.73007e-05 0 0 
526 0.524604 0.430539 0.0313315 0.00834687 0.0037725 0.00109018 0.000218335 9.73007e-05 0 0 
527 0.363624 0.62815 0.00575635 0.00156742 0.000657479 0.000184924 3.91189e-05 2.0159e-05 0 0 
528 0.263209 0.538755 0.184504 0.00835345 0.0037725 0.00109018 0.000218335 9.73007e-05 0 0 
529 0.289166 0.62569 0.00867759 0.0752798 0.000942846 0.000184924 3.91189e-05 2.0159e-05 0 0 
530 0.0680615 0.622445 0.0496236 0.0204562 0.00690906 0.23227 0.00023466 0 0 0 
531 0.508755 0.48271 0.00606553 0.00156742 0.000657479 0.000184924 3.91189e-05 2.0159e-05 0 0 
532 0.132753 0.859026 0.00575191 0.00156742 0.000657479 0.000184924 3.91189e-05 2.0159e-05 0 0 
533 0.0629333 0.815922 0.107619 0.00834687 0.0037725 0.00109018 0.000218335 9.73007e-05 0 0 
534 0.293496 0.662276 0.0307024 0.00834687 0.0037725 0.00109018 0.000218335 9.73007e-05 0 0 
535 0.136327 0.81945 0.0306973 0.00834687 0.0037725 0.00109018 0.000218335 9.73007e-05 0 0 
536 0.0629334 0.892844 0.0306975 0.00834687 0.0037725 0.00109018 0.000218335 9.73007e-05 0 0 
537 0.364497 0.510871 0.0457388 0.0737154 0.0037725 0.00109018 0.000218335 9.73007e-05 0 0 
538 0.07226 0.730363 0.183804 0.00839385 0.0037725 0.00109018 0.000218335 9.73007e-05 0 0 
539 0.0629334 0.771951 0.151591 0.00834687 0.0037725 0.00109018 0.000218335 9.73007e-05 0 0 
540 0.0629335 0.892844 0.0306974 0.00834687 0.0037725 0.00109018 0.000218335 9.73007e-05 0 0 
541 0.021823 0.868619 0.0730948 0.0227536 0.0118968 0.000724238 0.000362864 0 0.000725711 0 
542 0.0280095 0.703788 0.154901 0.099399 0.0120895 0.000724238 0.000362864 0 0.000725711 0 
543 0.299141 0.556795 0.114865 0.0205557 0.00690591 0.00151897 0.0002192 0 0 0 
544 0.368267 0.545624 0.0835861 0.00162169 0.000657479 0.000184924 3.91189e-05 2.0159e-05 0 0 
545 0.3773 0.543741 0.0498581 0.0204562 0.00690591 0.00151897 0.0002192 0 0 0 
546 0.654651 0.265186 0.0775473 0.0017143 0.000657479 0.000184924 3.91189e-05 2.0159e-05 0 0 
547 0.223473 0.563278 0.127484 0.0772735 0.0069693 0.00118103 0.00023653 0.000105409 0 0 
548 0.0737271 0.590126 0.138306 0.188431 0.00752692 0.00164555 0.000237466 0 0 0 
549 0.0681778 0.801829 0.115341 0.0090425 0.00408687 0.00118103 0.00023653 0.000105409 0 0 
550 0.477149 0.513945 0.00623122 0.00169804 0.000712269 0.000200334 4.23788e-05 2.18389e-05 0 0 
551 0.0681997 0.883474 0.0336736 0.00904244 0.00408687 0.00118103 0.00023653 0.000105409 0 0 
552 0.318141 0.633951 0.0332556 0.00904245 0.00408687 0.00118103 0.00023653 0.000105409 0 0 
553 0.415924 0.414714 0.0658295 0.0913295 0.0103192 0.00164555 0.000237466 0 0 0 
554 0.0681777 0.883914 0.0332558 0.00904244 0.00408687 0.00118103 0.00023653 0.000105409 0 0 
555 0.0681778 0.883788 0.0333823 0.00904244 0.00408687 0.00118103 0.00023653 0.000105409 0 0 
556 0.0737163 0.341005 0.553752 0.0221615 0.00748141 0.00164555 0.000237466 0 0 0 
557 0.151511 0.633944 0.199893 0.00904245 0.00408687 0.00118103 0.00023653 0.000105409 0 0 
558 0.234833 0.717211 0.0333037 0.00904244 0.00408687 0.00118103 0.00023653 0.000105409 0 0 
559 0.151511 0.800581 0.0332557 0.00904244 0.00408687 0.00118103 0.00023653 0.000105409 0 0 
560 0.151492 0.772479 0.0613767 0.00904244 0.00408687 0.00118103 0.00023653 0.000105409 0 0 
561 0.0681779 0.883913 0.0332571 0.00904245 0.00408687 0.00118103 0.00023653 0.000105409 0 0 
562 0.234806 0.633856 0.116686 0.00904244 0.00408687 0.00118103 0.00023653 0.000105409 0 0 
563 0.151511 0.715869 0.117967 0.00904245 0.00408687 0.00118103 0.00023653 0.000105409 0 0 
564 0.224675 0.683057 0.0895308 0.00175975 0.000712269 0.000200334 4.23788e-05 2.18389e-05 0 0 
565 0.310482 0.680612 0.00623122 0.00169804 0.000712269 0.000200334 4.23788e-05 2.18389e-05 0 0 
566 0.0681778 0.800581 0.11502 0.0106115 0.00408687 0.00118103 0.00023653 0.000105409 0 0 
567 0.235003 0.717089 0.0332557 0.00904245 0.00408687 0.00118103 0.00023653 0.000105409 0 0 
568 0.0681778 0.883914 0.0332555 0.00904244 0.00408687 0.00118103 0.00023653 0.000105409 0 0 
569 0.0681778 0.883909 0.0332605 0.00904244 0.00408687 0.00118103 0.00023653 0.000105409 0 0 
570 0.0681779 0.291563 0.625607 0.00904252 0.00408687 0.00118103 0.00023653 0.000105409 0 0 
571 0.402909 0.587213 0.00720339 0.00169804 0.000712269 0.000200334 4.23788e-05 2.18389e-05 0 0 
572 0.337329 0.614678 0.0333409 0.00904244 0.00408687 0.00118103 0.00023653 0.000105409 0 0 
573 0.393898 0.508153 0.0952716 0.00170051 0.000712269 0.000200334 4.23788e-05 2.18389e-05 0 0 
574 0.144082 0.847011 0.00623251 0.00169804 0.000712269 0.000200334 4.23788e-05 2.18389e-05 0 0 
575 0.15655 0.664005 0.14792 0.0221609 0.0074814 0.00164555 0.000237466 0 0 0 
576 0.0681782 0.799701 0.117468 0.00904246 0.00408687 0.00118103 0.00023653 0.000105409 0 0 
577 0.143815 0.847278 0.00623123 0.00169804 0.000712269 0.000200334 4.23788e-05 2.18389e-05 0 0 
578 0.0681778 0.718174 0.198994 0.00904499 0.00408687 0.00118103 0.00023653 0.000105409 0 0 
579 0.318327 0.633764 0.0332569 0.00904245 0.00408687 0.00118103 0.00023653 0.000105409 0 0 
580 0.0681778 0.883914 0.0332556 0.00904244 0.00408687 0.00118103 0.00023653 0.000105409 0 0 
581 0.0681779 0.883914 0.0332555 0.00904244 0.00408687 0.00118103 0.00023653 0.000105409 0 0 
582 0.310484 0.589678 0.0971637 0.00169804 0.000712269 0.000200334 4.23788e-05 2.18389e-05 0 0 
583 0.234841 0.716927 0.0335798 0.00904245 0.00408687 0.00118103 0.00023653 0.000105409 0 0 
584 0.398624 0.552728 0.0339962 0.00904245 0.00408687 0.00118103 0.00023653 0.000105409 0 0 
585 0.068179 0.635106 0.282062 0.00904318 0.00408687 0.00118103 0.00023653 0.000105409 0 0 
586 0.232117 0.556426 0.196805 0.00904254 0.00408687 0.00118103 0.00023653 0.000105409 0 0 
587 0.228894 0.723199 0.0332554 0.00904245 0.00408687 0.00118103 0.00023653 0.000105409 0 0 
588 0.167827 0.784011 0.0335098 0.00904244 0.00408687 0.00118103 0.00023653 0.000105409 0 0 
589 0.0738084 0.757456 0.0538767 0.0221627 0.0908127 0.00164576 0.000237466 0 0 0 
590 0.0681778 0.883915 0.0332555 0.00904245 0.00408687 0.00118103 0.00023653 0.000105409 0 0 
591 0.0681777 0.217252 0.699917 0.00904251 0.00408687 0.00118103 0.00023653 0.000105409 0 0 
592 0.310093 0.681001 0.00623128 0.00169804 0.000712269 0.000200334 4.23788e-05 2.18389e-05 0 0 
593 0.527299 0.335615 0.0852075 0.0374297 0.011889 0.00255995 0 0 0 0 
594 0.151511 0.800581 0.0332555 0.00904244 0.00408687 0.00118103 0.00023653 0.000105409 0 0 
595 0.234836 0.717256 0.0332555 0.00904245 0.00408687 0.00118103 0.00023653 0.000105409 0 0 
596 0.0681778 0.883914 0.0332557 0.00904245 0.00408687 0.00118103 0.00023653 0.000105409 0 0 
597 0.323342 0.544816 0.117189 0.00904244 0.00408687 0.00118103 0.00023653 0.000105409 0 0 
598 0.318209 0.550548 0.0332578 0.00904517 0.0873856 0.00121291 0.00023653 0.000105409 0 0 
599 0.151391 0.800701 0.0332563 0.00904244 0.00408687 0.00118103 0.00023653 0.000105409 0 0 
600 0.310486 0.677955 0.00888437 0.00169804 0.000712269 0.000200334 4.23788e-05 2.18389e-05 0 0 
601 0.39364 0.597454 0.00623123 0.00169804 0.000712269 0.000200334 4.23788e-05 2.18389e-05 0 0 
602 0.068178 0.800487 0.0334431 0.0922817 0.0040871 0.00118103 0.00023653 0.000105409 0 0 
603 0.408447 0.506272 0.0537555 0.0221609 0.0074814 0.00164555 0.000237466 0 0 0 
604 0.151511 0.217248 0.0332644 0.592337 0.00411637 0.00118103 0.00023653 0.000105409 0 0 
605 0.0236415 0.774309 0.0803349 0.10686 0.0128902 0.000784591 0.000393103 0 0.000786187 0 
606 0.0273334 0.671766 0.249022 0.0374297 0.011889 0.00255995 0 0 0 0 
607 0.0681803 0.830781 0.0863863 0.00904279 0.00408687 0.00118103 0.00023653 0.000105409 0 0 
608 0.240381 0.674312 0.0537813 0.0221609 0.0074814 0.00164555 0.000237466 0 0 0 
609 0.157708 0.757004 0.0537629 0.0221609 0.00748141 0.00164555 0.000237466 0 0 0 
610 0.36067 0.337908 0.249539 0.0374339 0.011889 0.00255995 0 0 0 0 
611 0.010691 0.763521 0.180531 0.0250522 0.0120859 0.00655209 0.00156645 0 0 0 
612 0.240382 0.674312 0.0537798 0.0221609 0.00748141 0.00164555 0.000237466 0 0 0 
613 0.23482 0.717272 0.0332556 0.00904244 0.00408687 0.00118103 0.00023653 0.000105409 0 0 
614 0.0273334 0.338015 0.333082 0.287073 0.0119364 0.00255995 0 0 0 0 
615 0.338707 0.651577 0.0067977 0.00185241 0.000777021 0.000218547 4.62315e-05 2.38243e-05 0 0 
616 0.074381 0.692429 0.2172 0.00986982 0.0044584 0.0012884 0.000258033 0.000114992 0 0 
617 0.0804196 0.553966 0.331186 0.0242127 0.00816153 0.00179514 0.000259054 0 0 0 
618 0.0826207 0.865074 0.0363213 0.00986448 0.0044584 0.0012884 0.000258033 0.000114992 0 0 
619 0.294117 0.485514 0.177042 0.0271252 0.0140599 0.000855918 0.000428839 0 0.000857658 0 
620 0.0257908 0.844736 0.08638 0.0268907 0.0140599 0.000855918 0.000428839 0 0.000857658 0 
621 0.0743758 0.5021 0.31663 0.00986456 0.0044584 0.00128841 0.0911663 0.000115762 0 0 
622 0.0743758 0.69171 0.217929 0.00986583 0.0044584 0.0012884 0.000258033 0.000114992 0 0 
623 0.0743757 0.873361 0.0362787 0.00986448 0.0044584 0.0012884 0.000258033 0.000114992 0 0 
624 0.165293 0.782444 0.0362787 0.00986449 0.0044584 0.0012884 0.000258033 0.000114992 0 0 
625 0.0743772 0.78043 0.129208 0.00986448 0.0044584 0.0012884 0.000258033 0.000114992 0 0 
626 0.0743757 0.873359 0.0362811 0.00986449 0.0044584 0.0012884 0.000258033 0.000114992 0 0 
627 0.0743757 0.873361 0.0362788 0.00986449 0.0044584 0.0012884 0.000258033 0.000114992 0 0 
628 0.165285 0.782452 0.0362787 0.00986448 0.0044584 0.0012884 0.000258033 0.000114992 0 0 
629 0.0743757 0.691364 0.218277 0.00986449 0.0044584 0.0012884 0.000258033 0.000114992 0 0 
630 0.16532 0.687057 0.131639 0.00986472 0.0044584 0.0012884 0.000258033 0.000114992 0 0 
631 0.429115 0.384261 0.183707 0.00185244 0.000777021 0.000218547 4.62315e-05 2.38243e-05 0 0 
632 0.165287 0.691544 0.127185 0.0098646 0.0044584 0.0012884 0.000258033 0.000114992 0 0 
633 0.338717 0.560647 0.0977008 0.00186957 0.000777021 0.000218547 4.62315e-05 2.38243e-05 0 0 
634 0.0743758 0.872341 0.0372988 0.00986449 0.0044584 0.0012884 0.000258033 0.000114992 0 0 
635 0.429363 0.469998 0.00681254 0.0927586 0.000778463 0.000218547 4.62315e-05 2.38243e-05 0 0 
636 0.074376 0.782658 0.126981 0.00986473 0.0044584 0.0012884 0.000258033 0.000114992 0 0 
637 0.0298182 0.186971 0.453895 0.222483 0.104037 0.00279517 0 0 0 0 
638 0.0743758 0.873361 0.0362789 0.00986448 0.0044584 0.0012884 0.000258033 0.000114992 0 0 
639 0.0804284 0.459759 0.42534 0.0242573 0.00816153 0.00179514 0.000259054 0 0 0 
640 0.0743786 0.873358 0.0362787 0.00986449 0.0044584 0.0012884 0.000258033 0.000114992 0 0 
641 0.347461 0.328766 0.216316 0.0104274 0.0056953 0.0909605 0.000258067 0.000114992 0 0 
642 0.419222 0.480154 0.0977064 0.00185241 0.000777021 0.000218547 4.62315e-05 2.38243e-05 0 0 
643 0.165285 0.782452 0.0362787 0.00986448 0.0044584 0.0012884 0.000258033 0.000114992 0 0 
644 0.164297 0.825987 0.00679804 0.00185241 0.000777021 0.000218547 4.62315e-05 2.38243e-05 0 0 
645 0.165283 0.782453 0.0362796 0.00986449 0.0044584 0.0012884 0.000258033 0.000114992 0 0 
646 0.17024 0.68295 0.0399575 0.100678 0.0045127 0.0012884 0.000258033 0.000114992 0 0 
647 0.0743757 0.781698 0.0370327 0.0098645 0.0953674 0.00128842 0.000258033 0.000114992 0 0 
648 0.0743757 0.873361 0.0362787 0.00986449 0.0044584 0.0012884 0.000258033 0.000114992 0 0 
649 0.601564 0.388599 0.00691871 0.00185241 0.000777021 0.000218546 4.62315e-05 2.38243e-05 0 0 
650 0.191167 0.665987 0.126862 0.00986464 0.0044584 0.0012884 0.000258033 0.000114992 0 0 
651 0.0743757 0.873331 0.0363088 0.00986448 0.0044584 0.0012884 0.000258033 0.000114992 0 0 
652 0.247799 0.742486 0.0067977 0.00185241 0.000777021 0.000218547 4.62315e-05 2.38243e-05 0 0 
653 0.0743757 0.873361 0.0362789 0.00986448 0.0044584 0.0012884 0.000258033 0.000114992 0 0 
654 0.0751693 0.872568 0.0362787 0.00986448 0.0044584 0.0012884 0.000258033 0.000114992 0 0 
655 0.0743774 0.87336 0.0362788 0.00986449 0.0044584 0.0012884 0.000258033 0.000114992 0 0 
656 0.0743757 0.873219 0.0364212 0.00986448 0.0044584 0.0012884 0.000258033 0.000114992 0 0 
657 0.437993 0.328465 0.217485 0.00993715 0.0044584 0.0012884 0.000258033 0.000114992 0 0 
658 0.0743762 0.873357 0.0362821 0.00986448 0.0044584 0.0012884 0.000258033 0.000114992 0 0 
659 0.111685 0.836051 0.0362802 0.00986448 0.0044584 0.0012884 0.000258033 0.000114992 0 0 
660 0.247799 0.651527 0.0977561 0.00185241 0.000777021 0.000218547 4.62315e-05 2.38243e-05 0 0 
661 0.0744906 0.782336 0.127189 0.00986448 0.0044584 0.0012884 0.000258033 0.000114992 0 0 
662 0.338708 0.651577 0.0067977 0.00185241 0.000777021 0.000218547 4.62315e-05 2.38243e-05 0 0 
663 0.0743757 0.873361 0.0362788 0.00986449 0.0044584 0.0012884 0.000258033 0.000114992 0 0 
664 0.0743759 0.783047 0.126592 0.0098646 0.0044584 0.0012884 0.000258033 0.000114992 0 0 
665 0.525966 0.421688 0.036361 0.00986449 0.0044584 0.0012884 0.000258033 0.000114992 0 0 
666 0.163589 0.601968 0.12966 0.0986608 0.00446118 0.0012884 0.000258033 0.000114992 0 0 
667 0.164332 0.689658 0.130025 0.00986456 0.0044584 0.0012884 0.000258033 0.000114992 0 0 
668 0.0804178 0.735616 0.149429 0.0243218 0.00816153 0.00179514 0.000259054 0 0 0 
669 0.0743757 0.873227 0.0364128 0.00986449 0.0044584 0.0012884 0.000258033 0.000114992 0 0 
670 0.165284 0.597003 0.221728 0.00986449 0.0044584 0.0012884 0.000258033 0.000114992 0 0 
671 0.116592 0.662099 0.178216 0.0268907 0.0140599 0.000855918 0.000428839 0 0.000857658 0 
672 0.152193 0.795542 0.0362806 0.00986448 0.0044584 0.0012884 0.000258033 0.000114992 0 0 
673 0.0743764 0.72232 0.1873 0.00988392 0.0044584 0.0012884 0.000258033 0.000114992 0 0 
674 0.0744437 0.783719 0.125852 0.00986489 0.0044584 0.0012884 0.000258033 0.000114992 0 0 
675 0.0743757 0.236998 0.672642 0.00986477 0.0044584 0.0012884 0.000258033 0.000114992 0 0 
676 0.0786431 0.687277 0.218096 0.00986451 0.0044584 0.0012884 0.000258033 0.000114992 0 0 
677 0.262244 0.553804 0.149561 0.0241759 0.00816153 0.00179514 0.000259054 0 0 0 
678 0.0769445 0.763974 0.143097 0.00986449 0.0044584 0.0012884 0.000258033 0.000114992 0 0 
679 0.165138 0.782599 0.0362789 0.00986448 0.0044584 0.0012884 0.000258033 0.000114992 0 0 
680 0.157577 0.743195 0.0963102 0.00185241 0.000777021 0.000218547 4.62315e-05 2.38243e-05 0 0 
681 0.0749792 0.872683 0.0363531 0.00986448 0.0044584 0.0012884 0.000258033 0.000114992 0 0 
682 0.0743758 0.873361 0.0362787 0.00986448 0.0044584 0.0012884 0.000258033 0.000114992 0 0 
683 0.1652 0.347687 0.471129 0.00986459 0.0044584 0.0012884 0.000258033 0.000114992 0 0 
684 0.256193 0.691544 0.0362787 0.00986448 0.0044584 0.0012884 0.000258033 0.000114992 0 0 
685 0.0298187 0.799484 0.114102 0.0408324 0.0129699 0.00279267 0 0 0 0 
686 0.0257908 0.753829 0.177287 0.0268907 0.0140599 0.000855918 0.000428839 0 0.000857658 0 
687 0.116624 0.21136 0.35591 0.194685 0.11927 0.000865175 0.000428839 0 0.000857658 0 
688 0.120725 0.641364 0.181315 0.0408339 0.0129699 0.00279267 0 0 0 0 
689 0.0804178 0.82655 0.058641 0.0241756 0.00816153 0.00179514 0.000259054 0 0 0 
690 0.0257971 0.844646 0.0864644 0.0268907 0.0140599 0.000855918 0.000428839 0 0.000857658 0 
691 0.0959427 0.301855 0.204918 0.3705 0.0214437 0.00534078 0 0 0 0 
692 0.0116625 0.197104 0.741863 0.0273299 0.0131846 0.00714774 0.00170886 0 0 0 
693 0.163575 0.693237 0.127203 0.00986471 0.0044584 0.0012884 0.000258033 0.000114992 0 0 
694 0.1167 0.279116 0.561091 0.0268907 0.0140599 0.000855918 0.000428839 0 0.000857658 0 
695 0.261779 0.645189 0.0586411 0.0241756 0.00816153 0.00179514 0.000259054 0 0 0 
696 0.443963 0.372094 0.0683305 0.105397 0.00816171 0.00179514 0.000259054 0 0 0 
697 0.338925 0.651052 0.00710543 0.00185241 0.000777021 0.000218547 4.62315e-05 2.38243e-05 0 0 
698 0.355505 0.532618 0.00866665 0.00206794 0.100824 0.000240593 5.08546e-05 2.62067e-05 0 0 
699 0.178239 0.705459 0.113047 0.00208235 0.000854723 0.000240401 5.08546e-05 2.62067e-05 0 0 
700 0.0284176 0.424968 0.499149 0.0296426 0.0154659 0.000941509 0.000471723 0 0.000943424 0 
701 0.271433 0.570144 0.140841 0.0108509 0.00490424 0.00141724 0.000283836 0.000126491 0 0 
702 0.0886162 0.808891 0.0646623 0.0265931 0.00897769 0.00197466 0.00028496 0 0 0 
703 0.0884595 0.609481 0.264229 0.0265931 0.00897769 0.00197466 0.00028496 0 0 0 
704 0.0818141 0.760778 0.139825 0.0108509 0.00490424 0.00141724 0.000283836 0.000126491 0 0 
705 0.272687 0.716626 0.00747747 0.00203765 0.000854723 0.000240401 5.08546e-05 2.62067e-05 0 0 
706 0.426163 0.36315 0.00747752 0.0499778 0.15158 0.00157492 5.08546e-05 2.62067e-05 0 0 
707 0.272447 0.716865 0.00747843 0.00203765 0.000854723 0.000240401 5.08546e-05 2.62067e-05 0 0 
708 0.0818144 0.660676 0.0411249 0.209653 0.0049043 0.00141724 0.000283836 0.000126491 0 0 
709 0.0283699 0.523674 0.369611 0.0605219 0.0154659 0.000941509 0.000471723 0 0.000943424 0 
710 0.0884595 0.6054 0.268183 0.0267201 0.00897769 0.00197466 0.00028496 0 0 0 
711 0.0818133 0.661178 0.139425 0.110852 0.00490424 0.00141724 0.000283836 0.000126491 0 0 
712 0.0818141 0.760696 0.139907 0.0108511 0.00490424 0.00141724 0.000283836 0.000126491 0 0 
713 0.272749 0.441032 0.28301 0.00203766 0.000854723 0.000240401 5.08546e-05 2.62067e-05 0 0 
714 0.181814 0.760697 0.0399072 0.0108509 0.00490424 0.00141724 0.000283836 0.000126491 0 0 
715 0.081815 0.860696 0.0399065 0.0108509 0.00490424 0.00141724 0.000283836 0.000126491 0 0 
716 0.207129 0.635389 0.139882 0.0108679 0.00490424 0.00141724 0.000283836 0.000126491 0 0 
717 0.118864 0.62325 0.240304 0.010851 0.00490424 0.00141724 0.000283836 0.000126491 0 0 
718 0.472579 0.516734 0.00747754 0.00203765 0.000854723 0.000240401 5.08546e-05 2.62067e-05 0 0 
719 0.181101 0.573 0.204666 0.0345011 0.00490424 0.00141724 0.000283836 0.000126491 0 0 
720 0.0829109 0.5596 0.339907 0.0108509 0.00490424 0.00141724 0.000283836 0.000126491 0 0 
721 0.0818136 0.860696 0.0399078 0.0108509 0.00490424 0.00141724 0.000283836 0.000126491 0 0 
722 0.180535 0.746542 0.0553394 0.0108509 0.00490424 0.00141724 0.000283836 0.000126491 0 0 
723 0.206569 0.735937 0.039911 0.0108509 0.00490424 0.00141724 0.000283836 0.000126491 0 0 
724 0.181048 0.550396 0.250967 0.0108565 0.00490424 0.00141724 0.000283836 0.000126491 0 0 
725 0.0884595 0.709177 0.164533 0.0265931 0.00897769 0.00197466 0.00028496 0 0 0 
726 0.181339 0.460531 0.138921 0.212392 0.00498874 0.00141724 0.000283836 0.000126491 0 0 
727 0.0818133 0.450768 0.449836 0.0108509 0.00490424 0.00141724 0.000283836 0.000126491 0 0 
728 0.0885193 0.607599 0.0679737 0.218826 0.0148226 0.00197466 0.00028496 0 0 0 
729 0.0818133 0.760695 0.139068 0.0116913 0.00490424 0.00141724 0.000283836 0.000126491 0 0 
730 0.0818136 0.760707 0.139897 0.0108509 0.00490424 0.00141724 0.000283836 0.000126491 0 0 
731 0.0818135 0.657884 0.242719 0.0108512 0.00490424 0.00141724 0.000283836 0.000126491 0 0 
732 0.488785 0.390802 0.117139 0.00210206 0.000854723 0.000240401 5.08546e-05 2.62067e-05 0 0 
733 0.27258 0.616732 0.107479 0.00203779 0.000854723 0.000240401 5.08546e-05 2.62067e-05 0 0 
734 0.181813 0.674748 0.125856 0.0108509 0.00490424 0.00141724 0.000283836 0.000126491 0 0 
735 0.0818133 0.860697 0.0399066 0.0108509 0.00490424 0.00141724 0.000283836 0.000126491 0 0 
736 0.38179 0.560608 0.0400195 0.0108509 0.00490424 0.00141724 0.000283836 0.000126491 0 0 
737 0.0818134 0.659095 0.241509 0.010851 0.00490424 0.00141724 0.000283836 0.000126491 0 0 
738 0.281806 0.560709 0.139902 0.0108516 0.00490424 0.00141724 0.000283836 0.000126491 0 0 
739 0.0818134 0.860697 0.0399067 0.0108509 0.00490424 0.00141724 0.000283836 0.000126491 0 0 
740 0.181813 0.760698 0.0399067 0.0108509 0.00490424 0.00141724 0.000283836 0.000126491 0 0 
741 0.0818166 0.860685 0.0399161 0.0108509 0.00490424 0.00141724 0.000283836 0.000126491 0 0 
742 0.190391 0.596476 0.17523 0.0266656 0.00897769 0.00197466 0.00028496 0 0 0 
743 0.0818133 0.860698 0.0399065 0.0108509 0.00490424 0.00141724 0.000283836 0.000126491 0 0 
744 0.471902 0.51741 0.00747755 0.00203765 0.000854723 0.000240401 5.08546e-05 2.62067e-05 0 0 
745 0.472545 0.416801 0.107445 0.00203769 0.000854723 0.000240401 5.08546e-05 2.62067e-05 0 0 
746 0.272579 0.716734 0.00747759 0.00203765 0.000854723 0.000240401 5.08546e-05 2.62067e-05 0 0 
747 0.180223 0.809055 0.00751248 0.00203765 0.000854723 0.000240401 5.08546e-05 2.62067e-05 0 0 
748 0.0818133 0.760629 0.0399746 0.0108515 0.1049 0.00142036 0.000283836 0.000126491 0 0 
749 0.0818174 0.76067 0.139426 0.0113544 0.00490424 0.00141724 0.000283836 0.000126491 0 0 
750 0.0818165 0.76072 0.139878 0.0108541 0.00490424 0.00141724 0.000283836 0.000126491 0 0 
751 0.381703 0.560808 0.0399066 0.0108509 0.00490424 0.00141724 0.000283836 0.000126491 0 0 
752 0.0818133 0.760697 0.139907 0.0108509 0.00490424 0.00141724 0.000283836 0.000126491 0 0 
753 0.0818133 0.860697 0.0399066 0.0108509 0.00490424 0.00141724 0.000283836 0.000126491 0 0 
754 0.0818135 0.760696 0.139907 0.0108509 0.00490424 0.00141724 0.000283836 0.000126491 0 0 
755 0.281779 0.636804 0.0638342 0.0108509 0.00490424 0.00141724 0.000283836 0.000126491 0 0 
756 0.0818133 0.860698 0.0399065 0.0108509 0.00490424 0.00141724 0.000283836 0.000126491 0 0 
757 0.0818307 0.854106 0.04648 0.0108509 0.00490424 0.00141724 0.000283836 0.000126491 0 0 
758 0.272508 0.516819 0.207446 0.00205426 0.000854723 0.000240401 5.08546e-05 2.62067e-05 0 0 
759 0.381554 0.460954 0.0401258 0.109778 0.00576082 0.00141724 0.000283836 0.000126491 0 0 
760 0.0818141 0.760811 0.139792 0.010851 0.00490424 0.00141724 0.000283836 0.000126491 0 0 
761 0.388084 0.308545 0.26554 0.0265937 0.00897769 0.00197466 0.00028496 0 0 0 
762 0.181814 0.660085 0.140518 0.0108514 0.00490424 0.00141724 0.000283836 0.000126491 0 0 
763 0.0832366 0.759268 0.0423005 0.108463 0.00490434 0.00141724 0.000283836 0.000126491 0 0 
764 0.188368 0.708533 0.0652688 0.0265931 0.00897769 0.00197466 0.00028496 0 0 0 
765 0.0885172 0.701271 0.172375 0.0265996 0.00897769 0.00197466 0.00028496 0 0 0 
766 0.172949 0.569443 0.240022 0.010855 0.00490424 0.00141724 0.000283836 0.000126491 0 0 
767 0.379666 0.362851 0.139852 0.0109703 0.104831 0.0014197 0.000283836 0.000126491 0 0 
768 0.181796 0.66053 0.0402983 0.0898858 0.0256625 0.00141724 0.000283836 0.000126491 0 0 
769 0.181813 0.760695 0.0399092 0.0108509 0.00490424 0.00141724 0.000283836 0.000126491 0 0 
770 0.0818134 0.774139 0.126464 0.0108512 0.00490424 0.00141724 0.000283836 0.000126491 0 0 
771 0.184023 0.758261 0.0401335 0.0108509 0.00490424 0.00141724 0.000283836 0.000126491 0 0 
772 0.181773 0.560649 0.140019 0.110828 0.00490424 0.00141724 0.000283836 0.000126491 0 0 
773 0.280677 0.661784 0.0399566 0.0108509 0.00490424 0.00141724 0.000283836 0.000126491 0 0 
774 0.0818133 0.760877 0.139727 0.0108509 0.00490424 0.00141724 0.000283836 0.000126491 0 0 
775 0.180901 0.761316 0.0401994 0.0108509 0.00490424 0.00141724 0.000283836 0.000126491 0 0 
776 0.0818133 0.860698 0.0399065 0.0108509 0.00490424 0.00141724 0.000283836 0.000126491 0 0 
777 0.0818142 0.860683 0.0399201 0.0108509 0.00490424 0.00141724 0.000283836 0.000126491 0 0 
778 0.172579 0.716731 0.107481 0.00203765 0.000854723 0.000240401 5.08546e-05 2.62067e-05 0 0 
779 0.0818133 0.760697 0.139907 0.0108509 0.00490424 0.00141724 0.000283836 0.000126491 0 0 
780 0.0818133 0.860697 0.0399066 0.0108509 0.00490424 0.00141724 0.000283836 0.000126491 0 0 
781 0.0818133 0.860689 0.0399148 0.0108509 0.00490424 0.00141724 0.000283836 0.000126491 0 0 
782 0.0818133 0.860693 0.0399107 0.0108509 0.00490424 0.00141724 0.000283836 0.000126491 0 0 
783 0.280837 0.561674 0.139906 0.0108511 0.00490424 0.00141724 0.000283836 0.000126491 0 0 
784 0.181813 0.760697 0.0399066 0.0108509 0.00490424 0.00141724 0.000283836 0.000126491 0 0 
785 0.172579 0.816734 0.007478 0.00203765 0.000854723 0.000240401 5.08546e-05 2.62067e-05 0 0 
786 0.472561 0.316752 0.00747846 0.10093 0.101961 0.000240409 5.08546e-05 2.62067e-05 0 0 
787 0.0821267 0.860378 0.039913 0.0108509 0.00490424 0.00141724 0.000283836 0.000126491 0 0 
788 0.0818137 0.760726 0.139877 0.0108511 0.00490424 0.00141724 0.000283836 0.000126491 0 0 
789 0.16029 0.737336 0.0645439 0.0265931 0.00897769 0.00197466 0.00028496 0 0 0 
790 0.0818136 0.662962 0.137642 0.0108515 0.104903 0.00141808 0.000283836 0.000126491 0 0 
791 0.280162 0.563608 0.138647 0.010851 0.00490424 0.00141724 0.000283836 0.000126491 0 0 
792 0.370877 0.518401 0.107513 0.00203765 0.000854723 0.000240401 5.08546e-05 2.62067e-05 0 0 
793 0.172587 0.816718 0.00748569 0.00203765 0.000854723 0.000240401 5.08546e-05 2.62067e-05 0 0 
794 0.485668 0.456812 0.0399372 0.0108509 0.00490424 0.00141724 0.000283836 0.000126491 0 0 
795 0.0818133 0.860695 0.0399086 0.0108509 0.00490424 0.00141724 0.000283836 0.000126491 0 0 
796 0.0818133 0.751493 0.149098 0.0108633 0.00490424 0.00141724 0.000283836 0.000126491 0 0 
797 0.0833571 0.676324 0.222679 0.010908 0.00490424 0.00141724 0.000283836 0.000126491 0 0 
798 0.0818133 0.860697 0.0399069 0.0108509 0.00490424 0.00141724 0.000283836 0.000126491 0 0 
799 0.181799 0.560603 0.0400152 0.0121168 0.203633 0.00142283 0.000283836 0.000126491 0 0 
800 0.174071 0.722437 0.100282 0.00203776 0.000854723 0.000240401 5.08546e-05 2.62067e-05 0 0 
801 0.281813 0.260698 0.339907 0.11085 0.00490424 0.00141724 0.000283836 0.000126491 0 0 
802 0.272852 0.716458 0.00747936 0.00203765 0.000854723 0.000240401 5.08546e-05 2.62067e-05 0 0 
803 0.0818133 0.860698 0.0399065 0.0108509 0.00490424 0.00141724 0.000283836 0.000126491 0 0 
804 0.0818135 0.860697 0.0399069 0.0108509 0.00490424 0.00141724 0.000283836 0.000126491 0 0 
805 0.311057 0.678255 0.00747791 0.00203765 0.000854723 0.000240401 5.08546e-05 2.62067e-05 0 0 
806 0.0884596 0.609318 0.165506 0.124604 0.00985357 0.00197466 0.00028496 0 0 0 
807 0.0818133 0.764054 0.136551 0.0108509 0.00490424 0.00141724 0.000283836 0.000126491 0 0 
808 0.275096 0.467087 0.240234 0.0108513 0.00490424 0.00141724 0.000283836 0.000126491 0 0 
809 0.0818607 0.460384 0.440173 0.0108509 0.00490424 0.00141724 0.000283836 0.000126491 0 0 
810 0.0820976 0.654759 0.245561 0.0108509 0.00490424 0.00141724 0.000283836 0.000126491 0 0 
811 0.28176 0.460742 0.239915 0.0108509 0.00490424 0.00141724 0.000283836 0.000126491 0 0 
812 0.0818133 0.360705 0.539899 0.0108509 0.00490424 0.00141724 0.000283836 0.000126491 0 0 
813 0.181812 0.546873 0.253728 0.010855 0.00490424 0.00141724 0.000283836 0.000126491 0 0 
814 0.128369 0.429801 0.394373 0.0296344 0.0154659 0.000941509 0.000471723 0 0.000943424 0 
815 0.0889831 0.608961 0.264049 0.02677 0.00897769 0.00197466 0.00028496 0 0 0 
816 0.0328064 0.805484 0.0994552 0.0449156 0.0142669 0.00307194 0 0 0 0 
817 0.0283699 0.732597 0.190623 0.0305879 0.0154659 0.000941509 0.000471723 0 0.000943424 0 
818 0.428338 0.514172 0.0399066 0.0108509 0.00490424 0.00141724 0.000283836 0.000126491 0 0 
819 0.188462 0.509201 0.0645067 0.226589 0.0089805 0.00197466 0.00028496 0 0 0 
820 0.088461 0.809203 0.0645051 0.0265931 0.00897769 0.00197466 0.00028496 0 0 0 
821 0.0283699 0.329212 0.586462 0.0381337 0.0154659 0.000941509 0.000471723 0 0.000943424 0 
822 0.0328 0.805492 0.0994538 0.0449156 0.0142669 0.00307194 0 0 0 0 
823 0.1328 0.610647 0.194298 0.0449157 0.0142669 0.00307194 0 0 0 0 
824 0.0283699 0.82921 0.0950178 0.0295797 0.0154659 0.000941509 0.000471723 0 0.000943424 0 
825 0.000391272 0.507319 0.420295 0.0317725 0.0402218 0 0 0 0 0 
826 0.290591 0.607073 0.0645051 0.0265931 0.00897769 0.00197466 0.00028496 0 0 0 
827 0.0284845 0.629065 0.295048 0.0295797 0.0154659 0.000941509 0.000471723 0 0.000943424 0 
828 0.0283699 0.729264 0.194963 0.0295808 0.0154659 0.000941509 0.000471723 0 0.000943424 0 
829 0.090572 0.751711 0.140133 0.0108516 0.00490424 0.00141724 0.000283836 0.000126491 0 0 
830 0.0818133 0.660697 0.0400274 0.110453 0.105179 0.00141979 0.000283836 0.000126491 0 0 
831 0.0328001 0.804222 0.100724 0.0449156 0.0142669 0.00307194 0 0 0 0 
832 0.0899924 0.705503 0.166674 0.0265931 0.00897769 0.00197466 0.00028496 0 0 0 
833 0.0328 0.805492 0.0994537 0.0449156 0.0142669 0.00307194 0 0 0 0 
834 0.488017 0.310112 0.164041 0.0265931 0.00897769 0.00197466 0.00028496 0 0 0 
835 0.669999 0.219313 0.00747747 0.00222282 0.10067 0.000240401 5.08546e-05 2.62067e-05 0 0 
836 0.0884595 0.809205 0.0645051 0.0265931 0.00897769 0.00197466 0.00028496 0 0 0 
837 0.281821 0.460692 0.239903 0.0108524 0.00490424 0.00141724 0.000283836 0.000126491 0 0 
838 0.579049 0.363438 0.0399305 0.0108509 0.00490424 0.00141724 0.000283836 0.000126491 0 0 
839 0.301396 0.494879 0.165894 0.0265934 0.00897769 0.00197466 0.00028496 0 0 0 
840 0.347393 0.64192 0.00747758 0.00203765 0.000854723 0.000240401 5.08546e-05 2.62067e-05 0 0 
841 0.172579 0.816734 0.00747747 0.00203765 0.000854723 0.000240401 5.08546e-05 2.62067e-05 0 0 
842 0.512916 0.304114 0.154399 0 0 0.0285714 0 0 0 0 
843 0.0909038 0.845219 0.044341 0.0120566 0.00544916 0.00157471 0.000315373 0.000140545 0 0 
844 0.558292 0.429834 0.00830843 0.00226406 0.000949692 0.000267112 5.65051e-05 2.91185e-05 0 0 
845 0.00043466 0.675177 0.242579 0.037119 0.0446908 0 0 0 0 0 
846 0.0983319 0.56574 0.293627 0.0298149 0.00997521 0.00219407 0.000316622 0 0 0 
847 0.194279 0.682734 0.00831228 0.113373 0.000949704 0.000267112 5.65051e-05 2.91185e-05 0 0 
848 0.0909039 0.734238 0.155322 0.0120566 0.00544916 0.00157471 0.000315373 0.000140545 0 0 
849 0.0982904 0.565809 0.182756 0.0295682 0.121066 0.00219413 0.000316622 0 0 0 
850 0.525087 0.352249 0.119097 0.00226406 0.000949692 0.000267112 5.65051e-05 2.91185e-05 0 0 
851 0.0982884 0.788005 0.0716724 0.0295479 0.00997521 0.00219407 0.000316622 0 0 0 
852 0.413976 0.543718 0.0387391 0.00226406 0.000949692 0.000267112 5.65051e-05 2.91185e-05 0 0 
853 0.201827 0.623185 0.155415 0.0120925 0.00544916 0.00157471 0.000315373 0.000140545 0 0 
854 0.307584 0.607872 0.0650082 0.0120566 0.00544916 0.00157471 0.000315373 0.000140545 0 0 
855 0.0926042 0.730581 0.157279 0.0120566 0.00544916 0.00157471 0.000315373 0.000140545 0 0 
856 0.0315221 0.563072 0.352737 0.0328664 0.0171843 0.00104612 0.000524137 0 0.00104825 0 
857 0.0315221 0.477419 0.438386 0.03287 0.0171843 0.00104612 0.000524137 0 0.00104825 0 
858 0.199708 0.514429 0.266327 0.012057 0.00544916 0.00157471 0.000315373 0.000140545 0 0 
859 0.597026 0.391099 0.0083088 0.00226406 0.000949692 0.000267112 5.65051e-05 2.91185e-05 0 0 
860 0.206117 0.670996 0.11932 0.00226461 0.000949692 0.000267112 5.65051e-05 2.91185e-05 0 0 
861 0.0909037 0.845219 0.0443407 0.0120566 0.00544916 0.00157471 0.000315373 0.000140545 0 0 
862 0.191918 0.789836 0.0146797 0.00226406 0.000949692 0.000267112 5.65051e-05 2.91185e-05 0 0 
863 0.0982883 0.787135 0.0725431 0.0295479 0.00997521 0.00219407 0.000316622 0 0 0 
864 0.105573 0.815875 0.0590152 0.0120566 0.00544916 0.00157471 0.000315373 0.000140545 0 0 
865 0.0909037 0.734113 0.155447 0.0120567 0.00544916 0.00157471 0.000315373 0.000140545 0 0 
866 0.0909037 0.624171 0.265386 0.0120595 0.00544916 0.00157471 0.000315373 0.000140545 0 0 
867 0.0909045 0.511882 0.377677 0.0120568 0.00544916 0.00157471 0.000315373 0.000140545 0 0 
868 0.201367 0.630293 0.148404 0.012457 0.00544916 0.00157471 0.000315373 0.000140545 0 0 
869 0.0909037 0.510752 0.378808 0.0120568 0.00544916 0.00157471 0.000315373 0.000140545 0 0 
870 0.0909037 0.845219 0.0443406 0.0120566 0.00544916 0.00157471 0.000315373 0.000140545 0 0 
871 0.0909037 0.845217 0.0443431 0.0120566 0.00544916 0.00157471 0.000315373 0.000140545 0 0 
872 0.199386 0.736708 0.0443695 0.0120566 0.00544916 0.00157471 0.000315373 0.000140545 0 0 
873 0.090904 0.845218 0.0443418 0.0120566 0.00544916 0.00157471 0.000315373 0.000140545 0 0 
874 0.320084 0.451032 0.18685 0.029548 0.00997521 0.00219407 0.000316622 0 0 0 
875 0.0909037 0.845075 0.0444849 0.0120566 0.00544916 0.00157471 0.000315373 0.000140545 0 0 
876 0.201962 0.734161 0.0443407 0.0120566 0.00544916 0.00157471 0.000315373 0.000140545 0 0 
877 0.0909037 0.845219 0.0443407 0.0120566 0.00544916 0.00157471 0.000315373 0.000140545 0 0 
878 0.090904 0.841289 0.048271 0.0120566 0.00544916 0.00157471 0.000315373 0.000140545 0 0 
879 0.0909073 0.734121 0.155435 0.0120567 0.00544916 0.00157471 0.000315373 0.000140545 0 0 
880 0.0909037 0.845219 0.0443406 0.0120566 0.00544916 0.00157471 0.000315373 0.000140545 0 0 
881 0.311796 0.513205 0.155107 0.0124118 0.00544916 0.00157471 0.000315373 0.000140545 0 0 
882 0.0910969 0.835357 0.0540095 0.0120566 0.00544916 0.00157471 0.000315373 0.000140545 0 0 
883 0.0909041 0.845218 0.0443412 0.0120566 0.00544916 0.00157471 0.000315373 0.000140545 0 0 
884 0.185185 0.750938 0.0443406 0.0120566 0.00544916 0.00157471 0.000315373 0.000140545 0 0 
885 0.305548 0.302345 0.362017 0.0226098 0.00544916 0.00157471 0.000315373 0.000140545 0 0 
886 0.090904 0.60886 0.0584866 0.123153 0.00560953 0.112532 0.000315636 0.000140545 0 0 
887 0.0909037 0.845116 0.0444437 0.0120566 0.00544916 0.00157471 0.000315373 0.000140545 0 0 
888 0.0909038 0.845219 0.0443409 0.0120566 0.00544916 0.00157471 0.000315373 0.000140545 0 0 
889 0.520299 0.415824 0.0443406 0.0120566 0.00544916 0.00157471 0.000315373 0.000140545 0 0 
890 0.320754 0.460902 0.176309 0.0295484 0.00997521 0.00219407 0.000316622 0 0 0 
891 0.297161 0.526012 0.046179 0.119674 0.00894282 0.00157471 0.000315373 0.000140545 0 0 
892 0.0909037 0.622978 0.266582 0.0120566 0.00544916 0.00157471 0.000315373 0.000140545 0 0 
893 0.0909037 0.511695 0.266755 0.123167 0.00544919 0.00157471 0.000315373 0.000140545 0 0 
894 0.0909037 0.52325 0.36631 0.0120573 0.00544916 0.00157471 0.000315373 0.000140545 0 0 
895 0.401123 0.312778 0.0448216 0.233733 0.00551347 0.00157471 0.000315373 0.000140545 0 0 
896 0.0982883 0.676893 0.182784 0.029548 0.00997521 0.00219407 0.000316622 0 0 0 
897 0.325678 0.449505 0.0716724 0.0331832 0.117451 0.00219408 0.000316622 0 0 0 
898 0.0909037 0.845219 0.0443406 0.0120566 0.00544916 0.00157471 0.000315373 0.000140545 0 0 
899 0.0909037 0.845219 0.0443406 0.0120566 0.00544916 0.00157471 0.000315373 0.000140545 0 0 
900 0.420565 0.515558 0.0443406 0.0120566 0.00544916 0.00157471 0.000315373 0.000140545 0 0 
901 0.0918485 0.733308 0.155306 0.0120581 0.00544916 0.00157471 0.000315373 0.000140545 0 0 
902 0.413912 0.574214 0.00830831 0.00226406 0.000949692 0.000267112 5.65051e-05 2.91185e-05 0 0 
903 0.0982888 0.78798 0.0716974 0.0295479 0.00997521 0.00219407 0.000316622 0 0 0 
904 0.299288 0.688836 0.00830991 0.00226406 0.000949692 0.000267112 5.65051e-05 2.91185e-05 0 0 
905 0.0909037 0.51045 0.379099 0.0120674 0.00544916 0.00157471 0.000315373 0.000140545 0 0 
906 0.322215 0.547877 0.0878744 0.0295479 0.00997521 0.00219407 0.000316622 0 0 0 
907 0.202015 0.622997 0.0443409 0.123166 0.00545038 0.00157471 0.000315373 0.000140545 0 0 
908 0.30297 0.574044 0.00830832 0.00226406 0.000960905 0.111367 5.66487e-05 2.91185e-05 0 0 
909 0.302574 0.574346 0.103251 0.0185269 0.000949692 0.000267112 5.65051e-05 2.91185e-05 0 0 
910 0.212929 0.775196 0.00830851 0.00226406 0.000949692 0.000267112 5.65051e-05 2.91185e-05 0 0 
911 0.19184 0.796285 0.0083083 0.00226406 0.000949692 0.000267112 5.65051e-05 2.91185e-05 0 0 
912 0.300244 0.635869 0.0443509 0.0120566 0.00544916 0.00157471 0.000315373 0.000140545 0 0 
913 0.0909845 0.734081 0.155259 0.012196 0.00544916 0.00157471 0.000315373 0.000140545 0 0 
914 0.0909037 0.845219 0.0443406 0.0120566 0.00544916 0.00157471 0.000315373 0.000140545 0 0 
915 0.0909037 0.622997 0.266563 0.0120566 0.00544916 0.00157471 0.000315373 0.000140545 0 0 
916 0.0909037 0.757749 0.131811 0.0120567 0.00544916 0.00157471 0.000315373 0.000140545 0 0 
917 0.201788 0.734335 0.0443406 0.0120566 0.00544916 0.00157471 0.000315373 0.000140545 0 0 
918 0.0909037 0.845219 0.0443406 0.0120566 0.00544916 0.00157471 0.000315373 0.000140545 0 0 
919 0.0909038 0.842836 0.0467243 0.0120566 0.00544916 0.00157471 0.000315373 0.000140545 0 0 
920 0.090906 0.808079 0.0814782 0.0120566 0.00544916 0.00157471 0.000315373 0.000140545 0 0 
921 0.0909037 0.845219 0.0443407 0.0120566 0.00544916 0.00157471 0.000315373 0.000140545 0 0 
922 0.201974 0.401141 0.377347 0.0120577 0.00544916 0.00157471 0.000315373 0.000140545 0 0 
923 0.202015 0.622967 0.155481 0.0120566 0.00544916 0.00157471 0.000315373 0.000140545 0 0 
924 0.0982883 0.232513 0.515992 0.140722 0.00997523 0.00219407 0.000316622 0 0 0 
925 0.0909037 0.732194 0.157364 0.012058 0.00544916 0.00157471 0.000315373 0.000140545 0 0 
926 0.0909041 0.734107 0.155452 0.0120571 0.00544916 0.00157471 0.000315373 0.000140545 0 0 
927 0.202282 0.375575 0.291484 0.0120765 0.116159 0.00196799 0.000315373 0.000140545 0 0 
928 0.302883 0.574101 0.119443 0.00227118 0.000949692 0.000267112 5.65051e-05 2.91185e-05 0 0 
929 0.302865 0.353089 0.340478 0.00226489 0.000949692 0.000267112 5.65051e-05 2.91185e-05 0 0 
930 0.0909038 0.399617 0.489943 0.0120568 0.00544916 0.00157471 0.000315373 0.000140545 0 0 
931 0.0909038 0.845219 0.0443411 0.0120566 0.00544916 0.00157471 0.000315373 0.000140545 0 0 
932 0.521941 0.247088 0.117612 0.112056 0.000950972 0.000267112 5.65051e-05 2.91185e-05 0 0 
933 0.0909038 0.845219 0.0443408 0.0120566 0.00544916 0.00157471 0.000315373 0.000140545 0 0 
934 0.0909037 0.845219 0.0443406 0.0120566 0.00544916 0.00157471 0.000315373 0.000140545 0 0 
935 0.0909054 0.734138 0.15542 0.0120566 0.00544916 0.00157471 0.000315373 0.000140545 0 0 
936 0.0909044 0.504725 0.162592 0.0125645 0.223529 0.00522863 0.000315373 0.000140545 0 0 
937 0.313126 0.622996 0.0443417 0.0120566 0.00544916 0.00157471 0.000315373 0.000140545 0 0 
938 0.191754 0.685272 0.119408 0.00226406 0.000949692 0.000267112 5.65051e-05 2.91185e-05 0 0 
939 0.0982883 0.564855 0.294753 0.0296171 0.00997521 0.00219407 0.000316622 0 0 0 
940 0.201996 0.420544 0.260991 0.108989 0.00544936 0.00157471 0.000315373 0.000140545 0 0 
941 0.097254 0.727758 0.155451 0.0120568 0.00544916 0.00157471 0.000315373 0.000140545 0 0 
942 0.0909812 0.623018 0.266464 0.0120566 0.00544916 0.00157471 0.000315373 0.000140545 0 0 
943 0.191966 0.79616 0.0083083 0.00226406 0.000949692 0.000267112 5.65051e-05 2.91185e-05 0 0 
944 0.308601 0.405301 0.155451 0.0120567 0.00544916 0.00465162 0.108344 0.000145837 0 0 
945 0.300003 0.423714 0.241167 0.0276361 0.00544916 0.00157471 0.000315373 0.000140545 0 0 
946 0.10979 0.606938 0.152795 0.119226 0.00922141 0.00157471 0.000315373 0.000140545 0 0 
947 0.20194 0.734049 0.0444749 0.0120566 0.00544916 0.00157471 0.000315373 0.000140545 0 0 
948 0.0909044 0.734137 0.155422 0.0120566 0.00544916 0.00157471 0.000315373 0.000140545 0 0 
949 0.0909947 0.613324 0.275751 0.0124508 0.00544916 0.00157471 0.000315373 0.000140545 0 0 
950 0.0909037 0.709853 0.179707 0.0120566 0.00544916 0.00157471 0.000315373 0.000140545 0 0 
951 0.0909037 0.73401 0.155549 0.0120569 0.00544916 0.00157471 0.000315373 0.000140545 0 0 
952 0.0909037 0.734088 0.044361 0.0120596 0.116554 0.00157762 0.000315373 0.000140545 0 0 
953 0.202014 0.413215 0.36519 0.0121009 0.00544916 0.00157471 0.000315373 0.000140545 0 0 
954 0.0909037 0.845219 0.0443408 0.0120566 0.00544916 0.00157471 0.000315373 0.000140545 0 0 
955 0.0909043 0.845219 0.0443407 0.0120566 0.00544916 0.00157471 0.000315373 0.000140545 0 0 
956 0.0909037 0.511886 0.266909 0.122821 0.00544916 0.00157471 0.000315373 0.000140545 0 0 
957 0.201577 0.734546 0.0443406 0.0120566 0.00544916 0.00157471 0.000315373 0.000140545 0 0 
958 0.0909037 0.845219 0.0443406 0.0120566 0.00544916 0.00157471 0.000315373 0.000140545 0 0 
959 0.209268 0.343765 0.404931 0.0295498 0.00997521 0.00219407 0.000316622 0 0 0 
960 0.303506 0.67177 0.0211578 0.00226406 0.000949692 0.000267112 5.65051e-05 2.91185e-05 0 0 
961 0.319192 0.616927 0.0443444 0.0120566 0.00544916 0.00157471 0.000315373 0.000140545 0 0 
962 0.312929 0.51133 0.0450933 0.0120566 0.00544916 0.00157471 0.000315373 0.111252 0 0 
963 0.0909194 0.845204 0.0443407 0.0120566 0.00544916 0.00157471 0.000315373 0.000140545 0 0 
964 0.302865 0.68526 0.00830834 0.00226406 0.000949692 0.000267112 5.65051e-05 2.91185e-05 0 0 
965 0.202017 0.622991 0.155454 0.0120587 0.00544916 0.00157471 0.000315373 0.000140545 0 0 
966 0.147556 0.340658 0.442615 0.0499062 0.0158521 0.00341326 0 0 0 0 
967 0.202013 0.504371 0.274078 0.0120579 0.00544916 0.00157471 0.000315373 0.000140545 0 0 
968 0.313496 0.509745 0.157223 0.0120567 0.00544916 0.00157471 0.000315373 0.000140545 0 0 
969 0.422522 0.565216 0.00869519 0.00226406 0.000949692 0.000267112 5.65051e-05 2.91185e-05 0 0 
970 0.0909037 0.618327 0.160124 0.123165 0.00544916 0.00157471 0.000315373 0.000140545 0 0 
971 0.0909037 0.400803 0.488757 0.0120566 0.00544916 0.00157471 0.000315373 0.000140545 0 0 
972 0.164412 0.771712 0.0443406 0.0120566 0.00544916 0.00157471 0.000315373 0.000140545 0 0 
973 0.0909037 0.845219 0.0443406 0.0120566 0.00544916 0.00157471 0.000315373 0.000140545 0 0 
974 0.0364446 0.780018 0.114366 0.0499062 0.0158521 0.00341326 0 0 0 0 
975 0.0909037 0.845211 0.0443489 0.0120566 0.00544916 0.00157471 0.000315373 0.000140545 0 0 
976 0.202009 0.519578 0.258876 0.012057 0.00544916 0.00157471 0.000315373 0.000140545 0 0 
977 0.142786 0.587931 0.216615 0.0328664 0.0171843 0.00104612 0.000524137 0 0.00104825 0 
978 0.202015 0.734108 0.0443406 0.0120566 0.00544916 0.00157471 0.000315373 0.000140545 0 0 
979 0.0909105 0.733991 0.155562 0.0120566 0.00544916 0.00157471 0.000315373 0.000140545 0 0 
980 0.329253 0.545359 0.121822 0.00226406 0.000949692 0.000267112 5.65051e-05 2.91185e-05 0 0 
981 0.209399 0.676782 0.0717848 0.0295479 0.00997521 0.00219407 0.000316622 0 0 0 
982 0.414688 0.462212 0.00842359 0.11155 0.00277452 0.000267112 5.65051e-05 2.91185e-05 0 0 
983 0.485788 0.502168 0.00847765 0.00226406 0.000949692 0.000267112 5.65051e-05 2.91185e-05 0 0 
984 0.201903 0.722537 0.0560243 0.0120566 0.00544916 0.00157471 0.000315373 0.000140545 0 0 
985 0.149721 0.676162 0.154504 0.0121331 0.00544916 0.00157471 0.000315373 0.000140545 0 0 
986 0.191754 0.796371 0.0083083 0.00226406 0.000949692 0.000267112 5.65051e-05 2.91185e-05 0 0 
987 0.0909037 0.511929 0.377631 0.0120573 0.00544916 0.00157471 0.000315373 0.000140545 0 0 
988 0.201989 0.71576 0.0627148 0.0120566 0.00544916 0.00157471 0.000315373 0.000140545 0 0 
989 0.0909037 0.511887 0.377666 0.0120641 0.00544916 0.00157471 0.000315373 0.000140545 0 0 
990 0.525087 0.351927 0.0083083 0.113375 0.000949692 0.000267112 5.65051e-05 2.91185e-05 0 0 
991 0.409098 0.319913 0.251312 0.0121972 0.00544916 0.00157471 0.000315373 0.000140545 0 0 
992 0.302847 0.685278 0.00830831 0.00226406 0.000949692 0.000267112 5.65051e-05 2.91185e-05 0 0 
993 0.0909037 0.845219 0.0443409 0.0120566 0.00544916 0.00157471 0.000315373 0.000140545 0 0 
994 0.313116 0.619118 0.0482303 0.0120566 0.00544916 0.00157471 0.000315373 0.000140545 0 0 
995 0.636198 0.351927 0.00830854 0.00226406 0.000949692 0.000267112 5.65051e-05 2.91185e-05 0 0 
996 0.413913 0.458451 0.12407 0.00226407 0.000949692 0.000267112 5.65051e-05 2.91185e-05 0 0 
997 0.302865 0.466876 0.226692 0.00226406 0.000949692 0.000267112 5.65051e-05 2.91185e-05 0 0 
998 0.0909037 0.734108 0.155452 0.0120566 0.00544916 0.00157471 0.000315373 0.000140545 0 0 
999 0.413976 0.463038 0.119419 0.00226444 0.000949692 0.000267112 5.65051e-05 2.91185e-05 0 0 
1000 0.19781 0.72157 0.0610839 0.0120566 0.00544916 0.00157471 0.000315373 0.000140545 0 0 
1001 0.313129 0.511887 0.155443 0.0120613 0.00544916 0.00157471 0.000315373 0.000140545 0 0 
1002 0.19542 0.792705 0.00830913 0.00226406 0.000949692 0.000267112 5.65051e-05 2.91185e-05 0 0 
1003 0.201958 0.734165 0.0443408 0.0120566 0.00544916 0.00157471 0.000315373 0.000140545 0 0 
1004 0.191778 0.760022 0.0446339 0.00226406 0.000949692 0.000267112 5.65051e-05 2.91185e-05 0 0 
1005 0.090937 0.845154 0.0443728 0.0120566 0.00544916 0.00157471 0.000315373 0.000140545 0 0 
1006 0.0982904 0.788004 0.0716723 0.0295479 0.00997521 0.00219407 0.000316622 0 0 0 
1007 0.0142542 0.240904 0.684489 0.0334133 0.0161145 0.00873613 0.0020886 0 0 0 
1008 0.0142544 0.796321 0.129083 0.0334028 0.0161145 0.00873613 0.0020886 0 0 0 
1009 0.0315221 0.365789 0.55002 0.0328664 0.0171843 0.00104612 0.000524137 0 0.00104825 0 
1010 0.0982883 0.448118 0.41156 0.029548 0.00997521 0.00219407 0.000316622 0 0 0 
1011 0.0142543 0.574377 0.35094 0.0334898 0.0161145 0.00873613 0.0020886 0 0 0 
1012 0.0378354 0.79722 0.112275 0.0328664 0.0171843 0.00104612 0.000524137 0 0.00104825 0 
1013 0.0364445 0.658772 0.235612 0.0499066 0.0158521 0.00341326 0 0 0 0 
1014 0.0142542 0.240904 0.367255 0.350647 0.0161145 0.00873613 0.0020886 0 0 0 
1015 0.0983312 0.7878 0.0718345 0.0295479 0.00997521 0.00219407 0.000316622 0 0 0 
1016 0.0315221 0.810234 0.105575 0.0328664 0.0171843 0.00104612 0.000524137 0 0.00104825 0 
1017 0.0315221 0.810233 0.105576 0.0328664 0.0171843 0.00104612 0.000524137 0 0.00104825 0 
1018 0.0142771 0.683096 0.242285 0.033403 0.0161145 0.00873613 0.0020886 0 0 0 
1019 0.201921 0.511857 0.0444785 0.234248 0.00546494 0.00157471 0.000315373 0.000140545 0 0 
1020 0.147416 0.564782 0.218628 0.0499088 0.0158521 0.00341326 0 0 0 0 
1021 0.209508 0.560318 0.188139 0.0295488 0.00997521 0.00219407 0.000316622 0 0 0 
1022 0.0909051 0.845218 0.0443406 0.0120566 0.00544916 0.00157471 0.000315373 0.000140545 0 0 
1023 0.0984565 0.621129 0.260226 0.0127084 0.00544916 0.00157471 0.000315373 0.000140545 0 0 
1024 0.376152 0.36955 0.201629 0.0328664 0.0171843 0.00104612 0.000524137 0 0.00104825 0 
1025 0.312455 0.401353 0.169915 0.108797 0.00544916 0.00157471 0.000315373 0.000140545 0 0 
1026 0.0982923 0.565228 0.18333 0.140625 0.0100139 0.00219407 0.000316622 0 0 0 
1027 0.201795 0.633841 0.144826 0.0120578 0.00544916 0.00157471 0.000315373 0.000140545 0 0 
1028 0.202015 0.289884 0.377163 0.0125011 0.116401 0.00157994 0.000315373 0.000140545 0 0 
1029 0.235574 0.511537 0.205601 0.0332414 0.0112221 0.00246832 0.0003562 0 0 0 
1030 0.102267 0.825871 0.0498836 0.0135637 0.00613031 0.00177155 0.000354795 0.000158114 0 0 
1031 0.24856 0.738081 0.00934683 0.00254706 0.0010684 0.000300501 6.35683e-05 3.27584e-05 0 0 
1032 0.110574 0.377692 0.342938 0.154732 0.0112385 0.00246832 0.0003562 0 0 0 
1033 0.235565 0.387346 0.329801 0.0332414 0.0112221 0.00246832 0.0003562 0 0 0 
1034 0.110574 0.631828 0.210309 0.0332414 0.0112221 0.00246832 0.0003562 0 0 0 
1035 0.102267 0.49198 0.382274 0.0150652 0.00613031 0.00177155 0.000354795 0.000158114 0 0 
1036 0.102267 0.825872 0.0498832 0.0135637 0.00613031 0.00177155 0.000354795 0.000158114 0 0 
1037 0.110574 0.761506 0.0806313 0.0332414 0.0112221 0.00246832 0.0003562 0 0 0 
1038 0.102267 0.587573 0.288181 0.0135638 0.00613031 0.00177155 0.000354795 0.000158114 0 0 
1039 0.102267 0.701255 0.1745 0.0135637 0.00613031 0.00177155 0.000354795 0.000158114 0 0 
1040 0.110575 0.635662 0.206475 0.0332416 0.0112221 0.00246832 0.0003562 0 0 0 
1041 0.235577 0.511475 0.0806603 0.0332704 0.136187 0.00247437 0.0003562 0 0 0 
1042 0.110574 0.620521 0.096713 0.158145 0.0112221 0.00246832 0.0003562 0 0 0 
1043 0.215723 0.770917 0.00934698 0.00254706 0.0010684 0.000300501 6.35683e-05 3.27584e-05 0 0 
1044 0.102267 0.700872 0.174883 0.0135637 0.00613031 0.00177155 0.000354795 0.000158114 0 0 
1045 0.227274 0.700515 0.0502324 0.0135637 0.00613031 0.00177155 0.000354795 0.000158114 0 0 
1046 0.102267 0.576283 0.299471 0.0135651 0.00613031 0.00177155 0.000354795 0.000158114 0 0 
1047 0.110575 0.660096 0.182042 0.0332414 0.0112221 0.00246832 0.0003562 0 0 0 
1048 0.0354623 0.411911 0.481903 0.0484457 0.0193323 0.00117689 0.000589654 0 0.00117928 0 
1049 0.0354623 0.448674 0.456611 0.0369747 0.0193323 0.00117689 0.000589654 0 0.00117928 0 
1050 0.110574 0.761503 0.0806341 0.0332414 0.0112221 0.00246832 0.0003562 0 0 0 
1051 0.227265 0.450873 0.0498832 0.138563 0.00613207 0.126771 0.000354801 0.000158114 0 0 
1052 0.110574 0.511507 0.33063 0.0332414 0.0112221 0.00246832 0.0003562 0 0 0 
1053 0.340724 0.645917 0.00934708 0.00254706 0.0010684 0.000300501 6.35683e-05 3.27584e-05 0 0 
1054 0.340723 0.645918 0.00934683 0.00254706 0.0010684 0.000300501 6.35683e-05 3.27584e-05 0 0 
1055 0.340723 0.395922 0.259341 0.0025487 0.0010684 0.000300501 6.35683e-05 3.27584e-05 0 0 
1056 0.102267 0.82587 0.049885 0.0135637 0.00613031 0.00177155 0.000354795 0.000158114 0 0 
1057 0.102285 0.825852 0.0498853 0.0135637 0.00613031 0.00177155 0.000354795 0.000158114 0 0 
1058 0.22681 0.451568 0.299642 0.0135648 0.00613031 0.00177155 0.000354795 0.000158114 0 0 
1059 0.102267 0.825871 0.0498832 0.0135637 0.00613031 0.00177155 0.000354795 0.000158114 0 0 
1060 0.102267 0.750609 0.1249 0.0138091 0.00613031 0.00177155 0.000354795 0.000158114 0 0 
1061 0.102267 0.825872 0.0498833 0.0135637 0.00613031 0.00177155 0.000354795 0.000158114 0 0 
1062 0.102267 0.546404 0.329351 0.0135639 0.00613031 0.00177155 0.000354795 0.000158114 0 0 
1063 0.227253 0.575851 0.174532 0.0139491 0.00613031 0.00177155 0.000354795 0.000158114 0 0 
1064 0.102267 0.825872 0.0498832 0.0135637 0.00613031 0.00177155 0.000354795 0.000158114 0 0 
1065 0.340728 0.520838 0.00948885 0.12748 0.00106861 0.000300501 6.35683e-05 3.27584e-05 0 0 
1066 0.213247 0.714891 0.0498837 0.0135637 0.00613031 0.00177155 0.000354795 0.000158114 0 0 
1067 0.165916 0.381948 0.374235 0.0562266 0.0178336 0.00383992 0 0 0 0 
1068 0.58572 0.27592 0.00934683 0.00255236 0.109472 0.0168914 6.35683e-05 3.27584e-05 0 0 
1069 0.227289 0.448453 0.30226 0.0135831 0.00613031 0.00177155 0.000354795 0.000158114 0 0 
1070 0.102697 0.825441 0.0498836 0.0135637 0.00613031 0.00177155 0.000354795 0.000158114 0 0 
1071 0.102267 0.825871 0.0498844 0.0135637 0.00613031 0.00177155 0.000354795 0.000158114 0 0 
1072 0.357567 0.629074 0.00934684 0.00254706 0.0010684 0.000300501 6.35683e-05 3.27584e-05 0 0 
1073 0.378076 0.422798 0.052148 0.0175259 0.126703 0.00223671 0.000354795 0.000158114 0 0 
1074 0.102267 0.700872 0.0498956 0.138551 0.00613091 0.00177155 0.000354795 0.000158114 0 0 
1075 0.102267 0.575879 0.174874 0.138565 0.00613031 0.00177155 0.000354795 0.000158114 0 0 
1076 0.102652 0.825486 0.0498836 0.0135637 0.00613031 0.00177155 0.000354795 0.000158114 0 0 
1077 0.2223 0.758098 0.0155896 0.00254706 0.0010684 0.000300501 6.35683e-05 3.27584e-05 0 0 
1078 0.102267 0.825872 0.0498832 0.0135637 0.00613031 0.00177155 0.000354795 0.000158114 0 0 
1079 0.102267 0.825871 0.0498837 0.0135637 0.00613031 0.00177155 0.000354795 0.000158114 0 0 
1080 0.102267 0.825871 0.0498833 0.0135637 0.00613031 0.00177155 0.000354795 0.000158114 0 0 
1081 0.466663 0.519978 0.00934685 0.00254706 0.0010684 0.000300501 6.35683e-05 3.27584e-05 0 0 
1082 0.102267 0.820318 0.0554363 0.0135637 0.00613031 0.00177155 0.000354795 0.000158114 0 0 
1083 0.340723 0.645918 0.00934683 0.00254706 0.0010684 0.000300501 6.35683e-05 3.27584e-05 0 0 
1084 0.2274 0.509224 0.133956 0.127944 0.00107885 0.000300501 6.35683e-05 3.27584e-05 0 0 
1085 0.102539 0.722793 0.152689 0.0135643 0.00613031 0.00177155 0.000354795 0.000158114 0 0 
1086 0.360565 0.297789 0.294352 0.0332476 0.0112221 0.00246832 0.0003562 0 0 0 
1087 0.21695 0.769334 0.00970338 0.00254706 0.0010684 0.000300501 6.35683e-05 3.27584e-05 0 0 
1088 0.215723 0.645918 0.134345 0.00254858 0.0010684 0.000300501 6.35683e-05 3.27584e-05 0 0 
