0 1 7 100 3.47751e-05
1 1 7 100 0.760006
2 1 7 100 0.00286735
3 1 7 100 0.03652
5 1 7 100 0.200572
0 2 7 100 0.0422391
1 2 7 100 0.19999
2 2 7 100 0.2
3 2 7 100 0.400021
4 2 7 100 0.0229172
5 2 7 100 3.02075e-05
6 2 7 100 0.134801
1 3 7 100 0.2
2 3 7 100 0.19999
3 3 7 100 0.4
4 3 7 100 0.2
5 3 7 100 9.53873e-06
0 4 7 100 0.000694784
2 4 7 100 0.200028
3 4 7 100 0.209544
4 4 7 100 0.389188
5 4 7 100 0.200536
6 4 7 100 8.75139e-06
0 5 7 100 0.15235
2 5 7 100 0.18268
3 5 7 100 0.0551903
4 5 7 100 0.220164
5 5 7 100 0.202772
6 5 7 100 0.186844
2 6 7 100 0.2
5 6 7 100 0.2
6 6 7 100 0.6
2 7 7 100 0.2
7 7 7 100 0.8
7 8 7 100 1
1 1 8 100 0.592918
2 1 8 100 3.65302e-05
3 1 8 100 0.0999636
4 1 8 100 0.108313
5 1 8 100 0.0998101
6 1 8 100 4.03406e-05
7 1 8 100 0.0989182
0 2 8 100 0.013954
1 2 8 100 0.1
2 2 8 100 0.400002
4 2 8 100 0.1
5 2 8 100 0.0860437
6 2 8 100 0.2
7 2 8 100 0.1
0 3 8 100 0.0934656
3 3 8 100 0.399923
4 3 8 100 0.1
5 3 8 100 0.100241
6 3 8 100 0.1
7 3 8 100 0.20637
0 4 8 100 0.000696389
1 4 8 100 0.1
2 4 8 100 0.1
4 4 8 100 0.208841
5 4 8 100 0.191388
6 4 8 100 0.199945
7 4 8 100 0.0991298
8 4 8 100 0.1
0 5 8 100 0.000769866
1 5 8 100 0.111111
2 5 8 100 0.110134
3 5 8 100 0.00327224
5 5 8 100 0.329709
6 5 8 100 0.111665
7 5 8 100 0.333338
2 6 8 100 0.111111
3 6 8 100 0.111114
5 6 8 100 0.222222
6 6 8 100 0.111111
7 6 8 100 0.222222
8 6 8 100 0.22222
0 7 8 100 0.000549127
3 7 8 100 0.142651
4 7 8 100 0.142857
5 7 8 100 0.00023329
6 7 8 100 0.427628
7 7 8 100 0.000489385
8 7 8 100 0.285593
4 8 8 100 0.2
7 8 8 100 0.2
8 8 8 100 0.6
8 9 8 100 1
8 10 8 100 1
1 1 9 100 0.883949
3 1 9 100 0.114206
4 1 9 100 0.00184529
0 2 9 100 4.59806e-05
1 2 9 100 0.25
2 2 9 100 0.377992
3 2 9 100 0.371467
5 2 9 100 0.000495758
1 3 9 100 0.25
3 3 9 100 0.0110525
4 3 9 100 0.363927
5 3 9 100 0.136787
7 3 9 100 0.113233
9 3 9 100 0.125
0 4 9 100 0.000344044
1 4 9 100 0.125112
2 4 9 100 1.02732e-05
4 4 9 100 0.374602
5 4 9 100 0.250036
6 4 9 100 0.249893
8 4 9 100 2.05833e-06
0 5 9 100 0.0554038
2 5 9 100 0.0693602
3 5 9 100 0.000252046
4 5 9 100 0.125003
5 5 9 100 0.125
6 5 9 100 0.25
7 5 9 100 0.374981
0 6 9 100 0.0518185
2 6 9 100 0.00214841
3 6 9 100 0.00141712
4 6 9 100 0.125
5 6 9 100 0.102726
6 6 9 100 0.231093
7 6 9 100 0.235797
8 6 9 100 0.25
5 7 9 100 0.125
7 7 9 100 0.375
8 7 9 100 0.125
9 7 9 100 0.375
6 8 9 100 0.25
8 8 9 100 0.5
9 8 9 100 0.25
0 9 9 100 0.000145432
2 9 9 100 0.000170562
3 9 9 100 5.88623e-06
7 9 9 100 0.333011
9 9 9 100 0.666667
8 10 9 100 1
9 11 9 100 1
1 1 10 100 0.790227
2 1 10 100 0.0191363
4 1 10 100 0.123967
8 1 10 100 0.0666681
9 1 10 100 9.77146e-07
0 2 10 100 2.13357e-06
1 2 10 100 0.358358
2 2 10 100 0.441637
3 2 10 100 0.133333
4 2 10 100 0.0665814
5 2 10 100 2.69489e-05
8 2 10 100 5.83183e-05
10 2 10 100 2.08614e-06
0 3 10 100 0.00083841
1 3 10 100 0.0666667
2 3 10 100 0.390233
3 3 10 100 0.329835
4 3 10 100 0.145888
5 3 10 100 0.0665308
8 3 10 100 8.1349e-06
0 4 10 100 0.000722966
1 4 10 100 0.0666667
3 4 10 100 0.34177
4 4 10 100 0.332861
5 4 10 100 0.257415
6 4 10 100 7.16512e-05
9 4 10 100 2.07067e-05
10 4 10 100 0.000472606
0 5 10 100 0.00074756
1 5 10 100 1.71752e-06
2 5 10 100 0.0666667
3 5 10 100 0.13277
4 5 10 100 0.00449135
5 5 10 100 0.329487
6 5 10 100 0.265818
7 5 10 100 0.133333
8 5 10 100 0.066681
9 5 10 100 4.18453e-06
0 6 10 100 0.000100805
3 6 10 100 0.133272
4 6 10 100 0.0666661
5 6 10 100 7.75648e-07
6 6 10 100 0.332341
7 6 10 100 0.133335
8 6 10 100 0.0680013
9 6 10 100 0.199959
10 6 10 100 0.0663236
0 7 10 100 0.000635036
2 7 10 100 3.10723e-05
3 7 10 100 0.00111217
4 7 10 100 0.133333
5 7 10 100 0.000125927
6 7 10 100 0.116746
7 7 10 100 0.347196
8 7 10 100 0.15531
9 7 10 100 0.112178
10 7 10 100 0.133333
0 8 10 100 0.0172046
3 8 10 100 3.12532e-05
5 8 10 100 0.0769287
6 8 10 100 0.136598
8 8 10 100 0.307694
9 8 10 100 0.230774
10 8 10 100 0.230769
0 9 10 100 4.33791e-05
2 9 10 100 0.0884121
4 9 10 100 0.0909105
5 9 10 100 1.63043e-06
6 9 10 100 0.181818
9 9 10 100 0.275178
10 9 10 100 0.363636
0 10 10 100 0.000147566
3 10 10 100 1.73266e-06
4 10 10 100 0.166147
5 10 10 100 0.000520178
7 10 10 100 0.00804927
9 10 10 100 0.325134
10 10 10 100 0.5
0 11 10 100 0.230628
5 11 10 100 0.0910421
7 11 10 100 1.17311e-05
8 11 10 100 0.344984
10 11 10 100 0.333334
8 12 10 100 0.5
9 12 10 100 0.5
0 13 10 100 0.413062
5 13 10 100 0.0169849
7 13 10 100 0.000826666
8 13 10 100 0.0691264
10 13 10 100 0.5
1 14 10 100 1.48309e-05
9 14 10 100 0.999985
2 15 10 100 3.52262e-05
10 15 10 100 0.999965
0 1 11 100 1.19078e-05
1 1 11 100 0.666625
2 1 11 100 5.73221e-06
3 1 11 100 7.05058e-06
4 1 11 100 0.0833333
5 1 11 100 0.0833506
6 1 11 100 0.0833334
9 1 11 100 0.0833333
0 2 11 100 0.000586647
1 2 11 100 0.333154
2 2 11 100 0.25001
3 2 11 100 0.0833336
4 2 11 100 8.83154e-05
6 2 11 100 0.00156733
7 2 11 100 0.166667
8 2 11 100 0.00024828
9 2 11 100 0.0817645
10 2 11 100 0.0825805
0 3 11 100 0.00351344
1 3 11 100 0.166667
2 3 11 100 0.249996
3 3 11 100 0.166132
4 3 11 100 0.0869055
5 3 11 100 0.0824505
6 3 11 100 5.19888e-05
7 3 11 100 0.083333
8 3 11 100 0.160948
9 3 11 100 2.12071e-06
10 3 11 100 8.98223e-07
1 4 11 100 0.0833334
2 4 11 100 0.0833334
3 4 11 100 0.25
4 4 11 100 0.25
5 4 11 100 0.0833257
6 4 11 100 0.0833334
8 4 11 100 0.0833333
11 4 11 100 0.0833405
0 5 11 100 0.000848776
1 5 11 100 0.166667
2 5 11 100 0.0832439
3 5 11 100 0.166667
4 5 11 100 0.330704
5 5 11 100 0.0836218
7 5 11 100 0.0833394
8 5 11 100 0.00156527
9 5 11 100 1.87428e-06
11 5 11 100 0.0833417
0 6 11 100 0.00048059
2 6 11 100 0.0942402
3 6 11 100 0.185768
4 6 11 100 0.174141
5 6 11 100 0.272576
6 6 11 100 0.0909092
7 6 11 100 1.27414e-06
8 6 11 100 0.0909693
9 6 11 100 0.0909116
10 6 11 100 2.46194e-06
0 7 11 100 0.000199148
1 7 11 100 0.0911861
2 7 11 100 3.93003e-05
3 7 11 100 0.0928185
4 7 11 100 0.133481
6 7 11 100 0.0910592
7 7 11 100 0.0909091
8 7 11 100 0.181541
9 7 11 100 0.318766
0 8 11 100 0.00189642
2 8 11 100 0.0909099
5 8 11 100 0.253913
6 8 11 100 0.0979759
7 8 11 100 0.0909092
8 8 11 100 0.00641552
9 8 11 100 0.179278
10 8 11 100 0.278702
0 9 11 100 0.0625401
1 9 11 100 5.57306e-05
4 9 11 100 0.110973
5 9 11 100 0.0221596
6 9 11 100 0.175526
7 9 11 100 0.00110702
8 9 11 100 0.0757615
10 9 11 100 0.18824
11 9 11 100 0.363637
0 10 11 100 0.000573454
2 10 11 100 0.110417
5 10 11 100 1.16167e-05
6 10 11 100 0.125001
7 10 11 100 0.241289
8 10 11 100 0.147713
9 10 11 100 0.124971
10 10 11 100 3.61594e-05
11 10 11 100 0.249989
5 11 11 100 1.52242e-05
7 11 11 100 0.142857
9 11 11 100 0.428571
11 11 11 100 0.428556
0 12 11 100 0.0274
5 12 11 100 0.106217
8 12 11 100 0.116381
11 12 11 100 0.750002
10 13 11 100 1
11 14 11 100 1
1 1 12 100 0.874684
10 1 12 100 0.000532085
11 1 12 100 0.124783
0 2 12 100 0.000314237
1 2 12 100 0.24995
2 2 12 100 0.49947
3 2 12 100 0.12505
4 2 12 100 0.000212604
10 2 12 100 3.56678e-06
11 2 12 100 0.125
0 3 12 100 0.000702599
2 3 12 100 0.254848
3 3 12 100 0.375013
4 3 12 100 0.119436
5 3 12 100 0.125
11 3 12 100 0.125
0 4 12 100 0.0339169
2 4 12 100 3.82856e-05
3 4 12 100 0.125
4 4 12 100 0.382187
5 4 12 100 0.242809
6 4 12 100 0.123651
9 4 12 100 3.86935e-05
10 4 12 100 0.0905812
11 4 12 100 0.000429424
12 4 12 100 0.00134873
0 5 12 100 0.00137843
1 5 12 100 0.118957
4 5 12 100 0.237532
5 5 12 100 0.498373
6 5 12 100 0.0126198
7 5 12 100 0.131043
11 5 12 100 9.69729e-05
0 6 12 100 0.000654675
1 6 12 100 0.000104667
2 6 12 100 2.73796e-06
3 6 12 100 8.48255e-06
4 6 12 100 0.0033015
5 6 12 100 0.124862
6 6 12 100 0.384887
7 6 12 100 0.361202
9 6 12 100 0.124959
10 6 12 100 8.48255e-06
11 6 12 100 9.45588e-06
4 7 12 100 0.125
6 7 12 100 0.125
7 7 12 100 0.369538
8 7 12 100 0.25
9 7 12 100 0.0054615
10 7 12 100 0.125
0 8 12 100 9.58807e-05
5 8 12 100 0.00010514
6 8 12 100 0.124989
7 8 12 100 0.125
8 8 12 100 0.124799
9 8 12 100 0.375
10 8 12 100 0.125011
11 8 12 100 0.125
0 9 12 100 0.000121973
1 9 12 100 0.00741322
7 9 12 100 0.135448
8 9 12 100 0.142857
9 9 12 100 0.142857
10 9 12 100 1.01817e-05
11 9 12 100 0.285579
12 9 12 100 0.285713
0 10 12 100 1.66867e-06
7 10 12 100 0.166667
9 10 12 100 0.166667
12 10 12 100 0.666664
0 11 12 100 0.00053893
2 11 12 100 5.83093e-06
8 11 12 100 0.500001
10 11 12 100 0.499454
0 12 12 100 0.123862
3 12 12 100 0.340675
9 12 12 100 0.0354628
11 12 12 100 0.500001
7 13 12 100 0.5
12 13 12 100 0.5
8 14 12 100 1
12 15 12 100 1
0 1 13 100 0.000284067
1 1 13 100 0.810574
2 1 13 100 0.0329913
4 1 13 100 0.0197562
6 1 13 100 0.00559333
8 1 13 100 5.34756e-06
9 1 13 100 4.46119e-05
10 1 13 100 0.0555593
11 1 13 100 0.0168452
12 1 13 100 0.00154211
13 1 13 100 0.0568042
0 2 13 100 5.65143e-05
1 2 13 100 0.277747
2 2 13 100 0.444327
3 2 13 100 0.110631
4 2 13 100 0.055551
5 2 13 100 3.56181e-05
8 2 13 100 1.32223e-06
9 2 13 100 7.36107e-07
10 2 13 100 0.000117056
11 2 13 100 0.0556433
12 2 13 100 0.000333049
13 2 13 100 0.0555557
0 3 13 100 0.108751
1 3 13 100 0.221842
2 3 13 100 0.166698
3 3 13 100 0.222454
4 3 13 100 0.000616784
5 3 13 100 0.0557489
7 3 13 100 0.0933994
8 3 13 100 2.3505e-05
11 3 13 100 0.128711
12 3 13 100 0.00175549
0 4 13 100 0.001638
1 4 13 100 0.0555497
2 4 13 100 0.111109
3 4 13 100 0.186988
4 4 13 100 0.349121
5 4 13 100 0.111111
6 4 13 100 0.000167265
8 4 13 100 0.0747057
9 4 13 100 4.40552e-06
10 4 13 100 7.2682e-05
11 4 13 100 1.19731e-06
12 4 13 100 0.109532
0 5 13 100 0.00013908
1 5 13 100 0.0555556
2 5 13 100 0.0555556
3 5 13 100 0.0555367
4 5 13 100 0.277714
5 5 13 100 0.279302
6 5 13 100 0.109505
9 5 13 100 0.111111
11 5 13 100 2.45494e-05
12 5 13 100 9.50527e-07
13 5 13 100 0.0555554
0 6 13 100 0.000641684
2 6 13 100 0.111156
3 6 13 100 0.056022
4 6 13 100 0.0532744
5 6 13 100 0.214542
6 6 13 100 0.22463
7 6 13 100 0.228613
9 6 13 100 0.111116
11 6 13 100 5.07272e-06
0 7 13 100 0.000464275
3 7 13 100 0.11111
4 7 13 100 0.044884
5 7 13 100 6.30295e-05
6 7 13 100 0.166669
7 7 13 100 0.188613
8 7 13 100 0.200394
9 7 13 100 0.120251
10 7 13 100 0.0574847
11 7 13 100 0.110032
12 7 13 100 3.42845e-05
0 8 13 100 0.000531252
1 8 13 100 0.00165516
3 8 13 100 0.0555568
4 8 13 100 0.047665
5 8 13 100 0.00262676
6 8 13 100 0.0539015
7 8 13 100 0.222222
8 8 13 100 0.11132
9 8 13 100 0.226761
10 8 13 100 0.166667
11 8 13 100 0.0555555
12 8 13 100 0.0555374
0 9 13 100 0.0357906
2 9 13 100 7.65976e-07
3 9 13 100 3.01017e-06
4 9 13 100 0.0587071
5 9 13 100 0.117647
6 9 13 100 0.0683977
8 9 13 100 0.164063
9 9 13 100 0.072423
10 9 13 100 0.295847
11 9 13 100 0.0694729
12 9 13 100 6.29458e-07
13 9 13 100 0.117647
0 10 13 100 0.000896847
2 10 13 100 7.07843e-06
3 10 13 100 1.23552e-05
4 10 13 100 6.02332e-06
5 10 13 100 0.0666697
6 10 13 100 0.0666597
7 10 13 100 0.0666667
8 10 13 100 0.0680437
9 10 13 100 0.196984
10 10 13 100 0.134026
11 10 13 100 0.199768
12 10 13 100 0.133593
13 10 13 100 0.0666667
0 11 13 100 0.0941488
2 11 13 100 0.00701401
3 11 13 100 0.00475851
6 11 13 100 0.0726838
7 11 13 100 0.0714287
8 11 13 100 0.0077287
9 11 13 100 0.000751772
10 11 13 100 0.154278
11 11 13 100 8.85706e-07
12 11 13 100 0.230065
13 11 13 100 0.357142
3 12 13 100 4.93469e-06
7 12 13 100 0.199994
11 12 13 100 0.3
12 12 13 100 0.1
13 12 13 100 0.4
0 13 13 100 0.240048
3 13 13 100 7.13442e-05
4 13 13 100 0.00314406
7 13 13 100 0.000287131
8 13 13 100 0.138901
9 13 13 100 0.0291956
10 13 13 100 0.142857
11 13 13 100 0.0127231
12 13 13 100 0.289916
13 13 13 100 0.142857
8 14 13 100 0.166667
9 14 13 100 0.166667
11 14 13 100 0.166667
12 14 13 100 0.166667
13 14 13 100 0.333333
8 15 13 100 0.333333
9 15 13 100 0.333333
10 15 13 100 0.333333
0 16 13 100 0.031648
3 16 13 100 0.00278818
4 16 13 100 0.00406518
8 16 13 100 0.000619525
11 16 13 100 0.174194
12 16 13 100 0.453352
13 16 13 100 0.333333
12 17 13 100 0.5
13 17 13 100 0.5
12 18 13 100 1
13 19 13 100 1
0 1 14 100 0.0498888
1 1 14 100 0.656041
2 1 14 100 0.000125222
3 1 14 100 3.24049e-06
4 1 14 100 0.00838144
5 1 14 100 0.0129963
8 1 14 100 0.0714749
9 1 14 100 7.8996e-07
10 1 14 100 0.0714286
12 1 14 100 0.0582321
14 1 14 100 0.0714275
0 2 14 100 0.0847097
1 2 14 100 0.268449
2 2 14 100 0.417878
3 2 14 100 0.0714287
5 2 14 100 7.51217e-05
6 2 14 100 0.000249196
9 2 14 100 0.0714286
10 2 14 100 0.00766863
11 2 14 100 0.00667768
12 2 14 100 0.0714356
0 3 14 100 0.00059278
1 3 14 100 0.143026
2 3 14 100 0.285543
3 3 14 100 0.21395
4 3 14 100 0.00081864
6 3 14 100 0.0694752
7 3 14 100 0.0714286
8 3 14 100 0.00145778
10 3 14 100 0.0783635
11 3 14 100 0.00126773
12 3 14 100 0.0636935
13 3 14 100 0.0703833
0 4 14 100 0.003679
1 4 14 100 0.142858
2 4 14 100 0.0709424
3 4 14 100 0.205228
4 4 14 100 0.222756
6 4 14 100 0.0736702
8 4 14 100 0.141263
9 4 14 100 1.49839e-06
11 4 14 100 4.75647e-06
12 4 14 100 0.0714404
13 4 14 100 0.068157
0 5 14 100 0.00306732
1 5 14 100 0.0714286
2 5 14 100 0.142857
4 5 14 100 0.215916
5 5 14 100 0.146861
6 5 14 100 0.210124
7 5 14 100 0.122791
8 5 14 100 8.43298e-07
9 5 14 100 0.0755193
10 5 14 100 0.0110306
11 5 14 100 2.63929e-06
12 5 14 100 9.33177e-07
13 5 14 100 0.000399836
0 6 14 100 2.94165e-05
2 6 14 100 7.7122e-05
3 6 14 100 0.214287
5 6 14 100 0.214189
6 6 14 100 0.214256
7 6 14 100 0.142857
8 6 14 100 0.137691
9 6 14 100 2.38893e-05
10 6 14 100 0.0714286
11 6 14 100 0.00515642
12 6 14 100 2.20579e-06
13 6 14 100 1.56247e-06
0 7 14 100 0.0355441
3 7 14 100 0.076199
4 7 14 100 0.142862
6 7 14 100 0.143899
7 7 14 100 0.214163
8 7 14 100 0.242051
10 7 14 100 0.0021033
11 7 14 100 0.0714236
12 7 14 100 0.0713229
13 7 14 100 0.000432985
0 8 14 100 0.00218921
2 8 14 100 2.91885e-05
5 8 14 100 0.147408
6 8 14 100 0.142171
7 8 14 100 0.00199882
8 8 14 100 0.14128
9 8 14 100 0.209806
10 8 14 100 0.0714611
11 8 14 100 0.140826
12 8 14 100 0.142698
13 8 14 100 0.000131898
0 9 14 100 0.000118381
4 9 14 100 1.02204e-06
5 9 14 100 0.0714287
6 9 14 100 0.0714396
7 9 14 100 0.214172
9 9 14 100 0.142889
10 9 14 100 0.214225
12 9 14 100 0.0714177
13 9 14 100 0.14288
14 9 14 100 0.0714287
0 10 14 100 0.000786057
4 10 14 100 0.000445185
6 10 14 100 0.0756912
7 10 14 100 0.153846
8 10 14 100 0.230768
10 10 14 100 0.153846
11 10 14 100 0.15375
13 10 14 100 9.70705e-05
14 10 14 100 0.23077
0 11 14 100 0.0431952
3 11 14 100 3.39123e-05
7 11 14 100 0.1
8 11 14 100 0.156726
9 11 14 100 0.189089
10 11 14 100 0.100033
11 11 14 100 0.10014
12 11 14 100 0.2
13 11 14 100 0.0107813
14 11 14 100 0.1
0 12 14 100 0.115128
2 12 14 100 0.000966264
4 12 14 100 0.000554616
5 12 14 100 0.119327
6 12 14 100 0.000243349
8 12 14 100 0.125044
9 12 14 100 0.135302
10 12 14 100 0.128804
11 12 14 100 0.121192
12 12 14 100 0.00137774
13 12 14 100 0.246026
14 12 14 100 0.00603437
0 13 14 100 5.80533e-05
4 13 14 100 2.29346e-05
6 13 14 100 3.52474e-06
9 13 14 100 0.124897
11 13 14 100 0.374955
12 13 14 100 0.122935
13 13 14 100 0.0021289
14 13 14 100 0.375
0 14 14 100 0.167606
1 14 14 100 0.000259267
10 14 14 100 0.224436
11 14 14 100 0.000161543
12 14 14 100 0.00767278
13 14 14 100 0.199864
14 14 14 100 0.400001
1 15 14 100 1.69253e-05
10 15 14 100 0.333333
12 15 14 100 0.333317
14 15 14 100 0.333334
13 16 14 100 0.5
14 16 14 100 0.5
14 17 14 100 1
0 1 15 100 0.000231582
1 1 15 100 0.840538
2 1 15 100 0.0536678
3 1 15 100 0.0524164
4 1 15 100 1.09774e-05
7 1 15 100 0.000189318
10 1 15 100 6.85702e-07
12 1 15 100 0.000217519
13 1 15 100 0.000100673
14 1 15 100 0.052627
0 2 15 100 0.000107338
1 2 15 100 0.263159
2 2 15 100 0.418631
3 2 15 100 0.107515
4 2 15 100 0.0503291
5 2 15 100 0.00230735
6 2 15 100 0.0526317
7 2 15 100 2.13648e-05
8 2 15 100 0.0526317
9 2 15 100 1.95647e-05
13 2 15 100 3.46302e-06
14 2 15 100 0.0526431
0 3 15 100 0.00227698
1 3 15 100 0.0526317
2 3 15 100 0.157896
3 3 15 100 0.310193
4 3 15 100 0.160668
5 3 15 100 0.105263
6 3 15 100 0.105257
7 3 15 100 0.00158717
8 3 15 100 0.0526343
9 3 15 100 4.62285e-06
11 3 15 100 5.62691e-05
13 3 15 100 9.02376e-06
14 3 15 100 0.0515226
0 4 15 100 0.000498593
1 4 15 100 0.0526316
2 4 15 100 0.105297
3 4 15 100 0.108189
4 4 15 100 0.2588
5 4 15 100 0.212258
6 4 15 100 0.20868
7 4 15 100 0.000525545
8 4 15 100 0.0526584
9 4 15 100 0.000382409
11 4 15 100 3.44116e-05
13 4 15 100 3.81837e-05
14 4 15 100 6.05266e-06
0 5 15 100 0.000101439
1 5 15 100 5.64209e-06
3 5 15 100 0.0525826
4 5 15 100 0.210524
5 5 15 100 0.163128
6 5 15 100 0.31575
7 5 15 100 0.157822
8 5 15 100 0.0526301
9 5 15 100 6.60178e-05
11 5 15 100 0.0282326
12 5 15 100 0.0191572
0 6 15 100 0.0521143
2 6 15 100 0.0063693
3 6 15 100 0.0992087
4 6 15 100 0.105526
5 6 15 100 0.108736
6 6 15 100 0.105264
7 6 15 100 0.259619
8 6 15 100 0.157905
12 6 15 100 0.105222
13 6 15 100 3.57398e-05
0 7 15 100 0.06592
2 7 15 100 0.000427811
3 7 15 100 0.0540965
4 7 15 100 0.0921153
5 7 15 100 0.102912
6 7 15 100 0.208812
7 7 15 100 0.0526563
8 7 15 100 0.244425
9 7 15 100 8.66475e-05
10 7 15 100 0.105487
11 7 15 100 9.87887e-07
12 7 15 100 0.00133957
13 7 15 100 0.0608977
14 7 15 100 0.0108224
0 8 15 100 0.105968
2 8 15 100 3.28223e-05
3 8 15 100 7.92209e-07
4 8 15 100 0.0611471
5 8 15 100 0.0594955
6 8 15 100 0.157895
7 8 15 100 0.112035
8 8 15 100 0.0526508
9 8 15 100 0.247131
10 8 15 100 0.0426895
11 8 15 100 0.0526317
12 8 15 100 0.0531419
13 8 15 100 0.000240167
14 8 15 100 0.0549411
0 9 15 100 0.000976236
2 9 15 100 1.05883e-05
3 9 15 100 0.000120506
4 9 15 100 0.0451962
5 9 15 100 0.0526317
6 9 15 100 0.105394
7 9 15 100 0.1591
8 9 15 100 0.155568
9 9 15 100 0.0001103
10 9 15 100 0.217907
11 9 15 100 0.105265
12 9 15 100 0.105191
15 9 15 100 0.0525298
0 10 15 100 0.0156223
2 10 15 100 0.00143245
4 10 15 100 0.000692207
6 10 15 100 0.111112
7 10 15 100 0.00224334
8 10 15 100 0.194407
9 10 15 100 0.118418
10 10 15 100 0.0564574
11 10 15 100 0.277738
12 10 15 100 0.110318
13 10 15 100 7.41392e-06
14 10 15 100 0.055996
15 10 15 100 0.0555556
0 11 15 100 0.048961
3 11 15 100 0.00819938
5 11 15 100 1.06052e-05
6 11 15 100 0.000167697
7 11 15 100 0.117613
8 11 15 100 0.0588236
9 11 15 100 0.117656
10 11 15 100 0.176822
11 11 15 100 0.000373878
12 11 15 100 0.235105
13 11 15 100 0.0584511
14 11 15 100 0.001346
15 11 15 100 0.176471
0 12 15 100 0.069054
1 12 15 100 1.02618e-06
2 12 15 100 1.73294e-06
7 12 15 100 0.0714295
8 12 15 100 0.145306
10 12 15 100 0.142749
11 12 15 100 0.214286
12 12 15 100 0.0656554
13 12 15 100 0.283016
14 12 15 100 0.00850069
0 13 15 100 0.0195819
1 13 15 100 0.00141535
3 13 15 100 0.00409677
5 13 15 100 0.000104219
7 13 15 100 4.74916e-06
8 13 15 100 0.0714361
9 13 15 100 0.179038
10 13 15 100 0.00326397
11 13 15 100 0.14963
12 13 15 100 0.0714286
13 13 15 100 0.00406692
14 13 15 100 0.210219
15 13 15 100 0.285714
0 14 15 100 7.73476e-06
8 14 15 100 0.1
9 14 15 100 0.100054
10 14 15 100 0.2
11 14 15 100 0.0999457
12 14 15 100 0.0166596
13 14 15 100 0.0833318
15 14 15 100 0.4
0 15 15 100 0.00307005
8 15 15 100 0.16478
9 15 15 100 6.99274e-06
10 15 15 100 0.00187886
11 15 15 100 0.333334
12 15 15 100 0.166667
13 15 15 100 0.163591
14 15 15 100 4.48972e-06
15 15 15 100 0.166667
11 16 15 100 0.0012238
12 16 15 100 0.398777
13 16 15 100 0.2
14 16 15 100 0.399999
0 17 15 100 0.00107116
2 17 15 100 3.35768e-05
13 17 15 100 0.398895
14 17 15 100 0.4
15 17 15 100 0.2
0 18 15 100 0.228139
5 18 15 100 0.000250683
10 18 15 100 0.0100383
14 18 15 100 0.261571
15 18 15 100 0.500001
2 19 15 100 1.14993e-05
13 19 15 100 0.499988
15 19 15 100 0.5
2 20 15 100 1.60385e-05
13 20 15 100 0.999984
15 21 15 100 1
0 1 16 100 0.00047555
1 1 16 100 0.921819
3 1 16 100 2.92052e-06
4 1 16 100 2.10639e-05
6 1 16 100 0.0762706
10 1 16 100 0.000783378
13 1 16 100 0.000627562
0 2 16 100 5.8259e-05
1 2 16 100 0.307642
2 2 16 100 0.461461
3 2 16 100 0.0769232
5 2 16 100 0.000108794
8 2 16 100 0.076949
9 2 16 100 1.75226e-06
12 2 16 100 3.0008e-05
13 2 16 100 1.51869e-05
14 2 16 100 0.00191612
15 2 16 100 0.0748951
0 3 16 100 9.24823e-06
2 3 16 100 0.30763
3 3 16 100 0.307689
4 3 16 100 0.0769231
5 3 16 100 0.0769231
7 3 16 100 1.11938e-06
8 3 16 100 1.80875e-06
11 3 16 100 1.58995e-05
13 3 16 100 0.0769227
14 3 16 100 0.153884
0 4 16 100 0.00393977
2 4 16 100 0.0146017
3 4 16 100 0.276728
4 4 16 100 0.362826
5 4 16 100 0.0774695
6 4 16 100 0.112535
7 4 16 100 3.00499e-05
9 4 16 100 1.33462e-05
12 4 16 100 8.20356e-07
13 4 16 100 0.000906595
14 4 16 100 0.00115028
15 4 16 100 0.149799
0 5 16 100 0.000104276
2 5 16 100 0.0769246
3 5 16 100 0.000521161
4 5 16 100 0.386205
5 5 16 100 0.228519
6 5 16 100 0.153858
9 5 16 100 0.00657944
11 5 16 100 9.53002e-07
12 5 16 100 0.0769229
13 5 16 100 0.0703431
14 5 16 100 2.18028e-05
0 6 16 100 0.0650657
3 6 16 100 0.0769232
4 6 16 100 0.153846
5 6 16 100 0.153846
6 6 16 100 0.230838
7 6 16 100 0.165568
8 6 16 100 0.0042208
10 6 16 100 0.000107556
12 6 16 100 0.000914387
13 6 16 100 0.0718154
14 6 16 100 0.0768533
0 7 16 100 0.0189652
1 7 16 100 0.0769232
3 7 16 100 3.08492e-06
4 7 16 100 0.153849
6 7 16 100 0.00327012
7 7 16 100 0.231748
8 7 16 100 0.303305
9 7 16 100 0.070118
11 7 16 100 0.076923
12 7 16 100 0.00680627
13 7 16 100 0.00217804
15 7 16 100 0.055911
0 8 16 100 0.0117677
3 8 16 100 9.17606e-07
4 8 16 100 8.00169e-05
5 8 16 100 0.153648
6 8 16 100 0.0769243
7 8 16 100 3.77411e-06
8 8 16 100 0.217207
9 8 16 100 0.320533
10 8 16 100 0.075414
11 8 16 100 0.141697
12 8 16 100 0.00174584
13 8 16 100 3.8966e-06
14 8 16 100 0.00014638
15 8 16 100 0.000828113
0 9 16 100 8.08657e-06
6 9 16 100 0.153846
7 9 16 100 0.0759622
8 9 16 100 0.0815236
9 9 16 100 0.30407
10 9 16 100 0.0769231
12 9 16 100 0.153847
13 9 16 100 0.0768963
14 9 16 100 0.0769231
0 10 16 100 0.049053
5 10 16 100 1.45905e-05
7 10 16 100 0.0769231
8 10 16 100 0.153846
9 10 16 100 0.253486
10 10 16 100 0.15371
11 10 16 100 0.0769277
13 10 16 100 0.0820471
14 10 16 100 3.43491e-06
15 10 16 100 0.000141953
16 10 16 100 0.153846
0 11 16 100 0.0645843
3 11 16 100 0.000788043
6 11 16 100 1.28137e-06
7 11 16 100 0.0914996
8 11 16 100 2.23232e-06
9 11 16 100 0.0929873
10 11 16 100 0.454269
11 11 16 100 0.0910599
12 11 16 100 0.111185
13 11 16 100 4.32443e-06
15 11 16 100 0.0936191
7 12 16 100 9.56141e-05
8 12 16 100 0.0908135
10 12 16 100 0.272727
11 12 16 100 0.272727
12 12 16 100 0.0909091
13 12 16 100 0.0909092
16 12 16 100 0.181818
9 13 16 100 0.00808849
10 13 16 100 0.111111
11 13 16 100 0.325244
12 13 16 100 0.111111
13 13 16 100 0.111111
15 13 16 100 0.111111
16 13 16 100 0.222222
11 14 16 100 0.142857
12 14 16 100 0.142857
16 14 16 100 0.714286
0 15 16 100 0.0501061
9 15 16 100 2.6985e-05
13 15 16 100 0.435595
14 15 16 100 0.500002
15 15 16 100 0.0142704
0 16 16 100 1.35896e-05
14 16 16 100 0.499984
16 16 16 100 0.500002
16 17 16 100 1
0 1 17 100 0.000625086
1 1 17 100 0.825439
3 1 17 100 1.43618e-06
4 1 17 100 3.70013e-05
7 1 17 100 0.0434804
12 1 17 100 0.043479
13 1 17 100 5.0307e-07
15 1 17 100 0.0869375
0 2 17 100 0.0365221
1 2 17 100 0.391355
2 2 17 100 0.434794
3 2 17 100 0.0434783
5 2 17 100 0.0434783
8 2 17 100 0.00125631
9 2 17 100 2.00877e-06
12 2 17 100 0.0434578
13 2 17 100 3.07327e-06
14 2 17 100 0.00497586
15 2 17 100 2.12386e-06
16 2 17 100 0.000674869
0 3 17 100 0.00452896
1 3 17 100 0.22056
2 3 17 100 0.245505
3 3 17 100 0.354589
4 3 17 100 0.0427519
5 3 17 100 7.44671e-06
6 3 17 100 0.0434783
7 3 17 100 0.000111488
8 3 17 100 0.0435006
10 3 17 100 0.0434792
11 3 17 100 0.000438945
12 3 17 100 0.00103297
15 3 17 100 1.18478e-06
16 3 17 100 1.44394e-05
0 4 17 100 0.0181433
1 4 17 100 0.0434783
2 4 17 100 0.0434783
3 4 17 100 0.181254
4 4 17 100 0.306651
5 4 17 100 0.177616
6 4 17 100 0.000153316
7 4 17 100 0.0433935
8 4 17 100 0.0434377
9 4 17 100 0.0318686
11 4 17 100 0.0434592
12 4 17 100 0.0432971
14 4 17 100 0.0225857
15 4 17 100 0.0011763
16 4 17 100 7.17595e-06
0 5 17 100 0.00936653
2 5 17 100 0.129183
3 5 17 100 0.0872118
4 5 17 100 0.191376
5 5 17 100 0.212855
6 5 17 100 0.0871466
7 5 17 100 0.096726
8 5 17 100 6.05261e-05
9 5 17 100 0.0441135
10 5 17 100 0.0434783
11 5 17 100 0.000749217
12 5 17 100 0.0438427
13 5 17 100 0.0427197
14 5 17 100 3.63636e-05
15 5 17 100 0.0111347
16 5 17 100 6.48115e-07
0 6 17 100 1.41264e-05
1 6 17 100 0.0434546
2 6 17 100 0.0435401
3 6 17 100 0.0434783
4 6 17 100 0.0873547
5 6 17 100 0.173435
6 6 17 100 0.173912
7 6 17 100 0.173929
8 6 17 100 0.0868705
9 6 17 100 0.0477775
10 6 17 100 0.0433746
11 6 17 100 8.8751e-05
12 6 17 100 0.0391799
13 6 17 100 9.5512e-05
14 6 17 100 0.0434355
16 6 17 100 5.97e-05
0 7 17 100 0.00378608
2 7 17 100 0.0760714
3 7 17 100 0.0869451
4 7 17 100 0.0869559
5 7 17 100 0.077813
6 7 17 100 0.197424
7 7 17 100 0.0748151
8 7 17 100 0.219248
9 7 17 100 0.0895802
10 7 17 100 0.000143379
11 7 17 100 7.19941e-06
12 7 17 100 0.0434783
13 7 17 100 0.0434792
15 7 17 100 3.88947e-06
16 7 17 100 0.000249401
0 8 17 100 0.0718681
2 8 17 100 0.043478
3 8 17 100 5.26077e-07
4 8 17 100 0.0869566
5 8 17 100 0.130435
6 8 17 100 0.00956632
7 8 17 100 0.0860909
8 8 17 100 0.178301
9 8 17 100 0.296687
10 8 17 100 0.051182
12 8 17 100 0.0017751
14 8 17 100 0.0434783
15 8 17 100 8.01757e-06
16 8 17 100 0.000173212
0 9 17 100 0.0360174
1 9 17 100 0.0434771
2 9 17 100 0.00142091
3 9 17 100 3.10731e-05
4 9 17 100 0.00541535
5 9 17 100 0.0899322
6 9 17 100 0.174529
7 9 17 100 1.10723e-06
8 9 17 100 0.173851
9 9 17 100 0.134001
10 9 17 100 0.217434
11 9 17 100 0.0869582
12 9 17 100 0.000113424
16 9 17 100 0.0368177
0 10 17 100 0.00356506
2 10 17 100 0.0868431
4 10 17 100 5.52778e-06
6 10 17 100 0.0852657
7 10 17 100 0.176574
8 10 17 100 2.16936e-05
9 10 17 100 0.131753
10 10 17 100 0.254363
11 10 17 100 0.0442665
12 10 17 100 0.0435539
13 10 17 100 0.0851094
14 10 17 100 0.0872247
15 10 17 100 1.08013e-06
16 10 17 100 0.00145338
0 11 17 100 0.000486823
2 11 17 100 0.0434783
3 11 17 100 0.0434783
4 11 17 100 0.000163426
5 11 17 100 0.00971948
6 11 17 100 4.66726e-06
7 11 17 100 0.0323686
8 11 17 100 0.086963
9 11 17 100 0.0448968
10 11 17 100 0.171978
11 11 17 100 0.218894
12 11 17 100 0.128974
13 11 17 100 0.173913
14 11 17 100 0.0435064
15 11 17 100 0.000265129
16 11 17 100 0.000910533
0 12 17 100 0.082733
4 12 17 100 9.18949e-05
5 12 17 100 0.0433818
6 12 17 100 0.00628957
7 12 17 100 0.0434839
8 12 17 100 0.0436733
9 12 17 100 0.0869565
10 12 17 100 0.0707875
11 12 17 100 0.128914
12 12 17 100 0.147007
13 12 17 100 0.214363
14 12 17 100 0.0869573
15 12 17 100 0.043484
16 12 17 100 0.00187767
0 13 17 100 0.00183113
4 13 17 100 0.000132668
5 13 17 100 0.000156491
6 13 17 100 0.000370852
7 13 17 100 0.0406913
8 13 17 100 0.0427586
9 13 17 100 0.0419327
10 13 17 100 0.130435
11 13 17 100 0.0434803
12 13 17 100 0.0869566
13 13 17 100 0.219373
14 13 17 100 0.217325
15 13 17 100 0.0849255
16 13 17 100 0.0861974
17 13 17 100 0.00343345
0 14 17 100 0.0404419
2 14 17 100 0.00082971
4 14 17 100 9.7446e-07
5 14 17 100 0.00153332
6 14 17 100 0.0457442
8 14 17 100 0.0454546
9 14 17 100 2.18768e-05
10 14 17 100 0.0909083
11 14 17 100 0.0454528
12 14 17 100 0.0909671
13 14 17 100 0.181818
14 14 17 100 0.136271
15 14 17 100 0.136364
16 14 17 100 0.0478284
17 14 17 100 0.136363
0 15 17 100 0.0010116
7 15 17 100 0.0525391
9 15 17 100 1.46247e-06
11 15 17 100 0.105264
12 15 17 100 1.32685e-06
13 15 17 100 0.114817
14 15 17 100 0.254137
15 15 17 100 0.157888
16 15 17 100 0.0511826
17 15 17 100 0.263158
0 16 17 100 0.000683349
3 16 17 100 4.08658e-05
6 16 17 100 0.000328155
8 16 17 100 1.10167e-05
9 16 17 100 0.0714304
11 16 17 100 0.0160405
12 16 17 100 0.0713944
13 16 17 100 0.0714287
14 16 17 100 0.284612
15 16 17 100 0.0828341
16 16 17 100 0.131522
17 16 17 100 0.269674
0 17 17 100 0.077166
3 17 17 100 0.00324259
5 17 17 100 1.53142e-06
10 17 17 100 0.000415294
11 17 17 100 0.0114564
13 17 17 100 0.000857049
15 17 17 100 0.182014
16 17 17 100 0.0884836
17 17 17 100 0.636364
2 18 17 100 4.04902e-06
14 18 17 100 0.249995
15 18 17 100 0.25
17 18 17 100 0.5
15 19 17 100 0.5
17 19 17 100 0.5
15 20 17 100 1
16 21 17 100 1
17 22 17 100 1
0 1 18 100 0.0029191
1 1 18 100 0.73506
2 1 18 100 0.00391096
3 1 18 100 0.00120357
4 1 18 100 0.000389651
5 1 18 100 9.79394e-07
6 1 18 100 1.81863e-05
7 1 18 100 0.147941
9 1 18 100 1.0976e-05
10 1 18 100 6.8573e-05
11 1 18 100 0.0619533
13 1 18 100 0.000168325
15 1 18 100 0.0463556
0 2 18 100 0.0257477
1 2 18 100 0.222289
2 2 18 100 0.501912
3 2 18 100 0.112527
4 2 18 100 0.00173034
5 2 18 100 0.0461444
6 2 18 100 0.0147625
7 2 18 100 4.08431e-06
8 2 18 100 3.04249e-06
10 2 18 100 0.00423338
11 2 18 100 3.08981e-05
13 2 18 100 9.91572e-06
14 2 18 100 8.36099e-06
15 2 18 100 6.52818e-05
16 2 18 100 0.032582
17 2 18 100 0.0379496
0 3 18 100 0.0526267
1 3 18 100 0.0555556
2 3 18 100 0.111115
3 3 18 100 0.499978
4 3 18 100 0.0555673
5 3 18 100 2.11662e-06
7 3 18 100 0.0554688
8 3 18 100 0.000488179
9 3 18 100 5.82797e-07
13 3 18 100 0.0024508
14 3 18 100 5.97502e-05
15 3 18 100 0.055555
16 3 18 100 0.000526906
17 3 18 100 0.110606
0 4 18 100 0.00341707
1 4 18 100 0.0554606
2 4 18 100 0.0555556
3 4 18 100 0.11135
4 4 18 100 0.277683
5 4 18 100 0.272885
7 4 18 100 0.0558059
9 4 18 100 0.0555556
10 4 18 100 0.000187319
13 4 18 100 0.00098827
17 4 18 100 0.111111
0 5 18 100 0.0537623
1 5 18 100 0.057402
2 5 18 100 0.000125793
3 5 18 100 0.0480277
4 5 18 100 0.0716119
5 5 18 100 0.333168
6 5 18 100 0.115472
7 5 18 100 0.000163906
8 5 18 100 0.000117878
9 5 18 100 0.00166498
10 5 18 100 0.0555935
11 5 18 100 0.111674
14 5 18 100 0.0334134
15 5 18 100 1.16275e-05
16 5 18 100 0.117706
17 5 18 100 8.47917e-05
0 6 18 100 0.00493496
1 6 18 100 1.84154e-06
2 6 18 100 2.32092e-05
3 6 18 100 0.0555556
4 6 18 100 1.13743e-05
5 6 18 100 0.110845
6 6 18 100 0.329046
7 6 18 100 0.166711
10 6 18 100 7.21376e-06
11 6 18 100 0.166659
12 6 18 100 0.0555545
13 6 18 100 4.55072e-05
15 6 18 100 0.0557042
16 6 18 100 1.59423e-06
17 6 18 100 0.0548983
0 7 18 100 0.0544768
2 7 18 100 3.84817e-05
4 7 18 100 0.0549779
5 7 18 100 0.0555763
6 7 18 100 0.10476
7 7 18 100 0.330499
8 7 18 100 0.22289
9 7 18 100 0.000748219
10 7 18 100 1.86861e-05
11 7 18 100 0.0634432
12 7 18 100 0.0555557
13 7 18 100 0.00330434
14 7 18 100 8.05593e-05
15 7 18 100 1.85152e-06
16 7 18 100 0.053623
17 7 18 100 5.34357e-06
0 8 18 100 7.60929e-05
1 8 18 100 0.0555556
3 8 18 100 1.64687e-06
5 8 18 100 0.111111
6 8 18 100 0.0555548
7 8 18 100 0.333024
8 8 18 100 0.111111
9 8 18 100 0.0555556
10 8 18 100 0.0555153
11 8 18 100 0.0555556
13 8 18 100 0.000453378
14 8 18 100 0.110929
15 8 18 100 7.29502e-07
16 8 18 100 0.0555556
0 9 18 100 0.0311612
3 9 18 100 0.0555557
5 9 18 100 0.00036511
6 9 18 100 0.172039
7 9 18 100 0.0426808
8 9 18 100 0.181208
9 9 18 100 0.232647
10 9 18 100 0.00273812
11 9 18 100 0.101039
12 9 18 100 0.0656742
13 9 18 100 2.50592e-05
14 9 18 100 0.0557713
15 9 18 100 0.00295855
16 9 18 100 0.0555659
17 9 18 100 0.000571218
0 10 18 100 0.0274501
3 10 18 100 8.37863e-05
4 10 18 100 0.0555607
5 10 18 100 0.00301451
6 10 18 100 0.0450969
7 10 18 100 0.113792
8 10 18 100 0.124662
9 10 18 100 0.163278
10 10 18 100 0.170403
11 10 18 100 0.0552877
12 10 18 100 0.0555556
13 10 18 100 0.0745072
14 10 18 100 0.055567
15 10 18 100 0.00014699
16 10 18 100 0.0555776
17 10 18 100 1.68578e-05
0 11 18 100 0.0529498
5 11 18 100 0.0555557
8 11 18 100 0.277776
9 11 18 100 0.0555583
10 11 18 100 0.166669
11 11 18 100 0.111111
12 11 18 100 0.0555554
13 11 18 100 0.0581459
14 11 18 100 0.111111
16 11 18 100 1.28507e-05
17 11 18 100 0.0555545
0 12 18 100 0.000185562
1 12 18 100 2.61081e-05
2 12 18 100 3.39914e-05
4 12 18 100 1.28581e-06
6 12 18 100 0.00932259
7 12 18 100 1.98278e-05
9 12 18 100 0.0584982
10 12 18 100 0.349778
11 12 18 100 0.171342
12 12 18 100 0.059135
13 12 18 100 0.0576034
14 12 18 100 0.0587172
15 12 18 100 0.117652
16 12 18 100 0.117651
17 12 18 100 3.44946e-05
0 13 18 100 0.0638522
4 13 18 100 0.000524547
6 13 18 100 1.453e-05
8 13 18 100 0.0588236
9 13 18 100 0.000158979
10 13 18 100 0.0582503
11 13 18 100 0.175122
12 13 18 100 0.232732
13 13 18 100 0.002564
14 13 18 100 0.00183166
15 13 18 100 0.0590011
16 13 18 100 0.058825
17 13 18 100 0.170652
18 13 18 100 0.117647
0 14 18 100 0.0344606
3 14 18 100 1.52241e-06
7 14 18 100 1.18089e-05
9 14 18 100 0.0724734
10 14 18 100 1.6297e-05
11 14 18 100 0.200013
13 14 18 100 0.214285
14 14 18 100 0.0666997
15 14 18 100 0.133378
16 14 18 100 0.00403791
17 14 18 100 0.0746276
18 14 18 100 0.199996
0 15 18 100 0.000137266
2 15 18 100 2.91855e-05
6 15 18 100 6.68138e-05
10 15 18 100 0.0828765
12 15 18 100 0.333334
13 15 18 100 0.000223553
14 15 18 100 0.174268
15 15 18 100 0.0833334
17 15 18 100 0.159065
18 15 18 100 0.166667
0 16 18 100 0.0871542
4 16 18 100 2.91703e-06
8 16 18 100 0.000722887
10 16 18 100 0.0998341
12 16 18 100 0.1
13 16 18 100 0.211976
14 16 18 100 0.200229
15 16 18 100 0.1
16 16 18 100 2.09328e-05
17 16 18 100 5.92183e-05
18 16 18 100 0.2
14 17 18 100 0.250231
16 17 18 100 0.249769
17 17 18 100 0.125
18 17 18 100 0.375
15 18 18 100 0.2
16 18 18 100 0.000648702
17 18 18 100 0.39935
18 18 18 100 0.400001
18 19 18 100 1
0 1 19 100 0.00425831
1 1 19 100 0.765486
2 1 19 100 8.62166e-06
3 1 19 100 0.0378487
4 1 19 100 0.000560219
5 1 19 100 0.000891981
6 1 19 100 0.00844336
7 1 19 100 0.0708073
9 1 19 100 6.89618e-05
10 1 19 100 6.44712e-06
12 1 19 100 0.0736031
14 1 19 100 5.69058e-06
15 1 19 100 0.000296151
16 1 19 100 4.28669e-07
17 1 19 100 0.000528817
18 1 19 100 0.0371863
0 2 19 100 0.0686374
1 2 19 100 0.374431
2 2 19 100 0.222321
3 2 19 100 0.0645303
4 2 19 100 0.141494
5 2 19 100 0.00929881
6 2 19 100 4.6732e-05
9 2 19 100 0.000192039
10 2 19 100 0.0370424
11 2 19 100 5.34915e-05
12 2 19 100 0.0370371
13 2 19 100 0.00011634
14 2 19 100 2.56332e-05
16 2 19 100 0.000157577
17 2 19 100 0.00105982
18 2 19 100 0.0435554
0 3 19 100 0.0276017
1 3 19 100 0.18238
2 3 19 100 0.165415
3 3 19 100 0.361313
4 3 19 100 0.0384723
5 3 19 100 0.0738633
6 3 19 100 0.040143
8 3 19 100 3.50747e-06
9 3 19 100 0.0312629
10 3 19 100 0.0370558
11 3 19 100 0.00106734
13 3 19 100 0.0370295
14 3 19 100 0.00120725
17 3 19 100 8.23516e-05
18 3 19 100 0.00310187
0 4 19 100 0.0114829
1 4 19 100 0.148148
2 4 19 100 0.184261
3 4 19 100 0.150834
4 4 19 100 0.283821
5 4 19 100 0.0499511
6 4 19 100 0.0232659
7 4 19 100 0.0311754
8 4 19 100 9.27587e-07
9 4 19 100 0.000799062
11 4 19 100 0.000121828
12 4 19 100 0.0370574
13 4 19 100 2.88708e-05
14 4 19 100 0.0416463
16 4 19 100 8.66547e-06
17 4 19 100 0.0370371
18 4 19 100 0.000358579
19 4 19 100 1.55295e-06
0 5 19 100 0.00738927
1 5 19 100 0.0740742
2 5 19 100 0.148826
3 5 19 100 0.0923617
4 5 19 100 0.153556
5 5 19 100 0.218258
6 5 19 100 0.109355
7 5 19 100 0.0370379
8 5 19 100 0.0370846
9 5 19 100 0.00019573
12 5 19 100 0.000132415
13 5 19 100 0.037037
14 5 19 100 0.0370371
15 5 19 100 0.00106564
16 5 19 100 4.49618e-05
17 5 19 100 0.00205269
18 5 19 100 0.0444927
0 6 19 100 0.0423138
1 6 19 100 3.04105e-05
2 6 19 100 0.0371375
3 6 19 100 0.106547
4 6 19 100 9.54049e-05
5 6 19 100 0.110792
6 6 19 100 0.198205
7 6 19 100 0.183628
8 6 19 100 0.0980543
9 6 19 100 0.0741402
10 6 19 100 0.0408889
11 6 19 100 7.35896e-07
12 6 19 100 0.0370404
13 6 19 100 8.16074e-07
14 6 19 100 0.0371172
15 6 19 100 0.00026952
16 6 19 100 0.0332971
17 6 19 100 1.81552e-05
18 6 19 100 0.000367436
19 6 19 100 5.5763e-05
0 7 19 100 0.00307132
2 7 19 100 0.0372658
3 7 19 100 0.000113983
4 7 19 100 0.181929
5 7 19 100 0.037075
6 7 19 100 0.170359
7 7 19 100 0.150892
8 7 19 100 0.111116
9 7 19 100 0.111067
10 7 19 100 0.0740243
11 7 19 100 1.10574e-05
12 7 19 100 0.0371191
13 7 19 100 0.000426957
14 7 19 100 0.037043
15 7 19 100 0.0112336
16 7 19 100 1.53643e-05
17 7 19 100 0.0370754
18 7 19 100 0.000163501
0 8 19 100 0.00337985
2 8 19 100 8.31979e-07
4 8 19 100 0.000219919
5 8 19 100 0.185417
6 8 19 100 0.0410562
7 8 19 100 0.222149
8 8 19 100 0.148148
9 8 19 100 0.14985
10 8 19 100 0.0376882
11 8 19 100 0.0928716
12 8 19 100 0.000950918
14 8 19 100 0.0454475
15 8 19 100 0.0370528
17 8 19 100 0.000108415
18 8 19 100 0.0356591
0 9 19 100 0.00648956
2 9 19 100 3.94136e-05
3 9 19 100 0.000124855
4 9 19 100 1.5475e-05
6 9 19 100 0.148349
7 9 19 100 0.0743999
8 9 19 100 0.26089
9 9 19 100 0.071481
10 9 19 100 0.148148
11 9 19 100 0.10367
12 9 19 100 0.121874
13 9 19 100 8.02208e-06
15 9 19 100 0.00238343
16 9 19 100 0.0370356
17 9 19 100 0.025072
18 9 19 100 1.9173e-05
0 10 19 100 0.000281902
3 10 19 100 4.16311e-07
7 10 19 100 0.222128
8 10 19 100 0.0370371
9 10 19 100 0.184942
10 10 19 100 0.0370371
11 10 19 100 0.111111
12 10 19 100 0.111118
13 10 19 100 0.0370384
14 10 19 100 0.0740748
15 10 19 100 0.0740324
16 10 19 100 0.0740742
17 10 19 100 8.6212e-05
18 10 19 100 0.0370371
0 11 19 100 0.0380884
3 11 19 100 0.000590373
4 11 19 100 0.000963661
5 11 19 100 0.0378426
6 11 19 100 1.87483e-05
7 11 19 100 8.91784e-07
8 11 19 100 0.11175
9 11 19 100 0.0687321
10 11 19 100 0.185193
11 11 19 100 0.0370409
12 11 19 100 0.148033
13 11 19 100 0.0731525
14 11 19 100 0.0384095
15 11 19 100 0.0734882
16 11 19 100 0.111158
17 11 19 100 0.0370438
18 11 19 100 0.0384944
0 12 19 100 0.0283535
1 12 19 100 4.0525e-05
3 12 19 100 0.0370629
4 12 19 100 0.00198845
5 12 19 100 0.0370699
6 12 19 100 0.00019748
7 12 19 100 0.0370572
9 12 19 100 0.0749116
10 12 19 100 0.14607
11 12 19 100 0.0742547
12 12 19 100 0.18317
13 12 19 100 0.194758
15 12 19 100 0.111226
16 12 19 100 1.50092e-05
17 12 19 100 0.0370383
18 12 19 100 0.0367869
0 13 19 100 0.0414688
1 13 19 100 0.0370376
2 13 19 100 9.16211e-07
3 13 19 100 0.0370405
5 13 19 100 0.0740552
6 13 19 100 9.18665e-05
7 13 19 100 0.0370371
10 13 19 100 0.111111
11 13 19 100 0.106293
12 13 19 100 0.0375386
13 13 19 100 0.109498
14 13 19 100 0.222216
15 13 19 100 0.037037
16 13 19 100 0.0748475
18 13 19 100 0.0376912
19 13 19 100 0.0370371
0 14 19 100 0.00377903
1 14 19 100 9.13979e-07
2 14 19 100 0.0375157
4 14 19 100 0.0384616
5 14 19 100 0.0384778
6 14 19 100 0.0393303
8 14 19 100 0.0385288
9 14 19 100 5.29128e-07
10 14 19 100 2.20374e-06
11 14 19 100 0.153817
12 14 19 100 0.0384616
13 14 19 100 0.0917404
14 14 19 100 0.140805
15 14 19 100 0.0896728
16 14 19 100 0.0971521
17 14 19 100 0.0383943
18 14 19 100 0.0384756
19 14 19 100 0.115385
0 15 19 100 0.00164239
1 15 19 100 0.000107691
3 15 19 100 7.28242e-06
4 15 19 100 0.0434783
5 15 19 100 0.0652893
7 15 19 100 0.0446977
8 15 19 100 0.0625437
9 15 19 100 5.91322e-06
10 15 19 100 0.000235943
11 15 19 100 0.0434783
12 15 19 100 0.0871393
13 15 19 100 0.0875997
14 15 19 100 0.0471283
15 15 19 100 0.217386
16 15 19 100 0.0820957
17 15 19 100 0.0268601
18 15 19 100 0.0598689
19 15 19 100 0.130435
0 16 19 100 0.0450185
2 16 19 100 0.000219096
3 16 19 100 7.11737e-07
6 16 19 100 0.0184032
7 16 19 100 0.000159387
9 16 19 100 0.0526317
10 16 19 100 0.00626863
12 16 19 100 0.0962491
13 16 19 100 0.105263
14 16 19 100 0.1579
15 16 19 100 0.0947068
16 16 19 100 0.157895
17 16 19 100 0.105263
18 16 19 100 0.00212624
19 16 19 100 0.157895
0 17 19 100 9.31048e-05
2 17 19 100 6.34674e-07
5 17 19 100 3.83701e-05
8 17 19 100 0.0625001
10 17 19 100 0.0625022
12 17 19 100 0.000257046
14 17 19 100 0.125
15 17 19 100 0.130642
16 17 19 100 0.125002
17 17 19 100 0.249454
18 17 19 100 0.119511
19 17 19 100 0.125
0 18 19 100 0.0013704
9 18 19 100 0.0666667
15 18 19 100 0.133341
17 18 19 100 0.198618
18 18 19 100 0.0666706
19 18 19 100 0.533334
16 19 19 100 0.285649
18 19 19 100 0.142922
19 19 19 100 0.571429
0 20 19 100 0.00112129
17 20 19 100 0.332212
19 20 19 100 0.666667
0 21 19 100 0.973304
17 21 19 100 0.0228047
18 21 19 100 0.00389125
18 22 19 100 1
19 23 19 100 1
0 1 20 100 0.000895569
1 1 20 100 0.721867
2 1 20 100 0.0364349
3 1 20 100 7.95533e-05
4 1 20 100 0.000202421
5 1 20 100 0.120002
7 1 20 100 3.51011e-06
9 1 20 100 0.0400001
10 1 20 100 5.33044e-07
11 1 20 100 0.0399997
13 1 20 100 0.000107724
16 1 20 100 0.0399995
18 1 20 100 3.76606e-06
20 1 20 100 0.000404346
0 2 20 100 0.00640104
1 2 20 100 0.369094
2 2 20 100 0.0826048
3 2 20 100 0.149649
4 2 20 100 0.0399364
5 2 20 100 0.121001
6 2 20 100 0.0101731
7 2 20 100 5.56643e-06
8 2 20 100 0.0399107
9 2 20 100 3.98597e-06
10 2 20 100 0.0400531
11 2 20 100 4.6601e-06
12 2 20 100 4.8826e-05
13 2 20 100 8.17886e-05
14 2 20 100 1.01069e-06
15 2 20 100 1.37889e-05
16 2 20 100 0.040001
17 2 20 100 0.0786962
18 2 20 100 0.0219193
19 2 20 100 0.000400734
0 3 20 100 0.0158711
1 3 20 100 0.240003
2 3 20 100 0.159982
3 3 20 100 0.100837
4 3 20 100 0.205542
5 3 20 100 0.0416887
6 3 20 100 0.0757873
9 3 20 100 0.0400001
11 3 20 100 0.000283967
14 3 20 100 1.69351e-06
16 3 20 100 1.67928e-06
17 3 20 100 0.0800825
18 3 20 100 0.0399189
0 4 20 100 0.0122858
1 4 20 100 0.0400001
2 4 20 100 0.20003
3 4 20 100 0.159663
4 4 20 100 0.08326
5 4 20 100 0.159943
6 4 20 100 0.0401307
7 4 20 100 0.0399987
8 4 20 100 0.00159766
9 4 20 100 0.0367435
10 4 20 100 0.0262615
11 4 20 100 0.0403198
12 4 20 100 1.40915e-05
14 4 20 100 4.783e-07
15 4 20 100 3.01513e-05
17 4 20 100 0.0800012
18 4 20 100 0.0400328
19 4 20 100 0.0396872
0 5 20 100 0.0325334
1 5 20 100 0.0400434
2 5 20 100 0.00269967
3 5 20 100 0.0734892
4 5 20 100 0.17767
5 5 20 100 0.150659
6 5 20 100 0.221865
7 5 20 100 0.0400008
8 5 20 100 0.00597102
9 5 20 100 0.0799966
10 5 20 100 0.00585534
11 5 20 100 5.05624e-05
12 5 20 100 0.0390411
13 5 20 100 0.0400524
14 5 20 100 0.000631137
17 5 20 100 0.0400031
18 5 20 100 0.049394
19 5 20 100 4.46814e-05
0 6 20 100 0.0700937
2 6 20 100 0.0400999
3 6 20 100 1.54909e-05
4 6 20 100 0.0800054
5 6 20 100 0.172026
6 6 20 100 0.15355
7 6 20 100 0.16
8 6 20 100 0.0402782
9 6 20 100 0.000278007
10 6 20 100 0.0800002
11 6 20 100 0.0402123
12 6 20 100 1.25482e-06
13 6 20 100 7.54418e-06
14 6 20 100 0.0026496
15 6 20 100 2.14887e-06
16 6 20 100 0.120002
17 6 20 100 0.000758743
18 6 20 100 7.27458e-07
19 6 20 100 0.0400183
0 7 20 100 0.00108428
2 7 20 100 0.0133535
3 7 20 100 0.000228807
5 7 20 100 0.12
6 7 20 100 0.197759
7 7 20 100 0.160008
8 7 20 100 0.187474
9 7 20 100 0.0399998
11 7 20 100 0.12
12 7 20 100 8.44049e-05
13 7 20 100 4.04905e-06
14 7 20 100 0.040004
15 7 20 100 0.0396063
16 7 20 100 0.04
17 7 20 100 0.04
18 7 20 100 4.0164e-06
19 7 20 100 0.000389726
0 8 20 100 0.00624517
2 8 20 100 0.00196262
3 8 20 100 0.00022005
4 8 20 100 0.0779833
5 8 20 100 0.0423585
6 8 20 100 0.119419
7 8 20 100 0.1201
8 8 20 100 0.120394
9 8 20 100 0.311084
10 8 20 100 0.0799973
11 8 20 100 0.0400001
12 8 20 100 0.0398912
13 8 20 100 2.56514e-06
14 8 20 100 4.31989e-07
16 8 20 100 0.0400281
17 8 20 100 1.81235e-05
18 8 20 100 0.00016918
19 8 20 100 0.000126885
0 9 20 100 0.0775397
1 9 20 100 0.000251084
2 9 20 100 0.00316082
3 9 20 100 0.0351514
5 9 20 100 0.085497
6 9 20 100 2.84355e-06
7 9 20 100 0.163306
8 9 20 100 0.188557
9 9 20 100 0.043657
10 9 20 100 0.284467
11 9 20 100 0.0036684
12 9 20 100 0.036597
13 9 20 100 0.00544829
15 9 20 100 0.00135767
17 9 20 100 1.68405e-05
18 9 20 100 0.000102798
19 9 20 100 0.0312201
20 9 20 100 0.04
0 10 20 100 0.0113291
2 10 20 100 0.00244469
4 10 20 100 0.041666
5 10 20 100 0.0416673
6 10 20 100 0.041671
8 10 20 100 0.0824836
9 10 20 100 0.16965
10 10 20 100 0.12505
11 10 20 100 0.337121
13 10 20 100 0.0836195
14 10 20 100 0.0416667
15 10 20 100 1.14345e-05
18 10 20 100 0.000111719
19 10 20 100 0.0215083
0 11 20 100 0.000206118
4 11 20 100 7.78563e-05
6 11 20 100 0.125005
7 11 20 100 0.0415847
9 11 20 100 0.0833993
10 11 20 100 0.20831
11 11 20 100 0.0416668
12 11 20 100 0.374466
13 11 20 100 0.000281808
14 11 20 100 0.0832737
15 11 20 100 0.0416668
18 11 20 100 1.95944e-05
19 11 20 100 4.30062e-05
0 12 20 100 0.0271706
2 12 20 100 9.43921e-07
3 12 20 100 0.000187507
4 12 20 100 0.000100113
6 12 20 100 0.00616534
7 12 20 100 0.0424212
8 12 20 100 0.11636
10 12 20 100 0.0537414
11 12 20 100 0.2566
12 12 20 100 0.0835254
13 12 20 100 0.296387
14 12 20 100 0.00497815
15 12 20 100 0.0416425
16 12 20 100 7.56957e-06
17 12 20 100 0.0244761
18 12 20 100 0.00277658
19 12 20 100 0.00179308
20 12 20 100 0.0416667
0 13 20 100 0.000150691
5 13 20 100 6.58536e-05
8 13 20 100 0.043507
9 13 20 100 0.043382
10 13 20 100 0.0868426
11 13 20 100 0.0435038
12 13 20 100 0.304155
13 13 20 100 0.0435295
14 13 20 100 0.217344
15 13 20 100 0.0434829
16 13 20 100 0.0871756
17 13 20 100 0.0433718
18 13 20 100 0.0434797
19 13 20 100 9.18409e-06
0 14 20 100 0.00158485
2 14 20 100 0.000111209
6 14 20 100 0.0434783
8 14 20 100 7.31936e-07
9 14 20 100 0.00330102
10 14 20 100 0.0435143
11 14 20 100 0.0788381
12 14 20 100 0.0906623
13 14 20 100 0.257241
14 14 20 100 0.0434798
15 14 20 100 0.173942
16 14 20 100 0.130406
17 14 20 100 0.0869309
18 14 20 100 3.88726e-06
19 14 20 100 0.046505
0 15 20 100 0.000198571
2 15 20 100 9.8851e-06
4 15 20 100 0.000128195
7 15 20 100 0.0434764
9 15 20 100 1.41521e-06
10 15 20 100 0.0434671
11 15 20 100 0.0438885
12 15 20 100 0.0435156
13 15 20 100 0.086715
14 15 20 100 0.181802
15 15 20 100 0.165553
16 15 20 100 0.138318
17 15 20 100 0.122467
18 15 20 100 0.0869605
19 15 20 100 2.04845e-05
20 15 20 100 0.0434783
0 16 20 100 0.0406219
2 16 20 100 0.000318644
4 16 20 100 5.32435e-06
6 16 20 100 8.58679e-05
8 16 20 100 0.000762665
10 16 20 100 0.0486243
11 16 20 100 0.045136
12 16 20 100 0.00436941
14 16 20 100 0.112805
15 16 20 100 0.15992
16 16 20 100 0.177449
17 16 20 100 0.18145
18 16 20 100 0.0454649
19 16 20 100 0.0466238
20 16 20 100 0.136364
0 17 20 100 0.0532407
3 17 20 100 1.07689e-05
4 17 20 100 1.34568e-05
5 17 20 100 2.58758e-06
10 17 20 100 1.10061e-06
11 17 20 100 0.0555562
12 17 20 100 1.71767e-05
13 17 20 100 0.0555556
14 17 20 100 0.0555556
15 17 20 100 0.0574587
16 17 20 100 0.111049
17 17 20 100 0.222408
18 17 20 100 0.0556166
19 17 20 100 0.0557366
20 17 20 100 0.277778
0 18 20 100 0.000115096
12 18 20 100 0.0769231
14 18 20 100 0.153846
15 18 20 100 0.0769231
16 18 20 100 0.0769231
17 18 20 100 0.153846
18 18 20 100 0.0777913
19 18 20 100 0.0759397
20 18 20 100 0.307692
0 19 20 100 0.0889246
3 19 20 100 4.43499e-05
5 19 20 100 0.000459752
6 19 20 100 0.00825637
9 19 20 100 2.89864e-06
12 19 20 100 0.00571711
13 19 20 100 0.111111
15 19 20 100 0.108795
16 19 20 100 0.111111
17 19 20 100 0.113356
19 19 20 100 0.118888
20 19 20 100 0.333333
14 20 20 100 0.166667
15 20 20 100 0.166667
16 20 20 100 0.166667
19 20 20 100 0.166667
20 20 20 100 0.333333
15 21 20 100 0.25
16 21 20 100 0.25
20 21 20 100 0.5
20 22 20 100 1
0 1 21 100 0.000346448
1 1 21 100 0.848851
2 1 21 100 0.119299
3 1 21 100 0.000764103
6 1 21 100 3.22671e-06
9 1 21 100 6.87379e-07
12 1 21 100 3.00377e-05
14 1 21 100 5.21924e-06
17 1 21 100 0.000275069
18 1 21 100 0.000116374
19 1 21 100 0.0303092
0 2 21 100 0.0351144
1 2 21 100 0.439046
2 2 21 100 0.308495
3 2 21 100 0.060404
4 2 21 100 0.0473869
5 2 21 100 0.0167338
6 2 21 100 1.97864e-06
7 2 21 100 6.08209e-06
8 2 21 100 0.000397618
9 2 21 100 5.58525e-06
10 2 21 100 9.08188e-05
11 2 21 100 0.000305915
12 2 21 100 2.08784e-05
13 2 21 100 0.000215987
14 2 21 100 1.36049e-05
15 2 21 100 0.0303036
16 2 21 100 0.0255086
17 2 21 100 0.00340934
18 2 21 100 5.54183e-05
19 2 21 100 0.0319688
20 2 21 100 0.000515274
0 3 21 100 0.000823285
1 3 21 100 0.0603839
2 3 21 100 0.200556
3 3 21 100 0.343172
4 3 21 100 0.0925846
5 3 21 100 0.0950063
6 3 21 100 0.0227937
8 3 21 100 0.0302666
9 3 21 100 8.11829e-05
10 3 21 100 0.0303042
11 3 21 100 8.31385e-05
13 3 21 100 0.000101048
15 3 21 100 0.00323797
16 3 21 100 3.13123e-06
17 3 21 100 0.0365887
18 3 21 100 0.0427766
19 3 21 100 0.0109363
20 3 21 100 0.0303017
0 4 21 100 0.0292477
1 4 21 100 0.0908816
2 4 21 100 0.0909101
3 4 21 100 0.181755
4 4 21 100 0.298892
5 4 21 100 0.0606258
6 4 21 100 0.0606049
7 4 21 100 0.0909005
8 4 21 100 1.52525e-05
9 4 21 100 2.76703e-05
11 4 21 100 0.0303331
13 4 21 100 0.00389925
16 4 21 100 3.35574e-06
17 4 21 100 0.0303031
18 4 21 100 0.000302029
19 4 21 100 0.03031
20 4 21 100 0.000988293
0 5 21 100 0.0154755
1 5 21 100 0.0457039
2 5 21 100 0.0961769
3 5 21 100 0.0672092
4 5 21 100 0.124304
5 5 21 100 0.0933718
6 5 21 100 0.210116
7 5 21 100 0.0939847
8 5 21 100 0.0303034
9 5 21 100 7.24295e-07
10 5 21 100 0.0309
12 5 21 100 0.0303034
14 5 21 100 0.0303031
16 5 21 100 0.0605224
17 5 21 100 2.09777e-05
18 5 21 100 0.0409735
19 5 21 100 2.45028e-05
20 5 21 100 0.0303055
0 6 21 100 0.0524614
1 6 21 100 0.030303
2 6 21 100 0.0606062
3 6 21 100 0.0606045
4 6 21 100 0.143745
5 6 21 100 0.0425855
6 6 21 100 0.190164
7 6 21 100 0.145312
8 6 21 100 0.121576
9 6 21 100 8.05223e-07
11 6 21 100 0.00592773
12 6 21 100 1.21773e-05
13 6 21 100 0.0304445
14 6 21 100 4.73549e-06
15 6 21 100 0.0304362
16 6 21 100 3.30492e-07
17 6 21 100 0.0554766
18 6 21 100 3.1216e-05
19 6 21 100 2.13971e-06
20 6 21 100 0.0303059
0 7 21 100 0.00267079
1 7 21 100 0.0013291
2 7 21 100 0.00506604
3 7 21 100 0.0553293
4 7 21 100 0.155656
5 7 21 100 0.0563714
6 7 21 100 0.121183
7 7 21 100 0.152106
8 7 21 100 0.15198
9 7 21 100 0.117315
10 7 21 100 0.0303156
11 7 21 100 7.7201e-06
12 7 21 100 0.0303031
13 7 21 100 0.0286354
14 7 21 100 0.000283811
15 7 21 100 5.84306e-05
16 7 21 100 0.0302563
17 7 21 100 0.0301479
18 7 21 100 0.000317918
19 7 21 100 2.41876e-06
20 7 21 100 0.0306643
0 8 21 100 0.00473335
1 8 21 100 0.0303497
3 8 21 100 0.00413341
4 8 21 100 0.0847096
5 8 21 100 0.151057
6 8 21 100 0.0613332
7 8 21 100 0.118351
8 8 21 100 0.151475
9 8 21 100 0.154863
10 8 21 100 0.146542
12 8 21 100 0.0304895
14 8 21 100 0.030406
17 8 21 100 0.0303031
18 8 21 100 0.00124703
20 8 21 100 6.66072e-06
0 9 21 100 0.001337
1 9 21 100 5.5708e-05
2 9 21 100 0.0303031
3 9 21 100 8.38482e-06
4 9 21 100 0.000107649
5 9 21 100 0.0303067
6 9 21 100 0.181755
7 9 21 100 0.0908644
8 9 21 100 0.0607926
9 9 21 100 0.212126
10 9 21 100 0.212113
11 9 21 100 0.118657
14 9 21 100 5.75543e-06
16 9 21 100 0.0312498
17 9 21 100 0.0303031
18 9 21 100 1.20677e-05
19 9 21 100 6.02019e-07
20 9 21 100 1.37604e-06
0 10 21 100 0.00184904
2 10 21 100 0.0302991
3 10 21 100 0.0297368
4 10 21 100 0.000366768
5 10 21 100 2.84926e-06
6 10 21 100 0.0918871
7 10 21 100 0.0871259
8 10 21 100 0.155601
9 10 21 100 0.0909092
10 10 21 100 0.210525
11 10 21 100 0.151983
12 10 21 100 0.0303038
13 10 21 100 0.0303031
16 10 21 100 3.24788e-06
17 10 21 100 0.0267846
18 10 21 100 0.0015697
19 10 21 100 5.03816e-05
20 10 21 100 0.0606994
0 11 21 100 0.059485
2 11 21 100 0.000134251
3 11 21 100 0.0601496
4 11 21 100 1.96002e-06
5 11 21 100 0.0296016
6 11 21 100 0.0303233
7 11 21 100 0.0607681
8 11 21 100 0.0909327
9 11 21 100 0.0635493
10 11 21 100 0.118479
11 11 21 100 0.181005
12 11 21 100 0.0908921
13 11 21 100 0.0612399
14 11 21 100 0.0306432
15 11 21 100 0.0299327
16 11 21 100 0.0303961
17 11 21 100 3.18793e-05
18 11 21 100 0.000449526
19 11 21 100 0.0309968
20 11 21 100 0.0309883
0 12 21 100 0.00712778
3 12 21 100 4.63559e-06
4 12 21 100 0.0303029
5 12 21 100 0.0303031
6 12 21 100 0.000119888
7 12 21 100 0.0611167
8 12 21 100 0.0310634
9 12 21 100 0.0303031
10 12 21 100 0.079106
11 12 21 100 0.143786
12 12 21 100 0.181718
13 12 21 100 0.15154
14 12 21 100 2.41018e-06
15 12 21 100 0.0612944
16 12 21 100 0.0327893
17 12 21 100 0.00985343
18 12 21 100 0.0610464
19 12 21 100 0.058429
20 12 21 100 0.0300931
0 13 21 100 0.00740673
2 13 21 100 2.64977e-06
3 13 21 100 3.14228e-06
5 13 21 100 0.0358347
6 13 21 100 0.0273498
7 13 21 100 0.0606188
8 13 21 100 0.0325844
9 13 21 100 0.00023367
10 13 21 100 0.0871091
11 13 21 100 0.121216
12 13 21 100 0.121212
13 13 21 100 0.0908606
14 13 21 100 0.0505532
15 13 21 100 0.0909634
16 13 21 100 0.0909089
17 13 21 100 0.0302087
18 13 21 100 0.000907581
19 13 21 100 0.0619244
20 13 21 100 0.0294957
21 13 21 100 0.0606067
0 14 21 100 0.0295944
1 14 21 100 2.61609e-05
3 14 21 100 0.000744567
4 14 21 100 0.000927661
5 14 21 100 3.42113e-06
6 14 21 100 0.00467346
7 14 21 100 0.0289282
8 14 21 100 0.000259181
9 14 21 100 0.129111
10 14 21 100 0.0322581
11 14 21 100 0.0968021
12 14 21 100 0.0965662
13 14 21 100 0.0968214
14 14 21 100 0.12907
15 14 21 100 0.0644754
16 14 21 100 0.0651196
17 14 21 100 0.0645587
18 14 21 100 0.000165458
19 14 21 100 0.127628
20 14 21 100 0.0322667
0 15 21 100 0.000899765
1 15 21 100 3.56887e-05
3 15 21 100 1.50127e-05
5 15 21 100 3.79462e-06
7 15 21 100 0.0322595
8 15 21 100 7.00886e-07
10 15 21 100 0.0967743
11 15 21 100 0.096769
12 15 21 100 0.0322654
13 15 21 100 0.16129
14 15 21 100 0.101212
15 15 21 100 0.0645244
16 15 21 100 0.129281
17 15 21 100 0.125514
18 15 21 100 0.0359511
19 15 21 100 0.0318683
20 15 21 100 0.0913348
0 16 21 100 0.0446773
1 16 21 100 1.08047e-05
4 16 21 100 0.000113494
6 16 21 100 5.46123e-05
7 16 21 100 0.0296712
8 16 21 100 0.00119679
9 16 21 100 0.00183576
10 16 21 100 0.0967584
11 16 21 100 0.118831
12 16 21 100 0.0325794
13 16 21 100 0.0684656
14 16 21 100 0.0578619
15 16 21 100 0.0967744
16 16 21 100 0.124564
17 16 21 100 0.0967807
18 16 21 100 0.00183844
19 16 21 100 0.0967744
20 16 21 100 0.0666956
21 16 21 100 0.0645163
0 17 21 100 0.000356227
5 17 21 100 2.02302e-06
8 17 21 100 0.0344828
10 17 21 100 0.0344828
12 17 21 100 0.0687272
13 17 21 100 0.0344828
14 17 21 100 0.0995295
15 17 21 100 0.103348
16 17 21 100 0.0689719
17 17 21 100 0.0670298
18 17 21 100 0.137891
19 17 21 100 0.0748319
20 17 21 100 2.42496e-06
21 17 21 100 0.275862
0 18 21 100 0.0463347
4 18 21 100 4.75727e-05
5 18 21 100 1.11146e-05
8 18 21 100 3.19931e-05
9 18 21 100 0.00332574
10 18 21 100 0.0912108
13 18 21 100 0.0952834
14 18 21 100 0.0489221
15 18 21 100 0.141541
16 18 21 100 0.0951162
17 18 21 100 0.143106
18 18 21 100 0.0476191
19 18 21 100 0.0952369
20 18 21 100 0.00173481
21 18 21 100 0.190479
0 19 21 100 0.0989006
2 19 21 100 2.29845e-05
3 19 21 100 1.82249e-05
4 19 21 100 5.04228e-06
9 19 21 100 0.000679008
10 19 21 100 0.0591578
13 19 21 100 0.117726
14 19 21 100 9.05463e-06
15 19 21 100 0.0589431
16 19 21 100 0.0638941
17 19 21 100 0.000220674
18 19 21 100 0.235282
19 19 21 100 0.0685171
20 19 21 100 0.120153
21 19 21 100 0.176471
10 20 21 100 4.6564e-06
11 20 21 100 0.0714279
14 20 21 100 0.142844
15 20 21 100 0.0714421
17 20 21 100 0.142853
18 20 21 100 0.0714287
19 20 21 100 0.214286
20 20 21 100 0.0714286
21 20 21 100 0.214286
12 21 21 100 0.0909092
15 21 21 100 0.272727
17 21 21 100 1.02568e-05
18 21 21 100 0.181808
19 21 21 100 0.0909121
20 21 21 100 0.181815
21 21 21 100 0.181818
0 22 21 100 0.124128
6 22 21 100 0.000118892
7 22 21 100 4.74796e-05
11 22 21 100 0.0823795
12 22 21 100 0.000589969
13 22 21 100 0.111111
16 22 21 100 0.226174
17 22 21 100 0.00159249
18 22 21 100 0.111111
20 22 21 100 0.120535
21 22 21 100 0.222212
0 23 21 100 0.000199025
4 23 21 100 0.000255574
8 23 21 100 0.140279
9 23 21 100 0.000272313
13 23 21 100 1.50157e-05
14 23 21 100 0.142391
16 23 21 100 0.000109924
18 23 21 100 0.142858
19 23 21 100 0.145043
20 23 21 100 0.142862
21 23 21 100 0.285716
15 24 21 100 0.2
16 24 21 100 0.2
19 24 21 100 0.2
21 24 21 100 0.4
16 25 21 100 0.333333
19 25 21 100 0.333333
21 25 21 100 0.333333
19 26 21 100 0.5
21 26 21 100 0.5
21 27 21 100 1
0 1 22 100 6.67421e-05
1 1 22 100 0.861542
2 1 22 100 0.0344828
3 1 22 100 5.27044e-05
4 1 22 100 0.0344826
5 1 22 100 1.77382e-06
7 1 22 100 0.000395882
14 1 22 100 7.66912e-07
16 1 22 100 4.45963e-07
17 1 22 100 0.0344812
18 1 22 100 9.62268e-05
19 1 22 100 4.34087e-07
20 1 22 100 0.034395
21 1 22 100 1.14987e-06
0 2 22 100 0.0400006
1 2 22 100 0.506475
2 2 22 100 0.217639
3 2 22 100 0.0665625
4 2 22 100 0.0344786
5 2 22 100 0.000267518
7 2 22 100 0.000553885
8 2 22 100 0.0348421
10 2 22 100 0.000996788
14 2 22 100 4.54287e-05
15 2 22 100 0.000148437
16 2 22 100 0.00012772
18 2 22 100 0.0626549
20 2 22 100 9.38092e-05
21 2 22 100 0.0351139
0 3 22 100 0.00051004
1 3 22 100 0.171772
2 3 22 100 0.349622
3 3 22 100 0.207656
4 3 22 100 0.0635006
5 3 22 100 0.0689721
6 3 22 100 5.57291e-06
7 3 22 100 2.18464e-06
8 3 22 100 7.07431e-05
9 3 22 100 0.000414258
10 3 22 100 0.00027895
11 3 22 100 0.0336941
12 3 22 100 5.90422e-07
13 3 22 100 7.16622e-06
14 3 22 100 5.42255e-07
15 3 22 100 6.28313e-06
16 3 22 100 1.20472e-05
18 3 22 100 0.0689697
19 3 22 100 1.95185e-05
21 3 22 100 0.0344858
0 4 22 100 0.0511579
1 4 22 100 0.0344828
2 4 22 100 0.207268
3 4 22 100 0.23902
4 4 22 100 0.214266
5 4 22 100 0.0363063
6 4 22 100 0.0345007
7 4 22 100 0.00241267
8 4 22 100 7.57607e-07
9 4 22 100 0.000736386
10 4 22 100 0.0656456
11 4 22 100 4.39784e-07
12 4 22 100 0.0367601
13 4 22 100 5.98869e-07
17 4 22 100 0.00688689
18 4 22 100 0.00128901
19 4 22 100 1.40416e-06
20 4 22 100 0.0344882
21 4 22 100 0.0347769
0 5 22 100 0.000743962
1 5 22 100 0.103459
2 5 22 100 0.0344945
3 5 22 100 0.138434
4 5 22 100 0.171639
5 5 22 100 0.214019
6 5 22 100 0.102211
7 5 22 100 0.000223368
8 5 22 100 0.00156099
9 5 22 100 0.0273305
10 5 22 100 1.02594e-06
11 5 22 100 0.102291
13 5 22 100 9.22025e-06
14 5 22 100 0.00115665
15 5 22 100 7.00262e-06
16 5 22 100 7.95306e-07
18 5 22 100 0.0313246
19 5 22 100 0.00256925
20 5 22 100 0.0340426
21 5 22 100 0.0344828
0 6 22 100 0.000266084
2 6 22 100 0.104064
3 6 22 100 0.0677942
4 6 22 100 0.103436
5 6 22 100 0.240333
6 6 22 100 0.172382
7 6 22 100 0.103449
8 6 22 100 0.0348188
9 6 22 100 0.000535205
10 6 22 100 0.0345359
11 6 22 100 0.0352879
12 6 22 100 0.0688653
14 6 22 100 0.0336967
16 6 22 100 1.1086e-05
17 6 22 100 0.0001768
19 6 22 100 7.13497e-06
20 6 22 100 0.000337822
21 6 22 100 3.70891e-06
0 7 22 100 0.00459806
3 7 22 100 0.103043
4 7 22 100 0.0344951
5 7 22 100 0.137984
6 7 22 100 0.207408
7 7 22 100 0.166668
8 7 22 100 0.102094
9 7 22 100 0.0353294
10 7 22 100 0.0345525
11 7 22 100 0.0344884
12 7 22 100 0.00120868
13 7 22 100 0.103448
14 7 22 100 0.0333787
15 7 22 100 9.78503e-05
16 7 22 100 0.000273797
18 7 22 100 1.73718e-06
19 7 22 100 0.000872035
20 7 22 100 4.36181e-06
21 7 22 100 5.51556e-05
0 8 22 100 7.08937e-05
2 8 22 100 0.00118312
3 8 22 100 0.0683996
5 8 22 100 0.138559
6 8 22 100 0.137852
7 8 22 100 0.172183
8 8 22 100 0.137953
9 8 22 100 0.104561
10 8 22 100 0.100642
11 8 22 100 7.25885e-05
12 8 22 100 0.0346574
13 8 22 100 4.75501e-05
14 8 22 100 0.0738462
15 8 22 100 0.0283008
16 8 22 100 7.85212e-06
17 8 22 100 0.000717048
18 8 22 100 0.000653307
19 8 22 100 0.000151412
21 8 22 100 0.000141273
0 9 22 100 0.0886661
2 9 22 100 3.36228e-05
3 9 22 100 0.000455601
4 9 22 100 0.0689911
5 9 22 100 8.19406e-06
6 9 22 100 0.0734971
7 9 22 100 0.103484
8 9 22 100 0.208651
9 9 22 100 0.134954
10 9 22 100 0.104935
11 9 22 100 0.0345485
13 9 22 100 0.00024528
14 9 22 100 0.0763906
15 9 22 100 0.000207493
16 9 22 100 0.0681749
18 9 22 100 0.000699792
19 9 22 100 0.0336859
20 9 22 100 0.000627563
21 9 22 100 0.00174351
0 10 22 100 0.0022201
1 10 22 100 0.0345726
3 10 22 100 0.0344833
5 10 22 100 0.000135803
6 10 22 100 0.00784686
7 10 22 100 0.103432
8 10 22 100 0.137931
9 10 22 100 0.206854
10 10 22 100 0.138461
11 10 22 100 0.097951
12 10 22 100 0.0394656
13 10 22 100 0.0697633
14 10 22 100 2.0978e-05
15 10 22 100 0.0345894
16 10 22 100 0.0340058
17 10 22 100 0.0344618
19 10 22 100 0.0220677
20 10 22 100 7.51817e-06
21 10 22 100 0.00172918
0 11 22 100 0.0303545
1 11 22 100 8.7614e-06
2 11 22 100 0.0344828
3 11 22 100 0.0353438
4 11 22 100 0.00102332
6 11 22 100 1.24847e-06
7 11 22 100 0.0382999
8 11 22 100 0.0325121
9 11 22 100 0.13786
10 11 22 100 0.10508
11 11 22 100 0.169847
12 11 22 100 0.138498
13 11 22 100 0.0344828
14 11 22 100 0.103213
16 11 22 100 0.0345237
17 11 22 100 0.0689166
18 11 22 100 0.00128893
19 11 22 100 0.0341098
20 11 22 100 0.000148583
21 11 22 100 4.72274e-06
0 12 22 100 0.0269427
3 12 22 100 1.72576e-05
4 12 22 100 0.0187586
5 12 22 100 1.22602e-05
7 12 22 100 0.000639462
8 12 22 100 0.0344692
9 12 22 100 0.0100622
10 12 22 100 0.0780899
11 12 22 100 0.198986
12 12 22 100 0.103448
13 12 22 100 0.142546
14 12 22 100 0.0509186
15 12 22 100 0.0876637
16 12 22 100 0.00359679
17 12 22 100 0.0345495
18 12 22 100 0.117236
19 12 22 100 0.00216889
20 12 22 100 0.0555828
21 12 22 100 0.034312
0 13 22 100 0.000558668
1 13 22 100 0.000171566
5 13 22 100 0.0344059
8 13 22 100 0.0687839
9 13 22 100 8.64645e-05
10 13 22 100 0.0689824
11 13 22 100 0.137899
12 13 22 100 0.103453
13 13 22 100 0.103448
14 13 22 100 0.0349451
15 13 22 100 0.0345874
16 13 22 100 0.171805
18 13 22 100 5.81332e-07
19 13 22 100 3.56832e-05
20 13 22 100 0.0935795
21 13 22 100 0.112775
22 13 22 100 0.0344828
0 14 22 100 0.0348607
2 14 22 100 2.41e-06
3 14 22 100 1.92488e-05
4 14 22 100 0.000245493
5 14 22 100 1.27912e-06
6 14 22 100 0.0312551
7 14 22 100 6.68927e-06
8 14 22 100 1.65395e-06
9 14 22 100 2.12681e-06
10 14 22 100 0.0716366
11 14 22 100 0.0714307
12 14 22 100 0.141383
13 14 22 100 0.144619
14 14 22 100 0.038346
15 14 22 100 0.104448
16 14 22 100 0.179019
18 14 22 100 4.37144e-05
19 14 22 100 0.00250098
20 14 22 100 0.000228819
21 14 22 100 0.072806
22 14 22 100 0.107143
0 15 22 100 0.0328122
2 15 22 100 2.11521e-06
5 15 22 100 5.46486e-05
7 15 22 100 0.0384614
9 15 22 100 2.17879e-06
10 15 22 100 1.81536e-05
11 15 22 100 0.0812535
12 15 22 100 0.0769051
13 15 22 100 0.230741
14 15 22 100 0.115345
15 15 22 100 0.076924
16 15 22 100 0.115298
17 15 22 100 0.077166
18 15 22 100 0.0384658
19 15 22 100 0.00117128
20 15 22 100 0.038464
21 15 22 100 0.0384542
22 15 22 100 0.0384616
0 16 22 100 0.0383138
6 16 22 100 0.0014979
8 16 22 100 0.0400795
10 16 22 100 0.000892012
11 16 22 100 0.0800001
12 16 22 100 0.0400102
13 16 22 100 0.0400032
14 16 22 100 0.121071
15 16 22 100 0.12006
16 16 22 100 0.0798539
17 16 22 100 0.118508
18 16 22 100 0.0800213
19 16 22 100 0.0802045
21 16 22 100 0.0794846
22 16 22 100 0.0800001
0 17 22 100 0.0287828
4 17 22 100 6.49467e-05
8 17 22 100 3.01893e-05
9 17 22 100 0.0417646
10 17 22 100 5.78706e-06
11 17 22 100 8.98976e-07
12 17 22 100 0.0416667
13 17 22 100 0.0835085
14 17 22 100 0.0417933
15 17 22 100 0.137562
16 17 22 100 0.166667
17 17 22 100 0.124697
18 17 22 100 0.0833474
19 17 22 100 0.125
20 17 22 100 5.19265e-07
21 17 22 100 0.000107304
22 17 22 100 0.125
0 18 22 100 0.0183702
4 18 22 100 3.95631e-06
8 18 22 100 0.0383953
10 18 22 100 3.26104e-05
12 18 22 100 0.0165346
13 18 22 100 0.0454612
14 18 22 100 0.045454
15 18 22 100 0.125385
16 18 22 100 0.0910473
17 18 22 100 0.253848
18 18 22 100 0.0447609
19 18 22 100 0.0925903
20 18 22 100 0.000735475
21 18 22 100 0.0455627
22 18 22 100 0.181819
0 19 22 100 0.0142151
1 19 22 100 7.94342e-07
4 19 22 100 0.00041624
5 19 22 100 4.68001e-06
6 19 22 100 3.21575e-05
7 19 22 100 1.11586e-05
9 19 22 100 0.000292675
10 19 22 100 9.28385e-06
12 19 22 100 0.00276781
14 19 22 100 0.0526317
15 19 22 100 0.0526197
16 19 22 100 0.105263
17 19 22 100 0.112228
18 19 22 100 0.200679
19 19 22 100 0.10548
20 19 22 100 0.0526717
21 19 22 100 0.0375189
22 19 22 100 0.263158
0 20 22 100 0.0711969
1 20 22 100 1.00562e-06
2 20 22 100 2.97386e-06
7 20 22 100 1.27435e-05
11 20 22 100 0.00299865
12 20 22 100 1.62983e-05
14 20 22 100 1.13077e-06
15 20 22 100 0.13332
16 20 22 100 1.65549e-06
17 20 22 100 0.20017
19 20 22 100 0.333966
21 20 22 100 0.124979
22 20 22 100 0.133334
6 21 22 100 2.41508e-05
13 21 22 100 1.06866e-05
16 21 22 100 0.076923
17 21 22 100 0.076753
18 21 22 100 0.153846
19 21 22 100 0.0770691
20 21 22 100 0.230759
22 21 22 100 0.384615
0 22 22 100 0.000315127
9 22 22 100 5.80707e-06
12 22 22 100 6.56523e-06
17 22 22 100 0.110988
19 22 22 100 0.222223
21 22 22 100 0.222017
22 22 22 100 0.444445
0 23 22 100 0.187977
4 23 22 100 0.000250987
15 23 22 100 0.00729718
18 23 22 100 0.19988
19 23 22 100 0.000135971
21 23 22 100 0.00445957
22 23 22 100 0.6
19 24 22 100 0.5
20 24 22 100 0.5
14 25 22 100 7.59198e-06
22 25 22 100 0.999992
0 1 23 100 0.000589396
1 1 23 100 0.867064
2 1 23 100 9.24178e-05
3 1 23 100 0.000549644
4 1 23 100 0.00089142
5 1 23 100 0.000533907
6 1 23 100 8.26728e-06
7 1 23 100 5.7357e-06
8 1 23 100 0.032258
9 1 23 100 0.0322452
12 1 23 100 0.00152404
14 1 23 100 0.0322581
15 1 23 100 5.45746e-05
17 1 23 100 1.30691e-06
18 1 23 100 0.0314602
19 1 23 100 0.000109233
20 1 23 100 0.000354736
0 2 23 100 0.0304799
1 2 23 100 0.258697
2 2 23 100 0.340856
3 2 23 100 0.16129
4 2 23 100 0.032234
5 2 23 100 4.44519e-05
7 2 23 100 0.0335756
8 2 23 100 0.0343307
9 2 23 100 1.67873e-05
10 2 23 100 9.05109e-06
11 2 23 100 1.79398e-05
12 2 23 100 0.0102693
13 2 23 100 0.000513324
14 2 23 100 0.0331569
15 2 23 100 1.03029e-06
16 2 23 100 7.32242e-06
18 2 23 100 6.24914e-06
19 2 23 100 0.0316594
20 2 23 100 0.000573742
21 2 23 100 0.0322589
22 2 23 100 2.32936e-06
0 3 23 100 0.029883
1 3 23 100 0.0645402
2 3 23 100 0.291003
3 3 23 100 0.269642
4 3 23 100 0.0803398
5 3 23 100 0.0944274
6 3 23 100 3.29728e-07
7 3 23 100 0.0343114
8 3 23 100 0.0331064
9 3 23 100 0.0327818
10 3 23 100 0.00426693
11 3 23 100 3.80015e-05
12 3 23 100 5.4647e-06
13 3 23 100 1.77817e-06
15 3 23 100 2.83165e-05
16 3 23 100 0.000186232
18 3 23 100 2.54744e-06
19 3 23 100 0.00117048
20 3 23 100 0.032394
21 3 23 100 0.000521351
22 3 23 100 0.031349
0 4 23 100 0.000532824
1 4 23 100 0.0644711
2 4 23 100 0.0967936
3 4 23 100 0.225098
4 4 23 100 0.259155
5 4 23 100 0.13007
6 4 23 100 0.055497
7 4 23 100 0.0322589
8 4 23 100 0.03202
9 4 23 100 0.0322594
10 4 23 100 0.0312115
11 4 23 100 0.00691791
12 4 23 100 0.00478412
13 4 23 100 1.06041e-05
14 4 23 100 5.45001e-05
15 4 23 100 0.000179504
16 4 23 100 6.29309e-06
18 4 23 100 1.51939e-05
19 4 23 100 0.000846873
20 4 23 100 0.000729818
21 4 23 100 0.0270806
22 4 23 100 7.18763e-06
0 5 23 100 0.0279245
1 5 23 100 0.0639348
2 5 23 100 0.0322599
3 5 23 100 0.129072
4 5 23 100 0.0967676
5 5 23 100 0.253133
6 5 23 100 0.0647461
7 5 23 100 0.106999
8 5 23 100 0.0322582
9 5 23 100 0.0323181
10 5 23 100 0.0311738
11 5 23 100 0.0322587
12 5 23 100 2.22557e-05
13 5 23 100 3.15271e-05
15 5 23 100 4.00683e-07
16 5 23 100 1.47419e-06
17 5 23 100 7.45726e-06
19 5 23 100 0.0322604
20 5 23 100 0.0325722
21 5 23 100 1.29384e-06
22 5 23 100 0.0322576
0 6 23 100 0.00119492
2 6 23 100 0.0322596
3 6 23 100 0.0644264
4 6 23 100 0.0645257
5 6 23 100 0.224864
6 6 23 100 0.160518
7 6 23 100 0.226218
8 6 23 100 0.00011237
9 6 23 100 0.096741
10 6 23 100 2.82881e-05
11 6 23 100 0.0322581
12 6 23 100 0.0322581
13 6 23 100 1.28897e-06
14 6 23 100 2.67404e-05
15 6 23 100 2.46032e-06
16 6 23 100 1.98285e-06
18 6 23 100 6.88528e-05
19 6 23 100 2.32231e-06
20 6 23 100 0.0644859
22 6 23 100 5.78271e-06
0 7 23 100 0.0443388
2 7 23 100 0.0539919
3 7 23 100 0.0290625
4 7 23 100 0.0336898
5 7 23 100 0.128957
6 7 23 100 0.128949
7 7 23 100 0.129299
8 7 23 100 0.192471
9 7 23 100 0.0322665
10 7 23 100 0.0968535
11 7 23 100 0.0322317
12 7 23 100 0.0325472
13 7 23 100 0.000197445
14 7 23 100 1.87847e-05
15 7 23 100 1.37703e-05
16 7 23 100 0.000565369
19 7 23 100 0.0316988
20 7 23 100 0.0323499
21 7 23 100 1.0257e-06
22 7 23 100 0.000498051
0 8 23 100 0.000953057
1 8 23 100 1.22807e-05
3 8 23 100 2.34397e-05
5 8 23 100 0.064504
6 8 23 100 0.193863
7 8 23 100 0.128701
8 8 23 100 0.0969584
9 8 23 100 0.225553
10 8 23 100 0.0991518
11 8 23 100 0.0641631
12 8 23 100 0.0322598
13 8 23 100 0.0316539
14 8 23 100 0.0328207
15 8 23 100 0.0278727
17 8 23 100 0.000548884
18 8 23 100 0.00093193
19 8 23 100 1.16021e-05
20 8 23 100 1.67926e-05
0 9 23 100 0.00544884
2 9 23 100 1.9305e-05
4 9 23 100 0.0226564
5 9 23 100 0.0642931
6 9 23 100 0.0326399
7 9 23 100 0.100639
8 9 23 100 0.228322
9 9 23 100 0.100363
10 9 23 100 0.157908
11 9 23 100 0.130588
12 9 23 100 0.0601758
13 9 23 100 0.0645947
15 9 23 100 0.0322611
16 9 23 100 5.34703e-05
18 9 23 100 3.49524e-07
19 9 23 100 1.68054e-05
20 9 23 100 1.66453e-06
21 9 23 100 1.35232e-06
22 9 23 100 1.66859e-05
0 10 23 100 0.0367145
1 10 23 100 0.040927
2 10 23 100 8.08035e-06
3 10 23 100 0.000107243
4 10 23 100 0.00015629
6 10 23 100 0.03243
7 10 23 100 0.0230468
8 10 23 100 0.225797
9 10 23 100 0.0713133
10 10 23 100 0.125375
11 10 23 100 0.120286
12 10 23 100 0.00591905
13 10 23 100 0.180058
14 10 23 100 0.0039568
15 10 23 100 0.0322517
16 10 23 100 0.0651614
18 10 23 100 0.000686946
19 10 23 100 0.00236683
20 10 23 100 4.01923e-05
21 10 23 100 0.0327154
22 10 23 100 0.000682555
0 11 23 100 0.0128827
1 11 23 100 0.032313
2 11 23 100 6.27064e-06
4 11 23 100 1.09112e-05
5 11 23 100 1.09722e-06
7 11 23 100 5.87738e-07
9 11 23 100 0.292874
10 11 23 100 0.0642812
11 11 23 100 0.128622
12 11 23 100 0.12367
13 11 23 100 0.0342619
14 11 23 100 0.0967832
15 11 23 100 0.0324867
16 11 23 100 0.0645255
17 11 23 100 0.000107568
18 11 23 100 0.0230797
19 11 23 100 1.8235e-05
20 11 23 100 0.032273
21 11 23 100 0.029357
22 11 23 100 0.0324463
0 12 23 100 0.0158434
1 12 23 100 0.000483398
2 12 23 100 0.000151483
3 12 23 100 0.0331162
4 12 23 100 8.78977e-06
5 12 23 100 0.00112708
6 12 23 100 0.0334962
7 12 23 100 0.000605885
8 12 23 100 7.23424e-05
9 12 23 100 0.0645048
10 12 23 100 0.163129
11 12 23 100 0.116948
12 12 23 100 0.0714944
13 12 23 100 0.0296291
14 12 23 100 0.0958644
15 12 23 100 0.0618063
16 12 23 100 0.244944
17 12 23 100 0.0321716
18 12 23 100 0.00216486
19 12 23 100 0.000313453
20 12 23 100 0.00115381
21 12 23 100 0.0294757
22 12 23 100 0.00149599
0 13 23 100 0.00418165
1 13 23 100 7.66569e-07
2 13 23 100 1.38836e-06
3 13 23 100 3.745e-05
4 13 23 100 0.00398199
5 13 23 100 2.13712e-06
6 13 23 100 0.000127348
7 13 23 100 0.0560583
8 13 23 100 0.0322669
9 13 23 100 0.0322282
11 13 23 100 0.258013
12 13 23 100 0.12968
13 13 23 100 0.0322453
14 13 23 100 0.0643928
15 13 23 100 0.032301
16 13 23 100 0.096705
17 13 23 100 0.128737
18 13 23 100 0.0322581
19 13 23 100 0.0967762
20 13 23 100 2.05946e-06
21 13 23 100 2.77214e-06
0 14 23 100 0.0335288
2 14 23 100 4.11344e-05
3 14 23 100 5.70291e-07
4 14 23 100 1.48009e-05
5 14 23 100 0.000169866
6 14 23 100 0.000129327
7 14 23 100 5.50832e-05
8 14 23 100 0.000267268
9 14 23 100 0.032944
10 14 23 100 1.42162e-06
11 14 23 100 0.0973585
12 14 23 100 0.162011
13 14 23 100 0.157575
14 14 23 100 0.0966176
15 14 23 100 0.0322693
16 14 23 100 0.0645162
17 14 23 100 0.0373839
18 14 23 100 0.121471
19 14 23 100 0.0967744
20 14 23 100 0.0324474
21 14 23 100 0.00105145
22 14 23 100 0.0333718
0 15 23 100 0.0826875
1 15 23 100 3.0521e-05
2 15 23 100 1.94103e-06
4 15 23 100 2.48068e-06
5 15 23 100 0.00063946
6 15 23 100 3.32367e-07
7 15 23 100 0.000491887
8 15 23 100 0.000433046
10 15 23 100 0.0645329
11 15 23 100 0.0322805
12 15 23 100 4.69843e-05
13 15 23 100 0.167657
14 15 23 100 0.155832
15 15 23 100 0.0976667
16 15 23 100 0.00740835
17 15 23 100 0.0652424
18 15 23 100 0.0341037
19 15 23 100 0.0967799
20 15 23 100 0.0650485
21 15 23 100 0.0645436
22 15 23 100 0.0323125
23 15 23 100 0.0322581
0 16 23 100 0.0500493
1 16 23 100 3.95357e-07
2 16 23 100 2.85496e-05
3 16 23 100 2.88121e-05
4 16 23 100 1.62954e-05
6 16 23 100 9.69802e-07
9 16 23 100 0.000140258
10 16 23 100 0.0334845
11 16 23 100 0.033387
12 16 23 100 0.00111243
13 16 23 100 0.034865
14 16 23 100 0.10895
15 16 23 100 0.15161
16 16 23 100 0.165038
17 16 23 100 0.1
18 16 23 100 0.0333339
19 16 23 100 0.00189532
20 16 23 100 0.0333334
21 16 23 100 0.0333457
22 16 23 100 0.0527137
23 16 23 100 0.166667
0 17 23 100 0.0321233
3 17 23 100 9.26804e-05
7 17 23 100 1.75647e-06
9 17 23 100 8.14105e-05
10 17 23 100 5.31181e-05
12 17 23 100 0.04
13 17 23 100 0.000186927
14 17 23 100 0.04
15 17 23 100 0.195516
16 17 23 100 0.20937
17 17 23 100 0.0799248
18 17 23 100 0.0800001
19 17 23 100 0.0795951
20 17 23 100 0.0404629
21 17 23 100 0.04
22 17 23 100 0.042592
23 17 23 100 0.12
0 18 23 100 0.00212635
6 18 23 100 2.83488e-06
9 18 23 100 2.52704e-05
10 18 23 100 3.64095e-05
12 18 23 100 0.0454583
13 18 23 100 0.0439736
14 18 23 100 5.36078e-05
15 18 23 100 0.180931
16 18 23 100 0.092537
17 18 23 100 0.133091
18 18 23 100 0.141572
19 18 23 100 0.0426556
20 18 23 100 0.0452783
21 18 23 100 0.090491
22 18 23 100 0.090858
23 18 23 100 0.0909094
0 19 23 100 0.00125428
4 19 23 100 5.14991e-05
7 19 23 100 6.81832e-07
9 19 23 100 6.87515e-05
10 19 23 100 0.00427438
11 19 23 100 3.63917e-05
12 19 23 100 0.0500001
14 19 23 100 0.150022
15 19 23 100 0.0499435
16 19 23 100 0.0507153
17 19 23 100 0.0501032
18 19 23 100 0.198601
19 19 23 100 0.148901
20 19 23 100 0.0500016
21 19 23 100 0.0455974
22 19 23 100 0.100429
23 19 23 100 0.1
0 20 23 100 0.0414734
2 20 23 100 2.34558e-05
4 20 23 100 1.09674e-06
5 20 23 100 1.21485e-05
6 20 23 100 3.0799e-05
10 20 23 100 0.000163186
11 20 23 100 0.0555557
12 20 23 100 1.09912e-05
13 20 23 100 0.0548793
14 20 23 100 0.0555557
15 20 23 100 0.0676703
17 20 23 100 0.164608
18 20 23 100 0.0569193
19 20 23 100 0.0651351
20 20 23 100 0.0653307
21 20 23 100 0.113365
22 20 23 100 0.0370436
23 20 23 100 0.222223
0 21 23 100 0.000877562
4 21 23 100 1.73996e-06
11 21 23 100 0.0714287
14 21 23 100 0.0714309
15 21 23 100 0.0747234
16 21 23 100 0.142859
18 21 23 100 0.0713501
19 21 23 100 0.139565
20 21 23 100 0.142263
21 21 23 100 0.142305
22 21 23 100 0.143196
0 22 23 100 0.0624044
3 22 23 100 0.00598772
7 22 23 100 3.42788e-06
12 22 23 100 0.000240517
13 22 23 100 2.99956e-06
15 22 23 100 4.07414e-05
16 22 23 100 0.00275339
17 22 23 100 0.213918
18 22 23 100 0.000367415
19 22 23 100 0.142831
20 22 23 100 0.142878
22 22 23 100 0.0714286
23 22 23 100 0.357143
0 23 23 100 0.00557352
15 23 23 100 0.000202095
16 23 23 100 0.111111
17 23 23 100 0.111111
18 23 23 100 0.102184
19 23 23 100 0.110909
20 23 23 100 0.111111
22 23 23 100 0.00335207
23 23 23 100 0.444445
17 24 23 100 0.2
18 24 23 100 0.2
20 24 23 100 0.2
22 24 23 100 0.2
23 24 23 100 0.2
0 25 23 100 0.000227172
2 25 23 100 9.8289e-06
18 25 23 100 0.250001
19 25 23 100 0.499762
22 25 23 100 0.250001
19 26 23 100 0.5
20 26 23 100 0.25
23 26 23 100 0.25
0 27 23 100 0.00431294
3 27 23 100 2.75669e-05
7 27 23 100 1.80922e-05
20 27 23 100 0.303432
21 27 23 100 0.333306
22 27 23 100 0.0255704
23 27 23 100 0.333333
22 28 23 100 0.499999
23 28 23 100 0.500001
23 29 23 100 1
0 1 24 100 0.000173546
1 1 24 100 0.8539
2 1 24 100 1.40686e-06
3 1 24 100 0.0294125
4 1 24 100 8.15538e-06
6 1 24 100 0.000534726
7 1 24 100 0.000889505
8 1 24 100 0.0874347
13 1 24 100 4.99346e-06
17 1 24 100 4.82061e-06
18 1 24 100 0.00142917
19 1 24 100 0.02616
21 1 24 100 4.12175e-05
22 1 24 100 5.73572e-06
0 2 24 100 0.026065
1 2 24 100 0.237762
2 2 24 100 0.47579
3 2 24 100 0.0595655
4 2 24 100 0.092734
5 2 24 100 0.0305002
7 2 24 100 5.89572e-05
9 2 24 100 0.00300505
10 2 24 100 0.0525657
15 2 24 100 2.69296e-06
16 2 24 100 3.44032e-07
18 2 24 100 0.0205368
19 2 24 100 0.00062878
21 2 24 100 0.000782432
22 2 24 100 1.79728e-06
23 2 24 100 6.68606e-07
0 3 24 100 0.0161004
1 3 24 100 0.058844
2 3 24 100 0.177408
3 3 24 100 0.374377
4 3 24 100 0.151891
5 3 24 100 0.117395
6 3 24 100 1.0972e-06
7 3 24 100 0.0489448
8 3 24 100 0.0294123
9 3 24 100 0.000388452
11 3 24 100 4.34404e-07
12 3 24 100 6.04834e-05
13 3 24 100 1.64214e-06
14 3 24 100 0.00112808
17 3 24 100 0.000437009
18 3 24 100 0.000504264
19 3 24 100 1.86416e-05
20 3 24 100 0.0226927
21 3 24 100 4.28856e-05
22 3 24 100 9.23884e-05
23 3 24 100 0.000258517
0 4 24 100 0.0052822
1 4 24 100 0.0294118
2 4 24 100 0.114741
3 4 24 100 0.151292
4 4 24 100 0.26839
5 4 24 100 0.228221
6 4 24 100 0.0567119
7 4 24 100 8.54492e-05
8 4 24 100 0.0879874
9 4 24 100 0.000180999
11 4 24 100 0.0576534
15 4 24 100 4.19945e-07
16 4 24 100 1.25743e-06
19 4 24 100 9.54072e-06
21 4 24 100 9.09714e-06
22 4 24 100 1.26831e-05
23 4 24 100 9.62193e-06
0 5 24 100 0.0568175
2 5 24 100 0.0581628
3 5 24 100 0.0574958
4 5 24 100 0.149007
5 5 24 100 0.323347
6 5 24 100 0.0880378
7 5 24 100 0.0882859
8 5 24 100 0.0296069
9 5 24 100 2.97334e-05
10 5 24 100 0.0295433
11 5 24 100 0.029478
12 5 24 100 0.0296143
13 5 24 100 0.0303733
14 5 24 100 0.029408
15 5 24 100 1.27497e-05
18 5 24 100 9.43771e-05
20 5 24 100 5.74636e-07
21 5 24 100 2.16273e-05
23 5 24 100 0.000662749
0 6 24 100 0.00108536
1 6 24 100 0.0294118
2 6 24 100 6.5502e-05
3 6 24 100 0.0588929
4 6 24 100 0.0880566
5 6 24 100 0.205636
6 6 24 100 0.176413
7 6 24 100 0.0909339
8 6 24 100 0.172884
9 6 24 100 0.0567669
11 6 24 100 0.0250657
12 6 24 100 0.00438942
13 6 24 100 0.0294118
14 6 24 100 3.02732e-07
15 6 24 100 0.0588236
16 6 24 100 1.86634e-06
18 6 24 100 1.90781e-05
19 6 24 100 7.25581e-05
20 6 24 100 0.00200504
21 6 24 100 3.52226e-06
22 6 24 100 4.42604e-07
23 6 24 100 6.0741e-05
0 7 24 100 0.0619093
1 7 24 100 3.38156e-07
3 7 24 100 0.0365964
4 7 24 100 0.0589301
5 7 24 100 0.147039
6 7 24 100 0.227695
7 7 24 100 0.147281
8 7 24 100 0.0588407
9 7 24 100 0.176478
10 7 24 100 0.0303063
11 7 24 100 5.36222e-05
12 7 24 100 2.97458e-07
15 7 24 100 0.000164138
16 7 24 100 0.0529302
18 7 24 100 0.000152337
19 7 24 100 0.000689221
20 7 24 100 4.19079e-07
21 7 24 100 0.000302403
23 7 24 100 0.000630398
0 8 24 100 0.0226013
1 8 24 100 0.0514157
2 8 24 100 6.12736e-05
3 8 24 100 2.93938e-06
4 8 24 100 0.0588249
5 8 24 100 0.0588242
6 8 24 100 0.236713
7 8 24 100 0.0406431
8 8 24 100 0.169242
9 8 24 100 0.093161
10 8 24 100 0.148955
11 8 24 100 0.0296023
12 8 24 100 8.29626e-06
13 8 24 100 0.0587338
16 8 24 100 6.0407e-06
18 8 24 100 5.50705e-06
19 8 24 100 5.91633e-05
20 8 24 100 3.0967e-06
21 8 24 100 0.0311258
22 8 24 100 3.00856e-07
23 8 24 100 1.194e-05
0 9 24 100 0.0059352
1 9 24 100 0.0588257
2 9 24 100 0.00324051
4 9 24 100 0.00247891
5 9 24 100 0.0582679
6 9 24 100 0.0588583
7 9 24 100 0.177588
8 9 24 100 0.0601868
9 9 24 100 0.108465
10 9 24 100 0.147008
11 9 24 100 0.0882849
12 9 24 100 0.0588103
13 9 24 100 0.0877848
15 9 24 100 0.000140739
16 9 24 100 0.0212042
17 9 24 100 3.5014e-05
18 9 24 100 6.03701e-05
19 9 24 100 0.00531298
20 9 24 100 2.59023e-05
21 9 24 100 4.84643e-06
22 9 24 100 0.0573727
23 9 24 100 0.0001097
0 10 24 100 0.029184
1 10 24 100 0.0294526
2 10 24 100 0.0389074
4 10 24 100 0.00213642
6 10 24 100 0.0880081
7 10 24 100 0.0295893
8 10 24 100 0.117652
9 10 24 100 0.08819
10 10 24 100 0.117647
11 10 24 100 0.124922
12 10 24 100 0.157457
13 10 24 100 0.0882355
14 10 24 100 0.0294118
16 10 24 100 2.70681e-06
17 10 24 100 0.000228381
20 10 24 100 0.0295085
21 10 24 100 8.08562e-06
22 10 24 100 0.02942
23 10 24 100 3.79394e-05
0 11 24 100 0.000761734
1 11 24 100 0.0294118
2 11 24 100 0.0294118
3 11 24 100 0.0294108
4 11 24 100 4.15424e-05
6 11 24 100 6.77829e-05
7 11 24 100 0.0316566
8 11 24 100 0.0292258
9 11 24 100 0.0608275
10 11 24 100 0.199261
11 11 24 100 0.0882038
12 11 24 100 0.117561
13 11 24 100 0.116361
14 11 24 100 0.147041
15 11 24 100 0.0588236
17 11 24 100 9.78584e-07
18 11 24 100 6.10117e-05
19 11 24 100 1.02078e-05
20 11 24 100 1.10141e-06
21 11 24 100 0.032772
22 11 24 100 1.51064e-06
23 11 24 100 0.0290868
0 12 24 100 0.0532612
1 12 24 100 9.31867e-05
2 12 24 100 0.0587791
3 12 24 100 0.0294626
5 12 24 100 0.000698178
6 12 24 100 0.000720375
7 12 24 100 0.00803764
8 12 24 100 0.031257
9 12 24 100 0.0294189
10 12 24 100 0.124313
11 12 24 100 0.117833
12 12 24 100 0.0625254
13 12 24 100 0.0783962
14 12 24 100 0.176466
15 12 24 100 0.140278
16 12 24 100 0.0588355
18 12 24 100 2.9321e-05
21 12 24 100 7.79848e-05
22 12 24 100 0.0293994
23 12 24 100 0.000117708
0 13 24 100 0.0661683
2 13 24 100 2.58107e-05
3 13 24 100 0.0277241
4 13 24 100 0.0293901
5 13 24 100 9.14962e-05
6 13 24 100 0.00074431
7 13 24 100 0.0395626
8 13 24 100 0.00237938
9 13 24 100 0.0583855
11 13 24 100 0.205521
12 13 24 100 0.0295072
13 13 24 100 0.120019
14 13 24 100 0.147059
15 13 24 100 0.119555
16 13 24 100 0.0313026
17 13 24 100 0.0885974
19 13 24 100 0.000191772
20 13 24 100 1.63069e-06
21 13 24 100 0.00254169
22 13 24 100 0.0285896
23 13 24 100 0.00264222
0 14 24 100 0.000483901
2 14 24 100 5.59636e-07
3 14 24 100 6.84346e-06
4 14 24 100 0.0293528
5 14 24 100 0.000320547
7 14 24 100 6.36263e-07
8 14 24 100 0.0784816
9 14 24 100 0.0588122
10 14 24 100 0.0280802
11 14 24 100 0.03382
12 14 24 100 0.147039
13 14 24 100 0.0290291
14 14 24 100 0.151843
15 14 24 100 0.117647
16 14 24 100 0.117728
17 14 24 100 0.119065
18 14 24 100 0.0574913
19 14 24 100 1.67826e-05
20 14 24 100 7.60259e-07
21 14 24 100 0.00135075
22 14 24 100 0.0294285
0 15 24 100 0.0218432
2 15 24 100 0.00476063
3 15 24 100 0.00113291
6 15 24 100 6.90091e-05
7 15 24 100 1.97592e-05
8 15 24 100 1.94043e-06
9 15 24 100 0.029934
10 15 24 100 0.0585649
11 15 24 100 3.67633e-07
12 15 24 100 0.0295339
13 15 24 100 0.147085
14 15 24 100 0.142599
15 15 24 100 0.17178
16 15 24 100 0.0964173
17 15 24 100 0.0882279
18 15 24 100 0.118144
19 15 24 100 0.0294182
20 15 24 100 0.00160426
21 15 24 100 1.58306e-05
22 15 24 100 0.0297924
23 15 24 100 0.0290557
0 16 24 100 0.00164412
2 16 24 100 5.91928e-06
3 16 24 100 0.000566074
4 16 24 100 1.52951e-06
5 16 24 100 1.20677e-06
7 16 24 100 3.60785e-06
8 16 24 100 0.000255672
9 16 24 100 0.0294118
10 16 24 100 0.029417
11 16 24 100 0.0588233
12 16 24 100 6.39599e-07
13 16 24 100 0.030755
14 16 24 100 0.183929
15 16 24 100 0.061697
16 16 24 100 0.139514
17 16 24 100 0.117331
18 16 24 100 0.176275
19 16 24 100 0.11333
21 16 24 100 0.026587
22 16 24 100 0.0296267
23 16 24 100 0.000822704
24 16 24 100 9.63234e-07
0 17 24 100 0.00452484
3 17 24 100 1.14627e-05
4 17 24 100 0.000145759
5 17 24 100 0.000166781
8 17 24 100 1.19819e-06
9 17 24 100 2.98134e-06
10 17 24 100 0.0559447
11 17 24 100 0.0284881
12 17 24 100 0.0588248
13 17 24 100 1.18931e-05
14 17 24 100 0.0593366
15 17 24 100 0.0861425
16 17 24 100 0.122459
17 17 24 100 0.0585732
18 17 24 100 0.176457
19 17 24 100 0.141414
20 17 24 100 0.147075
21 17 24 100 0.0294156
22 17 24 100 0.0293963
23 17 24 100 0.00160889
0 18 24 100 0.0290239
2 18 24 100 0.00128224
4 18 24 100 2.67594e-05
5 18 24 100 2.772e-05
6 18 24 100 7.79184e-07
9 18 24 100 1.7975e-06
12 18 24 100 0.0294727
13 18 24 100 0.0294196
14 18 24 100 0.0294118
15 18 24 100 0.0882276
16 18 24 100 0.146997
17 18 24 100 0.0294118
18 18 24 100 0.0950362
19 18 24 100 0.14703
20 18 24 100 0.139304
21 18 24 100 0.0880541
22 18 24 100 0.0589816
23 18 24 100 5.55587e-05
24 18 24 100 0.0882354
0 19 24 100 0.0519529
3 19 24 100 0.00592304
5 19 24 100 3.62646e-07
7 19 24 100 0.00108571
8 19 24 100 9.45406e-06
10 19 24 100 5.62329e-07
11 19 24 100 1.64228e-05
12 19 24 100 0.032358
13 19 24 100 0.0322586
14 19 24 100 0.0326037
16 19 24 100 0.0966353
17 19 24 100 0.123213
18 19 24 100 0.00480073
19 19 24 100 0.0941027
20 19 24 100 0.172549
21 19 24 100 0.125138
22 19 24 100 0.096999
23 19 24 100 0.0335796
24 19 24 100 0.0967743
0 20 24 100 0.00893331
7 20 24 100 7.11847e-06
9 20 24 100 0.00164801
11 20 24 100 1.61351e-05
12 20 24 100 2.51452e-06
13 20 24 100 0.0711977
14 20 24 100 0.0714286
16 20 24 100 0.0357143
17 20 24 100 0.107131
18 20 24 100 0.0357192
19 20 24 100 0.0356379
20 20 24 100 0.142808
21 20 24 100 0.204041
22 20 24 100 0.142849
23 20 24 100 0.0357231
24 20 24 100 0.107143
0 21 24 100 0.00039125
2 21 24 100 9.51617e-07
13 21 24 100 0.0399999
14 21 24 100 0.0336477
15 21 24 100 0.0400001
16 21 24 100 0.0463518
17 21 24 100 0.0400001
18 21 24 100 0.115795
20 21 24 100 0.0800434
21 21 24 100 0.16001
22 21 24 100 0.0799993
23 21 24 100 0.0837614
24 21 24 100 0.279999
0 22 24 100 0.107349
4 22 24 100 1.614e-06
5 22 24 100 0.000297628
6 22 24 100 0.000797024
7 22 24 100 5.09838e-06
9 22 24 100 4.00517e-05
11 22 24 100 3.53518e-05
15 22 24 100 0.000940887
16 22 24 100 0.0551549
17 22 24 100 0.0555926
18 22 24 100 0.0556731
19 22 24 100 0.166827
20 22 24 100 0.0555602
21 22 24 100 0.0566314
22 22 24 100 0.111112
23 22 24 100 0.0562042
24 22 24 100 0.277778
0 23 24 100 0.0724189
3 23 24 100 7.93804e-05
7 23 24 100 0.00105016
8 23 24 100 8.58691e-05
11 23 24 100 1.48692e-05
14 23 24 100 0.0118034
17 23 24 100 0.23077
18 23 24 100 0.0769232
19 23 24 100 0.0575539
20 23 24 100 0.159533
22 23 24 100 0.1589
23 23 24 100 9.86125e-05
24 23 24 100 0.23077
0 24 24 100 0.000158978
18 24 24 100 0.199827
20 24 24 100 0.300001
21 24 24 100 1.30438e-05
24 24 24 100 0.5
0 25 24 100 0.000347765
2 25 24 100 1.40414e-05
19 25 24 100 0.200002
20 25 24 100 0.399995
21 25 24 100 0.000748969
22 25 24 100 0.00172591
23 25 24 100 0.197166
24 25 24 100 0.2
3 26 24 100 2.75751e-05
4 26 24 100 9.93335e-06
19 26 24 100 0.00151068
20 26 24 100 0.499963
21 26 24 100 0.24819
22 26 24 100 0.000298589
24 26 24 100 0.250001
20 27 24 100 0.333333
22 27 24 100 0.333333
24 27 24 100 0.333333
0 28 24 100 0.0186916
23 28 24 100 0.481305
24 28 24 100 0.500004
24 29 24 100 1
0 1 25 100 0.00054602
1 1 25 100 0.877382
2 1 25 100 0.000439642
3 1 25 100 8.00192e-07
4 1 25 100 9.21904e-06
5 1 25 100 0.0370369
6 1 25 100 5.34312e-07
7 1 25 100 5.75459e-05
8 1 25 100 0.0409735
9 1 25 100 4.99114e-05
10 1 25 100 5.8267e-07
11 1 25 100 4.21629e-07
12 1 25 100 2.07455e-05
13 1 25 100 0.0370372
17 1 25 100 2.44172e-06
20 1 25 100 4.82288e-06
22 1 25 100 2.00418e-06
23 1 25 100 0.0064344
24 1 25 100 9.80452e-07
0 2 25 100 0.0205664
1 2 25 100 0.481482
2 2 25 100 0.294903
3 2 25 100 0.0499037
4 2 25 100 0.0370371
5 2 25 100 2.12147e-05
7 2 25 100 0.0370389
8 2 25 100 0.00241746
9 2 25 100 0.0370362
10 2 25 100 0.0372737
12 2 25 100 4.16785e-05
14 2 25 100 0.000245761
15 2 25 100 1.01892e-05
19 2 25 100 0.000209577
21 2 25 100 0.000164018
23 2 25 100 0.00128212
24 2 25 100 0.000366933
0 3 25 100 7.83317e-07
1 3 25 100 0.0612938
2 3 25 100 0.408863
3 3 25 100 0.186912
4 3 25 100 0.0722928
5 3 25 100 0.0370396
6 3 25 100 0.074074
7 3 25 100 0.0726567
9 3 25 100 0.037037
10 3 25 100 0.0338546
11 3 25 100 0.00328366
12 3 25 100 7.35723e-06
15 3 25 100 6.89868e-07
19 3 25 100 5.55208e-07
21 3 25 100 5.90634e-06
23 3 25 100 0.0126771
0 4 25 100 0.000120462
2 4 25 100 5.96482e-05
3 4 25 100 0.369862
4 4 25 100 0.261159
5 4 25 100 0.0370362
6 4 25 100 0.146495
7 4 25 100 0.0370429
8 4 25 100 0.0367828
9 4 25 100 0.0370382
10 4 25 100 6.70588e-07
11 4 25 100 0.0370371
12 4 25 100 1.65138e-06
13 4 25 100 4.38327e-06
15 4 25 100 5.872e-06
17 4 25 100 6.25579e-06
18 4 25 100 4.5741e-05
20 4 25 100 1.44427e-06
21 4 25 100 1.27035e-06
22 4 25 100 1.8305e-06
23 4 25 100 0.0372982
0 5 25 100 0.0447602
1 5 25 100 0.0358498
2 5 25 100 0.0370371
3 5 25 100 0.00710856
4 5 25 100 0.259829
5 5 25 100 0.219422
6 5 25 100 0.0695669
7 5 25 100 0.0383042
8 5 25 100 0.0727197
10 5 25 100 0.0643821
11 5 25 100 2.36821e-05
12 5 25 100 0.0350765
14 5 25 100 0.000898329
15 5 25 100 4.15384e-05
16 5 25 100 0.000236788
17 5 25 100 5.95958e-06
19 5 25 100 0.00134005
21 5 25 100 0.000157929
22 5 25 100 0.00279279
23 5 25 100 1.23804e-06
24 5 25 100 0.110446
0 6 25 100 0.0516191
2 6 25 100 0.000544223
3 6 25 100 0.0243261
4 6 25 100 0.108858
5 6 25 100 0.111117
6 6 25 100 0.2905
7 6 25 100 0.110644
8 6 25 100 0.111145
9 6 25 100 0.116261
10 6 25 100 5.98439e-06
11 6 25 100 1.91326e-05
12 6 25 100 0.000756938
13 6 25 100 5.92906e-07
14 6 25 100 4.85843e-06
15 6 25 100 1.5037e-05
16 6 25 100 5.24239e-06
18 6 25 100 6.62713e-05
19 6 25 100 4.64924e-06
21 6 25 100 0.0370401
22 6 25 100 7.17268e-07
23 6 25 100 2.27417e-05
24 6 25 100 0.0370436
0 7 25 100 0.00152577
1 7 25 100 6.03264e-05
2 7 25 100 0.0360364
3 7 25 100 0.0370652
4 7 25 100 0.0740742
5 7 25 100 0.0370764
6 7 25 100 0.1616
7 7 25 100 0.124333
8 7 25 100 0.231914
9 7 25 100 0.163712
10 7 25 100 0.0892509
11 7 25 100 0.000346447
12 7 25 100 1.84848e-05
13 7 25 100 0.000112521
14 7 25 100 0.0370863
15 7 25 100 0.00300928
17 7 25 100 9.20985e-05
18 7 25 100 8.39115e-05
19 7 25 100 0.000489952
20 7 25 100 3.26434e-05
21 7 25 100 0.000800877
22 7 25 100 3.73612e-06
23 7 25 100 0.00124218
24 7 25 100 3.37973e-05
0 8 25 100 0.000145057
1 8 25 100 7.86345e-07
2 8 25 100 2.34239e-05
3 8 25 100 0.000194387
4 8 25 100 0.147956
5 8 25 100 0.000361406
6 8 25 100 0.110791
7 8 25 100 0.113391
8 8 25 100 0.145828
9 8 25 100 0.126239
10 8 25 100 0.147425
11 8 25 100 0.109147
13 8 25 100 5.02431e-07
15 8 25 100 0.0377322
17 8 25 100 4.6614e-05
18 8 25 100 0.000437777
19 8 25 100 4.25701e-07
20 8 25 100 4.62239e-06
21 8 25 100 5.23385e-07
22 8 25 100 0.0208403
24 8 25 100 0.039436
0 9 25 100 0.0345264
2 9 25 100 2.93982e-06
3 9 25 100 0.000100088
4 9 25 100 1.56028e-06
5 9 25 100 0.0761279
6 9 25 100 0.111112
7 9 25 100 0.0370833
8 9 25 100 0.112583
9 9 25 100 0.109246
10 9 25 100 0.0742263
11 9 25 100 0.0952939
12 9 25 100 0.0894194
13 9 25 100 0.0370675
14 9 25 100 0.0359081
15 9 25 100 1.75809e-06
16 9 25 100 0.111103
17 9 25 100 2.86488e-05
19 9 25 100 0.00047899
20 9 25 100 5.908e-07
21 9 25 100 1.76886e-05
22 9 25 100 4.91036e-05
23 9 25 100 0.037037
24 9 25 100 0.0385852
0 10 25 100 0.0229895
3 10 25 100 0.000950535
6 10 25 100 0.111111
7 10 25 100 0.0740742
8 10 25 100 0.037039
9 10 25 100 0.0370371
10 10 25 100 0.187926
11 10 25 100 0.0764678
12 10 25 100 0.183855
13 10 25 100 0.111111
14 10 25 100 0.0370371
15 10 25 100 0.0370378
16 10 25 100 1.57494e-05
17 10 25 100 2.19148e-05
19 10 25 100 0.000408052
20 10 25 100 0.00472811
21 10 25 100 1.62894e-06
22 10 25 100 2.23265e-06
23 10 25 100 0.0740741
24 10 25 100 0.00411198
0 11 25 100 0.00140401
2 11 25 100 0.000204943
5 11 25 100 0.000183179
7 11 25 100 0.0371916
8 11 25 100 0.00147922
9 11 25 100 0.150855
10 11 25 100 0.0349049
11 11 25 100 0.111083
12 11 25 100 0.109439
13 11 25 100 0.220532
14 11 25 100 0.148149
15 11 25 100 0.0743818
16 11 25 100 0.000131613
17 11 25 100 0.0370395
19 11 25 100 3.03052e-05
21 11 25 100 1.34898e-05
22 11 25 100 3.26975e-05
23 11 25 100 0.000122189
24 11 25 100 0.0728234
0 12 25 100 0.0306534
1 12 25 100 2.03743e-06
2 12 25 100 7.93049e-07
3 12 25 100 0.000216811
4 12 25 100 0.00018466
5 12 25 100 0.000295567
8 12 25 100 0.00474678
9 12 25 100 0.042559
10 12 25 100 0.110777
11 12 25 100 0.139092
12 12 25 100 0.0377672
13 12 25 100 0.111122
14 12 25 100 0.18692
15 12 25 100 0.182982
16 12 25 100 0.074062
17 12 25 100 0.036989
18 12 25 100 0.0370365
19 12 25 100 3.74324e-07
20 12 25 100 1.19589e-05
21 12 25 100 0.00457495
23 12 25 100 2.57967e-06
24 12 25 100 3.81286e-06
0 13 25 100 0.112474
3 13 25 100 0.00292885
4 13 25 100 3.04311e-05
5 13 25 100 0.0010189
7 13 25 100 2.37409e-05
8 13 25 100 0.000983127
9 13 25 100 5.87082e-07
10 13 25 100 0.0385421
11 13 25 100 0.110997
12 13 25 100 0.106326
13 13 25 100 0.0736338
14 13 25 100 0.118073
15 13 25 100 0.0749786
16 13 25 100 0.188832
17 13 25 100 0.0692963
18 13 25 100 0.0740742
19 13 25 100 6.08006e-05
20 13 25 100 0.00313597
21 13 25 100 0.0236776
22 13 25 100 0.000131305
23 13 25 100 1.04282e-05
24 13 25 100 0.000771161
0 14 25 100 0.0349627
2 14 25 100 1.01149e-05
3 14 25 100 1.13803e-06
4 14 25 100 0.00189176
6 14 25 100 0.00102484
7 14 25 100 0.000118303
8 14 25 100 6.63695e-05
9 14 25 100 0.0370498
10 14 25 100 0.037044
11 14 25 100 0.109224
12 14 25 100 0.0749386
13 14 25 100 0.185187
14 14 25 100 0.0370371
15 14 25 100 0.0484483
16 14 25 100 0.222223
17 14 25 100 0.112153
18 14 25 100 0.0453834
19 14 25 100 0.0369958
20 14 25 100 1.28866e-05
21 14 25 100 1.35616e-06
22 14 25 100 0.0159723
24 14 25 100 0.000255988
0 15 25 100 0.0369714
3 15 25 100 1.60578e-06
6 15 25 100 1.66554e-06
7 15 25 100 3.94648e-06
8 15 25 100 9.35229e-06
11 15 25 100 0.148148
12 15 25 100 1.4551e-05
13 15 25 100 0.0740742
14 15 25 100 0.112095
15 15 25 100 0.111066
16 15 25 100 7.17977e-06
17 15 25 100 0.221431
18 15 25 100 0.148148
19 15 25 100 0.0730153
20 15 25 100 0.0370383
21 15 25 100 2.97449e-05
23 15 25 100 0.0377599
24 15 25 100 0.000184582
0 16 25 100 0.0383986
4 16 25 100 0.00623594
6 16 25 100 0.000551788
7 16 25 100 3.37364e-06
8 16 25 100 2.88672e-05
9 16 25 100 2.52357e-06
10 16 25 100 1.05375e-05
11 16 25 100 1.51877e-06
12 16 25 100 0.036472
13 16 25 100 0.0831938
14 16 25 100 0.0741451
15 16 25 100 0.0411158
16 16 25 100 0.182154
17 16 25 100 0.0557545
18 16 25 100 0.296251
19 16 25 100 0.0389809
20 16 25 100 0.0379343
21 16 25 100 0.0362516
22 16 25 100 0.0360515
23 16 25 100 0.00136164
24 16 25 100 0.0351005
0 17 25 100 0.0437379
3 17 25 100 6.00025e-07
4 17 25 100 1.38977e-06
5 17 25 100 3.33867e-05
7 17 25 100 0.00012145
8 17 25 100 3.38687e-06
9 17 25 100 8.10197e-07
11 17 25 100 0.000392324
12 17 25 100 0.000102995
13 17 25 100 5.9131e-07
14 17 25 100 0.111115
15 17 25 100 0.0291367
16 17 25 100 0.00138316
17 17 25 100 0.148136
18 17 25 100 0.0740752
19 17 25 100 0.296949
20 17 25 100 0.0379109
21 17 25 100 0.111146
22 17 25 100 0.0402839
23 17 25 100 0.0346951
24 17 25 100 0.0707749
0 18 25 100 0.00792872
1 18 25 100 0.0370371
3 18 25 100 0.000285179
4 18 25 100 1.06679e-06
5 18 25 100 4.12416e-05
6 18 25 100 1.46557e-06
10 18 25 100 5.49856e-05
11 18 25 100 2.55434e-06
12 18 25 100 3.64791e-05
13 18 25 100 2.37508e-06
14 18 25 100 6.60284e-06
15 18 25 100 0.111085
17 18 25 100 0.0087386
18 18 25 100 0.232684
19 18 25 100 0.0371431
20 18 25 100 0.195123
21 18 25 100 0.0740476
22 18 25 100 0.0242718
23 18 25 100 0.149091
24 18 25 100 0.0113073
25 18 25 100 0.111111
0 19 25 100 0.0349399
2 19 25 100 0.0399989
5 19 25 100 0.000251679
7 19 25 100 5.46784e-07
8 19 25 100 0.00186511
11 19 25 100 9.48301e-05
12 19 25 100 0.00211427
14 19 25 100 0.0394671
15 19 25 100 0.000116746
16 19 25 100 0.078845
17 19 25 100 0.0800001
18 19 25 100 0.117851
19 19 25 100 0.122024
20 19 25 100 0.0801951
21 19 25 100 0.120064
22 19 25 100 0.0815119
23 19 25 100 0.000272796
24 19 25 100 0.0803871
25 19 25 100 0.120001
0 20 25 100 5.3191e-05
3 20 25 100 0.0454546
7 20 25 100 9.4075e-07
15 20 25 100 2.74124e-06
16 20 25 100 6.19936e-07
17 20 25 100 0.0454546
18 20 25 100 0.0454546
19 20 25 100 0.181818
20 20 25 100 0.0908503
21 20 25 100 0.136364
22 20 25 100 0.0454556
23 20 25 100 0.0454546
25 20 25 100 0.363636
0 21 25 100 0.00122053
4 21 25 100 0.0665876
5 21 25 100 7.21934e-06
8 21 25 100 1.58192e-06
13 21 25 100 0.000232721
14 21 25 100 2.86998e-06
15 21 25 100 3.16065e-06
16 21 25 100 1.54597e-06
17 21 25 100 0.0666667
19 21 25 100 0.199979
20 21 25 100 0.0703396
21 21 25 100 0.133389
22 21 25 100 0.200008
24 21 25 100 0.128228
25 21 25 100 0.133333
0 22 25 100 0.000792115
2 22 25 100 4.04905e-06
5 22 25 100 0.0769183
10 22 25 100 0.0759493
15 22 25 100 4.69974e-06
17 22 25 100 7.12869e-05
18 22 25 100 0.0769349
20 22 25 100 0.15449
21 22 25 100 0.153215
22 22 25 100 0.153847
23 22 25 100 0.0770036
24 22 25 100 0.0769239
25 22 25 100 0.153846
0 23 25 100 0.0510998
8 23 25 100 9.98129e-05
10 23 25 100 0.0476863
11 23 25 100 0.0529801
14 23 25 100 2.45102e-06
15 23 25 100 5.84292e-06
17 23 25 100 0.000135672
18 23 25 100 9.58974e-07
21 23 25 100 0.18007
22 23 25 100 0.274609
24 23 25 100 0.211492
25 23 25 100 0.181819
0 24 25 100 0.00154584
7 24 25 100 1.13261e-06
8 24 25 100 0.000593316
10 24 25 100 0.00960787
11 24 25 100 0.00299571
15 24 25 100 8.63016e-05
18 24 25 100 9.12731e-06
19 24 25 100 0.000159767
20 24 25 100 0.00510424
21 24 25 100 4.20073e-06
22 24 25 100 0.333326
23 24 25 100 0.221992
24 24 25 100 0.0912408
25 24 25 100 0.333334
0 25 25 100 0.152209
6 25 25 100 0.00230779
9 25 25 100 4.31416e-05
15 25 25 100 5.91163e-05
19 25 25 100 0.000102864
22 25 25 100 0.172182
23 25 25 100 0.166667
24 25 25 100 0.173096
25 25 25 100 0.333333
10 26 25 100 0.000482969
16 26 25 100 1.91387e-05
23 26 25 100 0.249498
25 26 25 100 0.75
25 27 25 100 1
0 1 26 100 0.0132403
1 1 26 100 0.810552
2 1 26 100 0.0384633
3 1 26 100 0.000199777
4 1 26 100 0.0411762
5 1 26 100 0.0218028
6 1 26 100 0.000729446
7 1 26 100 0.0384696
8 1 26 100 5.55888e-07
10 1 26 100 1.03947e-06
11 1 26 100 2.12502e-05
12 1 26 100 1.27015e-05
14 1 26 100 1.8369e-05
15 1 26 100 7.72047e-07
16 1 26 100 9.92573e-07
18 1 26 100 0.000223003
21 1 26 100 0.0350857
22 1 26 100 8.43506e-07
23 1 26 100 1.65455e-06
0 2 26 100 0.00798793
1 2 26 100 0.540657
2 2 26 100 0.338561
3 2 26 100 1.63167e-05
4 2 26 100 0.0375901
6 2 26 100 4.58787e-06
8 2 26 100 1.49569e-06
11 2 26 100 0.0337733
12 2 26 100 6.06375e-05
14 2 26 100 1.87506e-06
15 2 26 100 0.000581838
17 2 26 100 7.91485e-05
18 2 26 100 6.64519e-05
19 2 26 100 0.000532044
21 2 26 100 0.0384077
22 2 26 100 5.25078e-07
23 2 26 100 0.00167529
24 2 26 100 3.00937e-06
0 3 26 100 0.0365802
1 3 26 100 0.0769234
2 3 26 100 0.269285
3 3 26 100 0.308219
4 3 26 100 0.0430425
5 3 26 100 0.0740971
6 3 26 100 3.07553e-06
12 3 26 100 0.0359378
13 3 26 100 0.0384614
14 3 26 100 0.000183441
15 3 26 100 8.30513e-05
17 3 26 100 3.70533e-06
19 3 26 100 0.0400752
21 3 26 100 8.23573e-07
22 3 26 100 0.0385163
23 3 26 100 8.94226e-05
24 3 26 100 0.0384897
25 3 26 100 8.49567e-06
0 4 26 100 0.0359103
1 4 26 100 0.115383
2 4 26 100 0.0376481
3 4 26 100 0.228477
4 4 26 100 0.152021
5 4 26 100 0.200374
6 4 26 100 0.0754845
8 4 26 100 1.05601e-06
9 4 26 100 1.73946e-05
10 4 26 100 2.82696e-05
11 4 26 100 0.0279559
12 4 26 100 0.000417466
14 4 26 100 0.00725039
16 4 26 100 2.69336e-06
18 4 26 100 1.00564e-05
19 4 26 100 1.41594e-05
20 4 26 100 0.0387816
21 4 26 100 1.68036e-06
22 4 26 100 6.15413e-05
23 4 26 100 0.041342
24 4 26 100 0.038476
25 4 26 100 0.000341768
0 5 26 100 0.0734312
1 5 26 100 0.0384577
2 5 26 100 0.0384632
3 5 26 100 0.153816
4 5 26 100 0.231951
5 5 26 100 0.153297
6 5 26 100 0.120579
7 5 26 100 0.041231
8 5 26 100 2.97554e-06
10 5 26 100 3.99053e-07
12 5 26 100 0.0409978
13 5 26 100 4.6827e-05
14 5 26 100 0.0235447
16 5 26 100 3.84157e-06
17 5 26 100 0.000207382
18 5 26 100 5.32845e-06
19 5 26 100 0.00580406
20 5 26 100 3.16971e-06
21 5 26 100 0.0393866
23 5 26 100 2.39587e-05
24 5 26 100 0.0384622
25 5 26 100 0.000284089
0 6 26 100 0.0974287
3 6 26 100 0.0769232
4 6 26 100 0.192185
5 6 26 100 0.193905
6 6 26 100 0.229729
7 6 26 100 0.0807374
8 6 26 100 0.0384616
12 6 26 100 0.001227
14 6 26 100 0.000146108
17 6 26 100 0.000209553
18 6 26 100 0.0118283
19 6 26 100 0.0384786
20 6 26 100 0.000216961
24 6 26 100 0.0384732
25 6 26 100 4.97362e-05
0 7 26 100 0.0280412
1 7 26 100 0.0384616
3 7 26 100 1.04716e-05
4 7 26 100 0.115385
5 7 26 100 0.198094
6 7 26 100 0.053353
7 7 26 100 0.268671
8 7 26 100 0.151945
9 7 26 100 0.0780368
10 7 26 100 8.43799e-06
11 7 26 100 0.0268344
13 7 26 100 9.53373e-05
16 7 26 100 0.00132582
18 7 26 100 0.000103976
20 7 26 100 0.0384639
22 7 26 100 2.65407e-06
24 7 26 100 7.72016e-07
25 7 26 100 0.00116583
0 8 26 100 0.027773
2 8 26 100 0.0384614
3 8 26 100 5.82807e-07
4 8 26 100 0.0384872
5 8 26 100 0.115361
6 8 26 100 0.154184
7 8 26 100 0.0776226
8 8 26 100 0.192178
9 8 26 100 0.232913
10 8 26 100 0.0384658
11 8 26 100 0.0072621
12 8 26 100 2.06306e-05
15 8 26 100 1.91642e-06
16 8 26 100 0.000234852
21 8 26 100 0.0384616
22 8 26 100 0.000133881
24 8 26 100 0.0384356
25 8 26 100 3.61584e-06
0 9 26 100 0.0368086
2 9 26 100 0.000324039
3 9 26 100 0.0384566
4 9 26 100 5.10455e-05
5 9 26 100 6.17529e-07
6 9 26 100 0.0795545
7 9 26 100 0.120128
8 9 26 100 0.0762252
9 9 26 100 0.266797
10 9 26 100 0.0388117
11 9 26 100 0.153847
12 9 26 100 0.0384629
13 9 26 100 0.0384617
15 9 26 100 0.0339887
17 9 26 100 5.22738e-05
18 9 26 100 1.11129e-05
19 9 26 100 0.000962884
21 9 26 100 4.89859e-05
23 9 26 100 0.038623
25 9 26 100 0.0383835
0 10 26 100 0.030568
2 10 26 100 0.0152904
3 10 26 100 2.08693e-05
4 10 26 100 0.0385565
5 10 26 100 0.000448698
6 10 26 100 0.0477432
7 10 26 100 0.0388814
8 10 26 100 0.118513
9 10 26 100 0.0795424
10 10 26 100 0.118556
11 10 26 100 0.048729
12 10 26 100 0.153859
13 10 26 100 0.0930129
14 10 26 100 0.0621425
15 10 26 100 0.000734425
16 10 26 100 0.0364253
17 10 26 100 5.13873e-06
18 10 26 100 7.42237e-06
21 10 26 100 0.00098793
22 10 26 100 0.0384908
24 10 26 100 0.0771499
25 10 26 100 0.000335408
0 11 26 100 0.0824377
2 11 26 100 2.34115e-05
3 11 26 100 0.00136555
5 11 26 100 0.0384617
6 11 26 100 0.0278761
7 11 26 100 0.0380399
8 11 26 100 0.0400889
9 11 26 100 0.116955
10 11 26 100 0.0791333
11 11 26 100 0.188828
12 11 26 100 0.0388826
13 11 26 100 0.15385
14 11 26 100 0.000944959
15 11 26 100 0.0751396
16 11 26 100 0.0384647
17 11 26 100 0.0384617
18 11 26 100 0.000796851
19 11 26 100 0.00109794
21 11 26 100 7.51217e-05
23 11 26 100 4.32584e-05
24 11 26 100 0.000113579
25 11 26 100 0.0389197
0 12 26 100 2.60459e-05
1 12 26 100 4.54656e-05
2 12 26 100 5.39261e-05
3 12 26 100 0.00127397
5 12 26 100 4.54919e-05
6 12 26 100 0.0384598
7 12 26 100 0.0384623
8 12 26 100 0.00067495
9 12 26 100 0.0393132
10 12 26 100 0.117289
11 12 26 100 0.152638
12 12 26 100 0.152904
13 12 26 100 0.00224348
14 12 26 100 0.153858
16 12 26 100 0.0384616
17 12 26 100 0.0384601
18 12 26 100 0.0351183
19 12 26 100 0.115366
20 12 26 100 0.0368447
22 12 26 100 0.0384611
23 12 26 100 1.16973e-06
0 13 26 100 0.0612611
3 13 26 100 1.83734e-05
6 13 26 100 4.64104e-07
7 13 26 100 0.0384616
8 13 26 100 0.0389138
10 13 26 100 0.0769328
11 13 26 100 0.15469
12 13 26 100 0.039966
13 13 26 100 0.242691
