1 1 100 4 1
2 5 100 4 1
1 7 100 4 0.332169
2 7 100 4 0.333911
3 7 100 4 0.33392
4 8 100 4 1
1 1 100 5 1
3 2 100 5 1
3 5 100 5 1
2 6 100 5 1
3 7 100 5 1
2 9 100 5 0.990154
3 9 100 5 0.000552047
4 9 100 5 0.0092944
2 11 100 5 0.0578393
3 11 100 5 0.0729884
4 11 100 5 0.432827
5 11 100 5 0.436346
2 0 100 6 0.996096
4 0 100 6 0.00390357
1 1 100 6 1
1 2 100 6 0.943088
2 2 100 6 0.0569122
1 3 100 6 0.499917
3 3 100 6 0.500071
6 3 100 6 1.20007e-05
1 4 100 6 0.080066
2 4 100 6 0.919934
2 5 100 6 0.462492
3 5 100 6 0.537508
4 6 100 6 1
3 7 100 6 2.8654e-05
5 7 100 6 0.999971
3 8 100 6 2.24752e-05
6 8 100 6 0.999978
1 0 100 7 0.000663357
4 0 100 7 0.023754
5 0 100 7 0.973192
6 0 100 7 0.00239087
1 1 100 7 0.839984
2 1 100 7 0.0799702
3 1 100 7 0.0799753
4 1 100 7 7.08182e-05
1 2 100 7 0.0417717
2 2 100 7 0.831603
4 2 100 7 2.72818e-05
5 2 100 7 0.126598
1 3 100 7 0.0219503
2 3 100 7 0.480838
3 3 100 7 0.371258
4 3 100 7 0.125946
5 3 100 7 8.47153e-06
1 4 100 7 0.0016296
2 4 100 7 0.110248
3 4 100 7 0.431988
4 4 100 7 0.334613
5 4 100 7 0.121521
1 5 100 7 0.0822483
2 5 100 7 3.7315e-05
3 5 100 7 0.17245
4 5 100 7 0.569911
5 5 100 7 0.0835653
6 5 100 7 0.0917881
4 6 100 7 0.129481
5 6 100 7 0.481683
6 6 100 7 0.388726
7 6 100 7 0.000110169
3 7 100 7 0.0656822
5 7 100 7 0.362492
6 7 100 7 0.281794
7 7 100 7 0.290032
2 8 100 7 0.000174949
3 8 100 7 2.44039e-05
4 8 100 7 3.29321e-06
6 8 100 7 0.399987
7 8 100 7 0.59981
3 9 100 7 0.163369
4 9 100 7 7.1129e-07
6 9 100 7 0.332242
7 9 100 7 0.504388
4 10 100 7 4.34314e-06
5 10 100 7 0.00287726
7 10 100 7 0.997118
2 0 100 8 0.126796
3 0 100 8 0.560632
4 0 100 8 0.00651076
5 0 100 8 0.305232
6 0 100 8 5.23934e-05
7 0 100 8 0.000775624
1 1 100 8 0.415549
2 1 100 8 0.33395
3 1 100 8 0.166998
4 1 100 8 0.0835022
3 2 100 8 0.250272
4 2 100 8 0.375416
5 2 100 8 0.124037
6 2 100 8 0.125138
7 2 100 8 0.125138
2 3 100 8 0.45125
3 3 100 8 3.31401e-05
4 3 100 8 0.028551
5 3 100 8 0.294413
6 3 100 8 0.225631
7 3 100 8 0.000122472
1 4 100 8 0.326654
2 4 100 8 0.0187516
3 4 100 8 0.163646
4 4 100 8 0.16364
5 4 100 8 0.163646
7 4 100 8 0.163662
1 5 100 8 0.167237
2 5 100 8 0.000123987
3 5 100 8 0.167132
4 5 100 8 0.310325
5 5 100 8 0.163158
6 5 100 8 0.191784
7 5 100 8 0.000241144
1 6 100 8 7.03968e-05
2 6 100 8 0.292124
4 6 100 8 0.172795
5 6 100 8 0.212258
6 6 100 8 0.148247
7 6 100 8 0.174506
3 7 100 8 0.150572
5 7 100 8 0.283132
6 7 100 8 0.283171
7 7 100 8 0.141563
8 7 100 8 0.141563
6 8 100 8 0.30158
7 8 100 8 0.0952604
8 8 100 8 0.60316
4 9 100 8 6.63661e-05
6 9 100 8 0.213599
7 9 100 8 0.572664
8 9 100 8 0.21367
5 10 100 8 5.25085e-05
7 10 100 8 0.251785
8 10 100 8 0.748163
1 11 100 8 1.62064e-05
2 11 100 8 0.0001764
5 11 100 8 0.00103174
8 11 100 8 0.998776
2 12 100 8 1.93833e-05
4 12 100 8 0.988106
7 12 100 8 0.0118751
1 13 100 8 0.999977
7 13 100 8 2.25482e-05
1 0 100 9 0.305434
2 0 100 9 0.00306814
3 0 100 9 0.000287936
4 0 100 9 0.00355417
5 0 100 9 0.00629298
6 0 100 9 0.580288
7 0 100 9 0.00263894
8 0 100 9 0.0984358
1 1 100 9 0.621601
2 1 100 9 0.2365
3 1 100 9 0.0472999
5 1 100 9 0.0945998
2 2 100 9 0.428926
3 2 100 9 0.35612
4 2 100 9 0.0712579
6 2 100 9 0.143632
7 2 100 9 6.39684e-05
1 3 100 9 2.92047e-06
2 3 100 9 0.255679
3 3 100 9 0.25414
4 3 100 9 0.295041
5 3 100 9 0.128749
6 3 100 9 0.000724502
7 3 100 9 0.0656359
8 3 100 9 2.71238e-05
1 4 100 9 0.0839085
3 4 100 9 0.265853
4 4 100 9 0.4381
5 4 100 9 0.0001041
6 4 100 9 0.0859151
7 4 100 9 0.0402222
8 4 100 9 0.0858974
1 5 100 9 0.0976946
2 5 100 9 0.000327817
3 5 100 9 0.161598
4 5 100 9 0.0780983
5 5 100 9 0.450846
6 5 100 9 0.211285
7 5 100 9 0.000143913
8 5 100 9 6.03044e-06
2 6 100 9 0.0487696
3 6 100 9 0.0487697
4 6 100 9 0.146648
5 6 100 9 0.194673
6 6 100 9 0.291874
7 6 100 9 0.231431
8 6 100 9 0.0378353
2 7 100 9 0.0893103
4 7 100 9 0.0894249
5 7 100 9 0.0893103
7 7 100 9 0.464024
8 7 100 9 0.267931
1 8 100 9 0.0747378
2 8 100 9 0.000178111
3 8 100 9 0.0746881
4 8 100 9 0.175157
5 8 100 9 0.0746881
6 8 100 9 0.0767518
7 8 100 9 0.150332
8 8 100 9 0.224091
9 8 100 9 0.149376
1 9 100 9 0.0947493
4 9 100 9 0.000120343
5 9 100 9 0.0947553
6 9 100 9 0.189502
7 9 100 9 0.146937
8 9 100 9 0.189505
9 9 100 9 0.284432
2 10 100 9 0.0901428
4 10 100 9 0.000644858
6 10 100 9 0.0904991
8 10 100 9 0.454854
9 10 100 9 0.36386
1 11 100 9 4.60274e-07
2 11 100 9 8.28193e-06
3 11 100 9 0.146451
4 11 100 9 3.44102e-05
5 11 100 9 0.141904
6 11 100 9 0.000832293
7 11 100 9 0.177242
9 11 100 9 0.533528
1 12 100 9 4.23346e-05
4 12 100 9 0.000271173
5 12 100 9 4.32185e-06
6 12 100 9 0.233991
8 12 100 9 0.381302
9 12 100 9 0.384389
4 13 100 9 0.000869275
5 13 100 9 0.339337
6 13 100 9 0.00113327
7 13 100 9 0.140527
8 13 100 9 0.000306116
9 13 100 9 0.517828
3 14 100 9 1.48313e-06
4 14 100 9 2.12704e-05
5 14 100 9 0.00480145
6 14 100 9 0.0210864
7 14 100 9 0.335333
8 14 100 9 0.302679
9 14 100 9 0.336078
1 15 100 9 1.06344e-05
4 15 100 9 0.0827577
6 15 100 9 0.000100885
9 15 100 9 0.917131
1 16 100 9 0.0321289
5 16 100 9 0.0028141
6 16 100 9 4.79349e-05
7 16 100 9 0.00217439
8 16 100 9 0.962835
4 17 100 9 3.40126e-05
6 17 100 9 0.999966
4 18 100 9 1
4 19 100 9 1
6 20 100 9 3.00805e-06
9 20 100 9 0.999997
2 0 100 10 0.0708332
3 0 100 10 0.222545
4 0 100 10 0.0252159
5 0 100 10 0.529675
6 0 100 10 0.102677
7 0 100 10 0.0077675
8 0 100 10 0.0262641
9 0 100 10 0.01491
10 0 100 10 0.000112157
1 1 100 10 0.825752
2 1 100 10 0.174248
2 2 100 10 0.628572
3 2 100 10 0.31879
6 2 100 10 7.40026e-06
8 2 100 10 5.50721e-07
9 2 100 10 0.0526302
2 3 100 10 0.114489
3 3 100 10 0.571785
4 3 100 10 0.311869
5 3 100 10 1.26765e-06
6 3 100 10 7.76925e-06
7 3 100 10 0.00184782
2 4 100 10 0.000122345
3 4 100 10 0.223076
4 4 100 10 0.561663
5 4 100 10 0.215024
6 4 100 10 0.000108832
7 4 100 10 4.37482e-06
9 4 100 10 1.0685e-06
2 5 100 10 8.22229e-05
3 5 100 10 1.02056e-06
4 5 100 10 0.156361
5 5 100 10 0.619748
6 5 100 10 0.223741
8 5 100 10 6.51594e-05
9 5 100 10 1.40215e-06
3 6 100 10 0.100594
4 6 100 10 0.153769
5 6 100 10 0.113795
6 6 100 10 0.526868
7 6 100 10 0.104689
8 6 100 10 0.000269939
9 6 100 10 1.57817e-05
3 7 100 10 0.0851132
5 7 100 10 0.146313
6 7 100 10 0.342986
7 7 100 10 0.425585
9 7 100 10 2.12851e-06
3 8 100 10 0.00120611
4 8 100 10 0.116876
6 8 100 10 0.117163
7 8 100 10 0.410262
8 8 100 10 0.236297
9 8 100 10 0.0590976
10 8 100 10 0.0590976
3 9 100 10 2.28402e-06
4 9 100 10 1.63519e-06
5 9 100 10 0.0948909
8 9 100 10 0.63209
9 9 100 10 0.273015
2 10 100 10 4.65899e-06
3 10 100 10 2.95928e-05
5 10 100 10 0.0252147
6 10 100 10 0.163288
7 10 100 10 0.00480788
8 10 100 10 0.155977
9 10 100 10 0.160846
10 10 100 10 0.489832
1 11 100 10 0.000278188
2 11 100 10 4.11962e-05
4 11 100 10 3.36447e-06
6 11 100 10 0.00797201
7 11 100 10 0.220396
8 11 100 10 0.220404
9 11 100 10 0.440704
10 11 100 10 0.110202
2 12 100 10 2.68302e-07
3 12 100 10 0.000781367
4 12 100 10 7.57137e-05
5 12 100 10 0.0885554
6 12 100 10 0.00237374
7 12 100 10 0.0734098
8 12 100 10 0.233661
9 12 100 10 0.246173
10 12 100 10 0.35497
1 13 100 10 0.00235802
3 13 100 10 1.61045e-05
4 13 100 10 1.04917e-06
5 13 100 10 0.000494404
6 13 100 10 0.239755
7 13 100 10 2.81455e-05
8 13 100 10 4.2779e-06
9 13 100 10 0.504897
10 13 100 10 0.252446
4 14 100 10 1.28452e-06
6 14 100 10 4.54696e-06
9 14 100 10 0.2558
10 14 100 10 0.744195
4 15 100 10 0.00136931
6 15 100 10 0.000160137
9 15 100 10 0.0020122
10 15 100 10 0.996458
9 16 100 10 1.93735e-06
10 16 100 10 0.999998
1 0 100 11 8.58011e-05
2 0 100 11 0.00108932
3 0 100 11 0.00608696
4 0 100 11 0.0626244
5 0 100 11 0.431518
6 0 100 11 0.000894766
7 0 100 11 0.00723575
8 0 100 11 0.0201148
9 0 100 11 0.00170345
10 0 100 11 0.468646
1 1 100 11 0.412368
2 1 100 11 0.406799
3 1 100 11 0.0904159
4 1 100 11 0.0904158
5 1 100 11 1.12989e-06
1 2 100 11 0.049485
2 2 100 11 0.416676
3 2 100 11 0.333321
4 2 100 11 5.4483e-05
5 2 100 11 0.129569
7 2 100 11 7.97572e-06
9 2 100 11 4.37239e-05
10 2 100 11 0.070844
1 3 100 11 0.240204
2 3 100 11 0.00538151
3 3 100 11 0.502338
4 3 100 11 0.125832
5 3 100 11 0.000248189
6 3 100 11 0.125676
8 3 100 11 2.81908e-06
9 3 100 11 0.000286875
10 3 100 11 3.11725e-05
1 4 100 11 0.062926
2 4 100 11 0.0600776
3 4 100 11 0.06278
4 4 100 11 0.31381
5 4 100 11 0.186584
6 4 100 11 0.125554
7 4 100 11 0.125561
8 4 100 11 3.13686e-05
9 4 100 11 0.0626757
3 5 100 11 0.135143
4 5 100 11 0.264176
5 5 100 11 0.273139
6 5 100 11 0.0675717
7 5 100 11 0.0675717
8 5 100 11 0.188718
10 5 100 11 0.0036728
11 5 100 11 7.20109e-06
1 6 100 11 0.00431751
4 6 100 11 0.132309
5 6 100 11 0.195811
6 6 100 11 0.331241
7 6 100 11 0.0662506
8 6 100 11 0.137569
9 6 100 11 0.132501
2 7 100 11 1.67262e-06
4 7 100 11 0.000429634
5 7 100 11 0.190588
6 7 100 11 0.286034
7 7 100 11 0.227967
8 7 100 11 0.0953386
9 7 100 11 0.190433
10 7 100 11 0.00920783
1 8 100 11 2.35563e-06
5 8 100 11 0.00188067
6 8 100 11 0.106169
7 8 100 11 0.5574
9 8 100 11 0.106283
10 8 100 11 0.228265
2 9 100 11 3.3331e-05
4 9 100 11 4.0527e-05
5 9 100 11 0.00274915
6 9 100 11 0.0896681
7 9 100 11 0.179336
8 9 100 11 0.375265
9 9 100 11 4.01675e-05
10 9 100 11 0.263203
11 9 100 11 0.0896648
1 10 100 11 0.109654
3 10 100 11 0.0106255
4 10 100 11 0.000369697
7 10 100 11 0.109966
8 10 100 11 0.210695
9 10 100 11 0.438582
10 10 100 11 0.0104626
11 10 100 11 0.109645
1 11 100 11 0.0293803
3 11 100 11 0.00171974
4 11 100 11 7.446e-05
5 11 100 11 9.78836e-06
7 11 100 11 1.81873e-06
8 11 100 11 0.0968965
9 11 100 11 0.193796
10 11 100 11 0.387441
11 11 100 11 0.29068
1 12 100 11 0.000412859
3 12 100 11 0.0896922
4 12 100 11 0.101294
5 12 100 11 1.73309e-06
6 12 100 11 0.101294
8 12 100 11 0.101368
9 12 100 11 0.202358
10 12 100 11 0.302286
11 12 100 11 0.101294
1 13 100 11 0.000453644
4 13 100 11 0.00299407
5 13 100 11 3.89717e-07
7 13 100 11 0.0300251
8 13 100 11 0.000373892
9 13 100 11 4.33841e-05
10 13 100 11 0.14166
11 13 100 11 0.82445
1 14 100 11 0.154643
2 14 100 11 0.000984447
3 14 100 11 0.000562554
4 14 100 11 1.12412e-05
5 14 100 11 4.52813e-05
7 14 100 11 0.0212209
8 14 100 11 0.204748
9 14 100 11 0.153712
10 14 100 11 0.154701
11 14 100 11 0.309372
3 15 100 11 0.247181
4 15 100 11 1.04135e-06
5 15 100 11 0.0056545
8 15 100 11 8.86749e-07
9 15 100 11 0.00166422
10 15 100 11 6.32802e-07
11 15 100 11 0.745498
3 16 100 11 0.0014242
4 16 100 11 0.000408786
5 16 100 11 0.99807
6 16 100 11 2.05172e-05
9 16 100 11 1.05235e-05
10 16 100 11 6.54179e-05
5 17 100 11 1
5 18 100 11 0.0192776
11 18 100 11 0.980722
1 0 100 12 0.00188291
2 0 100 12 0.000422407
3 0 100 12 0.389077
4 0 100 12 0.000404765
5 0 100 12 0.00036153
6 0 100 12 0.00180193
7 0 100 12 0.0017028
8 0 100 12 0.00111673
9 0 100 12 0.598303
10 0 100 12 0.00492648
1 1 100 12 0.554155
2 1 100 12 0.260568
3 1 100 12 0.0616932
4 1 100 12 0.0616769
5 1 100 12 0.061682
7 1 100 12 0.000187895
9 1 100 12 3.78102e-05
1 2 100 12 1.1232e-05
2 2 100 12 0.498641
3 2 100 12 0.489949
6 2 100 12 0.00598313
10 2 100 12 0.00541604
1 3 100 12 1.09087e-05
2 3 100 12 0.220743
3 3 100 12 0.12908
4 3 100 12 0.257728
5 3 100 12 0.128949
6 3 100 12 0.134536
7 3 100 12 0.128934
8 3 100 12 1.53803e-06
9 3 100 12 6.59791e-06
10 3 100 12 1.01819e-05
2 4 100 12 1.64323e-05
3 4 100 12 0.109469
4 4 100 12 0.437792
5 4 100 12 0.328062
6 4 100 12 0.100191
7 4 100 12 4.02307e-06
8 4 100 12 0.00011385
9 4 100 12 0.0243515
1 5 100 12 1.87362e-05
3 5 100 12 0.0904131
4 5 100 12 0.180874
5 5 100 12 0.270233
6 5 100 12 0.361749
8 5 100 12 0.0904534
9 5 100 12 0.00625978
4 6 100 12 5.48802e-06
5 6 100 12 0.165833
6 6 100 12 0.163761
7 6 100 12 0.163774
8 6 100 12 0.163773
9 6 100 12 0.179086
10 6 100 12 0.163767
3 7 100 12 0.143272
6 7 100 12 0.286563
8 7 100 12 0.143281
9 7 100 12 0.0070309
10 7 100 12 0.276572
11 7 100 12 0.143281
2 8 100 12 7.98891e-05
5 8 100 12 5.0302e-06
7 8 100 12 0.51634
8 8 100 12 0.00957017
9 8 100 12 0.324083
10 8 100 12 0.135944
11 8 100 12 0.0139779
5 9 100 12 3.72323e-06
6 9 100 12 4.41379e-06
7 9 100 12 0.12093
8 9 100 12 0.372414
9 9 100 12 0.0262395
10 9 100 12 0.238368
11 9 100 12 0.242039
1 10 100 12 0.0024475
5 10 100 12 8.38827e-05
7 10 100 12 0.00834526
9 10 100 12 0.508334
10 10 100 12 0.000171082
11 10 100 12 0.480618
2 11 100 12 0.000176972
3 11 100 12 0.00052938
5 11 100 12 1.37882e-06
7 11 100 12 0.21825
8 11 100 12 0.316136
9 11 100 12 0.0201452
10 11 100 12 0.110879
12 11 100 12 0.333882
2 12 100 12 0.0020155
3 12 100 12 0.0105824
5 12 100 12 2.04407e-05
9 12 100 12 0.35004
10 12 100 12 0.0013098
11 12 100 12 0.636032
5 13 100 12 2.12414e-06
10 13 100 12 0.399999
12 13 100 12 0.599999
4 14 100 12 2.39442e-05
5 14 100 12 0.00114032
8 14 100 12 0.193161
11 14 100 12 0.805675
4 15 100 12 0.000171759
5 15 100 12 3.27778e-05
6 15 100 12 2.47535e-06
9 15 100 12 6.55523e-05
10 15 100 12 0.000664711
11 15 100 12 0.999055
12 15 100 12 8.14663e-06
1 16 100 12 2.73761e-06
6 16 100 12 1.28269e-05
7 16 100 12 7.41935e-06
8 16 100 12 1.22117e-05
11 16 100 12 0.0682583
12 16 100 12 0.931706
2 17 100 12 0.991469
5 17 100 12 4.02749e-05
7 17 100 12 1.07966e-05
9 17 100 12 0.00847969
9 18 100 12 0.99846
12 18 100 12 0.00154053
9 19 100 12 1
12 20 100 12 1
1 0 100 13 8.80597e-05
2 0 100 13 0.164848
3 0 100 13 0.00816972
4 0 100 13 0.00159836
5 0 100 13 0.00546152
6 0 100 13 0.00279576
7 0 100 13 0.0495975
8 0 100 13 0.163323
9 0 100 13 0.000213043
10 0 100 13 0.0466041
11 0 100 13 0.555152
12 0 100 13 0.00214942
1 1 100 13 0.733645
2 1 100 13 0.179222
3 1 100 13 0.0438762
4 1 100 13 0.0432549
5 1 100 13 1.11436e-06
12 1 100 13 6.21423e-07
1 2 100 13 0.00619558
2 2 100 13 0.452859
3 2 100 13 0.263241
4 2 100 13 0.144665
5 2 100 13 0.132145
6 2 100 13 2.90448e-05
7 2 100 13 0.000531572
8 2 100 13 4.11968e-05
10 2 100 13 3.20087e-06
11 2 100 13 0.00028962
1 3 100 13 0.0012483
2 3 100 13 0.153875
3 3 100 13 0.401718
4 3 100 13 0.26578
5 3 100 13 0.0573506
6 3 100 13 0.11504
7 3 100 13 0.00497598
10 3 100 13 6.11765e-06
11 3 100 13 5.95759e-06
1 4 100 13 0.0001067
2 4 100 13 0.0147202
3 4 100 13 0.123734
4 4 100 13 0.320905
5 4 100 13 0.247665
6 4 100 13 0.0595801
7 4 100 13 0.168176
8 4 100 13 0.00996924
9 4 100 13 0.0533546
10 4 100 13 0.0015135
12 4 100 13 0.000275671
1 5 100 13 1.71611e-06
2 5 100 13 0.0949839
4 5 100 13 0.389395
5 5 100 13 0.195176
6 5 100 13 0.194584
7 5 100 13 9.48265e-05
8 5 100 13 0.097347
10 5 100 13 4.26109e-06
11 5 100 13 0.0265877
12 5 100 13 0.00182633
1 6 100 13 0.0105299
2 6 100 13 0.0141971
3 6 100 13 0.0534278
4 6 100 13 0.000162267
5 6 100 13 0.213841
6 6 100 13 0.269333
7 6 100 13 0.158596
8 6 100 13 0.106855
9 6 100 13 0.160283
10 6 100 13 0.0121485
11 6 100 13 0.000626314
1 7 100 13 0.0537183
2 7 100 13 6.36722e-07
3 7 100 13 0.0589685
4 7 100 13 2.60372e-06
5 7 100 13 0.118123
6 7 100 13 0.236243
7 7 100 13 0.295202
8 7 100 13 0.176306
10 7 100 13 0.0614361
2 8 100 13 0.0665097
3 8 100 13 0.0666223
4 8 100 13 0.0664882
5 8 100 13 0.0665012
6 8 100 13 0.132976
7 8 100 13 0.199546
8 8 100 13 0.262509
9 8 100 13 0.0664882
10 8 100 13 0.00360016
11 8 100 13 0.0687347
12 8 100 13 2.32923e-05
3 9 100 13 4.43375e-06
4 9 100 13 0.0504787
7 9 100 13 0.096595
8 9 100 13 0.253994
9 9 100 13 0.201941
10 9 100 13 0.24583
12 9 100 13 0.151157
2 10 100 13 0.005675
3 10 100 13 7.19118e-07
4 10 100 13 4.89082e-06
5 10 100 13 1.60418e-06
7 10 100 13 0.0538347
8 10 100 13 0.0623139
9 10 100 13 0.223235
10 10 100 13 0.215393
11 10 100 13 0.331705
12 10 100 13 0.0539182
13 10 100 13 0.0539183
2 11 100 13 0.00070498
3 11 100 13 1.37678e-05
5 11 100 13 0.0666101
6 11 100 13 0.0666112
7 11 100 13 0.0666101
8 11 100 13 0.0666113
9 11 100 13 0.0666101
10 11 100 13 0.266456
11 11 100 13 0.0667204
12 11 100 13 0.333052
1 12 100 13 0.0666991
2 12 100 13 0.0818894
3 12 100 13 0.000517511
5 12 100 13 1.06942e-06
6 12 100 13 0.0810554
7 12 100 13 0.0115615
8 12 100 13 0.00251451
9 12 100 13 0.163715
10 12 100 13 0.081978
11 12 100 13 0.351648
12 12 100 13 0.0765636
13 12 100 13 0.0818575
2 13 100 13 6.74914e-05
3 13 100 13 0.221016
7 13 100 13 0.00159917
8 13 100 13 0.000480452
9 13 100 13 0.11128
10 13 100 13 0.00257702
11 13 100 13 0.11651
12 13 100 13 0.43515
13 13 100 13 0.111319
2 14 100 13 0.00309043
3 14 100 13 5.76756e-05
4 14 100 13 0.0018164
7 14 100 13 0.11758
8 14 100 13 0.126817
9 14 100 13 0.00428705
10 14 100 13 0.243907
11 14 100 13 0.000882747
12 14 100 13 0.137155
13 14 100 13 0.364407
1 15 100 13 2.17373e-05
2 15 100 13 0.0821151
3 15 100 13 2.20132e-05
4 15 100 13 1.26384e-05
5 15 100 13 0.000179415
6 15 100 13 0.000259691
8 15 100 13 0.00119459
9 15 100 13 0.000202239
10 15 100 13 0.000168716
11 15 100 13 0.114365
12 15 100 13 0.235729
13 15 100 13 0.56573
2 16 100 13 0.00358456
3 16 100 13 6.11538e-05
5 16 100 13 0.165821
6 16 100 13 6.3459e-06
7 16 100 13 0.00221607
8 16 100 13 0.00111076
9 16 100 13 0.328161
11 16 100 13 0.167392
12 16 100 13 5.58144e-06
13 16 100 13 0.331642
6 17 100 13 0.308389
7 17 100 13 1.63586e-05
8 17 100 13 3.46244e-05
9 17 100 13 0.000115736
10 17 100 13 0.251836
11 17 100 13 0.376419
12 17 100 13 2.27963e-05
13 17 100 13 0.063167
6 18 100 13 2.25449e-05
11 18 100 13 5.90627e-06
12 18 100 13 0.496473
13 18 100 13 0.503498
2 19 100 13 0.00852018
5 19 100 13 9.82956e-06
10 19 100 13 0.398631
11 19 100 13 4.32731e-06
13 19 100 13 0.592835
3 20 100 13 0.000384515
4 20 100 13 0.000157545
5 20 100 13 0.81409
6 20 100 13 0.146808
7 20 100 13 0.00142776
8 20 100 13 0.000201617
9 20 100 13 0.000222228
11 20 100 13 0.000587578
12 20 100 13 0.0361214
2 21 100 13 0.00177447
10 21 100 13 0.00684633
13 21 100 13 0.991379
5 22 100 13 2.95783e-05
13 22 100 13 0.99997
1 0 100 14 0.000106274
2 0 100 14 0.0944922
3 0 100 14 0.117485
4 0 100 14 0.0109641
5 0 100 14 0.000130875
6 0 100 14 0.00934356
7 0 100 14 0.0684548
8 0 100 14 0.183017
9 0 100 14 0.0125032
10 0 100 14 0.0729232
11 0 100 14 0.219716
12 0 100 14 0.210864
1 1 100 14 0.545881
2 1 100 14 0.226004
3 1 100 14 0.0989655
4 1 100 14 0.0322806
5 1 100 14 0.0322806
6 1 100 14 2.6505e-05
7 1 100 14 0.0645612
1 2 100 14 0.0475566
2 2 100 14 0.474301
3 2 100 14 0.234778
4 2 100 14 0.0476516
5 2 100 14 0.0952442
6 2 100 14 0.0477561
8 2 100 14 0.0476666
11 2 100 14 0.00467877
12 2 100 14 0.000366885
2 3 100 14 0.0942903
3 3 100 14 0.424291
4 3 100 14 0.237987
5 3 100 14 0.0471454
6 3 100 14 0.141832
7 3 100 14 0.0502959
9 3 100 14 0.000598778
10 3 100 14 5.29932e-07
11 3 100 14 0.00355951
1 4 100 14 0.0140568
2 4 100 14 4.2833e-07
3 4 100 14 0.0383512
4 4 100 14 0.344584
5 4 100 14 0.342673
6 4 100 14 0.11373
7 4 100 14 0.113791
8 4 100 14 0.0327988
9 4 100 14 1.31482e-05
1 5 100 14 0.00105726
2 5 100 14 0.00230813
3 5 100 14 0.0548769
4 5 100 14 0.107544
5 5 100 14 0.263252
6 5 100 14 0.266591
7 5 100 14 0.0526501
8 5 100 14 0.170871
9 5 100 14 0.00918937
10 5 100 14 9.98637e-06
11 5 100 14 9.49209e-06
12 5 100 14 0.0716411
1 6 100 14 0.100365
3 6 100 14 0.0531579
4 6 100 14 0.0977811
5 6 100 14 0.0496828
6 6 100 14 0.243716
7 6 100 14 0.151171
8 6 100 14 0.0545348
9 6 100 14 0.242017
11 6 100 14 0.000291295
12 6 100 14 0.00728294
1 7 100 14 0.105614
2 7 100 14 0.0395522
3 7 100 14 5.75339e-07
4 7 100 14 0.0332804
5 7 100 14 0.0381287
6 7 100 14 0.0764706
7 7 100 14 0.26824
8 7 100 14 0.157989
9 7 100 14 0.0446431
10 7 100 14 0.196246
11 7 100 14 0.0397935
12 7 100 14 4.1583e-05
1 8 100 14 0.0397922
2 8 100 14 0.0806795
3 8 100 14 0.0370801
5 8 100 14 0.0398316
6 8 100 14 0.119278
7 8 100 14 0.135967
8 8 100 14 0.11359
9 8 100 14 0.153947
10 8 100 14 0.159155
11 8 100 14 0.0624086
12 8 100 14 0.05827
1 9 100 14 9.53245e-05
2 9 100 14 0.0569795
3 9 100 14 0.048093
4 9 100 14 0.000328631
5 9 100 14 0.00487153
6 9 100 14 0.0570334
7 9 100 14 0.0591034
8 9 100 14 0.257769
9 9 100 14 0.270476
10 9 100 14 0.130862
11 9 100 14 0.109693
12 9 100 14 0.00469556
3 10 100 14 0.0434717
5 10 100 14 0.0434718
6 10 100 14 0.0433179
7 10 100 14 0.087007
8 10 100 14 0.0869121
9 10 100 14 0.217319
10 10 100 14 0.0870933
11 10 100 14 0.21752
12 10 100 14 0.0434719
13 10 100 14 0.130416
3 11 100 14 0.00128827
5 11 100 14 0.0432039
6 11 100 14 0.0458129
8 11 100 14 0.112256
9 11 100 14 0.0818241
10 11 100 14 0.223272
11 11 100 14 0.0453215
12 11 100 14 0.223518
13 11 100 14 0.134093
14 11 100 14 0.08941
2 12 100 14 0.0534576
4 12 100 14 0.106916
7 12 100 14 0.106875
8 12 100 14 0.00146151
9 12 100 14 0.131501
11 12 100 14 0.225581
12 12 100 14 0.106921
13 12 100 14 0.267288
1 13 100 14 0.0454006
2 13 100 14 0.0451115
4 13 100 14 0.0435072
5 13 100 14 0.131431
6 13 100 14 4.19014e-05
7 13 100 14 0.000273365
8 13 100 14 0.000444133
9 13 100 14 0.000316943
10 13 100 14 0.138292
11 13 100 14 0.140676
12 13 100 14 0.271534
13 13 100 14 0.0927778
14 13 100 14 0.0901928
1 14 100 14 8.3641e-06
2 14 100 14 0.00623011
3 14 100 14 0.110599
5 14 100 14 0.001826
6 14 100 14 0.0532851
8 14 100 14 0.120896
9 14 100 14 0.0546035
10 14 100 14 0.0547409
11 14 100 14 0.163429
12 14 100 14 0.0564168
13 14 100 14 0.269089
14 14 100 14 0.108876
1 15 100 14 0.0766342
3 15 100 14 2.08898e-06
4 15 100 14 0.149229
5 15 100 14 1.24823e-05
6 15 100 14 6.50153e-05
8 15 100 14 0.00082528
9 15 100 14 0.00646142
10 15 100 14 0.0765742
11 15 100 14 0.076916
12 15 100 14 0.15332
13 15 100 14 0.15332
14 15 100 14 0.30664
2 16 100 14 0.00148988
4 16 100 14 1.01709e-05
6 16 100 14 6.116e-05
7 16 100 14 0.00218739
8 16 100 14 8.91481e-07
9 16 100 14 0.000139723
10 16 100 14 0.0436813
11 16 100 14 0.173
12 16 100 14 0.174197
13 16 100 14 0.172913
14 16 100 14 0.432319
2 17 100 14 7.37018e-05
3 17 100 14 6.14058e-05
4 17 100 14 5.65121e-07
6 17 100 14 0.000109592
8 17 100 14 0.000201694
9 17 100 14 0.0985346
10 17 100 14 9.16462e-05
11 17 100 14 0.000497435
12 17 100 14 0.162595
13 17 100 14 0.295136
14 17 100 14 0.442698
1 18 100 14 0.00310749
4 18 100 14 4.67491e-07
6 18 100 14 8.42923e-07
9 18 100 14 1.05509e-05
10 18 100 14 0.166247
11 18 100 14 2.82292e-05
12 18 100 14 0.16624
13 18 100 14 0.166102
14 18 100 14 0.498264
6 19 100 14 0.000154109
7 19 100 14 0.00665969
9 19 100 14 1.14905e-05
10 19 100 14 0.0276229
11 19 100 14 4.13709e-06
14 19 100 14 0.965548
1 20 100 14 0.00038332
2 20 100 14 2.6777e-06
5 20 100 14 1.28205e-05
6 20 100 14 3.30331e-06
7 20 100 14 4.33403e-05
8 20 100 14 5.15347e-05
9 20 100 14 0.00672767
11 20 100 14 0.00814179
12 20 100 14 1.45612e-05
13 20 100 14 0.984619
7 21 100 14 0.0269632
8 21 100 14 0.842838
10 21 100 14 0.128516
13 21 100 14 0.00168256
14 22 100 14 1
1 0 100 15 0.000537765
2 0 100 15 0.147126
3 0 100 15 0.122969
4 0 100 15 0.0869498
5 0 100 15 0.00213904
6 0 100 15 0.000847518
7 0 100 15 0.0125087
8 0 100 15 0.00381214
9 0 100 15 0.12957
10 0 100 15 0.0119732
11 0 100 15 0.142762
12 0 100 15 0.189247
13 0 100 15 0.149075
14 0 100 15 0.000482496
1 1 100 15 0.513718
2 1 100 15 0.22879
3 1 100 15 0.0965079
4 1 100 15 0.0643373
5 1 100 15 0.0627822
6 1 100 15 2.6936e-05
9 1 100 15 0.0338372
14 1 100 15 4.77092e-07
2 2 100 15 0.415723
3 2 100 15 0.119532
4 2 100 15 0.178241
5 2 100 15 0.108437
10 2 100 15 0.118656
11 2 100 15 0.0594077
15 2 100 15 2.09271e-06
1 3 100 15 1.78647e-05
3 3 100 15 0.478081
4 3 100 15 0.0774923
5 3 100 15 0.154459
6 3 100 15 0.0769031
7 3 100 15 0.0726213
8 3 100 15 3.73938e-05
9 3 100 15 5.60835e-05
10 3 100 15 9.77234e-05
11 3 100 15 0.0876226
12 3 100 15 0.0525219
13 3 100 15 8.92805e-05
1 4 100 15 0.00183692
2 4 100 15 0.0542997
3 4 100 15 0.0683889
4 4 100 15 0.468665
5 4 100 15 0.0680318
6 4 100 15 0.00164783
7 4 100 15 0.126654
8 4 100 15 0.0661793
9 4 100 15 0.0744234
10 4 100 15 0.065978
12 4 100 15 0.00369298
13 4 100 15 0.000201941
3 5 100 15 0.0828634
4 5 100 15 0.000780196
5 5 100 15 0.405507
6 5 100 15 0.247996
7 5 100 15 0.000121668
8 5 100 15 7.07815e-06
9 5 100 15 0.0942057
10 5 100 15 0.000258503
11 5 100 15 0.0828046
12 5 100 15 0.0826395
13 5 100 15 0.00281355
14 5 100 15 2.9664e-06
2 6 100 15 0.000119847
3 6 100 15 0.00131375
4 6 100 15 0.0149451
5 6 100 15 0.17117
6 6 100 15 0.316734
7 6 100 15 0.287945
8 6 100 15 0.0959464
9 6 100 15 9.04204e-05
10 6 100 15 0.0959834
11 6 100 15 0.000273553
12 6 100 15 0.0146608
13 6 100 15 0.000818454
1 7 100 15 0.000598122
2 7 100 15 0.000848418
4 7 100 15 2.57594e-05
5 7 100 15 0.00261037
6 7 100 15 0.315556
7 7 100 15 0.108104
8 7 100 15 0.1574
9 7 100 15 0.102899
10 7 100 15 0.105627
11 7 100 15 2.16966e-05
12 7 100 15 0.105672
13 7 100 15 0.100629
14 7 100 15 9.35605e-06
3 8 100 15 0.043938
4 8 100 15 2.10772e-06
5 8 100 15 0.00649679
6 8 100 15 0.0306966
7 8 100 15 0.264031
8 8 100 15 0.175577
9 8 100 15 0.131688
10 8 100 15 6.5714e-07
11 8 100 15 0.0878183
12 8 100 15 0.0787149
13 8 100 15 0.0931475
14 8 100 15 0.08789
1 9 100 15 9.37794e-07
3 9 100 15 6.71191e-07
4 9 100 15 0.105684
5 9 100 15 0.0516422
6 9 100 15 0.0063267
8 9 100 15 0.383815
9 9 100 15 0.0640385
10 9 100 15 0.191847
11 9 100 15 0.0639972
12 9 100 15 0.0046324
13 9 100 15 3.27261e-05
14 9 100 15 0.127983
1 10 100 15 0.000240588
2 10 100 15 1.76863e-06
3 10 100 15 0.0565201
4 10 100 15 0.0409573
5 10 100 15 0.0565398
6 10 100 15 0.169426
7 10 100 15 1.5025e-05
8 10 100 15 6.42668e-07
9 10 100 15 0.282592
10 10 100 15 0.0565202
11 10 100 15 0.167507
12 10 100 15 0.113148
14 10 100 15 1.29884e-05
15 10 100 15 0.0565182
1 11 100 15 0.110744
2 11 100 15 0.111381
3 11 100 15 0.111336
4 11 100 15 0.111407
5 11 100 15 4.10946e-06
6 11 100 15 7.34163e-05
7 11 100 15 0.222482
9 11 100 15 0.111217
10 11 100 15 0.112569
11 11 100 15 0.000901746
12 11 100 15 0.10788
13 11 100 15 5.36898e-06
3 12 100 15 1.06662e-05
5 12 100 15 0.0955489
6 12 100 15 0.0636387
7 12 100 15 0.070757
8 12 100 15 0.141035
9 12 100 15 7.19027e-05
10 12 100 15 0.141291
11 12 100 15 0.141243
12 12 100 15 0.0681811
13 12 100 15 0.137001
14 12 100 15 0.0705997
15 12 100 15 0.070622
1 13 100 15 0.000289524
5 13 100 15 2.87458e-05
6 13 100 15 0.000236167
7 13 100 15 0.107509
9 13 100 15 0.0134495
10 13 100 15 0.203517
11 13 100 15 0.215013
12 13 100 15 0.23552
13 13 100 15 0.116986
14 13 100 15 0.107452
4 14 100 15 8.28932e-05
5 14 100 15 1.34976e-05
6 14 100 15 1.24211e-05
7 14 100 15 6.05376e-05
8 14 100 15 0.0664497
9 14 100 15 0.0664497
10 14 100 15 0.134597
11 14 100 15 0.0679335
12 14 100 15 0.0664497
13 14 100 15 0.332252
14 14 100 15 0.19925
15 14 100 15 0.0664497
4 15 100 15 0.00382871
7 15 100 15 0.000317986
8 15 100 15 2.79546e-05
10 15 100 15 0.141496
11 15 100 15 0.142303
12 15 100 15 0.282909
13 15 100 15 0.00456605
14 15 100 15 0.283034
15 15 100 15 0.141517
1 16 100 15 3.0625e-06
2 16 100 15 0.000287118
3 16 100 15 5.71988e-05
5 16 100 15 0.0169379
7 16 100 15 4.34986e-05
9 16 100 15 0.104517
10 16 100 15 0.00015984
11 16 100 15 0.252525
12 16 100 15 0.125362
13 16 100 15 0.374895
14 16 100 15 0.125213
1 17 100 15 0.000268418
2 17 100 15 0.00107081
3 17 100 15 0.00011578
4 17 100 15 3.49676e-05
5 17 100 15 8.80232e-05
6 17 100 15 1.86359e-05
7 17 100 15 2.20009e-06
8 17 100 15 1.4822e-05
9 17 100 15 1.21566e-05
11 17 100 15 1.84068e-06
12 17 100 15 0.0761003
13 17 100 15 0.101184
14 17 100 15 0.28686
15 17 100 15 0.534228
1 18 100 15 0.161821
2 18 100 15 0.172119
3 18 100 15 0.00133244
5 18 100 15 0.000258403
8 18 100 15 0.000618882
9 18 100 15 0.000246851
10 18 100 15 0.00018177
11 18 100 15 0.000280729
12 18 100 15 0.00103164
13 18 100 15 4.96732e-05
14 18 100 15 0.174424
15 18 100 15 0.487637
2 19 100 15 0.168174
3 19 100 15 1.42107e-06
8 19 100 15 0.0771804
9 19 100 15 0.00280489
10 19 100 15 3.29332e-06
12 19 100 15 7.64772e-06
14 19 100 15 0.00300132
15 19 100 15 0.748827
3 20 100 15 0.315805
9 20 100 15 6.31372e-06
10 20 100 15 2.76865e-05
13 20 100 15 0.342085
15 20 100 15 0.342076
4 21 100 15 0.499709
5 21 100 15 0.000376066
8 21 100 15 3.43795e-06
10 21 100 15 2.0965e-06
13 21 100 15 0.00658305
14 21 100 15 0.493327
5 22 100 15 0.336042
13 22 100 15 5.55704e-06
14 22 100 15 0.327908
15 22 100 15 0.336044
15 23 100 15 1
2 0 100 16 0.15852
3 0 100 16 0.00390518
4 0 100 16 0.105894
5 0 100 16 0.0183888
6 0 100 16 0.128445
7 0 100 16 0.0112339
8 0 100 16 0.118937
9 0 100 16 0.197609
10 0 100 16 0.00147179
11 0 100 16 0.0293411
12 0 100 16 0.00470984
13 0 100 16 0.101507
14 0 100 16 0.117743
15 0 100 16 0.00229517
1 1 100 16 0.548839
2 1 100 16 0.103622
3 1 100 16 0.10359
4 1 100 16 0.10354
5 1 100 16 0.140253
8 1 100 16 1.31454e-05
11 1 100 16 5.77096e-05
15 1 100 16 8.55253e-05
1 2 100 16 0.00012569
2 2 100 16 0.24435
3 2 100 16 0.131615
4 2 100 16 0.0874407
5 2 100 16 0.175489
6 2 100 16 0.219354
7 2 100 16 0.139242
9 2 100 16 0.00143376
11 2 100 16 8.5282e-06
12 2 100 16 0.000140361
14 2 100 16 0.000800816
1 3 100 16 0.00080938
2 3 100 16 0.14245
3 3 100 16 0.237904
4 3 100 16 0.103866
5 3 100 16 0.0948812
6 3 100 16 0.184092
7 3 100 16 0.137753
8 3 100 16 0.0952159
9 3 100 16 8.89283e-06
10 3 100 16 7.65629e-07
11 3 100 16 0.000757861
12 3 100 16 0.00125818
14 3 100 16 0.000977192
15 3 100 16 2.59713e-05
2 4 100 16 0.127674
3 4 100 16 0.000110227
4 4 100 16 0.365923
5 4 100 16 0.121118
6 4 100 16 0.0638611
7 4 100 16 0.127725
8 4 100 16 0.0638611
9 4 100 16 0.127587
10 4 100 16 0.000369589
11 4 100 16 0.00166159
13 4 100 16 0.000110214
1 5 100 16 0.0746713
2 5 100 16 0.074212
3 5 100 16 0.110929
4 5 100 16 0.0380124
5 5 100 16 0.17473
6 5 100 16 0.0406521
7 5 100 16 0.0747986
8 5 100 16 0.185518
9 5 100 16 0.0397225
10 5 100 16 0.0742157
12 5 100 16 0.0371086
13 5 100 16 0.0370504
14 5 100 16 0.0383753
15 5 100 16 3.03484e-06
2 6 100 16 0.00018465
4 6 100 16 0.0828
5 6 100 16 0.106368
6 6 100 16 0.154394
7 6 100 16 0.215871
8 6 100 16 0.0522284
9 6 100 16 0.227755
10 6 100 16 0.0520815
11 6 100 16 0.10586
12 6 100 16 0.0020314
13 6 100 16 8.75362e-05
14 6 100 16 0.00033776
1 7 100 16 5.44635e-05
2 7 100 16 0.0462181
4 7 100 16 0.0444176
5 7 100 16 0.0525285
6 7 100 16 0.184385
7 7 100 16 0.135896
8 7 100 16 0.133314
9 7 100 16 0.135181
10 7 100 16 0.133264
11 7 100 16 0.0444045
12 7 100 16 0.0460407
15 7 100 16 0.0442964
2 8 100 16 0.00427504
3 8 100 16 0.0674675
4 8 100 16 0.00269073
5 8 100 16 0.00319615
6 8 100 16 0.0639814
7 8 100 16 0.176101
8 8 100 16 0.142128
9 8 100 16 0.0674779
10 8 100 16 0.135002
11 8 100 16 0.134944
12 8 100 16 0.0677692
13 8 100 16 3.17783e-05
14 8 100 16 0.0674675
15 8 100 16 0.0674675
1 9 100 16 0.0512725
2 9 100 16 2.41027e-05
3 9 100 16 0.102763
4 9 100 16 0.00111052
5 9 100 16 0.0513133
6 9 100 16 0.0513719
7 9 100 16 0.0542242
8 9 100 16 0.153804
9 9 100 16 0.216332
10 9 100 16 0.0528671
11 9 100 16 0.148079
12 9 100 16 0.0513129
13 9 100 16 0.0655116
14 9 100 16 9.54983e-06
15 9 100 16 5.1072e-06
1 10 100 16 0.0395724
2 10 100 16 0.039573
3 10 100 16 0.0395724
4 10 100 16 0.0641912
6 10 100 16 0.0406457
7 10 100 16 0.0397029
8 10 100 16 0.0820941
9 10 100 16 0.0395818
10 10 100 16 0.236157
11 10 100 16 0.0395724
12 10 100 16 0.180958
13 10 100 16 0.079147
14 10 100 16 0.0395724
15 10 100 16 0.0396601
2 11 100 16 0.0566846
3 11 100 16 0.0518561
4 11 100 16 0.0111445
5 11 100 16 0.0519046
7 11 100 16 1.46139e-06
8 11 100 16 0.00296285
9 11 100 16 0.105933
10 11 100 16 0.155576
11 11 100 16 0.257741
12 11 100 16 0.0518804
13 11 100 16 0.150606
14 11 100 16 0.10371
1 12 100 16 0.0708477
2 12 100 16 1.90268e-05
3 12 100 16 1.24296e-06
4 12 100 16 0.0757724
5 12 100 16 1.47375e-05
6 12 100 16 0.0676577
7 12 100 16 0.067653
8 12 100 16 0.000256275
9 12 100 16 8.86754e-05
11 12 100 16 0.276422
12 12 100 16 0.303866
13 12 100 16 0.137291
14 12 100 16 0.00010753
15 12 100 16 1.76381e-06
1 13 100 16 7.74106e-07
2 13 100 16 0.00010333
3 13 100 16 0.000150746
4 13 100 16 0.000135214
5 13 100 16 8.23717e-07
6 13 100 16 2.58338e-05
7 13 100 16 0.000805225
8 13 100 16 0.0656523
9 13 100 16 0.0669077
10 13 100 16 5.37059e-05
11 13 100 16 0.000463201
12 13 100 16 0.334391
13 13 100 16 0.267699
14 13 100 16 0.129806
15 13 100 16 0.0669027
16 13 100 16 0.0669029
2 14 100 16 0.0021693
4 14 100 16 0.0501081
5 14 100 16 2.93881e-05
6 14 100 16 1.24199e-06
8 14 100 16 0.0793194
9 14 100 16 0.000302347
10 14 100 16 0.0779257
11 14 100 16 0.00227611
13 14 100 16 0.157402
14 14 100 16 0.155891
15 14 100 16 0.396664
16 14 100 16 0.077911
1 15 100 16 0.082816
2 15 100 16 2.64502e-06
3 15 100 16 7.26961e-05
4 15 100 16 0.000511825
5 15 100 16 1.08159e-05
6 15 100 16 0.000508413
7 15 100 16 1.44789e-06
8 15 100 16 0.071589
9 15 100 16 0.0856156
10 15 100 16 0.0827961
11 15 100 16 0.084642
12 15 100 16 0.0116406
13 15 100 16 0.165637
14 15 100 16 0.248538
15 15 100 16 0.165618
2 16 100 16 0.0680817
3 16 100 16 5.40193e-06
4 16 100 16 1.11954e-05
5 16 100 16 3.98441e-06
7 16 100 16 0.000388376
8 16 100 16 0.000270232
9 16 100 16 0.000727594
10 16 100 16 0.135481
11 16 100 16 0.135683
12 16 100 16 0.175918
14 16 100 16 0.27975
15 16 100 16 0.135848
16 16 100 16 0.0678316
1 17 100 16 2.94747e-06
3 17 100 16 0.0878383
4 17 100 16 0.0727516
5 17 100 16 9.75144e-05
6 17 100 16 1.06918e-06
7 17 100 16 6.99132e-05
9 17 100 16 0.000748027
11 17 100 16 0.000242598
12 17 100 16 0.0725554
13 17 100 16 0.21808
14 17 100 16 0.000196171
15 17 100 16 0.329162
16 17 100 16 0.218255
1 18 100 16 0.00123554
2 18 100 16 0.0012014
3 18 100 16 0.022009
4 18 100 16 0.000814748
5 18 100 16 0.134187
6 18 100 16 0.000584837
8 18 100 16 0.000256471
9 18 100 16 0.000394554
10 18 100 16 1.25295e-06
11 18 100 16 0.0602304
12 18 100 16 0.0733878
13 18 100 16 4.84625e-05
14 18 100 16 0.276209
15 18 100 16 0.0152813
16 18 100 16 0.414158
1 19 100 16 0.0804184
2 19 100 16 0.0816721
3 19 100 16 0.0420545
4 19 100 16 2.39653e-07
5 19 100 16 0.0015496
6 19 100 16 0.0133398
8 19 100 16 3.95058e-05
9 19 100 16 0.0197026
11 19 100 16 6.0304e-05
12 19 100 16 0.00286494
13 19 100 16 0.16334
14 19 100 16 0.240093
15 19 100 16 0.109852
16 19 100 16 0.245014
1 20 100 16 0.00169709
2 20 100 16 1.2583e-06
3 20 100 16 0.00326601
4 20 100 16 0.00163213
5 20 100 16 2.73987e-05
8 20 100 16 0.000118729
9 20 100 16 0.000216043
10 20 100 16 0.00368184
11 20 100 16 6.41674e-05
12 20 100 16 0.00257817
14 20 100 16 0.197309
15 20 100 16 0.197492
16 20 100 16 0.591916
1 21 100 16 2.37632e-07
2 21 100 16 0.114673
3 21 100 16 0.114646
4 21 100 16 0.114673
5 21 100 16 2.18072e-05
8 21 100 16 1.57875e-05
9 21 100 16 0.00491095
10 21 100 16 0.114865
11 21 100 16 1.30309e-05
12 21 100 16 0.00348026
13 21 100 16 7.17826e-07
14 21 100 16 0.000454048
15 21 100 16 0.302899
16 21 100 16 0.229347
2 22 100 16 0.000183978
3 22 100 16 0.325518
4 22 100 16 2.0589e-05
5 22 100 16 0.000146098
8 22 100 16 4.29786e-06
9 22 100 16 7.96941e-07
10 22 100 16 1.37053e-06
11 22 100 16 0.33898
15 22 100 16 7.98056e-07
16 22 100 16 0.335144
3 23 100 16 1.26311e-05
11 23 100 16 5.61271e-06
16 23 100 16 0.999982
1 0 100 17 0.00170503
2 0 100 17 0.112913
3 0 100 17 0.0108814
4 0 100 17 0.00231056
5 0 100 17 0.0110701
6 0 100 17 0.000823678
7 0 100 17 0.110628
8 0 100 17 0.000317454
9 0 100 17 0.00288975
10 0 100 17 0.0970808
11 0 100 17 0.150536
12 0 100 17 0.0892219
13 0 100 17 0.0978192
14 0 100 17 0.281922
15 0 100 17 0.0126976
16 0 100 17 0.0171842
1 1 100 17 0.555108
2 1 100 17 0.237248
3 1 100 17 0.0465154
4 1 100 17 0.0691301
5 1 100 17 0.0454752
6 1 100 17 0.0461004
8 1 100 17 3.56075e-05
12 1 100 17 0.000355743
14 1 100 17 2.98889e-05
15 1 100 17 1.17071e-06
1 2 100 17 0.136713
2 2 100 17 0.245948
3 2 100 17 0.369559
4 2 100 17 0.0952216
5 2 100 17 0.0462424
6 2 100 17 0.0477417
7 2 100 17 0.00796538
8 2 100 17 0.047613
9 2 100 17 3.02538e-06
10 2 100 17 0.00280156
12 2 100 17 6.8679e-05
13 2 100 17 4.89217e-07
14 2 100 17 0.000121785
1 3 100 17 5.48235e-05
2 3 100 17 0.178171
3 3 100 17 0.326464
4 3 100 17 0.317295
5 3 100 17 0.0413989
6 3 100 17 0.0353515
7 3 100 17 0.0994418
8 3 100 17 4.26734e-05
9 3 100 17 3.16949e-06
10 3 100 17 5.48629e-07
11 3 100 17 0.00135073
12 3 100 17 4.38611e-06
13 3 100 17 1.76549e-05
14 3 100 17 0.000108501
16 3 100 17 0.000295699
1 4 100 17 4.52379e-05
2 4 100 17 0.133113
3 4 100 17 0.153685
4 4 100 17 0.316693
5 4 100 17 0.195461
6 4 100 17 0.039662
7 4 100 17 0.0789129
8 4 100 17 0.0792726
9 4 100 17 4.12001e-05
10 4 100 17 7.20854e-06
11 4 100 17 0.000149071
12 4 100 17 1.08065e-05
13 4 100 17 0.00116532
14 4 100 17 0.00115955
16 4 100 17 0.00062249
1 5 100 17 1.39489e-06
2 5 100 17 0.06104
3 5 100 17 0.077345
4 5 100 17 0.176928
5 5 100 17 0.240333
6 5 100 17 0.184832
7 5 100 17 1.14177e-05
8 5 100 17 0.108737
9 5 100 17 0.108708
11 5 100 17 0.0354068
12 5 100 17 4.16887e-05
13 5 100 17 0.00661121
15 5 100 17 4.26256e-06
1 6 100 17 3.5363e-06
2 6 100 17 0.00844636
3 6 100 17 0.0581857
4 6 100 17 0.0332125
5 6 100 17 0.253272
6 6 100 17 0.231573
7 6 100 17 0.176673
8 6 100 17 0.0332105
9 6 100 17 0.0992301
10 6 100 17 0.0664174
11 6 100 17 0.0332256
12 6 100 17 0.00472632
13 6 100 17 4.93767e-06
14 6 100 17 0.00181896
1 7 100 17 0.0343607
2 7 100 17 2.16366e-06
3 7 100 17 0.00222091
4 7 100 17 0.0688825
5 7 100 17 0.0435256
6 7 100 17 0.23426
7 7 100 17 0.121253
8 7 100 17 0.145576
9 7 100 17 0.104558
10 7 100 17 0.0726116
11 7 100 17 0.0691658
12 7 100 17 0.0690866
13 7 100 17 0.034488
14 7 100 17 6.45958e-06
15 7 100 17 4.12322e-06
2 8 100 17 0.0314539
3 8 100 17 0.0311331
4 8 100 17 1.78045e-05
5 8 100 17 0.0312144
6 8 100 17 0.062434
7 8 100 17 0.188726
8 8 100 17 0.124683
9 8 100 17 0.186039
10 8 100 17 0.187039
11 8 100 17 0.0917547
12 8 100 17 7.29262e-05
13 8 100 17 0.0638795
14 8 100 17 0.000333184
16 8 100 17 0.00121919
2 9 100 17 0.000172632
3 9 100 17 0.000541976
4 9 100 17 6.98431e-07
5 9 100 17 0.0333175
6 9 100 17 0.0334908
7 9 100 17 0.128893
8 9 100 17 0.265371
9 9 100 17 0.166938
10 9 100 17 0.168561
11 9 100 17 0.100215
12 9 100 17 5.6805e-06
13 9 100 17 7.76616e-05
14 9 100 17 0.0691158
15 9 100 17 0.033299
16 9 100 17 8.19654e-07
2 10 100 17 0.00289997
3 10 100 17 0.000137716
4 10 100 17 4.62372e-06
5 10 100 17 0.0298789
7 10 100 17 0.0523731
8 10 100 17 0.152317
9 10 100 17 0.160845
10 10 100 17 0.154602
11 10 100 17 0.158086
12 10 100 17 0.157767
13 10 100 17 0.0494288
14 10 100 17 0.0293637
15 10 100 17 0.0261672
16 10 100 17 0.0261282
1 11 100 17 0.0507375
2 11 100 17 1.40013e-06
4 11 100 17 1.70742e-05
5 11 100 17 0.0258055
6 11 100 17 0.0278639
7 11 100 17 0.0289529
8 11 100 17 0.0500164
9 11 100 17 0.12647
10 11 100 17 0.103935
11 11 100 17 0.102261
12 11 100 17 0.173198
13 11 100 17 0.126894
14 11 100 17 0.0714168
15 11 100 17 0.0507338
16 11 100 17 0.0616965
1 12 100 17 0.00117561
2 12 100 17 2.56869e-05
5 12 100 17 0.000928852
7 12 100 17 0.000184178
8 12 100 17 0.0410448
9 12 100 17 0.0337508
10 12 100 17 0.0818719
11 12 100 17 0.202528
12 12 100 17 0.122202
13 12 100 17 0.244537
14 12 100 17 0.089955
15 12 100 17 0.163186
16 12 100 17 0.0186098
1 13 100 17 0.000105822
2 13 100 17 0.000168744
3 13 100 17 3.54457e-06
4 13 100 17 0.00436812
6 13 100 17 0.00015973
7 13 100 17 0.000980697
9 13 100 17 1.7241e-06
10 13 100 17 0.101755
11 13 100 17 0.0362387
12 13 100 17 0.236879
13 13 100 17 0.0684685
14 13 100 17 0.312932
15 13 100 17 0.0968415
16 13 100 17 0.107149
17 13 100 17 0.0339469
1 14 100 17 0.0347216
2 14 100 17 0.0347498
3 14 100 17 0.0339875
4 14 100 17 4.08156e-05
5 14 100 17 0.0556094
6 14 100 17 0.0347447
7 14 100 17 2.16126e-05
8 14 100 17 0.000117888
9 14 100 17 6.59415e-06
10 14 100 17 2.21378e-05
11 14 100 17 0.138899
12 14 100 17 0.000767009
13 14 100 17 0.127308
14 14 100 17 0.0558941
15 14 100 17 0.240099
16 14 100 17 0.208291
17 14 100 17 0.034719
1 15 100 17 1.33711e-06
2 15 100 17 1.8537e-05
5 15 100 17 0.013022
6 15 100 17 0.101977
7 15 100 17 0.0876251
9 15 100 17 3.23545e-05
10 15 100 17 0.000148582
11 15 100 17 0.0495183
12 15 100 17 0.140402
13 15 100 17 0.0513005
14 15 100 17 0.203413
15 15 100 17 0.154262
16 15 100 17 0.147399
17 15 100 17 0.0508801
1 16 100 17 0.0453541
2 16 100 17 0.0491971
3 16 100 17 0.000669282
4 16 100 17 5.02254e-06
5 16 100 17 5.82894e-07
6 16 100 17 0.0453537
7 16 100 17 0.0886137
11 16 100 17 0.00013351
12 16 100 17 0.0928477
13 16 100 17 0.226046
14 16 100 17 0.0458981
15 16 100 17 0.145428
16 16 100 17 0.215098
17 16 100 17 0.0453547
1 17 100 17 0.0338207
2 17 100 17 0.0338338
3 17 100 17 0.101174
4 17 100 17 0.101482
5 17 100 17 0.0338272
6 17 100 17 0.000117353
7 17 100 17 0.0338408
8 17 100 17 0.0338272
9 17 100 17 0.0338272
13 17 100 17 0.0642723
14 17 100 17 0.0676543
15 17 100 17 0.0639747
16 17 100 17 0.161559
17 17 100 17 0.23679
2 18 100 17 0.118647
3 18 100 17 0.0766486
4 18 100 17 1.12533e-05
5 18 100 17 0.09613
6 18 100 17 4.57328e-05
7 18 100 17 0.000108218
10 18 100 17 0.000205511
11 18 100 17 4.52404e-05
12 18 100 17 0.1539
14 18 100 17 0.0855904
15 18 100 17 0.238726
17 18 100 17 0.229942
1 19 100 17 5.68664e-06
2 19 100 17 0.00119549
3 19 100 17 7.42889e-06
4 19 100 17 3.16768e-05
5 19 100 17 0.000111875
6 19 100 17 0.0382641
7 19 100 17 0.000209932
9 19 100 17 0.000412051
10 19 100 17 0.0201845
11 19 100 17 0.0125342
12 19 100 17 0.000717675
13 19 100 17 0.115148
14 19 100 17 0.123664
15 19 100 17 0.107127
16 19 100 17 0.472843
17 19 100 17 0.107543
1 20 100 17 9.03327e-05
2 20 100 17 3.44094e-06
3 20 100 17 7.88081e-05
4 20 100 17 4.79318e-05
6 20 100 17 1.3898e-05
7 20 100 17 0.000519674
8 20 100 17 7.59615e-06
9 20 100 17 0.000111036
10 20 100 17 0.119224
11 20 100 17 0.00457278
12 20 100 17 1.18258e-05
13 20 100 17 0.000473342
14 20 100 17 0.00111376
15 20 100 17 0.179287
16 20 100 17 0.116648
17 20 100 17 0.577796
2 21 100 17 1.44073e-07
3 21 100 17 0.000454914
4 21 100 17 4.71386e-07
6 21 100 17 1.22511e-06
7 21 100 17 3.8413e-05
10 21 100 17 0.00638573
11 21 100 17 3.70743e-06
12 21 100 17 8.38108e-06
13 21 100 17 0.0785151
14 21 100 17 0.108776
15 21 100 17 0.0734634
16 21 100 17 0.13035
17 21 100 17 0.602002
4 22 100 17 6.50369e-05
5 22 100 17 7.5872e-06
6 22 100 17 3.15438e-05
7 22 100 17 0.00753995
8 22 100 17 0.00043883
9 22 100 17 0.000224033
12 22 100 17 0.179448
13 22 100 17 2.97527e-05
14 22 100 17 0.00793383
16 22 100 17 0.0420152
17 22 100 17 0.762266
12 23 100 17 4.45342e-06
17 23 100 17 0.999996
1 0 100 18 0.0121311
2 0 100 18 0.00696036
3 0 100 18 0.101607
4 0 100 18 0.00409243
5 0 100 18 0.0764685
6 0 100 18 0.000285964
7 0 100 18 0.190685
8 0 100 18 0.00256351
9 0 100 18 0.0207854
10 0 100 18 0.0146402
11 0 100 18 0.094027
12 0 100 18 0.0251216
13 0 100 18 0.13718
14 0 100 18 0.0719851
15 0 100 18 0.00372121
16 0 100 18 0.235366
17 0 100 18 0.00238032
1 1 100 18 0.545552
2 1 100 18 0.253273
3 1 100 18 0.146354
4 1 100 18 0.0182946
5 1 100 18 0.0181633
6 1 100 18 6.06422e-07
10 1 100 18 4.7197e-05
12 1 100 18 2.00174e-05
13 1 100 18 0.0182946
14 1 100 18 4.34742e-07
1 2 100 18 0.0280971
2 2 100 18 0.396652
3 2 100 18 0.224782
4 2 100 18 0.195958
5 2 100 18 0.0840203
6 2 100 18 0.0311997
7 2 100 18 0.000555533
8 2 100 18 3.39499e-05
9 2 100 18 3.77791e-05
10 2 100 18 0.0111689
13 2 100 18 6.94993e-07
14 2 100 18 0.0274087
15 2 100 18 6.38748e-06
16 2 100 18 7.81313e-05
17 2 100 18 2.85293e-07
1 3 100 18 0.0308613
2 3 100 18 0.0309686
3 3 100 18 0.358144
4 3 100 18 0.300039
5 3 100 18 0.0715971
6 3 100 18 0.117439
7 3 100 18 0.030366
9 3 100 18 0.000116034
10 3 100 18 4.21234e-06
12 3 100 18 0.0302007
13 3 100 18 0.0302606
14 3 100 18 1.21531e-06
15 3 100 18 2.61631e-06
1 4 100 18 0.000146583
2 4 100 18 0.115052
3 4 100 18 0.00250254
4 4 100 18 0.239068
5 4 100 18 0.317366
6 4 100 18 0.0398428
7 4 100 18 0.16037
8 4 100 18 0.0396783
9 4 100 18 2.82119e-06
10 4 100 18 3.58641e-06
11 4 100 18 3.07433e-05
14 4 100 18 0.039631
15 4 100 18 0.039634
16 4 100 18 0.00667148
1 5 100 18 0.0340243
2 5 100 18 8.85142e-05
3 5 100 18 0.0688881
4 5 100 18 0.133942
5 5 100 18 0.173099
6 5 100 18 0.236141
7 5 100 18 0.0997505
8 5 100 18 0.135037
9 5 100 18 0.0674182
10 5 100 18 3.88612e-05
11 5 100 18 0.000742318
12 5 100 18 3.28507e-05
13 5 100 18 0.0338486
14 5 100 18 1.49888e-06
15 5 100 18 0.0169247
17 5 100 18 2.12843e-05
1 6 100 18 7.22005e-05
2 6 100 18 0.0281283
3 6 100 18 0.0532887
4 6 100 18 0.0562591
5 6 100 18 0.214803
6 6 100 18 0.11388
7 6 100 18 0.128592
8 6 100 18 0.140613
9 6 100 18 0.0846082
10 6 100 18 0.0845348
11 6 100 18 1.42382e-05
12 6 100 18 0.0281495
13 6 100 18 0.000531724
14 6 100 18 0.0576682
15 6 100 18 6.26403e-07
16 6 100 18 0.00885543
1 7 100 18 5.38448e-06
2 7 100 18 4.51246e-07
3 7 100 18 9.50374e-05
4 7 100 18 0.0371725
5 7 100 18 0.0371299
6 7 100 18 0.257417
7 7 100 18 0.111782
8 7 100 18 0.185289
9 7 100 18 0.134415
10 7 100 18 0.111149
11 7 100 18 0.0370634
12 7 100 18 0.0375661
13 7 100 18 0.0127892
14 7 100 18 1.34343e-06
15 7 100 18 0.0381246
3 8 100 18 0.00026531
4 8 100 18 0.0362675
5 8 100 18 9.25934e-05
6 8 100 18 0.14514
7 8 100 18 0.290383
8 8 100 18 0.036623
9 8 100 18 0.192553
10 8 100 18 0.100347
11 8 100 18 0.0732345
12 8 100 18 0.0363031
13 8 100 18 0.0363061
15 8 100 18 0.0522229
16 8 100 18 0.00026243
1 9 100 18 0.0328849
2 9 100 18 0.000488558
5 9 100 18 0.0330075
6 9 100 18 0.0656678
7 9 100 18 0.164162
8 9 100 18 0.262232
9 9 100 18 0.0338176
10 9 100 18 0.137988
11 9 100 18 0.133912
12 9 100 18 0.0335276
13 9 100 18 0.0328132
14 9 100 18 0.00372129
15 9 100 18 9.70302e-06
16 9 100 18 0.0657681
1 10 100 18 4.50719e-05
2 10 100 18 0.0320026
3 10 100 18 6.43864e-07
4 10 100 18 1.11512e-06
5 10 100 18 1.02142e-05
6 10 100 18 2.87607e-05
7 10 100 18 0.00100124
8 10 100 18 0.129607
9 10 100 18 0.318439
10 10 100 18 0.0672538
11 10 100 18 0.125144
12 10 100 18 0.134365
13 10 100 18 0.0636929
14 10 100 18 0.032003
15 10 100 18 0.0321043
16 10 100 18 0.0321528
17 10 100 18 0.0321494
2 11 100 18 3.61054e-06
3 11 100 18 0.00035227
4 11 100 18 0.00013707
7 11 100 18 3.84643e-05
8 11 100 18 0.0655597
9 11 100 18 0.0993362
10 11 100 18 0.250388
11 11 100 18 0.174292
12 11 100 18 0.130577
13 11 100 18 0.140525
14 11 100 18 0.103897
15 11 100 18 0.0348934
1 12 100 18 5.36856e-06
2 12 100 18 3.25873e-05
3 12 100 18 0.00102491
4 12 100 18 2.36441e-05
5 12 100 18 9.13642e-06
6 12 100 18 0.043139
7 12 100 18 3.0121e-06
8 12 100 18 2.16809e-05
9 12 100 18 0.0854231
10 12 100 18 0.135332
11 12 100 18 0.258674
12 12 100 18 0.172556
13 12 100 18 0.130007
14 12 100 18 0.0872816
15 12 100 18 0.0864676
2 13 100 18 2.75782e-06
3 13 100 18 0.0401073
7 13 100 18 0.00228875
9 13 100 18 0.0384769
10 13 100 18 0.155361
11 13 100 18 0.190542
12 13 100 18 0.268941
13 13 100 18 0.0769196
14 13 100 18 0.0874727
15 13 100 18 0.0843826
16 13 100 18 0.0555049
1 14 100 18 7.23203e-07
3 14 100 18 3.53258e-05
4 14 100 18 0.0325175
5 14 100 18 0.0325175
6 14 100 18 0.032521
7 14 100 18 0.0650961
8 14 100 18 0.0325175
11 14 100 18 0.0975515
12 14 100 18 0.112336
13 14 100 18 0.164096
14 14 100 18 0.131684
15 14 100 18 0.0352455
16 14 100 18 0.198786
17 14 100 18 0.0650953
1 15 100 18 0.000415182
2 15 100 18 0.000592196
4 15 100 18 5.57137e-07
5 15 100 18 0.0011227
6 15 100 18 4.44019e-05
7 15 100 18 0.0117835
8 15 100 18 0.0780417
9 15 100 18 0.00127905
10 15 100 18 0.0390212
11 15 100 18 0.000408478
12 15 100 18 0.0902857
13 15 100 18 0.157657
14 15 100 18 0.130051
15 15 100 18 0.227016
16 15 100 18 0.0638324
17 15 100 18 0.120408
18 15 100 18 0.0780408
2 16 100 18 3.10319e-05
3 16 100 18 2.05846e-06
5 16 100 18 3.41429e-05
7 16 100 18 9.75654e-07
8 16 100 18 0.0289311
9 16 100 18 0.0867904
10 16 100 18 0.0870398
11 16 100 18 3.66516e-05
12 16 100 18 0.0867888
13 16 100 18 0.115415
14 16 100 18 0.217708
15 16 100 18 0.175588
16 16 100 18 0.115698
17 16 100 18 0.0859356
1 17 100 18 5.7122e-06
2 17 100 18 6.87365e-05
3 17 100 18 1.36293e-06
4 17 100 18 0.0393789
6 17 100 18 2.5612e-06
8 17 100 18 0.000667788
9 17 100 18 2.90246e-05
10 17 100 18 9.69242e-05
11 17 100 18 0.0787582
12 17 100 18 6.65323e-05
13 17 100 18 0.0393794
14 17 100 18 0.050463
15 17 100 18 0.189744
16 17 100 18 0.253622
17 17 100 18 0.268958
18 17 100 18 0.0787577
3 18 100 18 2.92286e-06
4 18 100 18 1.67117e-05
5 18 100 18 0.0588528
7 18 100 18 0.000525584
8 18 100 18 0.00163437
10 18 100 18 9.11295e-07
11 18 100 18 0.0585843
12 18 100 18 0.0560681
13 18 100 18 0.114118
14 18 100 18 0.0907805
15 18 100 18 0.113669
16 18 100 18 0.171279
17 18 100 18 0.221322
18 18 100 18 0.113145
1 19 100 18 0.000145945
4 19 100 18 0.00113137
6 19 100 18 2.04624e-06
9 19 100 18 2.86451e-06
12 19 100 18 2.71027e-05
14 19 100 18 0.0861473
15 19 100 18 1.42188e-05
16 19 100 18 0.129416
17 19 100 18 0.438318
18 19 100 18 0.344795
1 20 100 18 5.59594e-06
2 20 100 18 5.34945e-07
3 20 100 18 3.61693e-07
4 20 100 18 3.12299e-05
5 20 100 18 0.0975195
6 20 100 18 0.0929447
7 20 100 18 0.0990039
8 20 100 18 9.09651e-06
9 20 100 18 7.78515e-06
10 20 100 18 6.62925e-06
11 20 100 18 0.000158766
12 20 100 18 8.97921e-05
13 20 100 18 2.67262e-05
14 20 100 18 8.98877e-05
15 20 100 18 0.195099
16 20 100 18 0.00379977
17 20 100 18 0.120981
18 20 100 18 0.390226
1 21 100 18 1.79334e-06
2 21 100 18 3.94758e-05
3 21 100 18 0.00526122
4 21 100 18 0.000934703
5 21 100 18 0.00586253
6 21 100 18 0.15345
7 21 100 18 7.64825e-06
8 21 100 18 0.00010489
9 21 100 18 0.000565635
10 21 100 18 1.83825e-05
11 21 100 18 6.2504e-05
12 21 100 18 7.135e-07
13 21 100 18 0.00633765
14 21 100 18 0.0308835
15 21 100 18 0.00224372
16 21 100 18 0.035477
17 21 100 18 0.151752
18 21 100 18 0.606997
2 22 100 18 8.87585e-06
4 22 100 18 0.000393882
5 22 100 18 0.0028967
6 22 100 18 6.16551e-07
7 22 100 18 1.9327e-06
8 22 100 18 1.57547e-06
10 22 100 18 7.09246e-07
11 22 100 18 1.07964e-05
12 22 100 18 1.68638e-06
14 22 100 18 2.19782e-06
15 22 100 18 0.15092
16 22 100 18 0.270714
17 22 100 18 0.122279
18 22 100 18 0.452768
3 23 100 18 1.0906e-05
4 23 100 18 0.000357521
5 23 100 18 8.91683e-05
6 23 100 18 0.000150622
7 23 100 18 0.00165522
8 23 100 18 6.89393e-05
9 23 100 18 0.00246736
10 23 100 18 0.000267652
12 23 100 18 0.000251327
13 23 100 18 3.66099e-06
14 23 100 18 7.19564e-06
16 23 100 18 0.000201396
17 23 100 18 0.00357848
18 23 100 18 0.990891
4 24 100 18 1.57909e-05
5 24 100 18 0.157898
6 24 100 18 0.000256357
9 24 100 18 0.000101926
10 24 100 18 0.00137923
14 24 100 18 0.169637
15 24 100 18 5.76325e-06
16 24 100 18 0.000529319
17 24 100 18 0.167055
18 24 100 18 0.503122
4 25 100 18 6.66368e-06
7 25 100 18 3.54732e-05
14 25 100 18 1.09793e-05
15 25 100 18 0.328833
17 25 100 18 0.000124623
18 25 100 18 0.67099
15 26 100 18 4.01799e-05
18 26 100 18 0.99996
1 0 100 19 0.00361168
2 0 100 19 0.0778012
3 0 100 19 0.0123772
4 0 100 19 0.00223191
5 0 100 19 0.194912
6 0 100 19 0.127779
7 0 100 19 0.00104926
8 0 100 19 0.0019173
9 0 100 19 0.0559009
10 0 100 19 0.0594713
11 0 100 19 0.00294863
12 0 100 19 0.1098
13 0 100 19 0.0720214
14 0 100 19 0.065769
15 0 100 19 0.00206982
16 0 100 19 0.150064
17 0 100 19 0.0587001
18 0 100 19 0.00157557
1 1 100 19 0.636361
2 1 100 19 0.18665
3 1 100 19 0.0940046
4 1 100 19 0.0472257
5 1 100 19 0.0114141
8 1 100 19 0.0243176
12 1 100 19 2.76262e-07
15 1 100 19 2.61254e-05
1 2 100 19 0.107976
2 2 100 19 0.593375
3 2 100 19 0.176854
4 2 100 19 0.0536762
5 2 100 19 0.0646399
6 2 100 19 0.00181384
7 2 100 19 3.71802e-05
8 2 100 19 8.15242e-05
9 2 100 19 5.33616e-06
10 2 100 19 0.00138244
12 2 100 19 3.74892e-05
15 2 100 19 1.8799e-05
16 2 100 19 9.91751e-05
17 2 100 19 2.98257e-06
18 2 100 19 8.69353e-07
1 3 100 19 5.7983e-05
2 3 100 19 0.188998
3 3 100 19 0.415646
4 3 100 19 0.154059
5 3 100 19 0.012781
6 3 100 19 0.112553
7 3 100 19 0.0379364
8 3 100 19 0.0373366
9 3 100 19 0.037938
10 3 100 19 0.0011051
11 3 100 19 8.34912e-07
12 3 100 19 0.000135806
14 3 100 19 1.95985e-06
15 3 100 19 7.93201e-05
16 3 100 19 1.85337e-05
17 3 100 19 0.00135314
1 4 100 19 2.35074e-06
2 4 100 19 0.0443146
3 4 100 19 0.177356
4 4 100 19 0.320328
5 4 100 19 0.17796
6 4 100 19 0.0708253
7 4 100 19 0.0994644
8 4 100 19 0.0335673
9 4 100 19 0.0384972
10 4 100 19 0.0354367
12 4 100 19 7.7431e-07
13 4 100 19 0.000255984
14 4 100 19 0.00180934
15 4 100 19 4.04475e-06
16 4 100 19 6.34122e-07
17 4 100 19 0.000177425
2 5 100 19 0.000300371
3 5 100 19 0.0951197
4 5 100 19 0.200334
5 5 100 19 0.303789
6 5 100 19 0.0940153
7 5 100 19 0.033988
8 5 100 19 0.131372
9 5 100 19 0.043846
10 5 100 19 0.000186472
11 5 100 19 0.0532873
12 5 100 19 7.02834e-07
13 5 100 19 0.000200033
15 5 100 19 0.0435598
17 5 100 19 2.02882e-06
1 6 100 19 0.00137725
2 6 100 19 1.43844e-06
3 6 100 19 0.0226894
4 6 100 19 0.136851
5 6 100 19 0.186162
6 6 100 19 0.269632
7 6 100 19 0.155253
8 6 100 19 0.0767062
9 6 100 19 0.0391004
10 6 100 19 0.107877
12 6 100 19 0.000764276
13 6 100 19 0.000279536
14 6 100 19 1.12736e-06
15 6 100 19 3.08396e-05
16 6 100 19 0.0032747
1 7 100 19 6.15109e-05
2 7 100 19 8.75685e-06
3 7 100 19 0.0746369
5 7 100 19 0.0946528
6 7 100 19 0.175824
7 7 100 19 0.313548
8 7 100 19 0.130837
9 7 100 19 6.85407e-05
10 7 100 19 0.0434743
11 7 100 19 0.121477
12 7 100 19 1.77697e-05
13 7 100 19 0.0451312
14 7 100 19 0.000127622
16 7 100 19 0.000132126
17 7 100 19 1.91585e-06
2 8 100 19 0.000365047
3 8 100 19 4.81012e-07
4 8 100 19 0.0623614
5 8 100 19 0.0303521
6 8 100 19 0.124348
7 8 100 19 0.155117
8 8 100 19 0.21902
9 8 100 19 0.187936
10 8 100 19 0.0609269
11 8 100 19 0.0312871
12 8 100 19 0.0342871
13 8 100 19 0.0312886
14 8 100 19 0.031346
16 8 100 19 6.22163e-05
17 8 100 19 0.0312894
18 8 100 19 1.30611e-05
2 9 100 19 4.18303e-07
3 9 100 19 3.31591e-07
4 9 100 19 2.17359e-06
5 9 100 19 0.031629
6 9 100 19 0.0316017
7 9 100 19 0.163174
8 9 100 19 0.203177
9 9 100 19 0.219072
10 9 100 19 0.162014
11 9 100 19 0.0641818
13 9 100 19 0.0620039
14 9 100 19 0.0315703
17 9 100 19 2.55702e-06
18 9 100 19 0.0315703
2 10 100 19 8.43577e-05
3 10 100 19 2.28819e-05
4 10 100 19 0.0396118
5 10 100 19 0.000254125
6 10 100 19 0.0435888
7 10 100 19 0.0403102
8 10 100 19 0.0812302
9 10 100 19 0.124787
10 10 100 19 0.197753
11 10 100 19 0.120868
12 10 100 19 0.103955
13 10 100 19 0.0409412
14 10 100 19 0.120861
15 10 100 19 0.0803531
16 10 100 19 0.00537428
17 10 100 19 4.49172e-06
1 11 100 19 0.00347514
2 11 100 19 0.023347
3 11 100 19 0.00941588
4 11 100 19 0.0219434
5 11 100 19 0.0304915
6 11 100 19 0.000187531
7 11 100 19 0.0307863
8 11 100 19 0.0303702
9 11 100 19 0.0883275
10 11 100 19 0.116663
11 11 100 19 0.14811
12 11 100 19 0.128033
13 11 100 19 0.123358
14 11 100 19 0.0905242
15 11 100 19 0.120989
16 11 100 19 0.0301748
17 11 100 19 0.00380298
1 12 100 19 0.0269484
2 12 100 19 0.026919
3 12 100 19 4.61416e-07
4 12 100 19 0.0268346
5 12 100 19 0.0280988
6 12 100 19 0.0538962
7 12 100 19 2.84938e-05
8 12 100 19 4.14362e-05
9 12 100 19 0.00124167
10 12 100 19 0.0811302
11 12 100 19 0.215577
12 12 100 19 0.112334
13 12 100 19 0.0808484
14 12 100 19 0.0538932
15 12 100 19 0.0269714
16 12 100 19 0.184281
17 12 100 19 0.0540075
18 12 100 19 0.0269484
2 13 100 19 0.000198261
3 13 100 19 2.14179e-06
4 13 100 19 5.419e-07
5 13 100 19 0.038178
6 13 100 19 2.21096e-05
7 13 100 19 0.0388603
8 13 100 19 0.0385317
9 13 100 19 0.080208
10 13 100 19 0.0390171
11 13 100 19 0.0393323
12 13 100 19 0.261133
13 13 100 19 0.114793
14 13 100 19 0.116335
15 13 100 19 0.0778143
16 13 100 19 0.0388546
17 13 100 19 0.0390105
18 13 100 19 0.0388546
19 13 100 19 0.0388546
2 14 100 19 5.52176e-05
3 14 100 19 4.06009e-05
5 14 100 19 0.000660203
6 14 100 19 0.0418167
8 14 100 19 2.52614e-05
9 14 100 19 0.0842151
10 14 100 19 0.0470849
11 14 100 19 0.0837556
12 14 100 19 0.0887015
13 14 100 19 0.0836845
14 14 100 19 0.128673
15 14 100 19 0.167111
16 14 100 19 0.0649661
17 14 100 19 0.125527
18 14 100 19 0.0836836
1 15 100 19 0.0305699
2 15 100 19 0.00828741
3 15 100 19 8.5895e-05
5 15 100 19 1.92441e-05
7 15 100 19 1.77762e-06
9 15 100 19 0.000174807
10 15 100 19 0.0373845
11 15 100 19 0.0366833
12 15 100 19 0.146766
13 15 100 19 0.110016
14 15 100 19 0.107246
15 15 100 19 0.185571
16 15 100 19 0.189485
17 15 100 19 0.0376538
18 15 100 19 0.0733721
19 15 100 19 0.0366833
2 16 100 19 0.0125688
3 16 100 19 0.000406452
4 16 100 19 1.09705e-05
5 16 100 19 0.0401426
6 16 100 19 0.0356559
7 16 100 19 0.000390274
9 16 100 19 0.0296759
10 16 100 19 0.0375457
11 16 100 19 5.08698e-07
12 16 100 19 0.0426142
13 16 100 19 0.0799759
14 16 100 19 0.198223
15 16 100 19 0.0795032
16 16 100 19 0.118934
17 16 100 19 0.284678
18 16 100 19 0.0396739
1 17 100 19 5.60723e-06
2 17 100 19 0.0271254
3 17 100 19 0.0342116
4 17 100 19 0.0342112
5 17 100 19 5.55823e-06
6 17 100 19 0.0343157
7 17 100 19 0.0682023
8 17 100 19 7.0471e-05
9 17 100 19 1.24713e-06
10 17 100 19 0.000285891
11 17 100 19 0.0342173
12 17 100 19 0.0111246
13 17 100 19 0.102277
14 17 100 19 0.0683678
15 17 100 19 0.136885
16 17 100 19 0.00505585
17 17 100 19 0.136525
18 17 100 19 0.272901
19 17 100 19 0.0342112
2 18 100 19 0.0730036
3 18 100 19 0.0481845
6 18 100 19 8.76282e-07
8 18 100 19 0.0475653
9 18 100 19 0.000311887
10 18 100 19 0.00352197
11 18 100 19 3.03828e-06
12 18 100 19 0.00335997
13 18 100 19 0.0495193
14 18 100 19 0.0481975
15 18 100 19 0.0963667
16 18 100 19 0.292116
17 18 100 19 0.048203
18 18 100 19 0.145097
19 18 100 19 0.14455
1 19 100 19 3.50322e-05
2 19 100 19 0.00115295
5 19 100 19 0.00201316
6 19 100 19 2.72808e-06
7 19 100 19 6.59743e-06
9 19 100 19 0.0100732
10 19 100 19 0.000614644
11 19 100 19 0.111762
12 19 100 19 0.0557716
13 19 100 19 0.0558547
14 19 100 19 0.111584
15 19 100 19 0.111511
16 19 100 19 0.0503759
17 19 100 19 0.210936
18 19 100 19 0.0551524
19 19 100 19 0.223154
2 20 100 19 0.00107165
3 20 100 19 0.0440543
4 20 100 19 0.0571674
5 20 100 19 0.000520864
7 20 100 19 2.43573e-06
8 20 100 19 3.8311e-06
10 20 100 19 0.00732885
11 20 100 19 6.5802e-05
12 20 100 19 0.0571571
13 20 100 19 0.146621
14 20 100 19 0.0571714
15 20 100 19 0.0570569
16 20 100 19 0.000277657
17 20 100 19 0.171474
18 20 100 19 0.22857
19 20 100 19 0.171456
2 21 100 19 2.26097e-06
3 21 100 19 9.33487e-05
4 21 100 19 0.000163096
5 21 100 19 0.130266
6 21 100 19 0.000243402
7 21 100 19 0.0164331
8 21 100 19 1.80033e-06
9 21 100 19 0.00205748
10 21 100 19 0.00029466
11 21 100 19 4.65389e-05
12 21 100 19 0.0786011
13 21 100 19 0.0106994
14 21 100 19 2.42372e-05
15 21 100 19 2.62001e-05
16 21 100 19 0.171472
17 21 100 19 0.000827862
18 21 100 19 0.230921
19 21 100 19 0.357826
3 22 100 19 9.09804e-05
4 22 100 19 1.49876e-06
5 22 100 19 0.00133204
6 22 100 19 1.05889e-06
7 22 100 19 1.93143e-05
8 22 100 19 0.0813179
9 22 100 19 0.00386545
10 22 100 19 0.000106598
11 22 100 19 0.000122824
12 22 100 19 0.000159555
13 22 100 19 0.000898533
14 22 100 19 0.000274771
15 22 100 19 0.02246
16 22 100 19 0.00177154
17 22 100 19 0.230369
18 22 100 19 0.279441
19 22 100 19 0.377768
3 23 100 19 7.3552e-07
4 23 100 19 0.00127648
5 23 100 19 0.00260135
6 23 100 19 2.14351e-06
8 23 100 19 5.74502e-05
9 23 100 19 0.153666
10 23 100 19 0.134862
11 23 100 19 5.30809e-05
12 23 100 19 7.453e-06
13 23 100 19 3.30642e-07
15 23 100 19 0.0369921
16 23 100 19 0.130882
17 23 100 19 0.000133346
18 23 100 19 0.269741
19 23 100 19 0.269724
5 24 100 19 2.07126e-05
7 24 100 19 2.33938e-06
8 24 100 19 1.77278e-06
9 24 100 19 1.57651e-05
10 24 100 19 0.00815982
11 24 100 19 0.192568
12 24 100 19 0.000293365
13 24 100 19 9.74431e-06
14 24 100 19 0.000695617
16 24 100 19 0.000101926
17 24 100 19 0.199538
18 24 100 19 1.53418e-06
19 24 100 19 0.598591
3 25 100 19 3.58872e-05
8 25 100 19 0.235795
10 25 100 19 0.000296059
11 25 100 19 1.17152e-05
12 25 100 19 4.74971e-06
14 25 100 19 1.62382e-06
15 25 100 19 3.03861e-05
16 25 100 19 0.00171428
18 25 100 19 0.0367735
19 25 100 19 0.725337
8 26 100 19 1.17434e-05
9 26 100 19 0.501406
10 26 100 19 3.11398e-06
13 26 100 19 0.000445971
16 26 100 19 9.06987e-07
17 26 100 19 5.18177e-05
18 26 100 19 8.60639e-07
19 26 100 19 0.49808
3 27 100 19 5.81925e-06
8 27 100 19 1.12422e-05
10 27 100 19 0.0015132
11 27 100 19 0.00288017
12 27 100 19 3.18e-06
19 27 100 19 0.995586
3 28 100 19 0.00977772
8 28 100 19 1.56498e-05
10 28 100 19 0.988184
11 28 100 19 0.000145694
12 28 100 19 0.00162376
14 28 100 19 0.000246416
18 28 100 19 7.15637e-06
19 29 100 19 1
1 0 100 20 0.0210115
2 0 100 20 0.0582256
3 0 100 20 0.0470379
4 0 100 20 0.0720703
5 0 100 20 0.105978
6 0 100 20 0.102727
7 0 100 20 0.0584382
8 0 100 20 0.00148993
9 0 100 20 0.0528062
10 0 100 20 0.00120888
11 0 100 20 0.0492873
12 0 100 20 0.0438365
13 0 100 20 0.061917
14 0 100 20 0.00153052
15 0 100 20 0.0559748
16 0 100 20 0.10777
17 0 100 20 0.0983212
18 0 100 20 0.00256831
19 0 100 20 0.0578002
1 1 100 20 0.623348
2 1 100 20 0.302273
3 1 100 20 0.0165855
4 1 100 20 0.0251883
7 1 100 20 4.1027e-05
9 1 100 20 6.75765e-07
10 1 100 20 0.00737042
11 1 100 20 4.07586e-06
13 1 100 20 5.98564e-07
16 1 100 20 0.0251883
1 2 100 20 0.000520928
2 2 100 20 0.595482
3 2 100 20 0.233695
4 2 100 20 0.00219038
5 2 100 20 0.0627011
6 2 100 20 3.36923e-05
7 2 100 20 0.0517167
8 2 100 20 7.26158e-06
11 2 100 20 0.000294118
12 2 100 20 4.3271e-06
14 2 100 20 5.89526e-06
15 2 100 20 0.000188401
16 2 100 20 6.50715e-06
17 2 100 20 0.0531528
1 3 100 20 8.53628e-05
2 3 100 20 0.0476302
3 3 100 20 0.551708
4 3 100 20 0.248218
5 3 100 20 0.0910215
6 3 100 20 0.0490099
7 3 100 20 0.000261155
8 3 100 20 0.00669775
9 3 100 20 0.000128904
11 3 100 20 0.00118929
12 3 100 20 0.00201284
13 3 100 20 7.13226e-07
14 3 100 20 9.17385e-05
15 3 100 20 0.00183354
17 3 100 20 0.000111295
1 4 100 20 0.00270851
2 4 100 20 0.0720716
3 4 100 20 0.0365752
4 4 100 20 0.259896
5 4 100 20 0.216744
6 4 100 20 0.0967878
7 4 100 20 0.179238
8 4 100 20 0.107915
9 4 100 20 2.3089e-06
11 4 100 20 0.00106541
12 4 100 20 0.0268681
13 4 100 20 3.82112e-07
16 4 100 20 1.0144e-05
18 4 100 20 0.000117949
1 5 100 20 0.023753
2 5 100 20 0.000331881
3 5 100 20 0.0838016
4 5 100 20 0.0839626
5 5 100 20 0.16901
6 5 100 20 0.262111
7 5 100 20 0.126747
8 5 100 20 0.0419016
9 5 100 20 0.124365
10 5 100 20 0.0419019
11 5 100 20 0.000207239
12 5 100 20 0.000334389
13 5 100 20 4.56099e-06
16 5 100 20 4.90714e-05
17 5 100 20 3.87131e-05
18 5 100 20 0.0412604
19 5 100 20 0.000220837
1 6 100 20 0.000771572
2 6 100 20 1.65314e-06
3 6 100 20 0.121955
4 6 100 20 0.039076
5 6 100 20 0.095412
6 6 100 20 0.125009
7 6 100 20 0.202832
8 6 100 20 0.121905
9 6 100 20 0.0813035
10 6 100 20 0.0813077
11 6 100 20 0.0813037
12 6 100 20 0.0406518
13 6 100 20 1.24315e-06
14 6 100 20 4.83393e-05
15 6 100 20 4.18851e-07
16 6 100 20 7.6795e-05
18 6 100 20 2.53534e-06
19 6 100 20 0.00834175
1 7 100 20 9.9982e-05
2 7 100 20 0.0313356
3 7 100 20 0.0614772
4 7 100 20 0.127509
5 7 100 20 0.0655724
6 7 100 20 0.125239
7 7 100 20 0.0948905
8 7 100 20 0.15199
9 7 100 20 0.0945527
10 7 100 20 0.0848274
11 7 100 20 0.0331795
12 7 100 20 0.0313602
13 7 100 20 0.0626631
14 7 100 20 0.00376891
15 7 100 20 0.0313763
16 7 100 20 0.000157085
19 7 100 20 3.84978e-07
1 8 100 20 0.0114535
2 8 100 20 0.000110728
3 8 100 20 0.00107079
4 8 100 20 0.0404237
5 8 100 20 0.0821715
6 8 100 20 0.041235
7 8 100 20 0.162023
8 8 100 20 0.20321
9 8 100 20 0.168229
10 8 100 20 0.162042
11 8 100 20 0.0423357
12 8 100 20 0.00104701
13 8 100 20 4.09746e-07
14 8 100 20 0.0814363
15 8 100 20 0.000547502
16 8 100 20 0.000706885
17 8 100 20 4.20525e-05
18 8 100 20 1.60749e-05
19 8 100 20 0.0018986
2 9 100 20 5.22e-06
3 9 100 20 0.00028688
4 9 100 20 0.000850209
5 9 100 20 0.0795216
6 9 100 20 0.0855573
7 9 100 20 0.0732488
8 9 100 20 0.0826754
9 9 100 20 0.12046
10 9 100 20 0.0431306
11 9 100 20 0.189755
12 9 100 20 0.0783998
13 9 100 20 0.051231
14 9 100 20 0.0747988
15 9 100 20 0.0800472
16 9 100 20 0.0397594
17 9 100 20 8.69689e-07
18 9 100 20 8.15369e-07
19 9 100 20 0.000271045
1 10 100 20 6.35603e-07
2 10 100 20 0.0375888
3 10 100 20 0.00604946
4 10 100 20 0.000131421
5 10 100 20 0.0462954
7 10 100 20 0.000106886
8 10 100 20 0.183464
9 10 100 20 0.142676
10 10 100 20 0.238202
11 10 100 20 0.140489
12 10 100 20 0.109767
13 10 100 20 0.0476962
14 10 100 20 9.27949e-05
15 10 100 20 0.000584405
16 10 100 20 0.00340699
17 10 100 20 0.00557844
19 10 100 20 0.0378696
1 11 100 20 2.01044e-05
3 11 100 20 5.9866e-06
4 11 100 20 0.0716253
5 11 100 20 1.58592e-05
6 11 100 20 0.0727446
7 11 100 20 0.0727716
9 11 100 20 0.0589099
10 11 100 20 0.104068
11 11 100 20 0.0729211
12 11 100 20 0.109503
13 11 100 20 0.252433
14 11 100 20 0.109163
15 11 100 20 0.0363878
16 11 100 20 0.0391589
17 11 100 20 0.000185136
19 11 100 20 8.62663e-05
1 12 100 20 0.0373925
2 12 100 20 5.50435e-07
3 12 100 20 8.09005e-06
4 12 100 20 0.00249769
5 12 100 20 0.0748393
6 12 100 20 0.00104865
7 12 100 20 7.83704e-06
8 12 100 20 0.0758922
9 12 100 20 0.0863056
10 12 100 20 0.189277
11 12 100 20 0.112051
12 12 100 20 0.075881
13 12 100 20 0.113623
14 12 100 20 0.151481
15 12 100 20 0.0756863
17 12 100 20 1.3075e-05
18 12 100 20 3.00722e-06
19 12 100 20 0.00399167
2 13 100 20 6.54757e-05
3 13 100 20 1.78787e-06
5 13 100 20 0.00111808
6 13 100 20 0.0320285
7 13 100 20 0.0321954
9 13 100 20 0.0320218
10 13 100 20 0.15995
11 13 100 20 0.160115
12 13 100 20 0.0695968
13 13 100 20 0.0346142
14 13 100 20 0.128088
15 13 100 20 0.128173
16 13 100 20 0.125815
17 13 100 20 0.0962156
19 13 100 20 4.92231e-07
1 14 100 20 0.0408841
2 14 100 20 4.56804e-06
3 14 100 20 0.00156919
6 14 100 20 6.38823e-06
11 14 100 20 0.163436
12 14 100 20 0.203509
13 14 100 20 0.0817595
14 14 100 20 1.26613e-05
15 14 100 20 0.157556
16 14 100 20 0.105984
17 14 100 20 0.163517
18 14 100 20 0.0817615
3 15 100 20 8.14752e-07
4 15 100 20 6.93497e-06
5 15 100 20 0.000274918
6 15 100 20 2.11492e-05
7 15 100 20 0.00355269
8 15 100 20 0.000820835
9 15 100 20 0.000265283
11 15 100 20 0.0437774
12 15 100 20 0.216899
13 15 100 20 0.0437503
14 15 100 20 0.0572186
15 15 100 20 0.0450915
16 15 100 20 0.115862
17 15 100 20 0.122437
18 15 100 20 0.262417
19 15 100 20 0.0876047
20 15 100 20 6.26244e-07
5 16 100 20 1.31661e-05
6 16 100 20 0.0392534
7 16 100 20 0.000688054
8 16 100 20 8.23695e-05
9 16 100 20 0.0785075
10 16 100 20 1.62782e-05
12 16 100 20 0.089605
13 16 100 20 0.238964
14 16 100 20 0.196251
15 16 100 20 0.0404269
16 16 100 20 0.071406
17 16 100 20 0.0484541
18 16 100 20 0.0785757
19 16 100 20 0.117756
1 17 100 20 0.000177017
3 17 100 20 7.10833e-07
4 17 100 20 0.00868091
5 17 100 20 0.00240859
6 17 100 20 0.00010512
7 17 100 20 0.000107712
8 17 100 20 0.000940653
10 17 100 20 9.79186e-07
11 17 100 20 0.0438793
12 17 100 20 0.0268023
13 17 100 20 0.086732
14 17 100 20 0.174489
15 17 100 20 0.2143
16 17 100 20 0.0891076
17 17 100 20 0.0866405
18 17 100 20 0.086632
19 17 100 20 0.178995
1 18 100 20 0.0030841
3 18 100 20 0.000958545
4 18 100 20 0.00134908
5 18 100 20 0.011816
6 18 100 20 0.0567095
7 18 100 20 0.000128122
8 18 100 20 0.00180587
9 18 100 20 0.00121209
11 18 100 20 0.00176362
12 18 100 20 0.00879272
13 18 100 20 0.113194
14 18 100 20 0.0127442
15 18 100 20 0.227454
16 18 100 20 0.222583
17 18 100 20 0.0564844
18 18 100 20 0.113278
19 18 100 20 0.166642
1 19 100 20 0.0328196
2 19 100 20 0.0369057
3 19 100 20 0.0382628
4 19 100 20 0.0735134
5 19 100 20 2.88511e-05
6 19 100 20 0.036988
7 19 100 20 0.000768805
8 19 100 20 0.000164164
9 19 100 20 0.0364104
10 19 100 20 0.00227202
11 19 100 20 6.82928e-07
12 19 100 20 0.0354427
13 19 100 20 0.00024181
14 19 100 20 0.109811
15 19 100 20 0.0369133
16 19 100 20 0.0764084
17 19 100 20 0.223488
18 19 100 20 0.110705
19 19 100 20 0.0750437
20 19 100 20 0.0738113
1 20 100 20 0.0561467
2 20 100 20 8.73069e-05
3 20 100 20 0.0561871
4 20 100 20 8.75666e-06
5 20 100 20 0.012213
6 20 100 20 0.000173705
7 20 100 20 0.0563115
8 20 100 20 5.44743e-06
9 20 100 20 1.92493e-05
10 20 100 20 0.000171244
11 20 100 20 0.0712314
12 20 100 20 0.0016628
13 20 100 20 0.0289102
14 20 100 20 1.36595e-05
15 20 100 20 0.0590432
16 20 100 20 0.056141
17 20 100 20 0.170392
18 20 100 20 0.1685
19 20 100 20 0.150499
20 20 100 20 0.112282
1 21 100 20 4.54806e-06
3 21 100 20 0.0537817
4 21 100 20 0.0542278
6 21 100 20 2.79365e-06
8 21 100 20 0.107546
9 21 100 20 6.17424e-06
12 21 100 20 0.0491127
13 21 100 20 8.02803e-05
14 21 100 20 0.0536276
15 21 100 20 4.49914e-05
16 21 100 20 0.15899
17 21 100 20 0.0538218
18 21 100 20 0.16077
19 21 100 20 0.146664
20 21 100 20 0.16132
1 22 100 20 5.93688e-07
3 22 100 20 8.74897e-05
4 22 100 20 6.69412e-05
5 22 100 20 3.75867e-05
6 22 100 20 9.09624e-07
7 22 100 20 0.000475587
8 22 100 20 7.61825e-05
9 22 100 20 0.204471
10 22 100 20 0.00162715
11 22 100 20 1.71594e-05
12 22 100 20 3.52755e-06
13 22 100 20 9.64366e-06
14 22 100 20 0.018694
15 22 100 20 0.0284327
16 22 100 20 0.0426748
17 22 100 20 0.199263
18 22 100 20 0.0791423
19 22 100 20 0.263701
20 22 100 20 0.161218
2 23 100 20 9.54959e-05
3 23 100 20 0.0589305
4 23 100 20 0.0739072
5 23 100 20 0.0808927
6 23 100 20 0.0727129
7 23 100 20 0.00419885
8 23 100 20 0.00026405
9 23 100 20 0.0721988
10 23 100 20 0.00295735
12 23 100 20 0.00101144
13 23 100 20 0.000580214
14 23 100 20 3.78372e-06
15 23 100 20 0.071832
16 23 100 20 0.00121129
17 23 100 20 0.028454
18 23 100 20 0.14712
19 23 100 20 0.0963082
20 23 100 20 0.287321
3 24 100 20 1.91123e-07
4 24 100 20 0.0888203
5 24 100 20 0.178615
6 24 100 20 0.0883875
7 24 100 20 7.62995e-07
8 24 100 20 0.0880351
9 24 100 20 0.00461234
10 24 100 20 0.0884131
11 24 100 20 0.0125034
12 24 100 20 0.000390513
14 24 100 20 2.39198e-06
15 24 100 20 9.9363e-05
16 24 100 20 0.0819853
17 24 100 20 0.000166005
18 24 100 20 0.00423948
19 24 100 20 0.0984881
20 24 100 20 0.265241
2 25 100 20 5.17434e-05
3 25 100 20 0.0221146
4 25 100 20 1.75541e-05
5 25 100 20 6.89633e-05
6 25 100 20 0.00191227
7 25 100 20 0.160819
8 25 100 20 0.0807192
9 25 100 20 0.0012592
10 25 100 20 1.60921e-05
12 25 100 20 0.00017303
13 25 100 20 1.56183e-06
14 25 100 20 5.93573e-07
15 25 100 20 8.6088e-07
16 25 100 20 0.00270932
18 25 100 20 0.0811348
19 25 100 20 0.0807689
20 25 100 20 0.568232
2 26 100 20 1.77448e-06
3 26 100 20 0.000627093
5 26 100 20 0.00047179
8 26 100 20 0.350723
12 26 100 20 0.00051572
14 26 100 20 6.89297e-05
15 26 100 20 0.00122259
16 26 100 20 2.02489e-05
17 26 100 20 0.0031386
18 26 100 20 0.289698
19 26 100 20 0.177414
20 26 100 20 0.176098
2 27 100 20 9.67261e-07
8 27 100 20 6.46991e-06
19 27 100 20 0.166722
20 27 100 20 0.83327
2 28 100 20 0.022275
3 28 100 20 0.977725
3 29 100 20 0.999984
18 29 100 20 1.58857e-05
20 30 100 20 1
1 0 100 21 7.22053e-05
2 0 100 21 0.0946845
3 0 100 21 0.0543457
4 0 100 21 0.0925076
5 0 100 21 0.125078
6 0 100 21 0.0622052
7 0 100 21 0.0333032
8 0 100 21 0.0128415
9 0 100 21 0.0946492
10 0 100 21 0.000194791
11 0 100 21 0.00128249
12 0 100 21 0.0012065
13 0 100 21 0.110563
14 0 100 21 0.0760718
15 0 100 21 0.000710793
16 0 100 21 0.00105135
17 0 100 21 0.00278945
18 0 100 21 0.200248
19 0 100 21 0.00229138
20 0 100 21 0.0339029
1 1 100 21 0.467633
2 1 100 21 0.198595
3 1 100 21 0.133089
4 1 100 21 0.0666178
5 1 100 21 0.0666193
9 1 100 21 2.3875e-06
10 1 100 21 0.0333086
11 1 100 21 0.0333086
13 1 100 21 0.000825728
1 2 100 21 0.111339
2 2 100 21 0.343487
3 2 100 21 0.190738
4 2 100 21 0.152599
5 2 100 21 0.0398681
6 2 100 21 0.11439
8 2 100 21 0.00187187
9 2 100 21 0.00724799
12 2 100 21 0.0381505
13 2 100 21 3.34794e-05
14 2 100 21 2.57439e-06
16 2 100 21 0.000267441
17 2 100 21 4.285e-06
19 2 100 21 8.77407e-07
20 2 100 21 6.11878e-07
1 3 100 21 0.105146
2 3 100 21 6.33538e-05
3 3 100 21 0.227981
4 3 100 21 0.24761
5 3 100 21 0.103612
6 3 100 21 0.0519704
7 3 100 21 0.110854
8 3 100 21 0.000127248
9 3 100 21 0.045692
10 3 100 21 0.0519725
11 3 100 21 0.051978
13 3 100 21 0.00298528
15 3 100 21 6.42423e-06
17 3 100 21 2.19694e-06
1 4 100 21 0.0426153
2 4 100 21 0.085178
3 4 100 21 0.169836
4 4 100 21 0.128002
5 4 100 21 0.175767
6 4 100 21 0.170432
8 4 100 21 0.119226
10 4 100 21 0.0426149
11 4 100 21 4.65706e-05
12 4 100 21 0.0231828
13 4 100 21 0.042584
14 4 100 21 0.000343652
15 4 100 21 0.000138219
16 4 100 21 5.10638e-06
18 4 100 21 2.79676e-05
1 5 100 21 0.0495067
2 5 100 21 0.099026
3 5 100 21 0.0513134
4 5 100 21 0.148562
5 5 100 21 0.198769
6 5 100 21 0.0509877
7 5 100 21 0.20156
8 5 100 21 0.0990109
9 5 100 21 0.0495199
10 5 100 21 7.03023e-07
11 5 100 21 1.01559e-06
12 5 100 21 1.3278e-05
13 5 100 21 0.0508905
14 5 100 21 0.000539552
15 5 100 21 1.77318e-06
17 5 100 21 4.22967e-05
18 5 100 21 4.9642e-05
19 5 100 21 0.000204847
1 6 100 21 0.000771746
3 6 100 21 0.083341
4 6 100 21 0.0848911
5 6 100 21 0.0848747
6 6 100 21 0.252871
7 6 100 21 0.158745
8 6 100 21 0.169795
9 6 100 21 0.0424988
10 6 100 21 0.0424488
11 6 100 21 0.0424496
14 6 100 21 0.0371553
16 6 100 21 0.000157964
3 7 100 21 3.48523e-06
4 7 100 21 0.00316867
5 7 100 21 0.16606
6 7 100 21 0.0582916
7 7 100 21 0.275158
8 7 100 21 0.165106
9 7 100 21 0.2762
11 7 100 21 0.0549031
12 7 100 21 0.0010196
13 7 100 21 2.4348e-05
14 7 100 21 2.22054e-06
15 7 100 21 1.61492e-06
16 7 100 21 1.74249e-05
18 7 100 21 4.41312e-05
1 8 100 21 0.0279302
3 8 100 21 4.58284e-05
4 8 100 21 0.0338683
5 8 100 21 0.0662922
6 8 100 21 0.101939
7 8 100 21 0.0678388
8 8 100 21 0.203053
9 8 100 21 0.0759504
10 8 100 21 0.101568
11 8 100 21 0.0338578
12 8 100 21 0.135406
13 8 100 21 0.0336854
14 8 100 21 0.0564645
15 8 100 21 0.0334787
17 8 100 21 1.60413e-06
18 8 100 21 0.0286212
1 9 100 21 0.0533259
2 9 100 21 0.0532456
3 9 100 21 0.0538969
4 9 100 21 0.00195192
5 9 100 21 0.0536789
6 9 100 21 0.102782
7 9 100 21 0.0841407
8 9 100 21 0.000138587
9 9 100 21 0.247372
10 9 100 21 0.106517
11 9 100 21 0.106537
12 9 100 21 0.00300239
13 9 100 21 0.132449
14 9 100 21 0.000604023
15 9 100 21 0.000173159
16 9 100 21 1.74054e-05
17 9 100 21 0.000163979
19 9 100 21 3.87302e-06
1 10 100 21 9.54868e-07
2 10 100 21 0.0606985
3 10 100 21 0.000491
4 10 100 21 0.0601622
5 10 100 21 0.00102955
6 10 100 21 9.22808e-06
7 10 100 21 0.0861652
8 10 100 21 0.121775
9 10 100 21 0.0570234
10 10 100 21 0.303337
11 10 100 21 0.060785
12 10 100 21 0.123706
13 10 100 21 0.063307
14 10 100 21 0.0578739
15 10 100 21 0.000684233
16 10 100 21 0.000513918
18 10 100 21 0.00243836
3 11 100 21 0.0486282
4 11 100 21 6.28396e-07
5 11 100 21 3.08118e-05
6 11 100 21 0.0492766
8 11 100 21 0.101091
9 11 100 21 0.148048
10 11 100 21 0.0985434
11 11 100 21 0.246221
12 11 100 21 0.0493408
13 11 100 21 0.103322
14 11 100 21 0.0566768
15 11 100 21 0.0492717
16 11 100 21 0.0495493
2 12 100 21 7.16154e-05
4 12 100 21 0.0586762
5 12 100 21 6.28934e-07
6 12 100 21 2.32409e-06
7 12 100 21 0.112233
9 12 100 21 0.05867
10 12 100 21 0.17601
11 12 100 21 0.00779846
12 12 100 21 0.234684
13 12 100 21 7.44111e-05
14 12 100 21 0.234736
15 12 100 21 0.0586699
16 12 100 21 0.0583118
18 12 100 21 5.7786e-05
20 12 100 21 4.13075e-06
3 13 100 21 9.0531e-06
4 13 100 21 7.26042e-07
8 13 100 21 0.0435622
9 13 100 21 0.0433726
10 13 100 21 0.0871244
11 13 100 21 0.250731
12 13 100 21 0.00679068
13 13 100 21 0.174175
14 13 100 21 0.00241096
15 13 100 21 0.217524
16 13 100 21 3.4607e-06
17 13 100 21 0.0871195
18 13 100 21 5.4212e-05
19 13 100 21 0.0435612
20 13 100 21 0.0435615
4 14 100 21 0.000309545
6 14 100 21 3.21465e-06
9 14 100 21 0.0010902
10 14 100 21 0.0470334
11 14 100 21 0.0939989
12 14 100 21 0.188134
13 14 100 21 0.0472761
14 14 100 21 0.19613
16 14 100 21 0.189388
17 14 100 21 0.0470968
18 14 100 21 0.0962437
19 14 100 21 0.0932956
20 14 100 21 9.61721e-07
2 15 100 21 7.71373e-05
4 15 100 21 1.8403e-06
7 15 100 21 0.000447747
9 15 100 21 8.62971e-07
11 15 100 21 0.0435312
12 15 100 21 0.0870355
13 15 100 21 0.173952
14 15 100 21 0.130562
15 15 100 21 0.217884
16 15 100 21 2.31723e-06
17 15 100 21 0.130538
18 15 100 21 0.0436233
19 15 100 21 0.0426105
20 15 100 21 0.0862159
21 15 100 21 0.0435177
3 16 100 21 1.57002e-05
4 16 100 21 0.00209906
5 16 100 21 5.883e-05
6 16 100 21 0.044942
7 16 100 21 0.0449388
8 16 100 21 0.000749568
9 16 100 21 0.0443673
10 16 100 21 1.03494e-06
12 16 100 21 0.00468435
13 16 100 21 5.8403e-05
14 16 100 21 0.138344
15 16 100 21 0.134759
16 16 100 21 0.224915
17 16 100 21 0.0902809
18 16 100 21 0.0900116
19 16 100 21 0.134836
20 16 100 21 0.0449387
2 17 100 21 0.0575878
3 17 100 21 0.000674602
6 17 100 21 0.000324348
9 17 100 21 7.47357e-05
11 17 100 21 0.0583491
12 17 100 21 1.05427e-06
13 17 100 21 0.00116729
14 17 100 21 0.0622634
15 17 100 21 0.178579
16 17 100 21 0.177184
17 17 100 21 0.117496
18 17 100 21 0.178556
19 17 100 21 0.0484389
20 17 100 21 0.119304
1 18 100 21 0.000151984
3 18 100 21 0.0554131
4 18 100 21 0.0555679
5 18 100 21 0.0713381
6 18 100 21 0.0171102
7 18 100 21 0.0408972
8 18 100 21 0.000911631
9 18 100 21 1.33474e-05
12 18 100 21 0.000387912
13 18 100 21 1.01124e-06
14 18 100 21 8.53565e-05
15 18 100 21 0.111009
16 18 100 21 0.18074
17 18 100 21 0.278203
18 18 100 21 9.85744e-07
19 18 100 21 0.166549
20 18 100 21 0.0216182
21 18 100 21 2.03574e-06
2 19 100 21 0.000251649
3 19 100 21 2.69759e-05
6 19 100 21 8.73633e-07
8 19 100 21 4.03112e-05
9 19 100 21 5.20097e-07
10 19 100 21 0.0476576
11 19 100 21 0.0476947
12 19 100 21 0.0982293
13 19 100 21 0.0953631
14 19 100 21 0.00144616
15 19 100 21 6.07168e-07
16 19 100 21 0.0893033
17 19 100 21 0.142914
18 19 100 21 0.190771
19 19 100 21 0.0480092
20 19 100 21 0.238291
1 20 100 21 0.0542581
2 20 100 21 5.29702e-05
3 20 100 21 2.76291e-06
4 20 100 21 2.22743e-06
5 20 100 21 8.27894e-07
6 20 100 21 0.000307515
8 20 100 21 7.72545e-07
9 20 100 21 3.01282e-05
10 20 100 21 5.3295e-06
11 20 100 21 0.000756645
12 20 100 21 0.0543511
13 20 100 21 1.9088e-06
14 20 100 21 0.108726
16 20 100 21 0.149291
17 20 100 21 0.0544094
18 20 100 21 0.274016
19 20 100 21 0.182491
20 20 100 21 0.0124818
21 20 100 21 0.108814
2 21 100 21 0.0590269
3 21 100 21 1.77618e-05
6 21 100 21 3.28223e-06
7 21 100 21 0.000625186
11 21 100 21 0.00601946
12 21 100 21 5.94734e-05
13 21 100 21 0.0590207
15 21 100 21 0.116942
16 21 100 21 0.0590269
17 21 100 21 0.0590269
18 21 100 21 0.0589419
19 21 100 21 0.226092
20 21 100 21 0.237144
21 21 100 21 0.118054
1 22 100 21 2.4138e-06
2 22 100 21 3.66897e-06
3 22 100 21 1.14246e-06
12 22 100 21 0.120083
13 22 100 21 0.120076
14 22 100 21 0.0600472
15 22 100 21 3.1317e-06
17 22 100 21 0.0600513
18 22 100 21 0.0393205
19 22 100 21 0.120096
20 22 100 21 0.24015
21 22 100 21 0.240166
1 23 100 21 0.0147673
2 23 100 21 6.43293e-05
3 23 100 21 0.000738116
4 23 100 21 1.73266e-05
5 23 100 21 5.62565e-05
6 23 100 21 0.000733366
7 23 100 21 5.84773e-05
8 23 100 21 0.000640707
9 23 100 21 0.0200002
11 23 100 21 0.000389018
12 23 100 21 0.000149548
13 23 100 21 1.90473e-05
14 23 100 21 0.000757835
15 23 100 21 1.9199e-05
16 23 100 21 0.0516477
17 23 100 21 0.0178537
18 23 100 21 0.346083
19 23 100 21 8.00057e-05
20 23 100 21 0.545925
3 24 100 21 2.36593e-05
4 24 100 21 6.18095e-05
5 24 100 21 0.000709767
6 24 100 21 1.87544e-07
7 24 100 21 1.69785e-07
9 24 100 21 2.59728e-05
11 24 100 21 0.000121877
13 24 100 21 0.000491861
14 24 100 21 0.000192097
15 24 100 21 1.75675e-05
16 24 100 21 7.75321e-05
17 24 100 21 0.103066
18 24 100 21 1.70691e-06
19 24 100 21 0.198074
20 24 100 21 0.00214431
21 24 100 21 0.694991
4 25 100 21 0.00347166
5 25 100 21 0.000138641
6 25 100 21 1.28874e-05
8 25 100 21 0.00929912
9 25 100 21 8.32375e-06
10 25 100 21 4.75838e-06
11 25 100 21 1.55655e-05
12 25 100 21 8.84733e-07
13 25 100 21 0.000671329
14 25 100 21 0.00525964
16 25 100 21 0.000499287
17 25 100 21 0.00957283
18 25 100 21 2.98405e-06
19 25 100 21 0.316112
20 25 100 21 0.215168
21 25 100 21 0.439762
3 26 100 21 1.95979e-05
4 26 100 21 2.83368e-06
5 26 100 21 0.013879
7 26 100 21 0.000786341
8 26 100 21 2.76791e-05
9 26 100 21 0.0463855
10 26 100 21 3.13665e-05
11 26 100 21 0.000119304
13 26 100 21 3.63145e-06
14 26 100 21 2.03429e-06
15 26 100 21 0.279195
16 26 100 21 7.04203e-05
17 26 100 21 0.0864534
18 26 100 21 2.40951e-06
19 26 100 21 0.00141631
20 26 100 21 2.79714e-05
21 26 100 21 0.571577
1 27 100 21 6.65444e-07
9 27 100 21 0.00161997
10 27 100 21 0.201764
13 27 100 21 1.34771e-05
15 27 100 21 0.000346165
16 27 100 21 0.199506
17 27 100 21 0.199543
19 27 100 21 1.47944e-05
20 27 100 21 0.197649
21 27 100 21 0.199543
4 28 100 21 8.48878e-05
8 28 100 21 0.0866741
9 28 100 21 0.00116452
14 28 100 21 1.5709e-05
16 28 100 21 0.000271741
18 28 100 21 0.398569
21 28 100 21 0.51322
4 29 100 21 2.85946e-06
8 29 100 21 1.09336e-05
9 29 100 21 0.457073
10 29 100 21 2.973e-06
14 29 100 21 9.29625e-06
18 29 100 21 3.36981e-05
21 29 100 21 0.542868
21 30 100 21 1
1 0 100 22 0.00109173
2 0 100 22 0.0848552
3 0 100 22 0.000582414
4 0 100 22 0.00150287
5 0 100 22 0.0800714
6 0 100 22 0.00114644
7 0 100 22 0.0449497
8 0 100 22 0.0581902
9 0 100 22 0.0374444
10 0 100 22 0.00862154
11 0 100 22 0.0600169
12 0 100 22 0.0175032
13 0 100 22 0.0858098
14 0 100 22 0.0462047
15 0 100 22 0.115129
16 0 100 22 0.0433783
17 0 100 22 0.0533025
18 0 100 22 0.0108722
19 0 100 22 0.11515
20 0 100 22 0.133855
21 0 100 22 0.0003228
1 1 100 22 0.57343
2 1 100 22 0.331942
3 1 100 22 0.0560219
5 1 100 22 0.014019
7 1 100 22 1.66863e-05
8 1 100 22 0.0104773
9 1 100 22 8.75328e-05
10 1 100 22 0.014006
19 1 100 22 2.08103e-07
1 2 100 22 3.52628e-06
2 2 100 22 0.356357
3 2 100 22 0.536816
4 2 100 22 0.0528411
5 2 100 22 4.35179e-06
6 2 100 22 0.0268077
7 2 100 22 3.01751e-05
8 2 100 22 4.3757e-06
9 2 100 22 6.41596e-06
10 2 100 22 2.21929e-05
11 2 100 22 0.0270766
13 2 100 22 3.55855e-06
14 2 100 22 1.11682e-06
15 2 100 22 1.17957e-06
16 2 100 22 1.40546e-05
19 2 100 22 1.08034e-05
1 3 100 22 0.0326821
2 3 100 22 0.0976872
3 3 100 22 0.397944
4 3 100 22 0.41079
5 3 100 22 0.0275888
7 3 100 22 0.0326156
8 3 100 22 3.82918e-05
9 3 100 22 5.10951e-07
10 3 100 22 9.75246e-06
12 3 100 22 1.32256e-05
14 3 100 22 6.84179e-06
15 3 100 22 0.00011993
16 3 100 22 2.88566e-05
17 3 100 22 3.99802e-05
19 3 100 22 2.18976e-05
20 3 100 22 0.000413105
1 4 100 22 8.56135e-05
2 4 100 22 0.0330515
3 4 100 22 0.19125
4 4 100 22 0.459331
5 4 100 22 0.247254
6 4 100 22 0.0334449
7 4 100 22 0.0343291
9 4 100 22 2.54379e-05
10 4 100 22 0.000156376
11 4 100 22 9.96766e-05
12 4 100 22 2.33303e-05
13 4 100 22 0.000456985
14 4 100 22 0.000112296
15 4 100 22 4.10601e-05
16 4 100 22 1.61679e-05
17 4 100 22 0.000290283
18 4 100 22 3.29687e-05
2 5 100 22 5.56644e-05
3 5 100 22 0.0512392
4 5 100 22 0.255199
5 5 100 22 0.34176
6 5 100 22 0.187334
7 5 100 22 0.0805545
8 5 100 22 0.0552283
9 5 100 22 0.0268696
10 5 100 22 1.74198e-05
11 5 100 22 0.00027739
12 5 100 22 0.000908205
13 5 100 22 3.07758e-06
14 5 100 22 2.8442e-06
15 5 100 22 0.000533914
16 5 100 22 1.8459e-06
17 5 100 22 6.5199e-06
18 5 100 22 8.75542e-07
19 5 100 22 1.08264e-06
20 5 100 22 6.69004e-06
1 6 100 22 8.44353e-05
2 6 100 22 3.39109e-07
3 6 100 22 0.000185417
4 6 100 22 0.0504331
5 6 100 22 0.176187
6 6 100 22 0.348677
7 6 100 22 0.187964
8 6 100 22 0.181749
9 6 100 22 0.027156
10 6 100 22 0.000129918
11 6 100 22 2.70078e-06
13 6 100 22 0.000118391
14 6 100 22 0.0252892
15 6 100 22 3.55565e-05
16 6 100 22 0.000115586
18 6 100 22 1.12657e-06
19 6 100 22 0.00186989
20 6 100 22 2.68037e-07
21 6 100 22 9.51108e-07
1 7 100 22 0.0346558
2 7 100 22 4.30525e-05
3 7 100 22 0.000170418
4 7 100 22 0.00025783
5 7 100 22 0.138628
6 7 100 22 0.208538
7 7 100 22 0.299179
8 7 100 22 0.142773
9 7 100 22 0.173044
10 7 100 22 0.000104857
11 7 100 22 0.000285482
12 7 100 22 0.000385674
13 7 100 22 1.36092e-05
14 7 100 22 4.44659e-05
15 7 100 22 0.000594292
16 7 100 22 4.37026e-06
17 7 100 22 0.000113624
18 7 100 22 3.70181e-07
19 7 100 22 0.00116167
20 7 100 22 1.51185e-06
1 8 100 22 0.0259025
2 8 100 22 0.0259027
3 8 100 22 2.78851e-07
4 8 100 22 0.0522611
5 8 100 22 0.0520369
6 8 100 22 0.129389
7 8 100 22 0.132017
8 8 100 22 0.1939
9 8 100 22 0.206103
10 8 100 22 0.181351
11 8 100 22 6.77549e-05
12 8 100 22 1.63702e-05
13 8 100 22 0.000330504
14 8 100 22 9.16607e-06
15 8 100 22 0.000574825
16 8 100 22 0.000114982
17 8 100 22 2.23049e-05
1 9 100 22 2.95867e-06
2 9 100 22 0.00262856
3 9 100 22 0.000985283
5 9 100 22 0.0300731
6 9 100 22 0.0894362
7 9 100 22 0.175874
8 9 100 22 0.210041
9 9 100 22 0.153082
10 9 100 22 0.150272
11 9 100 22 0.155835
12 9 100 22 0.0300463
13 9 100 22 0.000435082
14 9 100 22 8.64473e-05
15 9 100 22 1.5022e-06
17 9 100 22 1.67029e-06
18 9 100 22 1.83716e-06
19 9 100 22 4.93562e-06
20 9 100 22 0.00119278
1 10 100 22 2.61579e-07
2 10 100 22 1.43008e-05
3 10 100 22 4.39223e-06
4 10 100 22 0.0472689
5 10 100 22 0.0246199
6 10 100 22 0.0492579
7 10 100 22 0.171432
8 10 100 22 0.173496
9 10 100 22 0.151049
10 10 100 22 0.125381
11 10 100 22 0.123338
12 10 100 22 0.0809677
13 10 100 22 1.87374e-05
14 10 100 22 6.03896e-05
15 10 100 22 0.0246059
16 10 100 22 0.0260516
17 10 100 22 5.23369e-06
18 10 100 22 3.68731e-05
19 10 100 22 0.00237711
20 10 100 22 1.49097e-05
1 11 100 22 0.000344755
5 11 100 22 0.0374769
6 11 100 22 0.0347412
7 11 100 22 0.000330828
8 11 100 22 0.0750129
9 11 100 22 0.221867
10 11 100 22 0.166754
11 11 100 22 0.115791
12 11 100 22 0.13849
13 11 100 22 0.131146
14 11 100 22 0.0185786
15 11 100 22 0.00212897
16 11 100 22 0.000136919
17 11 100 22 0.0188451
19 11 100 22 3.15122e-05
20 11 100 22 0.0195833
21 11 100 22 0.0187404
2 12 100 22 9.12119e-05
3 12 100 22 5.63843e-07
4 12 100 22 8.64716e-06
5 12 100 22 0.0297455
6 12 100 22 0.00431816
7 12 100 22 0.000100658
8 12 100 22 0.00110457
9 12 100 22 0.00138942
10 12 100 22 0.180294
11 12 100 22 0.167244
12 12 100 22 0.147074
13 12 100 22 0.262796
14 12 100 22 0.175007
15 12 100 22 0.000335617
16 12 100 22 6.5469e-07
17 12 100 22 8.9498e-06
18 12 100 22 0.028948
19 12 100 22 0.00148943
20 12 100 22 4.27297e-05
22 12 100 22 1.37716e-06
4 13 100 22 5.15245e-07
5 13 100 22 1.26032e-05
6 13 100 22 0.0296678
7 13 100 22 1.19826e-05
8 13 100 22 0.00237597
9 13 100 22 0.029996
10 13 100 22 0.115787
11 13 100 22 0.179874
12 13 100 22 0.135121
13 13 100 22 0.0643733
14 13 100 22 0.264088
15 13 100 22 0.14834
16 13 100 22 0.000545655
17 13 100 22 0.00013664
18 13 100 22 4.39498e-07
19 13 100 22 0.0296678
20 13 100 22 2.25383e-06
2 14 100 22 5.78357e-06
4 14 100 22 1.43165e-06
5 14 100 22 0.0278122
6 14 100 22 0.000125802
7 14 100 22 4.26686e-06
10 14 100 22 0.0718339
11 14 100 22 0.0286347
12 14 100 22 0.14469
13 14 100 22 0.247751
14 14 100 22 0.139584
15 14 100 22 0.168607
16 14 100 22 0.113825
17 14 100 22 0.00131015
18 14 100 22 0.0278139
19 14 100 22 0.0001844
20 14 100 22 0.0278159
21 14 100 22 4.05734e-07
1 15 100 22 5.60804e-07
2 15 100 22 8.90751e-07
3 15 100 22 6.26396e-06
4 15 100 22 3.92221e-06
5 15 100 22 0.000189496
6 15 100 22 0.0279379
7 15 100 22 1.79306e-06
8 15 100 22 0.000303942
9 15 100 22 0.0279382
10 15 100 22 9.90739e-05
11 15 100 22 0.0827312
12 15 100 22 0.0567365
13 15 100 22 0.055903
14 15 100 22 0.139694
15 15 100 22 0.0860028
16 15 100 22 0.146375
17 15 100 22 0.187084
18 15 100 22 0.0770861
19 15 100 22 0.0280753
20 15 100 22 0.0558931
21 15 100 22 0.0279379
2 16 100 22 4.52249e-07
3 16 100 22 4.82768e-05
5 16 100 22 0.00250023
6 16 100 22 1.21678e-05
7 16 100 22 0.0389246
8 16 100 22 5.43136e-05
10 16 100 22 0.000536078
11 16 100 22 0.0779886
12 16 100 22 0.080357
13 16 100 22 0.0781581
14 16 100 22 0.119744
15 16 100 22 0.126304
16 16 100 22 0.0797414
17 16 100 22 0.157142
18 16 100 22 0.0792517
19 16 100 22 0.0813868
20 16 100 22 5.30876e-07
21 16 100 22 0.0778499
2 17 100 22 2.29406e-06
3 17 100 22 1.86525e-06
4 17 100 22 8.36679e-07
5 17 100 22 0.00115281
6 17 100 22 0.00342796
7 17 100 22 0.00484266
8 17 100 22 0.0287844
9 17 100 22 2.30574e-06
11 17 100 22 1.97132e-05
12 17 100 22 0.0574942
13 17 100 22 0.0594046
14 17 100 22 0.0824589
15 17 100 22 0.17341
16 17 100 22 0.188648
17 17 100 22 0.0574768
18 17 100 22 0.112988
19 17 100 22 0.0582822
20 17 100 22 0.142832
21 17 100 22 3.24544e-06
22 17 100 22 0.0287669
2 18 100 22 8.34382e-06
3 18 100 22 2.73575e-06
4 18 100 22 0.000511323
5 18 100 22 0.000119661
6 18 100 22 7.23353e-05
7 18 100 22 1.39988e-05
8 18 100 22 0.00344684
9 18 100 22 1.76112e-05
10 18 100 22 8.77349e-07
11 18 100 22 0.00218873
12 18 100 22 0.0810442
13 18 100 22 0.0630036
14 18 100 22 0.0703624
15 18 100 22 0.0365593
16 18 100 22 0.174161
17 18 100 22 0.242521
18 18 100 22 0.0812851
19 18 100 22 0.105181
20 18 100 22 0.0353728
21 18 100 22 0.104128
1 19 100 22 3.21474e-07
2 19 100 22 3.1227e-06
4 19 100 22 2.30817e-06
5 19 100 22 0.0255371
6 19 100 22 2.89369e-07
7 19 100 22 0.0250909
8 19 100 22 9.48823e-06
9 19 100 22 0.0515411
10 19 100 22 0.0256046
11 19 100 22 0.0509111
12 19 100 22 0.0510146
13 19 100 22 0.0255426
14 19 100 22 0.0265715
15 19 100 22 0.127569
16 19 100 22 0.102304
17 19 100 22 0.0766994
18 19 100 22 0.203134
19 19 100 22 0.127138
20 19 100 22 0.0557886
21 19 100 22 0.0255379
1 20 100 22 6.33293e-06
3 20 100 22 1.83322e-05
4 20 100 22 1.9534e-06
5 20 100 22 3.64347e-05
6 20 100 22 0.0287523
7 20 100 22 0.000109556
8 20 100 22 2.74854e-06
10 20 100 22 0.0574868
11 20 100 22 0.0290313
12 20 100 22 0.0470155
13 20 100 22 0.0287712
14 20 100 22 0.0287561
15 20 100 22 0.0579259
16 20 100 22 0.142972
17 20 100 22 0.087161
18 20 100 22 0.107331
19 20 100 22 0.0970896
20 20 100 22 0.114959
21 20 100 22 0.115061
22 20 100 22 0.0575122
2 21 100 22 0.000658353
4 21 100 22 2.64509e-06
5 21 100 22 9.74526e-07
7 21 100 22 7.83432e-06
8 21 100 22 0.000658534
9 21 100 22 1.20729e-06
10 21 100 22 7.26218e-07
11 21 100 22 0.0245737
12 21 100 22 2.76627e-06
13 21 100 22 0.0487388
15 21 100 22 0.0751516
16 21 100 22 0.0980872
17 21 100 22 0.172007
18 21 100 22 0.147389
19 21 100 22 0.115543
20 21 100 22 0.145165
21 21 100 22 0.122869
22 21 100 22 0.0491428
1 22 100 22 4.24283e-07
4 22 100 22 0.000380763
5 22 100 22 2.2785e-05
6 22 100 22 2.79097e-06
7 22 100 22 3.1517e-05
8 22 100 22 0.000874028
10 22 100 22 0.000784791
11 22 100 22 0.000452625
12 22 100 22 0.0379489
13 22 100 22 5.23841e-05
14 22 100 22 0.0379005
15 22 100 22 0.0359433
16 22 100 22 0.038619
17 22 100 22 0.113625
18 22 100 22 0.151635
19 22 100 22 0.140475
20 22 100 22 0.100531
21 22 100 22 0.189255
22 22 100 22 0.151464
1 23 100 22 4.7738e-06
2 23 100 22 4.72592e-07
3 23 100 22 1.60048e-06
7 23 100 22 6.05708e-05
8 23 100 22 0.00514513
10 23 100 22 1.14625e-05
11 23 100 22 0.044607
12 23 100 22 1.50386e-05
15 23 100 22 7.52823e-07
16 23 100 22 0.0467678
17 23 100 22 0.044598
18 23 100 22 0.0898018
19 23 100 22 0.187902
20 23 100 22 0.18017
21 23 100 22 0.177923
22 23 100 22 0.22299
1 24 100 22 9.64699e-07
2 24 100 22 7.68117e-06
3 24 100 22 8.99082e-06
4 24 100 22 2.31526e-05
5 24 100 22 9.95628e-05
6 24 100 22 1.89004e-06
7 24 100 22 0.000177022
8 24 100 22 1.6306e-05
9 24 100 22 8.69542e-07
10 24 100 22 3.48693e-06
11 24 100 22 0.000204395
12 24 100 22 4.75875e-06
13 24 100 22 0.00034743
14 24 100 22 7.36279e-05
15 24 100 22 3.86606e-05
16 24 100 22 0.0544363
17 24 100 22 0.0541021
18 24 100 22 0.0549942
19 24 100 22 0.156901
20 24 100 22 0.248069
21 24 100 22 0.16143
22 24 100 22 0.269058
1 25 100 22 9.98072e-06
2 25 100 22 8.35593e-06
3 25 100 22 3.23621e-05
4 25 100 22 7.12602e-06
5 25 100 22 3.35049e-05
6 25 100 22 2.56383e-06
7 25 100 22 0.02183
8 25 100 22 2.44777e-05
9 25 100 22 4.38523e-05
10 25 100 22 0.000273533
11 25 100 22 1.63345e-06
12 25 100 22 0.0852065
13 25 100 22 0.0010537
14 25 100 22 0.000230525
15 25 100 22 0.000104499
16 25 100 22 7.48041e-06
17 25 100 22 0.0879895
18 25 100 22 0.000809005
19 25 100 22 0.000952021
20 25 100 22 0.155375
21 25 100 22 0.485698
22 25 100 22 0.160307
3 26 100 22 3.74405e-05
4 26 100 22 9.75701e-06
5 26 100 22 0.000595134
7 26 100 22 1.34377e-06
8 26 100 22 1.51857e-05
9 26 100 22 0.00125441
10 26 100 22 3.49272e-06
11 26 100 22 0.01297
12 26 100 22 0.0797535
13 26 100 22 0.0107183
14 26 100 22 0.000103637
15 26 100 22 0.0780739
16 26 100 22 0.000330051
17 26 100 22 7.60581e-07
18 26 100 22 0.00332407
19 26 100 22 0.257721
20 26 100 22 0.0784972
21 26 100 22 0.158869
22 26 100 22 0.317722
2 27 100 22 0.000670673
3 27 100 22 4.46477e-06
4 27 100 22 0.000118834
5 27 100 22 8.59768e-05
8 27 100 22 6.33203e-06
9 27 100 22 1.20645e-05
10 27 100 22 0.0120924
11 27 100 22 0.000208786
12 27 100 22 4.0888e-05
13 27 100 22 0.0894357
14 27 100 22 0.163778
15 27 100 22 5.97958e-06
16 27 100 22 0.000659481
17 27 100 22 7.84111e-06
18 27 100 22 0.180924
19 27 100 22 0.000115867
20 27 100 22 0.105178
21 27 100 22 0.0914062
22 27 100 22 0.355249
1 28 100 22 2.92668e-06
3 28 100 22 3.79934e-07
4 28 100 22 7.60455e-06
5 28 100 22 6.58827e-05
6 28 100 22 0.00103233
7 28 100 22 0.0802815
8 28 100 22 4.79352e-06
9 28 100 22 3.88268e-07
10 28 100 22 0.0012971
11 28 100 22 0.0823004
12 28 100 22 1.97453e-06
13 28 100 22 5.77455e-07
14 28 100 22 0.0810204
15 28 100 22 0.0239434
16 28 100 22 0.00291882
17 28 100 22 0.0808708
18 28 100 22 0.155292
19 28 100 22 0.0862993
20 28 100 22 0.00186662
21 28 100 22 0.0787771
22 28 100 22 0.324016
1 29 100 22 8.32913e-06
2 29 100 22 0.000739297
3 29 100 22 9.89333e-07
5 29 100 22 2.08146e-05
6 29 100 22 5.13103e-06
7 29 100 22 1.67192e-06
8 29 100 22 0.0370945
9 29 100 22 1.37699e-06
10 29 100 22 0.000132647
12 29 100 22 0.134971
13 29 100 22 0.0473218
14 29 100 22 3.2809e-07
15 29 100 22 0.145066
16 29 100 22 0.0489726
17 29 100 22 6.09124e-06
19 29 100 22 0.303515
20 29 100 22 0.00101608
22 29 100 22 0.281126
1 30 100 22 8.59636e-05
2 30 100 22 0.000858135
5 30 100 22 8.56931e-05
10 30 100 22 4.95761e-06
11 30 100 22 0.000642261
12 30 100 22 5.59428e-05
13 30 100 22 7.8665e-07
14 30 100 22 1.79441e-05
15 30 100 22 1.03548e-05
16 30 100 22 0.000149169
17 30 100 22 0.0333865
18 30 100 22 0.240264
19 30 100 22 1.10926e-06
20 30 100 22 3.94356e-06
21 30 100 22 0.246377
22 30 100 22 0.478056
4 31 100 22 5.65201e-05
5 31 100 22 2.7615e-05
10 31 100 22 0.117505
12 31 100 22 5.15057e-07
15 31 100 22 0.00104306
16 31 100 22 0.00226927
17 31 100 22 0.000421608
18 31 100 22 4.93125e-05
19 31 100 22 0.180492
20 31 100 22 0.46313
21 31 100 22 0.0545527
22 31 100 22 0.180453
5 32 100 22 0.000729009
7 32 100 22 6.37975e-05
9 32 100 22 1.11398e-06
10 32 100 22 2.08408e-06
11 32 100 22 8.26872e-07
12 32 100 22 9.39595e-06
13 32 100 22 0.00117885
15 32 100 22 2.87588e-05
16 32 100 22 5.65746e-05
17 32 100 22 0.00347182
18 32 100 22 0.000105136
19 32 100 22 7.91419e-07
20 32 100 22 1.27685e-05
21 32 100 22 0.550247
22 32 100 22 0.444092
6 33 100 22 1.00793e-06
7 33 100 22 0.0012552
8 33 100 22 0.331557
10 33 100 22 9.44769e-05
11 33 100 22 0.312045
12 33 100 22 6.29773e-06
16 33 100 22 2.81704e-05
17 33 100 22 0.00129125
22 33 100 22 0.353722
4 34 100 22 1.32839e-05
9 34 100 22 0.221404
10 34 100 22 0.000460374
12 34 100 22 0.230349
13 34 100 22 0.223609
14 34 100 22 0.00277172
15 34 100 22 0.00252655
16 34 100 22 0.00347127
17 34 100 22 0.0836694
22 34 100 22 0.231725
4 35 100 22 0.000146225
5 35 100 22 1.92941e-06
7 35 100 22 0.000468781
10 35 100 22 2.78429e-05
12 35 100 22 2.84021e-06
13 35 100 22 0.00623219
14 35 100 22 0.156323
15 35 100 22 0.158446
16 35 100 22 0.24019
17 35 100 22 0.15702
18 35 100 22 0.15815
19 35 100 22 0.122991
2 36 100 22 8.25641e-06
7 36 100 22 0.000303614
10 36 100 22 2.15997e-05
13 36 100 22 0.0042352
15 36 100 22 0.000895631
17 36 100 22 0.0172354
20 36 100 22 0.9773
5 37 100 22 2.53298e-06
6 37 100 22 1.35881e-05
7 37 100 22 0.000701841
10 37 100 22 0.193791
14 37 100 22 0.19885
15 37 100 22 0.00771662
16 37 100 22 7.33554e-06
17 37 100 22 0.000131389
18 37 100 22 2.90246e-05
19 37 100 22 0.0012095
20 37 100 22 0.199183
21 37 100 22 0.199183
22 37 100 22 0.199183
15 38 100 22 0.0753689
16 38 100 22 0.462291
17 38 100 22 1.82244e-06
21 38 100 22 0.462339
10 39 100 22 0.00530885
16 39 100 22 0.000331767
17 39 100 22 0.994359
5 40 100 22 0.00139128
12 40 100 22 9.8791e-06
13 40 100 22 0.948981
15 40 100 22 0.0495315
17 40 100 22 8.67829e-05
13 41 100 22 1.1096e-05
14 41 100 22 2.91845e-06
15 41 100 22 0.413183
16 41 100 22 5.30061e-05
22 41 100 22 0.58675
22 42 100 22 1
1 0 100 23 0.000883483
2 0 100 23 0.0412493
3 0 100 23 0.0618864
4 0 100 23 0.0241451
5 0 100 23 0.056128
6 0 100 23 0.0702086
7 0 100 23 0.00652501
8 0 100 23 0.0453483
9 0 100 23 0.117844
10 0 100 23 0.0405931
11 0 100 23 0.125379
12 0 100 23 0.0502163
13 0 100 23 0.112424
14 0 100 23 0.0056026
15 0 100 23 0.0485962
16 0 100 23 0.00116753
17 0 100 23 0.00914318
18 0 100 23 0.0181042
19 0 100 23 0.0412182
20 0 100 23 0.0083539
21 0 100 23 0.113756
22 0 100 23 0.00122847
1 1 100 23 0.608884
2 1 100 23 0.255558
3 1 100 23 0.0764823
4 1 100 23 0.0392976
5 1 100 23 0.0196688
9 1 100 23 3.6138e-05
10 1 100 23 1.74123e-06
11 1 100 23 5.85851e-07
12 1 100 23 1.08138e-06
13 1 100 23 2.74705e-07
14 1 100 23 1.59422e-05
15 1 100 23 1.85992e-05
16 1 100 23 6.8174e-06
18 1 100 23 2.80156e-05
1 2 100 23 0.0337908
2 2 100 23 0.376932
3 2 100 23 0.32313
4 2 100 23 0.16351
5 2 100 23 0.0674118
6 2 100 23 0.0338486
7 2 100 23 4.77351e-06
8 2 100 23 0.00115176
11 2 100 23 7.77551e-05
12 2 100 23 4.8067e-05
13 2 100 23 8.26227e-07
15 2 100 23 4.16033e-06
16 2 100 23 1.31911e-05
17 2 100 23 7.3486e-05
20 2 100 23 1.50628e-06
21 2 100 23 1.62886e-06
1 3 100 23 0.000192908
2 3 100 23 0.0655556
3 3 100 23 0.233481
4 3 100 23 0.361562
5 3 100 23 0.21671
6 3 100 23 0.110985
7 3 100 23 4.52038e-06
8 3 100 23 0.001147
9 3 100 23 0.000631048
11 3 100 23 0.00113916
12 3 100 23 0.000207667
13 3 100 23 0.00759791
14 3 100 23 0.000592799
15 3 100 23 1.34105e-06
17 3 100 23 9.89474e-06
18 3 100 23 0.000140036
19 3 100 23 3.60486e-05
20 3 100 23 4.47071e-06
21 3 100 23 8.62601e-07
1 4 100 23 0.0271589
2 4 100 23 0.108599
3 4 100 23 0.154946
4 4 100 23 0.243449
5 4 100 23 0.189985
6 4 100 23 0.162929
7 4 100 23 0.0855128
9 4 100 23 3.80574e-05
10 4 100 23 6.87287e-05
11 4 100 23 1.21571e-05
12 4 100 23 0.000135699
13 4 100 23 0.0271583
15 4 100 23 1.66727e-06
16 4 100 23 1.96084e-06
18 4 100 23 8.3449e-07
20 4 100 23 5.26672e-07
21 4 100 23 6.61561e-07
22 4 100 23 7.88998e-07
2 5 100 23 4.91397e-05
3 5 100 23 0.0336761
4 5 100 23 0.101774
5 5 100 23 0.298222
6 5 100 23 0.135714
7 5 100 23 0.263948
8 5 100 23 0.129864
9 5 100 23 0.000548891
11 5 100 23 2.90833e-05
12 5 100 23 3.15085e-05
13 5 100 23 2.00693e-05
14 5 100 23 0.0326733
15 5 100 23 0.000107392
16 5 100 23 1.90081e-06
18 5 100 23 7.15986e-05
19 5 100 23 0.00326612
21 5 100 23 3.64546e-06
1 6 100 23 0.000832746
2 6 100 23 0.0569237
3 6 100 23 0.0569045
4 6 100 23 0.0287528
5 6 100 23 0.0633652
6 6 100 23 0.257043
7 6 100 23 0.0419433
8 6 100 23 0.142683
9 6 100 23 0.114376
10 6 100 23 0.0921809
11 6 100 23 0.0590332
12 6 100 23 0.0569021
13 6 100 23 1.33486e-06
15 6 100 23 0.0284517
16 6 100 23 8.27774e-07
17 6 100 23 0.000192989
20 6 100 23 1.26688e-06
21 6 100 23 8.9327e-06
22 6 100 23 0.000403422
1 7 100 23 0.0380687
2 7 100 23 1.57916e-05
3 7 100 23 1.16101e-06
4 7 100 23 0.0380245
5 7 100 23 0.140872
6 7 100 23 0.114552
7 7 100 23 0.252552
8 7 100 23 0.0385865
9 7 100 23 0.118597
10 7 100 23 0.0715217
11 7 100 23 0.0380583
12 7 100 23 0.03808
13 7 100 23 1.7172e-05
14 7 100 23 0.0336221
15 7 100 23 0.0386644
16 7 100 23 0.0380576
18 7 100 23 2.70983e-06
19 7 100 23 0.000694174
21 7 100 23 1.16949e-05
1 8 100 23 4.37218e-06
2 8 100 23 4.44381e-05
4 8 100 23 0.0701502
5 8 100 23 0.0383297
6 8 100 23 0.135796
7 8 100 23 0.186574
8 8 100 23 0.175681
9 8 100 23 0.140534
10 8 100 23 0.112214
11 8 100 23 0.0351375
12 8 100 23 1.07708e-05
13 8 100 23 0.0351319
15 8 100 23 0.0351563
16 8 100 23 0.0351334
17 8 100 23 2.54557e-05
21 8 100 23 3.79053e-05
22 8 100 23 3.89108e-05
1 9 100 23 0.0339468
2 9 100 23 1.37662e-05
4 9 100 23 0.000262993
5 9 100 23 5.41214e-07
6 9 100 23 0.0361795
7 9 100 23 0.0268222
8 9 100 23 0.212349
9 9 100 23 0.147355
10 9 100 23 0.174814
11 9 100 23 0.0802894
12 9 100 23 0.0699525
13 9 100 23 0.0421735
14 9 100 23 0.105163
15 9 100 23 6.30918e-06
16 9 100 23 4.04102e-05
17 9 100 23 0.0699939
18 9 100 23 0.000518594
19 9 100 23 4.74787e-05
20 9 100 23 9.42635e-06
21 9 100 23 3.67542e-05
22 9 100 23 2.52149e-05
1 10 100 23 1.35196e-06
2 10 100 23 7.86481e-06
3 10 100 23 0.0280293
4 10 100 23 2.6888e-05
5 10 100 23 0.000480289
6 10 100 23 0.00046601
7 10 100 23 0.112124
8 10 100 23 0.0280302
9 10 100 23 0.137423
10 10 100 23 0.111592
11 10 100 23 0.188917
12 10 100 23 0.0846949
13 10 100 23 0.0841764
14 10 100 23 0.0280797
15 10 100 23 0.111864
16 10 100 23 0.028022
18 10 100 23 0.0280295
19 10 100 23 0.0280302
20 10 100 23 5.36458e-06
2 11 100 23 3.39044e-05
3 11 100 23 0.00010706
5 11 100 23 3.98649e-07
6 11 100 23 0.00342692
7 11 100 23 0.0216801
8 11 100 23 0.0369555
9 11 100 23 0.0625104
10 11 100 23 0.155919
11 11 100 23 0.155871
12 11 100 23 0.188068
13 11 100 23 0.125364
14 11 100 23 0.124275
15 11 100 23 0.0312497
16 11 100 23 0.0621145
17 11 100 23 0.000320337
