地上 地上 1.0000000
散射 散乱 1.0000000
～ 〜 1.0000000
国际 国際 1.0000000
问题 関する 0.0189983
问题 問題 0.9765798
问题 か 0.0796422
净化 浄化 1.0000000
混合 混合 1.0000000
压缩 圧縮 1.0000000
肠体 腸 1.0000000
到 最 1.0000000
到 を 0.0125994
到 は 0.0044412
到 れて 0.1338176
到 し 0.0319953
到 さ 0.0201884
ＮＴＴ ＮＴＴ 1.0000000
夏季 夏季 1.0000000
管理 を 0.0031498
管理 ， 0.0005817
管理 管理 1.0000000
态氮 硝酸態窒素 1.0000000
扩大 拡大 1.0000000
政策 政策 1.0000000
出现 出現 1.0000000
任意 任意の 1.0000000
构筑 構築 0.9943340
以下 以下 1.0000000
１００ １００ 1.0000000
深 深い 1.0000000
蚀刻 エッチング 1.0000000
恶臭 悪臭 1.0000000
额定 定格 1.0000000
不同 異なる 1.0000000
个体 個体 0.9130146
河川 河川 1.0000000
大型 大型 1.0000000
补充 補完 1.0000000
清洗 洗浄 1.0000000
可信 信頼 0.9974851
地 類 0.0166229
地 して 0.0321724
地 その 0.0513180
地 各 0.0283331
地 した 0.0139405
地 データ 0.1158812
地 地 0.9913619
地 ついて 0.0124465
地 この 0.0119243
直接 直接 1.0000000
数据 データ 0.8647515
燃烧 燃焼 1.0000000
ＳＴＲＡＩＧＨＴ ＳＴＲＡＩＧＨＴ 1.0000000
。 。 0.9999586
计划 計画 1.0000000
配方 レシピ 1.0000000
物质 物質 0.9947701
处理 処理 0.9772500
落叶 が 0.0321440
流入 も 0.0622318
流入 する 0.0261907
熔化为平行于 平行 1.0000000
规定 水道 1.0000000
海洋 海洋 1.0000000
目的 目的 1.0000000
植物 は 0.0284974
植物 植物 0.9986302
影响 影響 1.0000000
必要 いく 0.9814594
必要 必要 1.0000000
必要 この 0.3005757
必要 つ 0.8436222
普遍 指数 1.0000000
试料 試料 1.0000000
尾气 排ガス 1.0000000
政府 政府 1.0000000
保证 保証 1.0000000
劝告 勧告 1.0000000
针对 ついて 0.3978996
针对 その 0.0179473
燃料 燃料 1.0000000
出 明らかに 0.9611140
出 各 0.3172249
出 結果 0.0052683
出 この 0.0120614
出 その 0.2781828
削减 削減 1.0000000
过滤 ろ過 1.0000000
二恶英类 ダイオキシン 1.0000000
所 ％ 0.5678028
所 いる 0.1004931
探针 プローブ 1.0000000
二氧化碳 に 0.0193526
） ） 0.2646926
） が 0.0244294
各 ため 0.0061377
各 明らかに 0.0388860
各 各 0.6320667
各 さ 0.0555182
各 いる 0.1246772
各 的 0.4249131
直线 直線 1.0000000
经验 経験 0.8429292
输入 入力 1.0000000
印度 インド 1.0000000
表现 表現 1.0000000
法 法 1.0000000
重 重 1.0000000
有机 残留 1.0000000
地形 地形 1.0000000
已 基 1.0000000
客观 客観 1.0000000
宍道湖 宍道 1.0000000
阶段 段階 1.0000000
转换 転換 1.0000000
具有 ため 0.3052755
具有 を 0.0049498
具有 示唆 0.5811258
具有 から 0.0489021
具有 さ 0.3082100
具有 に 0.0105559
电子 電子 1.0000000
与 の 0.0003696
与 である 0.0022625
与 ら 0.0514043
与 さ 0.0306191
与 で 0.0095035
与 と 0.0614505
与 やすい 0.0303300
与 ため 0.0277656
与 は 0.0344189
与 よる 0.0255045
与 再現 0.7662338
与 も 0.0703386
与 した 0.0241636
与 含 0.0007215
与 考え 0.0020449
与 れ 0.0333985
与 を 0.0130493
与 水 0.0024923
与 連携 0.2394366
与 から 0.0274743
与 これ 0.0027377
与 おける 0.1477912
与 に 0.0116115
与 特殊 0.2165746
与 関する 0.0040299
与 れる 0.4216418
与 持つ 0.0225113
与 なる 1.0000000
与 し 0.0329649
柴油 ディーゼル 1.0000000
因 ため 0.0194359
因 ない 0.0170092
于 は 0.0188749
于 発生 0.1409938
于 れ 0.0242494
膜 膜 1.0000000
利用 なら 0.0249493
利用 する 0.0586123
利用 利用 0.6082027
利用 ついて 0.2411513
试验 試験 0.7677995
试验 溶出 1.0000000
带 帯 1.0000000
可 れた 0.3287381
为了 間 0.2189155
为了 ため 0.0917726
为了 して 0.0041322
为了 的 0.5121720
ＯＥＣＤ ＯＥＣＤ 1.0000000
１６ １６ 1.0000000
第４ 低い 0.9508716
第４ ４ 0.4375000
Ｃａｍｐｙｌｏｂａｃｔｅｒ Ｃａｍｐｙｌｏｂａｃｔｅｒ 1.0000000
来 おいて 0.1212415
来 は 0.0129534
来 利用 0.0206736
来 いる 0.0197229
平衡 平衡 1.0000000
平衡 多 1.0000000
平衡 ・ 0.7961165
Ｎ２Ｏ Ｏ 1.0000000
表层 表層 1.0000000
反应 反応 1.0000000
在 の 0.0096095
在 して 0.0203660
在 ら 0.0071489
在 評価 0.0081590
在 いう 0.0026966
在 られる 0.0012341
在 で 0.8522038
在 と 0.0836013
在 こと 0.0051195
在 ため 0.0132983
在 は 0.0547742
在 部分 0.1153671
在 再現 0.2337662
在 物質 0.0008891
在 した 0.0334572
在 中 0.0074586
在 れ 0.0161663
在 が 0.1317904
在 を 0.0179991
在 する 0.0050692
在 内 0.0068804
在 から 0.0075316
在 や 0.0581114
在 信頼 0.0003385
在 おける 0.0224900
在 に 0.1854328
在 種 0.0152672
在 ， 0.0142511
情况 結果 0.0205635
情况 中 0.9419890
进行 調査 0.0012629
进行 して 0.0383707
进行 多様 0.0171244
进行 いう 0.0186517
进行 実態 0.4942529
进行 で 0.0275274
进行 その 0.0117779
进行 は 0.0310881
进行 部分 0.1367989
进行 行った 0.0461373
进行 地 0.0086381
进行 れ 0.0037307
进行 を 0.0131993
进行 海 1.0000000
进行 する 0.0041187
进行 から 0.0230190
进行 取り 0.6428571
进行 に 0.0411682
进行 行う 1.0000000
进行 供 1.0000000
进行 し 0.1049060
进行 − 0.2247839
进行 ついて 0.0322832
≧Ｗ ≧ 1.0000000
硬化 硬化 1.0000000
神经 神経 1.0000000
再 除去 0.9390244
再 から 0.0117747
医院 病院 0.9978152
背景 背景 1.0000000
疑似 疑似 1.0000000
施工 工法 0.7665042
依存 依存 1.0000000
受体 受容 1.0000000
℃ ℃ 1.0000000
诊断 診断 1.0000000
把 電力 0.1250000
解说 解説 1.0000000
切割 切り 1.0000000
认识 を 0.0082496
拉伸 破断 1.0000000
火炉 格子 1.0000000
ＩＩ ＩＩ 1.0000000
地基 地盤 1.0000000
短 短 1.0000000
内 ） 0.0126222
内 や 0.0496368
内 内 0.9509092
内 で 0.0028674
内 に 0.0193526
实施 実施 1.0000000
Ｉ Ｉ 1.0000000
因为 した 0.0185874
１．０ １．０ 1.0000000
指令 指令 1.0000000
指令 月 1.0000000
灾害 災害 1.0000000
曙 アケボノ 1.0000000
容易 を 0.0085496
容易 やすい 0.9696700
治疗 治療 1.0000000
结构 構造 0.8792065
位置 ため 0.0847581
位置 した 0.0151797
位置 箇所 0.0004734
位置 こと 0.0215017
野生 野生 1.0000000
废水 廃 1.0000000
都 年 0.0290194
都 いずれ 1.0000000
全 全 1.0000000
ＤＲＬ ＤＲＬ 1.0000000
自我 自分 1.0000000
饮用 飲料 1.0000000
实验 実験 1.0000000
成本 コスト 1.0000000
接口 する 0.2455381
转变 する 0.0506917
淹 水没 1.0000000
压力 圧力 1.0000000
难以 の 0.0070223
难以 性 0.7062884
难以 ， 0.0124091
难以 と 0.1525545
ＳＯ ＳＯ 1.0000000
农业 した 0.0043371
农业 農業 0.9996693
农业 と 0.0042872
探讨 検討 1.0000000
品种 品種 1.0000000
品种 さ 0.1164199
结论 試験 0.2073219
检索 検索 1.0000000
尤度 尤度 1.0000000
海面 海面 1.0000000
３７ ３７ 1.0000000
行驶 走行 1.0000000
ＥＤＩ ＥＤＩ 1.0000000
原因 原因 1.0000000
市场 市場 1.0000000
释放 放出 1.0000000
底质 底 1.0000000
地区 地域 0.1631610
水蒸气 水蒸気 1.0000000
外部 外部 1.0000000
能 ３ 0.0667025
种子 種子 1.0000000
统计 統計 1.0000000
１５ １５ 1.0000000
广泛 広く 1.0000000
种 して 0.0020661
种 種類 1.0000000
种 グループ 1.0000000
种 と 0.0450161
种 性 0.0277373
种 よる 0.0117713
种 した 0.0991326
种 持つ 0.3226613
种 多く 0.5919583
种 種 0.9847328
以内 以内 1.0000000
　ａｎｄ ａｎｄ 1.0000000
发 エンジン 1.0000000
放电 放電 1.0000000
障碍 障害 1.0000000
确立 確立 1.0000000
原生 原形 1.0000000
动向 動向 1.0000000
是 もの 0.0686181
是 して 0.0061983
是 である 0.0143149
是 と 0.0021436
是 さ 0.0376851
是 か 0.2921635
是 は 0.0525537
是 も 0.0257511
是 した 0.0176580
是 水 0.0039046
是 から 0.0218521
是 いく 0.0131825
是 ある 0.0310421
是 つ 0.0755599
是 れる 0.0399787
是 し 0.0108590
是 ， 0.0008725
是 この 0.0208333
ＩＩＩ ＩＩＩ 1.0000000
评价 評価 0.7741281
１ データ 0.0193673
１ １ 0.6544381
１ ついて 0.1590821
责任 責任 1.0000000
分布 分布 1.0000000
举出 挙げた 1.0000000
拥有 持つ 0.5532766
纤维 繊維 1.0000000
低 低い 0.0491284
低 低 1.0000000
较 多く 0.0923306
６７ ６７ 1.0000000
导管 導管 1.0000000
导管 が 0.0141434
值 値 0.9987032
确认 確認 1.0000000
容许 許容 1.0000000
品质 品質 1.0000000
特定 特定 1.0000000
观察 観察 1.0000000
２００３年 ２００３ 1.0000000
绝对 絶対 1.0000000
因此 ため 0.0510010
因此 ％ 0.0326323
因此 いる 0.0098615
叙述 述べた 0.2290582
堆肥 堆肥 1.0000000
部分 ため 0.0102294
部分 は 0.0162842
部分 部分 0.4710442
部分 から 0.5097062
部分 低温 1.0000000
部分 さ 0.0259085
部分 一部 0.4023576
初期 初期 1.0000000
制成 した 0.0216853
超声波 音波 1.0000000
杂交 の 0.0067759
合理 合理 1.0000000
用途 効用 1.0000000
断片 断片 1.0000000
断片 ０ 0.9856345
分蘖 分げつ 1.0000000
小组 人柄 1.0000000
管道 既設 1.0000000
程度 度 1.0000000
遗传 を 0.0082496
法律 関連 1.0000000
小 は 0.0055514
小 小さく 1.0000000
这 を 0.0035998
这 有する 1.0000000
这 性 0.0011399
这 である 0.0060479
这 から 0.0037127
这 的な 0.0546164
这 さ 0.0353297
这 考え 0.0019086
这 分野 0.1418410
这 この 0.0984101
以及 および 0.1327894
以及 結果 0.0056082
面积 面積 0.4028921
抑制 抑制 1.0000000
区域 区域 1.0000000
发病 発症 1.0000000
ｍＥＲａ ｍＥＲａ 1.0000000
储存 貯蔵 1.0000000
工学 工学 1.0000000
（ ） 0.7176524
（ （ 1.0000000
距离 距離 1.0000000
易 易い 1.0000000
社会 社会 1.0000000
对策 対策 0.4618227
盐类 塩 1.0000000
论文 論文 1.0000000
日德 独 1.0000000
效率 基づき 1.0000000
亚洲 アジア 1.0000000
防虫 防虫 1.0000000
从 おいて 0.2906563
从 は 0.0088823
从 示した 0.0898837
从 から 0.0208974
从 子 1.0000000
从 見る 1.0000000
从 年 0.2239644
从 いる 0.0248885
垂直 鉛直 1.0000000
第１ 第 1.0000000
家庭 家庭 1.0000000
１４ １４ 1.0000000
患者 患者 1.0000000
总称 総称 1.0000000
盐 硝酸 1.0000000
需求 需要 1.0000000
添加 添加 1.0000000
地域 地域 0.0500170
地域 生産 0.5171583
ＣＯ ＣＯ 1.0000000
城市 都市 1.0000000
信息 情報 1.0000000
数量 場所 1.0000000
聚合物 合体 1.0000000
着生 着生 1.0000000
工业 工業 1.0000000
应用 事例 1.0000000
应用 へ 1.0000000
应用 応用 1.0000000
水平 微 1.0000000
水平 レベル 1.0000000
栽植 植栽 1.0000000
媒介 メディア 1.0000000
提取 抽出 1.0000000
文件 ファイル 1.0000000
硫酸 硫酸 1.0000000
住宅 住宅 1.0000000
日本 日本 1.0000000
所有 すべて 1.0000000
存储 ストレージ 1.0000000
最新 最新 1.0000000
区 区 1.0000000
流失 流出 0.9968925
流失 生じた 0.9697120
报告 報告 1.0000000
联系 つながり 1.0000000
事业 事業 1.0000000
构成 の 0.0067759
构成 であり 1.0000000
构成 構成 1.0000000
使用 ネットワーク 0.0084712
使用 である 0.0089196
使用 して 0.0221370
使用 利用 0.1310437
使用 こと 0.1576792
使用 は 0.0033309
使用 性 0.0078526
使用 よる 0.0333520
使用 酸素 1.0000000
使用 より 0.1192931
使用 用いて 1.0000000
使用 する 0.1058190
使用 関する 0.0293610
使用 有機 0.0957854
使用 用いた 0.2938129
使用 触媒 1.0000000
使用 適用 1.0000000
使用 行い 0.0415348
２００５年 ２００５ 1.0000000
稻草 藁 1.0000000
水质 改正 1.0000000
水质 水質 1.0000000
明确 間 0.0102144
中国 中国 1.0000000
合计 合計 1.0000000
电视机 テレビ 1.0000000
表面 表面 1.0000000
遇害 その後 1.0000000
液化 液化 1.0000000
养殖 養殖 1.0000000
型 地区 1.0000000
型 型 0.4246575
型 導入 0.9988014
努力 努力 1.0000000
叶 有意で 1.0000000
叶 葉 0.8562122
噪音 騒音 1.0000000
回交 戻し 1.0000000
可能 可能 1.0000000
可能 ある 0.0392778
可能 利用 0.0350117
可能 で 0.0110601
测试 試した 1.0000000
菌种 推察 1.0000000
根据 よって 0.2188557
根据 ら 0.0211064
根据 基づいて 1.0000000
所得 所得 1.0000000
促进 促進 1.0000000
见解 知見 1.0000000
建筑 建築 1.0000000
早期 早期 1.0000000
ｇ ｍｌ 1.0000000
ＨＨＭＭ ＨＨＭＭ 1.0000000
它 地域 0.7491397
它 して 0.0299587
它 である 0.0118783
维持 維持 1.0000000
导出 導出 1.0000000
合成 合成 1.0000000
群体 集団 0.9718151
构造 構造 0.1207935
作物 作物 1.0000000
植体 リビング 0.5000000
例子 よる 0.0117713
软化 軟化 1.0000000
定义 定義 1.0000000
均 試験 0.0248786
产学 産学 1.0000000
稿 本稿 1.0000000
以上 以上 0.9051000
特殊 性 0.0007599
特殊 もの 0.0509409
特殊 この 0.1691338
特殊 特殊 0.7834254
方向 した 0.0157993
干物 乾物 1.0000000
样品 は 0.0133235
样品 サンプル 1.0000000
样品 性 0.0048762
属性 属性 1.0000000
式 式 1.0000000
插入 挿入 1.0000000
捕捉 補足 1.0000000
车辆 車両 1.0000000
卫生 衛生 1.0000000
ＮＶ ＮＶ 1.0000000
类型 タイプ 1.0000000
综合 総合 1.0000000
基因 遺伝子 1.0000000
茎 面積 0.5971079
９月 ９ 1.0000000
性 である 0.0024366
性 する 0.0158412
性 ら 0.0670638
性 さ 0.0629206
性 おける 0.3421687
性 こと 0.0812287
性 に 0.0724842
性 性 0.1143689
性 は 0.0210955
性 よる 0.0434417
性 より 0.0530191
人工 人工 1.0000000
； 物質 0.0040270
课题 ･ 0.9969548
世界 世界 1.0000000
荷尔蒙 蛍光 1.0000000
生物 ついて 0.0058343
生物 バイオマス 0.8311445
生物 生物 1.0000000
段 段 1.0000000
装置 装置 1.0000000
水稻 水稲 1.0000000
断 径 1.0000000
而 いる 0.0096267
而 が 0.0241080
而 ない 0.1394755
高 高く 0.6326531
高 化 0.0232237
高 性 0.0314736
高 の 0.0036959
高 と 0.0128617
高 高 0.5117374
项目 項目 1.0000000
项目 プログラム 1.0000000
重要 重要な 1.0000000
对于 おいて 0.2563854
对于 。 0.0000414
对于 示した 0.3130067
对于 ある 0.0421286
对于 ， 0.0020359
对于 か 0.1660988
对于 この 0.0308388
１０ 程度 1.0000000
１０ １０ 1.0000000
专家 家 1.0000000
电压 電圧 1.0000000
深度 深 1.0000000
绿化 緑化 1.0000000
关系 間 0.0269861
关系 関係 1.0000000
成果 成果 1.0000000
结果 結果 0.9635464
对象 対象 1.0000000
附着 付着 1.0000000
相比 も 0.0257511
相比 である 0.0024366
化学 化学 1.0000000
其他 他の 1.0000000
按照 れて 0.2483681
个 して 0.0100354
个 いく 0.0053581
个 ら 0.0602553
个 と 0.0300107
个 つ 0.0428432
个 した 0.0433705
个 し 0.0203607
个 ， 0.0026175
个 が 0.0160720
个 この 0.0268640
平均 平均 1.0000000
网络 ネットワーク 0.3146430
３ ３ 0.4825175
产生 して 0.0092975
产生 示した 0.5438844
产生 で 0.0049156
产生 と 0.0107181
产生 いる 0.0413243
产生 箇所 0.1095976
产生 こと 0.0102389
产生 ため 0.0502703
产生 ， 0.0026175
产生 ３ 0.0188273
方面 面 0.9357345
方面 利用 0.2050684
秸长 稈 1.0000000
第６ 時期 1.0000000
年度 年度 1.0000000
ＡＥＲＭＯＤ ＡＥＲＭＯＤ 1.0000000
形状 形状 1.0000000
存在 ある 0.0028508
存在 存在 0.9858044
存在 ， 0.0020359
存在 れ 0.1595310
数值 数値 1.0000000
降低 低減 1.0000000
２００４年 ２００４ 1.0000000
流域 流域 1.0000000
温室 温室 1.0000000
制度 制度 1.0000000
由 から 0.0170786
由 と 0.0064309
由 分野 0.0648536
由 このような 0.0207026
由 性 0.0031030
由 物 0.0069182
由 よる 0.0891256
由 した 0.0260223
医疗 医療 1.0000000
电位 電位 1.0000000
再生 方針 1.0000000
再生 よる 0.0126121
元素 元素 1.0000000
、 を 0.0013499
、 ２ 0.0071053
、 ミント 1.0000000
、 に 0.0021112
、 は 0.0314582
、 エネルギー 0.0126802
、 葉 0.1437878
、 問題 0.0048402
、 ， 0.0317984
、 ･ 0.0030452
、 が 0.0106075
长期 し 0.2858251
长期 長期 1.0000000
ｍ ｍ 1.0000000
存积型 貯留 1.0000000
苔类 コケ 1.0000000
题记类金刚石 標記 1.0000000
４００ ４００ 1.0000000
显示 の 0.0003696
显示 示した 0.0437081
培养 培養 1.0000000
１９８０ １９８０ 1.0000000
状况 状況 1.0000000
贸易 貿易 1.0000000
水域 水域 1.0000000
溪流 渓流 1.0000000
实测 実測 1.0000000
将 である 0.0032633
将 する 0.1039180
将 して 0.2882231
将 個体 0.0441567
将 さ 0.0329744
将 こと 0.0167235
将 関する 0.0069085
将 は 0.0088823
将 用いた 0.7061871
将 し 0.0067869
草种 草 1.0000000
年 年 0.4280365
年 られた 0.2486339
唯一 唯一 1.0000000
推测 推測 1.0000000
多样性 多様 0.9828756
多 ため 0.0051147
多 間 0.0245902
多 して 0.0138725
多 多く 0.3157111
多 この 0.0123355
反复 繰り返して 1.0000000
分离 分離 1.0000000
下水 下水 0.9940931
下水 られ 1.0000000
下水 求め 1.0000000
ＥＭ ＥＭ 1.0000000
负担 負担 1.0000000
密度 消毒 1.0000000
之间 籾 1.0000000
之间 間 0.2110971
作出 このような 0.9170640
试制 試作 1.0000000
文献 文献 1.0000000
人们 病院 0.0021848
发生 発生 0.5509317
作用 作用 1.0000000
作用 する 0.0028514
作用 機能 0.7991394
人 見 1.0000000
核素 放射性核種 1.0000000
１１ １１ 1.0000000
几乎 ほとんど 1.0000000
安装 取り付け 1.0000000
厂家 メーカー 1.0000000
比例 割合 1.0000000
中 で 0.0330165
中 いる 0.0469594
中 運用 1.0000000
中 は 0.2868246
中 部分 0.0223438
中 ３ 0.1904250
中 が 0.0045002
中 れ 0.0111920
中 おいて 0.1241513
中 ％ 0.0402466
中 から 0.0395672
中 存在 0.0141956
中 取り 0.3571429
中 に 0.0126671
中 箇所 0.0024924
中 この 0.0141173
并 根 0.0022857
并 れて 0.0699095
并 した 0.0027881
去除Ｈｇ 揮発 1.0000000
复合 複合 1.0000000
金属 ワイヤ 1.0000000
金属 金属 1.0000000
认为 られる 0.9328551
认为 と 0.0107181
认为 考え 0.8410888
引进 対策 0.5381773
引进 手法 0.6583271
分子 分子 1.0000000
台数 台 1.0000000
着 地域 0.0028837
着 も 0.0834526
着 し 0.0308319
着 さ 0.0201884
着 一部 0.5976424
着 この 0.0019189
群 群 1.0000000
现状 現状 1.0000000
循环 リサイクル 1.0000000
循环 循環 1.0000000
一 して 0.0044274
一 から 0.0037127
一 ある 0.1292366
一 さ 0.0403769
一 と 0.0075027
一 おける 0.0224900
一 れる 0.2212154
一 も 0.0133524
一 した 0.0433705
一 示唆 0.4188742
一 し 0.0013574
一 この 0.0153509
照射 を 0.0049498
迁移 遷移 1.0000000
时间 時間 0.9845155
时间 計算 0.0389552
时间 し 0.3294551
其次 次に 1.0000000
超滤 限 1.0000000
风速 風速 1.0000000
提高 約 1.0000000
提高 緑 1.0000000
关于 ネットワーク 0.6768858
关于 して 0.0566706
关于 地域 0.0222701
关于 関する 0.7980426
关于 構築 0.0056660
关于 よる 0.0361547
关于 ついて 0.0169195
关于 より 0.0265096
关于 導入 0.0011986
树脂 樹脂 1.0000000
报道 報 1.0000000
次 次 1.0000000
次 で 0.0163854
和 である 0.0144019
和 して 0.0624262
和 機能 0.0068453
和 と 0.0171490
和 いる 0.1007279
和 こと 0.2204778
和 その 0.0196298
和 生産 0.0049167
和 は 0.0244264
和 機 1.0000000
和 ４ 0.3750000
和 よる 0.0689462
和 した 0.0086741
和 より 0.0309278
和 を 0.0157492
和 たち 1.0000000
和 ％ 0.0076142
和 する 0.1557715
和 や 0.0326877
和 関する 0.0290155
和 技術 0.0000853
和 行い 0.0443038
和 ない 0.0197023
支援 支援 1.0000000
加热 加熱 1.0000000
－ する 0.0073925
－ ２００１ 1.0000000
－ ・ 0.2038835
－ − 0.7730548
－ など 0.1582686
虽然 あった 0.9409524
壬基酚 ノニルフェノール 1.0000000
机能 機能 0.1940153
法人 法人 1.0000000
器 用 1.0000000
比 比 1.0000000
比 が 0.0202507
宽 幅 1.0000000
玉米 トウモロコシ 1.0000000
含 れる 0.0095949
含 含 0.9992785
等 れて 0.0078964
等 や 0.0101695
等 られる 0.0063635
等 方法 0.0154529
等 等 1.0000000
等 など 0.1375351
减少 なければ 1.0000000
资料 は 0.0207254
资料 よる 0.0983744
实现 実現 1.0000000
下 れた 0.5726405
下 条件 0.0753863
下 さ 0.0518170
下 より 0.0279823
分类 分類 1.0000000
数字 デジタル 1.0000000
水 を 0.0026999
水 ため 0.0339033
水 は 0.0203553
水 下水 0.0059069
水 も 0.0267048
水 水 0.9520645
水 さ 0.0417227
概要 概要 1.0000000
作业 作業 1.0000000
那样 ような 1.0000000
上 サイト 1.0000000
上 した 0.0346964
上 なった 0.6738848
上 で 0.0022940
上 られる 0.0068263
上 と 0.0250089
上 こと 0.0774744
物理 物理 1.0000000
这些 ら 0.1814468
这些 これ 0.9972623
改善 改善 1.0000000
路线 的に 0.9920255
废弃 有機 0.7126437
废弃 生産 0.3371463
废弃 廃棄 1.0000000
基板 基板 1.0000000
质 質 1.0000000
质 より 0.2650957
主茎 主 1.0000000
技术 関する 0.0040299
技术 よる 0.0184978
技术 する 0.0110888
技术 技術 0.9999147
技术 おける 0.1204819
从而 モデル 0.0077184
２４ ２４ 1.0000000
几 もの 0.0368751
群落 群落 1.0000000
画面 画面 1.0000000
自来水 策定 1.0000000
投资 投資 1.0000000
提供 提供 1.0000000
另外 また 1.0000000
产业 で 0.0040144
产业 産業 1.0000000
株 株 1.0000000
轮胎 タイヤ 1.0000000
能源 を 0.0107995
能源 エネルギー 0.9873198
能源 問題 0.0061602
经济 経済 1.0000000
率 率 1.0000000
受到 から 0.0369152
参考 参考 1.0000000
介绍 紹介 0.3315508
介绍 その 0.0905777
固定 固定 1.0000000
类 類 0.5515041
土壤 土壌 1.0000000
ＭＷ ＭＷ 1.0000000
后 後 0.7506702
后 使用 0.6794779
意识 意識 1.0000000
研究 関する 0.0282096
研究 する 0.0205935
研究 研究 1.0000000
随着 は 0.0055514
量 バイオマス 0.1688555
量 量 0.6352941
但是 しかし 1.0000000
但是 地域 0.0072941
但是 もの 0.3254134
但是 ある 0.6328793
变大 大きく 1.0000000
模型 モデル 0.8910929
模型 手法 0.1636794
模型 して 0.0044274
以往 従来 1.0000000
暴风 嵐 1.0000000
气温 気温 1.0000000
科学 科学 1.0000000
素材 素材 1.0000000
该 ため 0.0051147
该 間 0.0742749
该 する 0.0095047
该 この 0.1174616
污染 汚染 1.0000000
对 の 0.0003696
对 化 0.0087089
对 行った 0.1389485
对 同時に 1.0000000
对 ついて 0.0171140
对 ガス 0.0015827
联机 オンライン 1.0000000
多摩 多摩 1.0000000
点 点 1.0000000
整个 通じた 1.0000000
大肠 大腸 1.0000000
文字 文字 1.0000000
伤纸 傷め 1.0000000
前滨 浜 1.0000000
疗法 療法 1.0000000
连续 連続 1.0000000
开发 開発 1.0000000
当 して 0.0118064
差别 差 0.1660784
主要 主として 1.0000000
薄 など 0.4225178
酰胺 アミド 1.0000000
混入 混入 1.0000000
２ ５ 0.0198455
２ ２ 0.8230263
２ 発生 0.3080745
２ １ 0.1574803
２ 差 0.1367929
以 を 0.0022499
以 ） 0.0050329
以 よる 0.0196188
以 した 0.0201363
以 ら 0.2662128
以 と 0.0200071
以 おける 0.1807229
水鸟 水鳥 1.0000000
被 を 0.0013499
被 類 0.0598424
被 ％ 0.0543872
被 差 0.0735476
被 いる 0.0410895
被 れて 0.5226363
被 い 0.0336134
被 した 0.0037175
被 ， 0.0020359
被 ない 0.2324592
层 層 1.0000000
层 階 1.0000000
可以 を 0.0182991
可以 から 0.0361727
可以 水 0.0254493
可以 と 0.0050018
可以 １ 0.0075161
可以 られる 0.0527209
可以 に 0.0073892
可以 こと 0.1764505
可以 れる 0.3075693
可以 ため 0.1456963
可以 流出 0.0022586
可以 した 0.0151797
可以 が 0.0183221
液体 絡 1.0000000
学 および 0.1644059
核心 よる 0.3730381
核心 核 1.0000000
理念 理念 1.0000000
成 ため 0.1217302
６００ ６００ 1.0000000
金枪鱼 マグロ 1.0000000
文 述べた 0.2477520
文 このような 0.0622334
ｎｍ ｎｍ 1.0000000
条件 条件 0.9246137
耐性 耐性 1.0000000
及时 タイミング 1.0000000
能力 能力 1.0000000
气体 を 0.0140993
气体 も 0.0166905
气体 ガス 0.9984173
设置 設置 1.0000000
设施 施設 1.0000000
模拟 シミュレーション 1.0000000
模拟 車 1.0000000
击穿 絶縁 1.0000000
实用 実用 1.0000000
１９９８年 １９９８ 1.0000000
分析 分析 1.0000000
分析 解析 1.0000000
公式 電力 0.8750000
预订 外注 1.0000000
比较 比較 1.0000000
态 間 0.2926860
生活 生活 1.0000000
得到 られた 0.7513661
单一 単一 1.0000000
将来 将来 1.0000000
煤 鉱山 1.0000000
矩阵 マトリクス 1.0000000
通信 通信 1.0000000
营养 栄養 1.0000000
Ｅ ラーニング 1.0000000
作为 もの 0.0938985
作为 して 0.0110685
作为 か 0.4620954
作为 個体 0.0428287
作为 分野 0.0556485
作为 つ 0.0116845
作为 れた 0.0986214
作为 問題 0.0063447
作为 この 0.1633772
作为 使用 0.3205221
高温 高温 1.0000000
劳动 労働 1.0000000
碳酸 炭酸 1.0000000
掌握 把握 1.0000000
化 ため 0.0122753
化 は 0.0166543
化 化 0.7865635
化 である 0.9209851
化 して 0.0244982
化 から 0.1123369
化 より 0.0173785
合作 地域 0.0052343
合作 は 0.0177646
合作 生産 0.1272326
合作 から 0.0107139
述 紹介 0.6684492
小时 １ 0.1109520
小时 後 0.2493298
胸高 胸 1.0000000
沸石 ゼオライト 1.0000000
覆盖 リビング 0.5000000
指定 指定 1.0000000
我们 から 0.0014851
我们 行った 0.7483906
原料 原料 1.0000000
显微 顕微 1.0000000
模块 で 0.0034409
预测 予測 1.0000000
生产 性 0.0576278
生产 化 0.0940006
生产 と 0.0289389
生产 高 0.4172074
的 を 0.7549123
的 の 0.7619810
的 Ｃ 1.0000000
的 する 0.0058084
的 消費 1.0000000
的 で 0.0007373
的 と 0.0664523
的 に 0.1608023
的 酸化 1.0000000
的 　 0.0006605
的 排出 1.0000000
的 − 0.0021614
的 ， 0.1817741
的 が 0.1118611
没有 ２ 0.0039474
没有 ％ 0.0326323
没有 ある 0.0098194
没有 差 0.4984260
没有 ず 1.0000000
没有 ため 0.0106678
没有 高く 0.3673469
没有 い 0.9663866
没有 ない 0.4629341
没有 が 0.0028930
设计 設計 1.0000000
投入 投入 1.0000000
了 調査 0.0000541
了 面 0.0642655
了 して 0.0088548
了 ら 0.0005106
了 で 0.0071276
了 さ 0.0265814
了 いる 0.0697347
了 よる 0.0266256
了 物質 0.0003138
了 ３ 0.0753093
了 が 0.2754741
了 する 0.0044355
了 示した 0.0095171
了 水 0.0014954
了 できる 0.0029230
了 １ 0.0187903
了 おける 0.1253012
了 持つ 0.1015508
了 場合 0.7619048
了 類 0.0033782
了 実態 0.5057471
了 と 0.0353698
了 的に 0.0079745
了 は 0.0581051
了 性 0.0013299
了 も 0.0085837
了 した 0.3664808
了 部 0.8742515
了 素 1.0000000
了 を 0.0071996
了 に 0.0538353
了 ｇ 1.0000000
了 ついて 0.0165305
设备 設備 1.0000000
容积 容積 1.0000000
头部 頭部 1.0000000
负荷 負荷 1.0000000
空气 空気 1.0000000
嗅觉 きゅう覚 1.0000000
变暖 温暖 1.0000000
环状 環状 1.0000000
成功 成功 1.0000000
１９８５年 １９８５ 1.0000000
＞ ＞ 1.0000000
第３ 有意な 1.0000000
风轮机 風車 1.0000000
模式 モデル 0.1011886
频度 頻度 1.0000000
必须 なら 0.9750507
必须 ので 1.0000000
水银 水銀 1.0000000
方法 工法 0.2334958
方法 手法 0.1779935
方法 的な 0.9453836
方法 方法 0.9845471
栽培 栽培 1.0000000
ＨＳ ＨＳ 1.0000000
水系 海水 1.0000000
两 計 0.7663934
两 量 0.3647059
分别 それぞれ 1.0000000
住户 全国 1.0000000
以后 以降 1.0000000
有关 ついて 0.0515364
有关 処理 0.0227500
修饰 修飾 1.0000000
移动 移動 1.0000000
ＤＬＣ ＤＬＣ 1.0000000
力 力 1.0000000
ｃｍ ｃｍ 1.0000000
进口 輸入 1.0000000
根瘤 根 0.9977143
设定 設定 1.0000000
矢量 ベクトル 1.0000000
会 は 0.0222058
会 も 0.5729614
会 ある 0.0380108
会 から 0.0512358
会 に 0.0042224
Ｃｄ Ｃｄ 1.0000000
天 経過 1.0000000
访问 訪問 1.0000000
内容 内容 1.0000000
回收 回収 1.0000000
调合 配合 1.0000000
联合 述べた 0.3097492
表示 表示 1.0000000
依赖 経験 0.1570708
依赖 部分 0.2544460
坚持 コナラ 1.0000000
图 図 1.0000000
发现 ３ 0.0500269
另 一方 1.0000000
正确 よって 0.7721724
氮素 窒素 1.0000000
大学 大学 1.0000000
所以 を 0.0026999
所以 は 0.0055514
所以 水 0.0145939
所以 した 0.0204461
所以 なった 0.3261152
所以 時間 0.0154845
所以 考え 0.1549577
特征 特徴 1.0000000
生态 生態 1.0000000
保温 インキュベーション 1.0000000
谱 線形 1.0000000
电流 電流 1.0000000
制作 定め 1.0000000
适用 でき 1.0000000
适用 や 0.8256659
浅 浅い 1.0000000
相同 同じ 1.0000000
植被 植生 1.0000000
有害 有害 1.0000000
发电 発電 1.0000000
资源 資源 1.0000000
垃圾 ごみ 1.0000000
测定 測定 0.5264821
教育 教育 1.0000000
活性 活性 1.0000000
也 も 0.0941822
经营 経営 1.0000000
分解 分解 1.0000000
章 章 1.0000000
细菌 細菌 1.0000000
前田 前田 1.0000000
分散 分散 1.0000000
性能 性能 1.0000000
制造 油 1.0000000
部位 生じた 0.0302880
部位 箇所 0.8749070
适配器 ピア 1.0000000
ＳＣＦＧ ＳＣＦＧ 1.0000000
张力 を 0.0131993
通过 の 0.0107182
通过 から 0.0014851
通过 値 0.0012968
通过 できる 0.0352387
通过 と 0.0203644
通过 高 0.0680139
通过 的 0.0154916
通过 こと 0.0191126
通过 ため 0.0021920
通过 性 0.0099424
通过 化 0.0418855
通过 よって 0.0072069
通过 行った 0.0665236
通过 この 0.0047971
通过 ない 0.0191354
居室 シックハウス 1.0000000
基础 もの 0.4242539
击键 ストローク 1.0000000
５ ５ 0.9801545
细胞 細胞 1.0000000
２５０ ２５０ 1.0000000
很 は 0.0088823
很 植物 0.0013698
很 で 0.0014747
很 れ 0.7517321
， 濃度 0.0000478
， の 0.1923124
， さ 0.0111036
， と 0.2357985
， で 0.0045060
， 性 0.0062694
， 化 0.0456179
， は 0.0477424
， よって 0.0017650
， ４ 0.1875000
， 部 0.1257485
， が 0.3056895
， を 0.0446978
， する 0.0058084
， に 0.2079521
， し 0.0058173
， 年 0.0091271
， ついて 0.0040840
， ， 0.6998546
污泥 汚泥 1.0000000
ＤＮＡ ＤＮＡ 1.0000000
枯枝 リター 1.0000000
ＰＡＡ ＰＡＡ 1.0000000
为 して 0.0039847
为 型 0.4315068
为 で 0.0063903
为 と 0.0882458
为 いる 0.1256163
为 ため 0.0033611
为 性 0.0085492
为 は 0.0210955
为 した 0.0613383
为 ３ 0.0935987
为 が 0.0038573
为 ｍｍ 1.0000000
为 おいて 0.0669253
为 を 0.0094495
为 ％ 0.2646846
为 おける 0.0385542
为 箇所 0.0002705
为 に 0.1836735
为 ついて 0.0101128
为 ， 0.0471159
特性 特性 1.0000000
条约 条約 1.0000000
ＣＳＯＮｅｔ ＣＳＯＮｅｔ 1.0000000
材料 材 1.0000000
材料 材料 1.0000000
收支 収支 1.0000000
计算 各 0.0223752
计算 算出 1.0000000
计算 計算 0.9610448
计算 的 0.0474233
不 など 0.2816785
认证 認証 1.0000000
臭气 臭気 1.0000000
系数 係数 1.0000000
ＥＵ ＥＵ 1.0000000
调查 調査 0.9986830
调查 関する 0.0128958
调查 内 0.0422105
调查 １ 0.0026843
调查 と 0.0217935
调查 調べた 1.0000000
本 性 0.0169084
本 よる 0.0176570
本 した 0.0659851
本 ら 0.3448511
本 連携 0.7605634
本 し 0.0261780
本 ついて 0.0350058
本 述べた 0.2134406
费用 費用 1.0000000
显著 年 0.3098526
间隙 ギャップ 1.0000000
判断 評価 0.2162334
脆弱 弱点 1.0000000
计 計 0.2336066
虾 エビ 1.0000000
增加 増加 1.0000000
物 有機 0.1915709
物 除去 0.0609756
物 して 0.0092975
物 する 0.0068645
物 物 0.9759646
物 中 0.0505525
环境 環境 1.0000000
环境 で 0.0086023
排放 流出 0.0005062
以外 集団 0.0281849
以外 できる 0.9618383
以外 以外 1.0000000
口臭 あり 1.0000000
间 間 0.1412358
逐一 木 1.0000000
平成 平成 1.0000000
生成 生成 1.0000000
系统 システム 1.0000000
有 する 0.1152181
有 して 0.1946576
有 ある 0.0354767
有 ます 1.0000000
有 １ 0.0481389
有 に 0.0073892
有 こと 0.1068259
有 関する 0.0644790
有 は 0.0277572
有 生産 0.0135461
有 物 0.0171172
有 場合 0.2380952
有 ０ 0.0143655
有 より 0.4055965
有 が 0.0038573
配置 配置 1.0000000
测量 測定 0.4735179
超过 以上 0.0949000
艺术 アート 1.0000000
堆积 堆積 1.0000000
沙滩 干潟 1.0000000
扰乱 撹乱 1.0000000
粮食 食糧 1.0000000
厂 認め 1.0000000
相关 関する 0.0040299
相关 性 0.0017732
相关 よる 0.1135090
相关 した 0.0238538
相关 相関 1.0000000
穿透 挙動 1.0000000
　 　 0.9993395
麦子 コムギ 1.0000000
茎叶 新地 1.0000000
今后 今後 1.0000000
大气 大気 1.0000000
离子 イオン 1.0000000
使 する 0.0007393
２０１０年 ２０１０ 1.0000000
用 ２ 0.1067105
北海道 北海道 1.0000000
考虑 考慮 1.0000000
严重 深刻な 1.0000000
活动 活動 1.0000000
节 節 1.0000000
观测 観測 1.0000000
大 は 0.0033309
大 ２ 0.0252632
大 大きかった 1.0000000
大 差 0.1244873
大 ため池 1.0000000
介质 と 0.0064309
但 や 0.0101695
但 あった 0.0590476
但 ほど 1.0000000
自然 自然 1.0000000
高压 臨界 1.0000000
高压 高圧 1.0000000
全部 全て 1.0000000
领域 農業 0.0003307
领域 と 0.0021436
领域 分野 0.7376569
领域 つ 0.0262902
温度 温度 1.0000000
土建 古 1.0000000
建设 建設 1.0000000
变化 変化 1.0000000
同时 ながら 1.0000000
形态 形態 1.0000000
兵库县 兵庫 1.0000000
紧张 緊張 1.0000000
其 それ 1.0000000
其 である 0.0130531
其 して 0.1193920
其 する 0.0381244
其 結果 0.0050134
其 さ 0.0824361
其 高 0.0030414
其 こと 0.1071672
其 その 0.0967471
其 は 0.0122132
其 れて 0.0173721
其 行い 0.9141614
其 より 0.0541973
接触 接触 1.0000000
刺激 刺激 1.0000000
状态 状態 1.0000000
导致 は 0.0022206
导致 ある 0.0392778
导致 評価 0.0014796
导致 から 0.0144266
导致 いう 0.9786517
２００２年 ２００２ 1.0000000
向 道路 1.0000000
有效 有効 1.0000000
及 ２ 0.0086842
及 や 0.0135593
及 信頼 0.0021763
及 で 0.0039325
及 その 0.4113853
及 は 0.0099926
及 および 0.7028047
及 及び 1.0000000
及 問題 0.0060751
含量 含有 1.0000000
热点 スポット 1.0000000
检查 検査 1.0000000
保护 保全 1.0000000
革新 革新 1.0000000
蛋白 は 0.0088823
蛋白 ２ 0.0252632
蛋白 ケラチン 1.0000000
浓度 類 0.3686525
浓度 ひ素 1.0000000
浓度 濃度 0.9999522
时 を 0.0026999
时 おいて 0.1406402
时 して 0.0116588
时 型 0.1438356
时 差 0.0006677
时 いる 0.2852782
时 その 0.0224341
时 箇所 0.0122591
时 流出 0.0003427
时 は 0.0333087
时 し 0.1126624
时 ３ 0.0225928
时 ない 0.1092842
