总降 総 0.2500000
总降 ほぼ 0.5000000
进步 発展 0.2000000
分别 NULL 0.0005184
分别 それぞれ 0.6153846
分别 は 0.0038560
分别 が 0.0029369
分别 ， 0.0005574
分别 を 0.0025862
海拔 標高 1.0000000
重视 共同 0.2000000
重视 NULL 0.0005184
帐状物 テント 0.5000000
Ｙｏｋｏｙａｍａ Ｙｏｋｏｙａｍａ 0.5000000
０硫磺 的に 0.0212766
０硫磺 ゼロ 0.5000000
０硫磺 硫黄 0.2000000
二恶英量 殻 0.5000000
二恶英量 量 0.0172414
二恶英量 ダイオキシン 0.0500000
土地 土地 0.7500000
加大 伴い 0.2500000
加大 １．６ 0.3333333
其余 以外 0.1250000
其余 ら 0.0196078
拉伸 さも 0.5000000
拉伸 引張 1.0000000
拉伸 NULL 0.0005184
日本 ヤマトオサガニ 0.3333333
日本 日本 0.8437500
发生 アルデヒド 0.2500000
发生 と 0.0015699
发生 発生 0.3414634
发生 する 0.0034014
发生 生じた 0.2000000
发生 関わろう 0.3333333
发生 定着 0.2500000
发生 が 0.0088106
发生 いる 0.0052356
发生 NULL 0.0005184
发生 生じて 0.2500000
发生 わかる 0.3333333
发生 阻害 0.5000000
聚亚酰胺 ポリイミド 0.5000000
聚亚酰胺 性 0.0072464
聚亚酰胺 から 0.0070423
ＴＰＲ ＴＰＲ 1.0000000
直方 ヒストグラム 0.2000000
直方 単純 0.3333333
知事 知事 0.3333333
明确 の 0.0005322
明确 新 0.0714286
明确 に 0.0008591
明确 から 0.0070423
明确 マトリクス 0.3333333
明确 明確な 0.5000000
明确 NULL 0.0015552
明确 融雪 0.1666667
明确 より 0.0105263
明确 明確に 0.1428571
ｌａｅｖｉｇａｔｕｍ ｌａｅｖｉｇａｔｕｍ 0.5000000
ｌａｅｖｉｇａｔｕｍ Ｂｏｉｓｓ 0.5000000
风速 程度 0.0769231
风速 風速 0.5000000
方块 切り 0.2500000
方块 ブロック 0.3529412
非 要約 0.3333333
非 非 0.4615385
非 大雨 0.2500000
非 NULL 0.0005184
ＭＡＸ ” 0.5000000
ＭＡＸ ＭＡＸ 1.0000000
三卤代甲烷 トリハロメタン 0.1538462
三卤代甲烷 おける 0.0099010
绝对 的な 0.0200000
绝对 絶対 0.6666667
反比 自乗 0.3333333
程序 行う 0.0434783
程序 遺伝 0.2500000
程序 プログラム 0.3000000
程序 的 0.0147059
能源 エネルギー 0.6060606
圈内 圏 0.2500000
１４０ １４０ 1.0000000
红树林 マングローブ 0.5000000
红树林 林 0.0588235
当地 現地 0.3333333
当地 おける 0.0099010
熔渣 スラグ 0.5000000
熔渣 溶融 0.5000000
市场 市場 0.8750000
市场 浸透 0.3333333
市场 れて 0.0270270
市场 市販 0.3333333
市场 いる 0.0052356
增减 増減 0.5000000
增减 すり減り 1.0000000
增减 動的に 1.0000000
调制 担 0.2500000
调制 調 1.0000000
调制 製 0.2000000
调制 持して 1.0000000
财政 的に 0.0212766
财政 財政 0.5000000
位水 部位 0.3333333
位水 水 0.0142857
沉积物 底 0.1875000
沉积物 関する 0.0256410
沉积物 質 0.0810811
当初 当初 1.0000000
伊洛瓦底江 エヤワディーデルタ 0.3333333
白色度 白色 0.3333333
白色度 度 0.0526316
装置ＴＰＮＡ－ 装置 0.0263158
这 そのような 0.5000000
这 しまう 0.2000000
这 られて 0.1250000
这 このような 0.3750000
这 と 0.0031397
这 判断 1.0000000
这 究明 0.3333333
这 なぜなら 0.2500000
这 低減 0.0666667
这 こと 0.0110497
这 の 0.0031932
这 言う 0.3333333
这 NULL 0.0041472
这 この 0.2337662
这 比 0.1666667
上型 アップ 0.3333333
上型 型 0.0263158
塑化 塑 1.0000000
塑化 化 0.0253165
吸光 吸光 1.0000000
更换 老朽 0.3333333
更换 培地 0.5000000
更换 管 0.0625000
当中 調べる 1.0000000
当中 中 0.0172414
ＯＳ ＯＳ 1.0000000
ｍＥＲａ ｍＥＲａ 0.7500000
ｍＥＲａ 系 0.0555556
ｍＥＲａ おいて 0.0166667
～３５°Ｃ ３５ 0.5000000
～３５°Ｃ ° 0.3333333
～３５°Ｃ Ｃ 0.0714286
～３５°Ｃ 〜 0.0714286
探针 プローブ 0.6000000
聚酯 ポリエステル 1.0000000
前线 前線 1.0000000
透气率 率 0.0263158
透气率 透過 0.0769231
ＭＨｚ ＭＨｚ 1.0000000
、 主観 0.5000000
、 ならびに 0.4000000
、 与え 0.2500000
、 任意の 0.1111111
、 クラス 0.5000000
、 みん 1.0000000
、 ／ 0.0740741
、 おいて 0.0166667
、 平坦で 0.2500000
、 つながり 0.2000000
、 煤 1.0000000
、 」 0.0232558
、 小さく 0.1666667
、 変えて 0.5000000
、 グラインダー 1.0000000
、 や 0.0909091
、 ･ 0.3703704
、 ） 0.0162602
、 ・ 0.1785714
、 ベンゼン 0.3333333
、 ， 0.1750279
、 NULL 0.0015552
抽取法 手法 0.0370370
抽取法 抽出 0.1000000
升高 なった 0.0476190
抗震 耐震 0.5000000
６．２ ６．２ 1.0000000
品质 品質 0.6250000
２）式 ） 0.0040650
２）式 式 0.0555556
２）式 ２ 0.0117647
农地 農地 0.5000000
特定 特定 1.0000000
恩惠 豊かな 1.0000000
恩惠 暮らし 0.5000000
８．２ ＭＴＫ 0.1250000
８．２ ８．２ 1.0000000
甚至 誘導 0.3333333
ｐｐｂＰｂ ｐｐｂ 0.3333333
Ｃ Ｃ 0.1428571
一样 同様に 0.2000000
一样 と 0.0015699
膜 フィルム 0.5555556
膜 の 0.0010644
膜 膜 0.6818182
膜 シート 0.3333333
膜 薄膜 0.4000000
膜 で 0.0066667
膜 カーボン 0.5000000
抽出 抽出 0.3000000
ｄＢａ ｄＢａ 1.0000000
听觉 する 0.0034014
听觉 聴覚 1.0000000
０．８ ０．８ 1.0000000
横切 横切る 0.5000000
·ＳＯ ・ 0.0178571
面临 直面 1.0000000
面临 課題 0.0714286
面临 より 0.0105263
叶层 層 0.0476190
叶层 とき 0.1428571
叶层 経た 0.5000000
叶层 葉 0.0285714
挽回 ねらい 0.3333333
挽回 ， 0.0011148
挽回 即ち 0.3333333
朝鲜 朝鮮 1.0000000
ＫＣｌ ＫＣｌ 1.0000000
竞争 競争 1.0000000
竞争 競合 1.0000000
物分解·无害化 分解 0.0500000
物分解·无害化 物 0.0156250
物分解·无害化 化 0.0126582
物分解·无害化 無害 0.5000000
物分解·无害化 ・ 0.0178571
外力 できる 0.0204082
着 里 0.1428571
着 は 0.0064267
着 湿度 0.3333333
着 タッチ 0.1666667
着 進 0.5000000
着 病原 0.5000000
着 でき 0.1111111
着 NULL 0.0015552
着 ただ 0.3333333
着 ， 0.0005574
着 疑問 0.5000000
着 ひ素 0.1428571
着 して 0.0160643
着 初 0.2500000
着 きて 0.3333333
着 する 0.0034014
着 そして 0.1666667
着 いる 0.0209424
着 資質 0.2500000
着 かつ 0.1333333
　Ｖｉｅｗｅｒ Ｖｉｅｗｅｒ 0.6666667
大于 が 0.0029369
Ａ级 Ａ 0.1666667
Ａ级 級 0.2000000
Ａ级 ０００ 0.1666667
２００６年 始まる 0.2500000
导电 ・ 0.0178571
导电 溶 0.1250000
导电 導電 0.3333333
鉴于 簡便 0.2000000
事物 事務 0.2500000
目标 めざして 1.0000000
目标 ねらい 0.6666667
目标 目指して 0.5000000
目标 目標 1.0000000
目标 目指した 0.5000000
目标 目指し 1.0000000
观察 行った 0.0243902
观察 れた 0.0303030
观察 NULL 0.0005184
观察 インタフェース 0.5000000
观察 観察 1.0000000
观察 さ 0.0049020
知 知ら 0.1538462
知 いる 0.0104712
知 れて 0.0270270
知 素 0.0625000
池 池 1.0000000
池 プール 0.5000000
池 から 0.0070423
池 改修 0.2000000
池 造成 0.3333333
振幅 振幅 0.8000000
多胺酸 酸 0.1666667
多胺酸 ポリアミン 0.6666667
随机 ランダム 1.0000000
随机 である 0.0099010
１）无口臭 ませ 0.5000000
１）无口臭 ん 0.5000000
瓶 使い 0.2000000
瓶 ボトル 0.2857143
民国 中華民国 0.5000000
由于 重 0.0384615
由于 が 0.0029369
由于 燃焼 0.1666667
由于 これ 0.0181818
由于 伴って 0.2500000
由于 行く 1.0000000
由于 県民 0.1428571
由于 新鮮 0.2500000
由于 即ち 0.3333333
由于 原料 0.1428571
由于 Ｖ 0.2000000
由于 模擬 0.1666667
由于 こと 0.0110497
由于 シリンジ 0.2000000
由于 NULL 0.0067392
由于 大気 0.0769231
由于 ， 0.0005574
由于 カラマツ 0.1666667
由于 本 0.0344828
由于 は 0.0025707
由于 個々 0.1000000
由于 草地 0.2500000
ＫＨ ＫＨ 1.0000000
图－３ 図 0.0588235
Ｇｉｂｓｏｎ Ｇｉｂｓｏｎ 1.0000000
长疮 吹き出物 0.5000000
长疮 や 0.0090909
消费 して 0.0040161
消费 消費 0.4000000
消费 国 0.0833333
预订 外注 0.2000000
预订 大切である 0.2500000
人体 人体 1.0000000
人体 ヒト 0.1428571
人体 へ 0.0153846
对照 枯死 0.1666667
对照 に 0.0008591
对照 対照 0.6000000
灯 灯 0.3333333
灯 機 0.0909091
灯 ランプ 0.5000000
灯 点灯 0.2500000
水中 回帰 0.2000000
上 れて 0.0270270
上 良質 0.3333333
上 船上 0.2500000
上 上 0.3666667
上 ダウン 0.5000000
上 道路 0.2500000
上 付着 0.2500000
上 NULL 0.0010368
上 的 0.0147059
上 板 0.1666667
上 ない 0.0163934
上 水上 0.3333333
上 実際 0.1818182
上 の 0.0010644
上 反映 0.2500000
上 工具 0.2500000
上 サイト 0.1666667
上 アルミニウム 0.2500000
上 街 0.1666667
上 注目 0.1250000
上 商品 0.5000000
上 採取 0.1250000
上 いる 0.0104712
上 ＭＷｈ 0.5000000
上 に 0.0231959
上 用紙 0.3333333
上 的に 0.1063830
上 シート 0.3333333
上 等 0.0243902
上 へ 0.0461538
上 可能であり 0.5000000
上 もと 0.3333333
上 もつ 0.1428571
上 幅広い 1.0000000
上 オーバー 0.3333333
上 市販 0.3333333
上 侵入 0.3333333
上 が 0.0044053
上 装着 0.3333333
上 で 0.0088889
上 解消 0.1428571
上 中 0.0172414
上 推移 0.3333333
分解 試みた 0.3333333
分解 分解 0.9000000
指以 生息 0.1666667
水渠 経て 0.2000000
水渠 水路 0.4000000
大概 予期 0.5000000
住户 NULL 0.0005184
住户 世帯 0.2222222
住户 ごと 0.1111111
从属 従属 0.5000000
下风 風下 1.0000000
下风 の 0.0005322
硅笼 レート 0.5000000
东南 東南 1.0000000
有机 有機 0.6315789
差别 不 0.2000000
差别 が 0.0029369
差别 有意な 0.0588235
差别 られた 0.0172414
差别 無かった 1.0000000
差别 差 0.2000000
低频 周波 0.1428571
变得 なる 0.0208333
变得 豊かに 0.3333333
变得 衰退 0.2500000
变得 が 0.0014684
变得 なり 0.0526316
变得 冬 0.2500000
缓解 大気 0.0384615
细 細かく 0.5000000
细 真砂土 0.5000000
细 と 0.0015699
组 グループ 0.0588235
组 面 0.1538462
具备 動的な 0.2500000
具备 であり 0.0357143
具备 もつ 0.1428571
ｃｏｎｓｔｒｉｃｔｕｓ である 0.0099010
ｃｏｎｓｔｒｉｃｔｕｓ こと 0.0055249
ｃｏｎｓｔｒｉｃｔｕｓ ｃｏｎｓｔｒｉｃｔｕｓ 1.0000000
提案 提案 0.3913043
提案 以降 0.1428571
尼罗河 ナイル 1.0000000
鼠尾草 セージ 0.2500000
鼠尾草 られ 0.0588235
鼠尾草 認め 0.1000000
方针 述べた 0.0625000
方针 方針 1.0000000
方针 指針 0.6666667
告示 告示 0.5000000
噪音 おける 0.0099010
噪音 騒音 0.7000000
噪音 する 0.0034014
建材 の 0.0005322
建材 建材 1.0000000
现性 性 0.0072464
现性 良い 0.5000000
芯线径 対応 0.0666667
阳性率 率 0.0263158
阳性率 陽性 1.0000000
叶数 シュート 0.2500000
叶数 ， 0.0005574
叶数 できる 0.0204082
叶数 葉 0.1714286
叶数 数 0.0925926
在内 バルーン 0.2500000
在内 含み 0.5000000
在内 含む 0.2500000
在内 を 0.0008621
在内 が 0.0014684
总体 統括 0.3333333
分发 配布 1.0000000
促进 促進 0.7500000
促进 劣化 0.2222222
促进 で 0.0066667
促进 ある 0.0357143
海水 海水 0.5000000
蓄水 湛水 1.0000000
商业 商業 0.5000000
商业 観点 0.2500000
商业 ビジネス 0.2000000
流失 こと 0.0055249
流失 れる 0.0135135
流失 流出 0.2857143
流失 示唆 0.1111111
流失 伴う 0.5000000
储藏后 貯蔵 0.3750000
三角 エヤワディーデルタ 0.3333333
三角 デルタ 0.5000000
三角 に 0.0008591
通过 エチルメタンスルフォン 0.5000000
通过 する 0.0034014
通过 累 0.5000000
通过 神奈川 0.5000000
通过 別途 1.0000000
通过 嗅覚 0.5000000
通过 採取 0.0625000
通过 ＴｉｎｙＭＲＬ 0.3333333
通过 この 0.0389610
通过 に 0.0042955
通过 それ 0.0833333
通过 これ 0.0363636
通过 ビング 0.3333333
通过 自己 0.2500000
通过 よって 0.0444444
通过 ＵＳＢ 0.3333333
通过 ビジネス 0.2000000
通过 を 0.0051724
通过 考える 0.3333333
通过 本 0.0172414
通过 NULL 0.0108865
通过 ように 0.0500000
通过 環状 0.2500000
通过 拡張 0.2500000
通过 Ｋｄ 0.2000000
通过 マウス 1.0000000
通过 ヒト 0.1428571
通过 水蒸気 0.1111111
通过 プログラム 0.2000000
通过 ＮＨ 0.2222222
通过 水素 0.1111111
通过 挙げ 0.3333333
通过 周期 0.1111111
通过 集積 0.3333333
通过 キー 0.1111111
通过 が 0.0029369
通过 光 0.0333333
通过 多 0.0588235
通过 方程式 0.2000000
通过 コース 0.2000000
通过 スマート 0.5000000
通过 無線 0.2500000
通过 ＰＩＰ 0.1428571
通过 は 0.0167095
通过 幾何 0.5000000
通过 マイクロ 0.1666667
通过 試行 1.0000000
通过 Ｈｇ 0.1250000
通过 レーザ 0.2857143
通过 組み合わせ 0.2000000
通过 藻 0.2000000
通过 ， 0.0055741
通过 人工 0.0833333
通过 行い 0.1250000
通过 触媒 0.1111111
通过 基づいて 0.2000000
通过 後続 0.5000000
通过 農地 0.1666667
通过 よる 0.0180180
通过 こと 0.0110497
通过 オーバー 0.3333333
单一 単一 0.3750000
帮助 NULL 0.0005184
帮助 より 0.0105263
呼吸 呼吸 1.0000000
以ＬＥＤ ＬＥＤ 0.1250000
医药 用水 0.5000000
医药 品 0.3333333
医药 医薬 0.5000000
直属 直轄 0.5000000
入住数月 入居 0.5000000
爱媛县 愛媛 1.0000000
爱媛县 県 0.1333333
爱媛县 でも 0.0526316
提高 推力 0.1666667
提高 向上 0.5263158
提高 なく 0.0454545
提高 酸性 0.5000000
提高 ， 0.0044593
提高 で 0.0044444
提高 アップ 0.3333333
提高 高かった 0.2500000
提高 併用 0.5000000
提高 与 0.2500000
提高 ビジネス 0.2000000
提高 高まり 1.0000000
提高 した 0.0028169
Ｃ＆Ｄ Ｃ 0.3571429
Ｃ＆Ｄ ＆ 0.8333333
Ｃ＆Ｄ Ｄ 0.8333333
压下 常圧 0.5000000
压下 で 0.0022222
ｗｉｎｄｏｗｓ ｗｉｎｄｏｗｓ 1.0000000
前途 ゆくえ 1.0000000
前途 良質 0.3333333
环瑚精 リン 0.1428571
环瑚精 デキ 0.3333333
环瑚精 シクロ 0.3333333
环瑚精 スト 0.2000000
高压 NULL 0.0005184
高压 高圧 1.0000000
２和Ｎ２Ｏ Ｎ 0.1818182
２和Ｎ２Ｏ 及び 0.0327869
２和Ｎ２Ｏ Ｏ 0.3333333
２和Ｎ２Ｏ ２ 0.0117647
草龄 個々 0.1000000
草龄 齢 1.0000000
州 州 0.2000000
解说 NULL 0.0005184
解说 ついて 0.0288462
解说 解説 0.3846154
聚酰亚胺超滤膜 ろ過 0.0588235
聚酰亚胺超滤膜 膜 0.0454545
聚酰亚胺超滤膜 ポリイミド 0.5000000
聚酰亚胺超滤膜 限 0.1666667
聚酰亚胺超滤膜 外 0.0588235
要 保証 0.2500000
要 額 0.3333333
要 的に 0.0212766
要 NULL 0.0005184
要 増やす 1.0000000
要 が 0.0029369
要 十分な 1.0000000
要 今や 0.3333333
要 確保 0.1666667
要 比較 0.0416667
要 対して 0.0666667
要 は 0.0012853
不 過度の 1.0000000
不 不正 0.3333333
不 保全 0.0500000
不 NULL 0.0051840
不 ない 0.1967213
不 心 0.2500000
不 なく 0.0454545
不 単なる 1.0000000
不 は 0.0154242
不 不備 0.5000000
不 でき 0.1666667
不 ＬＥＤ 0.1250000
不 が 0.0073421
不 ２００ 0.2500000
不 に 0.0008591
不 不在 0.5000000
不 で 0.0066667
不 悪い 0.2500000
不 不慣れな 0.5000000
不 不 0.4000000
不 低かった 0.2500000
不 取ら 0.5000000
不 必要不可欠な 0.3333333
不 も 0.0080000
不 開削 0.2500000
不 一致 0.3333333
不 不能 0.3333333
不 ポリ乳酸 0.5000000
不 不明である 0.4000000
不 落ち葉 0.1111111
者 下村 1.0000000
者 者 0.4736842
者 ボランティア 0.5000000
者 NULL 0.0005184
者 両者 0.3333333
弱混合层 与えた 0.2500000
弱混合层 弱 0.5000000
不断 続出 0.3333333
不断 が 0.0014684
不断 して 0.0120482
不断 し 0.0125786
不断 導入 0.0555556
仍然 れ 0.0357143
仍然 潜在 0.2500000
仍然 残さ 0.3333333
仍然 力 0.0714286
无法 わかる 0.3333333
无法 点灯 0.2500000
无法 人 0.0909091
无法 でき 0.0555556
姿态 姿勢 0.3333333
轻度 口臭 0.1666667
轻度 ませ 0.5000000
合作 と 0.0015699
合作 共同 0.4000000
合作 協力 0.5000000
合作 超えて 0.5000000
合作 で 0.0022222
合作 連携 0.5714286
合作 NULL 0.0005184
合作 業種 0.4000000
确诊 認定 0.2000000
基板 基板 1.0000000
算法 アルゴリズム 0.7777778
水滨 水辺 1.0000000
外因 外 0.0588235
外因 因 0.5000000
用地 新たに 0.2500000
油压泵 ポンプ 1.0000000
油压泵 油圧 0.3333333
探求 して 0.0040161
探求 利用 0.0144928
机能 機能 0.3750000
机能 のみ 0.0666667
星期二 火 0.1666667
换气 換気 0.3333333
２２ ２２ 0.5000000
对人 ヒト 0.1428571
对人 で 0.0022222
对人 人 0.0909091
（ （α≦ 0.5000000
（ なって 0.0625000
（ NULL 0.0025920
（ 州 0.2000000
（ パブリケーション 0.3333333
（ 〈 1.0000000
（ かかって 1.0000000
（ （ 0.9854369
画面 画面 1.0000000
Ｓｏｆｔ Ｓｏｆｔ 1.0000000
各种 発酵 0.5000000
各种 活発 0.5000000
ＷＥＥＥ ＷＥＥＥ 0.6666667
小型 マイクロ 0.1666667
小型 小型 1.0000000
超级 スーパー 0.4000000
下方 下方 1.0000000
下方 直下 1.0000000
使得 NULL 0.0005184
使得 と 0.0015699
使得 なって 0.0625000
－ＤＲＳ ＤＲＳ 0.5000000
侧沟 側溝 1.0000000
水分 水分 1.0000000
武村 武 1.0000000
武村 村 0.5000000
绝缘 絶縁 0.1250000
绝缘 ため 0.0107527
管套 管 0.0937500
管套 さや 0.5000000
物理 物理 1.0000000
物理 的 0.0441176
不可 不可欠である 0.3333333
不可 不可欠に 0.3333333
不可 欠かせ 0.3333333
废水 NULL 0.0005184
废水 水 0.0571429
废水 安全な 0.3333333
废水 廃 0.5000000
Ｚａｎｔｅｄｅｓｃｈｉａ Ｚａｎｔｅｄｅｓｃｈｉａ 0.5000000
Ｚａｎｔｅｄｅｓｃｈｉａ 属 0.1666667
澳洲 ミント 0.3333333
豪雨 備えて 0.5000000
留下 コート 0.2500000
留下 テニス 0.5000000
盐 硝酸 0.5000000
盐 塩 0.1818182
学校 ･ 0.0185185
重氢 重 0.0384615
重氢 水素 0.2222222
引入 オオチカラ 0.0769231
引入 半日 1.0000000
引入 ごと 0.1111111
寻找 NULL 0.0005184
第３ 第 0.1818182
第３ ３ 0.1269841
Ｗ Ｗ 0.3333333
草类 セージ 0.2500000
草类 サルビア 0.3333333
草类 類 0.0188679
草类 属 0.1666667
监视 リング 0.3333333
监视 モニタ 0.6666667
监视 ず 0.0714286
监视 監視 0.4545455
ＨＳＩ さ 0.0049020
ＨＳＩ ＨＳＩ 0.5000000
ＨＳＩ れて 0.0135135
因果 因果 1.0000000
因果 与える 0.1250000
ＤＮＡ ＤＮＡ 0.8000000
１９８６ １９８６ 1.0000000
扩张 さ 0.0098039
扩张 拡張 0.5000000
远远 も 0.0080000
远远 コシヒカリ 0.2500000
远远 より 0.0210526
远远 大きく 0.0555556
等高 ハイ 1.0000000
等高 など 0.0169492
正在 試み 0.2000000
正在 に 0.0008591
正在 が 0.0058737
正在 ＣＡＬＰＵＦＦ 0.2500000
正在 いる 0.0157068
正在 NULL 0.0005184
正在 行って 0.1666667
正在 許容 0.2000000
正在 増えて 0.3333333
正在 名古屋 0.2500000
正在 は 0.0012853
地 コメツキガニ 0.2500000
地 視 0.3333333
地 的に 0.0638298
地 良く 0.5000000
地 に 0.0017182
地 湿地 0.3333333
地 から 0.0070423
地 長期 0.2500000
地 簡便に 0.2500000
地 ハビタット 0.6666667
地 組合わせて 1.0000000
地 冗長 0.1666667
地 上澄み 1.0000000
地 依拠 1.0000000
地 前半 0.2500000
地 確実に 0.5000000
地 休耕田 0.5000000
地 ように 0.0500000
地 各地 0.5000000
地 NULL 0.0025920
地 有効に 1.0000000
地 良好に 0.5000000
地 地 0.7500000
地 を 0.0017241
地 場 0.0833333
地 付けて 0.2500000
地 解体 0.0833333
涂抹 た 1.0000000
秒 秒 1.0000000
秒 かかる 1.0000000
゜５１′Ｎ ゜ 0.3333333
゜５１′Ｎ Ｎ 0.0909091
゜５１′Ｎ ′ 0.6666667
゜５１′Ｎ ５１ 1.0000000
需求 応じた 0.5000000
需求 需要 1.0000000
电子 電子 1.0000000
返回 戻る 1.0000000
追究 問わ 1.0000000
追究 こと 0.0055249
追究 れる 0.0135135
追究 も 0.0080000
追究 責任 0.2500000
之后 その後 0.2500000
之后 直後 1.0000000
之后 を 0.0008621
之后 後 0.2187500
明显 み 0.1666667
明显 有意 0.5000000
明显 近く 1.0000000
明显 明らかな 0.3333333
明显 有意な 0.2352941
明显 NULL 0.0015552
明显 有意に 1.0000000
明显 正 0.3076923
越境 越境 1.0000000
NULL 光 0.1000000
NULL システム 0.0243902
NULL 次の 0.2000000
NULL つける 1.0000000
NULL 管 0.1250000
NULL 線 0.2272727
NULL 測定 0.0517241
NULL 並びに 0.2500000
NULL 菌 0.1000000
NULL 融雪 0.1666667
NULL 期 0.0769231
NULL 潮 0.1428571
NULL 注入 0.1428571
NULL 別 0.2000000
NULL めまい 0.2500000
NULL 最終 0.3333333
NULL 流れ 0.1428571
NULL 読み 0.5000000
NULL 降雨 0.1333333
NULL のみ 0.2000000
NULL 用い 0.3333333
NULL 全 0.0370370
NULL られ 0.2941176
NULL 新地 0.4000000
NULL 分 0.2222222
NULL まで 0.2333333
NULL タイプ 0.1250000
NULL 地下茎 0.0909091
NULL しかし 0.0625000
NULL いる 0.2617801
NULL 要素 0.1111111
NULL 法 0.0526316
NULL コケ 0.1250000
NULL に 0.3135739
NULL この 0.0389610
NULL それ 0.2500000
NULL 論じた 0.6666667
NULL 土 0.0909091
NULL 工夫 1.0000000
NULL 由来 0.2307692
NULL 浸 0.5000000
NULL 損益 1.0000000
NULL 明らかに 0.3000000
NULL ダウンロード 1.0000000
NULL 変化 0.1071429
NULL 粒 0.0833333
NULL 取り組む 0.5000000
NULL み 0.1666667
NULL 電圧 0.0666667
NULL 生育 0.1666667
NULL 本 0.0517241
NULL それぞれ 0.0769231
NULL 関連 0.1538462
NULL 個体 0.0909091
NULL バランス 0.3333333
NULL 造 0.3333333
NULL スイッチ 0.2500000
NULL 実績 0.1428571
NULL 伴い 0.2500000
NULL 四 0.1666667
NULL 栄養 0.1428571
NULL 緩和 0.3333333
NULL ２ 0.0941176
NULL 照射 0.0833333
NULL 用いて 0.1724138
NULL 入 1.0000000
NULL ねば 0.8333333
NULL 目的 0.2631579
NULL 関して 0.1000000
NULL 雑木林 0.5000000
NULL 変更 0.3333333
NULL なら 0.6875000
NULL られる 0.3157895
NULL おら 0.5000000
NULL 補助 0.3333333
NULL 時 0.1000000
NULL 進め 0.5000000
NULL 合法 1.0000000
NULL 違い 0.1428571
NULL 定義 0.2000000
NULL も 0.2000000
NULL ら 0.0980392
NULL 付着 0.2500000
NULL ｗｅｂ 1.0000000
NULL 気 0.1428571
NULL 断片 0.2000000
NULL 塩化 0.1111111
NULL 作 0.2000000
NULL 回収 0.1000000
NULL 全て 0.1111111
NULL 対する 0.0714286
NULL 葉 0.0857143
NULL とき 0.1428571
NULL 排水 0.2500000
NULL できた 0.3333333
NULL 前 0.0555556
NULL ＣＴ 0.0909091
NULL 短縮 0.2000000
NULL 図ら 1.0000000
NULL 再 0.0384615
NULL 目 0.1000000
NULL せた 0.2500000
NULL 水蒸気 0.2222222
NULL 行なった 0.2000000
NULL キープ 1.0000000
NULL あり 0.3333333
NULL 月 0.1000000
NULL 有する 0.1666667
NULL 推測 0.1666667
NULL 幅 0.1111111
NULL 厳しく 1.0000000
NULL 産 0.5000000
NULL ＩＩ 0.1428571
NULL 以上 0.0357143
NULL 惹起 1.0000000
NULL られた 0.1379310
NULL 一般 0.1666667
NULL 固定 0.0769231
NULL 排出 0.0714286
NULL 一 0.0588235
NULL 発生 0.2195122
NULL 分割 0.5000000
NULL ともに 0.0769231
NULL 利 1.0000000
NULL Ｂ 0.5000000
NULL 増進 1.0000000
NULL ように 0.3500000
NULL 放流 0.1428571
NULL 挙げた 0.5000000
NULL 対して 0.2666667
NULL ６ 0.0434783
NULL 調査 0.0192308
NULL 組 0.1666667
NULL 領域 0.1111111
NULL 「 0.0238095
NULL 型 0.0789474
NULL 専門 0.1666667
NULL 除く 0.5000000
NULL 約 0.1052632
NULL 大きな 0.1428571
NULL 能 0.1250000
NULL れた 0.1818182
NULL 経 0.1250000
NULL 双方 0.5000000
NULL 低下 0.1000000
NULL 浄水 0.3333333
NULL つくる 1.0000000
NULL 誘導 0.3333333
NULL 検出 0.2727273
NULL ＳＣＦＧ 0.1250000
NULL 問題 0.0277778
NULL 制定 0.5000000
NULL 地域 0.0434783
NULL 程度 0.1538462
NULL 作成 0.1538462
NULL 事例 0.0909091
NULL 号 0.1250000
NULL 生じる 0.3333333
NULL きた 0.5000000
NULL これ 0.1818182
NULL 地盤 0.5000000
NULL 判定 0.2500000
NULL 使用 0.1052632
NULL 買わ 1.0000000
NULL 行う 0.4347826
NULL 硬 0.2500000
NULL 最大 0.0588235
NULL 　 0.0133333
NULL 積 0.1428571
NULL 供給 0.1428571
NULL 上昇 0.1250000
NULL 遷移 0.1250000
NULL 認めた 0.2000000
NULL 事 0.5000000
NULL 行った 0.2439024
NULL 模擬 0.1666667
NULL ･ 0.0370370
NULL 性質 0.1428571
NULL 示唆 0.4444444
NULL を 0.3077586
NULL ５．０ 1.0000000
NULL チャンバ 0.3333333
NULL でき 0.1666667
NULL 図る 0.3333333
NULL であり 0.2500000
NULL 柱 0.1000000
NULL 考える 0.1666667
NULL 存 0.1666667
NULL が 0.3392070
NULL 径 0.2000000
NULL 多 0.0588235
NULL 発足 1.0000000
NULL 子 0.2500000
NULL 位 0.1428571
NULL 関する 0.1282051
NULL 時点 0.2500000
NULL 収量 0.0555556
NULL ＣＯ 0.1000000
NULL 横切る 0.5000000
NULL 利用 0.1159420
NULL 有意な 0.1764706
NULL 有害 0.1000000
NULL 外 0.2352941
NULL 薬草 1.0000000
NULL 得る 0.4000000
NULL は 0.0835476
NULL ラベンダー 1.0000000
NULL 応用 0.1052632
NULL 転換 0.2000000
NULL 被ばく 1.0000000
NULL 解説 0.1538462
NULL 捉え 0.3333333
NULL 改善 0.1666667
NULL ほど 0.1428571
NULL 茎 0.1428571
NULL 水路 0.2000000
NULL する 0.1768707
NULL より 0.2105263
NULL 窒素 0.1379310
NULL 生体 0.1666667
NULL メンブレン 1.0000000
NULL 巻 0.5000000
NULL 形 0.0909091
NULL 従来 0.1000000
NULL 負 0.2500000
NULL デザイン 0.4000000
NULL 短 0.2000000
NULL 各国 0.3333333
NULL 同 0.1250000
NULL 構築 0.0952381
NULL おり 0.3076923
NULL 原因 0.1250000
NULL 低く 0.3333333
NULL 環境 0.0129032
NULL 重 0.0384615
NULL 行わ 0.6000000
NULL 挙げ 0.3333333
NULL 除去 0.1176471
NULL 既設 0.1111111
NULL 斜 0.2000000
NULL い 0.3333333
NULL 予想 0.3333333
NULL 交互に 1.0000000
NULL 高く 0.1111111
NULL 到達 0.3333333
NULL 溶解 0.0833333
NULL 含ま 0.1428571
NULL 直線 0.2500000
NULL 施 0.2000000
NULL ずつ 0.5000000
NULL つき 0.3333333
NULL 起こった 0.3333333
NULL 時間 0.0476190
NULL 示す 0.3913043
NULL 東京 0.1000000
NULL ？ 0.3333333
NULL 集め 1.0000000
NULL 用いる 0.1428571
NULL 規制 0.1000000
NULL 該当 1.0000000
NULL ネットワーク 0.0588235
NULL 表した 0.5000000
NULL 間 0.0204082
NULL 相手 0.3333333
NULL かね 1.0000000
NULL もの 0.2888889
NULL 一覧 0.5000000
NULL 下部 0.2000000
NULL 果たして 1.0000000
NULL せる 0.4210526
NULL 発芽 0.1666667
NULL 同じ 0.1000000
NULL 場 0.1250000
NULL 残留 0.1666667
NULL 示し 0.1428571
NULL 市 0.2000000
NULL 整って 1.0000000
NULL 設置 0.1666667
NULL 岡山 1.0000000
NULL 施行 0.2857143
NULL 確認 0.2000000
NULL 望ま 1.0000000
NULL 示さ 0.4000000
NULL 相違 0.2500000
NULL 全体 0.1000000
NULL 用いた 0.2500000
NULL 媒体 0.2500000
NULL 考えて 0.3333333
NULL 質 0.0270270
NULL 可能に 0.5000000
NULL 調べた 0.0666667
NULL 紹介 0.1538462
NULL および 0.0322581
NULL 見いださ 1.0000000
NULL 予測 0.1818182
NULL 概説 0.1428571
NULL 元 0.2500000
NULL 受け 0.5000000
NULL 流 0.2142857
NULL 例 0.0555556
NULL つ 0.1250000
NULL ／ 0.0740741
NULL ２０ 0.0769231
NULL 骨 1.0000000
NULL 負荷 0.0689655
NULL ｓ 0.1428571
NULL 細く 0.2000000
NULL 参考 0.1428571
NULL 解析 0.0357143
NULL 手動 1.0000000
NULL コスト 0.0769231
NULL ７ 0.0769231
NULL 報告 0.0952381
NULL 値 0.0612245
NULL 行って 0.3333333
NULL 推定 0.3750000
NULL 取り組み 0.1111111
NULL 歩合 0.5000000
NULL 図 0.0588235
NULL 水 0.0142857
NULL 二 0.1363636
NULL 示した 0.2083333
NULL 上記 0.1666667
NULL 初期 0.0909091
NULL 産業 0.1111111
NULL 思わ 0.3333333
NULL ハーブ 0.5000000
NULL あった 0.2000000
NULL して 0.3333333
NULL 進んで 0.3333333
NULL 試料 0.0800000
NULL いく 0.4285714
NULL キー 0.1111111
NULL 課題 0.0714286
NULL 放棄 0.3750000
NULL 行い 0.2500000
NULL ・ 0.0892857
NULL ＮＭＲ 0.3333333
NULL 乾物 0.1000000
NULL 区 0.1111111
NULL 品種 0.0689655
NULL 考察 0.1000000
NULL 生成 0.0769231
NULL 重要 0.1666667
NULL 相関 0.1612903
NULL 得 0.0454545
NULL 内包 0.5000000
NULL 修飾 0.3333333
NULL 取得 0.2000000
NULL 線形 0.5000000
NULL うる 1.0000000
NULL 追う 1.0000000
NULL 呈示 0.2000000
NULL 街 0.1666667
NULL 提供 0.1111111
NULL 熟 0.2000000
NULL 関わら 0.5000000
NULL 場所 0.1666667
NULL 板 0.3333333
NULL 中心 0.1428571
NULL 能力 0.1000000
NULL 形成 0.1000000
NULL 作業 0.0769231
NULL 対策 0.0312500
NULL ｐ 1.0000000
NULL なる 0.2291667
NULL で 0.1311111
NULL であった 0.2000000
NULL 分かった 0.7500000
NULL 中 0.0172414
NULL すれば 0.2500000
NULL である 0.1287129
NULL 火 0.1666667
NULL 義務付け 0.2000000
NULL 配ら 1.0000000
NULL ｍｓ 0.2000000
NULL 決定 0.0909091
NULL 個々 0.1000000
NULL 水産物 0.2500000
NULL と 0.2841444
NULL 汚水 0.2500000
NULL 化 0.0632911
NULL おける 0.0396040
NULL 価 0.2500000
NULL 向 0.1428571
NULL 率 0.0789474
NULL 的な 0.0400000
NULL 臭 0.1666667
NULL 完成 0.5000000
NULL ガス 0.0303030
NULL ここ 0.1052632
NULL 評価 0.0909091
NULL マニュアル 0.1428571
NULL 運用 0.2500000
NULL 必要な 0.1666667
NULL 推奨 1.0000000
NULL し 0.1635220
NULL ＹＡＧ 0.3333333
NULL 多く 0.0400000
NULL 刈 0.2000000
NULL 与えた 0.5000000
NULL 残 0.5000000
NULL 層 0.0952381
NULL 結実 0.3333333
NULL 無い 0.2500000
NULL 強化 0.2000000
NULL 推察 0.5000000
NULL 関係 0.0909091
NULL 沿って 1.0000000
NULL 求める 0.5000000
NULL 防ぐ 0.5000000
NULL 断面 0.2000000
NULL 量 0.0862069
NULL たい 0.1666667
NULL 傾向 0.0909091
NULL ヒストグラム 0.2000000
NULL 計算 0.1363636
NULL 学科 1.0000000
NULL られて 0.3750000
NULL ごく 1.0000000
NULL モデル 0.0200000
NULL 役割 0.1250000
NULL 大 0.0909091
NULL 認め 0.4000000
NULL 可能であり 0.5000000
NULL 高 0.0444444
NULL 配慮 0.1250000
NULL 地 0.0833333
NULL 繋がる 1.0000000
NULL 人 0.0909091
NULL 長 0.0555556
NULL 出現 0.2857143
NULL 方 0.2142857
NULL 基本 0.1111111
NULL 減少 0.0909091
NULL ストローク 0.2500000
NULL たち 0.5000000
NULL いえる 0.6666667
NULL ない 0.3442623
NULL 試みた 0.3333333
NULL 脱窒 1.0000000
NULL 昔 0.5000000
NULL した 0.0563380
NULL 度 0.1578947
NULL 蛍光 0.2000000
NULL 検討 0.0769231
NULL せ 0.4444444
NULL 配置 0.1111111
NULL 製造 0.1818182
NULL 林 0.1764706
NULL 可能 0.2142857
NULL 内 0.0298507
NULL 応じて 0.3333333
NULL 作製 0.2000000
NULL 製品 0.1250000
NULL 向上 0.1052632
NULL 強い 0.3333333
NULL 将来 0.1666667
NULL なければ 0.6000000
NULL （ 0.0048544
NULL 的であった 0.2500000
NULL 我々 0.2500000
NULL 外周 1.0000000
NULL 水素 0.1111111
NULL 対応 0.3333333
NULL 入居 0.5000000
NULL さ 0.3480392
NULL ひと 0.3333333
NULL 小 0.0833333
NULL いった 0.3750000
NULL ず 0.5000000
NULL 再生 0.0833333
NULL 説明 0.0769231
NULL なおした 1.0000000
NULL クロム 0.2500000
NULL 実証 0.2500000
NULL 再現 0.2500000
NULL 調べれば 1.0000000
NULL 表示 0.1428571
NULL 用 0.0869565
NULL から 0.0774648
NULL 開発 0.0344828
NULL わが国 1.0000000
NULL 者 0.0789474
NULL 先端 0.2500000
NULL 段階 0.0434783
NULL 他の 0.1250000
NULL ので 0.3000000
NULL いずれ 0.2000000
NULL いた 0.1875000
NULL 改良 0.2222222
NULL １ 0.1770833
NULL 協調 0.2000000
NULL 限 0.1666667
NULL 削減 0.1000000
NULL ついて 0.2307692
NULL 保持 0.3333333
NULL はかる 1.0000000
NULL 得た 0.1428571
NULL 拡 0.5000000
NULL 力 0.0714286
NULL 詰め 1.0000000
NULL 抑制 0.0588235
NULL 演算 0.5000000
NULL − 0.1456311
NULL 次 0.1363636
NULL 貯蔵 0.1250000
NULL でも 0.1052632
NULL ような 0.2222222
NULL 面 0.0769231
NULL イネ 0.0769231
NULL 持った 0.5000000
NULL 規定 0.1428571
NULL Ｐｂ 0.1250000
NULL 策 0.1666667
NULL ばらつき 1.0000000
NULL 経て 0.2000000
NULL レーザ 0.1428571
NULL 作用 0.1111111
NULL 直径 0.2000000
NULL 細菌 0.0625000
NULL 樹 0.1250000
NULL 濃度 0.0444444
NULL 築く 1.0000000
NULL れ 0.4285714
NULL なろう 0.3333333
NULL 注目 0.0625000
NULL 性 0.0942029
NULL 容易 0.5000000
NULL ％ 0.0689655
NULL 地上 0.1428571
NULL 被 0.3750000
NULL 分子 0.3333333
NULL 有無 0.2000000
NULL 空 0.3333333
NULL 差 0.1333333
NULL 比べて 0.4000000
NULL 数 0.2037037
NULL なく 0.4090909
NULL 反映 0.2500000
NULL れて 0.3378378
NULL 制御 0.0588235
NULL 効率 0.0526316
NULL 増加 0.0857143
NULL 及び 0.0163934
NULL 系 0.0555556
NULL 記載 0.5000000
NULL 実施 0.2666667
NULL 知見 0.1666667
NULL 籾 0.1428571
NULL 適用 0.2857143
NULL ， 0.0691193
NULL 高い 0.0714286
NULL 連 0.5000000
NULL 等 0.0243902
NULL 可能である 0.5000000
NULL 至る 0.5000000
NULL 提案 0.2608696
NULL だけ 0.1111111
NULL ＤＬＣ 0.2000000
NULL 示して 0.3333333
NULL 屈曲 0.1666667
NULL 酸素 0.1111111
NULL 手法 0.0370370
NULL 格子 0.2500000
NULL 的に 0.1276596
NULL なった 0.0952381
NULL 伝達 0.5000000
NULL おいて 0.1333333
NULL 求め 0.3333333
NULL 再建 0.3333333
NULL 比較 0.0416667
NULL 内視鏡 0.0666667
NULL 比べ 0.2000000
NULL 精神 1.0000000
NULL レアメタル 0.1428571
NULL 向けた 0.3333333
NULL 容易で 0.3333333
NULL あたって 1.0000000
NULL 光合成 0.3333333
NULL 洞察 1.0000000
NULL の 0.2032996
NULL 上 0.1666667
NULL 水中 0.0555556
NULL 透水性 1.0000000
NULL どう 0.5000000
NULL 混合 0.2000000
NULL 大きく 0.1111111
NULL 利点 1.0000000
NULL 機能 0.1250000
NULL もたらす 0.5000000
NULL か 0.3714286
NULL 部 0.0454545
NULL 特長 1.0000000
NULL 魚 0.2000000
NULL 結果 0.0169492
NULL 侵入 0.3333333
NULL パルス 0.2500000
NULL 物質 0.0175439
NULL 県 0.0666667
NULL 持つ 0.0833333
NULL 活用 0.0909091
NULL ） 0.0121951
NULL コナラ 0.3333333
NULL カツオ 1.0000000
NULL や 0.0363636
NULL 疎水 0.3333333
NULL 略す 1.0000000
NULL 複雑 0.5000000
NULL 方法 0.0270270
NULL 採取 0.0625000
NULL 進めて 0.3333333
NULL 過 1.0000000
NULL 列記 1.0000000
NULL 膜 0.1363636
NULL その 0.0506329
NULL 差異 0.3333333
NULL せて 0.5000000
NULL 訴える 0.5000000
NULL 的 0.0735294
NULL 腸 0.2000000
NULL 通過 0.4000000
NULL 指摘 0.3333333
NULL トリハロメタン 0.0769231
NULL 設定 0.2500000
NULL 論 0.2500000
NULL 〜 0.0714286
NULL 見 0.4210526
NULL 対し 0.1111111
NULL 場合 0.0769231
NULL 適切で 1.0000000
NULL 工法 0.0270270
NULL 存在 0.4615385
NULL トナー 0.1250000
NULL 廃棄 0.0344828
NULL だ 0.2000000
NULL クター 0.5000000
NULL ワイヤ 0.3333333
NULL 合わせて 0.2500000
NULL 雌 0.5000000
NULL 全面 1.0000000
NULL タイム 1.0000000
NULL 実現 0.2222222
NULL 低減 0.1333333
NULL 素 0.1875000
NULL 構成 0.0526316
NULL よる 0.0450450
NULL れる 0.2567568
NULL 未満 0.2500000
NULL 補正 1.0000000
NULL ３ 0.1269841
NULL 剤 0.2500000
NULL 孔 0.5000000
NULL 少なかった 0.1428571
NULL とって 0.3333333
NULL 夫 1.0000000
NULL 界磁 0.5000000
NULL 除いた 1.0000000
NULL 当地 1.0000000
NULL 述べた 0.1250000
NULL 流し 1.0000000
NULL ごと 0.1111111
NULL あまり 0.2500000
NULL １７ 0.5000000
NULL 伴って 0.2500000
NULL 口臭 0.5000000
NULL ＧＣ 0.2500000
NULL な 0.1428571
NULL 大きい 0.2500000
NULL 導出 0.2500000
NULL 状 0.1250000
NULL 知ら 0.0769231
NULL 考慮 0.0869565
NULL 次回 1.0000000
NULL 家 0.1666667
NULL 収 0.5000000
NULL 新 0.0714286
NULL 広く 0.2000000
NULL 取り付け 0.5000000
NULL 低温 0.4000000
NULL 湾 0.1666667
NULL 堆肥 0.1666667
NULL 記録 0.2000000
NULL 溶出 0.0769231
NULL 非 0.0769231
NULL 出 0.2000000
NULL 応力 1.0000000
NULL また 0.0188679
NULL ます 0.2500000
NULL 酸化 0.0476190
NULL ある 0.3750000
NULL 生じて 0.5000000
NULL いう 0.4285714
NULL 流出 0.0476190
NULL 与える 0.5000000
NULL スケール 0.3333333
NULL こと 0.4640884
NULL 解明 0.1666667
NULL ４ 0.0277778
NULL へ 0.2923077
NULL なって 0.1875000
NULL 加えた 1.0000000
NULL 炭素 0.0769231
NULL アルミ 0.1666667
NULL 含む 0.2500000
NULL よって 0.2222222
NULL できる 0.3061224
NULL ため 0.3118280
NULL 史 0.6666667
NULL なり 0.5263158
NULL 類 0.0566038
NULL 緑 0.2500000
NULL 要求 0.1428571
NULL 年 0.0438596
NULL 共に 0.6000000
NULL 受けて 0.5000000
NULL 作った 0.3333333
NULL 効果 0.0952381
NULL 進める 0.3333333
NULL 優れる 0.1428571
NULL 経過 0.5000000
NULL 必要 0.2500000
NULL ｍｍ 0.0666667
NULL 考え 0.2258065
NULL 取り 0.4444444
全部 が 0.0029369
全部 NULL 0.0005184
全部 アルビノ 0.3333333
全部 全 0.2222222
全部 の 0.0005322
全部 すべて 0.2000000
全部 全て 0.2222222
而 して 0.0160643
而 追求 1.0000000
而 台風 0.2000000
而 出て 1.0000000
而 即した 0.5000000
而 生じた 0.2000000
而 改修 0.2000000
而 ± 0.2000000
而 行なう 0.5000000
而 そして 0.1666667
而 異なって 0.2000000
而 が 0.0058737
而 起こす 1.0000000
而 で 0.0044444
而 に 0.0103093
而 組合わせ 0.5000000
而 合わせて 0.2500000
而 よって 0.0888889
而 傷め 0.5000000
而 温暖 0.1111111
而 と 0.0078493
而 用い 0.1111111
而 を 0.0068966
而 整備 0.2000000
而 上昇 0.2500000
而 なく 0.0454545
而 こと 0.0110497
而 目指して 0.2500000
进展 可能に 0.5000000
进展 NULL 0.0005184
进展 こと 0.0055249
进展 なる 0.0208333
媒 溶媒 0.2500000
失性 性 0.0144928
失性 流出 0.0952381
千粒重 千粒重 0.5000000
０．２ ０．２ 1.0000000
螃蟹类 帯 0.1250000
螃蟹类 類 0.0188679
螃蟹类 カニ 0.0833333
动向 動向 0.7777778
垂直 鉛直 1.0000000
某 推進 0.1666667
某 省エネ 0.1111111
某 分け 1.0000000
户外 戸外 0.5000000
户外 外 0.0588235
中潮 潮 0.1428571
中潮 中 0.0172414
中潮 調べた 0.0666667
填埋地 埋立 0.2500000
填埋地 いる 0.0052356
填埋地 地 0.0833333
填埋地 して 0.0040161
填埋地 立地 0.3333333
共 共有 0.2000000
共 ３６ 0.2500000
共 が 0.0014684
气压 気圧 1.0000000
ＦａｓｔＳｔｏｎｅ ＦａｓｔＳｔｏｎｅ 0.6000000
７月 月 0.0750000
７月 始まる 0.2500000
７月 ７ 0.2307692
电缆 ケーブル 1.0000000
法令 年 0.0087719
ＥＲＢＮ ＥＲＢＮ 1.0000000
捕获 水 0.0142857
捕获 揚 1.0000000
代表 代表 0.5000000
０００ ０００ 0.1666667
因此 魚 0.2000000
因此 穂 0.0769231
因此 したがって 0.7500000
因此 ので 0.0500000
因此 その 0.0253165
因此 ため 0.1505376
因此 そこ 0.3333333
因此 与える 0.2500000
因此 排ガス 0.0434783
因此 から 0.0281690
因此 NULL 0.0031104
因此 緊張 0.5000000
因此 微量 1.0000000
因此 この 0.0519481
封入 を 0.0008621
体 媒体 0.2500000
体 体 0.3636364
体 れる 0.0135135
体 プラスチド 0.3333333
态氮 態 0.3333333
态氮 NULL 0.0005184
态氮 硝酸態窒素 0.4375000
格式 フォーマット 1.0000000
格式 体 0.0909091
很少 運転 0.0666667
导入 導入 0.2222222
导入 NULL 0.0005184
导入 へ 0.0153846
辐射 シンクロトロン 0.3333333
辐射 放射 0.3333333
位于 滋賀 0.5000000
位于 は 0.0051414
位于 太平洋 0.5000000
正比 割に 1.0000000
资金 資金 1.0000000
水弯 作動 0.5000000
水弯 トラップ 0.2500000
２５％ ％ 0.0344828
随 季節 0.3333333
随 NULL 0.0005184
随 は 0.0012853
合计 合計 0.6666667
合计 斜 0.1000000
油 油 0.3333333
发挥 思う 1.0000000
发挥 NULL 0.0005184
发挥 対して 0.0666667
发挥 ソノケミストリー 0.1428571
发挥 現有 0.2500000
发挥 発揮 0.3333333
发挥 を 0.0008621
回交 交雑 0.2500000
回交 戻し 0.7500000
美国 米国 0.6250000
美国 アメリカ 0.6666667
供 供 0.1111111
缓和 補填 0.3333333
缓和 緩和 0.3333333
曲 屈曲 0.1666667
冻土 防止 0.1428571
管套管内ＰＩＰ ＰＩＰ 0.1428571
管套管内ＰＩＰ 内 0.0149254
管套管内ＰＩＰ さや 0.1666667
“ コシヒカリ 0.2500000
“ アケボノ 0.2500000
“ “ 0.2500000
“ NULL 0.0010368
“ オオチカラ 0.3076923
“ 名称 0.2500000
“ 公園 0.0909091
“ 雄 0.5000000
“ 「 0.8571429
“ 劣る 0.2500000
张变黄 の 0.0005322
张变黄 変 0.5000000
张变黄 黄 0.2500000
烧制 せた 0.0833333
烧制 マイクロリアクター 0.2000000
烧制 さ 0.0049020
烧制 焼成 1.0000000
ＲＢＳ ＲＢＳ 1.0000000
ＲＢＳ 使い 0.2000000
１．６３ １．６３ 1.0000000
镍 ニッケル 1.0000000
包围 れて 0.0135135
包围 囲ま 0.5000000
包围 いた 0.0312500
包围 も 0.0080000
文 を 0.0043103
文 前田 0.2500000
文 文 0.2500000
文 解説 0.0769231
文 受け入れて 0.5000000
文 概説 0.1428571
文 ついて 0.0384615
文 本文 0.4285714
文 本稿 0.1470588
文 NULL 0.0077760
文 オハイオ 1.0000000
文 紹介 0.0769231
文 述べた 0.1250000
文 試み 0.2000000
稀释 希釈 0.6666667
非商 非 0.0769231
非商 商用 0.2500000
呈反Ｓ形 フィル 0.3333333
呈反Ｓ形 形状 0.1428571
呈反Ｓ形 示し 0.1428571
呈反Ｓ形 Ｓ字 1.0000000
呈反Ｓ形 逆 0.5000000
肠 腸 0.2000000
种子 NULL 0.0005184
种子 種子 1.0000000
自来水厂 塩素 0.2000000
室内 ハウス 0.0625000
室内 室 0.4736842
室内 内 0.1343284
排列 配列 1.0000000
前聚 前 0.0555556
台湾 おける 0.0099010
台湾 台湾 0.7500000
ｐｒｐｓｃ ＰｒＰＳｃ 1.0000000
ｐｒｐｓｃ へ 0.0153846
接口 接点 1.0000000
接口 インタフェース 0.5000000
方向 側 0.2500000
方向 方向 1.0000000
相比 より 0.0210526
相比 比べ 0.6000000
相比 と 0.0047096
相比 比べる 0.5000000
相比 比べて 0.2000000
相比 悪い 0.2500000
相比 小さな 0.5000000
相比 も 0.0080000
相比 つつ 0.2000000
相比 NULL 0.0010368
相比 細胞 0.0909091
试图 行い 0.0625000
试图 現状 0.0714286
聚氯丁烯 ポリ 0.1666667
聚氯丁烯 塩化 0.1111111
聚氯丁烯 クロロ 0.2500000
聚氯丁烯 ナフタレン 0.5000000
一且 均一 0.5000000
烃类 テルペン 0.5000000
烃类 類 0.0188679
自我 拡張 0.2500000
自我 創造 0.3333333
自我 れる 0.0270270
自我 れ 0.0357143
自我 自己 0.2500000
自我 する 0.0034014
自我 である 0.0099010
自我 知る 0.5000000
盏 灯 0.3333333
盏 が 0.0014684
汽车 自動車 0.8333333
｝ 内 0.0149254
｝ ハウス 0.2500000
置换 置換 1.0000000
主 メイン 1.0000000
水质 られた 0.0344828
水质 水質 0.8823529
罐 タンク 1.0000000
８月 月 0.1250000
８月 ８ 0.3529412
温暖 温暖 0.1111111
初期 初期 0.3636364
泛 ユビキタス 0.5000000
泛 コンピューティング 0.5000000
黑 黒 1.0000000
黑 ぼく 0.5000000
宍道湖 宍道 0.6666667
宍道湖 湖 0.3750000
市 市 0.4666667
残留 依然と 0.5000000
残留 里 0.1428571
残留 残留 0.1666667
残留 さか 1.0000000
相关 向上 0.0526316
相关 NULL 0.0010368
相关 関与 0.5000000
相关 ついて 0.0288462
相关 関連 0.3076923
相关 に 0.0085911
相关 相関 0.7419355
相关 関する 0.3333333
相关 事象 0.5000000
研究 臭 0.1666667
研究 ワークショップ 0.3333333
研究 いる 0.0052356
研究 NULL 0.0046656
研究 調べた 0.0666667
研究 行った 0.0731707
研究 大学院 0.5000000
研究 バイオセイフティー 0.2500000
研究 研究 0.9772727
研究 もの 0.0222222
研究 関する 0.1025641
研究 要する 0.5000000
研究 進んで 0.3333333
研究 検討 0.1538462
研究 育った 0.5000000
基地 基地 1.0000000
基地 なって 0.0625000
没 経て 0.2000000
表面 コーティング 0.5000000
表面 表面 1.0000000
２００２年 年 0.0877193
２００２年 ２００２ 0.9166667
０．７８ である 0.0099010
０．７８ ０．７８ 0.5000000
Ｔｗｏ Ｔｗｏ 1.0000000
Ｔｗｏ − 0.0097087
聚乳酸 なく 0.0454545
聚乳酸 事 0.5000000
聚乳酸 する 0.0034014
降低 ｐｐｂ 0.3333333
降低 低下 0.2000000
降低 電圧 0.0666667
降低 粒子 0.2500000
降低 し 0.0062893
降低 は 0.0012853
降低 減少 0.0909091
降低 アゾール 0.2000000
降低 低減 0.4000000
煤尘 塵 1.0000000
好 悪い 0.2500000
好 優れ 1.0000000
好 いる 0.0052356
好 優れて 0.5000000
好 して 0.0040161
经常 常時 0.6000000
用法 与 0.2500000
草木 草木 0.5000000
ＰＰＣ 塗り 1.0000000
－３ − 0.0097087
－３ ＭＢ 0.5000000
－３ ３ 0.0158730
超声 ソノケミストリー 0.2857143
沟渠 暗渠 0.5000000
沟渠 部 0.0454545
游泳 プール 0.5000000
游泳 施設 0.0625000
启蒙 的な 0.0200000
启蒙 啓蒙 1.0000000
谱间 スペクトル 0.1111111
指出 石原 0.3333333
指出 指摘 0.3333333
指出 カ月 0.2500000
指出 NULL 0.0005184
指出 示唆 0.1111111
浅水井 浅い 0.3333333
浅水井 井戸 0.3333333
ＵＶ ＵＶ 1.0000000
荣获 １９９４ 0.2500000
荣获 Ｂｒｏｃｋｈｏｕｓｅ 0.5000000
荣获 は 0.0012853
７０％ ２０ 0.0769231
７０％ ７０ 0.2000000
辅导 任せる 0.3333333
底部 底部 1.0000000
ｔｒｂ ｔｒｂ 1.0000000
偏析性 大差 1.0000000
〉 〕 1.0000000
构成 から 0.0140845
构成 NULL 0.0005184
构成 有する 0.1666667
构成 充填 0.2500000
构成 金 0.2500000
构成 構成 0.8421053
构成 と 0.0015699
构成 なる 0.0625000
消长 パラメーター 0.5000000
癌症 癌 0.5000000
眼蟹 ヤマトオサガニ 0.3333333
按摩 マッサージ 0.3333333
按摩 ちつ 0.3333333
作物 おける 0.0099010
作物 作物 1.0000000
芽个体经年 新規 0.5000000
拉进 込む 1.0000000
拉进 引 1.0000000
拉进 的に 0.0212766
散射 散乱 0.8333333
散射 よる 0.0090090
埋 処分 0.1428571
保温 インキュベーション 0.5000000
保温 保温 1.0000000
碎石 砕石 1.0000000
－氢 水素 0.1111111
－氢 である 0.0099010
迟缓 遅く 1.0000000
迟缓 なる 0.0208333
个体 個体 0.9090909
个体 した 0.0028169
形态 形態 1.0000000
浮游 浮遊 0.3333333
非构 非 0.0769231
二苯醚 ジフェニルエーテル 1.0000000
好于林内 良好である 1.0000000
气候 気象 0.4285714
气候 気候 0.5000000
气候 へ 0.0153846
数据库 データベース 1.0000000
数据库 する 0.0034014
数据库 利用 0.0144928
给 続いて 0.2000000
给 を 0.0008621
给 貿易 0.0909091
给 給水 0.2500000
给 が 0.0014684
给 撹乱 0.1428571
给 都道府県 0.2500000
ＧＥＮＥ ＧＥＮＥ 1.0000000
产品 ダクト 1.0000000
产品 である 0.0099010
产品 製品 0.7500000
茎 茎 0.4285714
茎 用いて 0.0344828
茎 算出 0.2500000
负 有意な 0.0588235
负 負 0.5000000
聚合墨粉 照射 0.0833333
聚合墨粉 した 0.0028169
顺利 乗り切る 0.5000000
活体 した 0.0028169
活体 採取 0.0625000
活体 もの 0.0222222
活体 生体 0.1666667
寒冷 酪農 0.3333333
寒冷 寒冷な 0.3333333
寒冷 寒冷 1.0000000
从 Ｈｅｒｒｉｄｇｅ 0.5000000
从 １９９５ 0.2500000
从 ２００５ 0.1666667
从 ２６ 0.5000000
从 は 0.0064267
从 １９９７ 0.2857143
从 １９ 0.3333333
从 ＨＯＲＩＢＡ 0.5000000
从 １９８５ 0.4000000
从 ， 0.0083612
从 概観 0.3333333
从 モノ 0.5000000
从 １０ 0.0322581
从 NULL 0.0077760
从 わたり 0.5000000
从 統計 0.1428571
从 水稲 0.1666667
从 ２００２ 0.0833333
从 太古 0.2000000
从 溜め 0.5000000
从 １９８０ 0.2500000
从 方 0.1071429
从 正常 0.2500000
从 しかしながら 0.2000000
从 この 0.0129870
从 ＲＧＲ 0.1428571
从 から 0.1619718
污泥 汚泥 1.0000000
购买 自然の 1.0000000
是 小さい 0.2500000
是 特に 0.1666667
是 次いで 0.5000000
是 ダウン 0.5000000
是 乾 0.2500000
是 タッチ 0.1666667
是 公園 0.0909091
是 NULL 0.0062208
是 大きい 0.2500000
是 換える 0.3333333
是 とりわけ 0.5000000
是 なく 0.0454545
是 現場 0.2500000
是 街 0.1666667
是 なぜなら 0.2500000
是 選抜 0.1428571
是 その 0.0253165
是 その頃 0.5000000
是 しまう 0.2000000
是 も 0.0160000
是 全 0.0370370
是 先進 0.1666667
是 は 0.1452442
是 予期 0.5000000
是 単に 0.5000000
是 ， 0.0156076
是 こと 0.0055249
是 経口 0.2500000
是 被爆 0.3333333
是 デキ 0.3333333
是 多様で 0.5000000
是 相違 0.2500000
是 である 0.0099010
是 主として 0.4000000
是 人畜 0.2500000
是 さ 0.0049020
是 ビューワ 0.2500000
是 ５０ 0.2500000
是 意欲 0.3333333
是 が 0.0190896
是 項 0.4000000
是 主な 0.2500000
相联 農業 0.0454545
务农 営農 1.0000000
务农 なる 0.0208333
键 同士 0.2500000
位相 温 0.1428571
位相 位 0.1428571
介质 絶縁 0.6250000
介质 封じ 0.5000000
·正 ・ 0.0178571
·正 正 0.0769231
说 採用 0.2000000
说 説 0.3333333
说 NULL 0.0010368
说 と 0.0047096
说 あった 0.1000000
说 適切である 1.0000000
出现 いる 0.0052356
出现 ， 0.0011148
出现 出現 0.2857143
出现 紙 0.3333333
出现 続出 0.3333333
出现 繰り返し 0.3333333
出现 現れる 0.5000000
出现 きて 0.3333333
出现 １２３ 0.2500000
ｓｒｔ ｓｒｔ 0.3333333
钕稀 を 0.0008621
钕稀 ネオジム 1.0000000
投入 投入 0.4000000
投入 算出 0.2500000
投入 Ｒｐｒｉ 0.3333333
准备 予備 1.0000000
准备 備える 0.5000000
简单化 化 0.0126582
简单化 単純 0.3333333
输送 NULL 0.0005184
输送 移送 1.0000000
输送 水上 0.3333333
阶层 隠れ 0.6666667
阶层 する 0.0034014
槽 ついて 0.0096154
槽 槽 0.5000000
３－氯酚 フェノール 0.2000000
形式 圏 0.2500000
形式 NULL 0.0005184
形式 形式 0.5000000
形式 形 0.1818182
注意 注意 1.0000000
注意 分 0.1111111
注意 いく 0.0714286
注意 必要である 0.2000000
志愿 ボランティア 0.5000000
突起 工 0.2500000
血清 血清 0.5000000
们 著者 0.4000000
们 NULL 0.0005184
们 ら 0.0784314
ＨＩＳ ＨＳＩ 0.5000000
丘陵 丘陵 0.7500000
丘陵 大部分 0.5000000
比 Ｎ 0.0909091
比 比 0.8333333
比 NULL 0.0005184
比 ，θ 0.3333333
比 アケボノ 0.0833333
比 市 0.0666667
比 が 0.0088106
比 対照 0.2000000
比 推力 0.1666667
比 石油 0.3333333
比 感受性 0.3333333
比 第 0.0681818
比 穂 0.0769231
比 は 0.0102828
比 重要である 0.2000000
新居滨 新居浜 0.7500000
＝ ＝ 1.0000000
钾 カリウム 0.3333333
验证 バリデーション 0.1250000
验证 行った 0.0243902
验证 こ 0.5000000
验证 検証 0.4000000
检索 検索 0.6666667
上方 直 0.1666667
上方 上 0.0333333
接地 接地 1.0000000
接地 ない 0.0163934
不利 も 0.0080000
不利 努め 0.5000000
不利 不利な 1.0000000
不利 不利益 1.0000000
猪肉 豚肉 1.0000000
Ｃａｍｐｙｌｏｂａｃｔｅｒ： ： 0.0714286
Ｃａｍｐｙｌｏｂａｃｔｅｒ： Ｃａｍｐｙｌｏｂａｃｔｅｒ 0.2500000
雨林 林 0.0588235
雨林 雨 0.5000000
广岛 広島 1.0000000
负担 しれ 1.0000000
负担 ない 0.0163934
负担 負担 1.0000000
奖 賞 1.0000000
奖 いる 0.0052356
奖 受賞 1.0000000
奖 して 0.0040161
根 根 0.1111111
氯酸钾 酸 0.0833333
氯酸钾 カリ 1.0000000
氯酸钾 塩素 0.2000000
腐烂度 腐 0.6000000
腐烂度 判定 0.2500000
腐烂度 熟 0.4000000
腐烂度 度 0.1578947
耐热 耐熱 1.0000000
夺走 なり 0.0526316
低下 する 0.0034014
低下 ある 0.0178571
低下 挽回 1.0000000
低下 こと 0.0055249
低下 低下 0.2000000
ｐＨ ｐＨ 0.4000000
砷 ひ素 0.4285714
乡下 田舎 1.0000000
乡下 地方 0.3333333
北海 突き出た 1.0000000
ＳＣＦＧ 表す 0.4000000
ＳＣＦＧ 適した 1.0000000
ＳＣＦＧ パラメタ 0.0833333
ＳＣＦＧ ＳＣＦＧ 0.7500000
自体 自体 1.0000000
４００ ４００ 0.6666667
随着 ＣＴ 0.0909091
随着 の 0.0005322
随着 NULL 0.0005184
随着 が 0.0014684
随着 で 0.0044444
随着 検査 0.0769231
随着 ， 0.0016722
随着 基づき 0.1666667
随着 業 0.5000000
随着 自動車 0.1666667
随着 含 0.1666667
随着 は 0.0051414
运转 稼働 0.5000000
运转 風力 0.1666667
运转 中 0.0172414
运转 など 0.0169492
运转 運転 0.2000000
回 トラップ 0.2500000
回 回 0.2500000
回 蒸気 0.5000000
填补 諸 0.2000000
事例 NULL 0.0005184
事例 攪拌 0.3333333
事例 例 0.2222222
事例 事例 0.7272727
多态 その 0.0126582
一般 一般に 0.4000000
一般 営巣 0.5000000
一般 NULL 0.0010368
一般 一般 0.3333333
一般 普通 0.5000000
共享 バイパス 0.5000000
共享 共有 0.2000000
适应 こと 0.0055249
适应 NULL 0.0005184
适应 ある 0.0178571
监 ･ 0.0185185
监 傍受 1.0000000
联合 国連 0.5000000
联合 連携 0.2857143
谱为 スペクトル 0.1111111
厂家 メーカー 1.0000000
厂家 ・ 0.0178571
抗二恶英类 ダイオキシン 0.0500000
抗二恶英类 類 0.0188679
抗二恶英类 抗 1.0000000
细小 して 0.0040161
细小 わずかな 0.5000000
细小 経験 0.1250000
兼备 が 0.0014684
兼备 兼ね備えた 1.0000000
ＨＷ ＨＷ 1.0000000
性微 気性 0.2500000
性微 微 0.2000000
仪 用いて 0.0344828
仪 ジャイロスコープ 0.3333333
仪 から 0.0070423
仪 いる 0.0052356
产学 産学 1.0000000
除 除去 0.1176471
除 よる 0.0090090
除 不純 0.3333333
除 しゅ 1.0000000
除 重 0.0384615
除 は 0.0038560
除 本殿 1.0000000
调整 調整 0.5000000
调整 さ 0.0049020
调整 ２５ 0.2000000
传统 伝統 1.0000000
传统 的な 0.0200000
传统 昔 0.5000000
传统 いった 0.1250000
传统 NULL 0.0005184
传统 から 0.0070423
成立 する 0.0034014
成立 ある 0.0178571
成立 が 0.0014684
成立 と 0.0015699
经由 から 0.0070423
模具 金型 1.0000000
模具 および 0.0161290
槽样 試料 0.0400000
槽样 槽 0.5000000
开 開削 0.2500000
开 更正 0.5000000
此外 また 0.0754717
再 再 0.5000000
再 リサイクル 0.4000000
再 NULL 0.0015552
８所示 Ｆｉｇ． 0.2000000
８所示 示す 0.0434783
图２ ２ 0.0117647
图２ 図 0.0588235
态 型 0.0263158
态 態 0.3333333
态 多 0.0588235
态 仮定 0.3333333
举 示し 0.1428571
参照 参照 0.8000000
总称 した 0.0028169
总称 おり 0.0769231
总称 これ 0.0181818
总称 して 0.0040161
总称 総称 1.0000000
总称 もの 0.0222222
总称 更生 0.2500000
金枪鱼 マグロ 1.0000000
去除 除去 0.0588235
导致 藻 0.2000000
导致 ついに 0.5000000
导致 軟化 0.1428571
导致 起因 1.0000000
导致 来る 0.5000000
导致 制限 0.2500000
导致 欠けて 0.5000000
导致 よる 0.0360360
导致 取り入れた 1.0000000
导致 腐食 0.5000000
导致 に 0.0042955
导致 いる 0.0052356
导致 NULL 0.0005184
导致 から 0.0140845
燃料 通常 0.2000000
燃料 薪 1.0000000
燃料 燃料 0.8888889
０．６ ０．６ 1.0000000
底土 底 0.0625000
底土 土 0.0454545
底土 シルト 0.1666667
指数 指数 1.0000000
指数 関数 0.2500000
１０００ １０００ 1.0000000
的话 凍結 0.2000000
的话 粉 0.5000000
的话 急伸 1.0000000
的话 場合 0.0256410
的话 いる 0.0052356
的话 して 0.0040161
区分 おいて 0.0166667
区分 分別 1.0000000
线圈 コイル 1.0000000
真值 値 0.0204082
真值 真 0.2000000
指令 ２００６ 1.0000000
指令 ＷＥＥＥ 0.3333333
指令 指令 1.0000000
指令 は 0.0025707
培养基 交換 0.2000000
培养基 培地 0.5000000
１ｐｐｂ できた 0.1111111
１ｐｐｂ 低下 0.0500000
１ｐｐｂ まで 0.0333333
音波 音波 0.3750000
早期 早期 1.0000000
朊 プリオン 0.4545455
碳酸 炭酸 0.9090909
规定 が 0.0014684
规定 義務付け 0.2000000
规定 NULL 0.0015552
规定 いる 0.0052356
规定 仕様 0.3333333
规定 れ 0.0357143
规定 である 0.0099010
规定 規定 0.5714286
规定 示さ 0.2000000
规定 抑制 0.0588235
规定 定める 0.5000000
规定 規制 0.3500000
规定 さ 0.0196078
规定 ２３４ 0.3333333
铺设 マルチング 0.5000000
铺设 して 0.0040161
铺设 期待 0.2000000
核 核 0.2500000
因而 硝酸態窒素 0.0625000
因而 用い 0.1111111
因而 多様で 0.5000000
因而 考慮 0.0434783
因而 ため 0.0107527
因而 NULL 0.0005184
法人 法人 1.0000000
互相 互いに 1.0000000
栖息 ハビタット 0.3333333
栖息 生息 0.5000000
栖息 出現 0.1428571
栖息 カニ 0.2500000
栖息 ず 0.0714286
栖息 で 0.0044444
想到 さ 0.0049020
想到 れる 0.0135135
想到 予想 0.3333333
２·ＨＣｌ ＮＨ 0.1111111
２·ＨＣｌ ・ 0.0178571
２·ＨＣｌ ２ 0.0235294
不够 まだ 0.2500000
间歇 的に 0.0212766
间歇 間欠 0.2500000
羟基 ヒドロキシ 1.0000000
正态 パルス 0.2500000
正态 ノーマル 0.2500000
正态 ＹＡＧ 0.3333333
浓缩 濃縮 1.0000000
特殊 特異 0.5000000
特殊 特殊な 1.0000000
特殊 特殊 1.0000000
特殊 特異な 1.0000000
准同质 同質 0.5000000
准同质 準 0.2500000
四 四 0.3333333
四 さ 0.0049020
四 ピロメリトイミド 0.2500000
县民 県民 0.7142857
钾· ・ 0.0357143
钾· カリウム 0.6666667
导管 道 0.1666667
导管 カテーテル 1.0000000
导管 導管 0.8000000
裁 タイヤシュレッズ 0.3333333
潮间带 帯 0.1250000
潮间带 間 0.0204082
潮间带 潮 0.1428571
普遍 が 0.0044053
普遍 公定 1.0000000
报告 NULL 0.0010368
报告 報告 0.6666667
报告 いる 0.0157068
报告 れて 0.0405405
报告 報 0.2000000
报告 既報 0.2500000
报告 さ 0.0147059
μｍｏｌ ／ｍ 0.5000000
μｍｏｌ μｍ 0.5000000
μｍｏｌ ｏｌ 0.3333333
内侧 する 0.0068027
内侧 把持 1.0000000
内侧 内側 0.5000000
内侧 もの 0.0222222
协调 もと 0.3333333
协调 間 0.0204082
协调 協調 0.8000000
协调 ＳＶＲ 0.3333333
车辆 車両 1.0000000
车辆 車 0.2500000
车辆 よる 0.0090090
围护 囲ま 0.5000000
几乎 殆ど 0.5000000
几乎 ほとんど 0.5000000
来源于 コレステロール 0.2500000
来源于 亜熱帯 0.5000000
来源于 及ぼす 0.1666667
来源于 の 0.0005322
旱田 田 1.0000000
旱田 乾 0.2500000
听·篡改 改ざん 1.0000000
信度 度 0.0526316
信度 信頼 0.1250000
建设 防災 0.5000000
建设 立ち上げ 1.0000000
建设 られた 0.0172414
建设 建設 0.8571429
加载 印加 0.6000000
发现 見出せ 0.5000000
发现 なかった 0.0833333
发现 ホルム 0.3333333
发现 発見 0.3333333
发现 動的な 0.2500000
发现 行なう 0.5000000
发现 荒木 0.5000000
发现 見 0.2631579
发现 底 0.0625000
发现 見出して 1.0000000
发现 NULL 0.0046656
发现 プラスチド 0.3333333
发现 板 0.1666667
发现 両者 0.1666667
发现 多様な 0.2500000
发现 カニ 0.0833333
发现 求める 0.5000000
发现 られ 0.2352941
发现 二 0.0454545
制造 製作 0.3333333
制造 製 0.2000000
制造 が 0.0044053
制造 製造 0.4545455
神经 神経 1.0000000
品牌 ブランド 0.5000000
保水 保 1.0000000
保水 水 0.0142857
解法 解 1.0000000
解法 法 0.0131579
循环 事業 0.0909091
循环 Ｒｉｖｅｒｓｉｄｅ 0.5000000
循环 大国 0.3333333
循环 循環 0.7894737
循环 リサイクル 0.0222222
麝香 ミント 0.3333333
射线 よる 0.0090090
射线 被爆 0.3333333
装 装着 0.6666667
装 かつ 0.1333333
工场 ある 0.0178571
工场 工場 0.3333333
钠 ナトリウム 0.2000000
散发 放散 0.7500000
在 人工 0.1666667
在 ， 0.0468227
在 ひと 0.3333333
在 小 0.0833333
在 カネミ 0.3333333
在 ０００ 0.1666667
在 イタリア 0.2500000
在 タイヤ 0.1428571
在 鳥取 0.5000000
在 は 0.0616967
在 流 0.0714286
在 達 0.2500000
在 おける 0.0297030
在 活かした 1.0000000
在 部分 0.0769231
在 で 0.0244444
在 が 0.0469897
在 塩 0.0909091
在 中 0.0172414
在 苗木 1.0000000
在 前 0.0555556
在 第 0.0909091
在 水没 0.1666667
在 生長 0.2000000
在 コウボウムギ 0.5000000
在 当たら 0.3333333
在 ２００４ 0.0833333
在 NULL 0.0523587
在 シルト 0.1666667
在 の 0.0015966
在 安全な 0.3333333
在 温室 0.3333333
在 ソノケミストリー 0.1428571
在 このような 0.1875000
在 最初 0.5000000
在 組成 0.1666667
在 今 0.1666667
在 本 0.1034483
在 それ 0.0833333
在 この 0.0519481
在 に 0.0077320
在 ２４ 0.2500000
在 ここ 0.3684211
在 おいて 0.0666667
在 ユビキタス 0.5000000
在 いる 0.0052356
在 他の 0.1250000
在 一 0.0588235
在 換金 0.1000000
在 土 0.0454545
在 鶴 0.2500000
在 解析 0.1071429
在 植物 0.0909091
在 ともに 0.0769231
在 インド 0.2857143
在 植 0.5000000
在 新居浜 0.2500000
在 テント 0.5000000
在 また 0.0566038
在 本稿 0.1470588
在 サルビア 0.3333333
在 浄水 0.3333333
在 カラム 0.1428571
在 携帯 0.2500000
在 配電 0.3333333
在 Ｐｈｏｓｐｈａｔｅ 0.5000000
在 主に 0.1250000
在 吸着 0.1176471
在 四万十 0.3333333
在 １９９９ 0.2000000
在 日本 0.1250000
在 でも 0.1578947
在 か 0.0285714
在 露天 0.3333333
在 米国 0.2500000
在 ソルバー 0.5000000
在 部 0.0909091
在 多摩 0.2000000
在 川 0.1818182
在 平均 0.0909091
在 大 0.0909091
在 スーパー 0.2000000
在 板 0.1666667
在 佐賀 0.5000000
在 対照 0.2000000
在 マイクロホン 0.5000000
在 地図 0.4000000
在 低 0.2000000
在 を 0.0068966
在 特に 0.1666667
在 一般に 0.2000000
在 地震 0.2500000
在 さらに 0.0400000
在 葉 0.0285714
在 これ 0.0545455
在 も 0.0160000
在 ＥＵ 0.2500000
在 インキュベーション 0.2500000
在 両 0.1875000
在 アクリル 0.6666667
在 少 0.3333333
在 バニラ 0.5000000
精练 精錬 1.0000000
ＰＩＰ ＰＩＰ 0.5714286
内窥镜 内視鏡 0.2666667
内窥镜 短くて 0.3333333
养护 養生 1.0000000
震动 方 0.0357143
震动 振り 0.5000000
震动 を 0.0008621
净水 浄水 0.3333333
２月 ２ 0.0117647
实证 実証 0.5000000
实证 ホンダ 1.0000000
增加量 増加 0.0285714
葫芦 おける 0.0099010
葫芦 ホテイアオイ 0.5000000
之 説 0.1111111
之 が 0.0044053
之 NULL 0.0010368
之 マイクロリアクター 0.2000000
之 の 0.0021288
之 編 0.5000000
之 その 0.0126582
之 異なる 0.0625000
之 糺の森 0.3333333
之 ホール 0.2857143
之 ミス 0.5000000
分散 ばらまか 0.2222222
分散 分散 1.0000000
分散 れた 0.0151515
１９ １９ 0.3333333
所 示す 0.0869565
所 所属 0.5000000
所 受け入れ 0.3333333
所 解消 0.1428571
所 それ 0.0833333
所 に 0.0163230
所 欠かせ 0.3333333
所 で 0.0066667
所 逆に 0.5000000
所 合板 0.0769231
所 乾燥 0.1666667
所 ともに 0.0769231
所 より 0.0210526
所 して 0.0080321
所 表 0.1428571
所 得た 0.1428571
所 自乗 0.3333333
所 の 0.0026610
所 含ま 0.1428571
所 集計 0.5000000
所 到達 0.3333333
所 立体 0.5000000
所 所 1.0000000
所 及ぼす 0.3333333
所 NULL 0.0036288
所 作付け 0.1428571
所 １２３ 0.2500000
所 を 0.0025862
所 知ら 0.3076923
发酵 ケース 0.3333333
注入 再生 0.0833333
注入 注入 0.2857143
注入 井戸 0.3333333
３月 ３ 0.0317460
３月 月 0.0500000
３月 月間 0.5000000
呢 発現 1.0000000
呢 を 0.0008621
预测式 予測 0.0909091
预测式 式 0.0555556
支持 的で 0.2000000
支持 NULL 0.0005184
其 実測 0.1428571
其 する 0.0170068
其 知事 0.3333333
其 ので 0.0500000
其 その 0.4556962
其 さ 0.0049020
其 既設 0.1111111
其 下層 0.5000000
其 で 0.0022222
其 できた 0.1111111
其 加熱 0.1250000
其 判別 0.5000000
其 プローブ 0.1000000
其 概要 0.1000000
其 沈着 1.0000000
其 散乱 0.1666667
其 と 0.0062794
其 横 0.3333333
其 今 0.1666667
其 熱風 0.3333333
其 地下茎 0.0909091
其 検討 0.0512821
其 酸化 0.0476190
其 圃場 0.3333333
其 NULL 0.0093313
其 立ち 1.0000000
其 毒性 0.2500000
其 反映 0.2500000
其 既 0.3333333
其 地方 0.3333333
张 ６０ 0.2000000
ＳＯ ＳＯ 0.4000000
阻害 阻害 0.5000000
阻害 する 0.0034014
阻害 場合 0.0256410
阻害 れて 0.0135135
常时 常時 0.4000000
新设 新設 0.5000000
臟器 臓器 0.5000000
间隙 微小 0.2000000
间隙 ギャップ 1.0000000
建议 して 0.0040161
建议 省エネ 0.1111111
建议 NULL 0.0005184
建议 こと 0.0055249
括径 拡 0.5000000
括径 径 0.1000000
螺栓·螺母 ナット 0.5000000
螺栓·螺母 ・ 0.0178571
里程 マイル 0.3333333
里程 数 0.0185185
耐性 耐性 0.9090909
稻谷 ふ 0.5000000
稻谷 籾 0.1428571
稻谷 長 0.0555556
夏季 夏季 1.0000000
金纳 金 0.5000000
解冻 凍 0.7500000
出口 出口 1.0000000
出口 NULL 0.0005184
乙醇 メルカプトエタノール 1.0000000
平均 平均 0.9090909
平均 化 0.0253165
结果 見当たら 1.0000000
结果 結果 0.9830508
结果 その 0.0632911
结果 結実 0.6666667
结果 で 0.0022222
结果 おいて 0.0166667
结果 ランプ 0.5000000
结果 ｇｍ 1.0000000
稻田 土 0.0454545
稻田 水田 0.1666667
出 できれば 0.5000000
出 NULL 0.0057024
出 に 0.0025773
出 簡便 0.2000000
出 ， 0.0016722
出 求めて 0.2500000
出 短 0.1000000
出 示した 0.0833333
出 根源 0.2500000
出 ハイブリダイズ 1.0000000
出 さ 0.0098039
出 ３６ 0.2500000
出 示して 0.3333333
市政 挙げて 0.5000000
市政 ＲＲＦ 0.2500000
市政 市 0.0666667
激素 ホルモン 0.1111111
激素 エストロゲン 0.5384615
激素 受容 0.5000000
矿山 鉱山 0.7500000
海边 海辺 0.5000000
凿 非 0.0769231
凿 開削 0.2500000
内部 内部 1.0000000
内部 社 0.2777778
内部 森林 0.3333333
内部 内 0.0746269
内部 おける 0.0099010
了 さ 0.0490196
了 踏まえ 0.2000000
了 して 0.0843373
了 一斉 1.0000000
了 繰り返し 0.3333333
了 生じ 0.5000000
了 施行 0.1428571
了 で 0.0088889
了 が 0.0029369
了 松下 0.3333333
了 ワラ 0.5000000
了 挙動 0.0909091
了 値する 0.2500000
了 断熱 0.3333333
了 は 0.0064267
了 １９９４ 0.2500000
了 アゾール 0.2000000
了 県 0.0666667
了 ， 0.0239688
了 黄 0.2500000
了 寄せ集め 1.0000000
了 伴い 0.2500000
了 より 0.0210526
了 ラージ 0.5000000
了 し 0.0817610
了 堀 0.2500000
了 れ 0.0357143
了 検証 0.2000000
了 自律 0.1428571
了 施策 0.2500000
了 数学 0.2500000
了 に 0.0017182
了 的に 0.0212766
了 なった 0.2380952
了 きた 0.0714286
了 いる 0.0052356
了 について 0.5000000
了 供 0.2222222
了 摂食 0.2500000
了 を 0.0163793
了 ルンゲ 1.0000000
了 対して 0.1333333
了 水 0.0142857
了 した 0.2028169
了 ついて 0.1538462
了 行った 0.0487805
了 列 0.5000000
了 NULL 0.0819077
了 的 0.0147059
了 与えて 1.0000000
包装 包装 1.0000000
包装 内包 0.5000000
包装 味 0.2500000
ＣＳＯＮｅｔ ＣＳＯＮｅｔ 0.7500000
现场 フィールド 0.5000000
现场 現地 0.6666667
现场 現場 0.5000000
现场 おいて 0.0166667
现场 よる 0.0090090
细菌 細菌 0.9375000
细菌 NULL 0.0005184
细菌 した 0.0028169
细菌 ら 0.0196078
细菌 カンピロバクター 0.3333333
电力 精液 1.0000000
电力 電力 0.5882353
成长 成長 0.0625000
成长 進展 1.0000000
成长 NULL 0.0005184
移动 移動 0.7500000
移动 モバイル 0.5000000
移动 チューブ 0.2500000
情况 土地 0.2500000
情况 変遷 0.5000000
情况 場合 0.2051282
情况 検討 0.0256410
情况 ケース 0.3333333
情况 ついて 0.0096154
情况 勝手 0.5000000
情况 様子 0.5000000
情况 調べた 0.0666667
情况 NULL 0.0010368
情况 こと 0.0055249
情况 の 0.0015966
情况 どの 0.3333333
情况 状況 0.2222222
情况 より 0.0105263
情况 なかった 0.0833333
情况 事情 0.5000000
情况 挙動 0.2727273
情况 方 0.0714286
情况 中 0.0172414
情况 述べた 0.0625000
１和３ 町 0.3333333
Ｘ射线 相 0.3333333
Ｘ射线 Ｘ線 0.5000000
划定 区画 1.0000000
２９ ２９ 0.5000000
４５００ ５００ 0.2500000
理想 不十分である 0.5000000
理想 方 0.0357143
理想 在り 0.5000000
消化 消化 1.0000000
密度 密度 1.0000000
密度 NULL 0.0005184
密度 濃度 0.0444444
密度 許容 0.2000000
谱 スペクトル 0.2222222
谱 求めた 0.2000000
进去 れて 0.0135135
进去 いた 0.0312500
进去 さ 0.0049020
手机 携帯 0.2500000
角度 から 0.0070423
角度 角度 1.0000000
角度 観点 0.2500000
角度 視点 0.5000000
角度 立場 1.0000000
角度 的な 0.0200000
状 トリス 0.5000000
状 状 0.2500000
卵 卵 0.5000000
均 従って 0.2000000
均 NULL 0.0005184
均 の 0.0005322
均 でも 0.0526316
均 双方 0.5000000
均 ＬＡｅｑ 0.3333333
均 高く 0.1111111
１９０ １９０ 1.0000000
本来 容易である 0.3333333
本来 本来 0.2000000
层积 積 0.1428571
层积 層 0.0476190
意大利 の 0.0005322
意大利 イタリア 0.2500000
符合 通じ 1.0000000
私有 私有 1.0000000
４－Ｎ成正 ４ 0.0277778
４－Ｎ成正 Ｎ 0.0909091
４－Ｎ成正 − 0.0097087
水量 量 0.0344828
水量 水量 0.2500000
单向 片側 0.5000000
单向 ない 0.0163934
单向 い 0.1666667
冻结 凍結 0.8000000
性等 与え 0.2500000
水鸟 水鳥 0.8571429
皆伐 皆伐 0.5000000
释放 放出 0.2000000
热风 軟化 0.1428571
热风 より 0.0105263
热风 熱風 0.3333333
能化 化 0.0126582
能化 性能 0.0666667
十二 ドデシル 0.5000000
相接 接する 0.3333333
最为 有効であり 0.5000000
最为 最も 0.1666667
主体 主体 0.6666667
主体 マルチ 0.1818182
主体 言語 0.3333333
主体 ホスト 0.3333333
衡量 見込める 1.0000000
衡量 否 0.3333333
需 NULL 0.0010368
需 と 0.0015699
需 必要 0.0416667
需 不必要な 0.5000000
４５０ ４５０ 1.0000000
样品 NULL 0.0005184
样品 溶出 0.0769231
样品 試料 0.2000000
样品 なく 0.0454545
样品 経過 0.5000000
样品 サンプル 0.6666667
费用 低減 0.0666667
费用 NULL 0.0005184
费用 費 0.5000000
费用 費用 1.0000000
费用 料 1.0000000
ｔｒｈ ｔｒｈ 1.0000000
下游 下流 0.5000000
下游 で 0.0022222
节约 ならびに 0.2000000
节约 セービング 0.3333333
工具 ツール 1.0000000
工具 工具 0.5000000
工具 NULL 0.0005184
工具 であり 0.0357143
周波 周波 0.1428571
周波 軸 0.2500000
周波 数 0.0185185
俄亥俄 Ｌｕｃａｓ 0.5000000
定量 定量 0.8333333
消毒 消毒 0.2500000
消毒 副 0.5000000
蓝 青 0.6666667
蓝 ヨシキリザメ 0.4000000
貂菜 てん菜 1.0000000
报 報 0.2000000
推力 推力 0.5000000
成为 を 0.0008621
成为 にはには 0.5000000
成为 増 0.3333333
成为 なる 0.0208333
成为 今や 0.3333333
成为 水鳥 0.1428571
成为 で 0.0022222
成为 Ｃａｍｐｙｌｏｂａｃｔｅｒ 0.2500000
成为 が 0.0058737
成为 大量の 1.0000000
成为 Ｘ線 0.5000000
短径 し 0.0062893
短径 径 0.1000000
短径 計測 0.1111111
短径 短 0.1000000
褐藻 褐藻 1.0000000
第１ 第 0.2727273
第１ １ 0.1145833
群落 群 0.1538462
群落 集団 0.0588235
群落 群落 1.0000000
显示 ｖＬｎ 0.3333333
显示 は 0.0102828
显示 を 0.0025862
显示 示した 0.2083333
显示 通じて 0.2000000
显示 ＮＨ 0.1111111
显示 ＬＡｅｑ 0.3333333
显示 より 0.0105263
显示 後期 0.5000000
显示 NULL 0.0025920
显示 おいて 0.0333333
显示 呈示 0.8000000
显示 異なった 0.5000000
［ 書 0.1428571
［ ［ 0.7500000
［ ［℃］ 0.5000000
工艺 メタル 0.2500000
工艺 バイオ 0.2500000
工艺 テクノロジー 0.5000000
异构 異性 1.0000000
肠体 より 0.0105263
肠体 引き寄せ 0.3333333
肠体 短縮 0.4000000
肠体 腸 0.3000000
肠体 が 0.0014684
肠体 する 0.0102041
生活 れた 0.0151515
生活 生ごみ 0.4545455
生活 生活 0.6666667
天气 天候 1.0000000
狩猎 猟 1.0000000
逐一 木 1.0000000
逐一 毎 0.5000000
约 約 0.6315789
约 フェライト 0.3333333
对方 農林 1.0000000
对方 相手 0.3333333
角锥 れる 0.0135135
角锥 角錐 1.0000000
占 NULL 0.0005184
占 が 0.0102790
占 容積 0.3333333
占 優 0.8000000
占 ２５ 0.1000000
占 上位 1.0000000
占 ５８ 0.5000000
占 １７ 0.5000000
收集 より 0.0105263
收集 収集 0.5000000
收集 から 0.0070423
收集 採取 0.0625000
额外 不必要な 0.5000000
栋 ２万 1.0000000
分施 分 0.1111111
分施 施 0.2000000
分施 追肥 0.3333333
１３５ １３５ 1.0000000
１３５ ３８ 0.3333333
１３５ ゜ 0.3333333
Ｉ ついて 0.0096154
Ｉ Ｉ 0.6666667
创建 構築 0.0476190
去 NULL 0.0005184
去 僅かな 0.2500000
去 除去 0.2352941
去 こと 0.0055249
目前 おける 0.0099010
目前 ところ 0.2000000
目前 時点 0.2500000
目前 現在 0.1666667
目前 は 0.0025707
继续 的な 0.0200000
继续 継続 0.4000000
继续 消長 1.0000000
继续 エクステンション 1.0000000
自律 自律 0.5714286
观测 NULL 0.0010368
观测 観測 0.8571429
观测 で 0.0022222
加入 ， 0.0005574
加入 へ 0.0153846
加入 バブル 0.3333333
粉碎 破砕 0.5000000
趋势 いく 0.0714286
趋势 あり 0.0416667
趋势 あった 0.1000000
趋势 傾向 0.2727273
带进 一時的に 0.2500000
ＡＣＦ ＡＣＦ 1.0000000
原子核 原子核 0.6666667
原子核 の 0.0005322
价值 価値 1.0000000
进行 か 0.0285714
进行 農用 0.2500000
进行 圧縮 0.3333333
进行 実施 0.0666667
进行 行わ 0.2000000
进行 で 0.0377778
进行 用いた 0.1250000
进行 行なった 0.2000000
进行 用いて 0.2758621
进行 シミュレーション 0.1111111
进行 よる 0.0810811
进行 義務付け 0.2000000
进行 へ 0.0153846
进行 連続 0.1000000
进行 関して 0.1000000
进行 グラフィックス 0.2500000
进行 と 0.0141287
进行 予測 0.0909091
进行 できる 0.0204082
进行 よって 0.0666667
进行 検証 0.2000000
进行 こもって 0.5000000
进行 頻度 0.1111111
进行 的に 0.0425532
进行 見直し 0.5000000
进行 ＯＮ 0.5000000
进行 に 0.0532646
进行 いる 0.0052356
进行 から 0.0211268
进行 起動 0.3333333
进行 着目 1.0000000
进行 指標 0.1428571
进行 識別 0.3333333
进行 橋 0.3333333
进行 行う 0.0869565
进行 し 0.0062893
进行 の 0.0074508
进行 組み合わせて 0.5000000
进行 もち 0.5000000
进行 安全な 0.3333333
进行 ＧＣ 0.2500000
进行 キット 0.5000000
进行 行った 0.0731707
进行 ＭＩＣＲＯＣＡＤ 1.0000000
进行 ついて 0.1057692
进行 行って 0.1666667
进行 NULL 0.0093313
进行 基づき 0.1666667
进行 供 0.1111111
进行 について 0.5000000
进行 展開 0.5000000
进行 ｍＥＲａ 0.2500000
进行 検討 0.0769231
进行 上記 0.1666667
进行 調査 0.0192308
进行 観測 0.0714286
进行 を 0.0500000
进行 ナット 0.5000000
病房 病室 1.0000000
混合 ハイブリッド 0.3333333
混合 ナトリウム 0.2000000
混合 混合 0.8000000
混合 鉄 0.2500000
中断 を 0.0008621
中断 ＲＲＦ 0.2500000
室外 屋外 1.0000000
室外 おける 0.0099010
室外 に 0.0017182
２·２Ｈ２Ｏ Ｈ２Ｏ 1.0000000
往复 往復 1.0000000
物体 して 0.0040161
物体 物体 1.0000000
型·印度型 型 0.0263158
以 感応 1.0000000
以 首都 0.5000000
以 NULL 0.0046656
以 乗じ 0.5000000
以 相手 0.3333333
以 持続 0.1111111
以 効率 0.1052632
以 を 0.0025862
以 ファイル 0.0434783
以 電磁 0.2500000
以 あるいは 0.0909091
以 必要であり 0.3333333
以 「 0.0238095
以 他人 0.3333333
以 球 0.5000000
以 見出す 0.5000000
以 ヨシキリザメ 0.2000000
以 堀 0.2500000
以 下限 0.3333333
以 明確に 0.1428571
以 ， 0.0066890
以 ｍｓ 0.1000000
以 装備 1.0000000
以 携帯 0.2500000
以 ＰＤＩＶ 0.3333333
以 は 0.0089974
以 州 0.2000000
以 クラスター 0.1666667
以 多層 0.5000000
以 で 0.0066667
以 石炭 0.4000000
以 ワークショップ 0.1666667
以 でも 0.0526316
以 ダイオキシン 0.0500000
以 希少 0.2500000
以 最短 0.2500000
以 ふまえ 0.5000000
以 コース 0.2000000
以 エビ 0.1666667
以 事業 0.0909091
以 して 0.0120482
以 新鮮 0.2500000
以 ° 0.1666667
以 キー 0.1111111
以 放出 0.2000000
以 図り 0.3333333
以 家電 0.2500000
以 周期 0.1111111
以 中国 0.0952381
偏 やや 0.2000000
所在 が 0.0014684
所在 立地 0.3333333
原料 から 0.0070423
原料 原料 0.8571429
最低 最低 0.5000000
述 得た 0.1428571
述 解消 0.1428571
述 それ 0.0833333
述 NULL 0.0005184
尽管 ２０ 0.0769231
尽管 NULL 0.0005184
通气 エアレーション 0.5000000
表明 ， 0.0005574
表明 多 0.1176471
表明 弁 1.0000000
表明 NULL 0.0005184
表明 から 0.0070423
表明 音源 1.0000000
表明 既報 0.2500000
表明 と 0.0031397
植树 植樹 1.0000000
ＩＩＩ ＩＩＩ 0.6666667
叶宽 幅 0.1111111
叶宽 葉 0.0285714
什么样 どのような 0.5000000
油压 油圧 0.3333333
油压 その 0.0126582
困难 困難 1.0000000
困难 困難である 1.0000000
困难 困難な 0.5000000
困难 困難で 1.0000000
卷起 巻き上げ 1.0000000
着重 して 0.0040161
着重 重 0.0384615
居室 症候 0.3750000
居室 シックハウス 0.4000000
数学 数学 0.7500000
数学 し 0.0062893
数学 表す 0.2000000
数学 的 0.0147059
新居滨市 対して 0.0666667
疗法 バイオレメディエーション 0.7500000
疗法 療法 0.5000000
暖气 暖房 0.3333333
分子 分子 0.6666667
分子 ホスト 0.3333333
种 種々 1.0000000
种 方式 0.1666667
种 街 0.1666667
种 さまざまな 0.2000000
种 両 0.1250000
种 各 0.0333333
种 ２３４ 0.3333333
种 そのような 0.5000000
种 種 0.3437500
种 様々な 0.2857143
种 グループ 0.1176471
种 つ 0.0937500
种 各種 0.5000000
种 コケ 0.1250000
种 が 0.0014684
种 ２１ 0.5000000
种 多様に 0.2500000
种 多様 0.0666667
种 複数 0.3333333
种 二 0.0454545
种 このような 0.3125000
种 場合 0.0256410
种 組み合わせ 0.2000000
种 多面 1.0000000
种 多様な 0.2500000
种 NULL 0.0057024
种 の 0.0079830
种 種類 0.7500000
种 形 0.0909091
种 どの 0.3333333
群１ グループ 0.0588235
群１ １ 0.0104167
群１ ２ 0.0117647
锡 メッキ 0.3333333
数 数 0.1296296
希望 有望である 0.5000000
希望 たい 0.3333333
希望 NULL 0.0005184
希望 展開 0.5000000
平坦 平坦で 0.5000000
平坦 平坦な 1.0000000
１７％ であった 0.0666667
１７％ ％ 0.0344828
选择 選択 0.8888889
选择 より 0.0105263
选择 モバイル 0.5000000
选择 選抜 0.1428571
选择 入れ 0.3333333
选择 できる 0.0408163
选择 NULL 0.0015552
选择 ， 0.0005574
选择 ように 0.0500000
深度 深 0.5000000
深度 さ 0.0098039
偏少 小さい 0.2500000
偏少 傾向 0.0909091
偏少 られた 0.0172414
偏少 見 0.0526316
形状 形状 0.8571429
形状 状 0.1250000
珍稀 危機 1.0000000
珍稀 希少 0.5000000
珍稀 ある 0.0178571
遗留 きた 0.0714286
遗留 残存 0.5000000
遗留 積み 1.0000000
遗留 残して 0.5000000
海域 海域 1.0000000
第ＩＩ期ＲＧ 戻った 1.0000000
晶体 結晶 0.5000000
３ｎｍ缓慢 様子 0.2500000
３ｎｍ缓慢 徐々に 0.5000000
ＰＣＢ ＰＣＢ 0.6666667
划分 か 0.0285714
沙滩 干潟 0.8571429
稳定 安定 0.6250000
破断 破断 0.2857143
Ｂｅｔｔｓ Ｂｅｔｔｓ 1.0000000
偶数 複素環 0.5000000
实时 リアルタイム 1.0000000
实时 バルブ 0.3333333
实时 で 0.0022222
预测 用いた 0.0416667
预测 予測 0.6363636
预测 ＶＯＣ 0.5000000
ＥＤＩ ＥＤＩ 0.8888889
波形 波形 1.0000000
波形 示す 0.0434783
主茎 茎 0.2857143
主茎 主 0.5000000
６０ ６０ 0.6000000
清洗 洗浄 0.6666667
清洗 ／ 0.0370370
不燃物 不燃 0.5000000
不燃物 物 0.0156250
遭受 北部 0.3333333
遭受 で 0.0022222
加工 製造 0.1818182
加工 加工 0.3333333
加工 状 0.1250000
加工 チップス 0.5000000
环境 バイオ 0.2500000
环境 NULL 0.0010368
环境 環境 0.9677419
适当 適度な 1.0000000
环孔 空洞 0.2500000
环孔 環 0.5000000
反复 繰り返して 0.2500000
反复 照らし 0.5000000
反复 繰り返し 0.3333333
反复 乾 0.2500000
反复 湿 0.3333333
１ｍ２作为 １ 0.0104167
１ｍ２作为 ｍ２ 0.5000000
图像 画像 1.0000000
横跨 位置 0.1000000
２９日 ２９ 0.5000000
２９日 日 0.0303030
这样 このように 1.0000000
这样 して 0.0040161
这样 ない 0.0163934
这样 は 0.0012853
这样 このような 0.1250000
这样 こうして 1.0000000
　ｐｅａｋ值 ｐｅａｋ 0.2500000
　ｐｅａｋ值 値 0.0408163
卷心菜 キャベツ 1.0000000
１ １ 0.4062500
互补 補 0.1250000
互补 的な 0.0200000
互补 相 0.3333333
节 ノード 0.2000000
节 ６ 0.0434783
节 節 0.5714286
日益 なり 0.0526316
日益 なって 0.0625000
日益 つつ 0.2000000
日益 と 0.0015699
日益 密接に 0.5000000
修剪 の 0.0005322
修剪 剪定 0.5000000
冬季 冬 0.2500000
领域 NULL 0.0010368
领域 分野 0.9285714
领域 領域 0.5555556
诺瓦克 ノロウイルス 0.5000000
诺瓦克 除去 0.0588235
演算 演算 0.5000000
炉灰 格子 0.2500000
炉灰 火 0.1666667
炉灰 灰 0.2500000
原来 従来 0.1000000
原来 本来 0.2000000
追查 究明 0.3333333
追查 行った 0.0243902
高低差 なく 0.0454545
高低差 平坦で 0.2500000
蜂窝型 ハニカム 1.0000000
蜂窝型 式 0.0555556
远 離れた 1.0000000
远 側 0.1250000
补助 補助 0.3333333
无关 決まる 0.5000000
ＮＯ ＮＯ 0.5000000
ＮＯ − 0.0097087
ＮＯ ３ 0.0158730
解决 NULL 0.0010368
解决 未解決 0.5000000
解决 ソリューション 0.5000000
解决 解消 0.1428571
墨土 ぼく 0.5000000
墨土 土 0.0454545
实现 なおかつ 0.5000000
实现 可能な 0.1666667
实现 細孔 1.0000000
实现 NULL 0.0010368
实现 自ら 1.0000000
实现 気 0.1428571
实现 実現 0.6666667
实现 通じた 0.2500000
实现 し 0.0062893
实现 する 0.0102041
环保 系 0.0555556
环保 破綻 0.5000000
环保 の 0.0005322
环保 環境 0.0129032
环保 配慮 0.2500000
积累 集積 0.3333333
积累 １３０ 0.2500000
积累 を 0.0008621
底边 底辺 1.0000000
工序 破綻 0.5000000
工序 工程 0.4285714
广域 的な 0.0200000
广域 広域 0.6666667
再生 更生 0.2500000
再生 化石 0.3333333
再生 へ 0.0461538
再生 再 0.1153846
再生 再生 0.7500000
再生 リサイクル 0.0666667
再生 ため 0.0215054
惯例 慣行 0.3333333
填 埋立 0.2500000
口味 後 0.0937500
口味 食味 0.2727273
有用 有用 1.0000000
有用 成分 0.1111111
０．５ ０．５ 0.5000000
－ − 0.4951456
－ Ｓｈｕｌｌ 0.5000000
必不可少 必要不可欠に 1.0000000
必不可少 なって 0.0625000
必不可少 いる 0.0052356
支配 れる 0.0270270
支配 さ 0.0098039
支配 支配 1.0000000
４μｓ ｓ 0.1428571
４μｓ μ 0.2000000
４μｓ ４ 0.0277778
２００３年 年 0.0964912
２００３年 ２００３ 0.9166667
可用性 可用性 1.0000000
偏小 小さく 0.1666667
氮气 困難な 0.5000000
氮气 ので 0.0500000
氮气 大量に 0.5000000
氮气 混入 0.3333333
氮气 流動 1.0000000
氮气 窒素 0.0689655
检查 検査 0.8461538
检查 撮影 0.5000000
检查 点検 0.5000000
强制 用いた 0.0416667
强制 採 0.5000000
强制 気 0.1428571
强制 強制 0.7500000
确认 樹 0.1250000
确认 確認 0.7000000
确认 踏まえ 0.2000000
确认 NULL 0.0010368
隐性 劣性 1.0000000
ｍｏｌ ｏｌ 0.3333333
齐全 揃った 1.0000000
齐全 いる 0.0052356
齐全 なって 0.0625000
齐全 が 0.0014684
含有 含有 0.2000000
含有 NULL 0.0005184
含有 検索 0.1666667
含有 含ま 0.2857143
含有 れる 0.0270270
含有 含んだ 1.0000000
含有 を 0.0008621
含有 含めた 0.3333333
Ｈａｒｐｅｒ Ｈａｒｐｅｒ 1.0000000
Ｈａｒｐｅｒ や 0.0090909
再现 すべて 0.2000000
再现 数十 0.3333333
再现 再現 0.5000000
再现 する 0.0068027
安全 安全 1.0000000
安全 NULL 0.0005184
安全 セキュリティ 0.5000000
安全 さ 0.0049020
安全 れる 0.0135135
安全 バイオセイフティー 0.2500000
安全 セキュアな 0.5000000
芳香族 芳香 0.5000000
芳香族 族 0.5000000
暴露 暴露 1.0000000
暴露 防止 0.1428571
暴露 曝露 1.0000000
沙土 真砂土 0.5000000
恢复 力 0.0714286
恢复 NULL 0.0005184
恢复 回復 0.6666667
恢复 本来 0.2000000
他人 関わろう 0.3333333
他人 他人 0.3333333
仅 櫃 0.2500000
仅 だけ 0.2222222
仅 不純 0.3333333
仅 NULL 0.0005184
仅 は 0.0025707
吸水性 吸水性 1.0000000
家畜 家畜 1.0000000
量 バイオマス 0.3333333
量 NULL 0.0005184
量 した 0.0056338
量 収量 0.2777778
量 量 0.4655172
量 低減 0.1333333
量 フロー 0.1666667
会计 経理 1.0000000
六价铬熔析 想定 1.0000000
六价铬熔析 六 0.2000000
六价铬熔析 さ 0.0049020
六价铬熔析 れる 0.0135135
ｃ ｃ 0.3333333
和ＧＣ－ＭＳ法 − 0.0097087
和ＧＣ－ＭＳ法 法 0.0131579
和ＧＣ－ＭＳ法 ＧＣ 0.2500000
和ＧＣ－ＭＳ法 ＭＳ 0.3333333
１９９８年 にはには 0.5000000
１９９８年 年 0.0175439
１９９８年 １９９８ 1.0000000
准确 点検 0.5000000
界内管子 パイプ 0.1111111
界内管子 イン 0.3333333
樱堇 サクラ 0.5000000
樱堇 設定 0.0833333
樱堇 スミレ 1.0000000
负荷 荷重 1.0000000
负荷 供給 0.2857143
负荷 荷 0.5000000
负荷 負荷 0.8620690
换 言い 0.3333333
展示 NULL 0.0005184
展示 我々 0.2500000
展示 はじめ 0.2000000
株 株 0.7000000
也 心 0.2500000
也 反して 0.3333333
也 商用 0.2500000
也 NULL 0.0046656
也 ＯＬＥＡＳ 0.2500000
也 同等であった 0.5000000
也 おり 0.0769231
也 さも 0.5000000
也 れ 0.0357143
也 多様 0.0666667
也 でも 0.1578947
也 も 0.3360000
也 が 0.0044053
也 主要な 0.1666667
也 なれば 0.2000000
也 エルサレム 1.0000000
也 そして 0.1666667
也 アズマネザサ 0.5000000
也 もたらした 0.2500000
增强 し 0.0062893
增强 中 0.0172414
增强 味 0.2500000
从事 従事 0.3333333
从事 従って 0.2000000
堆叠层 層 0.0476190
学习 できる 0.0204082
学习 ラーニング 0.5000000
学习 学習 1.0000000
学习 と 0.0015699
学习 見て 0.3333333
ｒａｔｅ ｒａｔｅ 1.0000000
堆积 堆積 0.9444444
台 の 0.0010644
台 NULL 0.0005184
台 基 0.0909091
台 火 0.1666667
台 台 0.1666667
飞散 飛散 0.7500000
成本 コスト 0.9230769
成本 行った 0.0243902
成本 オープン 0.2000000
成本 原価 0.3333333
潮上带筑巢 営巣 0.5000000
十分 して 0.0080321
十分 十 0.5000000
十分 有効である 1.0000000
十分 著しい 0.2500000
十分 こと 0.0055249
十分 大切である 0.2500000
Ｚｏｙｓｉａ Ｚｏｙｓｉａ 1.0000000
α≦１ １ 0.0104167
α≦１ （α≦ 0.5000000
不良 シックハウス 0.3000000
泥质 質 0.0270270
泥质 泥 1.0000000
直播 直播 1.0000000
剂量 価 0.2500000
剂量 上限 0.5000000
剂量 診断 0.1250000
剂量 示した 0.0416667
剂量 被曝 0.2500000
剂量 被爆 0.3333333
剂量 予後 0.3333333
剂量 量 0.0344828
芯线 素 0.0625000
不仅 で 0.0022222
不仅 のみ 0.0666667
不仅 は 0.0038560
不仅 正確で 0.2500000
不仅 熱く 0.5000000
不仅 なら 0.0625000
归宿 的 0.0294118
归宿 帰結 1.0000000
人员 者 0.2368421
Ｍ２ Ｍ 1.0000000
Ｍ２ ２ 0.0117647
ＮＴＴ ＮＴＴ 0.8571429
ＮＴＴ ファシリティーズ 0.4285714
概述 概説 0.1428571
概述 松下 0.1111111
概述 NULL 0.0005184
地基 地盤 0.5000000
地基 である 0.0099010
工厂 ファクトリー 1.0000000
工厂 工場 0.6666667
工厂 で 0.0022222
简便 簡便に 0.7500000
简便 かつ 0.0666667
简便 簡便で 0.5000000
简便 簡便 0.2000000
简便 は 0.0012853
简便 が 0.0014684
简便 簡便な 1.0000000
构筑 する 0.0136054
构筑 構築 0.6190476
构筑 家庭 0.0714286
构筑 作成 0.0769231
构筑 ついて 0.0192308
构筑 に 0.0008591
构筑 NULL 0.0005184
构筑 よる 0.0090090
构筑 造成 0.3333333
构筑 基づいて 0.2000000
９８ ９８ 1.0000000
合流 合流 1.0000000
征兆 兆候 1.0000000
值 であった 0.0666667
值 NULL 0.0015552
值 値 0.5306122
值 ｐＨ 0.4000000
１２３ １２３ 0.5000000
ＬＡＩ ＬＡＩ 1.0000000
ＬＡＩ できる 0.0204082
超音 超 0.0833333
肉体 肉体 1.0000000
肉体 的 0.0147059
街道 努めて 0.5000000
街道 いき 0.3333333
紫 シソ 0.5000000
取样 サンプリング 0.3333333
镜 鏡 1.0000000
免疫 NULL 0.0005184
免疫 免疫 1.0000000
免疫 イムノアッセイ 0.4285714
一举 一気に 0.5000000
历史 歴史 1.0000000
磷 リン 0.7142857
磷 りん 0.4285714
媒度 媒 1.0000000
媒度 度 0.0526316
内径 内径 1.0000000
缅因州 メーン 1.0000000
类似 類縁体 0.5000000
类似 似て 1.0000000
类似 類似 1.0000000
雌鱼 魚 0.2000000
雌鱼 雌 0.5000000
脱盐 脱 0.5000000
脱盐 塩 0.1818182
休耕田 休耕田 0.5000000
１ｍｍ ｍｍ 0.0666667
１ｍｍ １ 0.0104167
探望 入院 0.5000000
脱附 こと 0.0055249
脱附 脱 0.2500000
脱附 着 0.5000000
警告 警告 1.0000000
收割区 取り 0.1111111
收割区 区 0.1111111
收割区 おいて 0.0166667
收割区 刈 0.2000000
应该 組み 0.5000000
应该 レベル 0.0769231
应该 構築 0.0476190
向 培養 0.1250000
向 日向 0.5000000
向 左 0.2500000
向 実 0.0625000
向 に 0.0017182
向 的に 0.0212766
向 から 0.0140845
向 とき 0.1428571
向 ＴｉｎｙＭＲＬ 0.3333333
向 向 0.1428571
向 へ 0.0615385
向 さらなる 0.2500000
向 対向 0.3333333
向 策 0.1666667
向 を 0.0017241
向 市場 0.1250000
向 は 0.0038560
向 走 0.3333333
向 経口 0.2500000
向 業務 0.5000000
向 ボトム 0.3333333
向 異方性 0.3333333
向 NULL 0.0010368
向 大気 0.0384615
向 アンビル 1.0000000
参与 参加 0.1428571
参与 県民 0.1428571
抗菌 抗菌 1.0000000
试误法 的に 0.0212766
试误法 錯誤 0.5000000
参加 へ 0.0153846
参加 参加 0.7142857
印度 インド 0.7142857
即约８ｍ ｍ 0.0769231
即约８ｍ 風速 0.1666667
即约８ｍ なる 0.0208333
即约８ｍ 小さく 0.1666667
即约８ｍ ８ 0.0588235
提供 供 0.2222222
提供 空洞 0.2500000
提供 を 0.0025862
提供 提供 0.7777778
提供 もの 0.0222222
提供 水面 0.5000000
提供 よる 0.0180180
提供 NULL 0.0010368
提供 おいて 0.0166667
提供 に 0.0008591
肯定 チゴガニ 1.0000000
早 NULL 0.0005184
早 太古 0.2000000
适配器间 ピア 0.1250000
推进 進めて 0.3333333
推进 NULL 0.0010368
推进 推進 0.5000000
推进 向けて 1.0000000
置有 カラマツ 0.1666667
组成 より 0.0105263
组成 構成 0.1052632
组成 組成 0.8333333
组成 いる 0.0052356
组成 NULL 0.0005184
能力 選んで 0.3333333
能力 〉 0.2000000
能力 を 0.0008621
能力 向上 0.0526316
能力 能力 0.9000000
能力 NULL 0.0005184
能力 能 0.7500000
能力 調べた 0.1333333
层瓶 ボトル 0.1428571
３１ ３１ 1.0000000
３１ まで 0.0333333
再悬浮层 再 0.1153846
再悬浮层 考慮 0.0434783
再悬浮层 層 0.1428571
再悬浮层 懸濁 0.6000000
信号 と 0.0015699
信号 サイン 0.3333333
信号 いた 0.0312500
信号 信号 1.0000000
喀斯特 カルスト 1.0000000
喀斯特 ない 0.0163934
喀斯特 通じて 0.2000000
写入 書 0.2857143
写入 込み 0.1818182
肠道 共生 0.3333333
肠道 管 0.0312500
肠道 腸 0.1000000
５８％ ％ 0.0344828
论述 子供 0.2500000
论述 NULL 0.0015552
论述 指し 0.5000000
论述 論じた 0.3333333
一室 せた 0.0833333
狭山 ， 0.0005574
狭山 狭山 1.0000000
ＧＰ ＧＰ 1.0000000
阳部叶 葉 0.0285714
阳部叶 日向 0.2500000
阳部叶 部 0.0454545
６４％ ６４ 1.0000000
６４％ ％ 0.0344828
６４％ であり 0.0357143
要件 要件 1.0000000
对于 深海 0.5000000
对于 新米 0.5000000
对于 シクロ 0.3333333
对于 計測 0.1111111
对于 医 0.3333333
对于 見た 1.0000000
对于 Ｃ 0.0714286
对于 限ら 0.5000000
对于 は 0.0051414
对于 海洋 0.1111111
对于 パラメタ 0.0833333
对于 さや 0.1666667
对于 NULL 0.0020736
对于 ナンバ 0.3333333
对于 単身 0.5000000
对于 行い 0.0625000
对于 受けた 1.0000000
对于 シリコン 0.3333333
对于 ＣＧＳ 0.2500000
对于 ， 0.0022297
对于 ＳＣＦＧ 0.1250000
对于 溶解 0.0833333
对于 ホスト 0.3333333
对于 中小 0.3333333
障碍 障害 1.0000000
障碍 いる 0.0052356
障碍 なって 0.0625000
能够 少なく 0.3333333
能够 NULL 0.0015552
能够 内側 0.5000000
能够 出す 0.3333333
能够 深部 0.5000000
能够 コース 0.2000000
能够 できる 0.0816327
能够 こと 0.0386740
能够 的で 0.2000000
能够 を 0.0008621
能够 せる 0.2105263
能够 ディジタル 0.3333333
能够 他人 0.3333333
０．３０ ０．３０ 1.0000000
脱水 脱水 1.0000000
记载 おり 0.0769231
记载 搭載 0.2500000
记载 れて 0.0135135
记载 NULL 0.0005184
记载 さ 0.0049020
雨水 雨 0.5000000
音源 比較 0.0416667
事态 事象 0.5000000
２０ ２０ 0.5384615
２０ 概観 0.3333333
有的 いた 0.0312500
有的 共通 0.5000000
有的 して 0.0040161
链 連鎖 1.0000000
ｓ ｓ 0.5714286
ｓ Ｓｐｅｃｉｅｓ 1.0000000
ｓ Ｖｉｓ 0.5000000
休眠 休眠 0.5000000
浓工 工 0.2500000
浓工 濃 1.0000000
日长 長 0.0555556
日长 わたる 0.3333333
日长 日間 0.1666667
条 １３０ 0.2500000
条 系列 1.0000000
条 より 0.0105263
优化 最適 0.3333333
优化 さらに 0.0400000
优化 化 0.0253165
优化 必要である 0.2000000
菌株 株 0.2000000
断裂 破断 0.5714286
断裂 わかる 0.3333333
质 早い 0.5000000
质 有用な 0.3333333
质 分げつ 0.0769231
质 質 0.1351351
质 NULL 0.0005184
此时 際 0.1000000
此时 その 0.0126582
直 直 0.1666667
跨越 国境 0.3333333
间隔 を 0.0025862
间隔 ずつ 0.5000000
间隔 間隔 0.8000000
近似 形成 0.1000000
近似 である 0.0099010
近似 略 1.0000000
传递 伝達 0.5000000
数字 デジタル 0.6666667
数字 ディジタル 0.3333333
《 「 0.0714286
《 示した 0.0416667
物 物 0.7500000
物 状 0.1250000
物 モノ 0.5000000
物 物質 0.1052632
物 NULL 0.0010368
物 パブリケーション 0.3333333
物 選んで 0.3333333
氯代 である 0.0099010
氯代 化 0.0126582
ＮＨ ＮＨ 0.3333333
ＮＨ ＮＯ 0.2500000
见度 可視 0.3333333
见度 度 0.0526316
规模 スケール 0.3333333
规模 サイズ 1.0000000
规模 規模 1.0000000
规模 な 0.0714286
范围 風速 0.3333333
范围 域 0.3333333
范围 広範 0.5000000
范围 範囲 0.6000000
范围 で 0.0044444
粉尘 粉塵 0.7500000
粉尘 粉じん 1.0000000
首先 まず 0.6666667
首先 ， 0.0005574
首先 はじめ 0.2000000
首先 自分 0.3333333
放射 放射 0.5000000
放射 線 0.1363636
放射 NULL 0.0005184
放射 放射性核種 0.2500000
ＧＦＰ ＧＦＰ 1.0000000
水蒸汽 水蒸気 0.1111111
负载 負荷 0.0689655
动态 動向 0.1111111
动态 動態 0.3333333
动态 ホメオスタシス 0.3333333
动态 挙動 0.1818182
动态 ダイナミック 0.4285714
动态 動的な 0.5000000
动态 もち 0.5000000
扩大 編ま 0.2500000
扩大 拡大 1.0000000
柏之宫 宮 1.0000000
柏之宫 柏 1.0000000
柏之宫 既存 0.1666667
藻类 海藻 0.3333333
藻类 類 0.0566038
收割 刈 0.6000000
收割 取り 0.2222222
Ｖ－ｔ ｔ 0.1111111
Ｖ－ｔ Ｖ 0.2000000
Ｖ－ｔ − 0.0097087
规划 またがる 0.5000000
规划 計画 0.1333333
方面 が 0.0058737
方面 伴う 0.5000000
方面 に 0.0103093
方面 ＲＧＲ 0.2857143
方面 関連 0.0769231
方面 側面 1.0000000
方面 で 0.0133333
方面 一方 0.3181818
方面 アンケート 0.2000000
方面 も 0.0320000
方面 ＮＡＲ 0.3333333
方面 ほう 0.5000000
方面 面 0.6923077
方面 あった 0.1000000
方面 られて 0.1250000
方面 初 0.2500000
方面 財政 0.5000000
方面 費 0.5000000
方面 NULL 0.0015552
方面 勝手 0.5000000
方面 同一の 0.5000000
方面 側 0.2500000
方面 を 0.0017241
方面 葉 0.0571429
方面 的な 0.0200000
方面 へ 0.0461538
人民 国民 1.0000000
公司 パナソニックファクトリーソリューションズ 0.2500000
公司 事業 0.1818182
公司 当社 0.5000000
公司 社 0.6111111
石蕊科 科 0.1666667
石蕊科 ハナゴケ 1.0000000
段 まで 0.0333333
段 おいて 0.0166667
段 段 0.8000000
测量 NULL 0.0005184
测量 計測 0.4444444
测量 農地 0.1666667
测量 樹 0.1250000
测量 計器 0.5000000
测量 を 0.0008621
测量 測定 0.3448276
测量 装填 1.0000000
食害 害 1.0000000
食害 よる 0.0090090
食害 食 0.3750000
句 言い 0.3333333
型４灯 ４ 0.0277778
型４灯 形 0.0909091
而言 で 0.0044444
作者 者 0.0263158
作者 著者 0.3000000
作者 従事 0.3333333
各自 NULL 0.0005184
各自 図示 0.2500000
各自 それぞれ 0.0769231
各自 々 0.3333333
０．６０％ 大きかった 0.2000000
０．６０％ ％ 0.0344828
０．６０％ ０．６０ 1.0000000
操作 操作 0.8333333
沙丘 砂丘 0.5000000
褶痕拟相手蟹 だった 1.0000000
褶痕拟相手蟹 オオユビアカベンケイガニ 0.2500000
机上 文書 1.0000000
机上 例えば 0.3333333
机上 で 0.0022222
倾斜 傾斜 0.5000000
变到 最大に 0.5000000
变到 で 0.0022222
欧洲 の 0.0005322
欧洲 欧州 1.0000000
欧洲 ヨーロッパ 1.0000000
　Ｊｏｓｅｐｈ Ｊｏｓｅｐｈ 0.2000000
　Ｊｏｓｅｐｈ 　 0.0133333
主题 テーマ 0.5000000
建立 よる 0.0090090
建立 セキュアな 0.5000000
建立 に 0.0017182
建立 多層 0.5000000
建立 構築 0.0476190
建立 施設 0.0625000
纯度 な 0.0714286
纯度 純度 1.0000000
纯度 替わる 1.0000000
砍掉 撤去 1.0000000
推行 伴って 0.2500000
推行 会議 0.3333333
推行 する 0.0034014
还原 還元 1.0000000
还原 復元 0.5000000
地貌 地形 0.1428571
阳部 日向 0.2500000
阳部 部 0.0454545
示 示す 0.1304348
示 名付け 1.0000000
示 示した 0.1250000
示 表 0.1428571
示 示し 0.1428571
Ｖｅｃｔｏｒｉｚｅ 手法 0.0370370
Ｖｅｃｔｏｒｉｚｅ Ｖｅｃｔｏｒｉｚｅ 1.0000000
事务 事務 0.2500000
总氮 全 0.1111111
总氮 窒素 0.1034483
溶解 溶 0.3750000
溶解 溶解 0.5833333
溶解 存 0.5000000
迄今 これ 0.0181818
迄今 出 0.2000000
迄今 今 0.1666667
起来 いる 0.0052356
起来 れた 0.0151515
起来 合計 0.3333333
起来 NULL 0.0005184
起来 組み合わせた 0.5000000
起来 現れて 0.5000000
起来 すれば 0.1250000
定义 ｔｏｔａｌ 0.5000000
定义 定義 0.6000000
定义 ついて 0.0096154
电动 電動 0.5000000
正殿 除か 1.0000000
覆盖 覆 0.5000000
覆盖 被せて 0.3333333
覆盖 被 0.1250000
覆盖 マルチ 0.5454545
覆盖 覆土 0.5000000
覆盖 NULL 0.0015552
覆盖 度 0.0526316
次数 数 0.0370370
次数 回数 1.0000000
次数 ホップ 0.5000000
实行 施行 0.1428571
实行 実行 0.4000000
实行 ついて 0.0096154
实行 行った 0.0243902
实行 れて 0.0135135
实行 法 0.0131579
实行 いる 0.0052356
认为 よれば 0.5000000
认为 られる 0.2631579
认为 NULL 0.0010368
认为 ＦａｓｔＳｔｏｎｅ 0.2000000
认为 思わ 0.1666667
认为 現場 0.2500000
认为 考え 0.3548387
认为 豊富に 0.5000000
认为 と 0.0047096
水温 もしくは 0.3333333
水温 水温 1.0000000
水温 ・ 0.0178571
楼 棟 0.3333333
。 研究 0.0113636
。 いる 0.0680628
。 NULL 0.0005184
。 。 0.9988764
。 した 0.3408451
。 である 0.2178218
。 を 0.0913793
。 する 0.0034014
广大 大きな 0.0714286
中小 中 0.0172414
中小 中小 0.3333333
中小 小 0.1666667
灾害 廃棄 0.0344828
灾害 災害 0.4444444
吸附甲醛 吸着 0.0588235
叶子 出す 0.3333333
叶子 葉 0.0285714
叶 葉 0.3428571
强绝热 れて 0.0135135
强绝热 いる 0.0052356
强绝热 施さ 1.0000000
毛 細管 0.2500000
溶剂 溶媒 0.2500000
溶剂 溶剤 1.0000000
英里 マイル 0.3333333
多 エージェント 0.6666667
多 多様な 0.2500000
多 複数 0.6666667
多 した 0.0056338
多 の 0.0005322
多 仮定 0.3333333
多 最大の 0.1666667
多 多い 0.3000000
多 上昇 0.1250000
多 NULL 0.0010368
多 多種 1.0000000
多 更 0.2500000
多 多く 0.3600000
多 して 0.0040161
多 多様に 0.2500000
多 多様 0.2000000
多 多 0.1764706
多 もたらす 0.5000000
管顶端 オーバー 0.3333333
管顶端 チューブ 0.2500000
管顶端 動く 0.5000000
套装 キッド 1.0000000
因变 換金 0.1000000
语音 音声 1.0000000
２中模型化 ＣＧＳ 0.2500000
Ｗｅｉｓｓｌｅｒ Ｗｅｉｓｓｌｅｒ 1.0000000
事项 事項 0.7500000
事项 防虫 0.3333333
ＣＯ ２ 0.0470588
ＣＯ ＣＯ 0.7000000
复制 複製 1.0000000
请 は 0.0012853
请 ここ 0.0526316
给与 与え 0.2500000
偶然 NULL 0.0005184
偶然 要約 0.3333333
那个 その 0.0126582
催化剂 触媒 0.6666667
动机 エンジン 0.6666667
动机 機 0.0909091
动机 動機 1.0000000
动机 ． 0.2000000
动机 のである 1.0000000
水准 レベル 0.1538462
２３ ２３ 0.3750000
大起 起 1.0000000
大起 大 0.0909091
１４．０ １４．０ 1.0000000
ＭＷ ＭＷ 0.6000000
ＰＢＳ ＰＢＳ 1.0000000
Ａ グループ 0.0588235
Ａ Ａ 0.1666667
快 すぐ 1.0000000
整合 積分 0.3333333
北极 北極 1.0000000
北极 よって 0.0222222
判定 判定 0.5000000
判定 熟 0.4000000
判定 決定 0.1818182
判定 である 0.0099010
柜川 櫃 0.5000000
柜川 川 0.1818182
ｐｒｐｃ ＰｒＰＣ 1.0000000
搭载 的 0.0147059
搭载 経済 0.0555556
搭载 基盤 0.3333333
多列化 化 0.0126582
多列化 列 0.5000000
台数 台 0.3333333
台数 所有 0.5000000
台数 数 0.0740741
制ＤＬＣ膜 の 0.0005322
动力 ハイブリッド 0.3333333
位点 である 0.0099010
位点 部 0.0454545
前述 前記 1.0000000
低 低く 0.6666667
低 少し 1.0000000
低 低い 0.6000000
低 付近 0.1250000
低 低かった 0.5000000
低 低 0.8000000
低 かつ 0.0666667
低 オリゴ 0.5000000
８ｈ换班 ８ 0.0588235
８ｈ换班 シフト 0.5000000
８ｈ换班 である 0.0099010
８ｈ换班 ｈ 0.2000000
经年 経 0.1250000
经年 年 0.0087719
含 含 0.5000000
含 を 0.0008621
含 含有 0.2000000
含 Ｐｂ 0.1250000
含 れる 0.0135135
含 ダイオキシン 0.0500000
应当 だけ 0.1111111
应当 奪わ 0.3333333
应当 れる 0.0135135
应当 はずである 0.5000000
应当 容易である 0.3333333
针对 試作 0.1666667
针对 ついて 0.0096154
针对 それ 0.0833333
针对 ， 0.0022297
针对 NULL 0.0010368
针对 し 0.0062893
针对 地衡風 0.2500000
针对 並びに 0.2500000
针对 新たに 0.2500000
木材 木材 1.0000000
算例 避雷針 0.5000000
难 難 0.5000000
３％ ± 0.2000000
３％ ％ 0.0344828
３％ ３ 0.0158730
发芽 発芽 0.6666667
发芽 出芽 1.0000000
劳动 労働 0.5833333
ＰＩ ＰＩ 1.0000000
基磷 酸 0.5000000
味 ｃ 0.3333333
灰 灰 0.2500000
合体 合体 0.2500000
合体 重 0.0384615
共同 共同 0.4000000
共同 共有 0.2000000
共同 で 0.0022222
室 室 0.4736842
５．９ ５．９ 1.0000000
临时 搬入 1.0000000
状况 実態 0.1111111
状况 生存 0.2000000
状况 亘 1.0000000
状况 見せる 0.5000000
状况 性 0.0072464
状况 状況 0.7777778
状况 事情 0.5000000
热媒 熱 0.0625000
热媒 媒体 0.2500000
周 早い 0.5000000
周 週間 1.0000000
周 周 1.0000000
感到 で 0.0022222
感到 感じた 1.0000000
硅橡胶 シート 0.3333333
硅橡胶 シリコーン 1.0000000
排出 より 0.0105263
排出 チャンバ 0.3333333
单身 対し 0.1111111
单身 単身 0.5000000
审视 つながり 0.2000000
次生林 次 0.1818182
次生林 林 0.2352941
次生林 二 0.1818182
Ｋａｎｅｍｉ 油 0.1666667
Ｋａｎｅｍｉ カネミ 0.6666667
避免 電磁 0.2500000
避免 言った 1.0000000
鸡羽 ニワトリ 1.0000000
鸡羽 れた 0.0151515
１００ １００ 1.0000000
１００ 概ね 1.0000000
１００ NULL 0.0005184
原 々 0.3333333
原 原 1.0000000
同行 同業 1.0000000
同行 公 0.5000000
同行 業界 0.3333333
对 病院 0.0526316
对 上げて 0.5000000
对 酸化 0.0476190
对 風 0.2000000
对 吸着 0.0588235
对 溶媒 0.2500000
对 直轄 0.5000000
对 検索 0.1666667
对 人々 0.3333333
对 イネ 0.1538462
对 水稲 0.1666667
对 メタル 0.2500000
对 して 0.0240964
对 各 0.0333333
对 試作 0.1666667
对 制作 0.3333333
对 づくり 0.3333333
对 場 0.0416667
对 さらに 0.0400000
对 耕作 0.5000000
对 電磁 0.2500000
对 なされて 1.0000000
对 これ 0.0545455
对 ＜ 0.5000000
对 指標 0.2857143
对 評した 1.0000000
对 腐 0.2000000
对 ら 0.0392157
对 よる 0.0270270
对 浮遊 0.3333333
对 チュウゴクネジチクゴケ 0.5000000
对 素 0.0625000
对 ， 0.0117057
对 残し 0.5000000
对 対向 0.3333333
对 ＣＯＰ 0.2500000
对 的な 0.0200000
对 部屋 0.3333333
对 おける 0.0198020
对 以下 0.0769231
对 強制 0.2500000
对 分 0.1111111
对 は 0.0192802
对 Ｃｄ 0.2500000
对 Ｃｈｉｎｅｓｅ 0.5000000
对 ダム 0.3333333
对 ２０１０ 0.1428571
对 圏 0.2500000
对 で 0.0244444
对 が 0.0058737
对 ＭＴＫ 0.2500000
对 ３７ 0.3333333
对 負 0.2500000
对 な 0.0714286
对 既 0.3333333
对 の 0.0079830
对 同 0.2500000
对 側 0.1250000
对 ダイナミック 0.1428571
对 胸 0.2500000
对 ＯＡ 0.3333333
对 ついて 0.0096154
对 NULL 0.0139969
对 向けた 0.3333333
对 異なる 0.0625000
对 ばらまか 0.2222222
对 船上 0.2500000
对 的確に 1.0000000
对 共用 0.5000000
对 かつ 0.1333333
对 に 0.0025773
对 ７０ 0.2000000
对 更 0.2500000
对 サイト 0.1666667
腐殖 フミン 0.3333333
修复 修復 1.0000000
ＳＣＲ 調べた 0.0666667
ＳＣＲ ＳＣＲ 1.0000000
沟矿山 鉱山 0.2500000
恒温 一定 0.3333333
恒温 し 0.0062893
恒温 温 0.1428571
恒温 恒 1.0000000
恒温 調整 0.3333333
除臭机 機 0.0909091
除臭机 脱臭 0.1428571
影响 アッセイ 0.2500000
影响 根 0.1111111
影响 インパクト 0.7500000
影响 影響 1.0000000
影响 寄与 0.3333333
影响 が 0.0029369
影响 NULL 0.0005184
影响 質 0.0270270
影响 いる 0.0104712
影响 調べた 0.2000000
墨粉 除去 0.0588235
墨粉 トナー 0.7500000
理念 理念 1.0000000
ＣＴ ＣＴ 0.8181818
ＣＴ 念頭 0.5000000
ＣＴ 装置 0.0263158
ＣＴ 発癌 0.2000000
ＣＴ NULL 0.0005184
ＣＴ に 0.0017182
控制 ． 0.2000000
控制 NULL 0.0010368
控制 制御 0.8823529
控制 出す 0.3333333
控制 目安 0.3333333
控制 抑制 0.0588235
控制 オキシダント 0.3333333
小柜川 川 0.0909091
小柜川 櫃 0.2500000
小柜川 だけ 0.2222222
小柜川 で 0.0044444
小柜川 小 0.0833333
市民 都民 0.5000000
市民 市民 0.6666667
学部 など 0.0169492
学部 学部 1.0000000
行政 行政 0.5000000
行政 NULL 0.0005184
４×４ ４ 0.0555556
４×４ × 0.3333333
２－缩硫醇 ２ 0.0117647
２－缩硫醇 − 0.0097087
１９９７年 １９９７ 0.4285714
１９９７年 年 0.0263158
高活 活性 0.0800000
高活 炭素 0.1538462
高活 高 0.0444444
空间 空洞 0.2500000
空间 空間 1.0000000
空间 である 0.0099010
卡车 トラック 0.5000000
如何 し 0.0062893
如何 NULL 0.0005184
如何 どのように 0.3333333
器官 へ 0.0153846
器官 器 0.2500000
选定 所有 0.1250000
４５ ４５ 0.5000000
回避 忌避 1.0000000
ＵＳＦＷＳ の 0.0005322
ＵＳＦＷＳ ＵＳＦＷＳ 0.5000000
野生 野生 1.0000000
工程 へ 0.0153846
工程 工程 0.4285714
工程 エンジニア 0.5000000
工程 の 0.0005322
工程 セールスエンジニアリング 0.3333333
工程 テスト 0.5000000
多样性 性 0.0289855
多样性 多様 0.2666667
阴道法 法 0.0131579
阴道法 ちつ 0.3333333
分之 の 0.0005322
ｍａｒｋｏｖ Ｍａｒｋｏｖ 1.0000000
ｍａｒｋｏｖ マルコフ 0.5000000
癌 癌 0.5000000
癌 がん 0.2500000
详细 詳細な 1.0000000
详细 NULL 0.0010368
详细 詳細 1.0000000
贸易 貿易 0.8181818
作 に 0.0008591
作 で 0.0044444
作 作 0.2000000
作 その他 0.2500000
锂 リチウム 1.0000000
周边 沿道 1.0000000
周边 周辺 0.6666667
密封 密閉 1.0000000
参 パラメータ 0.1250000
面板仪表 パネル 1.0000000
面板仪表 メータ 0.3333333
计划 プログラム 0.2000000
计划 NULL 0.0005184
计划 残して 0.5000000
计划 計画 0.8666667
变数 更新 0.0833333
变数 パラメタ 0.1666667
变数 訓練 0.3333333
作为 目的 0.0526316
作为 作成 0.0769231
作为 応用 0.0526316
作为 用い 0.1111111
作为 シックハウス 0.1000000
作为 気候 0.1250000
作为 と 0.0235479
作为 は 0.0102828
作为 等 0.0243902
作为 得る 0.2000000
作为 Ｖｉｅｗｅｒ 0.3333333
作为 錯 0.2000000
作为 義務付け 0.2000000
作为 ＰＣＢ 0.2222222
作为 テーマ 0.5000000
作为 ＳｉＯ 0.5000000
作为 非 0.0769231
作为 して 0.0401606
作为 である 0.0099010
作为 主な 0.2500000
作为 スト 0.2000000
作为 更生 0.2500000
作为 イミド 0.3333333
作为 を 0.0232759
作为 進んだ 0.5000000
作为 普通 0.5000000
作为 地球 0.1666667
作为 ダイナミック 0.1428571
作为 におい 0.2500000
作为 NULL 0.0072576
作为 単 0.2500000
作为 ＨＨＭＭ 0.1250000
作为 北海道 0.1666667
作为 解析 0.0357143
作为 も 0.0240000
带来 軟化 0.1428571
带来 来る 0.5000000
带来 が 0.0014684
带来 一層 0.2500000
带来 外使 0.2000000
带来 的 0.0147059
带来 に 0.0060137
带来 もたらさ 1.0000000
带来 与える 0.1250000
带来 更に 0.2000000
金属 金属 1.0000000
金属 メタル 0.2500000
金属 つなげて 0.2500000
金属 NULL 0.0015552
金属 レアメタル 0.4285714
内面 内面 1.0000000
麦 麦 1.0000000
讨 NULL 0.0005184
令 令 1.0000000
过滤→ → 0.1428571
过滤→ ろ過 0.0588235
３０ さ 0.0049020
３０ ３０ 1.0000000
Ｎ２Ｏ Ｎ 0.2727273
Ｎ２Ｏ 寄与 0.3333333
Ｎ２Ｏ 生成に 0.5000000
Ｎ２Ｏ ２ 0.0352941
Ｎ２Ｏ Ｏ 0.5000000
插入 を 0.0008621
插入 挿入 0.8333333
插入 なる 0.0208333
插入 行う 0.0434783
插入 ながら 0.1428571
ＰＺＴ ＰＺＴ 1.0000000
ＰＺＴ トランスデューサ 0.5000000
死 である 0.0099010
死 死 0.2500000
０．２８ で 0.0022222
０．２８ ０．２８ 0.5000000
ＳＴＲＡＩＧＨＴ おける 0.0099010
ＳＴＲＡＩＧＨＴ ＳＴＲＡＩＧＨＴ 0.8333333
积分 積分 0.6666667
氧气 酸素 0.4444444
卫生 衛生 1.0000000
卫生 無い 0.2500000
洼地土 土 0.0454545
洼地土 低地 0.5000000
哪 無く 0.2500000
热力 温熱 1.0000000
候补 と 0.0015699
候补 候補 1.0000000
烧叶 焼け 0.5000000
烧叶 葉 0.0285714
大肠 大腸 0.8000000
任务 タスク 1.0000000
任务 NULL 0.0005184
任务 課題 0.0714286
院 院 1.0000000
乙炔 アセチレン 1.0000000
搅乱 撹乱 0.1428571
击穿 NULL 0.0005184
击穿 破壊 0.5000000
写 ワープロ 0.3333333
囊括 統括 0.3333333
１时间到９ １ 0.0104167
１时间到９ ９ 0.0714286
１／２．４ ．４ 1.0000000
１／２．４ １／２ 0.3333333
ｇ／ｇ ｇ 0.5000000
吨 トン 1.0000000
吨 であった 0.0666667
吨 ｔ 0.1111111
非常 極めて 0.2500000
非常 NULL 0.0010368
非常 こと 0.0110497
非常 広く 0.2000000
非常 して 0.0040161
非常 非常に 0.2500000
非常 と 0.0015699
非常 重要である 0.2000000
非常 よく 0.2000000
冰 氷 0.5000000
冰 満たして 0.5000000
定为 を 0.0017241
定为 と 0.0015699
定为 定めて 1.0000000
执行 大臣 0.3333333
执行 履行 0.3333333
执行 実行 0.4000000
棒 棒 0.5000000
棒 さ 0.0049020
个别 する 0.0034014
个别 個別 0.5000000
设计 設計 1.0000000
设计 デザイン 0.4000000
管中管 共に 0.2000000
８５ ８５ 0.5000000
覆土 覆土 0.5000000
覆土 どの 0.3333333
相近 実際 0.0909091
相近 近い 0.5000000
方程式 方程式 0.6000000
方程式 アレニウス 0.3333333
方程式 ランジュバン 0.5000000
方程式 式 0.1111111
菌群 群 0.1538462
菌群 菌 0.2000000
２００３ ２００３ 0.0833333
下雪 少 0.6666667
下雪 雪 0.5000000
绿化 緑 0.2500000
绿化 努めて 0.5000000
绿化 緑化 1.0000000
切割 切り 0.5000000
切割 取る 1.0000000
净化 浄化 1.0000000
净化 よる 0.0090090
高度 高度な 1.0000000
高度 高 0.0444444
高度 高い 0.0357143
高度 高度 1.0000000
高度 さ 0.0098039
合同 作った 0.3333333
合同 切れ 0.3333333
合同 契約 1.0000000
产量 ｔ 0.2222222
产量 の 0.0005322
产量 収量 0.3888889
共价键 共有 0.2000000
共价键 結合 0.3333333
硬铝线 線 0.0454545
硬铝线 軟化 0.1428571
硬铝线 素 0.0625000
连 接する 0.3333333
°００’Ｅ Ｅ 0.2000000
°００’Ｅ ° 0.1666667
高茎 茎 0.1428571
高茎 高 0.0222222
动物 動物 0.7777778
动物 ため 0.0107527
硅器件 デバイス 0.3333333
硅器件 シリコン 0.3333333
用量 報 0.2000000
让 図り 0.3333333
让 都道府県 0.2500000
让 こと 0.0055249
让 NULL 0.0010368
让 する 0.0068027
过滤· ろ過 0.0588235
过滤· よる 0.0090090
过滤· ･ 0.0185185
制法 法 0.0131579
制法 取締 0.5000000
中华 中華民国 0.5000000
ＭＳＺ ＭＳＺ 1.0000000
嵌入 組 0.3333333
嵌入 込み 0.1818182
嵌入 応える 1.0000000
草案 案 1.0000000
肝油 スクワレン 0.5000000
采气 採 0.2500000
采气 気 0.1428571
涂层 コーティング 0.5000000
变少 危険 1.0000000
实况 実態 0.1111111
系统 デオライザー 0.5000000
系统 NULL 0.0005184
系统 系統 0.2352941
系统 系 0.4444444
系统 シームシステム 0.5000000
系统 システム 0.9268293
系统 水系 0.5000000
２５ ２５ 0.4000000
ｔｏｔａｌ ｔｏｔａｌ 0.5000000
背阴部 日陰 1.0000000
背阴部 違い 0.1428571
背阴部 明らかな 0.3333333
背阴部 部 0.0454545
施工 NULL 0.0005184
施工 ＰＩＰ 0.1428571
施工 工 0.2500000
施工 管 0.0312500
施工 原価 0.3333333
施工 施工 1.0000000
施工 工法 0.4864865
施工 工事 0.7500000
Ｚｎ Ｚｎ 1.0000000
若干 つ 0.0625000
若干 異質 0.3333333
若干 か 0.0571429
若干 いく 0.1428571
捕捉 NULL 0.0005184
捕捉 わかった 0.3333333
捕捉 補足 0.6250000
捕捉 捕捉 1.0000000
白化 であり 0.0357143
白化 アルビノ 0.3333333
慢性 慢性 0.3333333
慢性 曝さ 0.2500000
故障 デバッグ 0.4000000
故障 も 0.0080000
故障 対する 0.0357143
故障 いて 0.3333333
故障 して 0.0040161
故障 故障 1.0000000
故障 その 0.0126582
要求 向けた 0.3333333
要求 要求 0.4285714
要求 が 0.0014684
要求 へ 0.0153846
甲基 メチル 1.0000000
资格 持った 0.5000000
资格 資格 0.5000000
名古屋 名古屋 0.2500000
累加值 より 0.0105263
累加值 も 0.0080000
累加值 値 0.0204082
累加值 加算 1.0000000
深造 進学 1.0000000
转基因 遺伝子 0.0769231
转基因 導入 0.0555556
做为 実際 0.0909091
煤灰 石炭 0.2000000
煤灰 灰 0.5000000
ＨＳ ＨＳ 0.7500000
发显 顕著に 0.2000000
发显 ますます 0.5000000
注射 量 0.0172414
注射 シリンジ 0.2000000
注射 注入 0.1428571
露天 堀 0.2500000
适宜 恵ま 0.5000000
低温 低温 0.6000000
应用 タイヤ 0.1428571
应用 用途 0.3333333
应用 強化 0.2000000
应用 へ 0.0769231
应用 応用 0.7894737
应用 適用 0.1904762
应用 NULL 0.0020736
应用 フェノール 0.2000000
第１４天 日 0.0303030
第１４天 １４ 0.1666667
第１４天 目 0.1000000
废碎 カレット 0.5000000
香草 バニラ 0.5000000
具体 的に 0.0212766
具体 解説 0.0769231
具体 的な 0.0200000
具体 詳しい 0.3333333
具体 具体 0.8000000
以及 ともに 0.0769231
以及 はじめ 0.2000000
以及 そして 0.1666667
以及 ならびに 0.2000000
以及 新設 0.5000000
以及 並びに 0.2500000
以及 市民 0.3333333
以及 式 0.0555556
以及 続く 1.0000000
以及 製 0.2000000
以及 さらに 0.0800000
以及 や 0.0363636
以及 強化 0.2000000
以及 処分 0.1428571
以及 と 0.0109890
以及 及び 0.3606557
以及 フロー 0.1666667
以及 および 0.3387097
以及 NULL 0.0025920
以及 ず 0.0714286
以及 ， 0.0072464
以及 黄 0.2500000
＞ ＞ 0.8333333
降水 降水 0.2500000
降水 NULL 0.0005184
县产 産 0.5000000
县产 都 0.2500000
县产 県 0.0666667
定律 則 0.5000000
定律 自乗 0.3333333
世界 世界 1.0000000
世界 NULL 0.0005184
世界 中 0.0172414
获取 応じて 0.3333333
获取 より 0.0105263
获取 経 0.1250000
自养 独立 0.3333333
设管 管 0.0312500
干劲 やる 1.0000000
干劲 気 0.1428571
傍晚 夕方 1.0000000
牛肉 牛肉 1.0000000
何 何らか 1.0000000
何 素 0.0625000
厂样水 試料 0.0400000
厂样水 場 0.0416667
厂样水 水 0.0142857
安装 や 0.0090909
安装 取り付け 0.5000000
安装 を 0.0008621
安装 下端 0.3333333
水沟 溝 0.5000000
过滤 ろ過 0.4705882
训练 訓練 0.3333333
训练 コンテンツ 0.5000000
训练 対する 0.0357143
训练 ラーニング 0.5000000
训练 なる 0.0208333
既 場合 0.0256410
Ｏｘｔｒａｎ で 0.0022222
耕种 耕作 0.5000000
耕种 へ 0.0153846
零排放 ゼロエミッション 0.3333333
零排放 − 0.0097087
优先 れ 0.0357143
家 カ所 1.0000000
家 病院 0.1052632
科技 パナソニックファクトリーソリューションズ 0.2500000
科技 でも 0.0526316
科技 株 0.1000000
科技 ） 0.0040650
法规 他の 0.1250000
法规 法規 1.0000000
按照 大臣 0.3333333
按照 行う 0.0434783
按照 従って 0.2000000
按照 ついて 0.0192308
按照 ， 0.0022297
经历 経験 0.1250000
经历 NULL 0.0005184
做法 見て 0.3333333
做法 さまざまな 0.2000000
做法 やり 1.0000000
做法 だけ 0.1111111
做法 方 0.0714286
河流 流出 0.0476190
河流 河川 0.0526316
３７９ ３７９ 1.0000000
试料 試料 0.4000000
绿色 クリーン 1.0000000
绿色 プロ 0.2000000
绿色 グリーン 1.0000000
Ｆｌｕｏｒｅｓｃｅｎｔ Ｆｌｕｏｒｅｓｃｅｎｔ 1.0000000
进样量 シリンジ 0.2000000
进样量 １ 0.0104167
进样量 μ 0.2000000
河 川 0.0909091
河 Ｊｏｓｅｐｈ 0.2000000
Ｂｏｒｅ Ｂｏｒｅ 1.0000000
　其四 ４ 0.0277778
　其四 その 0.0126582
　其四 　 0.0133333
　其四 保証 0.2500000
源流 基づき 0.1666667
源流 源流 1.0000000
收发 授受 0.5000000
府 市 0.0666667
府 ＲＲＦ 0.2500000
府 職員 0.3333333
如下 通り 1.0000000
如下 である 0.0099010
如下 は 0.0012853
如下 NULL 0.0005184
如下 得た 0.1428571
如下 次の 0.2000000
如下 結論 0.2500000
ＩＡＰＷＳ ＩＡＰＷＳ 1.0000000
ＩＡＰＷＳ 認め 0.1000000
ＩＡＰＷＳ いる 0.0052356
ＩＡＰＷＳ られて 0.1250000
细胞 がん 0.2500000
细胞 細胞 0.9090909
网络 ネットワーク 0.7647059
３ ３ 0.4761905
ｍａｘ ｍａｘ 1.0000000
出击 し 0.0062893
出击 同士 0.2500000
单音 純 0.3333333
单音 音 0.3333333
水热 熱 0.0625000
水热 水 0.0142857
水热 配合 0.2500000
除了 NULL 0.0005184
除了 以外 0.1250000
除了 ， 0.0016722
土建 土 0.1363636
土建 の 0.0005322
限定 れた 0.0151515
限定 限ら 0.5000000
摄影机 カメラ 0.3333333
沙蚕 ゴカイ 1.0000000
β－硼 シリコン 0.3333333
源头 源 0.2727273
源头 から 0.0140845
些许 一助 0.3333333
不管 無く 0.2500000
Ｒｉｖｅｒｓｉｄｅ リサイクリング 0.5000000
Ｒｉｖｅｒｓｉｄｅ ランド 0.3333333
Ｒｉｖｅｒｓｉｄｅ Ｒｉｖｅｒｓｉｄｅ 0.5000000
征询 アンケート 0.2000000
病 シックハウス 0.1000000
病 症 0.5000000
即使 NULL 0.0020736
即使 とき 0.1428571
即使 たとえ 1.0000000
即使 すなわち 0.1250000
即使 に 0.0008591
即使 よって 0.0222222
即使 繰り返す 1.0000000
即使 近隣 0.3333333
即使 は 0.0012853
即使 先進 0.1666667
ａｅｔｈｉｏｐｉｃａ ａｅｔｈｉｏｐｉｃａ 1.0000000
步行 歩行 0.5000000
干燥 アラメ 0.2500000
干燥 乾燥 0.6666667
ＲＧＲ 示す 0.0434783
ＲＧＲ ＲＧＲ 0.4285714
９．８ ９．８ 0.5000000
极低 極 0.5000000
决定 決定 0.4545455
决定 よって 0.0222222
决定 決まる 0.5000000
决定 決まった 1.0000000
决定 ， 0.0011148
决定 で 0.0044444
决定 あり 0.0416667
决定 NULL 0.0005184
决定 依存 0.1111111
决定 切れ 0.3333333
决定 は 0.0025707
脉冲 ノーマル 0.2500000
脉冲 パルス 0.2500000
降 降水 0.2500000
降 である 0.0099010
除草 下 0.0526316
除草 草刈り 1.0000000
除草 除草 0.5000000
左右 であり 0.0357143
左右 ほど 0.1428571
左右 程度 0.3846154
左右 左右 1.0000000
左右 NULL 0.0005184
推论 推測 0.1666667
推论 信頼 0.1250000
推论 進歩 1.0000000
推论 ある 0.0178571
推论 ついて 0.0096154
将 する 0.0136054
将 し 0.0628931
将 今後 0.0666667
将 両 0.0625000
将 はじめ 0.2000000
将 タイヤシュレッズ 0.3333333
将 硬 0.2500000
将 古 0.2500000
将 テンシオメータ 0.3333333
将 に 0.0060137
将 用紙 0.3333333
将 白色 0.3333333
将 鶴 0.1250000
将 アルミ 0.1666667
将 電圧 0.0666667
将 上 0.0666667
将 公団 0.5000000
将 おり 0.0769231
将 油 0.1666667
将 ＥＸ 0.2000000
将 ＺＧ 0.5000000
将 充填 0.2500000
将 ネットワーク 0.0588235
将 NULL 0.0062208
将 集計 0.5000000
将 つなげて 0.2500000
将 各 0.0333333
将 生ごみ 0.0909091
将 国境 0.3333333
将 ポリマー 1.0000000
将 で 0.0022222
将 が 0.0073421
将 庁 0.1428571
将 大量 0.5000000
将 再 0.0384615
将 用い 0.2222222
将 は 0.0102828
将 アナタース 0.5000000
将 地下茎 0.0909091
将 ， 0.0100334
将 行い 0.0625000
将 カラマツ 0.1666667
将 予定 0.5000000
将 サクラ 0.5000000
将 よる 0.0090090
将 潮 0.1428571
兵库县 県 0.1333333
兵库县 兵庫 1.0000000
） ） 0.9390244
） 有無 0.2000000
） で 0.0022222
） NULL 0.0020736
） なって 0.0625000
） 元 0.2500000
） ベンド 1.0000000
） 来襲 0.5000000
４０ ４０ 0.6666667
偏析 挙動 0.0909091
偏析 的 0.0147059
偏析 時 0.0500000
偏析 経 0.1250000
偏析 本 0.0172414
偏析 溶出 0.2307692
方便 便利に 0.5000000
方便 内視鏡 0.0666667
方便 できて 1.0000000
方便 運び 0.5000000
鱼肉 肉 1.0000000
鱼肉 魚肉 0.3333333
大部分 だいたい 0.3333333
大部分 ほとんど 0.0833333
大部分 除く 0.5000000
大部分 地 0.0833333
大部分 良好に 0.5000000
尾草 で 0.0022222
尾草 セージ 0.2500000
ＯＮ／ＯＦＦ ／ 0.0370370
ＯＮ／ＯＦＦ ＯＦＦ 0.5000000
炉渣 スラグ 0.5000000
场所 先 0.1428571
场所 場 0.0833333
场所 場所 0.3333333
场所 空 0.3333333
给出 与え 0.2500000
给出 られる 0.0263158
进而 さらに 0.0400000
收支 収支 1.0000000
发 ･ 0.0370370
发 エンジン 0.3333333
计 計 0.6666667
计 テンシオメータ 0.3333333
计 計測 0.1111111
贮留 貯留 0.6000000
抗氧 硬度 0.5000000
抗氧 酸化 0.0476190
过滤法 ろ過 0.0588235
过滤法 法 0.0131579
过滤法 沈殿 0.2500000
土木 土木 1.0000000
土木 用 0.0434783
合板 合板 0.6923077
稍 は 0.0038560
稍 か 0.0285714
稍 やや 0.8000000
稍 同じ 0.1000000
提取 抽出 0.3000000
提取 採取 0.0625000
提取 用いて 0.0344828
提取 低い 0.2000000
提取 コンテクスト 0.1666667
式 NULL 0.0005184
式 式 0.3888889
完全 完全に 1.0000000
完全 と 0.0031397
完全 生体 0.1666667
完全 完全な 1.0000000
完全 完全 1.0000000
框架 枠組み 0.5000000
概念 ついて 0.0096154
概念 示す 0.0434783
概念 概念 1.0000000
２００１年 年 0.0526316
２００１年 ２００１ 0.8571429
植被 なく 0.0454545
植被 必ず 0.5000000
植被 植生 1.0000000
浸渍 これ 0.0181818
内分泌 用いた 0.0416667
内分泌 内分泌 0.5000000
文件 ファイルサーバ 0.3333333
文件 ファイル 0.8260870
５％ ５ 0.0400000
５％ である 0.0099010
５％ ％ 0.0344828
第５节 ５ 0.0400000
第５节 第 0.0227273
第５节 節 0.1428571
向Ｓｔ Ｓｔ． 0.3333333
５００ ５００ 0.5000000
锅炉 ボイラ 1.0000000
锅炉 ボイラー 0.5000000
相 組み 0.5000000
相 NULL 0.0005184
相 相 0.3333333
并且 そして 0.3333333
并且 Ｐｂ 0.1250000
并且 さらに 0.2000000
并且 確保 0.1666667
并且 し 0.0377358
并且 そこ 0.0833333
并且 かつ 0.0666667
并且 浸し 1.0000000
并且 ホウ 0.2000000
并且 また 0.0566038
， だ 0.2000000
， が 0.0822320
， 大きな 0.0714286
， で 0.1311111
， わたる 0.3333333
， である 0.0198020
， して 0.0240964
， スーパー 0.2000000
， さ 0.0294118
， 伴い 0.2500000
， 位置 0.1000000
， ， 0.4838350
， こと 0.0165746
， と 0.0784929
， は 0.1786632
， 台 0.1666667
， まで 0.0666667
， おいて 0.2000000
， に 0.1048110
， ので 0.0500000
， ため 0.0967742
， し 0.2201258
， なり 0.1578947
， する 0.0476190
， より 0.0315789
， NULL 0.0440643
， 比べて 0.2000000
， な 0.0714286
， の 0.0005322
， を 0.1758621
， ３８ 0.3333333
， であり 0.1785714
， 今 0.1666667
催化 触媒 0.1111111
ＮＢ ＮＢ 1.0000000
消耗 消費 0.2000000
磁性 磁性 0.2500000
理论 である 0.0099010
理论 理論 1.0000000
预热→反应→冷 → 0.1428571
预热→反应→冷 予熱 0.5000000
预热→反应→冷 反応 0.0434783
ＤＬＣ ＤＬＣ 0.6000000
ｔ ｔ 0.1111111
ｔ あり 0.0416667
作用 役立た 0.3333333
作用 こと 0.0220994
作用 効果 0.0476190
作用 作用 0.8888889
作用 光合成 0.3333333
作用 なった 0.0476190
作用 寄与 0.3333333
作用 が 0.0073421
作用 NULL 0.0005184
作用 明らかに 0.2000000
作用 役割 0.5000000
作用 する 0.0068027
作用 ソノケミストリー 0.1428571
湖 湖 0.3750000
品系 系統 0.2941176
品系 選抜 0.1428571
品系 すなわち 0.1250000
著者 NULL 0.0005184
著者 著者 0.2000000
ＡＳＣＲ 断線 0.5000000
隔热 断熱 0.3333333
耐蚀 耐 0.3333333
耐蚀 食 0.1250000
色层 ガスクロマトグラフ 0.3333333
山北·六道山 野 0.5000000
山北·六道山 山北 1.0000000
山北·六道山 山 0.2000000
山北·六道山 都立 1.0000000
被 自律 0.1428571
被 に 0.0034364
被 説 0.1111111
被 的に 0.0212766
被 被 0.1250000
被 投棄 0.5000000
被 あまり 0.2500000
被 の 0.0005322
被 制作 0.3333333
被 NULL 0.0031104
被 ように 0.0500000
被 慢性 0.3333333
被 ない 0.0163934
被 ８５ 0.5000000
被 レザー 0.5000000
被 れて 0.0270270
被 一般に 0.2000000
被 オレガノ 0.3333333
被 認知 0.4000000
被 白紙 1.0000000
被 ソルビトール 0.1666667
被 が 0.0146843
被 “ 0.2500000
被 さ 0.0588235
被 シース 0.3333333
被 ± 0.2000000
被 氷 0.5000000
被 れた 0.0151515
被 して 0.0160643
被 れる 0.0135135
被 担 0.2500000
被 因 0.5000000
被 水柱 0.5000000
被 Ｗｅｌｃｈ 0.5000000
被 は 0.0064267
完善 不備 0.5000000
ＨＯＲＩＢＡ ＨＯＲＩＢＡ 0.5000000
防除 られた 0.0172414
防除 防除 1.0000000
生长 ， 0.0005574
生长 生長 0.4000000
生长 NULL 0.0010368
生长 圃場 0.6666667
生长 成長 0.8125000
生长 生活 0.2222222
生长 地区 0.1428571
生长 始める 1.0000000
生长 生育 0.5000000
水稻 水稲 0.5000000
水稻 与 0.2500000
修版 レタッチ 1.0000000
修版 なく 0.0454545
修版 簡単な 0.2000000
松下 松下 0.4444444
松下 パナソニックファクトリーソリューションズ 0.2500000
环糊精 デキ 0.3333333
环糊精 シクロ 0.3333333
环糊精 スト 0.2000000
环糊精 リン 0.1428571
机构 機構 0.3333333
机构 解説 0.0769231
实用 実用 1.0000000
衰退 衰退 0.5000000
衰退 顕著に 0.2000000
衰退 難聴 0.3333333
衰退 バイオボラタリゼーション 0.3333333
衰退 が 0.0014684
衰退 した 0.0028169
埋入 擁壁 1.0000000
埋入 裏 0.5000000
升 一時的に 0.2500000
盐类 塩 0.3636364
盐类 類 0.0754717
田地 作付け 0.2857143
居民 など 0.0169492
居民 員 1.0000000
居民 より 0.0105263
居民 住民 0.7500000
居民 棟 0.3333333
不安 見舞い 1.0000000
分泌 撹乱 0.1428571
培训 教育 0.0869565
培训 NULL 0.0005184
蒸气 蒸気 0.5000000
单层 持した 1.0000000
单层 単 0.2500000
单层 層 0.0476190
销售 さ 0.0049020
销售 いる 0.0052356
销售 市販 0.3333333
我 れて 0.0135135
基于 ， 0.0011148
基于 観点 0.2500000
基于 現 0.3333333
基于 は 0.0012853
基于 日 0.0303030
基于 ２０００ 0.1428571
维持 上げ 0.3333333
维持 その 0.0126582
维持 維持 1.0000000
培育 NULL 0.0005184
培育 作 0.2000000
培育 育成 0.6666667
春天 ヒト 0.1428571
含于 煙 1.0000000
光照 より 0.0210526
光照 も 0.0080000
光照 光 0.0666667
光照 NULL 0.0005184
赤潮 磯 1.0000000
赤潮 焼け 0.5000000
制订 へ 0.0153846
制订 策定 0.3333333
种间 属する 1.0000000
种间 間 0.0408163
种间 なし 0.3333333
种间 種 0.0625000
废材 廃材 1.0000000
配管 配管 1.0000000
命名 “ 0.2500000
命名 名称 0.2500000
技术 セールスエンジニアリング 0.3333333
技术 ノウハウ 0.5000000
技术 放射 0.1666667
技术 検査 0.0769231
技术 技術 1.0000000
技术 ハイテク 0.5000000
技术 NULL 0.0005184
技术 得る 0.2000000
技术 エンジニア 0.5000000
总量 総量 1.0000000
理解 理解 1.0000000
课题 課題 0.6428571
课题 述べた 0.0625000
课题 ある 0.0178571
课题 なろう 0.3333333
课题 NULL 0.0005184
１３７ １３７ 1.0000000
窄带谱 帯域 1.0000000
窄带谱 スペクトル 0.1111111
窄带谱 狭 1.0000000
乙基甲烷磺酸 酸 0.0833333
乙基甲烷磺酸 エチルメタンスルフォン 0.5000000
积极 文部 0.3333333
积极 の 0.0010644
积极 付けて 0.2500000
积极 会議 0.3333333
积极 推進 0.1666667
积极 種々の 0.5000000
积极 NULL 0.0005184
无论 ホウ 0.2000000
无论 れた 0.0151515
无论 示唆 0.1111111
无论 さ 0.0049020
蛋白 タンパク 1.0000000
蛋白 NULL 0.0015552
蛋白 質 0.0810811
蛋白 ケラチン 0.6250000
蛋白 分げつ 0.0769231
蛋白 蛋白 0.5555556
结束 終了 1.0000000
过滤效率 効率 0.0526316
过滤效率 ろ過 0.0588235
相同 同様の 1.0000000
相同 同様 0.6666667
相同 同じ 0.3000000
相同 行う 0.0434783
相同 と 0.0062794
相同 Ｊｏｓｅｐｈ 0.2000000
相同 姿勢 0.3333333
相同 NULL 0.0005184
鲨鱼 頭部 0.3333333
鲨鱼 ヨシキリザメ 0.4000000
鲨鱼 サメ 1.0000000
鲨鱼 船上 0.2500000
Ｉｎｄｉｃａｔｏｒ Ｉｎｄｉｃａｔｏｒ 0.5000000
内 内視鏡 0.2666667
内 区間 0.5000000
内 期 0.0769231
内 さ 0.0049020
内 共生 0.3333333
内 で 0.0355556
内 に 0.0017182
内 範囲 0.4000000
内 内 0.6567164
内 め 0.5000000
内 作付け 0.2857143
内 ワグネルポット 0.5000000
内 おける 0.0099010
内 域 0.3333333
内 ところ 0.2000000
内 NULL 0.0005184
内 ハウス 0.1250000
内 カラム 0.1428571
内 撹乱 0.1428571
内 地区 0.2857143
钢心 鋼 0.3333333
钢心 心 0.2500000
Ｈ Ｈ 1.0000000
４．５ ４．５ 1.0000000
建成 整備 0.2000000
建成 生き物 1.0000000
建成 した 0.0028169
回转 ジャイロスコープ 0.3333333
小 小さく 0.1666667
小 小さかった 0.5000000
小 グリセロール 0.2500000
小 は 0.0025707
小 小さい 0.5000000
小 ピン 0.3333333
小 偏 0.5000000
小 小さな 0.5000000
小 微小 0.2000000
小 NULL 0.0010368
小 ある 0.0178571
小 微 0.2000000
小 小 0.5000000
ＲｏＨＳ ＲｏＨＳ 1.0000000
ＲｏＨＳ 不 0.2000000
ＲｏＨＳ 使用 0.0263158
化强 大 0.0909091
化强 抵抗 0.1000000
高性 高 0.0222222
森林 森林 0.6666667
最新 最新 0.7500000
最新 最新の 1.0000000
最新 動向 0.1111111
最新 ついて 0.0096154
最新 最近 0.2857143
文研 NULL 0.0005184
基本 NULL 0.0005184
基本 大部分 0.5000000
基本 的 0.0147059
基本 ほぼ 0.5000000
基本 基本 0.7777778
基本 っ 0.5000000
延伸 伸び 1.0000000
还 奪わ 0.3333333
还 だけ 0.1111111
还 または 0.1428571
还 は 0.0025707
还 規定 0.1428571
还 そこ 0.0833333
还 を 0.0068966
还 地図 0.2000000
还 NULL 0.0041472
还 浮き彫り 0.5000000
还 削減 0.1000000
还 訴え 0.5000000
还 ， 0.0016722
还 硝酸態窒素 0.0625000
还 まだ 0.2500000
还 不明である 0.2000000
还 額 0.3333333
还 も 0.0160000
还 結び 0.5000000
色素 プラスチド 0.3333333
渔场 漁場 1.0000000
滋贺县 滋賀 0.5000000
重大 重大 1.0000000
重大 きて 0.3333333
重大 集めて 1.0000000
重大 生じて 0.2500000
１１０％ 水量 0.1250000
１１０％ １１０ 0.2000000
１１０％ ％ 0.0344828
表格 表 0.0714286
科 科 0.5000000
硬质 さ 0.0049020
硬质 硬質 1.0000000
甜玉米 スィートコーン 0.6000000
政府 政府 1.0000000
政府 相談 0.2500000
创造 創造 0.6666667
创造 自己 0.1250000
波长 選択 0.1111111
波长 波長 1.0000000
波长 よる 0.0090090
柱径 コラム 0.3333333
柱径 径 0.1000000
大 多く 0.0400000
大 潜在 0.2500000
大 大 0.6363636
大 最大 0.1764706
大 傾注 0.3333333
大 著しく 0.5000000
大 ラージ 0.5000000
大 ほど 0.1428571
大 異なり 0.5000000
大 なった 0.1428571
大 大きな 0.5000000
大 広範 0.5000000
大 かさばる 0.5000000
大 なる 0.0208333
大 大きく 0.2777778
大 さらに 0.0400000
大 大国 0.3333333
大 ヤマトオサガニ 0.3333333
大 大きかった 0.6000000
大 最大の 0.3333333
大 大きい 0.5000000
大 かなり 0.5000000
大 ， 0.0005574
大 NULL 0.0031104
下村 氏 1.0000000
８ ８ 0.2941176
高 支える 0.5000000
高 高まる 0.1428571
高 効率 0.1052632
高 高く 0.7777778
高 高い 0.6071429
高 低かった 0.2500000
高 高値 1.0000000
高 優れる 0.1428571
高 ハイテク 0.2500000
高 NULL 0.0005184
高 高かった 0.5000000
高 優先 0.5000000
高 高 0.5333333
Ｎ Ｎ 0.0909091
硫磺 硫黄 0.4000000
加以 処分 0.1428571
加以 で 0.0022222
均一 は 0.0012853
均一 均一 0.5000000
均一 かつ 0.0666667
蓄留池 内 0.0149254
蓄留池 ため池 0.4000000
农政 さ 0.0049020
农政 れる 0.0135135
农政 農政 1.0000000
１９９９ １９９９ 0.2000000
５ ５ 0.5600000
免费 無償 0.5000000
免费 できる 0.0204082
损失 損失 0.6000000
损失 聴力 0.2500000
朊病毒病 プリオン 0.0909091
约２０ｇｍ－２ こと 0.0055249
约２０ｇｍ－２ 適正である 0.2500000
完成 重要であった 1.0000000
完成 完成 0.5000000
完成 を 0.0008621
完成 で 0.0022222
完成 し 0.0062893
完成 被せて 0.3333333
藻食 食 0.2500000
棕榈油 オイル 1.0000000
棕榈油 パーム 1.0000000
美 米 1.0000000
１５０ １５０ 1.0000000
１５０ さ 0.0049020
质量 質量 1.0000000
质量 食味 0.3636364
质量 品質 0.3750000
质量 質 0.0810811
质量 いる 0.0052356
质量 が 0.0029369
禁止 禁 1.0000000
对废 を 0.0008621
对废 用いた 0.0416667
对废 廃 0.1250000
食品 フード 0.5000000
食品 食品 0.5000000
手续 加入 0.3333333
手续 手続き 1.0000000
永久 永久 1.0000000
基础 ベース 1.0000000
基础 基幹 1.0000000
基础 基礎 1.0000000
基础 基づいて 0.2000000
基础 に 0.0034364
基础 基盤 0.3333333
基础 もと 0.3333333
基础 時刻 0.5000000
基础 NULL 0.0010368
基础 土台 1.0000000
基础 基 0.1818182
基础 アルミニウム 0.2500000
钼蓝 モリブデン 1.0000000
钼蓝 青 0.3333333
类金 ダイアモンドライクカーボン 0.2500000
性状 性 0.0072464
性状 質 0.0540541
性状 形 0.2727273
宽 幅 0.3333333
技能 的 0.0147059
技能 技能 1.0000000
技能 なる 0.0208333
题记类金刚石 で 0.0022222
题记类金刚石 標記 0.5000000
难易 難易 0.2000000
相当 相当 0.5000000
相当 どちら 0.5000000
相当 が 0.0014684
相当 できた 0.1111111
相当 かなり 0.5000000
ＭＣＳ ＭＣＳ 1.0000000
诉说 吹き出物 0.5000000
惯性 慣性 1.0000000
个人 個人 1.0000000
个人 NULL 0.0005184
上层 よる 0.0090090
上层 上層 1.0000000
幼体 幼生 1.0000000
老师 先生 1.0000000
异性 異方性 0.3333333
锡芯线 素 0.0625000
锡芯线 線 0.0454545
锡芯线 メッキ 0.6666667
真正 真 0.2000000
评论 制限 0.2500000
评论 こと 0.0055249
评论 有する 0.1666667
试验 試料 0.1600000
试验 軽視 0.2500000
试验 実験 0.0789474
试验 試験 0.8148148
实测 同 0.1250000
实测 実測 0.7142857
红松 アカマツ 1.0000000
率 補足 0.1250000
率 率 0.7105263
率 頻度 0.1111111
率 NULL 0.0015552
触觉 触覚 1.0000000
氨基甲烷 アミノメタン 1.0000000
ＸＰ ＸＰ 0.5000000
劣化 経 0.2500000
劣化 年 0.0263158
劣化 劣化 0.2222222
安定性 提示 1.0000000
安定性 安定 0.1250000
安定性 性 0.0072464
摄食 用 0.0434783
摄食 摂食 0.5000000
春季 春季 1.0000000
成分 成分 0.7777778
枯枝 リター 0.5000000
ｓｕｂｎａｔｉｏｎａｌ ｓｕｂｎａｔｉｏｎａｌ 1.0000000
水平 レベル 0.4615385
水平 NULL 0.0005184
水平 水準 1.0000000
水平 であった 0.0666667
双 酸化 0.0476190
双 片側 0.5000000
双 ビスフェノールＡ 0.3333333
双 ダブル 1.0000000
双 ２ 0.0117647
隔热化 化 0.0126582
隔热化 断熱 0.3333333
有利 有利な 1.0000000
有利 で 0.0022222
柳安 ラワン 0.1428571
外皮 被 0.1250000
外皮 外 0.0588235
岩石 岩 0.3333333
片状 細かく 0.5000000
片状 加工 0.3333333
片状 し 0.0062893
认知 れ 0.0357143
认知 れる 0.0135135
认知 認知 0.4000000
认知 ない 0.0163934
大学生 スキル 0.5000000
大学生 大学生 0.5000000
产卵 産卵 1.0000000
ＨｇＳ ＨｇＳ 1.0000000
享为 共有 0.2000000
太 まで 0.0333333
太 これ 0.0181818
太 性 0.0072464
雷 雷 1.0000000
雷 せた 0.0833333
难溶性 難溶性 1.0000000
难溶性 である 0.0099010
难溶性 ため 0.0107527
左 左 0.5000000
川 川 0.4545455
川 川上 0.5000000
掌握 把握 0.6000000
掌握 から 0.0070423
掌握 習 1.0000000
遗憾 残念な 0.5000000
遗憾 こと 0.0055249
处 で 0.0022222
处 から 0.0140845
处 入り口 0.2500000
处 別 0.2000000
处 点 0.1176471
处 箇所 0.1428571
记录 さ 0.0147059
记录 記載 0.5000000
记录 ロガー 0.5000000
记录 記録 0.6000000
记录 NULL 0.0005184
记录 れた 0.0303030
效果 効果 0.6190476
效果 達成 0.3333333
效果 一層 0.2500000
效果 NULL 0.0005184
效果 示した 0.0416667
效果 コラーゲン 0.2000000
接着 さらに 0.0800000
接着 次に 0.1666667
却 もの 0.0222222
却 NULL 0.0010368
却 予熱 0.5000000
却 明確な 0.1666667
却 極めて 0.2500000
却 関して 0.1000000
却 は 0.0077121
却 られ 0.1176471
却 効率 0.1052632
大棚 ハウス 0.1875000
大棚 ビニル 0.3750000
卡尺 ノギス 1.0000000
水产物 ない 0.0163934
文章 必要であり 0.3333333
文章 本稿 0.0294118
文章 NULL 0.0005184
文章 で 0.0022222
感染 感染 1.0000000
接下来 続いて 0.2000000
红 赤 1.0000000
对ＮＥＣ－４ ＮＥ 1.0000000
对ＮＥＣ－４ Ｃ−４ 1.0000000
粒化 粒 0.1666667
粒化 造 0.6666667
７ 海 0.1428571
７ ７ 0.2307692
初生叶 葉 0.0285714
初生叶 初 0.2500000
初生叶 生 0.1111111
吸附剂 剤 0.2500000
直觉 勘 1.0000000
直觉 頼る 1.0000000
推定 よって 0.0222222
推定 推定 0.3750000
推定 から 0.0070423
放入 個別 0.1666667
半岛 半島 1.0000000
二 へ 0.0153846
二 ジメチルホルムアミド 0.2500000
二 二 0.0454545
旨 し 0.0062893
Ｌ 当り 1.0000000
Ｌ Ｌ 0.1666667
水 給水 0.5000000
水 した 0.0028169
水 水没 0.3333333
水 水質 0.0588235
水 水 0.6142857
水 水中 0.4444444
水 水溶 0.6666667
水 用水 0.5000000
水 ホテイアオイ 0.5000000
水 生水 0.7500000
水 水上 0.3333333
水 放流 0.1428571
水 溶 0.1250000
１５日 １５ 0.2727273
１５日 である 0.0099010
１５日 日 0.0909091
２５日 ２５ 0.1000000
２５日 日 0.0303030
整个 ， 0.0005574
整个 通じた 0.2500000
整个 NULL 0.0005184
整个 でも 0.0526316
灌水 潅水 1.0000000
灌水 行う 0.0434783
灌水 水 0.0142857
灰色 灰色 1.0000000
灰色 低地 0.5000000
出色 優れた 0.3333333
过去 間 0.0204082
过去 過去 0.7500000
情景 イベント 0.2500000
候诊室 待合室 1.0000000
３７ さ 0.0049020
３７ 設置 0.1666667
３７ ３７ 0.6666667
单叶 個 0.0909091
单叶 葉 0.0285714
海米 は 0.0012853
海米 コウボウムギ 0.5000000
氧化碘 よう 0.2500000
氧化碘 で 0.0022222
主要 主として 0.4000000
主要 して 0.0040161
主要 主に 0.5000000
主要 主要 0.6666667
主要 要因 0.2222222
主要 NULL 0.0005184
主要 主要な 0.3333333
主要 ， 0.0011148
主要 主たる 1.0000000
主要 主 0.5000000
主要 主な 0.5000000
主要 ｃ 0.3333333
第四 第 0.0227273
第四 四 0.1666667
Ｌ－体 体 0.0909091
斜率 傾き 1.0000000
事故 事故 1.0000000
冗余 リダンダンシー 1.0000000
和食 食 0.2500000
和食 と 0.0031397
彻底 徹底 1.0000000
彻底 的な 0.0200000
适氮 最適 0.1666667
从中 で 0.0022222
朔果 果 0.5000000
朔果 朔 0.5000000
脆弱 箇所 0.1428571
元 一元 0.5000000
Ｅ Ｅ 0.4000000
Ｅ 支援 0.0833333
１．０ １．０ 1.0000000
ＵＰＧＭＡ ＵＰＧＭＡ 1.0000000
面积 床面積 0.2500000
面积 延床面積 0.3333333
面积 面積 1.0000000
面积 NULL 0.0005184
面积 積 0.2857143
尾气 排ガス 0.2173913
抽取 抽出 0.1000000
亚像素 サブピクセル 0.6666667
亚像素 おいて 0.0166667
饱和 する 0.0034014
饱和 飽和 0.3333333
本身 異なって 0.2000000
本身 そのもの 1.0000000
本身 質 0.0270270
本身 大きく 0.0555556
凿岩机 ドリル 1.0000000
ＥＭ ところ 0.2000000
ＥＭ ＥＭ 1.0000000
１０ １０ 0.7096774
界面 インター 1.0000000
界面 いて 0.3333333
界面 インターフェース 1.0000000
界面 の 0.0005322
界面 フェイス 1.0000000
Ｍｏ Ｍｏ 1.0000000
长其叶数 成長 0.0625000
冈山县 行わ 0.2000000
直管 NULL 0.0005184
超声波 音波 0.5000000
超声波 超 0.2500000
玻璃 カレット 0.5000000
玻璃 ガラス 0.5000000
玻璃 使用 0.0263158
当量 適正である 0.2500000
当量 した 0.0028169
光源 光源 1.0000000
群 併せた 1.0000000
群 群 0.3846154
群 られる 0.0263158
群 考え 0.0322581
印第安纳州 インジアナ 0.5000000
农药 農薬 1.0000000
瓶装 で 0.0022222
瓶装 ボトル 0.1428571
麦子 コムギ 0.6666667
部位 箇所 0.4285714
部位 部 0.0454545
沉淀 沈殿 0.7500000
沉淀 が 0.0014684
水管法 規則 1.0000000
水管法 施行 0.1428571
５０ ５０ 0.5000000
Ｈａｒｄａｒｓｏｎ Ｈａｒｄａｒｓｏｎ 0.3333333
ＤＨｅａｔ ＤＨｅａｔ 1.0000000
有关 うち 0.3333333
有关 関する 0.1025641
有关 ＳＴＲＡＩＧＨＴ 0.1666667
有关 関連 0.0769231
有关 に 0.0042955
有关 この 0.0129870
有关 しぼり 0.5000000
有关 水道 0.1666667
有关 相談 0.2500000
有关 災害 0.1111111
有关 観点 0.2500000
有关 対し 0.1111111
有关 依存 0.1111111
有关 おける 0.0099010
有关 関係 0.0303030
有关 ついて 0.0096154
有关 ， 0.0005574
有关 現在 0.1666667
有关 調べた 0.0666667
有关 報告 0.0952381
有关 NULL 0.0025920
有关 バイオセイフティー 0.2500000
０．８９ で 0.0022222
０．８９ ０．８９ 0.3333333
超硬 工具 0.2500000
超硬 超 0.0833333
超硬 硬 0.2500000
龙格·库塔·吉 ・ 0.0357143
龙格·库塔·吉 ジル 0.5000000
龙格·库塔·吉 クッタ 1.0000000
亚 亜 0.3333333
亚 アジア 0.2000000
契机 契機 0.5000000
乱流 流 0.2142857
乱流 乱 1.0000000
全球 球 0.5000000
全球 地球 0.2777778
疏水 疎水 0.3333333
序号 へ 0.0153846
序号 番号 1.0000000
溶解性 作製 0.1000000
溶解性 溶解 0.0833333
才 腕 0.3333333
才 どのように 0.3333333
只要 帯 0.1250000
拖拽 引き寄せ 0.3333333
〈 〔 1.0000000
想 数 0.0185185
通导 通 0.5000000
通导 導 0.5000000
近来 NULL 0.0005184
诱因 病 0.3333333
　Ｉｍａｇｅ Ｉｍａｇｅ 1.0000000
　Ｉｍａｇｅ 　 0.0533333
失调 示唆 0.1111111
失调 失調 1.0000000
中子 中性子 0.7500000
中子 探る 0.3333333
中子 原子核 0.3333333
稳定性 性 0.0144928
稳定性 いる 0.0052356
稳定性 増して 1.0000000
稳定性 安定 0.2500000
更 更 0.2500000
更 も 0.0240000
更 更に 0.2000000
更 より 0.1368421
问卷 アンケート 0.2000000
问卷 首都 0.5000000
营造 図り 0.3333333
削减 できる 0.0204082
削减 用いる 0.1428571
削减 ついて 0.0096154
削减 削減 0.5000000
类型 タイプ 0.6250000
类型 型 0.0526316
类型 NULL 0.0005184
方形 平行 1.0000000
方形 いく 0.0714286
方形 方形 0.6666667
与ＧＣ－ＭＳ法 供する 1.0000000
与ＧＣ－ＭＳ法 ため 0.0107527
制成 ０ 0.1666667
制成 で 0.0022222
制成 した 0.0056338
制成 使う 0.3333333
制成 魚肉 0.3333333
制成 作製 0.2000000
温室 温室 0.6666667
温室 傾斜 0.2000000
温室 ハウス 0.3750000
温室 NULL 0.0005184
温室 場合 0.0256410
究竟 人畜 0.2500000
配子 生殖 1.0000000
配子 子 0.2500000
投资 投資 1.0000000
研究Ｖ NULL 0.0005184
ｍ ｍ 0.7692308
ｍ ／ｍ 0.5000000
图－５ ５ 0.0400000
图－５ − 0.0097087
图－５ 図 0.0588235
证实 導入 0.0555556
证实 し 0.0062893
马尔柯夫 マルコフ 0.5000000
解体 す 0.2500000
解体 解体 0.7500000
天然 天然ガス 0.3333333
天然 主として 0.2000000
天然 天然 0.6666667
推移 以内 0.2500000
筹划 立案 0.5000000
突然 突然 1.0000000
ＣｒＯｘ ＣｒＯｘ 1.0000000
层 階 1.0000000
层 多 0.0588235
层 層 0.4761905
日常 コレステロール 0.2500000
日常 日常 1.0000000
日常 ルーチン 1.0000000
日常 的に 0.0212766
日常 用いる 0.1428571
读出 する 0.0034014
读出 出し 1.0000000
读出 読み 0.5000000
ＴＥＱ ＴＥＱ 1.0000000
时期 １ 0.0104167
时期 時期 1.0000000
时期 の 0.0005322
时期 期間 0.2352941
外 NULL 0.0005184
外 共に 0.2000000
外 さまざまな 0.2000000
外 示した 0.0416667
外 他 0.2500000
外 落ち葉 0.1111111
内陆 内陸 1.0000000
内陆 用いた 0.0416667
外侧 外側 1.0000000
外侧 である 0.0099010
权威 有力な 1.0000000
权威 である 0.0099010
权威 方法 0.0270270
突出 太平洋 0.5000000
突出 国際 0.1111111
可靠 信頼 0.1250000
可靠 関する 0.0256410
可靠 性 0.0072464
墨粉飞溅 の 0.0005322
墨粉飞溅 飛散 0.2500000
墨粉飞溅 トナー 0.1250000
网站 サイト 0.1666667
网站 すすめ 1.0000000
连结 ， 0.0005574
求 斜 0.2000000
求 葉 0.0285714
求 求めた 0.2000000
关联 関連 0.3846154
关联 ため 0.0107527
关联 と 0.0015699
关联 関わろう 0.3333333
关联 関係 0.0606061
已经 ＵＳＦＷＳ 0.5000000
已经 NULL 0.0005184
已经 で 0.0022222
已经 １３０ 0.2500000
ＰＮ ＰＮ 1.0000000
总部 本社 0.5000000
跨 異 0.4000000
跨 業種 0.4000000
自己 し 0.0062893
自己 視 0.3333333
自己 NULL 0.0005184
自己 か 0.0285714
自己 定めた 0.5000000
自己 自分 0.6666667
化剂 抑制 0.0588235
化剂 オキシダント 0.3333333
