総 总降 0.5000000
ほぼ 总降 0.5000000
発展 进步 1.0000000
NULL 分别 0.0555556
それぞれ 分别 0.4444444
は 分别 0.1666667
が 分别 0.1111111
， 分别 0.0555556
を 分别 0.1666667
標高 海拔 1.0000000
共同 重视 0.5000000
NULL 重视 0.5000000
テント 帐状物 1.0000000
Ｙｏｋｏｙａｍａ Ｙｏｋｏｙａｍａ 1.0000000
的に ０硫磺 0.3333333
ゼロ ０硫磺 0.3333333
硫黄 ０硫磺 0.3333333
殻 二恶英量 0.3333333
量 二恶英量 0.3333333
ダイオキシン 二恶英量 0.3333333
土地 土地 1.0000000
伴い 加大 0.5000000
１．６ 加大 0.5000000
以外 其余 0.5000000
ら 其余 0.5000000
さも 拉伸 0.2500000
引張 拉伸 0.5000000
NULL 拉伸 0.2500000
ヤマトオサガニ 日本 0.0357143
日本 日本 0.9642857
アルデヒド 发生 0.0322581
と 发生 0.0322581
発生 发生 0.4516129
する 发生 0.0322581
生じた 发生 0.0322581
関わろう 发生 0.0322581
定着 发生 0.0322581
が 发生 0.1935484
いる 发生 0.0322581
NULL 发生 0.0322581
生じて 发生 0.0322581
わかる 发生 0.0322581
阻害 发生 0.0322581
ポリイミド 聚亚酰胺 0.3333333
性 聚亚酰胺 0.3333333
から 聚亚酰胺 0.3333333
ＴＰＲ ＴＰＲ 1.0000000
ヒストグラム 直方 0.5000000
単純 直方 0.5000000
知事 知事 1.0000000
の 明确 0.0714286
新 明确 0.0714286
に 明确 0.0714286
から 明确 0.0714286
マトリクス 明确 0.0714286
明確な 明确 0.2142857
NULL 明确 0.2142857
融雪 明确 0.0714286
より 明确 0.0714286
明確に 明确 0.0714286
ｌａｅｖｉｇａｔｕｍ ｌａｅｖｉｇａｔｕｍ 0.5000000
Ｂｏｉｓｓ ｌａｅｖｉｇａｔｕｍ 0.5000000
程度 风速 0.2500000
風速 风速 0.7500000
切り 方块 0.1428571
ブロック 方块 0.8571429
要約 非 0.1111111
非 非 0.6666667
大雨 非 0.1111111
NULL 非 0.1111111
” ＭＡＸ 0.5000000
ＭＡＸ ＭＡＸ 0.5000000
トリハロメタン 三卤代甲烷 0.6666667
おける 三卤代甲烷 0.3333333
的な 绝对 0.3333333
絶対 绝对 0.6666667
自乗 反比 1.0000000
行う 程序 0.1666667
遺伝 程序 0.1666667
プログラム 程序 0.5000000
的 程序 0.1666667
エネルギー 能源 1.0000000
圏 圈内 1.0000000
１４０ １４０ 1.0000000
マングローブ 红树林 0.5000000
林 红树林 0.5000000
現地 当地 0.5000000
おける 当地 0.5000000
スラグ 熔渣 0.5000000
溶融 熔渣 0.5000000
市場 市场 0.5833333
浸透 市场 0.0833333
れて 市场 0.1666667
市販 市场 0.0833333
いる 市场 0.0833333
増減 增减 0.5000000
すり減り 增减 0.2500000
動的に 增减 0.2500000
担 调制 0.2500000
調 调制 0.2500000
製 调制 0.2500000
持して 调制 0.2500000
的に 财政 0.5000000
財政 财政 0.5000000
部位 位水 0.5000000
水 位水 0.5000000
底 沉积物 0.4285714
関する 沉积物 0.1428571
質 沉积物 0.4285714
当初 当初 1.0000000
エヤワディーデルタ 伊洛瓦底江 1.0000000
白色 白色度 0.5000000
度 白色度 0.5000000
装置 装置ＴＰＮＡ－ 1.0000000
そのような 这 0.0196078
しまう 这 0.0196078
られて 这 0.0196078
このような 这 0.1176471
と 这 0.0392157
判断 这 0.0196078
究明 这 0.0196078
なぜなら 这 0.0196078
低減 这 0.0196078
こと 这 0.0392157
の 这 0.1176471
言う 这 0.0196078
NULL 这 0.1568627
この 这 0.3529412
比 这 0.0196078
アップ 上型 0.5000000
型 上型 0.5000000
塑 塑化 0.5000000
化 塑化 0.5000000
吸光 吸光 1.0000000
老朽 更换 0.2500000
培地 更换 0.2500000
管 更换 0.5000000
調べる 当中 0.5000000
中 当中 0.5000000
ＯＳ ＯＳ 1.0000000
ｍＥＲａ ｍＥＲａ 0.6000000
系 ｍＥＲａ 0.2000000
おいて ｍＥＲａ 0.2000000
３５ ～３５°Ｃ 0.2000000
° ～３５°Ｃ 0.4000000
Ｃ ～３５°Ｃ 0.2000000
〜 ～３５°Ｃ 0.2000000
プローブ 探针 1.0000000
ポリエステル 聚酯 1.0000000
前線 前线 1.0000000
率 透气率 0.5000000
透過 透气率 0.5000000
ＭＨｚ ＭＨｚ 1.0000000
主観 、 0.0026385
ならびに 、 0.0052770
与え 、 0.0026385
任意の 、 0.0026385
クラス 、 0.0026385
みん 、 0.0026385
／ 、 0.0052770
おいて 、 0.0026385
平坦で 、 0.0026385
つながり 、 0.0026385
煤 、 0.0026385
」 、 0.0026385
小さく 、 0.0026385
変えて 、 0.0026385
グラインダー 、 0.0026385
や 、 0.0263852
･ 、 0.0527704
） 、 0.0105541
・ 、 0.0263852
ベンゼン 、 0.0026385
， 、 0.8284960
NULL 、 0.0079156
手法 抽取法 0.5000000
抽出 抽取法 0.5000000
なった 升高 1.0000000
耐震 抗震 1.0000000
６．２ ６．２ 1.0000000
品質 品质 1.0000000
） ２）式 0.3333333
式 ２）式 0.3333333
２ ２）式 0.3333333
農地 农地 1.0000000
特定 特定 1.0000000
豊かな 恩惠 0.5000000
暮らし 恩惠 0.5000000
ＭＴＫ ８．２ 0.5000000
８．２ ８．２ 0.5000000
誘導 甚至 1.0000000
ｐｐｂ ｐｐｂＰｂ 1.0000000
Ｃ Ｃ 1.0000000
同様に 一样 0.5000000
と 一样 0.5000000
フィルム 膜 0.1612903
の 膜 0.0645161
膜 膜 0.4838710
シート 膜 0.0322581
薄膜 膜 0.1290323
で 膜 0.0967742
カーボン 膜 0.0322581
抽出 抽出 1.0000000
ｄＢａ ｄＢａ 1.0000000
する 听觉 0.2500000
聴覚 听觉 0.7500000
０．８ ０．８ 1.0000000
横切る 横切 1.0000000
・ ·ＳＯ 1.0000000
直面 面临 0.3333333
課題 面临 0.3333333
より 面临 0.3333333
層 叶层 0.2500000
とき 叶层 0.2500000
経た 叶层 0.2500000
葉 叶层 0.2500000
ねらい 挽回 0.2500000
， 挽回 0.5000000
即ち 挽回 0.2500000
朝鮮 朝鲜 1.0000000
ＫＣｌ ＫＣｌ 1.0000000
競争 竞争 0.4285714
競合 竞争 0.5714286
分解 物分解·无害化 0.2000000
物 物分解·无害化 0.2000000
化 物分解·无害化 0.2000000
無害 物分解·无害化 0.2000000
・ 物分解·无害化 0.2000000
できる 外力 1.0000000
里 着 0.0294118
は 着 0.1470588
湿度 着 0.0294118
タッチ 着 0.0294118
進 着 0.0294118
病原 着 0.0294118
でき 着 0.0588235
NULL 着 0.0882353
ただ 着 0.0294118
， 着 0.0294118
疑問 着 0.0294118
ひ素 着 0.0294118
して 着 0.1176471
初 着 0.0294118
きて 着 0.0294118
する 着 0.0294118
そして 着 0.0294118
いる 着 0.1176471
資質 着 0.0294118
かつ 着 0.0588235
Ｖｉｅｗｅｒ 　Ｖｉｅｗｅｒ 1.0000000
が 大于 1.0000000
Ａ Ａ级 0.3333333
級 Ａ级 0.3333333
０００ Ａ级 0.3333333
始まる ２００６年 1.0000000
・ 导电 0.3333333
溶 导电 0.3333333
導電 导电 0.3333333
簡便 鉴于 1.0000000
事務 事物 1.0000000
めざして 目标 0.0666667
ねらい 目标 0.1333333
目指して 目标 0.1333333
目標 目标 0.4666667
目指した 目标 0.1333333
目指し 目标 0.0666667
行った 观察 0.0555556
れた 观察 0.1111111
NULL 观察 0.0555556
インタフェース 观察 0.0555556
観察 观察 0.6666667
さ 观察 0.0555556
知ら 知 0.2857143
いる 知 0.2857143
れて 知 0.2857143
素 知 0.1428571
池 池 0.3750000
プール 池 0.2500000
から 池 0.1250000
改修 池 0.1250000
造成 池 0.1250000
振幅 振幅 1.0000000
酸 多胺酸 0.5000000
ポリアミン 多胺酸 0.5000000
ランダム 随机 0.5000000
である 随机 0.5000000
ませ １）无口臭 0.5000000
ん １）无口臭 0.5000000
使い 瓶 0.3333333
ボトル 瓶 0.6666667
中華民国 民国 1.0000000
重 由于 0.0256410
が 由于 0.0512821
燃焼 由于 0.0256410
これ 由于 0.0256410
伴って 由于 0.0256410
行く 由于 0.0256410
県民 由于 0.0256410
新鮮 由于 0.0256410
即ち 由于 0.0256410
原料 由于 0.0256410
Ｖ 由于 0.0256410
模擬 由于 0.0256410
こと 由于 0.0512821
シリンジ 由于 0.0256410
NULL 由于 0.3333333
大気 由于 0.0512821
， 由于 0.0256410
カラマツ 由于 0.0256410
本 由于 0.0512821
は 由于 0.0512821
個々 由于 0.0256410
草地 由于 0.0256410
ＫＨ ＫＨ 1.0000000
図 图－３ 1.0000000
Ｇｉｂｓｏｎ Ｇｉｂｓｏｎ 1.0000000
吹き出物 长疮 0.5000000
や 长疮 0.5000000
して 消费 0.1666667
消費 消费 0.6666667
国 消费 0.1666667
外注 预订 0.5000000
大切である 预订 0.5000000
人体 人体 0.3333333
ヒト 人体 0.3333333
へ 人体 0.3333333
枯死 对照 0.2000000
に 对照 0.2000000
対照 对照 0.6000000
灯 灯 0.2500000
機 灯 0.2500000
ランプ 灯 0.2500000
点灯 灯 0.2500000
回帰 水中 1.0000000
れて 上 0.0204082
良質 上 0.0102041
船上 上 0.0102041
上 上 0.1122449
ダウン 上 0.0102041
道路 上 0.0204082
付着 上 0.0102041
NULL 上 0.0204082
的 上 0.0102041
板 上 0.0102041
ない 上 0.0102041
水上 上 0.0102041
実際 上 0.0204082
の 上 0.0204082
反映 上 0.0102041
工具 上 0.0102041
サイト 上 0.0102041
アルミニウム 上 0.0102041
街 上 0.0102041
注目 上 0.0204082
商品 上 0.0102041
採取 上 0.0204082
いる 上 0.0204082
ＭＷｈ 上 0.0102041
に 上 0.2755102
用紙 上 0.0102041
的に 上 0.0510204
シート 上 0.0102041
等 上 0.0102041
へ 上 0.0306122
可能であり 上 0.0102041
もと 上 0.0102041
もつ 上 0.0102041
幅広い 上 0.0102041
オーバー 上 0.0102041
市販 上 0.0102041
侵入 上 0.0102041
が 上 0.0306122
装着 上 0.0102041
で 上 0.0408163
解消 上 0.0102041
中 上 0.0102041
推移 上 0.0102041
試みた 分解 0.0526316
分解 分解 0.9473684
生息 指以 1.0000000
経て 水渠 0.3333333
水路 水渠 0.6666667
予期 大概 1.0000000
NULL 住户 0.2500000
世帯 住户 0.5000000
ごと 住户 0.2500000
従属 从属 1.0000000
風下 下风 0.5000000
の 下风 0.5000000
レート 硅笼 1.0000000
東南 东南 1.0000000
有機 有机 1.0000000
不 差别 0.1111111
が 差别 0.2222222
有意な 差别 0.1111111
られた 差别 0.1111111
無かった 差别 0.1111111
差 差别 0.3333333
周波 低频 1.0000000
なる 变得 0.1666667
豊かに 变得 0.1666667
衰退 变得 0.1666667
が 变得 0.1666667
なり 变得 0.1666667
冬 变得 0.1666667
大気 缓解 1.0000000
細かく 细 0.3333333
真砂土 细 0.3333333
と 细 0.3333333
グループ 组 0.3333333
面 组 0.6666667
動的な 具备 0.3333333
であり 具备 0.3333333
もつ 具备 0.3333333
である ｃｏｎｓｔｒｉｃｔｕｓ 0.3333333
こと ｃｏｎｓｔｒｉｃｔｕｓ 0.3333333
ｃｏｎｓｔｒｉｃｔｕｓ ｃｏｎｓｔｒｉｃｔｕｓ 0.3333333
提案 提案 0.9000000
以降 提案 0.1000000
ナイル 尼罗河 1.0000000
セージ 鼠尾草 0.3333333
られ 鼠尾草 0.3333333
認め 鼠尾草 0.3333333
述べた 方针 0.1666667
方針 方针 0.5000000
指針 方针 0.3333333
告示 告示 1.0000000
おける 噪音 0.0625000
騒音 噪音 0.8750000
する 噪音 0.0625000
の 建材 0.5000000
建材 建材 0.5000000
性 现性 0.5000000
良い 现性 0.5000000
対応 芯线径 1.0000000
率 阳性率 0.5000000
陽性 阳性率 0.5000000
シュート 叶数 0.0714286
， 叶数 0.0714286
できる 叶数 0.0714286
葉 叶数 0.4285714
数 叶数 0.3571429
バルーン 在内 0.2000000
含み 在内 0.2000000
含む 在内 0.2000000
を 在内 0.2000000
が 在内 0.2000000
統括 总体 1.0000000
配布 分发 1.0000000
促進 促进 0.4615385
劣化 促进 0.1538462
で 促进 0.2307692
ある 促进 0.1538462
海水 海水 1.0000000
湛水 蓄水 1.0000000
商業 商业 0.3333333
観点 商业 0.3333333
ビジネス 商业 0.3333333
こと 流失 0.1000000
れる 流失 0.1000000
流出 流失 0.6000000
示唆 流失 0.1000000
伴う 流失 0.1000000
貯蔵 储藏后 1.0000000
エヤワディーデルタ 三角 0.2500000
デルタ 三角 0.5000000
に 三角 0.2500000
エチルメタンスルフォン 通过 0.0080645
する 通过 0.0080645
累 通过 0.0080645
神奈川 通过 0.0080645
別途 通过 0.0080645
嗅覚 通过 0.0080645
採取 通过 0.0080645
ＴｉｎｙＭＲＬ 通过 0.0080645
この 通过 0.0241935
に 通过 0.0403226
それ 通过 0.0080645
これ 通过 0.0161290
ビング 通过 0.0080645
自己 通过 0.0161290
よって 通过 0.0161290
ＵＳＢ 通过 0.0080645
ビジネス 通过 0.0080645
を 通过 0.0483871
考える 通过 0.0161290
本 通过 0.0080645
NULL 通过 0.1693548
ように 通过 0.0080645
環状 通过 0.0080645
拡張 通过 0.0080645
Ｋｄ 通过 0.0080645
マウス 通过 0.0080645
ヒト 通过 0.0080645
水蒸気 通过 0.0080645
プログラム 通过 0.0161290
ＮＨ 通过 0.0161290
水素 通过 0.0080645
挙げ 通过 0.0080645
周期 通过 0.0080645
集積 通过 0.0080645
キー 通过 0.0080645
が 通过 0.0161290
光 通过 0.0080645
多 通过 0.0080645
方程式 通过 0.0080645
コース 通过 0.0080645
スマート 通过 0.0080645
無線 通过 0.0080645
ＰＩＰ 通过 0.0080645
は 通过 0.1048387
幾何 通过 0.0080645
マイクロ 通过 0.0080645
試行 通过 0.0080645
Ｈｇ 通过 0.0080645
レーザ 通过 0.0161290
組み合わせ 通过 0.0080645
藻 通过 0.0080645
， 通过 0.0806452
人工 通过 0.0080645
行い 通过 0.0161290
触媒 通过 0.0080645
基づいて 通过 0.0080645
後続 通过 0.0080645
農地 通过 0.0080645
よる 通过 0.0161290
こと 通过 0.0161290
オーバー 通过 0.0080645
単一 单一 1.0000000
NULL 帮助 0.5000000
より 帮助 0.5000000
呼吸 呼吸 1.0000000
ＬＥＤ 以ＬＥＤ 1.0000000
用水 医药 0.3333333
品 医药 0.3333333
医薬 医药 0.3333333
直轄 直属 1.0000000
入居 入住数月 1.0000000
愛媛 爱媛县 0.4000000
県 爱媛县 0.4000000
でも 爱媛县 0.2000000
推力 提高 0.0303030
向上 提高 0.3030303
なく 提高 0.0303030
酸性 提高 0.0303030
， 提高 0.2424242
で 提高 0.0606061
アップ 提高 0.0303030
高かった 提高 0.0303030
併用 提高 0.0606061
与 提高 0.0303030
ビジネス 提高 0.0303030
高まり 提高 0.0909091
した 提高 0.0303030
Ｃ Ｃ＆Ｄ 0.3333333
＆ Ｃ＆Ｄ 0.3333333
Ｄ Ｃ＆Ｄ 0.3333333
常圧 压下 0.5000000
で 压下 0.5000000
ｗｉｎｄｏｗｓ ｗｉｎｄｏｗｓ 1.0000000
ゆくえ 前途 0.5000000
良質 前途 0.5000000
リン 环瑚精 0.2500000
デキ 环瑚精 0.2500000
シクロ 环瑚精 0.2500000
スト 环瑚精 0.2500000
NULL 高压 0.1111111
高圧 高压 0.8888889
Ｎ ２和Ｎ２Ｏ 0.2857143
及び ２和Ｎ２Ｏ 0.2857143
Ｏ ２和Ｎ２Ｏ 0.2857143
２ ２和Ｎ２Ｏ 0.1428571
個々 草龄 0.5000000
齢 草龄 0.5000000
州 州 1.0000000
NULL 解说 0.1111111
ついて 解说 0.3333333
解説 解说 0.5555556
ろ過 聚酰亚胺超滤膜 0.2000000
膜 聚酰亚胺超滤膜 0.2000000
ポリイミド 聚酰亚胺超滤膜 0.2000000
限 聚酰亚胺超滤膜 0.2000000
外 聚酰亚胺超滤膜 0.2000000
保証 要 0.0769231
額 要 0.0769231
的に 要 0.0769231
NULL 要 0.0769231
増やす 要 0.0769231
が 要 0.1538462
十分な 要 0.0769231
今や 要 0.0769231
確保 要 0.0769231
比較 要 0.0769231
対して 要 0.0769231
は 要 0.0769231
過度の 不 0.0140845
不正 不 0.0140845
保全 不 0.0140845
NULL 不 0.1408451
ない 不 0.1690141
心 不 0.0140845
なく 不 0.0140845
単なる 不 0.0140845
は 不 0.1690141
不備 不 0.0140845
でき 不 0.0422535
ＬＥＤ 不 0.0140845
が 不 0.0704225
２００ 不 0.0140845
に 不 0.0140845
不在 不 0.0140845
で 不 0.0422535
悪い 不 0.0140845
不慣れな 不 0.0140845
不 不 0.0281690
低かった 不 0.0140845
取ら 不 0.0140845
必要不可欠な 不 0.0140845
も 不 0.0140845
開削 不 0.0140845
一致 不 0.0140845
不能 不 0.0140845
ポリ乳酸 不 0.0140845
不明である 不 0.0281690
落ち葉 不 0.0140845
下村 者 0.0434783
者 者 0.7826087
ボランティア 者 0.0434783
NULL 者 0.0434783
両者 者 0.0869565
与えた 弱混合层 0.5000000
弱 弱混合层 0.5000000
続出 不断 0.1250000
が 不断 0.1250000
して 不断 0.3750000
し 不断 0.2500000
導入 不断 0.1250000
れ 仍然 0.2500000
潜在 仍然 0.2500000
残さ 仍然 0.2500000
力 仍然 0.2500000
わかる 无法 0.2500000
点灯 无法 0.2500000
人 无法 0.2500000
でき 无法 0.2500000
姿勢 姿态 1.0000000
口臭 轻度 0.5000000
ませ 轻度 0.5000000
と 合作 0.0714286
共同 合作 0.1428571
協力 合作 0.1428571
超えて 合作 0.0714286
で 合作 0.0714286
連携 合作 0.2857143
NULL 合作 0.0714286
業種 合作 0.1428571
認定 确诊 1.0000000
基板 基板 1.0000000
アルゴリズム 算法 1.0000000
水辺 水滨 1.0000000
外 外因 0.5000000
因 外因 0.5000000
新たに 用地 1.0000000
ポンプ 油压泵 0.5000000
油圧 油压泵 0.5000000
して 探求 0.5000000
利用 探求 0.5000000
機能 机能 0.8571429
のみ 机能 0.1428571
火 星期二 1.0000000
換気 换气 1.0000000
２２ ２２ 1.0000000
ヒト 对人 0.3333333
で 对人 0.3333333
人 对人 0.3333333
（α≦ （ 0.0046729
なって （ 0.0046729
NULL （ 0.0233645
州 （ 0.0046729
パブリケーション （ 0.0046729
〈 （ 0.0046729
かかって （ 0.0046729
（ （ 0.9485981
画面 画面 1.0000000
Ｓｏｆｔ Ｓｏｆｔ 1.0000000
発酵 各种 0.5000000
活発 各种 0.5000000
ＷＥＥＥ ＷＥＥＥ 1.0000000
マイクロ 小型 0.0909091
小型 小型 0.9090909
スーパー 超级 1.0000000
下方 下方 0.5000000
直下 下方 0.5000000
NULL 使得 0.3333333
と 使得 0.3333333
なって 使得 0.3333333
ＤＲＳ －ＤＲＳ 1.0000000
側溝 侧沟 1.0000000
水分 水分 1.0000000
武 武村 0.5000000
村 武村 0.5000000
絶縁 绝缘 0.5000000
ため 绝缘 0.5000000
管 管套 0.5000000
さや 管套 0.5000000
物理 物理 0.6666667
的 物理 0.3333333
不可欠である 不可 0.3333333
不可欠に 不可 0.3333333
欠かせ 不可 0.3333333
NULL 废水 0.1000000
水 废水 0.4000000
安全な 废水 0.1000000
廃 废水 0.4000000
Ｚａｎｔｅｄｅｓｃｈｉａ Ｚａｎｔｅｄｅｓｃｈｉａ 0.6666667
属 Ｚａｎｔｅｄｅｓｃｈｉａ 0.3333333
ミント 澳洲 1.0000000
備えて 豪雨 1.0000000
コート 留下 0.5000000
テニス 留下 0.5000000
硝酸 盐 0.7777778
塩 盐 0.2222222
･ 学校 1.0000000
重 重氢 0.3333333
水素 重氢 0.6666667
オオチカラ 引入 0.3333333
半日 引入 0.3333333
ごと 引入 0.3333333
NULL 寻找 1.0000000
第 第３ 0.5000000
３ 第３ 0.5000000
Ｗ Ｗ 1.0000000
セージ 草类 0.2500000
サルビア 草类 0.2500000
類 草类 0.2500000
属 草类 0.2500000
リング 监视 0.2000000
モニタ 监视 0.2000000
ず 监视 0.1000000
監視 监视 0.5000000
さ ＨＳＩ 0.3333333
ＨＳＩ ＨＳＩ 0.3333333
れて ＨＳＩ 0.3333333
因果 因果 0.5000000
与える 因果 0.5000000
ＤＮＡ ＤＮＡ 1.0000000
１９８６ １９８６ 1.0000000
さ 扩张 0.5000000
拡張 扩张 0.5000000
も 远远 0.2000000
コシヒカリ 远远 0.2000000
より 远远 0.4000000
大きく 远远 0.2000000
ハイ 等高 0.5000000
など 等高 0.5000000
試み 正在 0.0625000
に 正在 0.0625000
が 正在 0.2500000
ＣＡＬＰＵＦＦ 正在 0.0625000
いる 正在 0.1875000
NULL 正在 0.0625000
行って 正在 0.0625000
許容 正在 0.0625000
増えて 正在 0.0625000
名古屋 正在 0.0625000
は 正在 0.0625000
コメツキガニ 地 0.0217391
視 地 0.0217391
的に 地 0.0652174
良く 地 0.0217391
に 地 0.0434783
湿地 地 0.0217391
から 地 0.0217391
長期 地 0.0217391
簡便に 地 0.0217391
ハビタット 地 0.0434783
組合わせて 地 0.0217391
冗長 地 0.0217391
上澄み 地 0.0217391
依拠 地 0.0217391
前半 地 0.0217391
確実に 地 0.0217391
休耕田 地 0.0217391
ように 地 0.0217391
各地 地 0.0434783
NULL 地 0.1086957
有効に 地 0.0217391
良好に 地 0.0217391
地 地 0.1956522
を 地 0.0434783
場 地 0.0434783
付けて 地 0.0217391
解体 地 0.0217391
た 涂抹 1.0000000
秒 秒 0.8333333
かかる 秒 0.1666667
゜ ゜５１′Ｎ 0.2000000
Ｎ ゜５１′Ｎ 0.2000000
′ ゜５１′Ｎ 0.4000000
５１ ゜５１′Ｎ 0.2000000
応じた 需求 0.1428571
需要 需求 0.8571429
電子 电子 1.0000000
戻る 返回 1.0000000
問わ 追究 0.2000000
こと 追究 0.2000000
れる 追究 0.2000000
も 追究 0.2000000
責任 追究 0.2000000
その後 之后 0.1000000
直後 之后 0.1000000
を 之后 0.1000000
後 之后 0.7000000
み 明显 0.0625000
有意 明显 0.0625000
近く 明显 0.0625000
明らかな 明显 0.0625000
有意な 明显 0.2500000
NULL 明显 0.1875000
有意に 明显 0.0625000
正 明显 0.2500000
越境 越境 1.0000000
光 NULL 0.0007974
システム NULL 0.0002658
次の NULL 0.0002658
つける NULL 0.0002658
管 NULL 0.0010633
線 NULL 0.0013291
測定 NULL 0.0007974
並びに NULL 0.0002658
菌 NULL 0.0002658
融雪 NULL 0.0002658
期 NULL 0.0002658
潮 NULL 0.0002658
注入 NULL 0.0002658
別 NULL 0.0002658
めまい NULL 0.0002658
最終 NULL 0.0002658
流れ NULL 0.0002658
読み NULL 0.0002658
降雨 NULL 0.0005316
のみ NULL 0.0007974
用い NULL 0.0007974
全 NULL 0.0002658
られ NULL 0.0013291
新地 NULL 0.0005316
分 NULL 0.0005316
まで NULL 0.0018607
タイプ NULL 0.0002658
地下茎 NULL 0.0002658
しかし NULL 0.0002658
いる NULL 0.0132908
要素 NULL 0.0002658
法 NULL 0.0010633
コケ NULL 0.0002658
に NULL 0.0970229
この NULL 0.0007974
それ NULL 0.0007974
論じた NULL 0.0005316
土 NULL 0.0005316
工夫 NULL 0.0002658
由来 NULL 0.0007974
浸 NULL 0.0002658
損益 NULL 0.0002658
明らかに NULL 0.0007974
ダウンロード NULL 0.0002658
変化 NULL 0.0007974
粒 NULL 0.0002658
取り組む NULL 0.0002658
み NULL 0.0002658
電圧 NULL 0.0002658
生育 NULL 0.0002658
本 NULL 0.0007974
それぞれ NULL 0.0002658
関連 NULL 0.0005316
個体 NULL 0.0002658
バランス NULL 0.0002658
造 NULL 0.0002658
スイッチ NULL 0.0002658
実績 NULL 0.0002658
伴い NULL 0.0002658
四 NULL 0.0002658
栄養 NULL 0.0002658
緩和 NULL 0.0002658
２ NULL 0.0021265
照射 NULL 0.0002658
用いて NULL 0.0013291
入 NULL 0.0002658
ねば NULL 0.0013291
目的 NULL 0.0013291
関して NULL 0.0002658
雑木林 NULL 0.0002658
変更 NULL 0.0002658
なら NULL 0.0029240
られる NULL 0.0031898
おら NULL 0.0002658
補助 NULL 0.0002658
時 NULL 0.0005316
進め NULL 0.0002658
合法 NULL 0.0002658
違い NULL 0.0002658
定義 NULL 0.0002658
も NULL 0.0066454
ら NULL 0.0013291
付着 NULL 0.0002658
ｗｅｂ NULL 0.0002658
気 NULL 0.0002658
断片 NULL 0.0002658
塩化 NULL 0.0002658
作 NULL 0.0002658
回収 NULL 0.0002658
全て NULL 0.0002658
対する NULL 0.0005316
葉 NULL 0.0007974
とき NULL 0.0002658
排水 NULL 0.0002658
できた NULL 0.0007974
前 NULL 0.0002658
ＣＴ NULL 0.0002658
短縮 NULL 0.0002658
図ら NULL 0.0002658
再 NULL 0.0002658
目 NULL 0.0002658
せた NULL 0.0007974
水蒸気 NULL 0.0005316
行なった NULL 0.0002658
キープ NULL 0.0002658
あり NULL 0.0021265
月 NULL 0.0010633
有する NULL 0.0002658
推測 NULL 0.0002658
幅 NULL 0.0002658
厳しく NULL 0.0002658
産 NULL 0.0002658
ＩＩ NULL 0.0002658
以上 NULL 0.0002658
惹起 NULL 0.0002658
られた NULL 0.0021265
一般 NULL 0.0002658
固定 NULL 0.0002658
排出 NULL 0.0002658
一 NULL 0.0002658
発生 NULL 0.0023923
分割 NULL 0.0002658
ともに NULL 0.0002658
利 NULL 0.0002658
Ｂ NULL 0.0002658
増進 NULL 0.0002658
ように NULL 0.0018607
放流 NULL 0.0002658
挙げた NULL 0.0002658
対して NULL 0.0010633
６ NULL 0.0002658
調査 NULL 0.0002658
組 NULL 0.0002658
領域 NULL 0.0002658
「 NULL 0.0002658
型 NULL 0.0007974
専門 NULL 0.0002658
除く NULL 0.0002658
約 NULL 0.0005316
大きな NULL 0.0005316
能 NULL 0.0002658
れた NULL 0.0031898
経 NULL 0.0002658
双方 NULL 0.0002658
低下 NULL 0.0005316
浄水 NULL 0.0002658
つくる NULL 0.0002658
誘導 NULL 0.0002658
検出 NULL 0.0007974
ＳＣＦＧ NULL 0.0002658
問題 NULL 0.0002658
制定 NULL 0.0002658
地域 NULL 0.0002658
程度 NULL 0.0005316
作成 NULL 0.0005316
事例 NULL 0.0002658
号 NULL 0.0002658
生じる NULL 0.0002658
きた NULL 0.0018607
これ NULL 0.0026582
地盤 NULL 0.0002658
判定 NULL 0.0002658
使用 NULL 0.0010633
買わ NULL 0.0002658
行う NULL 0.0026582
硬 NULL 0.0002658
最大 NULL 0.0002658
　 NULL 0.0002658
積 NULL 0.0002658
供給 NULL 0.0002658
上昇 NULL 0.0002658
遷移 NULL 0.0002658
認めた NULL 0.0002658
事 NULL 0.0002658
行った NULL 0.0026582
模擬 NULL 0.0002658
･ NULL 0.0005316
性質 NULL 0.0002658
示唆 NULL 0.0010633
を NULL 0.0948963
５．０ NULL 0.0002658
チャンバ NULL 0.0002658
でき NULL 0.0007974
図る NULL 0.0002658
であり NULL 0.0018607
柱 NULL 0.0002658
考える NULL 0.0002658
存 NULL 0.0002658
が NULL 0.0614035
径 NULL 0.0005316
多 NULL 0.0002658
発足 NULL 0.0002658
子 NULL 0.0002658
位 NULL 0.0002658
関する NULL 0.0013291
時点 NULL 0.0002658
収量 NULL 0.0002658
ＣＯ NULL 0.0002658
横切る NULL 0.0002658
利用 NULL 0.0021265
有意な NULL 0.0007974
有害 NULL 0.0002658
外 NULL 0.0010633
薬草 NULL 0.0002658
得る NULL 0.0005316
は NULL 0.0172780
ラベンダー NULL 0.0002658
応用 NULL 0.0005316
転換 NULL 0.0002658
被ばく NULL 0.0002658
解説 NULL 0.0005316
捉え NULL 0.0002658
改善 NULL 0.0002658
ほど NULL 0.0002658
茎 NULL 0.0002658
水路 NULL 0.0002658
する NULL 0.0138224
より NULL 0.0053163
窒素 NULL 0.0010633
生体 NULL 0.0002658
メンブレン NULL 0.0002658
巻 NULL 0.0002658
形 NULL 0.0002658
従来 NULL 0.0002658
負 NULL 0.0002658
デザイン NULL 0.0005316
短 NULL 0.0005316
各国 NULL 0.0002658
同 NULL 0.0002658
構築 NULL 0.0005316
おり NULL 0.0010633
原因 NULL 0.0002658
低く NULL 0.0002658
環境 NULL 0.0005316
重 NULL 0.0002658
行わ NULL 0.0007974
挙げ NULL 0.0002658
除去 NULL 0.0005316
既設 NULL 0.0002658
斜 NULL 0.0005316
い NULL 0.0005316
予想 NULL 0.0002658
交互に NULL 0.0002658
高く NULL 0.0002658
到達 NULL 0.0002658
溶解 NULL 0.0002658
含ま NULL 0.0002658
直線 NULL 0.0002658
施 NULL 0.0002658
ずつ NULL 0.0002658
つき NULL 0.0002658
起こった NULL 0.0002658
時間 NULL 0.0005316
示す NULL 0.0023923
東京 NULL 0.0002658
？ NULL 0.0002658
集め NULL 0.0002658
用いる NULL 0.0002658
規制 NULL 0.0005316
該当 NULL 0.0002658
ネットワーク NULL 0.0002658
表した NULL 0.0002658
間 NULL 0.0002658
相手 NULL 0.0002658
かね NULL 0.0002658
もの NULL 0.0034556
一覧 NULL 0.0002658
下部 NULL 0.0002658
果たして NULL 0.0002658
せる NULL 0.0021265
発芽 NULL 0.0002658
同じ NULL 0.0002658
場 NULL 0.0007974
残留 NULL 0.0002658
示し NULL 0.0002658
市 NULL 0.0007974
整って NULL 0.0002658
設置 NULL 0.0002658
岡山 NULL 0.0002658
施行 NULL 0.0005316
確認 NULL 0.0005316
望ま NULL 0.0002658
示さ NULL 0.0005316
相違 NULL 0.0002658
全体 NULL 0.0002658
用いた NULL 0.0015949
媒体 NULL 0.0002658
考えて NULL 0.0002658
質 NULL 0.0002658
可能に NULL 0.0002658
調べた NULL 0.0002658
紹介 NULL 0.0010633
および NULL 0.0005316
見いださ NULL 0.0002658
予測 NULL 0.0005316
概説 NULL 0.0002658
元 NULL 0.0002658
受け NULL 0.0002658
流 NULL 0.0007974
例 NULL 0.0002658
つ NULL 0.0010633
／ NULL 0.0005316
２０ NULL 0.0002658
骨 NULL 0.0002658
負荷 NULL 0.0005316
ｓ NULL 0.0002658
細く NULL 0.0002658
参考 NULL 0.0002658
解析 NULL 0.0002658
手動 NULL 0.0002658
コスト NULL 0.0002658
７ NULL 0.0002658
報告 NULL 0.0005316
値 NULL 0.0007974
行って NULL 0.0005316
推定 NULL 0.0007974
取り組み NULL 0.0002658
歩合 NULL 0.0002658
図 NULL 0.0002658
水 NULL 0.0002658
二 NULL 0.0007974
示した NULL 0.0013291
上記 NULL 0.0002658
初期 NULL 0.0002658
産業 NULL 0.0002658
思わ NULL 0.0005316
ハーブ NULL 0.0002658
あった NULL 0.0005316
して NULL 0.0220627
進んで NULL 0.0002658
試料 NULL 0.0005316
いく NULL 0.0015949
キー NULL 0.0002658
課題 NULL 0.0002658
放棄 NULL 0.0007974
行い NULL 0.0010633
・ NULL 0.0013291
ＮＭＲ NULL 0.0002658
乾物 NULL 0.0002658
区 NULL 0.0002658
品種 NULL 0.0005316
考察 NULL 0.0002658
生成 NULL 0.0002658
重要 NULL 0.0002658
相関 NULL 0.0013291
得 NULL 0.0002658
内包 NULL 0.0002658
修飾 NULL 0.0002658
取得 NULL 0.0002658
線形 NULL 0.0002658
うる NULL 0.0005316
追う NULL 0.0002658
呈示 NULL 0.0002658
街 NULL 0.0002658
提供 NULL 0.0002658
熟 NULL 0.0002658
関わら NULL 0.0002658
場所 NULL 0.0002658
板 NULL 0.0005316
中心 NULL 0.0002658
能力 NULL 0.0002658
形成 NULL 0.0002658
作業 NULL 0.0002658
対策 NULL 0.0002658
ｐ NULL 0.0002658
なる NULL 0.0029240
で NULL 0.0156831
であった NULL 0.0007974
分かった NULL 0.0007974
中 NULL 0.0002658
すれば NULL 0.0005316
である NULL 0.0034556
火 NULL 0.0002658
義務付け NULL 0.0002658
配ら NULL 0.0002658
ｍｓ NULL 0.0005316
決定 NULL 0.0002658
個々 NULL 0.0002658
水産物 NULL 0.0002658
と NULL 0.0481127
汚水 NULL 0.0002658
化 NULL 0.0013291
おける NULL 0.0010633
価 NULL 0.0002658
向 NULL 0.0002658
率 NULL 0.0007974
的な NULL 0.0005316
臭 NULL 0.0002658
完成 NULL 0.0002658
ガス NULL 0.0002658
ここ NULL 0.0005316
評価 NULL 0.0007974
マニュアル NULL 0.0002658
運用 NULL 0.0005316
必要な NULL 0.0002658
推奨 NULL 0.0002658
し NULL 0.0069112
ＹＡＧ NULL 0.0002658
多く NULL 0.0002658
刈 NULL 0.0005316
与えた NULL 0.0005316
残 NULL 0.0002658
層 NULL 0.0005316
結実 NULL 0.0002658
無い NULL 0.0002658
強化 NULL 0.0002658
推察 NULL 0.0002658
関係 NULL 0.0007974
沿って NULL 0.0002658
求める NULL 0.0002658
防ぐ NULL 0.0002658
断面 NULL 0.0002658
量 NULL 0.0013291
たい NULL 0.0002658
傾向 NULL 0.0002658
ヒストグラム NULL 0.0002658
計算 NULL 0.0007974
学科 NULL 0.0002658
られて NULL 0.0007974
ごく NULL 0.0002658
モデル NULL 0.0002658
役割 NULL 0.0002658
大 NULL 0.0002658
認め NULL 0.0010633
可能であり NULL 0.0002658
高 NULL 0.0005316
配慮 NULL 0.0002658
地 NULL 0.0002658
繋がる NULL 0.0002658
人 NULL 0.0002658
長 NULL 0.0002658
出現 NULL 0.0005316
方 NULL 0.0015949
基本 NULL 0.0002658
減少 NULL 0.0002658
ストローク NULL 0.0002658
たち NULL 0.0002658
いえる NULL 0.0005316
ない NULL 0.0055821
試みた NULL 0.0002658
脱窒 NULL 0.0002658
昔 NULL 0.0002658
した NULL 0.0053163
度 NULL 0.0007974
蛍光 NULL 0.0002658
検討 NULL 0.0007974
せ NULL 0.0010633
配置 NULL 0.0002658
製造 NULL 0.0005316
林 NULL 0.0007974
可能 NULL 0.0015949
内 NULL 0.0005316
応じて NULL 0.0002658
作製 NULL 0.0005316
製品 NULL 0.0002658
向上 NULL 0.0005316
強い NULL 0.0007974
将来 NULL 0.0002658
なければ NULL 0.0007974
（ NULL 0.0002658
的であった NULL 0.0002658
我々 NULL 0.0002658
外周 NULL 0.0002658
水素 NULL 0.0002658
対応 NULL 0.0013291
入居 NULL 0.0002658
さ NULL 0.0188729
ひと NULL 0.0002658
小 NULL 0.0002658
いった NULL 0.0007974
ず NULL 0.0018607
再生 NULL 0.0002658
説明 NULL 0.0002658
なおした NULL 0.0002658
クロム NULL 0.0002658
実証 NULL 0.0002658
再現 NULL 0.0005316
調べれば NULL 0.0002658
表示 NULL 0.0002658
用 NULL 0.0005316
から NULL 0.0029240
開発 NULL 0.0002658
わが国 NULL 0.0002658
者 NULL 0.0007974
先端 NULL 0.0002658
段階 NULL 0.0002658
他の NULL 0.0002658
ので NULL 0.0015949
いずれ NULL 0.0007974
いた NULL 0.0015949
改良 NULL 0.0005316
１ NULL 0.0045189
協調 NULL 0.0002658
限 NULL 0.0002658
削減 NULL 0.0002658
ついて NULL 0.0063796
保持 NULL 0.0002658
はかる NULL 0.0002658
得た NULL 0.0002658
拡 NULL 0.0002658
力 NULL 0.0002658
詰め NULL 0.0002658
抑制 NULL 0.0002658
演算 NULL 0.0002658
− NULL 0.0039872
次 NULL 0.0007974
貯蔵 NULL 0.0002658
でも NULL 0.0005316
ような NULL 0.0005316
面 NULL 0.0002658
イネ NULL 0.0002658
持った NULL 0.0002658
規定 NULL 0.0002658
Ｐｂ NULL 0.0002658
策 NULL 0.0002658
ばらつき NULL 0.0002658
経て NULL 0.0002658
レーザ NULL 0.0002658
作用 NULL 0.0002658
直径 NULL 0.0002658
細菌 NULL 0.0002658
樹 NULL 0.0002658
濃度 NULL 0.0005316
築く NULL 0.0002658
れ NULL 0.0031898
なろう NULL 0.0002658
注目 NULL 0.0002658
性 NULL 0.0034556
容易 NULL 0.0002658
％ NULL 0.0005316
地上 NULL 0.0002658
被 NULL 0.0007974
分子 NULL 0.0002658
有無 NULL 0.0002658
空 NULL 0.0002658
差 NULL 0.0005316
比べて NULL 0.0005316
数 NULL 0.0029240
なく NULL 0.0023923
反映 NULL 0.0002658
れて NULL 0.0066454
制御 NULL 0.0002658
効率 NULL 0.0002658
増加 NULL 0.0007974
及び NULL 0.0002658
系 NULL 0.0002658
記載 NULL 0.0002658
実施 NULL 0.0010633
知見 NULL 0.0002658
籾 NULL 0.0002658
適用 NULL 0.0015949
， NULL 0.0329612
高い NULL 0.0005316
連 NULL 0.0002658
等 NULL 0.0002658
可能である NULL 0.0010633
至る NULL 0.0002658
提案 NULL 0.0015949
だけ NULL 0.0002658
ＤＬＣ NULL 0.0002658
示して NULL 0.0002658
屈曲 NULL 0.0002658
酸素 NULL 0.0002658
手法 NULL 0.0002658
格子 NULL 0.0002658
的に NULL 0.0015949
なった NULL 0.0005316
伝達 NULL 0.0002658
おいて NULL 0.0021265
求め NULL 0.0005316
再建 NULL 0.0002658
比較 NULL 0.0002658
内視鏡 NULL 0.0002658
比べ NULL 0.0002658
精神 NULL 0.0002658
レアメタル NULL 0.0002658
向けた NULL 0.0002658
容易で NULL 0.0002658
あたって NULL 0.0002658
光合成 NULL 0.0002658
洞察 NULL 0.0002658
の NULL 0.1015417
上 NULL 0.0013291
水中 NULL 0.0002658
透水性 NULL 0.0002658
どう NULL 0.0005316
混合 NULL 0.0007974
大きく NULL 0.0005316
利点 NULL 0.0002658
機能 NULL 0.0005316
もたらす NULL 0.0002658
か NULL 0.0034556
部 NULL 0.0002658
特長 NULL 0.0002658
魚 NULL 0.0002658
結果 NULL 0.0002658
侵入 NULL 0.0002658
パルス NULL 0.0002658
物質 NULL 0.0002658
県 NULL 0.0002658
持つ NULL 0.0002658
活用 NULL 0.0002658
） NULL 0.0007974
コナラ NULL 0.0005316
カツオ NULL 0.0002658
や NULL 0.0010633
疎水 NULL 0.0002658
略す NULL 0.0002658
複雑 NULL 0.0002658
方法 NULL 0.0002658
採取 NULL 0.0002658
進めて NULL 0.0002658
過 NULL 0.0002658
列記 NULL 0.0002658
膜 NULL 0.0007974
その NULL 0.0010633
差異 NULL 0.0002658
せて NULL 0.0002658
訴える NULL 0.0002658
的 NULL 0.0013291
腸 NULL 0.0005316
通過 NULL 0.0005316
指摘 NULL 0.0002658
トリハロメタン NULL 0.0002658
設定 NULL 0.0007974
論 NULL 0.0002658
〜 NULL 0.0002658
見 NULL 0.0021265
対し NULL 0.0002658
場合 NULL 0.0007974
適切で NULL 0.0002658
工法 NULL 0.0002658
存在 NULL 0.0015949
トナー NULL 0.0002658
廃棄 NULL 0.0002658
だ NULL 0.0002658
クター NULL 0.0002658
ワイヤ NULL 0.0002658
合わせて NULL 0.0002658
雌 NULL 0.0002658
全面 NULL 0.0002658
タイム NULL 0.0002658
実現 NULL 0.0005316
低減 NULL 0.0005316
素 NULL 0.0007974
構成 NULL 0.0002658
よる NULL 0.0013291
れる NULL 0.0050505
未満 NULL 0.0002658
補正 NULL 0.0002658
３ NULL 0.0021265
剤 NULL 0.0002658
孔 NULL 0.0002658
少なかった NULL 0.0002658
とって NULL 0.0002658
夫 NULL 0.0002658
界磁 NULL 0.0002658
除いた NULL 0.0002658
当地 NULL 0.0002658
述べた NULL 0.0005316
流し NULL 0.0002658
ごと NULL 0.0002658
あまり NULL 0.0002658
１７ NULL 0.0002658
伴って NULL 0.0002658
口臭 NULL 0.0007974
ＧＣ NULL 0.0002658
な NULL 0.0005316
大きい NULL 0.0002658
導出 NULL 0.0002658
状 NULL 0.0002658
知ら NULL 0.0002658
考慮 NULL 0.0005316
次回 NULL 0.0002658
家 NULL 0.0002658
収 NULL 0.0002658
新 NULL 0.0002658
広く NULL 0.0002658
取り付け NULL 0.0002658
低温 NULL 0.0005316
湾 NULL 0.0002658
堆肥 NULL 0.0002658
記録 NULL 0.0002658
溶出 NULL 0.0002658
非 NULL 0.0002658
出 NULL 0.0002658
応力 NULL 0.0002658
また NULL 0.0002658
ます NULL 0.0002658
酸化 NULL 0.0002658
ある NULL 0.0055821
生じて NULL 0.0005316
いう NULL 0.0015949
流出 NULL 0.0002658
与える NULL 0.0010633
スケール NULL 0.0002658
こと NULL 0.0223285
解明 NULL 0.0002658
４ NULL 0.0002658
へ NULL 0.0050505
なって NULL 0.0007974
加えた NULL 0.0002658
炭素 NULL 0.0002658
アルミ NULL 0.0002658
含む NULL 0.0002658
よって NULL 0.0026582
できる NULL 0.0039872
ため NULL 0.0077087
史 NULL 0.0005316
なり NULL 0.0026582
類 NULL 0.0007974
緑 NULL 0.0002658
要求 NULL 0.0002658
年 NULL 0.0013291
共に NULL 0.0007974
受けて NULL 0.0002658
作った NULL 0.0002658
効果 NULL 0.0005316
進める NULL 0.0002658
優れる NULL 0.0002658
経過 NULL 0.0002658
必要 NULL 0.0015949
ｍｍ NULL 0.0002658
考え NULL 0.0018607
取り NULL 0.0010633
が 全部 0.1428571
NULL 全部 0.0714286
アルビノ 全部 0.0714286
全 全部 0.4285714
の 全部 0.0714286
すべて 全部 0.0714286
全て 全部 0.1428571
して 而 0.0645161
追求 而 0.0161290
台風 而 0.0161290
出て 而 0.0161290
即した 而 0.0161290
生じた 而 0.0161290
改修 而 0.0161290
± 而 0.0161290
行なう 而 0.0161290
そして 而 0.0161290
異なって 而 0.0161290
が 而 0.0645161
起こす 而 0.0161290
で 而 0.0322581
に 而 0.1935484
組合わせ 而 0.0161290
合わせて 而 0.0161290
よって 而 0.0645161
傷め 而 0.0161290
温暖 而 0.0161290
と 而 0.0806452
用い 而 0.0161290
を 而 0.1290323
整備 而 0.0161290
上昇 而 0.0322581
なく 而 0.0161290
こと 而 0.0322581
目指して 而 0.0161290
可能に 进展 0.2500000
NULL 进展 0.2500000
こと 进展 0.2500000
なる 进展 0.2500000
溶媒 媒 1.0000000
性 失性 0.5000000
流出 失性 0.5000000
千粒重 千粒重 1.0000000
０．２ ０．２ 1.0000000
帯 螃蟹类 0.3333333
類 螃蟹类 0.3333333
カニ 螃蟹类 0.3333333
動向 动向 1.0000000
鉛直 垂直 1.0000000
推進 某 0.3333333
省エネ 某 0.3333333
分け 某 0.3333333
戸外 户外 0.5000000
外 户外 0.5000000
潮 中潮 0.3333333
中 中潮 0.3333333
調べた 中潮 0.3333333
埋立 填埋地 0.2000000
いる 填埋地 0.2000000
地 填埋地 0.2000000
して 填埋地 0.2000000
立地 填埋地 0.2000000
共有 共 0.3333333
３６ 共 0.3333333
が 共 0.3333333
気圧 气压 1.0000000
ＦａｓｔＳｔｏｎｅ ＦａｓｔＳｔｏｎｅ 1.0000000
月 ７月 0.4285714
始まる ７月 0.1428571
７ ７月 0.4285714
ケーブル 电缆 1.0000000
年 法令 1.0000000
ＥＲＢＮ ＥＲＢＮ 1.0000000
水 捕获 0.5000000
揚 捕获 0.5000000
代表 代表 1.0000000
０００ ０００ 1.0000000
魚 因此 0.0222222
穂 因此 0.0222222
したがって 因此 0.0666667
ので 因此 0.0222222
その 因此 0.0444444
ため 因此 0.3111111
そこ 因此 0.0888889
与える 因此 0.0444444
排ガス 因此 0.0222222
から 因此 0.0888889
NULL 因此 0.1333333
緊張 因此 0.0222222
微量 因此 0.0222222
この 因此 0.0888889
を 封入 1.0000000
媒体 体 0.1428571
体 体 0.5714286
れる 体 0.1428571
プラスチド 体 0.1428571
態 态氮 0.1111111
NULL 态氮 0.1111111
硝酸態窒素 态氮 0.7777778
フォーマット 格式 0.5000000
体 格式 0.5000000
運転 很少 1.0000000
導入 导入 0.6666667
NULL 导入 0.1666667
へ 导入 0.1666667
シンクロトロン 辐射 0.3333333
放射 辐射 0.6666667
滋賀 位于 0.1666667
は 位于 0.6666667
太平洋 位于 0.1666667
割に 正比 1.0000000
資金 资金 1.0000000
作動 水弯 0.5000000
トラップ 水弯 0.5000000
％ ２５％ 1.0000000
季節 随 0.3333333
NULL 随 0.3333333
は 随 0.3333333
合計 合计 0.6666667
斜 合计 0.3333333
油 油 1.0000000
思う 发挥 0.1250000
NULL 发挥 0.1250000
対して 发挥 0.1250000
ソノケミストリー 发挥 0.1250000
現有 发挥 0.1250000
発揮 发挥 0.2500000
を 发挥 0.1250000
交雑 回交 0.4000000
戻し 回交 0.6000000
米国 美国 0.7142857
アメリカ 美国 0.2857143
供 供 1.0000000
補填 缓和 0.5000000
緩和 缓和 0.5000000
屈曲 曲 1.0000000
防止 冻土 1.0000000
ＰＩＰ 管套管内ＰＩＰ 0.3333333
内 管套管内ＰＩＰ 0.3333333
さや 管套管内ＰＩＰ 0.3333333
コシヒカリ “ 0.0196078
アケボノ “ 0.0588235
“ “ 0.0196078
NULL “ 0.0392157
オオチカラ “ 0.0784314
名称 “ 0.0196078
公園 “ 0.0196078
雄 “ 0.0196078
「 “ 0.7058824
劣る “ 0.0196078
の 张变黄 0.3333333
変 张变黄 0.3333333
黄 张变黄 0.3333333
せた 烧制 0.2500000
マイクロリアクター 烧制 0.2500000
さ 烧制 0.2500000
焼成 烧制 0.2500000
ＲＢＳ ＲＢＳ 0.5000000
使い ＲＢＳ 0.5000000
１．６３ １．６３ 1.0000000
ニッケル 镍 1.0000000
れて 包围 0.2500000
囲ま 包围 0.2500000
いた 包围 0.2500000
も 包围 0.2500000
を 文 0.1162791
前田 文 0.0232558
文 文 0.0232558
解説 文 0.0232558
受け入れて 文 0.0232558
概説 文 0.0232558
ついて 文 0.0930233
本文 文 0.0697674
本稿 文 0.1162791
NULL 文 0.3488372
オハイオ 文 0.0232558
紹介 文 0.0465116
述べた 文 0.0465116
試み 文 0.0232558
希釈 稀释 1.0000000
非 非商 0.5000000
商用 非商 0.5000000
フィル 呈反Ｓ形 0.2000000
形状 呈反Ｓ形 0.2000000
示し 呈反Ｓ形 0.2000000
Ｓ字 呈反Ｓ形 0.2000000
逆 呈反Ｓ形 0.2000000
腸 肠 1.0000000
NULL 种子 0.1000000
種子 种子 0.9000000
塩素 自来水厂 1.0000000
ハウス 室内 0.0526316
室 室内 0.4736842
内 室内 0.4736842
配列 排列 1.0000000
前 前聚 1.0000000
おける 台湾 0.2500000
台湾 台湾 0.7500000
ＰｒＰＳｃ ｐｒｐｓｃ 0.5000000
へ ｐｒｐｓｃ 0.5000000
接点 接口 0.5000000
インタフェース 接口 0.5000000
側 方向 0.2222222
方向 方向 0.7777778
より 相比 0.1176471
比べ 相比 0.1764706
と 相比 0.1764706
比べる 相比 0.0588235
比べて 相比 0.0588235
悪い 相比 0.0588235
小さな 相比 0.0588235
も 相比 0.0588235
つつ 相比 0.0588235
NULL 相比 0.1176471
細胞 相比 0.0588235
行い 试图 0.5000000
現状 试图 0.5000000
ポリ 聚氯丁烯 0.2500000
塩化 聚氯丁烯 0.2500000
クロロ 聚氯丁烯 0.2500000
ナフタレン 聚氯丁烯 0.2500000
均一 一且 1.0000000
テルペン 烃类 0.5000000
類 烃类 0.5000000
拡張 自我 0.1000000
創造 自我 0.1000000
れる 自我 0.2000000
れ 自我 0.1000000
自己 自我 0.2000000
する 自我 0.1000000
である 自我 0.1000000
知る 自我 0.1000000
灯 盏 0.5000000
が 盏 0.5000000
自動車 汽车 1.0000000
内 ｝ 0.2000000
ハウス ｝ 0.8000000
置換 置换 1.0000000
メイン 主 1.0000000
られた 水质 0.1176471
水質 水质 0.8823529
タンク 罐 1.0000000
月 ８月 0.4545455
８ ８月 0.5454545
温暖 温暖 1.0000000
初期 初期 1.0000000
ユビキタス 泛 0.6666667
コンピューティング 泛 0.3333333
黒 黑 0.5000000
ぼく 黑 0.5000000
宍道 宍道湖 0.4000000
湖 宍道湖 0.6000000
市 市 1.0000000
依然と 残留 0.2500000
里 残留 0.2500000
残留 残留 0.2500000
さか 残留 0.2500000
向上 相关 0.0172414
NULL 相关 0.0344828
関与 相关 0.0172414
ついて 相关 0.0517241
関連 相关 0.0689655
に 相关 0.1724138
相関 相关 0.3965517
関する 相关 0.2241379
事象 相关 0.0172414
臭 研究 0.0084034
ワークショップ 研究 0.0168067
いる 研究 0.0084034
NULL 研究 0.0756303
調べた 研究 0.0084034
行った 研究 0.0252101
大学院 研究 0.0084034
バイオセイフティー 研究 0.0084034
研究 研究 0.7226891
もの 研究 0.0084034
関する 研究 0.0336134
要する 研究 0.0084034
進んで 研究 0.0084034
検討 研究 0.0504202
育った 研究 0.0084034
基地 基地 0.5000000
なって 基地 0.5000000
経て 没 1.0000000
コーティング 表面 0.1666667
表面 表面 0.8333333
年 ２００２年 0.4761905
２００２ ２００２年 0.5238095
である ０．７８ 0.5000000
０．７８ ０．７８ 0.5000000
Ｔｗｏ Ｔｗｏ 0.5000000
− Ｔｗｏ 0.5000000
なく 聚乳酸 0.3333333
事 聚乳酸 0.3333333
する 聚乳酸 0.3333333
ｐｐｂ 降低 0.0588235
低下 降低 0.2352941
電圧 降低 0.0588235
粒子 降低 0.0588235
し 降低 0.0588235
は 降低 0.0588235
減少 降低 0.0588235
アゾール 降低 0.0588235
低減 降低 0.3529412
塵 煤尘 1.0000000
悪い 好 0.2000000
優れ 好 0.2000000
いる 好 0.2000000
優れて 好 0.2000000
して 好 0.2000000
常時 经常 1.0000000
与 用法 1.0000000
草木 草木 1.0000000
塗り ＰＰＣ 1.0000000
− －３ 0.3333333
ＭＢ －３ 0.3333333
３ －３ 0.3333333
ソノケミストリー 超声 1.0000000
暗渠 沟渠 0.5000000
部 沟渠 0.5000000
プール 游泳 0.6666667
施設 游泳 0.3333333
的な 启蒙 0.5000000
啓蒙 启蒙 0.5000000
スペクトル 谱间 1.0000000
石原 指出 0.2000000
指摘 指出 0.2000000
カ月 指出 0.2000000
NULL 指出 0.2000000
示唆 指出 0.2000000
浅い 浅水井 0.5000000
井戸 浅水井 0.5000000
ＵＶ ＵＶ 1.0000000
１９９４ 荣获 0.3333333
Ｂｒｏｃｋｈｏｕｓｅ 荣获 0.3333333
は 荣获 0.3333333
２０ ７０％ 0.5000000
７０ ７０％ 0.5000000
任せる 辅导 1.0000000
底部 底部 1.0000000
ｔｒｂ ｔｒｂ 1.0000000
大差 偏析性 1.0000000
〕 〉 1.0000000
から 构成 0.0769231
NULL 构成 0.0384615
有する 构成 0.0384615
充填 构成 0.0384615
金 构成 0.0384615
構成 构成 0.6153846
と 构成 0.0384615
なる 构成 0.1153846
パラメーター 消长 1.0000000
癌 癌症 1.0000000
ヤマトオサガニ 眼蟹 1.0000000
マッサージ 按摩 0.5000000
ちつ 按摩 0.5000000
おける 作物 0.1428571
作物 作物 0.8571429
新規 芽个体经年 1.0000000
込む 拉进 0.3333333
引 拉进 0.3333333
的に 拉进 0.3333333
散乱 散射 0.8333333
よる 散射 0.1666667
処分 埋 1.0000000
インキュベーション 保温 0.6666667
保温 保温 0.3333333
砕石 碎石 1.0000000
水素 －氢 0.5000000
である －氢 0.5000000
遅く 迟缓 0.5000000
なる 迟缓 0.5000000
個体 个体 0.9090909
した 个体 0.0909091
形態 形态 1.0000000
浮遊 浮游 1.0000000
非 非构 1.0000000
ジフェニルエーテル 二苯醚 1.0000000
良好である 好于林内 1.0000000
気象 气候 0.3750000
気候 气候 0.5000000
へ 气候 0.1250000
データベース 数据库 0.7142857
する 数据库 0.1428571
利用 数据库 0.1428571
続いて 给 0.1428571
を 给 0.1428571
貿易 给 0.1428571
給水 给 0.1428571
が 给 0.1428571
撹乱 给 0.1428571
都道府県 给 0.1428571
ＧＥＮＥ ＧＥＮＥ 1.0000000
ダクト 产品 0.1250000
である 产品 0.1250000
製品 产品 0.7500000
茎 茎 0.6000000
用いて 茎 0.2000000
算出 茎 0.2000000
有意な 负 0.3333333
負 负 0.6666667
照射 聚合墨粉 0.5000000
した 聚合墨粉 0.5000000
乗り切る 顺利 1.0000000
した 活体 0.2500000
採取 活体 0.2500000
もの 活体 0.2500000
生体 活体 0.2500000
酪農 寒冷 0.3333333
寒冷な 寒冷 0.3333333
寒冷 寒冷 0.3333333
Ｈｅｒｒｉｄｇｅ 从 0.0117647
１９９５ 从 0.0117647
２００５ 从 0.0117647
２６ 从 0.0117647
は 从 0.0588235
１９９７ 从 0.0235294
１９ 从 0.0117647
ＨＯＲＩＢＡ 从 0.0117647
１９８５ 从 0.0235294
， 从 0.1764706
概観 从 0.0117647
モノ 从 0.0117647
１０ 从 0.0117647
NULL 从 0.1764706
わたり 从 0.0117647
統計 从 0.0117647
水稲 从 0.0117647
２００２ 从 0.0117647
太古 从 0.0117647
溜め 从 0.0117647
１９８０ 从 0.0117647
方 从 0.0352941
正常 从 0.0117647
しかしながら 从 0.0117647
この 从 0.0117647
ＲＧＲ 从 0.0117647
から 从 0.2705882
汚泥 污泥 1.0000000
自然の 购买 1.0000000
小さい 是 0.0047847
特に 是 0.0047847
次いで 是 0.0047847
ダウン 是 0.0047847
乾 是 0.0047847
タッチ 是 0.0047847
公園 是 0.0047847
NULL 是 0.0574163
大きい 是 0.0047847
換える 是 0.0047847
とりわけ 是 0.0047847
なく 是 0.0047847
現場 是 0.0047847
街 是 0.0047847
なぜなら 是 0.0047847
選抜 是 0.0047847
その 是 0.0095694
その頃 是 0.0047847
しまう 是 0.0047847
も 是 0.0095694
全 是 0.0047847
先進 是 0.0047847
は 是 0.5406699
予期 是 0.0047847
単に 是 0.0095694
， 是 0.1339713
こと 是 0.0047847
経口 是 0.0047847
被爆 是 0.0047847
デキ 是 0.0047847
多様で 是 0.0047847
相違 是 0.0047847
である 是 0.0047847
主として 是 0.0095694
人畜 是 0.0047847
さ 是 0.0047847
ビューワ 是 0.0047847
５０ 是 0.0047847
意欲 是 0.0047847
が 是 0.0622010
項 是 0.0095694
主な 是 0.0047847
農業 相联 1.0000000
営農 务农 0.6666667
なる 务农 0.3333333
同士 键 1.0000000
温 位相 0.5000000
位 位相 0.5000000
絶縁 介质 0.8333333
封じ 介质 0.1666667
・ ·正 0.5000000
正 ·正 0.5000000
採用 说 0.0909091
説 说 0.2727273
NULL 说 0.1818182
と 说 0.2727273
あった 说 0.0909091
適切である 说 0.0909091
いる 出现 0.0909091
， 出现 0.1818182
出現 出现 0.1818182
紙 出现 0.0909091
続出 出现 0.0909091
繰り返し 出现 0.0909091
現れる 出现 0.0909091
きて 出现 0.0909091
１２３ 出现 0.0909091
ｓｒｔ ｓｒｔ 1.0000000
を 钕稀 0.5000000
ネオジム 钕稀 0.5000000
投入 投入 0.5000000
算出 投入 0.2500000
Ｒｐｒｉ 投入 0.2500000
予備 准备 0.5000000
備える 准备 0.5000000
化 简单化 0.5000000
単純 简单化 0.5000000
NULL 输送 0.2500000
移送 输送 0.5000000
水上 输送 0.2500000
隠れ 阶层 0.6666667
する 阶层 0.3333333
ついて 槽 0.5000000
槽 槽 0.5000000
フェノール ３－氯酚 1.0000000
圏 形式 0.2000000
NULL 形式 0.2000000
形式 形式 0.2000000
形 形式 0.4000000
注意 注意 0.2500000
分 注意 0.2500000
いく 注意 0.2500000
必要である 注意 0.2500000
ボランティア 志愿 1.0000000
工 突起 1.0000000
血清 血清 1.0000000
著者 们 0.4444444
NULL 们 0.1111111
ら 们 0.4444444
ＨＳＩ ＨＩＳ 1.0000000
丘陵 丘陵 0.7500000
大部分 丘陵 0.2500000
Ｎ 比 0.0303030
比 比 0.1515152
NULL 比 0.0303030
，θ 比 0.0303030
アケボノ 比 0.0303030
市 比 0.0303030
が 比 0.1818182
対照 比 0.0303030
推力 比 0.0303030
石油 比 0.0303030
感受性 比 0.0303030
第 比 0.0909091
穂 比 0.0303030
は 比 0.2424242
重要である 比 0.0303030
新居浜 新居滨 1.0000000
＝ ＝ 1.0000000
カリウム 钾 1.0000000
バリデーション 验证 0.2000000
行った 验证 0.2000000
こ 验证 0.2000000
検証 验证 0.4000000
検索 检索 1.0000000
直 上方 0.5000000
上 上方 0.5000000
接地 接地 0.8333333
ない 接地 0.1666667
も 不利 0.2500000
努め 不利 0.2500000
不利な 不利 0.2500000
不利益 不利 0.2500000
豚肉 猪肉 1.0000000
： Ｃａｍｐｙｌｏｂａｃｔｅｒ： 0.5000000
Ｃａｍｐｙｌｏｂａｃｔｅｒ Ｃａｍｐｙｌｏｂａｃｔｅｒ： 0.5000000
林 雨林 0.5000000
雨 雨林 0.5000000
広島 广岛 1.0000000
しれ 负担 0.1428571
ない 负担 0.1428571
負担 负担 0.7142857
賞 奖 0.2500000
いる 奖 0.2500000
受賞 奖 0.2500000
して 奖 0.2500000
根 根 1.0000000
酸 氯酸钾 0.3333333
カリ 氯酸钾 0.3333333
塩素 氯酸钾 0.3333333
腐 腐烂度 0.3333333
判定 腐烂度 0.1111111
熟 腐烂度 0.2222222
度 腐烂度 0.3333333
耐熱 耐热 1.0000000
なり 夺走 1.0000000
する 低下 0.1250000
ある 低下 0.1250000
挽回 低下 0.1250000
こと 低下 0.1250000
低下 低下 0.5000000
ｐＨ ｐＨ 1.0000000
ひ素 砷 1.0000000
田舎 乡下 0.5000000
地方 乡下 0.5000000
突き出た 北海 1.0000000
表す ＳＣＦＧ 0.2000000
適した ＳＣＦＧ 0.1000000
パラメタ ＳＣＦＧ 0.1000000
ＳＣＦＧ ＳＣＦＧ 0.6000000
自体 自体 1.0000000
４００ ４００ 1.0000000
ＣＴ 随着 0.0555556
の 随着 0.0555556
NULL 随着 0.0555556
が 随着 0.0555556
で 随着 0.1111111
検査 随着 0.0555556
， 随着 0.1666667
基づき 随着 0.0555556
業 随着 0.0555556
自動車 随着 0.0555556
含 随着 0.0555556
は 随着 0.2222222
稼働 运转 0.1428571
風力 运转 0.1428571
中 运转 0.1428571
など 运转 0.1428571
運転 运转 0.4285714
トラップ 回 0.3333333
回 回 0.3333333
蒸気 回 0.3333333
諸 填补 1.0000000
NULL 事例 0.0714286
攪拌 事例 0.0714286
例 事例 0.2857143
事例 事例 0.5714286
その 多态 1.0000000
一般に 一般 0.2500000
営巣 一般 0.1250000
NULL 一般 0.2500000
一般 一般 0.2500000
普通 一般 0.1250000
バイパス 共享 0.5000000
共有 共享 0.5000000
こと 适应 0.3333333
NULL 适应 0.3333333
ある 适应 0.3333333
･ 监 0.5000000
傍受 监 0.5000000
国連 联合 0.3333333
連携 联合 0.6666667
スペクトル 谱为 1.0000000
メーカー 厂家 0.6666667
・ 厂家 0.3333333
ダイオキシン 抗二恶英类 0.3333333
類 抗二恶英类 0.3333333
抗 抗二恶英类 0.3333333
して 细小 0.3333333
わずかな 细小 0.3333333
経験 细小 0.3333333
が 兼备 0.5000000
兼ね備えた 兼备 0.5000000
ＨＷ ＨＷ 1.0000000
気性 性微 0.5000000
微 性微 0.5000000
用いて 仪 0.2000000
ジャイロスコープ 仪 0.4000000
から 仪 0.2000000
いる 仪 0.2000000
産学 产学 1.0000000
除去 除 0.2000000
よる 除 0.1000000
不純 除 0.1000000
しゅ 除 0.1000000
重 除 0.1000000
は 除 0.3000000
本殿 除 0.1000000
調整 调整 0.5000000
さ 调整 0.1666667
２５ 调整 0.3333333
伝統 传统 0.1666667
的な 传统 0.1666667
昔 传统 0.1666667
いった 传统 0.1666667
NULL 传统 0.1666667
から 传统 0.1666667
する 成立 0.2500000
ある 成立 0.2500000
が 成立 0.2500000
と 成立 0.2500000
から 经由 1.0000000
金型 模具 0.5000000
および 模具 0.5000000
試料 槽样 0.5000000
槽 槽样 0.5000000
開削 开 0.5000000
更正 开 0.5000000
また 此外 1.0000000
再 再 0.3823529
リサイクル 再 0.5294118
NULL 再 0.0882353
Ｆｉｇ． ８所示 0.5000000
示す ８所示 0.5000000
２ 图２ 0.5000000
図 图２ 0.5000000
型 态 0.2500000
態 态 0.2500000
多 态 0.2500000
仮定 态 0.2500000
示し 举 1.0000000
参照 参照 1.0000000
した 总称 0.1250000
おり 总称 0.1250000
これ 总称 0.1250000
して 总称 0.1250000
総称 总称 0.2500000
もの 总称 0.1250000
更生 总称 0.1250000
マグロ 金枪鱼 1.0000000
除去 去除 1.0000000
藻 导致 0.0454545
ついに 导致 0.0454545
軟化 导致 0.0454545
起因 导致 0.0454545
来る 导致 0.0454545
制限 导致 0.0454545
欠けて 导致 0.0454545
よる 导致 0.1818182
取り入れた 导致 0.0454545
腐食 导致 0.0454545
に 导致 0.2272727
いる 导致 0.0454545
NULL 导致 0.0454545
から 导致 0.0909091
通常 燃料 0.1000000
薪 燃料 0.1000000
燃料 燃料 0.8000000
０．６ ０．６ 1.0000000
底 底土 0.3333333
土 底土 0.3333333
シルト 底土 0.3333333
指数 指数 0.6666667
関数 指数 0.3333333
１０００ １０００ 1.0000000
凍結 的话 0.1666667
粉 的话 0.1666667
急伸 的话 0.1666667
場合 的话 0.1666667
いる 的话 0.1666667
して 的话 0.1666667
おいて 区分 0.5000000
分別 区分 0.5000000
コイル 线圈 1.0000000
値 真值 0.5000000
真 真值 0.5000000
２００６ 指令 0.1111111
ＷＥＥＥ 指令 0.1111111
指令 指令 0.5555556
は 指令 0.2222222
交換 培养基 0.5000000
培地 培养基 0.5000000
できた １ｐｐｂ 0.3333333
低下 １ｐｐｂ 0.3333333
まで １ｐｐｂ 0.3333333
音波 音波 1.0000000
早期 早期 1.0000000
プリオン 朊 1.0000000
炭酸 碳酸 1.0000000
が 规定 0.0357143
義務付け 规定 0.0357143
NULL 规定 0.1071429
いる 规定 0.0357143
仕様 规定 0.0357143
れ 规定 0.0357143
である 规定 0.0357143
規定 规定 0.1428571
示さ 规定 0.0357143
抑制 规定 0.0357143
定める 规定 0.0357143
規制 规定 0.2500000
さ 规定 0.1428571
２３４ 规定 0.0357143
マルチング 铺设 0.3333333
して 铺设 0.3333333
期待 铺设 0.3333333
核 核 1.0000000
硝酸態窒素 因而 0.1666667
用い 因而 0.1666667
多様で 因而 0.1666667
考慮 因而 0.1666667
ため 因而 0.1666667
NULL 因而 0.1666667
法人 法人 1.0000000
互いに 互相 1.0000000
ハビタット 栖息 0.0909091
生息 栖息 0.2727273
出現 栖息 0.0909091
カニ 栖息 0.2727273
ず 栖息 0.0909091
で 栖息 0.1818182
さ 想到 0.3333333
れる 想到 0.3333333
予想 想到 0.3333333
ＮＨ ２·ＨＣｌ 0.2500000
・ ２·ＨＣｌ 0.2500000
２ ２·ＨＣｌ 0.5000000
まだ 不够 1.0000000
的に 间歇 0.5000000
間欠 间歇 0.5000000
ヒドロキシ 羟基 1.0000000
パルス 正态 0.3333333
ノーマル 正态 0.3333333
ＹＡＧ 正态 0.3333333
濃縮 浓缩 1.0000000
特異 特殊 0.2000000
特殊な 特殊 0.2000000
特殊 特殊 0.4000000
特異な 特殊 0.2000000
同質 准同质 0.5000000
準 准同质 0.5000000
四 四 0.5000000
さ 四 0.2500000
ピロメリトイミド 四 0.2500000
県民 县民 1.0000000
・ 钾· 0.5000000
カリウム 钾· 0.5000000
道 导管 0.1666667
カテーテル 导管 0.1666667
導管 导管 0.6666667
タイヤシュレッズ 裁 1.0000000
帯 潮间带 0.3333333
間 潮间带 0.3333333
潮 潮间带 0.3333333
が 普遍 0.7500000
公定 普遍 0.2500000
NULL 报告 0.0740741
報告 报告 0.5185185
いる 报告 0.1111111
れて 报告 0.1111111
報 报告 0.0370370
既報 报告 0.0370370
さ 报告 0.1111111
／ｍ μｍｏｌ 0.3333333
μｍ μｍｏｌ 0.3333333
ｏｌ μｍｏｌ 0.3333333
する 内侧 0.4000000
把持 内侧 0.2000000
内側 内侧 0.2000000
もの 内侧 0.2000000
もと 协调 0.1428571
間 协调 0.1428571
協調 协调 0.5714286
ＳＶＲ 协调 0.1428571
車両 车辆 0.6000000
車 车辆 0.2000000
よる 车辆 0.2000000
囲ま 围护 1.0000000
殆ど 几乎 0.1428571
ほとんど 几乎 0.8571429
コレステロール 来源于 0.2500000
亜熱帯 来源于 0.2500000
及ぼす 来源于 0.2500000
の 来源于 0.2500000
田 旱田 0.5000000
乾 旱田 0.5000000
改ざん 听·篡改 1.0000000
度 信度 0.5000000
信頼 信度 0.5000000
防災 建设 0.1111111
立ち上げ 建设 0.1111111
られた 建设 0.1111111
建設 建设 0.6666667
印加 加载 1.0000000
見出せ 发现 0.0285714
なかった 发现 0.0571429
ホルム 发现 0.0285714
発見 发现 0.0285714
動的な 发现 0.0285714
行なう 发现 0.0285714
荒木 发现 0.0285714
見 发现 0.1428571
底 发现 0.0285714
見出して 发现 0.0285714
NULL 发现 0.2571429
プラスチド 发现 0.0285714
板 发现 0.0285714
両者 发现 0.0285714
多様な 发现 0.0285714
カニ 发现 0.0285714
求める 发现 0.0285714
られ 发现 0.1142857
二 发现 0.0285714
製作 制造 0.1000000
製 制造 0.1000000
が 制造 0.3000000
製造 制造 0.5000000
神経 神经 1.0000000
ブランド 品牌 1.0000000
保 保水 0.5000000
水 保水 0.5000000
解 解法 0.5000000
法 解法 0.5000000
事業 循环 0.0526316
Ｒｉｖｅｒｓｉｄｅ 循环 0.0526316
大国 循环 0.0526316
循環 循环 0.7894737
リサイクル 循环 0.0526316
ミント 麝香 1.0000000
よる 射线 0.5000000
被爆 射线 0.5000000
装着 装 0.5000000
かつ 装 0.5000000
ある 工场 0.5000000
工場 工场 0.5000000
ナトリウム 钠 1.0000000
放散 散发 1.0000000
人工 在 0.0045147
， 在 0.1896163
ひと 在 0.0022573
小 在 0.0022573
カネミ 在 0.0022573
０００ 在 0.0022573
イタリア 在 0.0022573
タイヤ 在 0.0022573
鳥取 在 0.0022573
は 在 0.1083521
流 在 0.0022573
達 在 0.0022573
おける 在 0.0067720
活かした 在 0.0022573
部分 在 0.0022573
で 在 0.0248307
が 在 0.0722348
塩 在 0.0022573
中 在 0.0022573
苗木 在 0.0022573
前 在 0.0022573
第 在 0.0090293
水没 在 0.0022573
生長 在 0.0022573
コウボウムギ 在 0.0022573
当たら 在 0.0022573
２００４ 在 0.0022573
NULL 在 0.2279910
シルト 在 0.0022573
の 在 0.0067720
安全な 在 0.0022573
温室 在 0.0022573
ソノケミストリー 在 0.0022573
このような 在 0.0067720
最初 在 0.0022573
組成 在 0.0022573
今 在 0.0022573
本 在 0.0135440
それ 在 0.0022573
この 在 0.0090293
に 在 0.0203160
２４ 在 0.0022573
ここ 在 0.0158014
おいて 在 0.0090293
ユビキタス 在 0.0045147
いる 在 0.0022573
他の 在 0.0022573
一 在 0.0022573
換金 在 0.0022573
土 在 0.0022573
鶴 在 0.0045147
解析 在 0.0067720
植物 在 0.0022573
ともに 在 0.0022573
インド 在 0.0045147
植 在 0.0022573
新居浜 在 0.0022573
テント 在 0.0022573
また 在 0.0067720
本稿 在 0.0112867
サルビア 在 0.0022573
浄水 在 0.0022573
カラム 在 0.0022573
携帯 在 0.0022573
配電 在 0.0045147
Ｐｈｏｓｐｈａｔｅ 在 0.0022573
主に 在 0.0022573
吸着 在 0.0045147
四万十 在 0.0022573
１９９９ 在 0.0022573
日本 在 0.0090293
でも 在 0.0067720
か 在 0.0022573
露天 在 0.0022573
米国 在 0.0045147
ソルバー 在 0.0022573
部 在 0.0045147
多摩 在 0.0022573
川 在 0.0045147
平均 在 0.0022573
大 在 0.0022573
スーパー 在 0.0022573
板 在 0.0022573
佐賀 在 0.0022573
対照 在 0.0022573
マイクロホン 在 0.0022573
地図 在 0.0045147
低 在 0.0022573
を 在 0.0180587
特に 在 0.0022573
一般に 在 0.0022573
地震 在 0.0022573
さらに 在 0.0022573
葉 在 0.0022573
これ 在 0.0067720
も 在 0.0045147
ＥＵ 在 0.0022573
インキュベーション 在 0.0022573
両 在 0.0067720
アクリル 在 0.0045147
少 在 0.0022573
バニラ 在 0.0022573
精錬 精练 1.0000000
ＰＩＰ ＰＩＰ 1.0000000
内視鏡 内窥镜 0.8000000
短くて 内窥镜 0.2000000
養生 养护 1.0000000
方 震动 0.3333333
振り 震动 0.3333333
を 震动 0.3333333
浄水 净水 1.0000000
２ ２月 1.0000000
実証 实证 0.6666667
ホンダ 实证 0.3333333
増加 增加量 1.0000000
おける 葫芦 0.1666667
ホテイアオイ 葫芦 0.8333333
説 之 0.0555556
が 之 0.1666667
NULL 之 0.1111111
マイクロリアクター 之 0.0555556
の 之 0.2222222
編 之 0.0555556
その 之 0.0555556
異なる 之 0.0555556
糺の森 之 0.0555556
ホール 之 0.1111111
ミス 之 0.0555556
ばらまか 分散 0.1428571
分散 分散 0.7857143
れた 分散 0.0714286
１９ １９ 1.0000000
示す 所 0.0259740
所属 所 0.0129870
受け入れ 所 0.0129870
解消 所 0.0129870
それ 所 0.0129870
に 所 0.2467532
欠かせ 所 0.0129870
で 所 0.0389610
逆に 所 0.0129870
合板 所 0.0129870
乾燥 所 0.0129870
ともに 所 0.0129870
より 所 0.0259740
して 所 0.0259740
表 所 0.0259740
得た 所 0.0129870
自乗 所 0.0129870
の 所 0.0649351
含ま 所 0.0129870
集計 所 0.0129870
到達 所 0.0129870
立体 所 0.0129870
所 所 0.1168831
及ぼす 所 0.0259740
NULL 所 0.0909091
作付け 所 0.0129870
１２３ 所 0.0129870
を 所 0.0389610
知ら 所 0.0519481
ケース 发酵 1.0000000
再生 注入 0.2500000
注入 注入 0.5000000
井戸 注入 0.2500000
３ ３月 0.4000000
月 ３月 0.4000000
月間 ３月 0.2000000
発現 呢 0.5000000
を 呢 0.5000000
予測 预测式 0.5000000
式 预测式 0.5000000
的で 支持 0.5000000
NULL 支持 0.5000000
実測 其 0.0111111
する 其 0.0555556
知事 其 0.0111111
ので 其 0.0111111
その 其 0.4000000
さ 其 0.0111111
既設 其 0.0111111
下層 其 0.0111111
で 其 0.0111111
できた 其 0.0111111
加熱 其 0.0111111
判別 其 0.0111111
プローブ 其 0.0111111
概要 其 0.0111111
沈着 其 0.0111111
散乱 其 0.0111111
と 其 0.0444444
横 其 0.0111111
今 其 0.0111111
熱風 其 0.0111111
地下茎 其 0.0111111
検討 其 0.0222222
酸化 其 0.0111111
圃場 其 0.0111111
NULL 其 0.2000000
立ち 其 0.0111111
毒性 其 0.0111111
反映 其 0.0111111
既 其 0.0111111
地方 其 0.0111111
６０ 张 1.0000000
ＳＯ ＳＯ 1.0000000
阻害 阻害 0.2500000
する 阻害 0.2500000
場合 阻害 0.2500000
れて 阻害 0.2500000
常時 常时 1.0000000
新設 新设 1.0000000
臓器 臟器 1.0000000
微小 间隙 0.1428571
ギャップ 间隙 0.8571429
して 建议 0.2500000
省エネ 建议 0.2500000
NULL 建议 0.2500000
こと 建议 0.2500000
拡 括径 0.5000000
径 括径 0.5000000
ナット 螺栓·螺母 0.5000000
・ 螺栓·螺母 0.5000000
マイル 里程 0.5000000
数 里程 0.5000000
耐性 耐性 1.0000000
ふ 稻谷 0.3333333
籾 稻谷 0.3333333
長 稻谷 0.3333333
夏季 夏季 1.0000000
金 金纳 1.0000000
凍 解冻 1.0000000
出口 出口 0.6666667
NULL 出口 0.3333333
メルカプトエタノール 乙醇 1.0000000
平均 平均 0.8333333
化 平均 0.1666667
見当たら 结果 0.0142857
結果 结果 0.8285714
その 结果 0.0714286
結実 结果 0.0285714
で 结果 0.0142857
おいて 结果 0.0142857
ランプ 结果 0.0142857
ｇｍ 结果 0.0142857
土 稻田 0.5000000
水田 稻田 0.5000000
できれば 出 0.0344828
NULL 出 0.3793103
に 出 0.1034483
簡便 出 0.0344828
， 出 0.1034483
求めて 出 0.0344828
短 出 0.0344828
示した 出 0.0689655
根源 出 0.0344828
ハイブリダイズ 出 0.0344828
さ 出 0.0689655
３６ 出 0.0344828
示して 出 0.0344828
挙げて 市政 0.3333333
ＲＲＦ 市政 0.3333333
市 市政 0.3333333
ホルモン 激素 0.1000000
エストロゲン 激素 0.7000000
受容 激素 0.2000000
鉱山 矿山 1.0000000
海辺 海边 1.0000000
非 凿 0.5000000
開削 凿 0.5000000
内部 内部 0.2500000
社 内部 0.3125000
森林 内部 0.0625000
内 内部 0.3125000
おける 内部 0.0625000
さ 了 0.0242131
踏まえ 了 0.0024213
して 了 0.0508475
一斉 了 0.0024213
繰り返し 了 0.0024213
生じ 了 0.0024213
施行 了 0.0024213
で 了 0.0096852
が 了 0.0048426
松下 了 0.0072639
ワラ 了 0.0024213
挙動 了 0.0024213
値する 了 0.0024213
断熱 了 0.0024213
は 了 0.0121065
１９９４ 了 0.0024213
アゾール 了 0.0024213
県 了 0.0024213
， 了 0.1041162
黄 了 0.0024213
寄せ集め 了 0.0024213
伴い 了 0.0024213
より 了 0.0048426
ラージ 了 0.0024213
し 了 0.0314770
堀 了 0.0024213
れ 了 0.0024213
検証 了 0.0024213
自律 了 0.0024213
施策 了 0.0024213
数学 了 0.0024213
に 了 0.0048426
的に 了 0.0024213
なった 了 0.0121065
きた 了 0.0024213
いる 了 0.0024213
について 了 0.0024213
供 了 0.0048426
摂食 了 0.0024213
を 了 0.0460048
ルンゲ 了 0.0024213
対して 了 0.0048426
水 了 0.0024213
した 了 0.1743341
ついて 了 0.0387409
行った 了 0.0048426
列 了 0.0024213
NULL 了 0.3825666
的 了 0.0024213
与えて 了 0.0024213
包装 包装 0.3333333
内包 包装 0.3333333
味 包装 0.3333333
ＣＳＯＮｅｔ ＣＳＯＮｅｔ 1.0000000
フィールド 现场 0.1428571
現地 现场 0.2857143
現場 现场 0.2857143
おいて 现场 0.1428571
よる 现场 0.1428571
細菌 细菌 0.7894737
NULL 细菌 0.0526316
した 细菌 0.0526316
ら 细菌 0.0526316
カンピロバクター 细菌 0.0526316
精液 电力 0.0909091
電力 电力 0.9090909
成長 成长 0.3333333
進展 成长 0.3333333
NULL 成长 0.3333333
移動 移动 0.7500000
モバイル 移动 0.1250000
チューブ 移动 0.1250000
土地 情况 0.0256410
変遷 情况 0.0256410
場合 情况 0.2051282
検討 情况 0.0256410
ケース 情况 0.0256410
ついて 情况 0.0256410
勝手 情况 0.0256410
様子 情况 0.0512821
調べた 情况 0.0256410
NULL 情况 0.0512821
こと 情况 0.0256410
の 情况 0.0769231
どの 情况 0.0256410
状況 情况 0.1025641
より 情况 0.0256410
なかった 情况 0.0512821
事情 情况 0.0256410
挙動 情况 0.0769231
方 情况 0.0512821
中 情况 0.0256410
述べた 情况 0.0256410
町 １和３ 1.0000000
相 Ｘ射线 0.5000000
Ｘ線 Ｘ射线 0.5000000
区画 划定 1.0000000
２９ ２９ 1.0000000
５００ ４５００ 1.0000000
不十分である 理想 0.3333333
方 理想 0.3333333
在り 理想 0.3333333
消化 消化 1.0000000
密度 密度 0.6000000
NULL 密度 0.1000000
濃度 密度 0.2000000
許容 密度 0.1000000
スペクトル 谱 0.6666667
求めた 谱 0.3333333
れて 进去 0.3333333
いた 进去 0.3333333
さ 进去 0.3333333
携帯 手机 1.0000000
から 角度 0.1428571
角度 角度 0.2857143
観点 角度 0.1428571
視点 角度 0.1428571
立場 角度 0.1428571
的な 角度 0.1428571
トリス 状 0.3333333
状 状 0.6666667
卵 卵 1.0000000
従って 均 0.1428571
NULL 均 0.1428571
の 均 0.1428571
でも 均 0.1428571
双方 均 0.1428571
ＬＡｅｑ 均 0.1428571
高く 均 0.1428571
１９０ １９０ 1.0000000
容易である 本来 0.5000000
本来 本来 0.5000000
積 层积 0.5000000
層 层积 0.5000000
の 意大利 0.5000000
イタリア 意大利 0.5000000
通じ 符合 1.0000000
私有 私有 1.0000000
４ ４－Ｎ成正 0.3333333
Ｎ ４－Ｎ成正 0.3333333
− ４－Ｎ成正 0.3333333
量 水量 0.5000000
水量 水量 0.5000000
片側 单向 0.3333333
ない 单向 0.3333333
い 单向 0.3333333
凍結 冻结 1.0000000
与え 性等 1.0000000
水鳥 水鸟 1.0000000
皆伐 皆伐 1.0000000
放出 释放 1.0000000
軟化 热风 0.3333333
より 热风 0.3333333
熱風 热风 0.3333333
化 能化 0.5000000
性能 能化 0.5000000
ドデシル 十二 1.0000000
接する 相接 1.0000000
有効であり 最为 0.5000000
最も 最为 0.5000000
主体 主体 0.5000000
マルチ 主体 0.2500000
言語 主体 0.1250000
ホスト 主体 0.1250000
見込める 衡量 0.5000000
否 衡量 0.5000000
NULL 需 0.4000000
と 需 0.2000000
必要 需 0.2000000
不必要な 需 0.2000000
４５０ ４５０ 1.0000000
NULL 样品 0.0769231
溶出 样品 0.0769231
試料 样品 0.3846154
なく 样品 0.0769231
経過 样品 0.0769231
サンプル 样品 0.3076923
低減 费用 0.1250000
NULL 费用 0.1250000
費 费用 0.1250000
費用 费用 0.5000000
料 费用 0.1250000
ｔｒｈ ｔｒｈ 1.0000000
下流 下游 0.5000000
で 下游 0.5000000
ならびに 节约 0.5000000
セービング 节约 0.5000000
ツール 工具 0.2000000
工具 工具 0.4000000
NULL 工具 0.2000000
であり 工具 0.2000000
周波 周波 0.3333333
軸 周波 0.3333333
数 周波 0.3333333
Ｌｕｃａｓ 俄亥俄 1.0000000
定量 定量 1.0000000
消毒 消毒 0.5000000
副 消毒 0.5000000
青 蓝 0.5000000
ヨシキリザメ 蓝 0.5000000
てん菜 貂菜 1.0000000
報 报 1.0000000
推力 推力 1.0000000
を 成为 0.0714286
にはには 成为 0.0714286
増 成为 0.0714286
なる 成为 0.0714286
今や 成为 0.0714286
水鳥 成为 0.0714286
で 成为 0.0714286
Ｃａｍｐｙｌｏｂａｃｔｅｒ 成为 0.0714286
が 成为 0.2857143
大量の 成为 0.0714286
Ｘ線 成为 0.0714286
し 短径 0.2500000
径 短径 0.2500000
計測 短径 0.2500000
短 短径 0.2500000
褐藻 褐藻 1.0000000
第 第１ 0.5217391
１ 第１ 0.4782609
群 群落 0.2500000
集団 群落 0.1250000
群落 群落 0.6250000
ｖＬｎ 显示 0.0294118
は 显示 0.2352941
を 显示 0.0882353
示した 显示 0.1470588
通じて 显示 0.0294118
ＮＨ 显示 0.0294118
ＬＡｅｑ 显示 0.0294118
より 显示 0.0294118
後期 显示 0.0294118
NULL 显示 0.1470588
おいて 显示 0.0588235
呈示 显示 0.1176471
異なった 显示 0.0294118
書 ［ 0.2000000
［ ［ 0.6000000
［℃］ ［ 0.2000000
メタル 工艺 0.3333333
バイオ 工艺 0.3333333
テクノロジー 工艺 0.3333333
異性 异构 1.0000000
より 肠体 0.0909091
引き寄せ 肠体 0.0909091
短縮 肠体 0.1818182
腸 肠体 0.2727273
が 肠体 0.0909091
する 肠体 0.2727273
れた 生活 0.0833333
生ごみ 生活 0.4166667
生活 生活 0.5000000
天候 天气 1.0000000
猟 狩猎 1.0000000
木 逐一 0.5000000
毎 逐一 0.5000000
約 约 0.9230769
フェライト 约 0.0769231
農林 对方 0.5000000
相手 对方 0.5000000
れる 角锥 0.5000000
角錐 角锥 0.5000000
NULL 占 0.0588235
が 占 0.4117647
容積 占 0.0588235
優 占 0.2352941
２５ 占 0.0588235
上位 占 0.0588235
５８ 占 0.0588235
１７ 占 0.0588235
より 收集 0.2500000
収集 收集 0.2500000
から 收集 0.2500000
採取 收集 0.2500000
不必要な 额外 1.0000000
２万 栋 1.0000000
分 分施 0.3333333
施 分施 0.3333333
追肥 分施 0.3333333
１３５ １３５ 0.3333333
３８ １３５ 0.3333333
゜ １３５ 0.3333333
ついて Ｉ 0.3333333
Ｉ Ｉ 0.6666667
構築 创建 1.0000000
NULL 去 0.1428571
僅かな 去 0.1428571
除去 去 0.5714286
こと 去 0.1428571
おける 目前 0.1666667
ところ 目前 0.1666667
時点 目前 0.1666667
現在 目前 0.1666667
は 目前 0.3333333
的な 继续 0.2000000
継続 继续 0.4000000
消長 继续 0.2000000
エクステンション 继续 0.2000000
自律 自律 1.0000000
NULL 观测 0.1333333
観測 观测 0.8000000
で 观测 0.0666667
， 加入 0.3333333
へ 加入 0.3333333
バブル 加入 0.3333333
破砕 粉碎 1.0000000
いく 趋势 0.1666667
あり 趋势 0.1666667
あった 趋势 0.1666667
傾向 趋势 0.5000000
一時的に 带进 1.0000000
ＡＣＦ ＡＣＦ 1.0000000
原子核 原子核 0.6666667
の 原子核 0.3333333
価値 价值 1.0000000
か 进行 0.0037453
農用 进行 0.0037453
圧縮 进行 0.0037453
実施 进行 0.0037453
行わ 进行 0.0037453
で 进行 0.0636704
用いた 进行 0.0112360
行なった 进行 0.0037453
用いて 进行 0.0299625
シミュレーション 进行 0.0037453
よる 进行 0.0337079
義務付け 进行 0.0037453
へ 进行 0.0037453
連続 进行 0.0037453
関して 进行 0.0037453
グラフィックス 进行 0.0037453
と 进行 0.0337079
予測 进行 0.0037453
できる 进行 0.0037453
よって 进行 0.0112360
検証 进行 0.0037453
こもって 进行 0.0037453
頻度 进行 0.0037453
的に 进行 0.0074906
見直し 进行 0.0037453
ＯＮ 进行 0.0037453
に 进行 0.2322097
いる 进行 0.0037453
から 进行 0.0112360
起動 进行 0.0037453
着目 进行 0.0037453
指標 进行 0.0037453
識別 进行 0.0037453
橋 进行 0.0037453
行う 进行 0.0074906
し 进行 0.0037453
の 进行 0.0524345
組み合わせて 进行 0.0037453
もち 进行 0.0037453
安全な 进行 0.0037453
ＧＣ 进行 0.0037453
キット 进行 0.0037453
行った 进行 0.0112360
ＭＩＣＲＯＣＡＤ 进行 0.0037453
ついて 进行 0.0411985
行って 进行 0.0037453
NULL 进行 0.0674157
基づき 进行 0.0037453
供 进行 0.0037453
について 进行 0.0037453
展開 进行 0.0037453
ｍＥＲａ 进行 0.0037453
検討 进行 0.0112360
上記 进行 0.0037453
調査 进行 0.0037453
観測 进行 0.0037453
を 进行 0.2172285
ナット 进行 0.0037453
病室 病房 1.0000000
ハイブリッド 混合 0.0666667
ナトリウム 混合 0.0666667
混合 混合 0.8000000
鉄 混合 0.0666667
を 中断 0.5000000
ＲＲＦ 中断 0.5000000
屋外 室外 0.4000000
おける 室外 0.2000000
に 室外 0.4000000
Ｈ２Ｏ ２·２Ｈ２Ｏ 1.0000000
往復 往复 1.0000000
して 物体 0.3333333
物体 物体 0.6666667
型 型·印度型 1.0000000
感応 以 0.0120482
首都 以 0.0120482
NULL 以 0.1084337
乗じ 以 0.0120482
相手 以 0.0120482
持続 以 0.0120482
効率 以 0.0240964
を 以 0.0361446
ファイル 以 0.0120482
電磁 以 0.0120482
あるいは 以 0.0120482
必要であり 以 0.0120482
「 以 0.0120482
他人 以 0.0120482
球 以 0.0120482
見出す 以 0.0120482
ヨシキリザメ 以 0.0120482
堀 以 0.0120482
下限 以 0.0120482
明確に 以 0.0120482
， 以 0.1445783
ｍｓ 以 0.0120482
装備 以 0.0120482
携帯 以 0.0120482
ＰＤＩＶ 以 0.0120482
は 以 0.0843373
州 以 0.0120482
クラスター 以 0.0120482
多層 以 0.0120482
で 以 0.0361446
石炭 以 0.0240964
ワークショップ 以 0.0120482
でも 以 0.0120482
ダイオキシン 以 0.0120482
希少 以 0.0120482
最短 以 0.0120482
ふまえ 以 0.0120482
コース 以 0.0120482
エビ 以 0.0120482
事業 以 0.0120482
して 以 0.0361446
新鮮 以 0.0120482
° 以 0.0120482
キー 以 0.0120482
放出 以 0.0120482
図り 以 0.0120482
家電 以 0.0120482
周期 以 0.0120482
中国 以 0.0240964
やや 偏 1.0000000
が 所在 0.5000000
立地 所在 0.5000000
から 原料 0.1428571
原料 原料 0.8571429
最低 最低 1.0000000
得た 述 0.2500000
解消 述 0.2500000
それ 述 0.2500000
NULL 述 0.2500000
２０ 尽管 0.5000000
NULL 尽管 0.5000000
エアレーション 通气 1.0000000
， 表明 0.1000000
多 表明 0.2000000
弁 表明 0.1000000
NULL 表明 0.1000000
から 表明 0.1000000
音源 表明 0.1000000
既報 表明 0.1000000
と 表明 0.2000000
植樹 植树 1.0000000
ＩＩＩ ＩＩＩ 1.0000000
幅 叶宽 0.5000000
葉 叶宽 0.5000000
どのような 什么样 1.0000000
油圧 油压 0.5000000
その 油压 0.5000000
困難 困难 0.2500000
困難である 困难 0.2500000
困難な 困难 0.2500000
困難で 困难 0.2500000
巻き上げ 卷起 1.0000000
して 着重 0.5000000
重 着重 0.5000000
症候 居室 0.4285714
シックハウス 居室 0.5714286
数学 数学 0.5000000
し 数学 0.1666667
表す 数学 0.1666667
的 数学 0.1666667
対して 新居滨市 1.0000000
バイオレメディエーション 疗法 0.6000000
療法 疗法 0.4000000
暖房 暖气 1.0000000
分子 分子 0.6666667
ホスト 分子 0.3333333
種々 种 0.0113636
方式 种 0.0113636
街 种 0.0113636
さまざまな 种 0.0113636
両 种 0.0227273
各 种 0.0113636
２３４ 种 0.0113636
そのような 种 0.0113636
種 种 0.1250000
様々な 种 0.0227273
グループ 种 0.0227273
つ 种 0.0340909
各種 种 0.0909091
コケ 种 0.0113636
が 种 0.0113636
２１ 种 0.0113636
多様に 种 0.0113636
多様 种 0.0113636
複数 种 0.0113636
二 种 0.0113636
このような 种 0.0568182
場合 种 0.0113636
組み合わせ 种 0.0113636
多面 种 0.0113636
多様な 种 0.0113636
NULL 种 0.1250000
の 种 0.1704545
種類 种 0.1022727
形 种 0.0113636
どの 种 0.0113636
グループ 群１ 0.3333333
１ 群１ 0.3333333
２ 群１ 0.3333333
メッキ 锡 1.0000000
数 数 1.0000000
有望である 希望 0.2000000
たい 希望 0.4000000
NULL 希望 0.2000000
展開 希望 0.2000000
平坦で 平坦 0.6666667
平坦な 平坦 0.3333333
であった １７％ 0.5000000
％ １７％ 0.5000000
選択 选择 0.4210526
より 选择 0.0526316
モバイル 选择 0.0526316
選抜 选择 0.0526316
入れ 选择 0.0526316
できる 选择 0.1052632
NULL 选择 0.1578947
， 选择 0.0526316
ように 选择 0.0526316
深 深度 0.5000000
さ 深度 0.5000000
小さい 偏少 0.2500000
傾向 偏少 0.2500000
られた 偏少 0.2500000
見 偏少 0.2500000
形状 形状 0.8571429
状 形状 0.1428571
危機 珍稀 0.2500000
希少 珍稀 0.5000000
ある 珍稀 0.2500000
きた 遗留 0.2500000
残存 遗留 0.2500000
積み 遗留 0.2500000
残して 遗留 0.2500000
海域 海域 1.0000000
戻った 第ＩＩ期ＲＧ 1.0000000
結晶 晶体 1.0000000
様子 ３ｎｍ缓慢 0.5000000
徐々に ３ｎｍ缓慢 0.5000000
ＰＣＢ ＰＣＢ 1.0000000
か 划分 1.0000000
干潟 沙滩 1.0000000
安定 稳定 1.0000000
破断 破断 1.0000000
Ｂｅｔｔｓ Ｂｅｔｔｓ 1.0000000
複素環 偶数 1.0000000
リアルタイム 实时 0.3333333
バルブ 实时 0.3333333
で 实时 0.3333333
用いた 预测 0.1111111
予測 预测 0.7777778
ＶＯＣ 预测 0.1111111
ＥＤＩ ＥＤＩ 1.0000000
波形 波形 0.6666667
示す 波形 0.3333333
茎 主茎 0.5000000
主 主茎 0.5000000
６０ ６０ 1.0000000
洗浄 清洗 0.6666667
／ 清洗 0.3333333
不燃 不燃物 0.5000000
物 不燃物 0.5000000
北部 遭受 0.5000000
で 遭受 0.5000000
製造 加工 0.4000000
加工 加工 0.2000000
状 加工 0.2000000
チップス 加工 0.2000000
バイオ 环境 0.0065359
NULL 环境 0.0130719
環境 环境 0.9803922
適度な 适当 1.0000000
空洞 环孔 0.5000000
環 环孔 0.5000000
繰り返して 反复 0.2000000
照らし 反复 0.2000000
繰り返し 反复 0.2000000
乾 反复 0.2000000
湿 反复 0.2000000
１ １ｍ２作为 0.5000000
ｍ２ １ｍ２作为 0.5000000
画像 图像 1.0000000
位置 横跨 1.0000000
２９ ２９日 0.5000000
日 ２９日 0.5000000
このように 这样 0.2500000
して 这样 0.1250000
ない 这样 0.1250000
は 这样 0.1250000
このような 这样 0.2500000
こうして 这样 0.1250000
ｐｅａｋ 　ｐｅａｋ值 0.3333333
値 　ｐｅａｋ值 0.6666667
キャベツ 卷心菜 1.0000000
１ １ 1.0000000
補 互补 0.3333333
的な 互补 0.3333333
相 互补 0.3333333
ノード 节 0.1666667
６ 节 0.1666667
節 节 0.6666667
なり 日益 0.2000000
なって 日益 0.2000000
つつ 日益 0.2000000
と 日益 0.2000000
密接に 日益 0.2000000
の 修剪 0.5000000
剪定 修剪 0.5000000
冬 冬季 1.0000000
NULL 领域 0.1000000
分野 领域 0.6500000
領域 领域 0.2500000
ノロウイルス 诺瓦克 0.6666667
除去 诺瓦克 0.3333333
演算 演算 1.0000000
格子 炉灰 0.3333333
火 炉灰 0.3333333
灰 炉灰 0.3333333
従来 原来 0.5000000
本来 原来 0.5000000
究明 追查 0.5000000
行った 追查 0.5000000
なく 高低差 0.5000000
平坦で 高低差 0.5000000
ハニカム 蜂窝型 0.5000000
式 蜂窝型 0.5000000
離れた 远 0.5000000
側 远 0.5000000
補助 补助 1.0000000
決まる 无关 1.0000000
ＮＯ ＮＯ 0.5000000
− ＮＯ 0.2500000
３ ＮＯ 0.2500000
NULL 解决 0.2857143
未解決 解决 0.1428571
ソリューション 解决 0.4285714
解消 解决 0.1428571
ぼく 墨土 0.5000000
土 墨土 0.5000000
なおかつ 实现 0.0555556
可能な 实现 0.0555556
細孔 实现 0.0555556
NULL 实现 0.1111111
自ら 实现 0.0555556
気 实现 0.0555556
実現 实现 0.3333333
通じた 实现 0.0555556
し 实现 0.0555556
する 实现 0.1666667
系 环保 0.1428571
破綻 环保 0.1428571
の 环保 0.1428571
環境 环保 0.2857143
配慮 环保 0.2857143
集積 积累 0.3333333
１３０ 积累 0.3333333
を 积累 0.3333333
底辺 底边 1.0000000
破綻 工序 0.2500000
工程 工序 0.7500000
的な 广域 0.3333333
広域 广域 0.6666667
更生 再生 0.0454545
化石 再生 0.0454545
へ 再生 0.1363636
再 再生 0.1363636
再生 再生 0.4090909
リサイクル 再生 0.1363636
ため 再生 0.0909091
慣行 惯例 1.0000000
埋立 填 1.0000000
後 口味 0.5000000
食味 口味 0.5000000
有用 有用 0.6666667
成分 有用 0.3333333
０．５ ０．５ 1.0000000
− － 0.9807692
Ｓｈｕｌｌ － 0.0192308
必要不可欠に 必不可少 0.3333333
なって 必不可少 0.3333333
いる 必不可少 0.3333333
れる 支配 0.3333333
さ 支配 0.3333333
支配 支配 0.3333333
ｓ ４μｓ 0.3333333
μ ４μｓ 0.3333333
４ ４μｓ 0.3333333
年 ２００３年 0.5000000
２００３ ２００３年 0.5000000
可用性 可用性 1.0000000
小さく 偏小 1.0000000
困難な 氮气 0.1428571
ので 氮气 0.1428571
大量に 氮气 0.1428571
混入 氮气 0.1428571
流動 氮气 0.1428571
窒素 氮气 0.2857143
検査 检查 0.8461538
撮影 检查 0.0769231
点検 检查 0.0769231
用いた 强制 0.1428571
採 强制 0.2857143
気 强制 0.1428571
強制 强制 0.4285714
樹 确认 0.0909091
確認 确认 0.6363636
踏まえ 确认 0.0909091
NULL 确认 0.1818182
劣性 隐性 1.0000000
ｏｌ ｍｏｌ 1.0000000
揃った 齐全 0.2500000
いる 齐全 0.2500000
なって 齐全 0.2500000
が 齐全 0.2500000
含有 含有 0.1000000
NULL 含有 0.1000000
検索 含有 0.1000000
含ま 含有 0.2000000
れる 含有 0.2000000
含んだ 含有 0.1000000
を 含有 0.1000000
含めた 含有 0.1000000
Ｈａｒｐｅｒ Ｈａｒｐｅｒ 0.5000000
や Ｈａｒｐｅｒ 0.5000000
すべて 再现 0.1250000
数十 再现 0.1250000
再現 再现 0.5000000
する 再现 0.2500000
安全 安全 0.4545455
NULL 安全 0.0909091
セキュリティ 安全 0.0909091
さ 安全 0.0909091
れる 安全 0.0909091
バイオセイフティー 安全 0.0909091
セキュアな 安全 0.0909091
芳香 芳香族 0.5000000
族 芳香族 0.5000000
暴露 暴露 0.5000000
防止 暴露 0.1666667
曝露 暴露 0.3333333
真砂土 沙土 1.0000000
力 恢复 0.2000000
NULL 恢复 0.2000000
回復 恢复 0.4000000
本来 恢复 0.2000000
関わろう 他人 0.5000000
他人 他人 0.5000000
櫃 仅 0.1428571
だけ 仅 0.2857143
不純 仅 0.1428571
NULL 仅 0.1428571
は 仅 0.2857143
吸水性 吸水性 1.0000000
家畜 家畜 1.0000000
バイオマス 量 0.0500000
NULL 量 0.0250000
した 量 0.0500000
収量 量 0.1250000
量 量 0.6750000
低減 量 0.0500000
フロー 量 0.0250000
経理 会计 1.0000000
想定 六价铬熔析 0.2500000
六 六价铬熔析 0.2500000
さ 六价铬熔析 0.2500000
れる 六价铬熔析 0.2500000
ｃ ｃ 1.0000000
− 和ＧＣ－ＭＳ法 0.2500000
法 和ＧＣ－ＭＳ法 0.2500000
ＧＣ 和ＧＣ－ＭＳ法 0.2500000
ＭＳ 和ＧＣ－ＭＳ法 0.2500000
にはには １９９８年 0.2000000
年 １９９８年 0.4000000
１９９８ １９９８年 0.4000000
点検 准确 1.0000000
パイプ 界内管子 0.5000000
イン 界内管子 0.5000000
サクラ 樱堇 0.3333333
設定 樱堇 0.3333333
スミレ 樱堇 0.3333333
荷重 负荷 0.0666667
供給 负荷 0.0666667
荷 负荷 0.0333333
負荷 负荷 0.8333333
言い 换 1.0000000
NULL 展示 0.3333333
我々 展示 0.3333333
はじめ 展示 0.3333333
株 株 1.0000000
心 也 0.0138889
反して 也 0.0138889
商用 也 0.0138889
NULL 也 0.1250000
ＯＬＥＡＳ 也 0.0138889
同等であった 也 0.0138889
おり 也 0.0138889
さも 也 0.0138889
れ 也 0.0138889
多様 也 0.0138889
でも 也 0.0416667
も 也 0.5833333
が 也 0.0416667
主要な 也 0.0138889
なれば 也 0.0138889
エルサレム 也 0.0138889
そして 也 0.0138889
アズマネザサ 也 0.0138889
もたらした 也 0.0138889
し 增强 0.3333333
中 增强 0.3333333
味 增强 0.3333333
従事 从事 0.5000000
従って 从事 0.5000000
層 堆叠层 1.0000000
できる 学习 0.1428571
ラーニング 学习 0.2857143
学習 学习 0.2857143
と 学习 0.1428571
見て 学习 0.1428571
ｒａｔｅ ｒａｔｅ 1.0000000
堆積 堆积 1.0000000
の 台 0.3333333
NULL 台 0.1666667
基 台 0.1666667
火 台 0.1666667
台 台 0.1666667
飛散 飞散 1.0000000
コスト 成本 0.8000000
行った 成本 0.0666667
オープン 成本 0.0666667
原価 成本 0.0666667
営巣 潮上带筑巢 1.0000000
して 十分 0.2857143
十 十分 0.1428571
有効である 十分 0.1428571
著しい 十分 0.1428571
こと 十分 0.1428571
大切である 十分 0.1428571
Ｚｏｙｓｉａ Ｚｏｙｓｉａ 1.0000000
１ α≦１ 0.5000000
（α≦ α≦１ 0.5000000
シックハウス 不良 1.0000000
質 泥质 0.5000000
泥 泥质 0.5000000
直播 直播 1.0000000
価 剂量 0.0909091
上限 剂量 0.0909091
診断 剂量 0.1818182
示した 剂量 0.0909091
被曝 剂量 0.1818182
被爆 剂量 0.0909091
予後 剂量 0.0909091
量 剂量 0.1818182
素 芯线 1.0000000
で 不仅 0.1250000
のみ 不仅 0.1250000
は 不仅 0.3750000
正確で 不仅 0.1250000
熱く 不仅 0.1250000
なら 不仅 0.1250000
的 归宿 0.5000000
帰結 归宿 0.5000000
者 人员 1.0000000
Ｍ Ｍ２ 0.5000000
２ Ｍ２ 0.5000000
ＮＴＴ ＮＴＴ 0.6666667
ファシリティーズ ＮＴＴ 0.3333333
概説 概述 0.3333333
松下 概述 0.3333333
NULL 概述 0.3333333
地盤 地基 0.5000000
である 地基 0.5000000
ファクトリー 工厂 0.2500000
工場 工厂 0.5000000
で 工厂 0.2500000
簡便に 简便 0.3000000
かつ 简便 0.1000000
簡便で 简便 0.2000000
簡便 简便 0.1000000
は 简便 0.1000000
が 简便 0.1000000
簡便な 简便 0.1000000
する 构筑 0.1538462
構築 构筑 0.5000000
家庭 构筑 0.0384615
作成 构筑 0.0384615
ついて 构筑 0.0769231
に 构筑 0.0384615
NULL 构筑 0.0384615
よる 构筑 0.0384615
造成 构筑 0.0384615
基づいて 构筑 0.0384615
９８ ９８ 1.0000000
合流 合流 1.0000000
兆候 征兆 1.0000000
であった 值 0.0312500
NULL 值 0.0937500
値 值 0.8125000
ｐＨ 值 0.0625000
１２３ １２３ 1.0000000
ＬＡＩ ＬＡＩ 0.8000000
できる ＬＡＩ 0.2000000
超 超音 1.0000000
肉体 肉体 0.5000000
的 肉体 0.5000000
努めて 街道 0.5000000
いき 街道 0.5000000
シソ 紫 1.0000000
サンプリング 取样 1.0000000
鏡 镜 1.0000000
NULL 免疫 0.1666667
免疫 免疫 0.3333333
イムノアッセイ 免疫 0.5000000
一気に 一举 1.0000000
歴史 历史 1.0000000
リン 磷 0.6250000
りん 磷 0.3750000
媒 媒度 0.5000000
度 媒度 0.5000000
内径 内径 1.0000000
メーン 缅因州 1.0000000
類縁体 类似 0.3333333
似て 类似 0.3333333
類似 类似 0.3333333
魚 雌鱼 0.5000000
雌 雌鱼 0.5000000
脱 脱盐 0.5000000
塩 脱盐 0.5000000
休耕田 休耕田 1.0000000
ｍｍ １ｍｍ 0.5000000
１ １ｍｍ 0.5000000
入院 探望 1.0000000
こと 脱附 0.3333333
脱 脱附 0.3333333
着 脱附 0.3333333
警告 警告 1.0000000
取り 收割区 0.2000000
区 收割区 0.2000000
おいて 收割区 0.2000000
刈 收割区 0.4000000
組み 应该 0.3333333
レベル 应该 0.3333333
構築 应该 0.3333333
培養 向 0.0277778
日向 向 0.0555556
左 向 0.0277778
実 向 0.0277778
に 向 0.0555556
的に 向 0.0277778
から 向 0.0555556
とき 向 0.0277778
ＴｉｎｙＭＲＬ 向 0.0277778
向 向 0.0277778
へ 向 0.1111111
さらなる 向 0.0277778
対向 向 0.0555556
策 向 0.0277778
を 向 0.0555556
市場 向 0.0277778
は 向 0.0833333
走 向 0.0277778
経口 向 0.0277778
業務 向 0.0277778
ボトム 向 0.0277778
異方性 向 0.0277778
NULL 向 0.0555556
大気 向 0.0277778
アンビル 向 0.0277778
参加 参与 0.5000000
県民 参与 0.5000000
抗菌 抗菌 1.0000000
的に 试误法 0.5000000
錯誤 试误法 0.5000000
へ 参加 0.1666667
参加 参加 0.8333333
インド 印度 1.0000000
ｍ 即约８ｍ 0.2000000
風速 即约８ｍ 0.2000000
なる 即约８ｍ 0.2000000
小さく 即约８ｍ 0.2000000
８ 即约８ｍ 0.2000000
供 提供 0.0952381
空洞 提供 0.0476190
を 提供 0.1428571
提供 提供 0.3333333
もの 提供 0.0476190
水面 提供 0.0476190
よる 提供 0.0952381
NULL 提供 0.0952381
おいて 提供 0.0476190
に 提供 0.0476190
チゴガニ 肯定 1.0000000
NULL 早 0.5000000
太古 早 0.5000000
ピア 适配器间 1.0000000
進めて 推进 0.1428571
NULL 推进 0.2857143
推進 推进 0.4285714
向けて 推进 0.1428571
カラマツ 置有 1.0000000
より 组成 0.1000000
構成 组成 0.2000000
組成 组成 0.5000000
いる 组成 0.1000000
NULL 组成 0.1000000
選んで 能力 0.0454545
〉 能力 0.0454545
を 能力 0.0454545
向上 能力 0.0454545
能力 能力 0.4090909
NULL 能力 0.0454545
能 能力 0.2727273
調べた 能力 0.0909091
ボトル 层瓶 1.0000000
３１ ３１ 0.5000000
まで ３１ 0.5000000
再 再悬浮层 0.3000000
考慮 再悬浮层 0.1000000
層 再悬浮层 0.3000000
懸濁 再悬浮层 0.3000000
と 信号 0.2000000
サイン 信号 0.2000000
いた 信号 0.2000000
信号 信号 0.4000000
カルスト 喀斯特 0.3333333
ない 喀斯特 0.3333333
通じて 喀斯特 0.3333333
書 写入 0.5000000
込み 写入 0.5000000
共生 肠道 0.3333333
管 肠道 0.3333333
腸 肠道 0.3333333
％ ５８％ 1.0000000
子供 论述 0.1666667
NULL 论述 0.5000000
指し 论述 0.1666667
論じた 论述 0.1666667
せた 一室 1.0000000
， 狭山 0.5000000
狭山 狭山 0.5000000
ＧＰ ＧＰ 1.0000000
葉 阳部叶 0.3333333
日向 阳部叶 0.3333333
部 阳部叶 0.3333333
６４ ６４％ 0.3333333
％ ６４％ 0.3333333
であり ６４％ 0.3333333
要件 要件 1.0000000
深海 对于 0.0303030
新米 对于 0.0303030
シクロ 对于 0.0303030
計測 对于 0.0303030
医 对于 0.0303030
見た 对于 0.0303030
Ｃ 对于 0.0303030
限ら 对于 0.0303030
は 对于 0.1212121
海洋 对于 0.0303030
パラメタ 对于 0.0303030
さや 对于 0.0303030
NULL 对于 0.1212121
ナンバ 对于 0.0303030
単身 对于 0.0303030
行い 对于 0.0303030
受けた 对于 0.0303030
シリコン 对于 0.0303030
ＣＧＳ 对于 0.0303030
， 对于 0.1212121
ＳＣＦＧ 对于 0.0303030
溶解 对于 0.0303030
ホスト 对于 0.0303030
中小 对于 0.0303030
障害 障碍 0.6000000
いる 障碍 0.2000000
なって 障碍 0.2000000
少なく 能够 0.0370370
NULL 能够 0.1111111
内側 能够 0.0370370
出す 能够 0.0370370
深部 能够 0.0370370
コース 能够 0.0370370
できる 能够 0.1481481
こと 能够 0.2592593
的で 能够 0.0370370
を 能够 0.0370370
せる 能够 0.1481481
ディジタル 能够 0.0370370
他人 能够 0.0370370
０．３０ ０．３０ 1.0000000
脱水 脱水 1.0000000
おり 记载 0.2000000
搭載 记载 0.2000000
れて 记载 0.2000000
NULL 记载 0.2000000
さ 记载 0.2000000
雨 雨水 1.0000000
比較 音源 1.0000000
事象 事态 1.0000000
２０ ２０ 0.8750000
概観 ２０ 0.1250000
いた 有的 0.3333333
共通 有的 0.3333333
して 有的 0.3333333
連鎖 链 1.0000000
ｓ ｓ 0.6666667
Ｓｐｅｃｉｅｓ ｓ 0.1666667
Ｖｉｓ ｓ 0.1666667
休眠 休眠 1.0000000
工 浓工 0.5000000
濃 浓工 0.5000000
長 日长 0.3333333
わたる 日长 0.3333333
日間 日长 0.3333333
１３０ 条 0.3333333
系列 条 0.3333333
より 条 0.3333333
最適 优化 0.3333333
さらに 优化 0.1666667
化 优化 0.3333333
必要である 优化 0.1666667
株 菌株 1.0000000
破断 断裂 0.8000000
わかる 断裂 0.2000000
早い 质 0.1111111
有用な 质 0.1111111
分げつ 质 0.1111111
質 质 0.5555556
NULL 质 0.1111111
際 此时 0.5000000
その 此时 0.5000000
直 直 1.0000000
国境 跨越 1.0000000
を 间隔 0.3750000
ずつ 间隔 0.1250000
間隔 间隔 0.5000000
形成 近似 0.3333333
である 近似 0.3333333
略 近似 0.3333333
伝達 传递 1.0000000
デジタル 数字 0.6666667
ディジタル 数字 0.3333333
「 《 0.7500000
示した 《 0.2500000
物 物 0.8000000
状 物 0.0166667
モノ 物 0.0166667
物質 物 0.1000000
NULL 物 0.0333333
パブリケーション 物 0.0166667
選んで 物 0.0166667
である 氯代 0.5000000
化 氯代 0.5000000
ＮＨ ＮＨ 0.7500000
ＮＯ ＮＨ 0.2500000
可視 见度 0.5000000
度 见度 0.5000000
スケール 规模 0.0625000
サイズ 规模 0.1250000
規模 规模 0.7500000
な 规模 0.0625000
風速 范围 0.2000000
域 范围 0.2000000
広範 范围 0.1000000
範囲 范围 0.3000000
で 范围 0.2000000
粉塵 粉尘 0.7500000
粉じん 粉尘 0.2500000
まず 首先 0.5714286
， 首先 0.1428571
はじめ 首先 0.1428571
自分 首先 0.1428571
放射 放射 0.3333333
線 放射 0.3333333
NULL 放射 0.1111111
放射性核種 放射 0.2222222
ＧＦＰ ＧＦＰ 1.0000000
水蒸気 水蒸汽 1.0000000
負荷 负载 1.0000000
動向 动态 0.0909091
動態 动态 0.0909091
ホメオスタシス 动态 0.0909091
挙動 动态 0.1818182
ダイナミック 动态 0.2727273
動的な 动态 0.1818182
もち 动态 0.0909091
編ま 扩大 0.2500000
拡大 扩大 0.7500000
宮 柏之宫 0.3333333
柏 柏之宫 0.3333333
既存 柏之宫 0.3333333
海藻 藻类 0.4000000
類 藻类 0.6000000
刈 收割 0.7500000
取り 收割 0.2500000
ｔ Ｖ－ｔ 0.3333333
Ｖ Ｖ－ｔ 0.3333333
− Ｖ－ｔ 0.3333333
またがる 规划 0.3333333
計画 规划 0.6666667
が 方面 0.0571429
伴う 方面 0.0142857
に 方面 0.1714286
ＲＧＲ 方面 0.0285714
関連 方面 0.0142857
側面 方面 0.0142857
で 方面 0.0857143
一方 方面 0.1000000
アンケート 方面 0.0142857
も 方面 0.0571429
ＮＡＲ 方面 0.0142857
ほう 方面 0.0142857
面 方面 0.1285714
あった 方面 0.0142857
られて 方面 0.0142857
初 方面 0.0142857
財政 方面 0.0142857
費 方面 0.0142857
NULL 方面 0.0428571
勝手 方面 0.0142857
同一の 方面 0.0142857
側 方面 0.0285714
を 方面 0.0285714
葉 方面 0.0285714
的な 方面 0.0142857
へ 方面 0.0428571
国民 人民 1.0000000
パナソニックファクトリーソリューションズ 公司 0.0666667
事業 公司 0.1333333
当社 公司 0.0666667
社 公司 0.7333333
科 石蕊科 0.5000000
ハナゴケ 石蕊科 0.5000000
まで 段 0.1666667
おいて 段 0.1666667
段 段 0.6666667
NULL 测量 0.0333333
計測 测量 0.1333333
農地 测量 0.0333333
樹 测量 0.0333333
計器 测量 0.0333333
を 测量 0.0333333
測定 测量 0.6666667
装填 测量 0.0333333
害 食害 0.4285714
よる 食害 0.1428571
食 食害 0.4285714
言い 句 1.0000000
４ 型４灯 0.5000000
形 型４灯 0.5000000
で 而言 1.0000000
者 作者 0.2000000
著者 作者 0.6000000
従事 作者 0.2000000
NULL 各自 0.2500000
図示 各自 0.2500000
それぞれ 各自 0.2500000
々 各自 0.2500000
大きかった ０．６０％ 0.3333333
％ ０．６０％ 0.3333333
０．６０ ０．６０％ 0.3333333
操作 操作 1.0000000
砂丘 沙丘 1.0000000
だった 褶痕拟相手蟹 0.5000000
オオユビアカベンケイガニ 褶痕拟相手蟹 0.5000000
文書 机上 0.3333333
例えば 机上 0.3333333
で 机上 0.3333333
傾斜 倾斜 1.0000000
最大に 变到 0.5000000
で 变到 0.5000000
の 欧洲 0.2500000
欧州 欧洲 0.5000000
ヨーロッパ 欧洲 0.2500000
Ｊｏｓｅｐｈ 　Ｊｏｓｅｐｈ 0.5000000
　 　Ｊｏｓｅｐｈ 0.5000000
テーマ 主题 1.0000000
よる 建立 0.1428571
セキュアな 建立 0.1428571
に 建立 0.2857143
多層 建立 0.1428571
構築 建立 0.1428571
施設 建立 0.1428571
な 纯度 0.2500000
純度 纯度 0.5000000
替わる 纯度 0.2500000
撤去 砍掉 1.0000000
伴って 推行 0.3333333
会議 推行 0.3333333
する 推行 0.3333333
還元 还原 0.7500000
復元 还原 0.2500000
地形 地貌 1.0000000
日向 阳部 0.5000000
部 阳部 0.5000000
示す 示 0.3000000
名付け 示 0.1000000
示した 示 0.3000000
表 示 0.2000000
示し 示 0.1000000
手法 Ｖｅｃｔｏｒｉｚｅ 0.5000000
Ｖｅｃｔｏｒｉｚｅ Ｖｅｃｔｏｒｉｚｅ 0.5000000
事務 事务 1.0000000
全 总氮 0.5000000
窒素 总氮 0.5000000
溶 溶解 0.2307692
溶解 溶解 0.5384615
存 溶解 0.2307692
これ 迄今 0.3333333
出 迄今 0.3333333
今 迄今 0.3333333
いる 起来 0.1428571
れた 起来 0.1428571
合計 起来 0.1428571
NULL 起来 0.1428571
組み合わせた 起来 0.1428571
現れて 起来 0.1428571
すれば 起来 0.1428571
ｔｏｔａｌ 定义 0.2000000
定義 定义 0.6000000
ついて 定义 0.2000000
電動 电动 1.0000000
除か 正殿 1.0000000
覆 覆盖 0.0666667
被せて 覆盖 0.0666667
被 覆盖 0.0666667
マルチ 覆盖 0.4000000
覆土 覆盖 0.1333333
NULL 覆盖 0.2000000
度 覆盖 0.0666667
数 次数 0.3333333
回数 次数 0.3333333
ホップ 次数 0.3333333
施行 实行 0.1250000
実行 实行 0.2500000
ついて 实行 0.1250000
行った 实行 0.1250000
れて 实行 0.1250000
法 实行 0.1250000
いる 实行 0.1250000
よれば 认为 0.0322581
られる 认为 0.3225806
NULL 认为 0.0645161
ＦａｓｔＳｔｏｎｅ 认为 0.0322581
思わ 认为 0.0322581
現場 认为 0.0322581
考え 认为 0.3548387
豊富に 认为 0.0322581
と 认为 0.0967742
もしくは 水温 0.2000000
水温 水温 0.6000000
・ 水温 0.2000000
棟 楼 1.0000000
研究 。 0.0008666
いる 。 0.0112652
NULL 。 0.0008666
。 。 0.7703640
した 。 0.1048527
である 。 0.0190641
を 。 0.0918544
する 。 0.0008666
大きな 广大 1.0000000
中 中小 0.2500000
中小 中小 0.2500000
小 中小 0.5000000
廃棄 灾害 0.2000000
災害 灾害 0.8000000
吸着 吸附甲醛 1.0000000
出す 叶子 0.5000000
葉 叶子 0.5000000
葉 叶 1.0000000
れて 强绝热 0.3333333
いる 强绝热 0.3333333
施さ 强绝热 0.3333333
細管 毛 1.0000000
溶媒 溶剂 0.2000000
溶剤 溶剂 0.8000000
マイル 英里 1.0000000
エージェント 多 0.0540541
多様な 多 0.0270270
複数 多 0.0540541
した 多 0.0540541
の 多 0.0270270
仮定 多 0.0270270
最大の 多 0.0270270
多い 多 0.0810811
上昇 多 0.0270270
NULL 多 0.0540541
多種 多 0.0540541
更 多 0.0270270
多く 多 0.2432432
して 多 0.0270270
多様に 多 0.0270270
多様 多 0.0810811
多 多 0.0810811
もたらす 多 0.0270270
オーバー 管顶端 0.3333333
チューブ 管顶端 0.3333333
動く 管顶端 0.3333333
キッド 套装 1.0000000
換金 因变 1.0000000
音声 语音 1.0000000
ＣＧＳ ２中模型化 1.0000000
Ｗｅｉｓｓｌｅｒ Ｗｅｉｓｓｌｅｒ 1.0000000
事項 事项 0.7500000
防虫 事项 0.2500000
２ ＣＯ 0.3636364
ＣＯ ＣＯ 0.6363636
複製 复制 1.0000000
は 请 0.5000000
ここ 请 0.5000000
与え 给与 1.0000000
NULL 偶然 0.5000000
要約 偶然 0.5000000
その 那个 1.0000000
触媒 催化剂 1.0000000
エンジン 动机 0.5000000
機 动机 0.1250000
動機 动机 0.1250000
． 动机 0.1250000
のである 动机 0.1250000
レベル 水准 1.0000000
２３ ２３ 1.0000000
起 大起 0.5000000
大 大起 0.5000000
１４．０ １４．０ 1.0000000
ＭＷ ＭＷ 1.0000000
ＰＢＳ ＰＢＳ 1.0000000
グループ Ａ 0.5000000
Ａ Ａ 0.5000000
すぐ 快 1.0000000
積分 整合 1.0000000
北極 北极 0.6666667
よって 北极 0.3333333
判定 判定 0.2857143
熟 判定 0.2857143
決定 判定 0.2857143
である 判定 0.1428571
櫃 柜川 0.5000000
川 柜川 0.5000000
ＰｒＰＣ ｐｒｐｃ 1.0000000
的 搭载 0.3333333
経済 搭载 0.3333333
基盤 搭载 0.3333333
化 多列化 0.5000000
列 多列化 0.5000000
台 台数 0.2000000
所有 台数 0.4000000
数 台数 0.4000000
の 制ＤＬＣ膜 1.0000000
ハイブリッド 动力 1.0000000
である 位点 0.5000000
部 位点 0.5000000
前記 前述 1.0000000
低く 低 0.1333333
少し 低 0.0666667
低い 低 0.2000000
付近 低 0.0666667
低かった 低 0.1333333
低 低 0.2666667
かつ 低 0.0666667
オリゴ 低 0.0666667
８ ８ｈ换班 0.2500000
シフト ８ｈ换班 0.2500000
である ８ｈ换班 0.2500000
ｈ ８ｈ换班 0.2500000
経 经年 0.5000000
年 经年 0.5000000
含 含 0.3750000
を 含 0.1250000
含有 含 0.1250000
Ｐｂ 含 0.1250000
れる 含 0.1250000
ダイオキシン 含 0.1250000
だけ 应当 0.2000000
奪わ 应当 0.2000000
れる 应当 0.2000000
はずである 应当 0.2000000
容易である 应当 0.2000000
試作 针对 0.0769231
ついて 针对 0.0769231
それ 针对 0.0769231
， 针对 0.3076923
NULL 针对 0.1538462
し 针对 0.0769231
地衡風 针对 0.0769231
並びに 针对 0.0769231
新たに 针对 0.0769231
木材 木材 1.0000000
避雷針 算例 1.0000000
難 难 1.0000000
± ３％ 0.3333333
％ ３％ 0.3333333
３ ３％ 0.3333333
発芽 发芽 0.8000000
出芽 发芽 0.2000000
労働 劳动 1.0000000
ＰＩ ＰＩ 1.0000000
酸 基磷 1.0000000
ｃ 味 1.0000000
灰 灰 1.0000000
合体 合体 0.5000000
重 合体 0.5000000
共同 共同 0.5000000
共有 共同 0.2500000
で 共同 0.2500000
室 室 1.0000000
５．９ ５．９ 1.0000000
搬入 临时 1.0000000
実態 状况 0.0500000
生存 状况 0.0500000
亘 状况 0.0500000
見せる 状况 0.0500000
性 状况 0.0500000
状況 状况 0.7000000
事情 状况 0.0500000
熱 热媒 0.5000000
媒体 热媒 0.5000000
早い 周 0.3333333
週間 周 0.3333333
周 周 0.3333333
で 感到 0.5000000
感じた 感到 0.5000000
シート 硅橡胶 0.5000000
シリコーン 硅橡胶 0.5000000
より 排出 0.5000000
チャンバ 排出 0.5000000
対し 单身 0.5000000
単身 单身 0.5000000
つながり 审视 1.0000000
次 次生林 0.3333333
林 次生林 0.3333333
二 次生林 0.3333333
油 Ｋａｎｅｍｉ 0.3333333
カネミ Ｋａｎｅｍｉ 0.6666667
電磁 避免 0.5000000
言った 避免 0.5000000
ニワトリ 鸡羽 0.5000000
れた 鸡羽 0.5000000
１００ １００ 0.7500000
概ね １００ 0.1250000
NULL １００ 0.1250000
々 原 0.5000000
原 原 0.5000000
同業 同行 0.3333333
公 同行 0.3333333
業界 同行 0.3333333
病院 对 0.0054945
上げて 对 0.0054945
酸化 对 0.0054945
風 对 0.0054945
吸着 对 0.0054945
溶媒 对 0.0054945
直轄 对 0.0054945
検索 对 0.0054945
人々 对 0.0054945
イネ 对 0.0109890
水稲 对 0.0054945
メタル 对 0.0054945
して 对 0.0329670
各 对 0.0054945
試作 对 0.0054945
制作 对 0.0054945
づくり 对 0.0054945
場 对 0.0054945
さらに 对 0.0054945
耕作 对 0.0054945
電磁 对 0.0054945
なされて 对 0.0054945
これ 对 0.0164835
＜ 对 0.0054945
指標 对 0.0109890
評した 对 0.0054945
腐 对 0.0054945
ら 对 0.0109890
よる 对 0.0164835
浮遊 对 0.0054945
チュウゴクネジチクゴケ 对 0.0054945
素 对 0.0054945
， 对 0.1153846
残し 对 0.0054945
対向 对 0.0109890
ＣＯＰ 对 0.0054945
的な 对 0.0054945
部屋 对 0.0054945
おける 对 0.0109890
以下 对 0.0054945
強制 对 0.0054945
分 对 0.0054945
は 对 0.0824176
Ｃｄ 对 0.0054945
Ｃｈｉｎｅｓｅ 对 0.0054945
ダム 对 0.0054945
２０１０ 对 0.0054945
圏 对 0.0054945
で 对 0.0604396
が 对 0.0219780
ＭＴＫ 对 0.0109890
３７ 对 0.0109890
負 对 0.0054945
な 对 0.0054945
既 对 0.0054945
の 对 0.0824176
同 对 0.0109890
側 对 0.0054945
ダイナミック 对 0.0054945
胸 对 0.0054945
ＯＡ 对 0.0054945
ついて 对 0.0054945
NULL 对 0.1483516
向けた 对 0.0054945
異なる 对 0.0054945
ばらまか 对 0.0109890
船上 对 0.0054945
的確に 对 0.0054945
共用 对 0.0054945
かつ 对 0.0109890
に 对 0.0164835
７０ 对 0.0054945
更 对 0.0054945
サイト 对 0.0054945
フミン 腐殖 1.0000000
修復 修复 1.0000000
調べた ＳＣＲ 0.5000000
ＳＣＲ ＳＣＲ 0.5000000
鉱山 沟矿山 1.0000000
一定 恒温 0.1666667
し 恒温 0.1666667
温 恒温 0.1666667
恒 恒温 0.1666667
調整 恒温 0.3333333
機 除臭机 0.5000000
脱臭 除臭机 0.5000000
アッセイ 影响 0.0188679
根 影响 0.0188679
インパクト 影响 0.0566038
影響 影响 0.7169811
寄与 影响 0.0188679
が 影响 0.0377358
NULL 影响 0.0188679
質 影响 0.0188679
いる 影响 0.0377358
調べた 影响 0.0566038
除去 墨粉 0.1428571
トナー 墨粉 0.8571429
理念 理念 1.0000000
ＣＴ ＣＴ 0.6000000
念頭 ＣＴ 0.0666667
装置 ＣＴ 0.0666667
発癌 ＣＴ 0.0666667
NULL ＣＴ 0.0666667
に ＣＴ 0.1333333
． 控制 0.0454545
NULL 控制 0.0909091
制御 控制 0.6818182
出す 控制 0.0454545
目安 控制 0.0454545
抑制 控制 0.0454545
オキシダント 控制 0.0454545
川 小柜川 0.1428571
櫃 小柜川 0.1428571
だけ 小柜川 0.2857143
で 小柜川 0.2857143
小 小柜川 0.1428571
都民 市民 0.3333333
市民 市民 0.6666667
など 学部 0.5000000
学部 学部 0.5000000
行政 行政 0.6666667
NULL 行政 0.3333333
４ ４×４ 0.6666667
× ４×４ 0.3333333
２ ２－缩硫醇 0.5000000
− ２－缩硫醇 0.5000000
１９９７ １９９７年 0.5000000
年 １９９７年 0.5000000
活性 高活 0.3333333
炭素 高活 0.3333333
高 高活 0.3333333
空洞 空间 0.2500000
空間 空间 0.5000000
である 空间 0.2500000
トラック 卡车 1.0000000
し 如何 0.3333333
NULL 如何 0.3333333
どのように 如何 0.3333333
へ 器官 0.5000000
器 器官 0.5000000
所有 选定 1.0000000
４５ ４５ 1.0000000
忌避 回避 1.0000000
の ＵＳＦＷＳ 0.5000000
ＵＳＦＷＳ ＵＳＦＷＳ 0.5000000
野生 野生 1.0000000
へ 工程 0.1000000
工程 工程 0.3000000
エンジニア 工程 0.1000000
の 工程 0.1000000
セールスエンジニアリング 工程 0.3000000
テスト 工程 0.1000000
性 多样性 0.5000000
多様 多样性 0.5000000
法 阴道法 0.5000000
ちつ 阴道法 0.5000000
の 分之 1.0000000
Ｍａｒｋｏｖ ｍａｒｋｏｖ 0.6666667
マルコフ ｍａｒｋｏｖ 0.3333333
癌 癌 0.5000000
がん 癌 0.5000000
詳細な 详细 0.1666667
NULL 详细 0.1666667
詳細 详细 0.6666667
貿易 贸易 1.0000000
に 作 0.2000000
で 作 0.4000000
作 作 0.2000000
その他 作 0.2000000
リチウム 锂 1.0000000
沿道 周边 0.3333333
周辺 周边 0.6666667
密閉 密封 1.0000000
パラメータ 参 1.0000000
パネル 面板仪表 0.5000000
メータ 面板仪表 0.5000000
プログラム 计划 0.1176471
NULL 计划 0.0588235
残して 计划 0.0588235
計画 计划 0.7647059
更新 变数 0.2500000
パラメタ 变数 0.5000000
訓練 变数 0.2500000
目的 作为 0.0091743
作成 作为 0.0091743
応用 作为 0.0091743
用い 作为 0.0091743
シックハウス 作为 0.0091743
気候 作为 0.0091743
と 作为 0.1376147
は 作为 0.0733945
等 作为 0.0091743
得る 作为 0.0091743
Ｖｉｅｗｅｒ 作为 0.0091743
錯 作为 0.0091743
義務付け 作为 0.0091743
ＰＣＢ 作为 0.0183486
テーマ 作为 0.0091743
ＳｉＯ 作为 0.0091743
非 作为 0.0091743
して 作为 0.0917431
である 作为 0.0091743
主な 作为 0.0091743
スト 作为 0.0091743
更生 作为 0.0091743
イミド 作为 0.0091743
を 作为 0.2477064
進んだ 作为 0.0091743
普通 作为 0.0091743
地球 作为 0.0275229
ダイナミック 作为 0.0091743
におい 作为 0.0091743
NULL 作为 0.1284404
単 作为 0.0091743
ＨＨＭＭ 作为 0.0091743
北海道 作为 0.0091743
解析 作为 0.0091743
も 作为 0.0275229
軟化 带来 0.0625000
来る 带来 0.0625000
が 带来 0.0625000
一層 带来 0.0625000
外使 带来 0.0625000
的 带来 0.0625000
に 带来 0.4375000
もたらさ 带来 0.0625000
与える 带来 0.0625000
更に 带来 0.0625000
金属 金属 0.7500000
メタル 金属 0.0312500
つなげて 金属 0.0312500
NULL 金属 0.0937500
レアメタル 金属 0.0937500
内面 内面 1.0000000
麦 麦 1.0000000
NULL 讨 1.0000000
令 令 1.0000000
→ 过滤→ 0.5000000
ろ過 过滤→ 0.5000000
さ ３０ 0.3333333
３０ ３０ 0.6666667
Ｎ Ｎ２Ｏ 0.2727273
寄与 Ｎ２Ｏ 0.0909091
生成に Ｎ２Ｏ 0.0909091
２ Ｎ２Ｏ 0.2727273
Ｏ Ｎ２Ｏ 0.2727273
を 插入 0.1111111
挿入 插入 0.5555556
なる 插入 0.1111111
行う 插入 0.1111111
ながら 插入 0.1111111
ＰＺＴ ＰＺＴ 0.5000000
トランスデューサ ＰＺＴ 0.5000000
である 死 0.5000000
死 死 0.5000000
で ０．２８ 0.5000000
０．２８ ０．２８ 0.5000000
おける ＳＴＲＡＩＧＨＴ 0.1666667
ＳＴＲＡＩＧＨＴ ＳＴＲＡＩＧＨＴ 0.8333333
積分 积分 1.0000000
酸素 氧气 1.0000000
衛生 卫生 0.8000000
無い 卫生 0.2000000
土 洼地土 0.5000000
低地 洼地土 0.5000000
無く 哪 1.0000000
温熱 热力 1.0000000
と 候补 0.5000000
候補 候补 0.5000000
焼け 烧叶 0.5000000
葉 烧叶 0.5000000
大腸 大肠 1.0000000
タスク 任务 0.5000000
NULL 任务 0.2500000
課題 任务 0.2500000
院 院 1.0000000
アセチレン 乙炔 1.0000000
撹乱 搅乱 1.0000000
NULL 击穿 0.1666667
破壊 击穿 0.8333333
ワープロ 写 1.0000000
統括 囊括 1.0000000
１ １时间到９ 0.5000000
９ １时间到９ 0.5000000
．４ １／２．４ 0.5000000
１／２ １／２．４ 0.5000000
ｇ ｇ／ｇ 1.0000000
トン 吨 0.6666667
であった 吨 0.1666667
ｔ 吨 0.1666667
極めて 非常 0.0909091
NULL 非常 0.1818182
こと 非常 0.1818182
広く 非常 0.0909091
して 非常 0.0909091
非常に 非常 0.0909091
と 非常 0.0909091
重要である 非常 0.0909091
よく 非常 0.0909091
氷 冰 0.5000000
満たして 冰 0.5000000
を 定为 0.5000000
と 定为 0.2500000
定めて 定为 0.2500000
大臣 执行 0.2500000
履行 执行 0.2500000
実行 执行 0.5000000
棒 棒 0.6666667
さ 棒 0.3333333
する 个别 0.2500000
個別 个别 0.7500000
設計 设计 0.7777778
デザイン 设计 0.2222222
共に 管中管 1.0000000
８５ ８５ 1.0000000
覆土 覆土 0.6666667
どの 覆土 0.3333333
実際 相近 0.5000000
近い 相近 0.5000000
方程式 方程式 0.4285714
アレニウス 方程式 0.1428571
ランジュバン 方程式 0.1428571
式 方程式 0.2857143
群 菌群 0.5000000
菌 菌群 0.5000000
２００３ ２００３ 1.0000000
少 下雪 0.5000000
雪 下雪 0.5000000
緑 绿化 0.0909091
努めて 绿化 0.0909091
緑化 绿化 0.8181818
切り 切割 0.5000000
取る 切割 0.5000000
浄化 净化 0.9333333
よる 净化 0.0666667
高度な 高度 0.0909091
高 高度 0.1818182
高い 高度 0.0909091
高度 高度 0.4545455
さ 高度 0.1818182
作った 合同 0.2000000
切れ 合同 0.2000000
契約 合同 0.6000000
ｔ 产量 0.2000000
の 产量 0.1000000
収量 产量 0.7000000
共有 共价键 0.5000000
結合 共价键 0.5000000
線 硬铝线 0.3333333
軟化 硬铝线 0.3333333
素 硬铝线 0.3333333
接する 连 1.0000000
Ｅ °００’Ｅ 0.5000000
° °００’Ｅ 0.5000000
茎 高茎 0.5000000
高 高茎 0.5000000
動物 动物 0.8750000
ため 动物 0.1250000
デバイス 硅器件 0.5000000
シリコン 硅器件 0.5000000
報 用量 1.0000000
図り 让 0.1428571
都道府県 让 0.1428571
こと 让 0.1428571
NULL 让 0.2857143
する 让 0.2857143
ろ過 过滤· 0.3333333
よる 过滤· 0.3333333
･ 过滤· 0.3333333
法 制法 0.5000000
取締 制法 0.5000000
中華民国 中华 1.0000000
ＭＳＺ ＭＳＺ 1.0000000
組 嵌入 0.4000000
込み 嵌入 0.4000000
応える 嵌入 0.2000000
案 草案 1.0000000
スクワレン 肝油 1.0000000
採 采气 0.5000000
気 采气 0.5000000
コーティング 涂层 1.0000000
危険 变少 1.0000000
実態 实况 1.0000000
デオライザー 系统 0.0185185
NULL 系统 0.0185185
系統 系统 0.0740741
系 系统 0.1481481
シームシステム 系统 0.0185185
システム 系统 0.7037037
水系 系统 0.0185185
２５ ２５ 1.0000000
ｔｏｔａｌ ｔｏｔａｌ 1.0000000
日陰 背阴部 0.2500000
違い 背阴部 0.2500000
明らかな 背阴部 0.2500000
部 背阴部 0.2500000
NULL 施工 0.0344828
ＰＩＰ 施工 0.0344828
工 施工 0.0344828
管 施工 0.0344828
原価 施工 0.0344828
施工 施工 0.1034483
工法 施工 0.6206897
工事 施工 0.1034483
Ｚｎ Ｚｎ 1.0000000
つ 若干 0.2857143
異質 若干 0.1428571
か 若干 0.2857143
いく 若干 0.2857143
NULL 捕捉 0.1250000
わかった 捕捉 0.1250000
補足 捕捉 0.6250000
捕捉 捕捉 0.1250000
であり 白化 0.5000000
アルビノ 白化 0.5000000
慢性 慢性 0.5000000
曝さ 慢性 0.5000000
デバッグ 故障 0.1666667
も 故障 0.0833333
対する 故障 0.0833333
いて 故障 0.0833333
して 故障 0.0833333
故障 故障 0.4166667
その 故障 0.0833333
向けた 要求 0.1666667
要求 要求 0.5000000
が 要求 0.1666667
へ 要求 0.1666667
メチル 甲基 1.0000000
持った 资格 0.5000000
資格 资格 0.5000000
名古屋 名古屋 1.0000000
より 累加值 0.2500000
も 累加值 0.2500000
値 累加值 0.2500000
加算 累加值 0.2500000
進学 深造 1.0000000
遺伝子 转基因 0.5000000
導入 转基因 0.5000000
実際 做为 1.0000000
石炭 煤灰 0.3333333
灰 煤灰 0.6666667
ＨＳ ＨＳ 1.0000000
顕著に 发显 0.5000000
ますます 发显 0.5000000
量 注射 0.3333333
シリンジ 注射 0.3333333
注入 注射 0.3333333
堀 露天 1.0000000
恵ま 适宜 1.0000000
低温 低温 1.0000000
タイヤ 应用 0.0303030
用途 应用 0.0606061
強化 应用 0.0303030
へ 应用 0.1515152
応用 应用 0.4545455
適用 应用 0.1212121
NULL 应用 0.1212121
フェノール 应用 0.0303030
日 第１４天 0.3333333
１４ 第１４天 0.3333333
目 第１４天 0.3333333
カレット 废碎 1.0000000
バニラ 香草 1.0000000
的に 具体 0.1250000
解説 具体 0.1250000
的な 具体 0.1250000
詳しい 具体 0.1250000
具体 具体 0.5000000
ともに 以及 0.0112360
はじめ 以及 0.0112360
そして 以及 0.0112360
ならびに 以及 0.0112360
新設 以及 0.0112360
並びに 以及 0.0112360
市民 以及 0.0112360
式 以及 0.0112360
続く 以及 0.0112360
製 以及 0.0112360
さらに 以及 0.0224719
や 以及 0.0449438
強化 以及 0.0112360
処分 以及 0.0112360
と 以及 0.0786517
及び 以及 0.2471910
フロー 以及 0.0112360
および 以及 0.2359551
NULL 以及 0.0561798
ず 以及 0.0112360
， 以及 0.1460674
黄 以及 0.0112360
＞ ＞ 1.0000000
降水 降水 0.5000000
NULL 降水 0.5000000
産 县产 0.3333333
都 县产 0.3333333
県 县产 0.3333333
則 定律 0.5000000
自乗 定律 0.5000000
世界 世界 0.8181818
NULL 世界 0.0909091
中 世界 0.0909091
応じて 获取 0.3333333
より 获取 0.3333333
経 获取 0.3333333
独立 自养 1.0000000
管 设管 1.0000000
やる 干劲 0.5000000
気 干劲 0.5000000
夕方 傍晚 1.0000000
牛肉 牛肉 1.0000000
何らか 何 0.5000000
素 何 0.5000000
試料 厂样水 0.3333333
場 厂样水 0.3333333
水 厂样水 0.3333333
や 安装 0.2500000
取り付け 安装 0.2500000
を 安装 0.2500000
下端 安装 0.2500000
溝 水沟 1.0000000
ろ過 过滤 1.0000000
訓練 训练 0.1666667
コンテンツ 训练 0.1666667
対する 训练 0.1666667
ラーニング 训练 0.3333333
なる 训练 0.1666667
場合 既 1.0000000
で Ｏｘｔｒａｎ 1.0000000
耕作 耕种 0.5000000
へ 耕种 0.5000000
ゼロエミッション 零排放 0.5000000
− 零排放 0.5000000
れ 优先 1.0000000
カ所 家 0.3333333
病院 家 0.6666667
パナソニックファクトリーソリューションズ 科技 0.2500000
でも 科技 0.2500000
株 科技 0.2500000
） 科技 0.2500000
他の 法规 0.5000000
法規 法规 0.5000000
大臣 按照 0.1111111
行う 按照 0.1111111
従って 按照 0.1111111
ついて 按照 0.2222222
， 按照 0.4444444
経験 经历 0.5000000
NULL 经历 0.5000000
見て 做法 0.1428571
さまざまな 做法 0.1428571
やり 做法 0.2857143
だけ 做法 0.1428571
方 做法 0.2857143
流出 河流 0.5000000
河川 河流 0.5000000
３７９ ３７９ 1.0000000
試料 试料 1.0000000
クリーン 绿色 0.3333333
プロ 绿色 0.3333333
グリーン 绿色 0.3333333
Ｆｌｕｏｒｅｓｃｅｎｔ Ｆｌｕｏｒｅｓｃｅｎｔ 1.0000000
シリンジ 进样量 0.3333333
１ 进样量 0.3333333
μ 进样量 0.3333333
川 河 0.5000000
Ｊｏｓｅｐｈ 河 0.5000000
Ｂｏｒｅ Ｂｏｒｅ 1.0000000
４ 　其四 0.2500000
その 　其四 0.2500000
　 　其四 0.2500000
保証 　其四 0.2500000
基づき 源流 0.3333333
源流 源流 0.6666667
授受 收发 1.0000000
市 府 0.3333333
ＲＲＦ 府 0.3333333
職員 府 0.3333333
通り 如下 0.1428571
である 如下 0.1428571
は 如下 0.1428571
NULL 如下 0.1428571
得た 如下 0.1428571
次の 如下 0.1428571
結論 如下 0.1428571
ＩＡＰＷＳ ＩＡＰＷＳ 0.2500000
認め ＩＡＰＷＳ 0.2500000
いる ＩＡＰＷＳ 0.2500000
られて ＩＡＰＷＳ 0.2500000
がん 细胞 0.0909091
細胞 细胞 0.9090909
ネットワーク 网络 1.0000000
３ ３ 1.0000000
ｍａｘ ｍａｘ 1.0000000
し 出击 0.5000000
同士 出击 0.5000000
純 单音 0.5000000
音 单音 0.5000000
熱 水热 0.3333333
水 水热 0.3333333
配合 水热 0.3333333
NULL 除了 0.2000000
以外 除了 0.2000000
， 除了 0.6000000
土 土建 0.7500000
の 土建 0.2500000
れた 限定 0.5000000
限ら 限定 0.5000000
カメラ 摄影机 1.0000000
ゴカイ 沙蚕 1.0000000
シリコン β－硼 1.0000000
源 源头 0.6000000
から 源头 0.4000000
一助 些许 1.0000000
無く 不管 1.0000000
リサイクリング Ｒｉｖｅｒｓｉｄｅ 0.3333333
ランド Ｒｉｖｅｒｓｉｄｅ 0.3333333
Ｒｉｖｅｒｓｉｄｅ Ｒｉｖｅｒｓｉｄｅ 0.3333333
アンケート 征询 1.0000000
シックハウス 病 0.5000000
症 病 0.5000000
NULL 即使 0.3076923
とき 即使 0.0769231
たとえ 即使 0.0769231
すなわち 即使 0.0769231
に 即使 0.0769231
よって 即使 0.0769231
繰り返す 即使 0.0769231
近隣 即使 0.0769231
は 即使 0.0769231
先進 即使 0.0769231
ａｅｔｈｉｏｐｉｃａ ａｅｔｈｉｏｐｉｃａ 1.0000000
歩行 步行 1.0000000
アラメ 干燥 0.2000000
乾燥 干燥 0.8000000
示す ＲＧＲ 0.2500000
ＲＧＲ ＲＧＲ 0.7500000
９．８ ９．８ 1.0000000
極 极低 1.0000000
決定 决定 0.2777778
よって 决定 0.0555556
決まる 决定 0.0555556
決まった 决定 0.0555556
， 决定 0.1111111
で 决定 0.1111111
あり 决定 0.0555556
NULL 决定 0.0555556
依存 决定 0.0555556
切れ 决定 0.0555556
は 决定 0.1111111
ノーマル 脉冲 0.5000000
パルス 脉冲 0.5000000
降水 降 0.5000000
である 降 0.5000000
下 除草 0.3333333
草刈り 除草 0.3333333
除草 除草 0.3333333
であり 左右 0.1111111
ほど 左右 0.1111111
程度 左右 0.5555556
左右 左右 0.1111111
NULL 左右 0.1111111
推測 推论 0.2000000
信頼 推论 0.2000000
進歩 推论 0.2000000
ある 推论 0.2000000
ついて 推论 0.2000000
する 将 0.0380952
し 将 0.0952381
今後 将 0.0095238
両 将 0.0095238
はじめ 将 0.0095238
タイヤシュレッズ 将 0.0095238
硬 将 0.0095238
古 将 0.0095238
テンシオメータ 将 0.0095238
に 将 0.0666667
用紙 将 0.0095238
白色 将 0.0095238
鶴 将 0.0095238
アルミ 将 0.0095238
電圧 将 0.0095238
上 将 0.0190476
公団 将 0.0095238
おり 将 0.0095238
油 将 0.0095238
ＥＸ 将 0.0095238
ＺＧ 将 0.0095238
充填 将 0.0095238
ネットワーク 将 0.0095238
NULL 将 0.1142857
集計 将 0.0095238
つなげて 将 0.0095238
各 将 0.0095238
生ごみ 将 0.0095238
国境 将 0.0095238
ポリマー 将 0.0095238
で 将 0.0095238
が 将 0.0476190
庁 将 0.0095238
大量 将 0.0095238
再 将 0.0095238
用い 将 0.0190476
は 将 0.0761905
アナタース 将 0.0095238
地下茎 将 0.0095238
， 将 0.1714286
行い 将 0.0095238
カラマツ 将 0.0095238
予定 将 0.0095238
サクラ 将 0.0095238
よる 将 0.0095238
潮 将 0.0095238
県 兵库县 0.5000000
兵庫 兵库县 0.5000000
） ） 0.9585062
有無 ） 0.0041494
で ） 0.0041494
NULL ） 0.0165975
なって ） 0.0041494
元 ） 0.0041494
ベンド ） 0.0041494
来襲 ） 0.0041494
４０ ４０ 1.0000000
挙動 偏析 0.1250000
的 偏析 0.1250000
時 偏析 0.1250000
経 偏析 0.1250000
本 偏析 0.1250000
溶出 偏析 0.3750000
便利に 方便 0.2500000
内視鏡 方便 0.2500000
できて 方便 0.2500000
運び 方便 0.2500000
肉 鱼肉 0.5000000
魚肉 鱼肉 0.5000000
だいたい 大部分 0.2000000
ほとんど 大部分 0.2000000
除く 大部分 0.2000000
地 大部分 0.2000000
良好に 大部分 0.2000000
で 尾草 0.5000000
セージ 尾草 0.5000000
／ ＯＮ／ＯＦＦ 0.5000000
ＯＦＦ ＯＮ／ＯＦＦ 0.5000000
スラグ 炉渣 1.0000000
先 场所 0.1666667
場 场所 0.3333333
場所 场所 0.3333333
空 场所 0.1666667
与え 给出 0.5000000
られる 给出 0.5000000
さらに 进而 1.0000000
収支 收支 1.0000000
･ 发 0.5000000
エンジン 发 0.5000000
計 计 0.8000000
テンシオメータ 计 0.1000000
計測 计 0.1000000
貯留 贮留 1.0000000
硬度 抗氧 0.5000000
酸化 抗氧 0.5000000
ろ過 过滤法 0.3333333
法 过滤法 0.3333333
沈殿 过滤法 0.3333333
土木 土木 0.6666667
用 土木 0.3333333
合板 合板 1.0000000
は 稍 0.3333333
か 稍 0.1111111
やや 稍 0.4444444
同じ 稍 0.1111111
抽出 提取 0.4285714
採取 提取 0.1428571
用いて 提取 0.1428571
低い 提取 0.1428571
コンテクスト 提取 0.1428571
NULL 式 0.1250000
式 式 0.8750000
完全に 完全 0.1428571
と 完全 0.2857143
生体 完全 0.1428571
完全な 完全 0.1428571
完全 完全 0.2857143
枠組み 框架 1.0000000
ついて 概念 0.2500000
示す 概念 0.2500000
概念 概念 0.5000000
年 ２００１年 0.5000000
２００１ ２００１年 0.5000000
なく 植被 0.1666667
必ず 植被 0.1666667
植生 植被 0.6666667
これ 浸渍 1.0000000
用いた 内分泌 0.5000000
内分泌 内分泌 0.5000000
ファイルサーバ 文件 0.0500000
ファイル 文件 0.9500000
５ ５％ 0.3333333
である ５％ 0.3333333
％ ５％ 0.3333333
５ 第５节 0.3333333
第 第５节 0.3333333
節 第５节 0.3333333
Ｓｔ． 向Ｓｔ 1.0000000
５００ ５００ 1.0000000
ボイラ 锅炉 0.5000000
ボイラー 锅炉 0.5000000
組み 相 0.3333333
NULL 相 0.3333333
相 相 0.3333333
そして 并且 0.0909091
Ｐｂ 并且 0.0454545
さらに 并且 0.2272727
確保 并且 0.0454545
し 并且 0.2727273
そこ 并且 0.0454545
かつ 并且 0.0454545
浸し 并且 0.0454545
ホウ 并且 0.0454545
また 并且 0.1363636
だ ， 0.0005896
が ， 0.0330189
大きな ， 0.0005896
で ， 0.0347877
わたる ， 0.0005896
である ， 0.0011792
して ， 0.0035377
スーパー ， 0.0005896
さ ， 0.0035377
伴い ， 0.0005896
位置 ， 0.0005896
， ， 0.5117925
こと ， 0.0017689
と ， 0.0294811
は ， 0.0819575
台 ， 0.0005896
まで ， 0.0011792
おいて ， 0.0070755
に ， 0.0719340
ので ， 0.0005896
ため ， 0.0053066
し ， 0.0206368
なり ， 0.0017689
する ， 0.0082547
より ， 0.0017689
NULL ， 0.0501179
比べて ， 0.0005896
な ， 0.0005896
の ， 0.0005896
を ， 0.1202830
３８ ， 0.0005896
であり ， 0.0029481
今 ， 0.0005896
触媒 催化 1.0000000
ＮＢ ＮＢ 1.0000000
消費 消耗 1.0000000
磁性 磁性 1.0000000
である 理论 0.5000000
理論 理论 0.5000000
→ 预热→反应→冷 0.3333333
予熱 预热→反应→冷 0.3333333
反応 预热→反应→冷 0.3333333
ＤＬＣ ＤＬＣ 1.0000000
ｔ ｔ 0.5000000
あり ｔ 0.5000000
役立た 作用 0.0312500
こと 作用 0.1250000
効果 作用 0.0312500
作用 作用 0.2500000
光合成 作用 0.0312500
なった 作用 0.0312500
寄与 作用 0.0312500
が 作用 0.1562500
NULL 作用 0.0312500
明らかに 作用 0.0625000
役割 作用 0.1250000
する 作用 0.0625000
ソノケミストリー 作用 0.0312500
湖 湖 1.0000000
系統 品系 0.7142857
選抜 品系 0.1428571
すなわち 品系 0.1428571
NULL 著者 0.3333333
著者 著者 0.6666667
断線 ＡＳＣＲ 1.0000000
断熱 隔热 1.0000000
耐 耐蚀 0.5000000
食 耐蚀 0.5000000
ガスクロマトグラフ 色层 1.0000000
野 山北·六道山 0.2500000
山北 山北·六道山 0.2500000
山 山北·六道山 0.2500000
都立 山北·六道山 0.2500000
自律 被 0.0135135
に 被 0.0540541
説 被 0.0135135
的に 被 0.0135135
被 被 0.0135135
投棄 被 0.0270270
あまり 被 0.0135135
の 被 0.0135135
制作 被 0.0135135
NULL 被 0.0810811
ように 被 0.0135135
慢性 被 0.0135135
ない 被 0.0135135
８５ 被 0.0135135
レザー 被 0.0135135
れて 被 0.0270270
一般に 被 0.0135135
オレガノ 被 0.0135135
認知 被 0.0270270
白紙 被 0.0135135
ソルビトール 被 0.0270270
が 被 0.1351351
“ 被 0.0135135
さ 被 0.1621622
シース 被 0.0135135
± 被 0.0135135
氷 被 0.0135135
れた 被 0.0135135
して 被 0.0540541
れる 被 0.0135135
担 被 0.0135135
因 被 0.0135135
水柱 被 0.0135135
Ｗｅｌｃｈ 被 0.0135135
は 被 0.0675676
不備 完善 1.0000000
ＨＯＲＩＢＡ ＨＯＲＩＢＡ 1.0000000
られた 防除 0.5000000
防除 防除 0.5000000
， 生长 0.0357143
生長 生长 0.0714286
NULL 生长 0.0714286
圃場 生长 0.0714286
成長 生长 0.4642857
生活 生长 0.0714286
地区 生长 0.0714286
始める 生长 0.0357143
生育 生长 0.1071429
水稲 水稻 0.7500000
与 水稻 0.2500000
レタッチ 修版 0.3333333
なく 修版 0.3333333
簡単な 修版 0.3333333
松下 松下 0.8000000
パナソニックファクトリーソリューションズ 松下 0.2000000
デキ 环糊精 0.2500000
シクロ 环糊精 0.2500000
スト 环糊精 0.2500000
リン 环糊精 0.2500000
機構 机构 0.6666667
解説 机构 0.3333333
実用 实用 1.0000000
衰退 衰退 0.2857143
顕著に 衰退 0.1428571
難聴 衰退 0.1428571
バイオボラタリゼーション 衰退 0.1428571
が 衰退 0.1428571
した 衰退 0.1428571
擁壁 埋入 0.5000000
裏 埋入 0.5000000
一時的に 升 1.0000000
塩 盐类 0.5000000
類 盐类 0.5000000
作付け 田地 1.0000000
など 居民 0.1428571
員 居民 0.1428571
より 居民 0.1428571
住民 居民 0.4285714
棟 居民 0.1428571
見舞い 不安 1.0000000
撹乱 分泌 1.0000000
教育 培训 0.6666667
NULL 培训 0.3333333
蒸気 蒸气 1.0000000
持した 单层 0.3333333
単 单层 0.3333333
層 单层 0.3333333
さ 销售 0.3333333
いる 销售 0.3333333
市販 销售 0.3333333
れて 我 1.0000000
， 基于 0.2857143
観点 基于 0.1428571
現 基于 0.1428571
は 基于 0.1428571
日 基于 0.1428571
２０００ 基于 0.1428571
上げ 维持 0.0833333
その 维持 0.0833333
維持 维持 0.8333333
NULL 培育 0.2500000
作 培育 0.2500000
育成 培育 0.5000000
ヒト 春天 1.0000000
煙 含于 1.0000000
より 光照 0.3333333
も 光照 0.1666667
光 光照 0.3333333
NULL 光照 0.1666667
磯 赤潮 0.5000000
焼け 赤潮 0.5000000
へ 制订 0.3333333
策定 制订 0.6666667
属する 种间 0.1666667
間 种间 0.3333333
なし 种间 0.1666667
種 种间 0.3333333
廃材 废材 1.0000000
配管 配管 1.0000000
“ 命名 0.5000000
名称 命名 0.5000000
セールスエンジニアリング 技术 0.0483871
ノウハウ 技术 0.0161290
放射 技术 0.0161290
検査 技术 0.0161290
技術 技术 0.8225806
ハイテク 技术 0.0322581
NULL 技术 0.0161290
得る 技术 0.0161290
エンジニア 技术 0.0161290
総量 总量 1.0000000
理解 理解 1.0000000
課題 课题 0.6923077
述べた 课题 0.0769231
ある 课题 0.0769231
なろう 课题 0.0769231
NULL 课题 0.0769231
１３７ １３７ 1.0000000
帯域 窄带谱 0.3333333
スペクトル 窄带谱 0.3333333
狭 窄带谱 0.3333333
酸 乙基甲烷磺酸 0.5000000
エチルメタンスルフォン 乙基甲烷磺酸 0.5000000
文部 积极 0.1250000
の 积极 0.2500000
付けて 积极 0.1250000
会議 积极 0.1250000
推進 积极 0.1250000
種々の 积极 0.1250000
NULL 积极 0.1250000
ホウ 无论 0.2500000
れた 无论 0.2500000
示唆 无论 0.2500000
さ 无论 0.2500000
タンパク 蛋白 0.0555556
NULL 蛋白 0.1666667
質 蛋白 0.1666667
ケラチン 蛋白 0.2777778
分げつ 蛋白 0.0555556
蛋白 蛋白 0.2777778
終了 结束 1.0000000
効率 过滤效率 0.5000000
ろ過 过滤效率 0.5000000
同様の 相同 0.0714286
同様 相同 0.1428571
同じ 相同 0.2142857
行う 相同 0.0714286
と 相同 0.2857143
Ｊｏｓｅｐｈ 相同 0.0714286
姿勢 相同 0.0714286
NULL 相同 0.0714286
頭部 鲨鱼 0.2000000
ヨシキリザメ 鲨鱼 0.4000000
サメ 鲨鱼 0.2000000
船上 鲨鱼 0.2000000
Ｉｎｄｉｃａｔｏｒ Ｉｎｄｉｃａｔｏｒ 1.0000000
内視鏡 内 0.0449438
区間 内 0.0112360
期 内 0.0112360
さ 内 0.0112360
共生 内 0.0112360
で 内 0.1797753
に 内 0.0224719
範囲 内 0.0224719
内 内 0.4943820
め 内 0.0112360
作付け 内 0.0224719
ワグネルポット 内 0.0112360
おける 内 0.0112360
域 内 0.0224719
ところ 内 0.0112360
NULL 内 0.0112360
ハウス 内 0.0224719
カラム 内 0.0112360
撹乱 内 0.0112360
地区 内 0.0449438
鋼 钢心 0.5000000
心 钢心 0.5000000
Ｈ Ｈ 1.0000000
４．５ ４．５ 1.0000000
整備 建成 0.3333333
生き物 建成 0.3333333
した 建成 0.3333333
ジャイロスコープ 回转 1.0000000
小さく 小 0.0476190
小さかった 小 0.0476190
グリセロール 小 0.0476190
は 小 0.0952381
小さい 小 0.0952381
ピン 小 0.0476190
偏 小 0.0476190
小さな 小 0.0476190
微小 小 0.0476190
NULL 小 0.0952381
ある 小 0.0476190
微 小 0.0476190
小 小 0.2857143
ＲｏＨＳ ＲｏＨＳ 0.6000000
不 ＲｏＨＳ 0.2000000
使用 ＲｏＨＳ 0.2000000
大 化强 0.5000000
抵抗 化强 0.5000000
高 高性 1.0000000
森林 森林 1.0000000
最新 最新 0.3750000
最新の 最新 0.1250000
動向 最新 0.1250000
ついて 最新 0.1250000
最近 最新 0.2500000
NULL 文研 1.0000000
NULL 基本 0.0833333
大部分 基本 0.0833333
的 基本 0.0833333
ほぼ 基本 0.0833333
基本 基本 0.5833333
っ 基本 0.0833333
伸び 延伸 1.0000000
奪わ 还 0.0270270
だけ 还 0.0270270
または 还 0.0270270
は 还 0.0540541
規定 还 0.0270270
そこ 还 0.0270270
を 还 0.2162162
地図 还 0.0270270
NULL 还 0.2162162
浮き彫り 还 0.0270270
削減 还 0.0270270
訴え 还 0.0270270
， 还 0.0810811
硝酸態窒素 还 0.0270270
まだ 还 0.0270270
不明である 还 0.0270270
額 还 0.0270270
も 还 0.0540541
結び 还 0.0270270
プラスチド 色素 1.0000000
漁場 渔场 1.0000000
滋賀 滋贺县 1.0000000
重大 重大 0.2500000
きて 重大 0.2500000
集めて 重大 0.2500000
生じて 重大 0.2500000
水量 １１０％ 0.3333333
１１０ １１０％ 0.3333333
％ １１０％ 0.3333333
表 表格 1.0000000
科 科 1.0000000
さ 硬质 0.3333333
硬質 硬质 0.6666667
スィートコーン 甜玉米 1.0000000
政府 政府 0.7500000
相談 政府 0.2500000
創造 创造 0.6666667
自己 创造 0.3333333
選択 波长 0.2500000
波長 波长 0.5000000
よる 波长 0.2500000
コラム 柱径 0.5000000
径 柱径 0.5000000
多く 大 0.0185185
潜在 大 0.0185185
大 大 0.1296296
最大 大 0.0555556
傾注 大 0.0185185
著しく 大 0.0185185
ラージ 大 0.0185185
ほど 大 0.0185185
異なり 大 0.0185185
なった 大 0.0555556
大きな 大 0.1296296
広範 大 0.0185185
かさばる 大 0.0370370
なる 大 0.0185185
大きく 大 0.0925926
さらに 大 0.0185185
大国 大 0.0185185
ヤマトオサガニ 大 0.0185185
大きかった 大 0.0555556
最大の 大 0.0370370
大きい 大 0.0370370
かなり 大 0.0185185
， 大 0.0185185
NULL 大 0.1111111
氏 下村 1.0000000
８ ８ 1.0000000
支える 高 0.0166667
高まる 高 0.0166667
効率 高 0.0333333
高く 高 0.1166667
高い 高 0.2833333
低かった 高 0.0166667
高値 高 0.0166667
優れる 高 0.0166667
ハイテク 高 0.0166667
NULL 高 0.0166667
高かった 高 0.0333333
優先 高 0.0166667
高 高 0.4000000
Ｎ Ｎ 1.0000000
硫黄 硫磺 1.0000000
処分 加以 0.5000000
で 加以 0.5000000
は 均一 0.3333333
均一 均一 0.3333333
かつ 均一 0.3333333
内 蓄留池 0.3333333
ため池 蓄留池 0.6666667
さ 农政 0.3333333
れる 农政 0.3333333
農政 农政 0.3333333
１９９９ １９９９ 1.0000000
５ ５ 1.0000000
無償 免费 0.5000000
できる 免费 0.5000000
損失 损失 0.7500000
聴力 损失 0.2500000
プリオン 朊病毒病 1.0000000
こと 约２０ｇｍ－２ 0.5000000
適正である 约２０ｇｍ－２ 0.5000000
重要であった 完成 0.1666667
完成 完成 0.1666667
を 完成 0.1666667
で 完成 0.1666667
し 完成 0.1666667
被せて 完成 0.1666667
食 藻食 1.0000000
オイル 棕榈油 0.5000000
パーム 棕榈油 0.5000000
米 美 1.0000000
１５０ １５０ 0.6666667
さ １５０ 0.3333333
質量 质量 0.1875000
食味 质量 0.2500000
品質 质量 0.1875000
質 质量 0.1875000
いる 质量 0.0625000
が 质量 0.1250000
禁 禁止 1.0000000
を 对废 0.3333333
用いた 对废 0.3333333
廃 对废 0.3333333
フード 食品 0.5000000
食品 食品 0.5000000
加入 手续 0.5000000
手続き 手续 0.5000000
永久 永久 1.0000000
ベース 基础 0.0500000
基幹 基础 0.0500000
基礎 基础 0.2000000
基づいて 基础 0.0500000
に 基础 0.2000000
基盤 基础 0.0500000
もと 基础 0.0500000
時刻 基础 0.0500000
NULL 基础 0.1000000
土台 基础 0.0500000
基 基础 0.1000000
アルミニウム 基础 0.0500000
モリブデン 钼蓝 0.5000000
青 钼蓝 0.5000000
ダイアモンドライクカーボン 类金 1.0000000
性 性状 0.1666667
質 性状 0.3333333
形 性状 0.5000000
幅 宽 1.0000000
的 技能 0.3333333
技能 技能 0.3333333
なる 技能 0.3333333
で 题记类金刚石 0.3333333
標記 题记类金刚石 0.6666667
難易 难易 1.0000000
相当 相当 0.2000000
どちら 相当 0.2000000
が 相当 0.2000000
できた 相当 0.2000000
かなり 相当 0.2000000
ＭＣＳ ＭＣＳ 1.0000000
吹き出物 诉说 1.0000000
慣性 惯性 1.0000000
個人 个人 0.5000000
NULL 个人 0.5000000
よる 上层 0.5000000
上層 上层 0.5000000
幼生 幼体 1.0000000
先生 老师 1.0000000
異方性 异性 1.0000000
素 锡芯线 0.2500000
線 锡芯线 0.2500000
メッキ 锡芯线 0.5000000
真 真正 1.0000000
制限 评论 0.3333333
こと 评论 0.3333333
有する 评论 0.3333333
試料 试验 0.1333333
軽視 试验 0.0333333
実験 试验 0.1000000
試験 试验 0.7333333
同 实测 0.1666667
実測 实测 0.8333333
アカマツ 红松 1.0000000
補足 率 0.0312500
率 率 0.8437500
頻度 率 0.0312500
NULL 率 0.0937500
触覚 触觉 1.0000000
アミノメタン 氨基甲烷 1.0000000
ＸＰ ＸＰ 1.0000000
経 劣化 0.2857143
年 劣化 0.4285714
劣化 劣化 0.2857143
提示 安定性 0.3333333
安定 安定性 0.3333333
性 安定性 0.3333333
用 摄食 0.3333333
摂食 摄食 0.6666667
春季 春季 1.0000000
成分 成分 1.0000000
リター 枯枝 1.0000000
ｓｕｂｎａｔｉｏｎａｌ ｓｕｂｎａｔｉｏｎａｌ 1.0000000
レベル 水平 0.6000000
NULL 水平 0.1000000
水準 水平 0.2000000
であった 水平 0.1000000
酸化 双 0.2000000
片側 双 0.2000000
ビスフェノールＡ 双 0.2000000
ダブル 双 0.2000000
２ 双 0.2000000
化 隔热化 0.5000000
断熱 隔热化 0.5000000
有利な 有利 0.5000000
で 有利 0.5000000
ラワン 柳安 1.0000000
被 外皮 0.5000000
外 外皮 0.5000000
岩 岩石 1.0000000
細かく 片状 0.3333333
加工 片状 0.3333333
し 片状 0.3333333
れ 认知 0.2000000
れる 认知 0.2000000
認知 认知 0.4000000
ない 认知 0.2000000
スキル 大学生 0.5000000
大学生 大学生 0.5000000
産卵 产卵 1.0000000
ＨｇＳ ＨｇＳ 1.0000000
共有 享为 1.0000000
まで 太 0.3333333
これ 太 0.3333333
性 太 0.3333333
雷 雷 0.5000000
せた 雷 0.5000000
難溶性 难溶性 0.3333333
である 难溶性 0.3333333
ため 难溶性 0.3333333
左 左 1.0000000
川 川 0.8333333
川上 川 0.1666667
把握 掌握 0.6000000
から 掌握 0.2000000
習 掌握 0.2000000
残念な 遗憾 0.5000000
こと 遗憾 0.5000000
で 处 0.1250000
から 处 0.2500000
入り口 处 0.1250000
別 处 0.1250000
点 处 0.2500000
箇所 处 0.1250000
さ 记录 0.2500000
記載 记录 0.0833333
ロガー 记录 0.1666667
記録 记录 0.2500000
NULL 记录 0.0833333
れた 记录 0.1666667
効果 效果 0.7222222
達成 效果 0.0555556
一層 效果 0.0555556
NULL 效果 0.0555556
示した 效果 0.0555556
コラーゲン 效果 0.0555556
さらに 接着 0.6666667
次に 接着 0.3333333
もの 却 0.0588235
NULL 却 0.1176471
予熱 却 0.0588235
明確な 却 0.0588235
極めて 却 0.0588235
関して 却 0.0588235
は 却 0.3529412
られ 却 0.1176471
効率 却 0.1176471
ハウス 大棚 0.5000000
ビニル 大棚 0.5000000
ノギス 卡尺 1.0000000
ない 水产物 1.0000000
必要であり 文章 0.2500000
本稿 文章 0.2500000
NULL 文章 0.2500000
で 文章 0.2500000
感染 感染 1.0000000
続いて 接下来 1.0000000
赤 红 1.0000000
ＮＥ 对ＮＥＣ－４ 0.5000000
Ｃ−４ 对ＮＥＣ－４ 0.5000000
粒 粒化 0.5000000
造 粒化 0.5000000
海 ７ 0.2500000
７ ７ 0.7500000
葉 初生叶 0.3333333
初 初生叶 0.3333333
生 初生叶 0.3333333
剤 吸附剂 1.0000000
勘 直觉 0.5000000
頼る 直觉 0.5000000
よって 推定 0.2000000
推定 推定 0.6000000
から 推定 0.2000000
個別 放入 1.0000000
半島 半岛 1.0000000
へ 二 0.3333333
ジメチルホルムアミド 二 0.3333333
二 二 0.3333333
し 旨 1.0000000
当り Ｌ 0.5000000
Ｌ Ｌ 0.5000000
給水 水 0.0281690
した 水 0.0140845
水没 水 0.0281690
水質 水 0.0140845
水 水 0.6056338
水中 水 0.1126761
水溶 水 0.0281690
用水 水 0.0140845
ホテイアオイ 水 0.0704225
生水 水 0.0422535
水上 水 0.0140845
放流 水 0.0140845
溶 水 0.0140845
１５ １５日 0.4285714
である １５日 0.1428571
日 １５日 0.4285714
２５ ２５日 0.5000000
日 ２５日 0.5000000
， 整个 0.2500000
通じた 整个 0.2500000
NULL 整个 0.2500000
でも 整个 0.2500000
潅水 灌水 0.3333333
行う 灌水 0.3333333
水 灌水 0.3333333
灰色 灰色 0.5000000
低地 灰色 0.5000000
優れた 出色 1.0000000
間 过去 0.2500000
過去 过去 0.7500000
イベント 情景 1.0000000
待合室 候诊室 1.0000000
さ ３７ 0.1666667
設置 ３７ 0.1666667
３７ ３７ 0.6666667
個 单叶 0.5000000
葉 单叶 0.5000000
は 海米 0.5000000
コウボウムギ 海米 0.5000000
よう 氧化碘 0.5000000
で 氧化碘 0.5000000
主として 主要 0.0909091
して 主要 0.0454545
主に 主要 0.1818182
主要 主要 0.0909091
要因 主要 0.0909091
NULL 主要 0.0454545
主要な 主要 0.0909091
， 主要 0.0909091
主たる 主要 0.0454545
主 主要 0.0909091
主な 主要 0.0909091
ｃ 主要 0.0454545
第 第四 0.5000000
四 第四 0.5000000
体 Ｌ－体 1.0000000
傾き 斜率 1.0000000
事故 事故 1.0000000
リダンダンシー 冗余 1.0000000
食 和食 0.5000000
と 和食 0.5000000
徹底 彻底 0.5000000
的な 彻底 0.5000000
最適 适氮 1.0000000
で 从中 1.0000000
果 朔果 0.5000000
朔 朔果 0.5000000
箇所 脆弱 1.0000000
一元 元 1.0000000
Ｅ Ｅ 0.6666667
支援 Ｅ 0.3333333
１．０ １．０ 1.0000000
ＵＰＧＭＡ ＵＰＧＭＡ 1.0000000
床面積 面积 0.0526316
延床面積 面积 0.0526316
面積 面积 0.7368421
NULL 面积 0.0526316
積 面积 0.1052632
排ガス 尾气 1.0000000
抽出 抽取 1.0000000
サブピクセル 亚像素 0.6666667
おいて 亚像素 0.3333333
する 饱和 0.5000000
飽和 饱和 0.5000000
異なって 本身 0.2500000
そのもの 本身 0.2500000
質 本身 0.2500000
大きく 本身 0.2500000
ドリル 凿岩机 1.0000000
ところ ＥＭ 0.2500000
ＥＭ ＥＭ 0.7500000
１０ １０ 1.0000000
インター 界面 0.1666667
いて 界面 0.1666667
インターフェース 界面 0.3333333
の 界面 0.1666667
フェイス 界面 0.1666667
Ｍｏ Ｍｏ 1.0000000
成長 长其叶数 1.0000000
行わ 冈山县 1.0000000
NULL 直管 1.0000000
音波 超声波 0.5714286
超 超声波 0.4285714
カレット 玻璃 0.3333333
ガラス 玻璃 0.3333333
使用 玻璃 0.3333333
適正である 当量 0.5000000
した 当量 0.5000000
光源 光源 1.0000000
併せた 群 0.1250000
群 群 0.6250000
られる 群 0.1250000
考え 群 0.1250000
インジアナ 印第安纳州 1.0000000
農薬 农药 1.0000000
で 瓶装 0.5000000
ボトル 瓶装 0.5000000
コムギ 麦子 1.0000000
箇所 部位 0.7500000
部 部位 0.2500000
沈殿 沉淀 0.7500000
が 沉淀 0.2500000
規則 水管法 0.5000000
施行 水管法 0.5000000
５０ ５０ 1.0000000
Ｈａｒｄａｒｓｏｎ Ｈａｒｄａｒｓｏｎ 1.0000000
ＤＨｅａｔ ＤＨｅａｔ 1.0000000
うち 有关 0.0294118
関する 有关 0.1176471
ＳＴＲＡＩＧＨＴ 有关 0.0294118
関連 有关 0.0294118
に 有关 0.1470588
この 有关 0.0294118
しぼり 有关 0.0294118
水道 有关 0.0294118
相談 有关 0.0294118
災害 有关 0.0294118
観点 有关 0.0294118
対し 有关 0.0294118
依存 有关 0.0294118
おける 有关 0.0294118
関係 有关 0.0294118
ついて 有关 0.0294118
， 有关 0.0294118
現在 有关 0.0294118
調べた 有关 0.0294118
報告 有关 0.0588235
NULL 有关 0.1470588
バイオセイフティー 有关 0.0294118
で ０．８９ 0.5000000
０．８９ ０．８９ 0.5000000
工具 超硬 0.3333333
超 超硬 0.3333333
硬 超硬 0.3333333
・ 龙格·库塔·吉 0.5000000
ジル 龙格·库塔·吉 0.2500000
クッタ 龙格·库塔·吉 0.2500000
亜 亚 0.5000000
アジア 亚 0.5000000
契機 契机 1.0000000
流 乱流 0.5000000
乱 乱流 0.5000000
球 全球 0.1666667
地球 全球 0.8333333
疎水 疏水 1.0000000
へ 序号 0.5000000
番号 序号 0.5000000
作製 溶解性 0.5000000
溶解 溶解性 0.5000000
腕 才 0.5000000
どのように 才 0.5000000
帯 只要 1.0000000
引き寄せ 拖拽 1.0000000
〔 〈 1.0000000
数 想 1.0000000
通 通导 0.5000000
導 通导 0.5000000
NULL 近来 1.0000000
病 诱因 1.0000000
Ｉｍａｇｅ 　Ｉｍａｇｅ 0.3333333
　 　Ｉｍａｇｅ 0.6666667
示唆 失调 0.5000000
失調 失调 0.5000000
中性子 中子 0.6000000
探る 中子 0.2000000
原子核 中子 0.2000000
性 稳定性 0.3333333
いる 稳定性 0.1666667
増して 稳定性 0.1666667
安定 稳定性 0.3333333
更 更 0.0555556
も 更 0.1666667
更に 更 0.0555556
より 更 0.7222222
アンケート 问卷 0.5000000
首都 问卷 0.5000000
図り 营造 1.0000000
できる 削减 0.1250000
用いる 削减 0.1250000
ついて 削减 0.1250000
削減 削减 0.6250000
タイプ 类型 0.6250000
型 类型 0.2500000
NULL 类型 0.1250000
平行 方形 0.2500000
いく 方形 0.2500000
方形 方形 0.5000000
供する 与ＧＣ－ＭＳ法 0.5000000
ため 与ＧＣ－ＭＳ法 0.5000000
０ 制成 0.1250000
で 制成 0.1250000
した 制成 0.2500000
使う 制成 0.1250000
魚肉 制成 0.1250000
作製 制成 0.2500000
温室 温室 0.1666667
傾斜 温室 0.1666667
ハウス 温室 0.5000000
NULL 温室 0.0833333
場合 温室 0.0833333
人畜 究竟 1.0000000
生殖 配子 0.5000000
子 配子 0.5000000
投資 投资 1.0000000
NULL 研究Ｖ 1.0000000
ｍ ｍ 0.9090909
／ｍ ｍ 0.0909091
５ 图－５ 0.3333333
− 图－５ 0.3333333
図 图－５ 0.3333333
導入 证实 0.5000000
し 证实 0.5000000
マルコフ 马尔柯夫 1.0000000
す 解体 0.1000000
解体 解体 0.9000000
天然ガス 天然 0.2500000
主として 天然 0.2500000
天然 天然 0.5000000
以内 推移 1.0000000
立案 筹划 1.0000000
突然 突然 1.0000000
ＣｒＯｘ ＣｒＯｘ 1.0000000
階 层 0.1538462
多 层 0.0769231
層 层 0.7692308
コレステロール 日常 0.1428571
日常 日常 0.4285714
ルーチン 日常 0.1428571
的に 日常 0.1428571
用いる 日常 0.1428571
する 读出 0.3333333
出し 读出 0.3333333
読み 读出 0.3333333
ＴＥＱ ＴＥＱ 1.0000000
１ 时期 0.1250000
時期 时期 0.2500000
の 时期 0.1250000
期間 时期 0.5000000
NULL 外 0.1428571
共に 外 0.1428571
さまざまな 外 0.1428571
示した 外 0.1428571
他 外 0.2857143
落ち葉 外 0.1428571
内陸 内陆 0.6666667
用いた 内陆 0.3333333
外側 外侧 0.7500000
である 外侧 0.2500000
有力な 权威 0.3333333
である 权威 0.3333333
方法 权威 0.3333333
太平洋 突出 0.5000000
国際 突出 0.5000000
信頼 可靠 0.3333333
関する 可靠 0.3333333
性 可靠 0.3333333
の 墨粉飞溅 0.3333333
飛散 墨粉飞溅 0.3333333
トナー 墨粉飞溅 0.3333333
サイト 网站 0.5000000
すすめ 网站 0.5000000
， 连结 1.0000000
斜 求 0.5000000
葉 求 0.2500000
求めた 求 0.2500000
関連 关联 0.5000000
ため 关联 0.1000000
と 关联 0.1000000
関わろう 关联 0.1000000
関係 关联 0.2000000
ＵＳＦＷＳ 已经 0.2500000
NULL 已经 0.2500000
で 已经 0.2500000
１３０ 已经 0.2500000
ＰＮ ＰＮ 1.0000000
本社 总部 1.0000000
異 跨 0.5000000
業種 跨 0.5000000
し 自己 0.1428571
視 自己 0.1428571
NULL 自己 0.1428571
か 自己 0.1428571
定めた 自己 0.1428571
自分 自己 0.2857143
抑制 化剂 0.5000000
オキシダント 化剂 0.5000000
