0 2 0.263901
0 3 0.0398658
0 4 0.224398
0 5 0.235577
0 7 0.00542043
0 8 0.1183
0 9 0.0843741
0 10 0.0173534
0 11 0.0013449
0 12 3.63795e-05
0 13 0.00942667
0 15 1.97995e-07
0 764 1.58228e-07
2 2 0.679601
2 3 0.000732456
2 4 0.0755476
2 5 0.104455
2 7 0.00170786
2 8 0.015691
2 9 0.00459983
2 10 0.000665117
2 11 0.0437753
2 12 0.049186
2 13 9.49688e-06
2 16 4.48261e-05
2 18 0.00370471
2 20 3.99254e-07
2 28 0.00318376
2 29 6.25589e-06
2 32 0.0170055
2 38 1.77364e-06
2 43 3.01115e-07
2 53 6.14405e-05
2 64 1.68125e-07
2 66 1.70138e-06
2 75 1.23517e-07
2 90 7.58533e-07
2 100 1.1205e-07
2 107 2.54119e-06
2 111 2.32844e-07
2 137 2.20135e-07
2 326 2.67652e-07
2 497 1.07514e-07
2 641 1.09536e-07
2 771 1.04731e-07
2 1094 3.03942e-07
2 1553 3.55111e-07
2 1673 1.3226e-06
2 2069 9.74618e-06
2 3826 1.0215e-07
2 4321 2.40352e-07
3 2 0.000830915
3 3 0.605805
3 4 0.112495
3 5 0.0719912
3 7 0.0918849
3 8 0.0168971
3 9 0.0296061
3 10 0.0402772
3 11 2.66839e-05
3 12 0.00646902
3 13 4.73769e-05
3 15 2.57499e-07
3 20 0.0236392
3 23 4.27348e-07
3 29 3.57765e-06
3 36 1.20123e-07
3 46 3.42947e-07
3 70 5.12583e-07
3 300 2.19595e-07
3 304 2.23034e-06
3 319 5.37012e-06
3 572 2.65024e-07
3 764 1.22897e-07
3 1682 1.38639e-05
3 2247 1.37003e-06
3 2358 3.90728e-07
3 2483 1.26547e-07
4 4 0.106484
4 5 4.49498e-05
4 6 0.743451
4 8 0.00102294
4 9 2.08089e-06
4 11 0.116138
4 12 0.000667696
4 13 6.72363e-07
4 16 1.5935e-07
4 17 1.3295e-07
4 18 0.0135805
4 28 3.15257e-07
4 29 0.0185983
4 33 4.59773e-07
4 41 4.17597e-07
4 60 3.83897e-07
4 66 6.47928e-07
4 75 3.42875e-07
4 79 1.46902e-06
4 81 1.46852e-07
4 90 6.79382e-07
4 140 9.61568e-07
4 190 2.1778e-07
4 330 1.24778e-07
4 436 2.27436e-07
4 545 2.0618e-07
4 593 3.31457e-07
4 912 4.55974e-07
4 3636 3.52439e-07
4 4038 1.88114e-07
4 4229 1.22534e-07
5 2 0.0163036
5 3 0.478487
5 4 0.054531
5 5 0.00629643
5 7 0.240973
5 8 0.151625
5 10 0.0517393
5 32 2.29337e-05
5 37 5.13383e-07
5 60 1.23742e-07
5 64 3.54201e-07
5 340 6.37731e-07
5 350 2.07883e-07
5 1153 7.3259e-06
5 1551 6.97774e-07
5 2120 1.22839e-06
5 2247 1.14393e-06
5 2288 1.45754e-06
5 2491 8.04276e-06
6 2 0.00157544
6 3 0.26421
6 4 0.101798
6 5 0.0180989
6 7 0.0311699
6 8 0.0103387
6 9 6.63032e-06
6 10 0.0258869
6 11 0.331009
6 12 4.73095e-06
6 13 0.110963
6 16 2.84917e-05
6 20 0.0347337
6 23 5.1811e-06
6 30 0.0700559
6 31 1.5947e-07
6 38 4.16557e-07
6 59 7.90411e-07
6 77 5.54871e-05
6 80 1.87856e-07
6 103 3.30578e-07
6 168 2.43947e-07
6 182 5.46012e-06
6 252 1.13795e-05
6 334 6.14519e-06
6 396 1.31014e-07
6 545 1.73764e-06
6 984 3.98173e-07
6 1132 2.0422e-07
6 1976 1.24077e-07
6 2390 7.9423e-07
6 2775 6.78566e-06
6 3682 1.91578e-06
6 3803 1.08026e-07
6 4225 5.53718e-07
6 4362 3.06675e-06
6 4577 1.94372e-05
7 3 0.929098
7 4 8.98467e-06
7 25 0.0172989
7 62 0.0530884
7 70 2.31651e-06
7 80 0.00022368
7 921 4.76174e-05
7 1678 0.000231861
8 2 1.49407e-06
8 3 0.0587052
8 8 0.000420855
8 9 0.644203
8 25 0.239924
8 26 4.39245e-07
8 51 0.0464754
8 56 0.0101902
8 93 2.49513e-07
8 167 3.16141e-05
8 2398 4.69251e-05
9 5 1.4496e-07
9 10 0.00394728
9 14 0.993618
9 22 7.67982e-07
9 43 5.24003e-07
9 54 5.82456e-07
9 157 0.00241706
9 353 1.74834e-06
9 1030 5.31279e-07
9 1175 1.5845e-07
9 4311 1.30906e-05
9 4666 1.92843e-07
10 2 0.00613926
10 4 0.000177022
10 5 0.352508
10 7 0.0733131
10 10 0.322138
10 22 0.0474226
10 29 0.00422447
10 32 0.0222901
10 61 0.132146
10 70 0.0396387
10 84 1.07021e-06
10 90 2.33581e-07
10 140 2.98943e-07
10 152 1.50603e-07
10 258 1.80563e-07
10 1458 1.32486e-07
10 2775 2.02679e-07
10 3367 3.10647e-07
11 2 0.078307
11 3 2.38538e-06
11 4 0.322768
11 5 0.358808
11 8 5.81925e-06
11 9 0.0530328
11 10 0.0717869
11 11 1.6777e-06
11 13 2.36538e-07
11 20 0.0107584
11 22 0.017345
11 23 2.69441e-05
11 28 0.0388938
11 30 3.31012e-06
11 36 1.00303e-07
11 89 0.0211273
11 103 1.85934e-07
11 136 0.0271317
11 182 1.71658e-07
11 3682 3.98634e-07
12 4 3.8803e-07
12 15 0.999962
12 16 1.16791e-07
12 22 2.32543e-06
12 47 1.59131e-07
12 48 2.72343e-05
12 157 7.46114e-07
12 353 5.29392e-06
12 1030 1.6087e-06
12 1175 1.4492e-07
12 1360 1.76162e-07
13 3 0.180536
13 4 3.34632e-05
13 5 4.24869e-05
13 7 0.735648
13 8 0.074779
13 9 4.49671e-05
13 10 0.00239114
13 29 0.00652422
13 85 1.44264e-07
13 1528 1.0305e-07
13 2069 2.86605e-07
13 3102 2.34491e-07
14 19 0.993561
14 56 1.03662e-07
14 106 1.87539e-07
14 2398 0.00643885
15 2 0.180041
15 3 0.282535
15 4 1.46623e-05
15 5 0.0543204
15 7 0.188553
15 8 0.0699039
15 9 6.72769e-05
15 10 0.105269
15 13 0.0817092
15 28 0.0375591
15 30 3.85048e-07
15 32 2.42473e-05
15 70 1.61578e-07
15 984 2.2817e-06
15 1081 2.55084e-07
16 2 3.55887e-05
16 3 0.0711972
16 4 0.497741
16 5 0.0288888
16 7 0.316669
16 8 0.0546284
16 9 0.000678608
16 10 0.0210806
16 12 2.9008e-06
16 13 0.00907187
16 34 3.4345e-06
16 36 1.47781e-07
16 70 1.11175e-06
16 85 1.40514e-07
16 86 5.71329e-07
16 3489 2.69893e-07
16 4550 1.03274e-07
17 2 8.29019e-07
17 3 0.243861
17 4 0.0227893
17 5 0.0139475
17 7 0.167006
17 8 0.0166492
17 9 0.535745
17 10 3.28397e-07
17 299 1.27975e-07
17 342 1.54154e-07
17 1567 7.33484e-07
17 3312 2.13172e-07
18 2 0.0216262
18 3 0.211936
18 4 0.00973998
18 5 0.244534
18 7 0.0879001
18 8 0.282666
18 9 8.46511e-06
18 10 0.0380735
18 12 3.45188e-07
18 13 0.090715
18 15 3.62529e-06
18 17 6.42866e-07
18 18 0.0124371
18 43 1.99159e-05
18 44 2.50625e-07
18 241 2.82836e-07
18 340 0.00018916
18 477 1.32104e-06
18 939 3.87942e-07
18 1081 7.45835e-07
18 1169 2.77417e-06
18 1350 0.000133003
18 4530 1.12376e-05
19 2 6.67842e-05
19 3 0.00111938
19 4 0.0567624
19 5 5.69584e-05
19 7 1.33835e-05
19 8 0.000122128
19 14 0.0394072
19 15 7.3071e-07
19 16 5.50975e-07
19 38 0.000824875
19 43 0.90146
19 701 0.000165988
20 2 8.99259e-06
20 4 5.13086e-05
20 5 1.28457e-07
20 10 1.15986e-07
20 12 1.18165e-07
20 28 1.07881e-07
20 33 0.851338
20 89 0.0296674
20 90 0.0483687
20 103 0.0603009
20 252 3.74644e-06
20 274 0.00994567
20 1137 1.29972e-07
20 1820 4.53797e-06
20 2483 2.55898e-07
20 3232 1.40167e-07
20 4362 0.000309866
21 2 8.71098e-05
21 4 0.000201989
21 5 1.24416e-07
21 7 7.82973e-07
21 8 2.08584e-05
21 21 0.745276
21 53 0.0867683
21 60 0.0217079
21 85 0.062717
21 107 0.0832181
21 740 2.78532e-07
21 1486 9.61843e-07
21 2304 1.16199e-07
22 3 0.103179
22 4 0.00047621
22 5 9.91806e-06
22 7 0.144905
22 8 1.91989e-05
22 9 0.0111966
22 10 0.0647796
22 11 1.85592e-06
22 13 0.0754061
22 16 1.52502e-06
22 36 2.77252e-07
22 43 0.127556
22 58 2.26455e-07
22 75 0.0182579
22 102 0.454203
22 2244 7.87694e-06
22 2373 2.59707e-07
23 2 0.00562351
23 3 0.202458
23 4 0.278313
23 5 0.152775
23 7 0.280884
23 8 0.056294
23 9 1.37726e-06
23 10 0.00332456
23 12 0.0195243
23 22 0.000575552
23 36 3.70494e-07
23 340 0.000226405
24 2 0.00176065
24 3 4.62109e-06
24 5 2.58282e-05
24 8 0.000672913
24 9 0.00011027
24 12 2.20992e-07
24 13 3.18283e-06
24 17 5.35833e-06
24 18 0.00336499
24 53 2.89367e-07
24 55 0.605851
24 91 0.388042
24 167 6.44896e-06
24 1032 3.23573e-06
24 3125 0.000148393
25 2 6.56446e-07
25 3 0.00241349
25 4 0.000140793
25 5 0.0146751
25 9 0.00220319
25 10 8.9079e-06
25 12 3.21146e-07
25 13 7.31573e-06
25 38 0.1594
25 104 0.513221
25 158 0.307911
25 4461 1.75107e-05
26 2 3.52765e-05
26 3 2.21035e-06
26 5 0.000774
26 7 5.89755e-07
26 10 3.88762e-07
26 73 0.999104
26 332 3.8883e-05
26 961 3.48341e-07
26 1485 1.61683e-06
26 2120 3.0337e-05
26 4229 1.24032e-05
27 3 3.53887e-05
27 4 0.303002
27 7 0.0862048
27 8 0.000187057
27 9 0.363285
27 13 0.247267
27 279 2.28825e-07
27 372 2.07098e-07
27 1350 6.04141e-07
27 1637 1.74159e-05
27 4310 3.55999e-07
27 4466 1.89944e-07
28 3 0.0149556
28 4 1.92375e-06
28 9 0.196818
28 25 0.159175
28 37 7.68376e-06
28 51 0.246061
28 56 0.332183
28 62 0.0492995
28 252 1.23629e-07
28 1678 0.00149894
29 2 0.626664
29 3 3.8414e-06
29 4 7.74003e-06
29 5 0.00121037
29 13 6.3718e-07
29 123 0.371864
29 279 0.000214907
29 340 2.99919e-05
29 354 2.28942e-07
29 372 2.27935e-07
29 4229 4.1935e-06
30 2 5.48906e-07
30 3 7.7863e-06
30 4 2.93789e-05
30 5 0.000343253
30 7 1.04389e-05
30 9 0.101561
30 10 0.0171585
30 12 0.0710807
30 15 9.9544e-07
30 37 0.809804
30 49 8.33933e-07
30 545 3.84009e-07
30 1615 2.26417e-06
31 2 4.68292e-07
31 39 0.999614
31 137 0.000121482
31 157 8.29685e-07
31 345 3.15617e-07
31 497 2.22373e-05
31 1522 1.33488e-07
31 4321 0.000240971
32 3 0.378357
32 4 0.00493883
32 5 0.161356
32 7 0.155665
32 8 0.0817331
32 9 8.2758e-07
32 10 0.00147407
32 11 7.46137e-07
32 12 0.111348
32 13 5.31081e-05
32 17 3.05592e-07
32 20 0.0657491
32 28 0.0196842
32 350 6.88807e-06
32 572 0.0196144
32 737 1.82517e-05
32 2332 4.21139e-07
33 2 0.0347217
33 4 0.00361484
33 5 0.473228
33 7 1.56919e-06
33 8 0.0927065
33 10 0.0700131
33 18 0.0300374
33 22 0.00060389
33 30 9.27387e-07
33 48 0.032993
33 53 0.0323862
33 62 9.84717e-06
33 85 0.0819983
33 91 3.01594e-06
33 134 0.147386
33 3125 0.000253011
33 3489 4.22332e-05
34 3 0.212551
34 8 2.07144e-07
34 9 0.113489
34 25 0.0586114
34 51 0.30764
34 56 0.307706
34 347 1.48604e-07
34 1288 2.31883e-06
34 1820 2.85963e-07
35 2 0.00539835
35 3 0.491956
35 4 0.00631054
35 5 2.49693e-05
35 7 0.152318
35 8 0.00736976
35 22 0.336598
35 26 1.32454e-06
35 51 9.00072e-07
35 353 3.62996e-07
35 724 2.21303e-05
35 1324 3.67435e-07
36 2 0.329766
36 3 5.93626e-06
36 4 6.56069e-05
36 5 8.55153e-06
36 8 0.0334916
36 13 9.71126e-06
36 123 0.0637522
36 124 0.212575
36 292 3.46272e-07
36 400 0.190547
36 591 0.169494
36 614 0.000192978
36 3232 7.31517e-06
36 4608 8.32014e-05
37 4 0.000383787
37 5 2.7429e-06
37 10 1.69904e-05
37 11 2.01329e-05
37 63 0.894538
37 89 0.104983
37 90 4.2176e-05
37 749 1.39252e-06
37 1132 1.12561e-05
37 2492 4.48403e-07
38 4 6.65834e-05
38 5 0.00011277
38 11 0.0313708
38 42 0.771084
38 48 2.82589e-06
38 255 0.0179417
38 503 0.125597
38 701 1.72188e-06
38 1447 0.0538012
38 1467 2.13729e-05
39 2 6.69923e-06
39 5 0.0292399
39 7 0.000268461
39 10 0.236031
39 16 0.0307833
39 30 1.99167e-07
39 44 0.69193
39 86 0.0117325
39 1285 6.8348e-06
39 3406 7.25876e-07
39 4322 1.61836e-07
40 5 1.86465e-06
40 7 5.1427e-07
40 8 0.060805
40 11 2.22324e-06
40 23 0.938833
40 70 7.60721e-06
40 912 3.90876e-07
40 4530 3.36232e-05
40 4623 0.000315727
41 2 1.72739e-05
41 3 0.00332875
41 4 4.99409e-06
41 5 0.139016
41 7 0.065139
41 8 4.37079e-06
41 10 0.0386541
41 11 0.00197452
41 12 0.149207
41 13 0.1271
41 16 0.323855
41 17 4.91258e-06
41 22 0.151675
41 48 1.72339e-05
41 66 1.21611e-06
41 140 4.61296e-07
42 2 1.30315e-05
42 3 0.000412548
42 4 0.0344561
42 5 0.26318
42 7 0.0879325
42 9 1.49214e-05
42 10 0.012637
42 11 2.62316e-06
42 12 0.103674
42 70 9.18444e-07
42 110 0.184815
42 198 0.198996
42 429 4.54993e-06
42 435 0.11369
42 1191 0.000151296
42 1376 1.89326e-05
43 2 2.65288e-06
43 3 0.434195
43 4 0.181624
43 5 0.000158703
43 7 0.193139
43 9 0.000335895
43 10 0.0772004
43 13 0.113344
43 210 5.20029e-07
44 2 1.63054e-07
44 4 2.84111e-05
44 9 6.55842e-07
44 10 0.0311946
44 11 9.18567e-05
44 20 2.63271e-06
44 37 0.0718412
44 50 0.880069
44 70 0.0136615
44 89 2.84962e-07
44 190 2.27193e-07
44 319 0.00296201
44 2358 0.000147175
45 2 6.46666e-05
45 3 4.60468e-07
45 4 0.109558
45 5 8.7495e-05
45 7 0.220476
45 8 0.225406
45 9 0.210944
45 10 0.0226617
45 17 0.21047
45 22 0.000331389
46 37 0.0490757
46 60 4.37986e-07
46 77 0.000106537
46 83 0.01639
46 101 0.622932
46 154 0.311467
46 723 2.8186e-05
47 2 1.29266e-05
47 3 0.163222
47 4 0.000311686
47 5 9.22186e-05
47 8 6.21171e-05
47 9 0.000148895
47 12 0.209104
47 22 0.000225895
47 31 0.0521091
47 90 0.0100055
47 128 1.26011e-05
47 266 0.564557
47 764 9.85029e-07
47 2491 0.000131897
47 4229 3.28588e-06
48 4 4.75774e-05
48 16 2.07717e-07
48 40 0.99995
48 1054 2.66398e-06
49 5 1.57799e-05
49 15 1.89963e-06
49 34 9.86265e-07
49 65 0.999973
49 297 2.48457e-07
49 331 2.17355e-06
49 1646 6.21625e-07
49 4502 4.95536e-06
50 2 0.115258
50 4 0.06384
50 5 0.482793
50 9 1.88639e-06
50 10 0.0644633
50 13 0.0816171
50 31 1.42886e-05
50 159 3.1207e-06
50 334 9.3206e-07
50 515 0.191986
50 2164 2.27466e-05
51 2 0.147795
51 3 9.70851e-06
51 5 2.36412e-06
51 7 2.15937e-06
51 12 0.0543578
51 15 6.11653e-06
51 16 0.0323313
51 20 4.86274e-06
51 150 0.671349
51 591 0.000742003
51 801 0.0624483
51 939 0.0309083
51 2229 2.71767e-05
51 2230 4.1852e-07
51 3232 1.51811e-05
52 7 0.000235185
52 8 0.0126885
52 15 2.20328e-06
52 83 0.473801
52 178 0.335611
52 482 0.118433
52 724 1.12543e-06
52 1341 0.0394832
52 1350 3.01817e-07
52 1603 0.0197416
52 3518 4.25574e-07
52 4085 2.38736e-06
53 4 2.98813e-06
53 10 2.12118e-07
53 18 2.94614e-07
53 26 5.77597e-05
53 45 0.888821
53 57 0.111103
53 78 1.49125e-05
54 2 0.0215993
54 3 3.88692e-05
54 4 0.000221818
54 5 0.104749
54 7 0.117705
54 8 0.208958
54 9 8.6915e-06
54 10 1.23282e-06
54 13 0.0828821
54 16 0.397823
54 18 7.13645e-07
54 41 0.0659274
54 87 6.10087e-05
54 124 2.23748e-07
54 227 1.82492e-05
54 354 2.04181e-06
54 1897 4.02154e-07
54 2267 4.4572e-07
54 3084 1.70789e-06
54 4118 8.41062e-07
55 3 5.9345e-06
55 4 0.0533296
55 5 0.179773
55 7 2.54329e-06
55 8 0.138106
55 10 0.135187
55 20 2.03562e-06
55 22 3.02128e-07
55 23 0.116495
55 32 2.36623e-07
55 48 0.0938428
55 90 4.79668e-07
55 113 1.473e-06
55 314 6.90707e-07
55 318 0.211074
55 320 0.000115585
55 764 1.16252e-06
55 800 0.0251602
55 2317 0.023453
55 4095 0.0234482
56 3 0.00278774
56 5 0.0110264
56 7 0.413147
56 8 0.136717
56 10 0.114305
56 58 0.322012
56 728 6.69688e-07
56 2140 4.31088e-07
56 4139 3.13799e-06
57 4 0.00064253
57 9 1.91922e-05
57 11 2.19008e-05
57 13 6.4824e-06
57 57 0.999126
57 2239 0.000180881
57 2492 3.25551e-06
58 2 0.000316535
58 5 0.0029268
58 7 0.000253957
58 10 0.623679
58 140 2.85975e-07
58 219 0.372824
59 5 1.69753e-06
59 87 0.764672
59 224 0.156883
59 293 0.0784432
60 2 0.00157288
60 3 2.6104e-07
60 9 0.000264508
60 27 0.000896697
60 82 0.94862
60 88 0.0243312
60 1567 3.32103e-06
60 1682 3.28226e-07
60 3636 0.024311
61 3 0.044062
61 5 9.74325e-07
61 7 2.32953e-05
61 8 5.222e-06
61 9 4.6522e-07
61 10 7.68413e-07
61 21 0.000717057
61 81 0.0342215
61 178 8.0345e-05
61 220 0.106746
61 304 0.136992
61 339 0.239547
61 461 0.23955
61 974 0.102672
61 1191 0.0681358
61 1881 0.0272328
61 3295 1.14545e-05
62 26 1
63 12 0.0409058
63 17 1.53525e-06
63 22 2.17383e-07
63 23 2.70192e-07
63 76 0.93819
63 1608 5.35499e-05
63 4287 0.0208486
64 4 3.92811e-07
64 5 5.04971e-07
64 27 4.43126e-06
64 88 0.999807
64 149 0.000187726
65 2 0.20658
65 3 5.05408e-05
65 4 4.59318e-05
65 5 7.032e-07
65 9 0.0593853
65 17 0.0329447
65 18 3.59222e-07
65 49 0.510106
65 69 5.30515e-06
65 614 0.190083
65 4608 0.000798737
66 3 0.0133487
66 4 0.513337
66 5 0.00641398
66 13 0.0714694
66 20 0.395381
66 209 7.19135e-07
66 252 4.24353e-06
66 984 4.5504e-05
67 2 2.86476e-05
67 4 0.00142083
67 37 0.00378384
67 89 0.108146
67 99 0.757311
67 142 0.108124
67 409 0.0211785
67 572 2.42585e-06
67 2348 4.64821e-06
68 3 1.81442e-05
68 5 0.168936
68 7 1.49031e-05
68 30 0.0594544
68 90 0.256994
68 127 0.454728
68 320 0.0598495
68 835 4.1036e-06
69 11 0.0203929
69 38 0.979607
70 5 5.02455e-06
70 7 2.31082e-06
70 8 0.0332706
70 19 3.78833e-05
70 29 2.40287e-06
70 60 7.2108e-05
70 106 0.91436
70 323 0.0522492
71 5 0.000150797
71 8 0.0609921
71 12 7.52261e-05
71 18 0.0609519
71 23 2.90989e-07
71 63 2.1828e-07
71 80 3.0119e-07
71 98 0.755211
71 227 3.69211e-07
71 274 0.0614271
71 1666 0.0611911
72 3 0.0508316
72 4 0.253104
72 5 0.111212
72 7 0.138947
72 10 1.83317e-05
72 20 0.0284935
72 134 9.56162e-07
72 170 0.417367
72 676 2.69016e-07
72 789 4.59438e-06
72 1218 2.13274e-05
73 2 6.69236e-05
73 4 2.87155e-05
73 18 9.70382e-06
73 68 0.999704
73 572 3.56505e-06
73 4496 0.000187207
74 5 0.382676
74 30 0.441504
74 60 7.6152e-06
74 90 0.175812
75 2 9.83159e-07
75 3 0.000478159
75 5 0.0240822
75 7 0.568133
75 8 0.00931331
75 20 3.38335e-06
75 21 7.92052e-07
75 34 4.50127e-07
75 58 0.0759121
75 176 0.275728
75 243 0.0462053
75 436 1.78116e-05
75 835 5.19152e-07
75 1076 3.87835e-07
75 2163 0.000118455
75 2884 4.48471e-06
76 2 5.76477e-06
76 22 3.75449e-06
76 115 0.909082
76 1471 0.0909089
77 3 0.0191327
77 5 3.6275e-06
77 11 0.000648145
77 28 0.033856
77 54 0.946181
77 593 5.37885e-07
77 2472 0.000177518
78 3 3.47569e-06
78 4 0.0032831
78 5 9.28744e-05
78 6 0.0295344
78 7 0.0367274
78 8 0.0364389
78 9 0.146543
78 13 6.12292e-07
78 23 0.442095
78 60 1.38149e-06
78 100 5.04486e-07
78 354 0.235466
78 802 1.07649e-06
78 1361 0.0697261
78 2373 8.64661e-05
78 3346 3.30171e-07
79 2 0.0280321
79 4 0.00213713
79 8 4.11871e-06
79 9 0.062132
79 11 2.34798e-05
79 16 2.46888e-05
79 43 0.145331
79 155 0.754251
79 274 3.29298e-07
79 1637 0.00668671
79 2398 0.000215046
79 4362 0.00116191
80 8 1.37906e-05
80 12 4.49783e-05
80 18 0.0246598
80 77 0.975278
80 91 9.28481e-07
80 203 4.62092e-07
80 223 1.56479e-06
81 2 0.00185531
81 3 2.6932e-06
81 4 0.144119
81 5 0.144619
81 7 1.1617e-06
81 8 7.23635e-07
81 9 1.90109e-05
81 15 1.27428e-05
81 22 0.0912747
81 85 0.0642184
81 180 1.24986e-06
81 206 0.0554085
81 378 0.49841
81 2229 5.66183e-05
82 36 0.996254
82 3180 0.00374601
83 3 3.89013e-06
83 4 0.262456
83 5 0.28333
83 8 0.0995105
83 9 0.119176
83 10 0.092051
83 13 0.0944759
83 17 0.0489888
83 534 2.48701e-07
83 1288 8.05014e-06
84 3 0.000529163
84 5 8.63548e-06
84 8 0.96635
84 11 0.000261577
84 17 0.0325183
84 18 1.47944e-05
84 60 1.21383e-05
84 111 3.54534e-07
84 181 0.000303749
84 704 8.32437e-07
84 1416 8.03376e-07
85 2 0.0275818
85 5 0.000248243
85 7 0.434818
85 8 0.324936
85 9 0.134562
85 23 0.0777863
85 1350 6.42834e-05
85 1881 3.47313e-06
86 3 0.527896
86 4 0.00101613
86 5 9.10173e-05
86 7 0.277871
86 8 0.000908302
86 12 0.000109461
86 20 0.116105
86 23 0.0380058
86 34 0.0379729
86 176 4.35607e-07
86 1218 6.29377e-06
86 4321 1.85617e-05
87 27 1
88 27 0.0760624
88 35 0.923938
89 2 9.66909e-06
89 7 5.94341e-06
89 11 0.0704523
89 52 0.911302
89 300 7.11846e-07
89 1637 0.0182294
90 2 0.00560839
90 7 1.72905e-05
90 8 0.00289941
90 9 0.161431
90 11 0.00034079
90 12 5.12053e-06
90 20 4.91179e-07
90 70 1.59255e-05
90 109 0.812508
90 246 4.74656e-07
90 436 1.72018e-05
90 879 6.40776e-07
90 2193 1.204e-05
90 3850 0.0171427
91 3 2.3462e-06
91 8 2.97107e-06
91 10 0.00364883
91 17 2.17324e-05
91 18 1.14314e-06
91 22 0.138724
91 34 0.41843
91 37 0.0631165
91 44 3.58378e-07
91 46 3.01536e-05
91 47 0.000138492
91 49 0.13667
91 354 2.9267e-05
91 370 3.66002e-06
91 477 0.136667
91 740 3.71388e-07
91 953 1.26386e-05
91 1686 0.1025
92 3 9.40939e-07
92 4 0.340537
92 5 0.0573169
92 10 0.000158877
92 30 0.265641
92 332 0.336342
92 961 7.97998e-07
92 1157 6.81531e-07
92 1485 1.09344e-06
93 2 1.5536e-05
93 3 0.0380645
93 5 0.379106
93 8 1.26497e-05
93 23 1.80595e-06
93 86 0.582791
93 3956 8.55002e-06
94 3 0.138562
94 7 0.216488
94 8 0.34448
94 17 0.200516
94 69 0.0999533
94 1604 1.68509e-06
95 2 0.158318
95 3 1.50861e-05
95 4 0.000790453
95 5 0.000130575
95 7 4.54428e-05
95 11 8.62023e-05
95 17 0.0420186
95 20 0.0429917
95 22 4.53521e-07
95 30 2.41778e-05
95 31 0.0426545
95 61 0.0424384
95 66 2.20063e-06
95 70 0.00226277
95 110 0.294058
95 176 0.0420195
95 226 0.126045
95 274 0.0420016
95 300 6.6525e-07
95 418 0.122085
95 1659 0.0420016
95 2329 8.82511e-06
95 4208 1.50735e-06
96 7 8.94943e-07
96 13 0.0691023
96 79 0.115756
96 91 0.000286614
96 113 0.62526
96 127 0.023414
96 176 0.0744634
96 181 2.82841e-05
96 190 0.00058692
96 223 4.60795e-07
96 333 1.63302e-05
96 545 3.15726e-06
96 835 0.09107
96 1153 4.61622e-06
96 1551 7.69529e-06
97 4 1.40438e-06
97 84 0.999999
98 5 3.65758e-06
98 24 0.928519
98 29 1.04904e-05
98 77 3.61741e-05
98 83 5.78886e-07
98 1176 0.0714296
99 2 1.21717e-05
99 8 0.0350719
99 12 0.034644
99 17 4.94878e-05
99 34 0.0344729
99 94 0.205769
99 257 0.137674
99 258 0.000110799
99 291 0.447926
99 686 0.104057
99 1630 0.000214033
100 94 0.909087
100 686 0.0909087
100 3556 4.64432e-06
101 4 0.260302
101 5 0.266874
101 8 0.0357827
101 10 0.113544
101 12 1.27171e-05
101 13 0.0711939
101 17 0.106381
101 22 0.140634
101 28 0.00527489
102 3 0.449417
102 4 0.0518488
102 5 1.53483e-05
102 7 0.227981
102 8 0.111215
102 9 0.0489309
102 12 7.12244e-06
102 17 6.28629e-06
102 30 0.108489
102 31 4.78334e-06
102 220 0.000824911
102 1026 7.60614e-07
102 1345 0.00125559
102 3689 3.6012e-06
103 2 0.00151223
103 5 1.17527e-05
103 8 1.91883e-06
103 10 0.00101529
103 11 1.18929e-06
103 22 0.0634736
103 32 5.67508e-07
103 132 0.93287
103 245 0.000704176
103 2199 0.000408927
104 3 1.96549e-06
104 11 4.85239e-06
104 38 7.69215e-07
104 160 0.418545
104 186 0.581447
105 2 0.0615658
105 69 0.439285
105 78 0.499148
105 354 3.70515e-07
106 3 0.497817
106 4 4.48245e-05
106 5 0.0504955
106 7 0.292328
106 8 1.08927e-05
106 9 4.28099e-07
106 13 6.03781e-05
106 16 0.114329
106 22 0.0448823
106 69 2.85078e-05
106 234 3.61852e-06
107 2 0.0386133
107 5 3.18956e-07
107 53 4.56821e-05
107 125 0.961341
108 3 0.405092
108 4 0.00327245
108 5 0.0504173
108 7 0.2384
108 8 0.12289
108 13 0.000895975
108 17 0.118468
108 22 0.00152046
108 73 6.62127e-06
108 476 0.0590364
108 1997 6.44525e-07
109 4 0.00084944
109 8 0.000201208
109 46 4.13896e-07
109 128 0.998905
109 134 4.21213e-07
109 168 4.36168e-05
110 2 0.0549945
110 3 2.93618e-06
110 4 0.0247965
110 5 5.05653e-07
110 11 0.0922084
110 13 0.100644
110 18 0.000367075
110 201 0.438903
110 340 0.0403912
110 520 0.0548436
110 521 0.192848
111 4 0.000274555
111 5 8.58008e-05
111 9 0.0831367
111 10 4.78358e-07
111 50 0.00336144
111 100 6.46527e-07
111 121 0.913139
111 231 9.74129e-07
112 64 0.873191
112 177 0.0935579
112 604 0.0311779
112 2498 0.00207315
113 8 1.70559e-06
113 53 0.0859723
113 126 0.914024
113 3497 2.21807e-06
114 8 0.34003
114 69 0.0468331
114 270 0.472604
114 1291 0.109062
114 2508 0.0314707
115 2 8.90461e-05
115 3 1.14582e-06
115 4 0.184759
115 5 1.30457e-06
115 12 0.384564
115 34 0.430561
115 49 2.34835e-05
115 4166 8.54146e-07
115 4188 3.86814e-07
116 4 0.0042454
116 43 0.00071833
116 161 0.995036
117 4 0.0538645
117 13 0.000660851
117 111 0.0472673
117 188 0.898179
117 572 1.57597e-06
117 2108 2.31238e-05
117 3688 3.70049e-06
118 9 7.50071e-07
118 10 1.2897e-06
118 96 0.996691
118 304 0.00330683
119 3 0.0251671
119 4 5.55355e-07
119 5 2.87539e-05
119 8 0.000238842
119 10 0.252898
119 17 4.06311e-05
119 23 6.10537e-07
119 34 0.00575153
119 37 0.0794721
119 49 0.238411
119 69 3.16507e-05
119 73 0.0403424
119 386 0.238411
119 477 0.119205
119 2034 4.66477e-07
120 13 0.000666425
120 48 0.0112467
120 122 0.98795
120 334 0.000136637
121 2 1.43463e-06
121 3 2.47484e-05
121 4 0.139274
121 5 0.135117
121 7 0.17873
121 13 6.88106e-06
121 22 0.177659
121 48 0.307641
121 85 0.0615456
122 5 1.56993e-05
122 74 0.962989
122 311 0.036995
123 4 0.00245031
123 5 0.000746064
123 7 0.131895
123 11 7.3048e-06
123 12 0.090457
123 30 0.184982
123 163 0.523815
123 190 0.0650526
123 961 9.78535e-07
123 984 4.94334e-05
123 3682 0.000164016
123 4362 0.000380738
124 2 0.000247452
124 3 0.241935
124 4 0.455862
124 7 0.176766
124 10 0.000146433
124 23 0.122632
124 477 0.00235472
124 704 3.17708e-06
124 818 5.43284e-05
125 3 4.42527e-05
125 4 0.219687
125 5 0.000823335
125 7 0.33857
125 8 5.54982e-06
125 10 2.52088e-05
125 12 0.00622736
125 22 1.85352e-06
125 31 0.0454111
125 70 0.0892355
125 181 0.120769
125 319 0.00247271
125 874 0.0441559
125 979 0.132482
125 1983 4.58989e-07
125 2358 7.095e-05
125 3296 1.78992e-05
126 8 9.35259e-06
126 81 0.0070411
126 113 5.50438e-07
126 130 0.992941
126 1523 5.46955e-06
126 2899 2.35137e-06
127 2 0.000114154
127 3 0.393777
127 4 0.000275218
127 5 0.0857827
127 7 0.421682
127 43 3.12546e-06
127 104 1.9571e-06
127 252 0.0983638
128 2 4.64488e-06
128 149 0.858586
128 625 0.0700805
128 1569 0.0713285
129 3 2.78835e-05
129 4 3.64908e-05
129 7 0.0192673
129 9 4.36094e-05
129 10 0.0103246
129 13 3.37744e-05
129 30 0.000704643
129 50 0.000353044
129 111 5.38763e-05
129 176 0.122091
129 223 0.584291
129 268 0.259749
129 2023 0.00302318
130 2 0.000195914
130 3 0.252329
130 4 0.04266
130 5 0.00236857
130 7 0.238134
130 8 0.121877
130 9 0.177201
130 11 9.79373e-07
130 13 0.000365196
130 17 4.47298e-06
130 28 0.000425771
130 31 0.164437
130 1407 9.72014e-07
131 35 0.033328
131 47 0.966653
131 2505 1.88429e-05
132 4 0.000303516
132 5 8.24679e-05
132 80 1.56706e-06
132 131 0.999275
132 1882 0.000333748
132 3118 8.25306e-07
132 3162 2.77585e-06
133 2 0.00250481
133 7 4.03612e-06
133 70 0.000171717
133 99 0.111161
133 142 0.81529
133 180 0.0708688
134 3 0.0032595
134 4 0.0416207
134 54 0.813618
134 562 0.141502
135 5 1.7236e-06
135 53 5.97223e-05
135 90 1.01687e-06
135 183 0.746172
135 809 0.251935
135 1567 0.00183043
136 3 0.0469675
136 7 0.00356188
136 10 0.0586583
136 79 0.346465
136 111 0.0599547
136 184 0.484285
136 2775 0.000108466
137 2 0.0121359
137 30 0.0403373
137 43 0.0435344
137 48 0.260247
137 222 1.59049e-05
137 228 0.64373
138 5 0.195028
138 7 2.01284e-05
138 8 0.400197
138 20 2.63485e-06
138 79 6.56101e-07
138 338 0.404717
138 2884 3.08857e-05
138 3871 2.73983e-06
139 4 1.78206e-05
139 138 0.85779
139 190 0.0348878
139 975 0.0715365
139 3838 0.0357682
140 3 0.382181
140 7 1.19326e-06
140 8 0.000409533
140 9 0.00175001
140 10 0.103742
140 11 0.0416015
140 31 0.000391156
140 66 1.81122e-06
140 207 0.0431605
140 246 0.424816
140 250 9.6175e-07
140 429 0.000298176
140 912 6.78601e-05
140 1340 0.000125301
140 1341 0.00145291
141 8 0.0768062
141 11 1.13769e-05
141 22 0.0359083
141 212 0.214559
141 300 0.142992
141 301 0.315234
141 311 5.36114e-07
141 766 0.107244
141 1160 0.107244
142 4 0.000177074
142 8 0.134848
142 17 0.0573183
142 21 0.248112
142 22 3.2275e-07
142 31 8.37992e-07
142 60 0.0734535
142 75 9.48307e-07
142 81 0.0273666
142 144 0.458527
142 234 2.78187e-07
142 241 4.02336e-07
142 1506 0.000188213
142 3654 5.1417e-06
142 3695 5.89543e-07
143 4 0.000102556
143 11 0.0429193
143 175 0.956956
143 2370 2.21804e-05
144 3 0.253603
144 4 2.84547e-05
144 5 0.349804
144 7 1.0193e-06
144 8 0.0219421
144 11 2.76028e-05
144 16 0.258284
144 20 9.04964e-07
144 59 6.4405e-06
144 66 0.000226586
144 181 0.116076
145 2 1.80539e-05
145 3 2.77956e-05
145 4 0.0296723
145 5 0.101987
145 7 0.058052
145 8 0.535762
145 10 1.15322e-06
145 16 0.0299478
145 17 0.1172
145 22 4.66676e-07
145 109 0.0652713
145 764 0.00335255
145 1322 3.35806e-07
145 2353 0.0587071
146 2 0.0125592
146 5 0.0337352
146 7 0.0475547
146 8 0.743901
146 9 0.00109789
146 10 0.0813237
146 16 2.16966e-06
146 41 0.0399161
146 74 0.0399099
147 3 8.06379e-07
147 5 0.000169825
147 13 0.0477562
147 37 0.14258
147 49 0.5243
147 73 0.0950532
147 200 2.52541e-06
147 1173 0.190106
147 1882 3.10655e-05
148 3 0.0418373
148 4 2.50288e-05
148 5 2.97885e-05
148 7 0.296271
148 8 0.00615571
148 10 1.6307e-05
148 12 0.0969439
148 13 0.2333
148 17 0.00190606
148 18 0.274616
148 140 4.95187e-07
148 350 0.0484548
148 928 0.00044314
148 3723 7.57711e-07
149 2 4.34002e-05
149 7 9.10534e-05
149 10 4.37794e-06
149 143 0.999861
150 118 0.0282453
150 200 0.739815
150 1179 0.11596
150 1496 0.115975
150 1535 4.9212e-06
151 139 1
152 3 0.00125286
152 4 0.188563
152 5 2.95461e-06
152 9 0.32813
152 12 0.0012808
152 16 5.66333e-07
152 64 0.112373
152 168 6.77316e-06
152 429 0.149646
152 668 0.218703
152 4120 4.09481e-05
153 5 8.15145e-05
153 37 0.00379629
153 114 0.996122
154 2 0.119191
154 5 1.98713e-06
154 7 2.65961e-05
154 10 0.125958
154 197 0.705788
154 1009 0.0490349
155 7 0.000166173
155 8 0.191792
155 37 7.99266e-07
155 165 0.808041
156 3 0.0617634
156 5 0.339133
156 11 0.00750789
156 30 0.129733
156 32 0.0529493
156 37 1.0423e-06
156 90 0.302886
156 113 0.106003
156 320 1.77886e-05
156 1966 9.95311e-07
156 4362 5.03671e-06
157 3 0.01285
157 5 0.00582958
157 7 0.0770509
157 8 0.0645902
157 9 0.000118827
157 10 0.0756085
157 416 0.362822
157 762 0.201597
157 943 0.0785739
157 1488 0.120958
158 7 0.0390355
158 22 0.647664
158 31 0.039095
158 624 0.234543
158 1345 6.42389e-07
158 2175 0.0396623
159 2 0.00762923
159 5 0.305398
159 9 0.172882
159 10 2.5051e-06
159 16 1.79098e-06
159 30 3.443e-07
159 72 0.514087
160 5 0.161497
160 9 0.000253498
160 10 0.211661
160 66 9.3737e-07
160 72 0.626587
160 363 4.95117e-07
160 2749 5.27229e-07
161 4 0.00237355
161 7 0.00011483
161 10 0.111933
161 11 2.23439e-06
161 80 7.83547e-07
161 210 0.885575
162 2 6.07299e-05
162 3 0.0645259
162 4 0.000147989
162 5 6.93428e-07
162 7 2.52863e-05
162 86 0.00500598
162 260 0.756545
162 764 6.16716e-05
162 921 0.000208592
162 1973 0.115612
162 3796 0.0578059
163 3 0.000487352
163 7 0.398178
163 8 0.342961
163 11 0.000104533
163 31 3.17952e-05
163 938 0.215011
163 1067 0.0432109
163 1540 1.61311e-05
164 151 0.999967
164 1175 3.26351e-05
165 4 0.0803395
165 5 0.00154223
165 7 0.201586
165 10 1.34933e-05
165 13 0.06407
165 16 0.448912
165 17 0.00315364
165 22 3.59041e-05
165 93 0.128218
165 132 1.53097e-06
165 221 0.0703205
165 737 0.00180739
166 3 0.0471944
166 5 0.155912
166 7 5.35302e-06
166 8 0.151771
166 12 0.20276
166 23 7.5357e-06
166 34 0.236902
166 60 0.0791734
166 81 1.41292e-06
166 166 0.126273
167 8 1.77411e-05
167 10 1.86643e-06
167 360 0.611302
167 364 7.74371e-07
167 715 0.27762
167 897 0.0555241
167 1067 9.38443e-06
167 2005 0.0555241
168 4 0.00376934
168 8 0.00025691
168 11 0.408833
168 13 0.0456011
168 85 2.04947e-05
168 324 0.413164
168 396 0.0375465
168 736 0.0454052
168 1204 0.0454037
168 4577 5.02757e-07
169 299 0.545423
169 612 1.05035e-05
169 764 0.227271
169 765 0.227294
169 1499 8.0473e-07
170 2 0.207785
170 3 0.123015
170 4 0.00023598
170 5 0.065858
170 7 1.39277e-05
170 8 2.58045e-06
170 10 0.213209
170 17 0.333532
170 84 6.27558e-07
170 593 1.4072e-06
170 742 0.0555986
170 984 9.25178e-05
170 4550 0.000656016
171 5 0.000536323
171 8 0.193372
171 17 0.0476579
171 18 0.0475544
171 31 0.0458203
171 187 0.0950957
171 361 0.332852
171 531 1.09086e-06
171 812 0.237105
171 1828 1.21056e-06
171 2854 3.27491e-06
172 9 0.041252
172 10 4.11973e-06
172 12 0.0118401
172 22 0.0954638
172 81 0.134438
172 213 0.717002
173 5 1.46292e-06
173 8 0.231687
173 9 0.0756193
173 12 0.0406241
173 18 0.0772265
173 86 0.536519
173 1025 0.0383226
174 4 5.41282e-06
174 5 5.04927e-06
174 8 0.191934
174 12 0.0779238
174 17 0.153652
174 60 1.89653e-06
174 152 8.1629e-07
174 220 0.0384269
174 274 8.09803e-05
174 509 0.0768484
174 535 0.307411
174 581 0.153708
174 1542 9.22766e-07
175 2 0.000717492
175 7 1.20219e-06
175 35 0.272457
175 204 0.121131
175 473 0.605693
175 4587 6.15563e-07
176 3 0.059511
176 4 0.0887931
176 5 0.082169
176 7 0.453596
176 8 0.000776085
176 10 4.70324e-06
176 13 1.47032e-06
176 189 3.27157e-05
176 222 9.48589e-07
176 572 0.0630227
176 1206 0.252093
177 8 0.0505368
177 10 0.000599762
177 16 0.2457
177 18 0.0352807
177 29 0.0449366
177 61 5.18108e-06
177 146 0.084159
177 196 0.331342
177 259 6.64904e-05
177 724 0.207373
178 2 0.00230402
178 3 0.0520668
178 4 6.51631e-06
178 5 0.136426
178 7 0.0638536
178 8 0.0560767
178 9 0.0578561
178 13 0.177205
178 17 0.193984
178 58 0.000964966
178 116 0.12962
178 256 0.129637
179 95 0.89566
179 2341 0.0627777
179 3679 0.041562
180 4 0.000254692
180 9 1.49017e-06
180 12 1.70082e-05
180 15 4.04868e-05
180 107 0.00908884
180 164 0.990594
180 642 3.24164e-06
181 2 0.0343561
181 4 2.98491e-05
181 7 1.57079e-05
181 15 0.000136507
181 17 0.162366
181 190 0.0538801
181 508 0.484415
181 509 0.0538244
181 1251 0.120392
181 1593 0.0538013
181 2069 0.036783
182 32 0.0787478
182 137 0.921252
183 2 0.15212
183 337 0.296756
183 585 0.296761
183 783 0.084788
183 971 0.169575
184 17 0.0424926
184 107 9.26259e-07
184 179 0.896729
184 1824 0.0607778
185 141 1
186 8 1.14067e-05
186 12 0.00191693
186 64 0.747787
186 123 0.00102176
186 177 0.249263
187 26 0.0394871
187 156 0.960513
188 4 3.60807e-06
188 7 2.14352e-06
188 8 0.180575
188 9 0.363533
188 20 0.178173
188 285 0.181139
188 1938 0.0965742
189 4 0.0920824
189 5 3.65117e-06
189 10 4.24508e-05
189 61 0.0475483
189 290 0.66914
189 418 0.0477957
189 1627 0.0955915
189 1878 0.0477957
190 9 4.79506e-05
190 20 0.0372252
190 25 7.64965e-07
190 45 0.12061
190 60 0.0402956
190 119 0.681553
190 756 0.120268
191 15 0.000635782
191 71 0.886326
191 224 0.113039
192 5 0.0716754
192 15 0.0660689
192 18 0.0656619
192 36 6.83972e-07
192 397 0.132139
192 403 0.660689
192 921 0.00096252
192 1848 0.00280329
193 2 0.0740304
193 4 0.267137
193 5 0.218515
193 309 1.80554e-05
193 373 0.392866
193 886 0.0474336
194 171 1
195 4 1.11932e-05
195 12 2.20485e-05
195 247 0.940014
195 259 7.74313e-07
195 1054 0.0599519
196 3 0.0547447
196 18 0.052279
196 25 0.445629
196 62 0.113122
196 479 0.334225
197 5 7.64761e-05
197 13 1.17632e-05
197 174 0.68415
197 187 0.0526269
197 1199 0.210508
197 3981 0.0526269
198 2 0.0493634
198 4 4.79522e-06
198 5 0.000156556
198 8 4.7143e-06
198 20 6.98671e-07
198 382 0.757605
198 514 8.20334e-06
198 1018 0.192847
198 1215 9.83795e-06
199 145 1
200 2 2.57407e-05
200 3 0.426503
200 287 0.573471
201 5 0.00512546
201 9 7.65909e-06
201 48 2.3456e-06
201 308 0.718513
201 483 0.276351
202 9 0.147841
202 23 0.0315673
202 111 0.410225
202 169 0.41028
202 227 9.81818e-07
202 3677 8.56126e-05
203 5 0.200652
203 7 2.84933e-06
203 10 0.104376
203 11 0.10521
203 632 0.589759
204 116 1
205 4 0.0501708
205 5 1.33675e-05
205 8 7.23067e-06
205 9 1.54101e-05
205 17 0.494793
205 75 0.275043
205 85 5.0456e-07
205 221 0.179874
205 286 8.15318e-05
205 1022 5.41813e-07
206 9 2.87194e-06
206 62 0.000648866
206 239 0.841581
206 578 0.157768
207 4 0.000118651
207 21 0.0695973
207 166 0.0141442
207 226 0.913698
207 372 0.00131946
207 2329 0.00112238
208 2 0.00185154
208 4 0.000200785
208 5 0.0317942
208 8 1.74049e-05
208 9 0.000502529
208 12 0.239836
208 28 0.0432251
208 30 0.0795893
208 37 0.000155521
208 191 0.557199
208 345 0.0404441
208 593 1.40981e-05
208 977 9.73294e-06
208 1838 0.0051604
209 4 7.06129e-05
209 8 4.26208e-06
209 12 1.39316e-05
209 194 0.999911
210 4 0.000164728
210 20 0.362562
210 64 0.187428
210 163 0.000338471
210 177 0.312511
210 246 0.000356909
210 477 0.0116317
210 1228 3.52476e-06
210 1288 0.125004
211 4 0.000195094
211 45 0.132693
211 397 1.78338e-05
211 430 0.73291
211 788 0.0675564
211 4453 0.0666282
212 2 0.00207206
212 4 0.00059345
212 7 1.80537e-05
212 56 9.63504e-05
212 309 0.352497
212 407 0.411672
212 465 0.058774
212 886 0.174277
213 5 3.04199e-06
213 7 0.0630144
213 8 5.46126e-05
213 29 1.14545e-05
213 78 0.499688
213 425 0.437227
213 1481 6.29028e-07
214 2 0.00111283
214 3 1.92099e-05
214 8 0.000368961
214 12 0.000146957
214 13 0.00585078
214 64 0.000980581
214 93 0.233089
214 402 0.530921
214 872 1.4672e-05
214 1437 0.151394
214 2482 0.0756971
214 3291 0.000337531
214 3296 6.81323e-05
215 3 0.0501221
215 8 0.000659652
215 11 0.000490678
215 289 0.88548
215 909 0.0632473
216 4 0.0878264
216 5 5.72434e-07
216 8 0.000347328
216 48 6.65394e-07
216 59 0.047308
216 274 0.0959025
216 441 0.431561
216 565 0.335659
216 921 0.00139421
217 11 0.0575894
217 14 0.0613439
217 253 0.881067
218 2 0.113048
218 307 0.776083
218 1472 0.110869
219 11 1.36453e-05
219 180 0.00343926
219 576 0.498273
219 577 0.498274
220 2 3.49293e-06
220 3 7.59909e-07
220 4 5.6249e-06
220 7 0.00194053
220 8 4.12544e-06
220 10 1.40039e-06
220 60 0.358971
220 134 2.06968e-06
220 166 0.562122
220 168 0.0018106
220 340 0.00309796
220 1169 4.5434e-05
220 3377 0.0718299
220 3658 0.000165208
221 214 1
222 2 5.80201e-05
222 7 0.228805
222 60 0.0775328
222 460 0.46647
222 960 0.0774505
222 1182 0.140261
222 1632 0.00942194
223 336 0.722229
223 602 0.277771
224 3 0.531648
224 5 0.000285262
224 7 0.23715
224 32 0.0769714
224 2487 0.0769727
224 3436 0.0769727
225 4 0.00128981
225 5 0.176746
225 7 0.0925428
225 10 0.265781
225 12 9.08165e-07
225 23 0.0201823
225 75 5.0383e-05
225 1265 0.355067
225 4321 0.000824463
225 4446 0.0875156
226 4 4.11649e-05
226 7 0.0757378
226 13 0.138729
226 22 0.065085
226 345 0.209312
226 534 0.383288
226 1392 0.127761
226 4018 4.63846e-05
227 2 1.08086e-06
227 9 0.0133723
227 123 5.79103e-07
227 232 0.781502
227 1102 0.106054
227 3778 0.0491217
227 4104 0.049948
228 3 0.166154
228 4 6.11341e-06
228 7 0.00301842
228 8 2.13186e-05
228 9 4.6368e-05
228 13 0.203855
228 16 2.26707e-05
228 29 0.000107052
228 41 1.0133e-05
228 330 2.10733e-06
228 352 9.18152e-07
228 810 0.281504
228 1234 0.070437
228 2333 0.0622777
228 2334 0.140893
228 2335 1.34228e-05
228 2336 0.0716293
229 217 1
230 32 0.00236217
230 87 0.100169
230 385 0.599682
230 1015 0.249867
230 4420 0.0479191
231 48 8.62882e-05
231 238 0.999914
232 18 0.0665904
232 258 0.93341
233 4 7.4985e-05
233 12 0.10725
233 17 0.052521
233 136 0.105008
233 276 0.735126
233 704 2.02872e-05
234 4 4.31255e-06
234 5 6.12519e-05
234 10 2.21504e-06
234 70 0.117709
234 281 0.882223
234 298 9.3502e-07
235 8 5.49179e-05
235 16 0.130289
235 18 0.131265
235 30 2.58315e-05
235 34 4.58546e-07
235 41 0.130297
235 167 3.19007e-06
235 216 0.608064
236 2 0.0042519
236 10 0.0983975
236 16 0.180277
236 29 9.62423e-07
236 34 0.447233
236 250 0.26984
237 4 0.015661
237 10 5.17589e-06
237 11 0.000130415
237 13 0.0957508
237 16 0.119832
237 20 0.0108612
237 41 7.86476e-07
237 61 7.64763e-07
237 89 0.0584654
237 168 0.0579648
237 303 0.52448
237 945 0.116846
237 2170 2.09214e-06
238 182 0.000354288
238 202 0.947034
238 1385 0.0526122
239 2 0.00399246
239 10 4.63049e-06
239 28 0.000153635
239 34 0.0950978
239 48 0.140276
239 159 0.00415635
239 160 0.143918
239 186 0.141316
239 260 3.21081e-05
239 347 9.4238e-07
239 381 0.423947
239 1581 0.0471053
240 2 1.05754e-05
240 22 0.149957
240 46 0.000210276
240 69 0.149974
240 285 0.699845
240 4629 2.43209e-06
241 105 1
242 10 0.107887
242 147 7.50999e-07
242 227 0.839635
242 4429 0.0524773
243 2 0.000144882
243 4 0.000900943
243 5 3.96242e-05
243 10 1.28503e-06
243 17 0.0580855
243 167 0.00202821
243 275 0.812013
243 606 0.124925
243 2034 0.00186036
243 2332 1.16446e-06
244 7 0.779064
244 10 0.0167207
244 28 1.00679e-05
244 58 0.109488
244 60 1.51513e-06
244 92 2.58885e-06
244 111 1.07464e-05
244 939 0.0946993
244 3119 3.10154e-06
245 118 0.649305
245 543 0.350695
246 2 0.000309239
246 5 7.77868e-06
246 8 0.00127927
246 10 5.78615e-06
246 553 0.338107
246 570 0.660291
247 4 0.15033
247 9 2.14815e-05
247 11 6.68162e-07
247 12 0.000182251
247 33 2.47653e-06
247 34 0.0607024
247 225 0.728085
247 1439 0.060674
247 4550 1.15682e-06
248 2 0.000956558
248 4 0.000533789
248 18 0.0863571
248 63 1.71558e-05
248 372 0.912135
249 4 8.46174e-06
249 282 0.954013
249 4088 0.0459782
250 4 0.000692819
250 8 1.51288e-06
250 34 0.221767
250 168 3.61111e-06
250 759 0.110996
250 825 0.664865
250 1265 8.99893e-05
250 4446 0.00158398
251 4 1.08345e-06
251 7 0.187296
251 29 0.0733517
251 449 0.665395
251 572 3.82661e-05
251 3709 0.0739175
252 5 0.000168203
252 66 0.0666514
252 374 0.666554
252 415 0.266625
252 912 1.30821e-06
253 2 5.18368e-06
253 4 5.01161e-05
253 18 1.02353e-06
253 181 0.0623109
253 190 1.7595e-06
253 193 0.937631
254 2 0.0194947
254 3 0.00178468
254 10 2.6291e-06
254 12 6.14392e-06
254 17 1.33255e-06
254 259 0.973597
254 304 0.0051115
254 1506 1.70916e-06
255 3 0.138864
255 4 0.000966138
255 5 0.264299
255 7 0.054554
255 10 0.226689
255 12 0.000103056
255 17 0.18538
255 31 0.0650987
255 32 0.0640395
255 69 1.11402e-06
255 4208 5.40863e-06
256 9 0.0164011
256 263 0.983585
256 1577 1.35648e-05
257 230 1
258 4 3.50747e-05
258 5 0.312375
258 13 4.0122e-05
258 32 1.16783e-06
258 420 0.171885
258 1196 0.34377
258 2485 0.0859426
258 3858 0.0859426
258 4310 8.46587e-06
259 100 1
260 3 0.937552
260 14 0.0624455
260 912 2.09943e-06
261 4 0.000455411
261 7 0.071724
261 20 0.0623335
261 203 0.28876
261 309 0.503936
261 407 0.0720557
261 456 0.000733243
261 4623 1.94526e-06
262 7 0.0681651
262 37 0.135918
262 49 0.679589
262 69 0.116329
263 173 0.466667
263 568 0.533333
264 248 0.998697
264 4323 0.00130352
265 254 1
266 240 1
267 29 8.80908e-06
267 79 0.121503
267 255 0.878488
268 2 2.28854e-05
268 9 0.0809317
268 46 0.0763769
268 760 0.458265
268 781 0.152755
268 976 0.229132
268 3180 0.00251624
269 2 1.58056e-05
269 5 6.326e-07
269 11 5.27972e-06
269 246 0.225891
269 252 0.000152526
269 283 0.773934
269 818 1.21626e-06
270 7 2.19296e-05
270 10 4.07293e-06
270 18 0.267231
270 41 0.140456
270 379 0.0542061
270 675 0.466874
270 1976 3.32e-06
270 2230 0.0712034
271 16 2.82585e-06
271 133 0.941173
271 182 0.0588234
271 1154 6.20306e-07
272 32 0.00342989
272 71 0.500148
272 205 0.496422
273 4 3.59668e-06
273 20 0.000251921
273 181 0.071424
273 190 2.32682e-05
273 606 0.214222
273 865 0.357037
273 1008 0.357036
273 1018 1.79064e-06
274 2 0.0736883
274 3 0.269792
274 7 0.330687
274 8 0.0651133
274 10 0.130623
274 27 0.0650483
274 789 0.0650483
275 13 0.00282767
275 273 0.924335
275 1274 0.0728378
276 2 2.66209e-06
276 3 0.072363
276 8 0.000325004
276 22 0.00792641
276 31 0.0703769
276 75 0.140867
276 80 6.76789e-05
276 89 0.00129283
276 206 0.0703761
276 486 0.56309
276 625 0.0733128
277 18 0.00384181
277 251 0.996158
278 17 6.76174e-07
278 367 0.797743
278 544 0.0692996
278 2437 0.132957
279 10 0.0735341
279 365 0.926466
280 2 8.65797e-05
280 8 0.000362929
280 10 2.00351e-06
280 108 0.292287
280 827 0.414611
280 892 0.195479
280 4414 0.0971716
281 4 0.00535714
281 640 0.632541
281 1439 0.0910126
281 2494 0.180726
281 4551 0.090363
282 5 0.000298563
282 53 0.0667168
282 54 0.0656712
282 250 3.03743e-06
282 329 0.867303
282 1000 7.15609e-06
283 280 0.999984
283 612 1.59615e-05
284 4 0.0033454
284 8 0.0560136
284 103 0.101356
284 119 0.783722
284 597 0.0555629
285 176 0.0717162
285 220 0.0679068
285 243 0.358184
285 863 0.286868
285 1345 0.000179499
285 1397 0.143429
285 1881 0.0717169
286 4 0.256435
286 5 0.0468743
286 7 4.75388e-06
286 28 0.104927
286 70 0.0535369
286 80 0.107921
286 513 0.429889
286 572 8.55694e-07
286 1081 6.56799e-07
286 4362 0.00040905
287 89 0.137817
287 188 0.000260412
287 346 0.861857
287 2249 6.54461e-05
288 22 0.0709518
288 173 0.929025
288 297 2.2861e-05
289 3 1.62983e-05
289 5 0.23627
289 32 0.0591245
289 294 0.704587
289 4072 2.49214e-06
290 327 0.785719
290 455 1.27126e-06
290 539 0.142851
290 3681 0.071429
291 3 1.03254e-05
291 7 1.62862e-05
291 16 0.0990297
291 61 0.0989888
291 152 0.767403
291 675 0.0345507
291 912 1.01418e-06
292 10 1.37242e-06
292 29 0.0989898
292 167 3.38289e-05
292 271 0.900975
293 153 1
294 8 0.231016
294 13 0.000124419
294 18 0.0769047
294 108 0.230652
294 590 0.230652
294 1377 0.230652
295 5 6.50674e-07
295 7 2.73698e-05
295 10 0.000237932
295 13 1.78908e-05
295 18 0.113845
295 30 0.164038
295 90 0.0600527
295 103 0.478406
295 509 0.0609558
295 1082 0.0619
295 1083 0.0605181
296 4 5.0311e-05
296 16 0.0528783
296 66 0.120204
296 89 0.0633466
296 366 0.760519
296 613 0.00300164
297 3 0.000372529
297 229 0.100414
297 427 0.599522
297 631 0.0998497
297 1089 0.199841
298 5 8.60744e-07
298 8 8.14807e-05
298 10 0.257566
298 60 0.164872
298 279 0.577204
298 1376 3.4614e-06
298 3106 0.000272734
299 2 0.000192157
299 5 0.0985557
299 8 0.357583
299 127 0.112308
299 243 0.107685
299 504 0.323675
299 835 1.1373e-06
300 5 0.0231048
300 8 1.45213e-05
300 243 0.494327
300 504 0.380792
300 835 0.101739
300 1081 2.18245e-05
301 3 0.0750984
301 4 0.0582804
301 8 2.31718e-05
301 12 0.0178074
301 20 0.279843
301 30 7.93182e-07
301 172 0.496594
301 330 0.0723522
302 11 0.158315
302 20 0.104961
302 59 0.0515329
302 89 0.103787
302 103 0.580661
302 136 1.06261e-05
302 545 0.00073165
303 4 0.0077474
303 5 0.000118734
303 8 0.100941
303 16 0.100256
303 455 0.698003
303 1587 0.0929342
304 2 0.000753584
304 3 2.22422e-05
304 4 0.000213207
304 5 3.80654e-05
304 7 0.0263506
304 12 0.192135
304 17 0.000396738
304 20 0.183477
304 586 0.52973
304 1205 0.000394963
304 1370 0.0662163
304 4550 7.15771e-07
304 4586 0.000271761
305 4 6.74477e-06
305 341 0.999469
305 842 0.000511747
305 1616 1.26871e-05
306 5 0.000300151
306 12 0.0515423
306 32 0.157416
306 159 0.0569496
306 195 0.733791
306 407 1.1648e-06
307 3 0.185064
307 5 0.0918592
307 7 0.201144
307 8 3.69935e-06
307 13 0.0905112
307 16 0.248312
307 22 0.0914453
307 41 0.000185097
307 64 0.0913819
307 146 9.46767e-05
308 28 0.0620808
308 90 1.08518e-05
308 297 0.937908
309 3 0.220628
309 7 0.162714
309 10 0.178762
309 93 0.0550626
309 234 0.0546861
309 410 0.273461
309 533 0.0546861
310 199 1
311 3 1.25038e-06
311 203 2.71865e-05
311 223 0.000422564
311 431 0.0759947
311 1000 0.0116179
311 1001 0.227984
311 1002 0.303979
311 1602 0.151989
311 1603 0.151989
311 4495 0.0759947
312 9 2.16933e-05
312 29 1.83948e-06
312 60 1.40217e-06
312 163 2.34857e-05
312 233 0.332179
312 426 0.66777
312 939 1.32896e-06
312 2483 1.38319e-06
313 2 0.102162
313 5 0.104944
313 7 5.07386e-05
313 8 0.493225
313 10 0.101069
313 1364 0.198547
313 2275 2.0321e-06
314 3 0.000407018
314 4 3.26872e-06
314 7 0.111167
314 8 0.234331
314 13 0.000565617
314 80 0.000166054
314 85 0.111098
314 165 0.111099
314 220 0.208934
314 335 0.111129
314 3976 0.111099
314 4147 1.47771e-06
315 13 0.00527867
315 32 5.07237e-06
315 116 0.271285
315 318 0.0452142
315 446 0.271287
315 639 0.316501
315 3101 0.0452144
315 4654 0.0452145
316 4 0.000825113
316 5 1.59277e-06
316 22 0.887905
316 650 0.111268
317 379 0.00626053
317 398 0.91092
317 1556 0.0828109
317 3648 8.16681e-06
318 267 0.866718
318 593 0.0666109
318 1642 0.0666708
319 211 1
320 2 9.93297e-05
320 5 0.0170985
320 8 1.28678e-06
320 9 0.351952
320 23 0.0888767
320 31 0.185703
320 937 0.267202
320 1135 0.0890674
321 5 0.0968002
321 371 0.9032
322 2 0.000169958
322 32 0.000661016
322 48 0.0665825
322 63 1.66952e-06
322 274 0.0665833
322 295 0.866002
323 4 7.23931e-06
323 10 0.0176342
323 29 0.0885834
323 412 0.893663
323 1897 0.00011246
324 331 0.916662
324 2096 0.0833382
325 3 4.08872e-05
325 5 1.56847e-05
325 8 0.000100059
325 17 3.83732e-05
325 23 0.18424
325 31 0.756922
325 2072 0.0586429
326 2 0.00588741
326 11 0.108139
326 18 0.111542
326 19 0.000705832
326 30 0.0552791
326 40 0.0552645
326 48 0.0552736
326 122 0.165793
326 324 0.0552645
326 671 0.276322
326 2084 0.110529
327 2 0.43054
327 3 1.35817e-06
327 4 1.74952e-06
327 286 0.0711881
327 676 0.213516
327 1289 0.213564
327 2239 0.0711882
328 192 0.80379
328 340 0.0622459
328 1812 0.133964
329 2 6.3088e-06
329 4 0.182129
329 8 0.103642
329 16 0.306985
329 23 0.000255456
329 58 0.101711
329 80 8.66262e-05
329 81 2.66706e-05
329 1185 0.305142
329 2509 1.6092e-05
330 3 5.68467e-06
330 4 0.000215162
330 7 0.264796
330 10 0.0924344
330 347 0.642549
331 3 0.000601476
331 7 0.793704
331 8 0.0224181
331 10 4.20224e-05
331 31 0.000175521
331 268 0.0914938
331 553 0.0914882
331 1341 7.65374e-05
332 3 0.000105261
332 5 0.331842
332 8 0.20588
332 9 2.21341e-05
332 30 0.0657204
332 79 0.000290898
332 252 0.0658814
332 734 0.131936
332 1549 0.132441
332 1599 0.0658814
333 66 0.0851184
333 421 0.914882
334 2 0.0789478
334 7 0.0153917
334 8 0.152518
334 152 0.527288
334 676 0.150707
334 3710 0.0751484
335 2 0.400084
335 5 0.000281624
335 8 0.301162
335 37 0.0991809
335 44 0.0991843
335 1084 0.100107
336 7 2.55084e-06
336 9 0.173988
336 13 0.106323
336 683 0.334632
336 824 0.334632
336 4552 0.0504233
337 32 0.0714134
337 42 0.0714311
337 218 0.857156
338 59 0.615385
338 62 0.384615
339 5 0.144249
339 94 0.0753999
339 433 0.706542
339 1605 0.0738091
340 162 1
341 18 0.00276136
341 93 1.87504e-06
341 561 0.797789
341 1854 0.199447
342 7 2.26573e-06
342 9 0.000162925
342 10 3.6921e-05
342 437 0.999798
343 3 9.89003e-06
343 368 0.99999
344 27 0.50001
344 92 0.49999
345 17 2.56437e-06
345 85 0.000186929
345 319 0.999811
346 66 0.0833336
346 498 0.499998
346 924 0.416668
347 296 1
348 135 1
349 5 0.000272732
349 413 0.999727
350 414 1
351 242 1
352 4 0.0132615
352 5 0.00147746
352 18 0.0885843
352 31 0.180033
352 69 0.176507
352 946 0.450114
352 3942 0.0900228
353 5 0.717375
353 8 0.0946072
353 23 0.000454628
353 31 0.093932
353 53 0.0936314
354 4 1.71578e-06
354 8 7.74478e-07
354 53 0.152286
354 107 0.15234
354 340 4.31032e-05
354 379 0.695328
355 117 1
356 4 0.00253721
356 5 0.282647
356 7 0.454783
356 10 0.0540127
356 13 0.000246933
356 23 7.58052e-06
356 93 0.205739
356 2972 2.6472e-05
357 2 5.14463e-05
357 3 0.0034698
357 601 0.331576
357 808 0.442101
357 1684 0.221051
357 2472 0.00175102
358 4 0.145029
358 66 1.01021e-06
358 267 7.42698e-07
358 475 0.659473
358 1016 0.0659475
358 1023 0.129548
359 2 0.00453709
359 3 1.61885e-06
359 4 0.00187041
359 383 0.993195
359 4190 0.00039562
360 315 1
361 24 0.499836
361 147 5.37245e-07
361 356 0.500163
362 24 0.476192
362 89 8.08247e-06
362 388 0.523798
362 789 1.22851e-06
363 62 0.499987
363 148 0.499989
363 2817 2.40159e-05
364 28 1.52689e-05
364 434 0.999985
365 2 0.00128182
365 3 0.530912
365 5 5.00101e-05
365 7 0.0259255
365 12 0.000348885
365 20 0.112989
365 30 0.215756
365 190 3.4464e-06
365 1614 0.112733
366 5 0.482051
366 13 0.114859
366 28 0.345048
366 31 0.0560991
366 86 0.00194217
366 212 7.1069e-07
367 23 6.31007e-06
367 60 0.0833285
367 323 0.749999
367 394 0.0833332
367 2496 0.083333
368 10 0.101552
368 727 0.401188
368 1009 0.396963
368 4484 0.100297
369 2 0.0845663
369 8 0.235122
369 13 0.0679437
369 41 0.0765492
369 146 0.0765458
369 728 0.459273
370 4 0.000420463
370 10 2.10289e-06
370 11 0.000138082
370 89 0.0907024
370 491 0.636115
370 1389 0.272621
370 2329 1.0813e-06
371 2 3.71405e-06
371 566 0.727272
371 1287 0.181814
371 1905 0.0909103
372 2 0.000333906
372 37 0.09088
372 442 0.908786
373 11 3.59288e-06
373 29 1.10315e-06
373 119 2.3917e-05
373 148 5.82422e-05
373 443 0.999913
374 4 0.356902
374 488 1.28073e-06
374 902 0.214366
374 1417 0.321548
374 3185 0.107183
375 2 4.95135e-06
375 4 8.58758e-05
375 7 0.011838
375 444 0.988067
375 758 4.11503e-06
376 4 1.26559e-06
376 9 0.354153
376 80 5.17867e-06
376 168 0.0921008
376 463 0.369337
376 2226 0.184403
377 236 1
378 5 1.93254e-05
378 8 7.12603e-05
378 17 0.195935
378 66 0.100426
378 135 1.28161e-06
378 225 1.04921e-06
378 1282 0.100515
378 1453 0.301483
378 2470 0.20103
378 4589 0.100518
379 2 0.00408097
379 3 0.488713
379 5 5.15713e-06
379 30 0.175777
379 32 0.00346761
379 266 0.327956
380 4 1.13198e-05
380 5 0.0547353
380 7 0.0739063
380 8 0.360492
380 13 0.0660386
380 17 0.000136734
380 18 0.250233
380 103 0.00570421
380 303 0.0624395
380 557 0.00252854
380 890 0.0609083
380 1387 3.70058e-05
380 2194 0.0609083
380 2949 0.00191819
380 3710 3.52238e-06
381 21 0.000911479
381 180 0.491784
381 207 0.0979472
381 328 0.00157666
381 1017 0.309879
381 1918 0.0979018
382 11 0.00023479
382 31 0.0908881
382 32 0.000514098
382 89 0.0902959
382 681 0.363553
382 867 0.45444
382 4152 7.42969e-05
383 257 0.666667
383 757 0.166667
383 2254 0.0833333
383 4238 0.0833333
384 2 0.113089
384 3 0.00911089
384 5 0.161239
384 7 0.000339249
384 22 0.119087
384 31 0.119087
384 37 6.98707e-06
384 947 0.00141966
384 1150 0.119361
384 1492 0.357261
385 4 0.00955451
385 8 0.000227425
385 107 0.227386
385 343 0.686549
385 1132 0.0762831
386 376 0.846154
386 2486 0.0769231
386 3820 0.0769231
387 2 0.232626
387 5 0.344048
387 11 0.000182449
387 12 0.326418
387 16 0.0967204
387 2269 5.43899e-06
388 656 0.699993
388 1174 0.299997
388 3688 8.34176e-06
388 4623 1.29771e-06
389 5 0.00271442
389 9 0.180248
389 13 0.269142
389 20 0.17906
389 70 0.0934343
389 90 0.0895715
389 546 0.000558782
389 944 0.0956943
389 2404 0.0895766
390 60 0.19608
390 90 5.80236e-05
390 302 0.0980731
390 304 2.91406e-05
390 402 0.195578
390 872 0.0980603
390 1086 0.0980601
390 1533 0.19612
390 1881 0.0199315
390 3295 0.0980106
391 13 5.7383e-05
391 46 6.01384e-06
391 407 0.111156
391 966 0.444624
391 1537 0.111156
391 1538 0.333001
392 459 1
393 5 0.36759
393 17 7.02431e-05
393 18 0.0707533
393 22 0.141417
393 28 0.27851
393 2060 2.88066e-06
393 3005 0.0707068
393 3654 0.000513712
393 3940 0.0704315
393 4601 4.11217e-06
394 13 0.496784
394 15 6.88499e-06
394 29 0.126238
394 37 0.376969
394 1081 1.61934e-06
395 4 1.51396e-05
395 8 0.100829
395 522 0.899156
396 10 1.21092e-06
396 16 0.0788535
396 22 2.68066e-05
396 62 0.0892703
396 66 0.0639898
396 186 0.0639817
396 462 0.639886
396 593 6.91662e-07
396 2246 0.0639898
397 265 1
398 2 1.02931e-06
398 9 0.261571
398 10 0.0805799
398 16 8.45336e-07
398 695 0.0820855
398 719 0.328329
398 1212 0.164164
398 1222 0.0832684
399 8 0.000302609
399 594 0.599818
399 629 0.399879
400 8 0.776087
400 159 0.000151395
400 997 0.222658
400 2164 0.00110351
401 20 0.0122028
401 48 0.00222373
401 418 0.246043
401 596 0.00142695
401 1255 0.369042
401 2261 0.246041
401 4545 0.123021
402 3 0.0591343
402 4 0.184156
402 7 0.174056
402 8 0.116029
402 11 2.56636e-06
402 351 0.466623
403 58 0.0666572
403 146 0.0666657
403 338 0.0666621
403 344 0.599991
403 1179 0.0666928
403 2953 0.0666656
403 3785 0.0666657
404 2 0.337532
404 5 1.55849e-05
404 13 9.18095e-06
404 16 2.14879e-06
404 187 0.110373
404 537 0.441685
404 907 0.110383
405 10 0.248623
405 84 8.55065e-07
405 333 1.93105e-05
405 359 0.166968
405 599 0.500904
405 601 0.0834841
406 314 1
407 5 0.000378795
407 24 0.473493
407 387 0.526128
408 4 1.22935e-05
408 5 0.000433402
408 7 0.724267
408 28 0.137599
408 111 0.137688
409 2 0.00348523
409 3 0.0190252
409 7 0.108402
409 8 2.56083e-06
409 9 0.111831
409 12 0.107571
409 30 0.107693
409 166 0.108399
409 417 0.32518
409 491 1.10385e-05
409 4566 0.108399
410 5 0.382418
410 46 1.05442e-06
410 485 0.617581
411 2 0.0114519
411 5 0.000638088
411 7 1.38547e-05
411 187 0.846771
411 778 0.141126
412 4 0.207427
412 53 0.268401
412 556 0.13716
412 1071 0.268407
412 3913 0.118604
413 5 2.04778e-05
413 9 0.0730337
413 12 2.6982e-05
413 487 0.926863
413 1567 5.63166e-05
414 12 0.00029713
414 17 1.39118e-06
414 409 0.199942
414 469 0.0999702
414 558 0.59982
414 1921 0.0999691
415 10 7.91443e-05
415 180 0.999921
416 3 1.63607e-06
416 93 0.110815
416 362 0.889183
417 363 0.888889
417 562 0.111111
418 3 0.151041
418 8 1.52007e-05
418 9 0.338386
418 22 0.170179
418 340 0.340379
419 243 1.74447e-06
419 399 0.909213
419 436 0.0907856
420 2 1.864e-06
420 8 5.41988e-06
420 11 1.65868e-06
420 16 4.27604e-06
420 492 0.999987
421 404 1
422 2 0.000452682
422 448 0.908678
422 1004 0.0908696
423 499 0.999883
423 612 0.000116905
424 500 0.9
424 1282 0.0999997
425 501 0.538462
425 745 0.230768
425 786 0.230769
426 28 0.0908156
426 110 0.0909226
426 474 0.636416
426 1998 0.181846
427 7 5.65704e-06
427 68 0.499998
427 688 0.299999
427 2392 0.199997
428 28 0.1
428 375 0.9
429 5 2.38049e-05
429 7 0.20217
429 52 0.113491
429 67 0.680944
429 246 0.00337113
430 17 0.0806943
430 29 0.0318862
430 510 0.645397
430 558 0.0806737
430 908 0.161349
431 172 0.909024
431 419 0.0909757
432 4 0.0936332
432 8 0.494202
432 9 0.0118477
432 10 0.100583
432 81 0.100005
432 166 8.06622e-05
432 286 0.0998215
432 3851 0.0998256
432 4147 1.62673e-06
433 4 0.00155768
433 152 0.110928
433 690 0.776456
433 1249 0.111058
434 3 0.0433899
434 58 0.287296
434 269 0.382465
434 1024 0.191233
434 3060 0.0956164
435 2 0.243796
435 5 0.00311691
435 18 0.490912
435 953 3.10925e-06
435 1175 0.258829
435 2492 0.000179868
435 3723 0.00316356
436 377 1
437 8 0.000283915
437 32 5.22197e-05
437 36 0.16661
437 457 0.833054
438 10 0.00143441
438 32 0.00118233
438 44 0.498653
438 215 0.498703
438 474 2.65331e-05
439 2 2.56931e-06
439 16 2.38592e-06
439 53 0.100006
439 524 0.700042
439 771 1.27696e-06
439 2180 0.100006
439 2505 0.0999398
440 168 0.125548
440 790 0.628182
440 1404 0.125558
440 1790 0.120712
441 32 0.0887561
441 392 0.911244
442 305 0.898316
442 748 0.101684
443 174 1
444 3 1.40695e-05
444 12 1.79548e-05
444 107 0.25822
444 669 0.576915
444 2038 0.164833
445 28 3.84378e-05
445 496 0.999276
445 1578 0.000685962
446 9 0.000207951
446 20 1.52935e-06
446 67 4.19727e-05
446 111 0.000213808
446 542 0.454331
446 688 0.272599
446 937 0.0908662
446 2391 0.0908725
446 3143 0.0908662
447 250 0.090934
447 466 0.909066
448 2 0.0329043
448 3 0.234866
448 7 0.000733599
448 8 0.0526801
448 18 0.0803361
448 991 0.256958
448 2199 0.170216
448 2514 0.0856527
448 4044 0.0856527
449 32 0.0999999
449 44 0.5
449 1220 0.4
450 2 0.141539
450 29 0.140234
450 468 0.718226
450 3636 7.21654e-07
451 5 0.106828
451 536 0.893172
452 60 1.11741e-06
452 470 0.999999
453 2 1.25879e-06
453 11 0.0927864
453 167 2.72584e-05
453 423 0.907185
454 2 9.55618e-06
454 3 1.81333e-06
454 5 0.000433656
454 26 0.000608953
454 507 0.998946
455 12 0.00355998
455 61 0.0996958
455 540 0.896743
455 2229 1.01595e-06
456 5 0.773631
456 1054 0.226369
457 2 1.90063e-05
457 16 0.182203
457 83 0.181728
457 178 0.0908642
457 861 0.454321
457 2831 0.0908642
458 4 1.628e-06
458 11 0.0301988
458 549 0.9698
459 5 5.86257e-05
459 91 0.116527
459 190 0.0010911
459 358 0.882321
459 3807 2.21916e-06
460 2 0.00679603
460 32 0.140987
460 34 0.418572
460 134 2.11587e-06
460 714 0.432935
460 1218 0.000708864
461 4 0.0895929
461 11 0.000387117
461 626 0.707793
461 870 0.101113
461 1106 0.101113
462 3 8.83655e-05
462 5 0.00140747
462 9 0.000380952
462 28 0.0981283
462 29 0.0941711
462 36 2.89897e-05
462 157 0.00931816
462 170 0.100573
462 877 0.502865
462 1848 0.0924658
462 3519 0.100573
463 489 1
464 2 8.35483e-06
464 57 0.143018
464 108 0.713955
464 2081 0.143018
465 627 0.777777
465 1012 0.222223
466 364 0.909091
466 1685 0.0909092
467 541 0.888889
467 4305 0.111111
468 140 2.70384e-05
468 359 0.999973
469 4 0.0593634
469 8 0.000408677
469 118 0.00173201
469 322 0.312427
469 965 0.312633
469 1073 0.00100852
469 1415 0.312428
470 9 1.33965e-06
470 86 0.122818
470 140 0.109659
470 354 1.86829e-05
470 428 0.767503
471 3 0.110227
471 447 0.889773
472 22 1.32015e-06
472 574 0.999999
473 10 0.000234843
473 75 0.0768151
473 311 0.0769131
473 384 0.461479
473 1205 0.0769119
473 2027 0.153826
473 2275 0.0769062
473 4119 0.0769132
474 11 8.00355e-05
474 163 0.168481
474 505 0.831439
475 4 0.364366
475 9 0.000131799
475 13 0.127547
475 411 0.507952
475 1071 3.72074e-06
476 5 0.00222784
476 11 2.07267e-06
476 653 0.997631
476 800 0.000139023
477 8 1.48544e-06
477 12 0.0830918
477 13 2.32974e-05
477 86 0.169545
477 511 0.747338
478 135 2.09721e-06
478 140 4.76095e-05
478 637 0.99995
479 108 0.499999
479 261 0.499999
479 3907 1.25628e-06
480 18 0.0940366
480 41 0.27178
480 661 0.634184
481 3 0.00144974
481 9 0.000111216
481 344 0.798745
481 1525 0.199686
481 4166 4.7078e-06
481 4282 3.41894e-06
482 2 0.0295474
482 3 0.108591
482 9 0.00224228
482 334 0.644697
482 348 0.107467
482 491 0.107454
483 5 1.30259e-06
483 77 0.250026
483 782 0.749972
484 215 1
485 3 1.40106e-05
485 16 0.198964
485 46 0.198965
485 973 0.497412
485 4362 0.00516215
485 4424 0.0994824
486 20 0.19897
486 48 0.0020819
486 160 0.0951487
486 664 0.7038
487 3 0.365466
487 7 9.07061e-05
487 8 0.00369765
487 452 0.31314
487 553 0.317606
488 4 2.46091e-06
488 31 5.54096e-05
488 464 0.999942
489 674 0.777778
489 2389 0.222222
490 16 0.0896137
490 17 0.0896129
490 41 0.0895673
490 52 0.179227
490 109 0.179229
490 181 0.0896137
490 251 0.17926
490 331 0.103876
491 8 0.341167
491 397 0.549027
491 1091 0.109805
492 31 0.181798
492 530 0.818202
493 532 1
494 4 0.0277817
494 8 0.150196
494 9 0.256274
494 12 0.28309
494 136 0.141329
494 3450 0.141329
495 95 1
496 2 0.208951
496 342 0.791049
497 8 0.000162099
497 497 0.999838
498 4 0.11776
498 5 0.000932358
498 121 0.771144
498 3269 0.110164
499 8 0.0835152
499 10 0.179378
499 53 0.182277
499 62 0.0911376
499 112 0.091139
499 431 0.273248
499 1441 0.091139
499 4586 0.00816663
500 548 1
501 208 1
502 312 0.111163
502 389 0.777674
502 4538 0.111163
503 481 1
504 13 0.107688
504 246 0.111539
504 436 0.111538
504 621 0.446156
504 1793 0.223079
505 28 0.0999099
505 32 0.000497818
505 182 0.0999496
505 471 0.799598
505 572 4.47109e-05
506 2 0.00589841
506 8 0.000115198
506 196 0.441799
506 989 0.220899
506 1585 0.220899
506 3797 0.110389
507 555 1
508 8 0.000584065
508 17 0.175021
508 59 0.16336
508 160 0.660903
508 191 1.88853e-06
508 2288 0.000129411
509 4 0.232645
509 222 0.509159
509 250 0.0848762
509 350 0.17332
510 249 1
511 3 1.20014e-06
511 22 7.17512e-05
511 31 0.111103
511 111 0.222205
511 168 0.111103
511 184 0.333309
511 1575 0.111103
511 4658 0.111103
512 4 9.31737e-05
512 60 0.124944
512 729 0.749968
512 4186 0.124994
513 325 0.25
513 359 0.125
513 898 0.625
514 5 0.00022096
514 16 0.0138289
514 18 0.101251
514 31 0.109268
514 41 0.0370173
514 53 0.000609012
514 213 0.210802
514 901 0.527003
515 27 2.2984e-05
515 79 0.00045896
515 100 0.250445
515 609 0.749054
515 4038 1.94715e-05
516 196 1
517 2 2.13123e-05
517 4 0.00180464
517 8 0.000867647
517 16 0.121571
517 75 0.243156
517 207 0.0244777
517 906 0.243157
517 1931 0.121788
517 3207 0.121577
517 3208 0.121578
518 47 0.500005
518 92 0.499995
519 2 0.000353266
519 5 0.000419273
519 8 1.42973e-05
519 12 1.62877e-06
519 17 0.249892
519 93 0.124976
519 229 0.124439
519 304 2.19454e-06
519 326 0.37492
519 597 0.124982
520 4 4.61308e-05
520 7 7.29551e-05
520 569 0.85704
520 4266 0.142841
521 181 0.499989
521 190 0.499993
521 206 2.23266e-06
521 438 1.53264e-05
522 135 0.00137068
522 684 0.624143
522 693 0.374486
523 5 0.0129062
523 8 0.0248457
523 31 0.00137465
523 584 0.238949
523 1341 0.00510601
523 1946 0.477879
523 3848 0.23894
524 523 0.248537
524 570 0.751463
525 12 3.28485e-05
525 272 0.0373112
525 821 0.00528724
525 892 0.717325
525 3824 0.240044
526 62 0.111111
526 552 0.444444
526 1062 0.444444
527 13 0.000104349
527 53 0.0942678
527 278 0.905628
528 156 4.45083e-06
528 541 0.200316
528 603 0.200314
528 692 0.198737
528 2237 0.400629
529 28 0.125006
529 645 0.499997
529 822 0.374997
530 58 0.142817
530 218 0.714325
530 2022 0.142858
531 2 0.00247371
531 7 0.000102492
531 10 0.26949
531 312 0.134983
531 922 0.135824
531 991 0.26997
531 2400 0.187157
532 4 0.000119703
532 173 0.234645
532 641 0.765236
533 452 0.987217
533 2239 0.0126957
533 2267 8.72789e-05
534 2 0.0942264
534 10 0.00950053
534 27 0.100119
534 152 0.0997087
534 260 1.12682e-06
534 415 0.397966
534 874 0.0994925
534 2076 0.198986
535 157 0.315974
535 451 0.419822
535 453 0.264205
536 13 0.0908426
536 23 0.0909133
536 37 0.0909132
536 87 2.48393e-05
536 112 0.0909131
536 159 0.0909133
536 949 0.454566
536 1687 0.0909133
537 52 0.5
537 300 0.5
538 10 1.71736e-06
538 726 0.714284
538 2482 0.142857
538 3598 0.142857
539 13 2.32047e-06
539 66 0.111143
539 685 0.778004
539 734 0.110851
540 7 0.292945
540 8 0.000407408
540 53 0.100198
540 85 0.105834
540 956 0.500593
540 3850 2.05715e-05
540 4550 1.76292e-06
541 5 4.52137e-05
541 11 3.89578e-05
541 18 0.137758
541 774 0.862158
542 13 0.000456853
542 21 0.000153713
542 654 0.996088
542 3291 0.00330155
543 4 0.0013038
543 960 0.42945
543 1170 0.42945
543 2370 0.139796
544 3 0.000534894
544 5 0.744656
544 8 0.000346361
544 258 2.74046e-05
544 947 0.254435
545 17 0.166215
545 37 0.0833882
545 262 0.500331
545 313 0.0833885
545 343 0.0833882
545 1374 0.0832892
546 4 1.31982e-05
546 5 1.24195e-06
546 8 0.184623
546 13 0.172125
546 17 0.16119
546 18 0.159224
546 28 0.242095
546 31 0.0807287
547 244 1
548 2 7.7414e-05
548 9 1.30861e-05
548 79 0.124987
548 113 8.22882e-06
548 658 0.749927
548 3218 0.124988
549 8 2.53271e-05
549 13 0.0994123
549 38 5.25367e-05
549 45 0.25724
549 58 0.128618
549 70 0.12879
549 137 0.257241
549 840 0.128621
550 2 3.60915e-06
550 8 0.00674116
550 167 0.143519
550 326 0.849734
550 353 1.563e-06
551 2 0.0922859
551 5 5.6338e-06
551 9 8.07498e-06
551 48 0.100939
551 64 0.20147
551 159 0.100926
551 779 0.302777
551 4399 0.100926
551 4502 0.100663
552 519 1
553 4 0.11355
553 262 0.222198
553 556 0.664252
554 554 0.999746
554 761 0.000253574
555 10 0.27341
555 32 0.0919397
555 787 0.0906644
555 978 0.362657
555 1267 0.181329
556 525 1
557 604 0.875
557 2488 0.125
558 4 0.124102
558 5 0.0176997
558 8 0.0012216
558 17 0.000805419
558 18 0.0994419
558 34 0.378085
558 41 3.70862e-05
558 335 0.126174
558 509 1.24176e-05
558 1118 0.252421
559 20 1.44099e-05
559 918 0.668646
559 1205 0.166163
559 4550 0.165177
560 157 0.0176314
560 672 0.982369
561 30 2.72073e-06
561 483 0.249967
561 1198 0.249967
561 1580 0.37495
561 3406 0.000131404
561 3572 0.124983
562 3 4.97892e-06
562 5 1.4851e-06
562 7 0.206068
562 9 0.0993019
562 13 0.457301
562 18 0.157635
562 1278 0.0796885
563 2 0.0110751
563 4 0.00170089
563 12 0.103222
563 16 0.0825354
563 43 0.0964875
563 816 0.603641
563 1640 0.101339
564 13 1.70511e-05
564 231 0.852438
564 837 0.142074
564 4321 0.00547153
565 37 0.378312
565 49 0.25221
565 61 0.258006
565 4611 0.111472
566 9 0.199826
566 34 0.100018
566 113 0.200036
566 320 0.50009
566 740 2.977e-05
567 4 1.47772e-05
567 10 0.246279
567 60 0.164793
567 678 0.576724
567 797 0.0121893
568 354 0.142856
568 806 0.857144
569 538 1
570 204 0.315651
570 209 0.316102
570 404 0.0525966
570 405 0.315651
571 7 6.20646e-05
571 9 0.00148085
571 29 0.166473
571 813 0.331964
571 1617 0.333346
571 3528 0.166674
572 616 0.7
572 1943 0.2
572 2905 0.0999999
573 4 0.00236782
573 619 0.997632
574 35 0.401581
574 480 0.598419
575 390 0.77783
575 583 0.111118
575 1094 0.111053
576 10 2.3732e-06
576 710 0.857141
576 3464 0.142857
577 321 0.998757
577 4345 0.00124318
578 9 0.108093
578 12 0.0110426
578 13 0.109305
578 17 0.217522
578 1022 0.109452
578 1067 0.109437
578 1215 0.109452
578 1350 0.116243
578 1480 0.109452
579 5 4.4325e-06
579 712 0.857139
579 3656 0.142857
580 178 0.142671
580 692 0.857329
581 5 8.98621e-06
581 59 0.199995
581 559 0.699995
581 888 0.100001
582 4 7.27972e-05
582 5 1.39211e-06
582 330 0.105061
582 419 0.268401
582 513 0.000118071
582 607 0.626315
582 3695 3.11247e-05
583 2 0.00246285
583 20 5.02131e-05
583 23 0.249556
583 177 0.24931
583 2349 0.24931
583 2512 0.24931
584 3 0.000100518
584 7 0.123515
584 13 0.12713
584 58 0.124878
584 614 0.24975
584 2513 0.24975
584 4631 0.124875
585 557 1
586 798 0.999883
586 2373 2.52594e-06
586 4075 0.000114662
587 8 0.00479974
587 58 0.165867
587 837 0.4976
587 912 0.165867
587 4536 0.165867
588 2 5.76177e-05
588 10 2.69229e-06
588 22 5.18332e-05
588 309 0.143602
588 1079 0.570857
588 3019 0.142714
588 3551 0.142714
589 8 0.0201011
589 9 0.591388
589 220 3.40572e-06
589 696 0.194254
589 953 0.194254
590 3 0.0274006
590 93 0.121575
590 722 0.607874
590 802 0.24315
591 16 0.299446
591 66 0.199631
591 884 0.301283
591 1860 8.5742e-06
591 2354 0.199631
592 5 0.00120379
592 1645 0.599278
592 2111 0.199759
592 4419 0.199759
593 490 1
594 4 4.16356e-06
594 10 0.124999
594 181 0.125001
594 363 0.124999
594 438 0.624996
595 10 0.343571
595 1198 0.21881
595 1426 0.328214
595 3706 0.109405
596 7 0.000171008
596 8 7.05081e-05
596 17 0.167269
596 1401 0.499176
596 1884 0.166921
596 3265 0.166392
597 4 3.04859e-05
597 8 0.134296
597 10 1.39635e-06
597 12 0.200325
597 17 0.264325
597 31 0.132837
597 440 0.268185
598 905 0.714286
598 2468 0.285714
599 85 0.125818
599 168 0.124883
599 730 0.624416
599 1912 0.124883
600 2 1.40252e-06
600 13 5.20628e-06
600 18 0.198251
600 107 0.10021
600 567 0.601313
600 4630 0.10022
601 5 0.000771561
601 118 0.633759
601 322 0.365433
601 2073 3.62362e-05
602 611 1
603 7 0.111343
603 8 0.220737
603 20 5.24776e-06
603 431 0.111492
603 800 0.111284
603 1425 0.333855
603 3209 0.111285
604 92 0.538497
604 105 0.461503
605 159 0.125
605 1107 0.499999
605 1427 0.374999
605 1820 1.85174e-06
606 3 0.0179461
606 8 0.000157586
606 124 0.572732
606 304 0.120657
606 400 0.286361
606 3918 0.00214633
607 636 1
608 2 0.000126507
608 3 0.496433
608 9 0.126521
608 12 5.00158e-05
608 32 3.09296e-06
608 1110 0.376865
608 1320 1.45594e-06
609 739 0.750002
609 2304 0.124997
609 4423 0.125
610 517 0.166674
610 917 0.833326
611 3 4.26043e-06
611 312 0.0999995
611 401 0.499998
611 1006 0.199999
611 1622 0.199999
612 622 1
613 623 1
614 8 0.146857
614 741 0.568748
614 2264 0.142208
614 3892 0.142187
615 5 0.0017184
615 8 0.323606
615 12 0.0810613
615 17 1.00171e-06
615 759 0.0847934
615 1122 0.339213
615 1376 0.169607
616 5 0.251771
616 10 0.0014544
616 670 0.12564
616 749 0.495495
616 1148 0.12564
617 644 0.5
617 1129 0.333333
617 2008 0.166667
618 12 0.14411
618 931 0.713243
618 1067 0.142647
619 647 1
620 42 1
621 48 0.12502
621 648 0.374991
621 1134 0.499989
622 2 0.000428376
622 4 0.0213534
622 1241 0.978218
623 589 0.999378
623 764 0.000214278
623 1637 0.000407582
624 450 1
625 86 0.00388442
625 354 3.60703e-05
625 866 0.99608
626 7 0.658698
626 16 0.170651
626 1455 0.170651
627 7 1.58247e-05
627 10 0.372664
627 61 0.375329
627 72 0.12439
627 207 0.125
627 227 0.00260051
628 2 0.00201246
628 120 0.997988
629 12 0.100269
629 78 0.0999718
629 91 0.0999718
629 107 0.0999561
629 469 0.599831
630 74 0.571429
630 1158 0.428571
631 67 1
632 49 0.12528
632 75 0.12528
632 372 0.122747
632 512 0.00017459
632 768 0.501238
632 1147 0.12528
633 72 0.5
633 564 0.5
634 4 0.000122603
634 32 0.049619
634 771 0.625748
634 1835 0.168064
634 3908 0.156446
635 8 0.000129553
635 16 0.166795
635 30 0.000550972
635 60 0.165818
635 69 0.165849
635 772 0.335045
635 4524 0.165813
636 7 0.278759
636 955 0.721241
637 3 1.87412e-06
637 4 0.168649
637 8 0.0180234
637 479 0.487995
637 836 0.32533
638 580 1
639 8 2.66464e-05
639 10 0.000815126
639 642 0.124912
639 655 0.749469
639 2250 0.124777
640 5 0.000897894
640 80 0.249311
640 657 0.373971
640 677 0.37582
641 62 0.141986
641 166 0.143003
641 229 0.715011
642 472 1
643 70 0.111115
643 77 1.12695e-06
643 333 0.888884
644 137 0.113977
644 224 0.126575
644 780 0.759448
645 361 0.714286
645 2155 0.285714
646 22 3.26481e-06
646 84 0.999997
647 5 0.000155804
647 8 0.00182647
647 16 0.168038
647 18 0.240503
647 30 0.0842086
647 38 0.0842059
647 41 0.168445
647 89 0.0842059
647 1187 0.168412
648 53 0.00282475
648 447 0.124716
648 785 0.623186
648 3868 0.124636
648 4400 0.124637
649 3 3.67254e-06
649 5 3.66971e-06
649 12 0.10494
649 13 0.000127221
649 16 0.111772
649 140 0.223241
649 221 0.111702
649 928 0.0014147
649 2179 0.111699
649 3809 0.111698
649 3821 0.111699
649 3953 0.111699
650 17 0.142854
650 1391 0.428568
650 1673 1.78442e-06
650 1871 0.142865
650 3082 0.142856
650 3338 0.142856
651 1010 0.428571
651 1247 0.571429
652 17 0.143151
652 788 0.713756
652 1099 0.143093
653 2 0.256294
653 10 0.00276659
653 349 0.246536
653 482 0.247867
653 1171 0.246536
654 185 0.666667
654 1216 0.333333
655 4 0.152393
655 46 0.338213
655 77 0.00161742
655 83 2.3037e-06
655 667 0.338516
655 1203 0.169259
656 4 0.106468
656 46 0.128406
656 205 0.128344
656 667 0.128344
656 701 0.123405
656 980 0.385033
657 9 2.99526e-06
657 22 0.143154
657 796 0.856843
658 4 4.10083e-06
658 7 0.00894134
658 8 0.227351
658 1211 0.763703
659 5 3.8529e-05
659 70 0.124977
659 167 0.125962
659 187 0.124904
659 527 0.624118
660 380 1
661 34 0.125015
661 673 0.874985
662 2 0.0012626
662 596 0.998737
663 4 9.12388e-05
663 8 0.000504442
663 176 2.3089e-05
663 306 0.999381
664 8 5.37886e-06
664 20 0.193922
664 146 0.100759
664 694 0.604554
664 1118 1.06268e-06
664 3435 0.100759
665 18 0.000170445
665 41 1.32933e-06
665 330 0.874839
665 2875 0.124989
666 18 0.161138
666 69 0.13981
666 533 0.559242
666 2835 0.13981
667 4 0.0244674
667 11 2.2202e-06
667 233 0.80622
667 394 2.90438e-06
667 396 0.158485
667 2346 5.99301e-05
667 4229 0.0107616
668 16 3.18774e-05
668 46 0.142853
668 79 0.142853
668 140 0.142851
668 424 0.571412
669 29 0.115248
669 630 0.758359
669 4409 0.126393
670 682 1
671 2 0.00030705
671 9 0.000150383
671 17 0.00695356
671 59 0.0113298
671 427 0.28036
671 1233 0.56072
671 2376 0.14018
672 2 3.14832e-06
672 3 6.99942e-06
672 5 1.32629e-06
672 16 0.249853
672 41 0.166371
672 46 0.0833697
672 47 0.250109
672 353 0.166739
672 810 0.083547
673 841 1
674 26 0.192466
674 615 0.767231
674 2652 0.0403029
675 4 2.55013e-06
675 542 0.0909099
675 700 0.545452
675 888 0.272726
675 2938 0.0909087
676 617 1
677 702 0.555971
677 1630 0.332849
677 3861 0.11118
678 12 0.142853
678 28 0.142876
678 36 0.142731
678 618 0.571541
679 1039 1
680 97 0.499992
680 288 0.500008
681 97 0.499999
681 235 0.500001
682 24 0.499999
682 620 0.500001
683 3 0.154124
683 4 9.26379e-06
683 1281 0.563913
683 1402 0.140976
683 2493 0.140978
684 571 0.5
684 1347 0.5
685 2 0.341674
685 10 0.164521
685 310 0.493805
686 21 0.14381
686 689 0.85619
687 5 3.21288e-05
687 828 0.857116
687 1170 0.142852
688 3 0.000377039
688 10 0.194894
688 237 0.301712
688 415 0.301712
688 1359 0.201306
689 2 0.0063761
689 206 0.331233
689 612 0.662391
690 170 0.125
690 717 0.499999
690 2994 0.125
690 2995 0.125
690 3834 0.125
691 133 2.25768e-06
691 393 0.750017
691 1063 0.125003
691 3688 0.124978
692 721 1
693 4 1.80357e-05
693 7 1.31203e-05
693 10 0.496062
693 386 0.377954
693 477 0.125953
694 18 0.249908
694 1366 0.750092
695 4 0.292038
695 13 0.148954
695 18 0.418069
695 1314 2.53237e-06
695 3426 0.140937
696 30 0.499999
696 394 5.3165e-05
696 1380 0.499944
696 1976 3.99505e-06
697 4 0.000428125
697 5 3.84525e-05
697 12 0.514923
697 17 0.484588
697 546 2.3017e-05
698 8 1.56155e-06
698 13 6.12184e-06
698 16 6.39346e-06
698 30 0.421745
698 396 0.57824
699 12 0.17094
699 831 0.82906
700 403 0.166698
700 650 0.833302
701 3 0.0798897
701 4 1.75282e-05
701 12 0.238921
701 17 4.75861e-06
701 29 0.082791
701 46 0.166091
701 146 0.0830453
701 167 0.0830453
701 895 0.183149
701 1402 1.19076e-06
701 1863 0.0830449
702 5 0.027681
702 23 0.139143
702 1414 0.278956
702 1608 0.277995
702 3098 0.139478
702 4323 0.136747
703 384 0.5
703 904 0.5
704 111 2.03193e-06
704 803 0.999998
705 2 0.0511884
705 157 0.228438
705 453 0.480362
705 802 0.240011
706 10 0.255687
706 332 0.744313
707 7 0.333792
707 112 0.111061
707 436 0.11106
707 463 0.110903
707 1674 0.333184
708 735 1
709 339 0.142857
709 445 0.714286
709 3010 0.142857
710 494 0.667372
710 1023 0.165784
710 3510 0.166843
711 8 0.216576
711 25 0.0260689
711 638 0.757355
712 7 0.000215009
712 9 0.561092
712 22 1.45821e-05
712 885 0.438678
713 916 0.833333
713 3758 0.166667
714 612 0.142796
714 1059 0.142867
714 1060 0.571469
714 1251 0.142867
715 18 0.000307929
715 925 0.666461
715 1230 0.166615
715 1385 0.166615
716 53 0.333333
716 743 0.666667
717 8 0.203643
717 270 0.397603
717 704 0.00113641
717 1291 0.198801
717 2498 0.198801
717 2502 1.49873e-05
718 2 2.96821e-06
718 833 0.999997
719 408 0.333333
719 1126 0.666667
720 406 1
721 643 1
722 5 0.00590627
722 16 0.000664266
722 66 0.141393
722 272 0.570068
722 2355 0.140575
722 4406 0.141394
723 16 0.200656
723 18 0.0999229
723 770 0.599504
723 1594 0.0999173
724 750 1
725 822 0.5
725 1461 0.5
726 8 0.00206594
726 17 0.171337
726 46 0.0918047
726 212 0.551094
726 493 0.091849
726 2317 0.0918491
727 659 0.857143
727 1215 0.142857
728 7 3.67324e-05
728 752 0.999963
729 31 0.12502
729 167 0.124997
729 575 0.749983
730 207 0.19917
730 631 0.00416976
730 1141 0.796661
731 46 0.166666
731 814 0.833334
732 2 1.16832e-05
732 758 0.200009
732 1140 0.799979
733 3 7.52998e-06
733 13 0.148924
733 241 0.851068
734 1145 0.666667
734 1808 0.333333
735 13 0.000172793
735 85 0.124982
735 256 0.749863
735 347 0.124982
736 651 0.666667
736 943 0.333333
737 30 0.21122
737 596 0.11006
737 651 0.222681
737 1487 0.334021
737 3511 0.11134
737 4552 0.0106777
738 12 0.33358
738 112 0.66642
739 2 2.2047e-05
739 4 0.00142798
739 11 6.30569e-05
739 172 0.748824
739 2388 0.249663
740 2 0.000113386
740 7 0.000127808
740 9 3.4572e-06
740 157 0.148708
740 687 0.851048
741 7 0.0061213
741 13 2.28691e-06
741 189 0.495532
741 331 0.00281175
741 950 0.495532
742 512 1
743 5 1.47305e-05
743 54 0.164487
743 342 0.835498
744 526 0.237626
744 529 0.762374
745 605 1
746 10 0.0327664
746 16 0.19346
746 146 0.19347
746 210 0.193364
746 2274 0.19347
746 4636 0.19347
747 3 0.195401
747 7 0.203389
747 8 0.00406397
747 419 0.59714
747 460 5.31035e-06
748 5 3.67112e-05
748 32 0.248173
748 775 0.745222
748 984 3.5953e-06
748 1208 0.00656412
748 1807 1.27751e-06
749 488 0.285713
749 1016 0.57143
749 1381 0.142857
750 2 0.00648897
750 776 0.993511
751 777 0.857143
751 1857 0.142857
752 3 0.210875
752 8 0.525934
752 1608 0.000175133
752 3596 0.263016
753 2 0.00105678
753 12 0.116753
753 64 0.108994
753 122 0.110461
753 334 0.331354
753 671 0.110461
753 1499 0.110461
753 2131 0.110461
754 24 0.494751
754 600 0.505249
755 13 0.109258
755 953 0.127366
755 1177 0.382097
755 2396 0.253913
755 4306 0.127366
756 8 0.42023
756 79 0.0828311
756 243 0.0827653
756 302 0.248504
756 1004 0.0828346
756 3347 0.0828346
757 458 1
758 118 0.000196619
758 718 0.00240433
758 1183 0.797919
758 4491 0.19948
759 48 0.199971
759 262 0.800029
760 5 1.97148e-06
760 9 0.433452
760 923 0.141609
760 2170 0.283207
760 3783 0.000120784
760 3784 0.141609
761 4 0.000198453
761 9 0.00179275
761 58 0.49897
761 69 2.76163e-05
761 3025 0.49897
761 4208 4.10729e-05
762 5 0.000197998
762 159 0.166764
762 542 0.332747
762 817 0.333529
762 874 0.166762
763 20 3.36978e-05
763 29 0.400881
763 162 0.298831
763 1588 0.300192
763 2253 6.248e-05
764 2 0.0807243
764 16 0.23
764 66 0.114779
764 110 0.114788
764 201 0.22958
764 300 3.1406e-06
764 546 0.000550818
764 1557 0.229575
765 7 0.166958
765 9 2.42875e-06
765 10 9.72097e-06
765 181 0.166526
765 601 0.333252
765 994 0.333252
766 10 0.11142
766 22 0.222125
766 279 0.222152
766 426 0.111076
766 907 0.111076
766 990 0.111076
766 1137 0.111076
767 5 0.00091615
767 272 0.121978
767 608 0.877106
768 391 1
769 3 0.328723
769 7 0.178629
769 53 1.68711e-05
769 120 0.16214
769 1978 0.165613
769 2198 0.164879
770 663 1
771 284 0.857168
771 789 0.142832
772 3 0.00139138
772 34 0.497847
772 210 0.252003
772 572 0.248758
773 4 0.297556
773 12 1.6974e-05
773 629 0.421445
773 1563 0.280964
773 3734 1.7701e-05
774 2 2.84874e-06
774 13 2.71454e-05
774 59 0.249995
774 293 0.624989
774 625 0.124986
775 9 9.48623e-05
775 10 0.000194256
775 666 0.999711
776 32 0.142974
776 665 0.285566
776 1101 0.42849
776 1688 0.14297
777 12 0.00241051
777 136 7.2483e-05
777 670 0.997517
778 3 0.064981
778 4 0.000161291
778 46 0.0666041
778 67 0.398926
778 75 0.0664936
778 117 0.401199
778 190 0.00163503
779 754 0.18467
779 984 0.455443
779 1208 0.26871
779 3593 0.0911769
780 17 0.300553
780 272 0.559588
780 751 0.139859
781 4 6.46239e-06
781 9 0.160619
781 1200 0.667691
781 2379 0.170374
781 2421 0.00130642
781 4574 3.1604e-06
782 3 0.591213
782 13 0.0134503
782 1290 0.395337
783 595 1
784 2 0.203337
784 5 7.18005e-05
784 18 0.000412014
784 1582 0.597134
784 2836 0.199045
785 411 0.126876
785 1054 0.132326
785 1272 0.507433
785 3991 0.106491
785 4575 0.126875
786 8 1.82571e-06
786 48 0.142841
786 256 0.857157
787 4 0.000688491
787 5 1.37241e-06
787 30 0.0855707
787 75 0.182749
787 177 0.0913693
787 465 0.548247
787 742 0.0913744
788 10 0.201467
788 11 0.314176
788 27 0.142315
788 534 0.342036
788 4118 6.24467e-06
789 29 0.198598
789 229 0.00397105
789 410 0.397668
789 1123 7.01898e-05
789 1214 0.399692
790 9 0.140188
790 528 0.717384
790 842 0.142427
791 18 0.168883
791 445 0.831117
792 3 8.99571e-05
792 4 3.23792e-05
792 12 0.237638
792 597 0.635357
792 1289 0.126883
793 305 0.999596
793 3316 3.22506e-06
793 3710 0.000400921
794 1350 2.1578e-06
794 1669 0.599999
794 2300 0.399999
795 563 1
796 8 2.00886e-05
796 79 0.124943
796 422 0.625026
796 696 0.125005
796 4386 0.125006
797 4 0.387527
797 7 3.38277e-05
797 20 0.00715408
797 737 1.93023e-06
797 1596 0.380944
797 1597 0.224339
798 32 0.142808
798 804 0.857192
799 807 1
800 2 0.0137599
800 5 1.77695e-05
800 23 0.197239
800 145 0.197223
800 147 0.197223
800 231 0.197223
800 3131 0.197223
800 4139 9.24348e-05
801 4 1.87573e-06
801 5 0.000192716
801 18 0.137388
801 731 0.718682
801 1449 0.143736
802 7 0.325648
802 613 0.674352
803 7 7.01592e-06
803 8 9.0636e-05
803 9 0.250232
803 146 0.249768
803 1690 0.250053
803 2323 0.24985
804 539 1
805 29 0.45103
805 123 0.313697
805 266 0.156849
805 4594 0.0784244
806 11 0.167546
806 46 0.16409
806 147 0.668364
807 8 0.144331
807 13 0.420799
807 20 0.289046
807 85 0.143091
807 912 2.57887e-05
807 2949 0.00270734
808 2 0.0017244
808 13 3.53948e-05
808 20 0.00505848
808 203 0.989715
808 407 0.00346643
809 7 0.0106455
809 49 0.166431
809 996 0.166431
809 1237 0.499293
809 4208 0.1572
810 8 0.157139
810 10 2.8959e-06
810 17 0.141466
810 46 0.28298
810 811 0.41841
810 4217 1.80244e-06
811 32 0.166649
811 111 6.09099e-06
811 845 0.833345
812 848 1
813 703 1
814 704 1
815 851 1
816 316 0.333333
816 705 0.333333
816 859 0.333333
817 707 1
818 8 5.33183e-05
818 288 0.844406
818 338 0.15554
819 41 0.0975382
819 93 0.15041
819 235 0.752052
820 97 0.456
820 208 0.544
821 24 0.417159
821 147 0.0834494
821 856 0.417159
821 2230 0.0822333
822 24 0.5
822 857 0.5
823 357 1
824 662 0.5
824 860 0.5
825 42 0.00198427
825 1797 0.665344
825 4449 0.332672
826 433 0.0853424
826 1240 0.914658
827 4 1.58924e-05
827 43 0.195091
827 862 0.804894
828 18 0.140245
828 352 0.143292
828 603 0.143292
828 1346 0.286608
828 2122 0.143292
828 4085 0.14327
829 52 0.4
829 463 0.2
829 1803 0.4
830 9 0.253515
830 29 0.248294
830 597 0.249095
830 4312 0.249096
831 7 0.00384733
831 10 0.331611
831 70 0.166214
831 190 9.62152e-06
831 545 0.166105
831 1097 0.166105
831 1814 0.166108
832 3 0.749869
832 65 3.8263e-05
832 599 0.250093
833 4 0.42673
833 9 3.74714e-05
833 11 7.61692e-05
833 842 1.05367e-05
833 870 0.573144
833 2510 1.60352e-06
834 28 0.200058
834 417 0.799942
835 28 0.000124644
835 32 0.165485
835 873 0.83439
836 720 1
837 55 0.16666
837 61 0.1667
837 321 0.49998
837 3229 0.16666
838 2 0.109747
838 48 0.00134167
838 1257 0.711129
838 3951 0.177782
839 8 3.75571e-06
839 12 0.112697
839 60 0.11081
839 166 0.111625
839 876 0.443242
839 2139 0.110811
839 2435 0.110811
840 58 0.124983
840 717 0.249956
840 840 0.125046
840 1076 0.499905
840 2163 0.000109647
841 11 0.00200733
841 16 0.000129789
841 18 0.24851
841 66 0.24898
841 157 0.00241027
841 1026 0.248981
841 3187 0.248981
842 220 0.25
842 1080 0.75
843 58 0.142858
843 879 0.714284
843 4618 0.142858
844 11 0.000942535
844 16 0.24777
844 881 0.751281
844 2348 6.7244e-06
845 10 0.00168954
845 880 0.99831
846 4 0.3649
846 16 0.000198951
846 17 0.0906689
846 75 0.0906525
846 546 0.000316788
846 1085 0.362611
846 3256 0.0906526
847 4 0.00783887
847 20 0.000116811
847 58 0.165284
847 882 0.661404
847 1259 0.165292
847 1575 6.34931e-05
848 8 1.98154e-06
848 17 1.97445e-06
848 22 0.332007
848 883 0.667989
849 22 0.17099
849 107 0.165801
849 1866 0.331605
849 1868 0.165802
849 3216 0.165802
850 2 7.0114e-06
850 545 0.124999
850 738 0.624996
850 962 0.124999
850 4215 0.124999
851 8 0.174245
851 48 0.16515
851 628 0.495454
851 2225 0.165151
852 887 1
853 28 0.13692
853 32 0.143844
853 1007 0.719236
854 439 1
855 80 8.59088e-06
855 208 0.166664
855 733 0.666664
855 1252 0.166664
856 4 1.1088e-05
856 70 0.162963
856 1571 0.167246
856 1888 0.334493
856 1983 0.000793474
856 2457 0.167246
856 3135 0.167246
857 28 0.166586
857 1403 0.50005
857 3525 0.166683
857 4359 0.166682
858 10 0.000114866
858 48 0.142795
858 69 0.142572
858 875 0.713963
858 3940 0.000554209
859 3 5.22193e-06
859 5 0.0481048
859 1407 0.634591
859 3159 0.317299
860 111 0.111117
860 169 0.111117
860 325 0.555584
860 2244 0.111065
860 2886 0.111117
861 7 0.000531094
861 8 2.20807e-05
861 30 0.244151
861 1624 0.755291
861 4510 5.60391e-06
862 4 0.204875
862 8 0.201426
862 603 0.197901
862 1412 0.197899
862 1913 0.197899
863 2 0.00156634
863 12 0.166393
863 899 0.832041
864 903 0.8
864 1925 0.2
865 10 0.999841
865 1014 0.000159129
866 332 0.249977
866 990 0.250008
866 3174 0.250008
866 3791 0.250008
867 147 7.75302e-06
867 467 0.999992
868 107 0.00285612
868 587 0.997144
869 29 0.000199387
869 910 0.833167
869 4644 0.166633
870 10 4.05276e-06
870 914 0.999996
871 59 0.00347923
871 79 0.124557
871 90 0.124617
871 738 0.124558
871 962 0.124558
871 1115 0.498231
872 9 9.11954e-06
872 104 3.39333e-06
872 446 0.999152
872 3916 0.000835805
873 25 0.0003842
873 32 0.141304
873 144 0.143052
873 401 0.71526
874 11 0.000664672
874 1636 0.599602
874 1956 0.399733
875 920 1
876 17 0.00875729
876 46 1.28941e-06
876 224 0.220738
876 1059 0.331107
876 1242 0.220972
876 1837 0.218425
877 43 0.00305573
877 1621 0.996944
878 9 0.00173962
878 1120 0.748695
878 2266 0.249565
879 5 2.17969e-06
879 28 0.142433
879 70 0.142944
879 1451 0.28589
879 1977 0.28589
879 4018 0.142841
880 2 0.0237101
880 12 0.162718
880 163 0.162586
880 296 0.325507
880 444 0.325479
881 1980 0.25
881 1981 0.5
881 3327 0.25
882 10 3.32715e-06
882 926 0.999997
883 927 1
884 5 1.30577e-05
884 1127 0.79999
884 1993 0.199997
885 17 0.285478
885 220 0.142873
885 350 0.142911
885 736 0.142913
885 2344 0.285825
886 46 0.169889
886 930 0.830111
887 4 0.00509995
887 16 6.46528e-06
887 18 0.331366
887 41 0.165872
887 330 0.165911
887 1810 0.331744
888 8 0.0245855
888 10 0.211164
888 38 0.000314891
888 320 0.250964
888 2014 0.51292
888 4095 5.20574e-05
889 823 1
890 896 1
891 286 0.166412
891 933 0.833588
892 22 0.166348
892 1465 0.500197
892 1838 0.166732
892 2092 0.166723
893 934 1
894 3 4.20157e-05
894 753 0.999958
895 13 0.166297
895 209 0.833703
896 1013 1
897 16 0.142362
897 826 0.714694
897 900 0.142944
898 2019 0.5
898 2367 0.5
899 1144 0.8
899 4353 0.2
900 3 0.114985
900 1652 0.531009
900 1952 0.177003
900 4340 0.177003
901 190 0.143307
901 338 6.49122e-06
901 821 0.71338
901 1873 0.143307
902 4 2.47697e-06
902 12 0.283101
902 17 0.286539
902 85 0.143273
902 222 1.88694e-06
902 1486 0.28708
902 4601 2.87814e-06
903 194 0.125003
903 543 0.250019
903 1668 0.125003
903 2073 0.249968
903 2452 0.250006
904 7 6.46873e-05
904 714 0.166634
904 1490 0.49998
904 2074 0.33332
905 9 0.000381557
905 10 1.62578e-05
905 58 0.000331603
905 85 0.142752
905 742 0.142753
905 1495 0.428259
905 1689 0.142753
905 4246 0.142753
906 2 0.00456965
906 17 2.04039e-06
906 34 0.139713
906 394 0.142619
906 1497 0.427858
906 1509 0.285238
907 28 0.00102132
907 244 0.399592
907 1498 0.599387
908 12 0.242829
908 43 0.126279
908 1011 0.63089
908 2069 2.28345e-06
909 2 2.04443e-06
909 5 2.48739e-05
909 28 0.285699
909 948 0.714274
910 4 0.000152469
910 8 0.186142
910 10 0.185911
910 16 0.186249
910 138 0.37255
910 523 0.0689947
911 10 2.87172e-05
911 769 0.999971
912 4 0.111258
912 81 0.111091
912 168 0.111104
912 695 0.111091
912 954 0.444365
912 2166 0.111091
913 136 0.125859
913 417 0.125858
913 514 0.50342
913 1001 0.125855
913 1018 0.119008
914 8 0.196089
914 1030 5.61542e-05
914 1256 0.401907
914 2103 0.401948
915 58 0.166639
915 456 1.23043e-05
915 952 0.833349
916 3 5.83019e-06
916 22 0.250038
916 1166 0.749956
917 3 0.399276
917 8 0.00196115
917 17 0.101118
917 30 0.298108
917 168 0.0997676
917 1171 0.0997676
917 3406 1.07092e-06
918 1164 0.8
918 2320 0.2
919 4 0.00158408
919 7 3.07803e-06
919 12 0.399338
919 13 9.91211e-05
919 17 0.199736
919 493 0.399239
920 12 0.221999
920 28 3.32218e-06
920 112 0.222284
920 569 0.111145
920 1511 0.333426
920 3073 0.111142
921 159 0.166667
921 958 0.833333
922 48 0.153663
922 199 0.604493
922 1255 0.120921
922 1256 0.120924
923 81 0.201247
923 90 0.201245
923 157 0.396259
923 318 0.201249
924 4 0.00696445
924 5 0.000125558
924 10 7.32434e-05
924 12 0.211081
924 30 0.195732
924 31 0.195297
924 456 0.390593
924 2044 0.000134337
925 658 0.249998
925 1530 0.749994
925 3636 4.50893e-06
925 3700 2.90289e-06
926 2 0.00022773
926 5 0.342188
926 28 0.179689
926 191 0.315008
926 258 0.156932
926 340 0.0059556
927 42 0.44443
927 582 0.444431
927 1162 3.31595e-05
927 3786 0.111106
928 3 2.56394e-05
928 4 0.000185443
928 7 4.49198e-05
928 15 0.000337375
928 169 0.199998
928 1685 0.399705
928 2941 0.199851
928 3325 0.199852
929 583 0.756976
929 1137 0.0537801
929 3715 0.189244
930 1231 0.99993
930 4524 7.03289e-05
931 660 1
932 302 0.833333
932 2068 0.166667
933 95 0.45456
933 140 0.09088
933 380 0.45456
934 1014 1
935 7 0.908432
935 310 0.0915684
936 7 0.000114493
936 20 0.000334978
936 301 0.999533
936 1397 1.73844e-05
937 781 0.8
937 3328 0.2
938 28 0.249932
938 326 3.61429e-06
938 970 0.625054
938 982 0.125011
939 2 0.273981
939 9 2.60199e-06
939 13 5.27276e-06
939 222 0.363046
939 233 0.362965
940 4 0.000265052
940 28 0.166547
940 784 0.833188
941 30 0.166125
941 972 0.667764
941 3398 0.166111
942 9 0.253446
942 75 0.238686
942 2172 0.253934
942 2357 0.253934
943 22 0.178499
943 23 0.000232336
943 1260 0.657015
943 2198 0.164253
944 74 0.832935
944 316 0.166622
944 842 0.000443244
945 11 0.16671
945 80 0.166675
945 211 0.500025
945 326 0.16659
946 1271 1
947 13 0.223374
947 18 0.223102
947 36 0.221255
947 520 0.332269
948 2 0.256592
948 16 0.0988791
948 46 0.0833926
948 48 0.0607824
948 93 0.0833921
948 725 0.416962
949 5 0.000225879
949 7 0.375208
949 41 0.153779
949 840 0.154268
949 1095 0.00813032
949 1690 0.154121
949 4081 0.154268
950 93 0.11659
950 185 0.252403
950 268 0.126201
950 751 0.126201
950 787 0.252403
950 996 0.126201
951 2 0.0006727
951 7 0.272683
951 10 0.290553
951 81 0.145358
951 787 0.290733
952 16 0.107918
952 20 0.108322
952 298 0.431947
952 322 0.243821
952 478 0.107991
953 195 0.999955
953 3087 4.5246e-05
954 159 0.142862
954 1292 0.571425
954 1954 0.142856
954 3889 0.142856
955 590 1
956 52 0.166669
956 80 0.333328
956 96 0.166669
956 1203 0.333335
957 311 0.166668
957 698 0.166669
957 1253 0.666663
958 9 0.322587
958 23 8.50358e-06
958 463 0.168544
958 981 0.504912
958 3673 0.00394799
959 12 0.0710066
959 234 0.35714
959 794 0.286535
959 1676 0.214284
959 2478 0.0709409
959 2489 9.40741e-05
960 10 0.0001668
960 30 0.273539
960 394 0.726294
961 5 0.00164466
961 7 8.83604e-05
961 10 0.166558
961 16 0.166459
961 66 0.16631
961 1953 0.332627
961 4062 0.166313
962 9 1.32348e-05
962 740 0.832927
962 1651 0.000462597
962 4041 0.166597
963 2 0.000481785
963 5 0.000574875
963 28 0.249938
963 48 0.130532
963 795 0.618471
963 2261 2.39049e-06
964 5 6.10428e-05
964 17 0.124564
964 915 0.625268
964 1508 0.125053
964 1680 0.125054
965 277 1
966 778 1
967 59 0.142857
967 832 0.857143
968 72 0.142857
968 988 0.714286
968 2485 0.142857
969 24 0.374808
969 635 0.250383
969 797 0.249873
969 3277 0.124936
970 8 8.36683e-06
970 236 0.501287
970 545 0.164563
970 1249 0.334142
971 11 0.124905
971 16 0.498428
971 41 1.51584e-05
971 66 0.125547
971 493 0.125553
971 2102 0.125553
972 67 0.2
972 112 0.399999
972 313 0.4
973 5 0.0595797
973 32 0.188243
973 159 0.188262
973 160 0.18739
973 1897 0.188262
973 2617 0.188262
974 4 0.000149913
974 10 4.59113e-06
974 31 0.000285685
974 147 1.30502e-05
974 467 0.999547
975 85 0.142939
975 107 0.142939
975 163 2.64341e-06
975 396 0.142354
975 993 0.428827
975 1383 0.142939
976 2 0.498319
976 3 0.00303923
976 7 0.000540183
976 1684 0.249051
976 4610 0.249051
977 2 0.00118608
977 7 0.0011982
977 853 0.249404
977 1592 0.748212
978 799 1
979 13 0.150912
979 97 0.162902
979 252 0.171548
979 1279 0.171543
979 2308 0.343095
980 13 3.05125e-06
980 998 0.999997
981 8 0.184542
981 12 0.196822
981 134 0.618636
982 62 2.16866e-05
982 69 0.326021
982 167 0.326454
982 476 0.327254
982 543 0.0202502
983 5 0.000779151
983 163 0.199551
983 233 0.599752
983 1681 0.199917
984 3 0.0303101
984 7 0.969687
984 10 3.06421e-06
985 13 0.200166
985 124 0.0665462
985 140 0.200191
985 986 0.333653
985 997 0.199444
986 4 0.00123208
986 78 0.998768
987 516 1
988 18 0.140985
988 345 0.141
988 652 0.564002
988 1226 0.0970178
988 1860 0.0569953
989 5 0.366755
989 12 1.01272e-05
989 69 0.0791538
989 147 0.0791538
989 231 0.237461
989 1394 0.0791538
989 1887 0.158308
989 2288 4.35013e-06
990 1235 0.677618
990 1577 0.152978
990 2106 0.169405
991 3 3.53252e-05
991 7 0.254404
991 10 0.282758
991 157 0.00251058
991 269 0.183726
991 347 0.276567
992 20 0.199955
992 44 0.199988
992 252 0.200023
992 345 0.200012
992 2903 0.200022
993 10 0.0239579
993 413 0.650577
993 459 3.77283e-06
993 3458 0.325462
994 27 0.165099
994 93 2.09268e-05
994 147 0.250463
994 547 0.417444
994 2510 0.166973
995 29 0.0107804
995 843 0.98922
996 1297 1
997 26 0.000381059
997 501 0.165638
997 652 0.166796
997 1298 0.500388
997 2557 0.166796
998 10 0.0128305
998 846 0.98717
999 1036 0.666667
999 2032 0.333333
1000 849 1
1001 75 0.332933
1001 1037 0.667067
1002 1038 1
1003 1040 1
1004 56 0.0512313
1004 1042 0.948769
1005 1043 0.730078
1005 1693 0.269922
1006 853 1
1007 97 0.499997
1007 317 0.500003
1008 16 0.166661
1008 722 0.166668
1008 1046 0.666671
1009 708 1
1010 24 0.448312
1010 79 0.103377
1010 709 0.448311
1011 1050 1
1012 9 1.20925e-05
1012 858 0.999988
1013 97 0.500002
1013 357 0.499998
1014 26 0.75571
1014 40 0.244008
1014 3517 0.000281508
1015 11 2.65181e-05
1015 89 0.173518
1015 396 0.173438
1015 1251 0.13244
1015 1482 0.520578
1016 326 0.250001
1016 1058 0.749999
1017 2 0.00144612
1017 1343 0.998554
1018 25 0.249864
1018 62 3.57624e-06
1018 1344 0.749593
1018 1578 0.000538949
1019 140 3.93231e-06
1019 711 0.666816
1019 2024 0.166704
1019 2509 0.166477
1020 22 0.249845
1020 231 0.750155
1021 9 0.471663
1021 12 0.291707
1021 166 0.23663
1022 5 1.93065e-05
1022 234 0.249995
1022 868 0.749986
1023 20 0.246722
1023 22 0.251026
1023 203 6.64875e-05
1023 206 1.42636e-06
1023 1607 0.376646
1023 2972 0.125536
1023 3736 1.6072e-06
1024 81 0.203584
1024 237 0.610807
1024 260 0.18561
1025 221 0.102137
1025 1065 0.448932
1025 1088 0.448931
1026 964 0.500002
1026 1068 0.499998
1027 7 0.125371
1027 17 0.249822
1027 70 0.249923
1027 593 0.124961
1027 2277 0.124961
1027 4628 0.124961
1028 159 0.199976
1028 871 0.799902
1028 2105 0.000121975
1029 187 0.399967
1029 907 0.399993
1029 1121 0.200041
1030 678 6.94181e-06
1030 797 0.999993
1031 476 0.5
1031 962 0.5
1032 4 5.26868e-06
1032 5 0.000107394
1032 9 4.03645e-05
1032 13 0.406696
1032 18 0.389781
1032 3585 0.20337
1033 4 0.263784
1033 8 0.338175
1033 112 0.133008
1033 286 0.132024
1033 704 1.3873e-06
1033 2954 0.133008
1034 1363 0.75
1034 2133 0.25
1035 3 1.95324e-06
1035 8 0.221693
1035 12 0.191084
1035 20 0.193736
1035 321 0.201502
1035 2945 0.191982
1036 66 0.178197
1036 204 0.356395
1036 1832 0.178198
1036 2377 0.28721
1037 478 0.2001
1037 1075 0.400209
1037 1111 0.399691
1038 8 4.70941e-05
1038 9 0.250641
1038 66 0.249762
1038 262 2.71482e-05
1038 1845 0.499523
1039 28 0.199954
1039 1077 0.200039
1039 1373 0.600007
1040 234 0.199951
1040 422 0.599858
1040 696 0.199953
1040 1374 0.000238149
1041 249 0.333333
1041 264 0.333333
1041 713 0.333333
1042 182 4.36378e-06
1042 395 0.499998
1042 551 0.499998
1043 20 0.243631
1043 134 0.252125
1043 176 3.0944e-06
1043 203 0.252116
1043 3409 0.252125
1044 546 0.253156
1044 944 0.746844
1045 81 0.249999
1045 159 0.249996
1045 1388 0.250007
1045 4457 0.249999
1046 20 0.00912967
1046 154 0.99087
1047 2 0.000413768
1047 7 0.000205405
1047 12 0.201344
1047 22 0.19487
1047 30 0.200446
1047 1082 0.201357
1047 3628 0.201363
1048 8 0.0974081
1048 11 0.141963
1048 579 0.126849
1048 1345 0.126383
1048 1805 0.126849
1048 1877 0.253699
1048 4361 0.126849
1049 11 0.166649
1049 759 0.166479
1049 1078 0.665897
1049 2163 0.000974986
1050 5 0.00182384
1050 32 0.199394
1050 267 0.399339
1050 1481 0.399444
1051 1273 1
1052 1351 0.5
1052 2359 0.5
1053 62 0.200297
1053 241 0.19992
1053 1398 0.599783
1054 136 0.200128
1054 633 0.599904
1054 1106 0.199968
1055 111 0.24429
1055 1019 0.75571
1056 1275 1
1057 17 2.92325e-05
1057 593 0.000120143
1057 894 0.999851
1058 2 0.00645869
1058 17 0.248374
1058 20 0.248395
1058 112 0.124193
1058 1402 0.248386
1058 3369 0.124193
1059 229 0.332503
1059 1099 0.250662
1059 1123 0.334142
1059 1214 0.0826925
1060 29 5.62318e-05
1060 634 0.999944
1061 20 0.253832
1061 681 0.251538
1061 1893 0.49463
1062 4 0.00382561
1062 9 3.57671e-05
1062 107 0.24923
1062 664 3.11921e-06
1062 900 0.497935
1062 1447 2.49644e-06
1062 4507 0.248968
1063 4 0.000583624
1063 5 0.000115332
1063 11 6.98097e-06
1063 189 0.749971
1063 222 0.249226
1063 1278 9.68692e-05
1064 134 0.499974
1064 764 5.09282e-05
1064 793 0.499976
1065 9 0.0331457
1065 11 0.310757
1065 232 0.209943
1065 264 0.155092
1065 1102 0.291062
1066 1108 1
1067 1924 0.5
1067 3226 0.25
1067 4007 0.25
1068 17 0.331048
1068 22 0.229595
1068 863 0.109875
1068 1261 0.219751
1068 1897 0.109731
1069 10 0.00185332
1069 92 7.33809e-05
1069 3198 0.998073
1070 49 0.166572
1070 1105 0.666744
1070 3128 0.166684
1071 1270 1
1072 59 0.5
1072 1264 0.5
1073 32 0.167245
1073 91 1.85258e-06
1073 147 8.68257e-06
1073 190 0.162089
1073 1423 0.502992
1073 3204 0.167664
1074 315 0.166748
1074 1030 0.333003
1074 1146 0.166757
1074 2405 0.333492
1075 92 0.333276
1075 317 0.666724
1076 35 0.499999
1076 92 0.500001
1077 67 0.499988
1077 370 0.500012
1078 2 1.57147e-06
1078 53 0.14306
1078 136 0.141569
1078 168 0.286142
1078 606 0.429227
1079 1239 0.600304
1079 1532 0.200086
1079 2094 0.19961
1080 237 0.499999
1080 1109 0.500001
1081 2 0.507115
1081 771 0.246171
1081 1608 0.000542593
1081 1936 0.246171
1082 1113 1
1083 8 1.35258e-05
1083 11 0.000110418
1083 13 0.182063
1083 17 0.163576
1083 75 0.163559
1083 410 0.490678
1084 1112 1
1085 7 0.331114
1085 32 0.167111
1085 925 0.167258
1085 1149 0.167258
1085 1285 0.167258
1086 71 0.524278
1086 523 0.475722
1087 325 0.748988
1087 919 0.251012
1088 2 0.203509
1088 2464 0.398246
1088 4335 0.199123
1088 4512 0.199123
1089 454 0.801646
1089 456 0.198354
1090 1061 1
1091 23 0.142835
1091 354 0.000164971
1091 1625 0.4285
1091 1671 0.4285
1092 2 0.159665
1092 11 0.00077291
1092 19 0.419759
1092 20 1.72519e-06
1092 32 4.30058e-05
1092 224 0.13992
1092 716 0.279839
1093 18 3.29755e-06
1093 1254 0.999997
1094 18 0.249809
1094 1459 0.750191
1095 13 0.142977
1095 379 0.142837
1095 502 0.571349
1095 2496 0.142837
1096 680 0.428571
1096 978 0.142857
1096 1386 0.428571
1097 2 0.255429
1097 645 0.372286
1097 1248 0.186143
1097 3393 0.186143
1098 1131 1
1099 117 0.250603
1099 453 0.499597
1099 1132 0.249799
1100 52 0.5
1100 2025 0.5
1101 1133 1
1102 3 0.00459701
1102 59 0.248842
1102 169 2.26951e-05
1102 1468 0.746538
1103 484 1
1104 22 0.199997
1104 648 0.800003
1105 754 0.999997
1105 1208 2.77388e-06
1106 274 0.167358
1106 447 0.169207
1106 1175 0.156554
1106 1473 0.338415
1106 2492 0.168467
1107 4 1.74401e-06
1107 70 0.166663
1107 147 0.166665
1107 1136 0.66667
1108 13 0.183014
1108 32 0.165371
1108 78 0.000152102
1108 167 0.159362
1108 755 0.331325
1108 2034 0.160776
1109 64 1
1110 8 0.425536
1110 12 2.16485e-06
1110 157 0.00032399
1110 1169 0.143534
1110 3443 0.143534
1110 3444 0.143534
1110 3445 0.143534
1111 18 7.31482e-06
1111 183 0.333399
1111 204 0.333414
1111 241 0.33318
1112 67 0.333333
1112 2213 0.333333
1112 2375 0.333333
1113 60 0.0569233
1113 941 0.754523
1113 3695 0.188554
1114 70 0.0999945
1114 349 0.0999929
1114 369 0.400012
1114 506 0.4
1115 31 0.00187268
1115 815 0.998127
1116 5 0.492631
1116 9 0.124327
1116 29 0.0128298
1116 1679 0.246808
1116 1689 0.123404
1117 45 0.428413
1117 242 0.571157
1117 1587 0.000429401
1118 686 0.24561
1118 757 0.75439
1119 23 0.300002
1119 31 0.299999
1119 1277 0.399999
1120 8 0.748424
1120 4066 0.251576
1121 16 0.199987
1121 32 0.19991
1121 66 4.33394e-06
1121 1454 0.600085
1121 2470 1.28152e-05
1122 5 0.015271
1122 20 0.339212
1122 800 0.309856
1122 969 0.334182
1122 2198 0.00147829
1123 5 0.0657483
1123 11 0.00226754
1123 70 9.87657e-05
1123 1651 0.931885
1124 12 9.71607e-06
1124 737 0.798814
1124 2481 0.201176
1125 81 0.00165882
1125 303 0.14262
1125 553 0.14262
1125 763 0.14262
1125 1156 0.570481
1126 3 0.145191
1126 4 3.83463e-05
1126 268 0.284773
1126 349 0.142492
1126 436 0.284979
1126 1370 0.142526
1127 20 0.125022
1127 28 0.124942
1127 53 0.125003
1127 345 0.125013
1127 888 0.125003
1127 1503 0.375016
1128 1504 1
1129 1207 1
1130 1646 0.749998
1130 4421 0.250002
1131 22 0.198907
1131 93 0.19898
1131 579 0.602114
1132 3 0.136997
1132 7 2.12956e-05
1132 355 0.172595
1132 1004 0.172595
1132 1641 0.517788
1132 2170 2.51589e-06
1133 1163 1
1134 23 0.142848
1134 36 0.14297
1134 43 0.142805
1134 618 0.142737
1134 1159 0.142943
1134 2099 0.285697
1135 2 1.06435e-05
1135 10 0.14579
1135 13 0.145348
1135 30 0.141322
1135 1165 0.567518
1135 2332 1.18486e-05
1136 3 0.0101866
1136 9 0.0240743
1136 29 2.50161e-05
1136 552 0.322654
1136 702 0.322449
1136 961 0.320611
1137 5 0.000174725
1137 1512 0.999825
1138 5 0.174225
1138 9 0.191541
1138 10 0.000155398
1138 144 0.158402
1138 1187 0.316805
1138 3406 0.000469236
1138 3741 0.158402
1139 4 0.169013
1139 1409 0.498567
1139 1643 0.332421
1140 66 0.161607
1140 80 0.192025
1140 306 0.161596
1140 1566 0.323181
1140 1576 0.161591
1141 21 0.142857
1141 108 0.428571
1141 456 0.428572
1142 8 0.000459246
1142 9 0.334598
1142 20 0.166169
1142 201 0.166264
1142 2185 0.166264
1142 3648 0.166245
1143 1172 1
1144 11 0.192215
1144 13 0.387475
1144 48 0.00142939
1144 140 0.194339
