1 1 4 100 1
1 2 4 100 1
0 3 4 100 0.403399
1 3 4 100 0.00078946
3 3 4 100 0.595812
1 4 4 100 1
0 5 4 100 0.000374193
2 5 4 100 0.999607
4 5 4 100 1.87035e-05
1 6 4 100 1
1 7 4 100 1
4 8 4 100 1
1 1 5 100 1
2 2 5 100 0.999424
4 2 5 100 0.000576521
4 3 5 100 1
4 4 5 100 0.000592393
5 4 5 100 0.999408
2 5 5 100 0.999951
4 5 5 100 4.90188e-05
2 6 5 100 1
3 7 5 100 1
4 8 5 100 1
5 9 5 100 1
5 10 5 100 1
5 11 5 100 1
1 1 6 100 1
1 2 6 100 1
1 3 6 100 0.500001
3 3 6 100 0.499999
2 4 6 100 0.5
4 4 6 100 0.5
0 5 6 100 0.0570173
2 5 6 100 0.326977
3 5 6 100 0.500001
4 5 6 100 0.0863817
5 5 6 100 0.0296235
0 6 6 100 0.000143983
4 6 6 100 0.999856
5 7 6 100 1
6 8 6 100 1
1 1 7 100 0.500254
2 1 7 100 0.25
4 1 7 100 0.0833334
5 1 7 100 0.166412
0 2 7 100 0.013512
1 2 7 100 0.246904
2 2 7 100 0.582061
3 2 7 100 0.00451903
4 2 7 100 0.000306126
5 2 7 100 0.0726176
6 2 7 100 0.0800806
0 3 7 100 0.0648893
1 3 7 100 0.0204861
2 3 7 100 0.3334
3 3 7 100 0.415046
4 3 7 100 0.166156
5 3 7 100 1.79839e-06
7 3 7 100 2.11278e-05
0 4 7 100 0.0799056
2 4 7 100 0.0815006
3 4 7 100 0.420369
4 4 7 100 0.32685
5 4 7 100 0.0913664
7 4 7 100 8.928e-06
0 5 7 100 0.00427385
2 5 7 100 0.0364459
3 5 7 100 0.0833334
4 5 7 100 0.501865
5 5 7 100 0.288187
6 5 7 100 0.0858781
7 5 7 100 1.69973e-05
0 6 7 100 0.00106946
1 6 7 100 0.0279502
3 6 7 100 0.000103134
4 6 7 100 0.24994
5 6 7 100 0.333541
6 6 7 100 0.325605
7 6 7 100 0.0617921
0 7 7 100 8.31128e-05
4 7 7 100 0.0832753
5 7 7 100 0.333308
6 7 7 100 0.25
7 7 7 100 0.333333
2 8 7 100 0.0744817
4 8 7 100 0.00586932
5 8 7 100 0.169715
6 8 7 100 0.374934
7 8 7 100 0.375
0 9 7 100 5.89305e-05
3 9 7 100 0.00268441
6 9 7 100 0.333274
7 9 7 100 0.663983
7 10 7 100 1
1 1 8 100 0.375
2 1 8 100 0.25
3 1 8 100 0.25
4 1 8 100 0.125
0 2 8 100 2.71256e-05
2 2 8 100 0.25014
3 2 8 100 0.125006
4 2 8 100 0.375002
5 2 8 100 0.124971
6 2 8 100 0.124854
0 3 8 100 0.0905263
1 3 8 100 1.70697e-05
2 3 8 100 0.286695
3 3 8 100 0.11983
4 3 8 100 0.125445
5 3 8 100 0.251824
6 3 8 100 0.125661
7 3 8 100 1.6529e-06
0 4 8 100 0.0388346
1 4 8 100 0.0474578
2 4 8 100 0.179396
3 4 8 100 0.125217
4 4 8 100 0.12428
5 4 8 100 0.357375
6 4 8 100 0.0023706
7 4 8 100 0.125063
8 4 8 100 6.31959e-06
0 5 8 100 0.00061756
1 5 8 100 0.110392
2 5 8 100 7.70686e-05
3 5 8 100 0.125088
4 5 8 100 0.125021
5 5 8 100 0.124989
6 5 8 100 0.499741
8 5 8 100 0.0140744
0 6 8 100 3.95734e-05
1 6 8 100 0.00217076
2 6 8 100 0.125859
4 6 8 100 0.124997
5 6 8 100 0.252277
6 6 8 100 0.125008
7 6 8 100 0.364259
8 6 8 100 0.00538966
0 7 8 100 5.67236e-06
2 7 8 100 0.000183123
3 7 8 100 0.108807
5 7 8 100 0.250005
6 7 8 100 0.27371
7 7 8 100 0.130451
8 7 8 100 0.236839
0 8 8 100 7.26819e-05
1 8 8 100 0.000435701
5 8 8 100 0.142857
6 8 8 100 0.285715
7 8 8 100 0.285016
8 8 8 100 0.285904
0 9 8 100 0.000156031
2 9 8 100 0.17931
4 9 8 100 4.35763e-06
6 9 8 100 0.200782
7 9 8 100 0.399929
8 9 8 100 0.219818
7 10 8 100 0.25
8 10 8 100 0.75
5 11 8 100 0.0197808
8 11 8 100 0.980219
0 12 8 100 0.0108777
1 12 8 100 0.444247
2 12 8 100 0.0443967
3 12 8 100 7.7433e-06
4 12 8 100 0.00229758
5 12 8 100 1.3767e-05
7 12 8 100 4.4531e-05
8 12 8 100 0.498115
1 13 8 100 1
1 1 9 100 0.572325
2 1 9 100 0.277778
3 1 9 100 0.0555556
5 1 9 100 0.0943416
0 2 9 100 0.0574656
1 2 9 100 0.055746
2 2 9 100 0.429433
3 2 9 100 0.280459
4 2 9 100 0.0631447
5 2 9 100 0.00231229
6 2 9 100 0.111243
9 2 9 100 0.00019681
0 3 9 100 0.0636753
1 3 9 100 0.0462661
2 3 9 100 0.231535
3 3 9 100 0.222678
4 3 9 100 0.376144
5 3 9 100 4.18264e-05
6 3 9 100 1.2042e-05
7 3 9 100 0.0596168
8 3 9 100 3.02361e-05
0 4 9 100 0.0585451
1 4 9 100 0.0584308
2 4 9 100 0.00588429
3 4 9 100 0.313151
4 4 9 100 0.234744
5 4 9 100 0.248568
6 4 9 100 0.0246493
7 4 9 100 0.000316277
8 4 9 100 0.0555563
9 4 9 100 0.000155276
0 5 9 100 0.0796693
1 5 9 100 0.106694
2 5 9 100 0.0622604
3 5 9 100 0.0570825
4 5 9 100 0.0894372
5 5 9 100 0.32336
6 5 9 100 0.220195
7 5 9 100 0.000404774
8 5 9 100 0.060148
9 5 9 100 0.00074881
0 6 9 100 0.0519137
1 6 9 100 3.9425e-06
2 6 9 100 0.0555554
3 6 9 100 0.00962361
4 6 9 100 0.0555797
5 6 9 100 0.110711
6 6 9 100 0.278515
7 6 9 100 0.281869
8 6 9 100 0.156229
0 7 9 100 0.0056343
1 7 9 100 0.055348
2 7 9 100 0.0555556
3 7 9 100 0.0499402
4 7 9 100 0.000325959
5 7 9 100 0.0555556
6 7 9 100 0.000207456
7 7 9 100 0.444309
8 7 9 100 0.277815
9 7 9 100 0.0553095
0 8 9 100 0.00239065
2 8 9 100 0.00118179
3 8 9 100 0.0555556
4 8 9 100 0.0555556
5 8 9 100 0.0555556
6 8 9 100 0.0557934
7 8 9 100 0.166685
8 8 9 100 0.388637
9 8 9 100 0.218646
0 9 9 100 0.00238257
1 9 9 100 0.0625
4 9 9 100 8.25563e-06
5 9 9 100 0.0625
6 9 9 100 0.0624996
7 9 9 100 0.18534
8 9 9 100 0.312456
9 9 9 100 0.312314
0 10 9 100 0.0713751
1 10 9 100 8.65436e-06
2 10 9 100 0.0697749
3 10 9 100 0.00311896
4 10 9 100 5.40394e-05
6 10 9 100 0.0712184
7 10 9 100 0.0716382
8 10 9 100 0.285715
9 10 9 100 0.427097
3 11 9 100 0.111115
5 11 9 100 0.10953
6 11 9 100 0.000159289
7 11 9 100 0.111111
8 11 9 100 0.332923
9 11 9 100 0.335161
0 12 9 100 0.0618243
1 12 9 100 0.000594574
4 12 9 100 4.20757e-06
5 12 9 100 1.24823e-05
6 12 9 100 0.167711
8 12 9 100 0.393884
9 12 9 100 0.37597
7 13 9 100 0.200372
8 13 9 100 0.2
9 13 9 100 0.599628
0 14 9 100 0.301276
4 14 9 100 0.00260879
7 14 9 100 0.00048632
8 14 9 100 0.340779
9 14 9 100 0.35485
0 15 9 100 0.467598
1 15 9 100 0.00439469
3 15 9 100 8.05315e-05
4 15 9 100 0.0243607
6 15 9 100 6.8575e-05
9 15 9 100 0.503498
7 16 9 100 1
7 17 9 100 1
7 18 9 100 1
8 19 9 100 0.987767
9 19 9 100 0.012233
9 20 9 100 1
1 1 10 100 0.6875
2 1 10 100 0.3125
0 2 10 100 3.25834e-05
1 2 10 100 0.124673
2 2 10 100 0.562817
3 2 10 100 0.249978
4 2 10 100 0.0625001
0 3 10 100 0.00220319
1 3 10 100 8.33524e-05
2 3 10 100 0.222237
3 3 10 100 0.439804
4 3 10 100 0.272684
5 3 10 100 0.0627
6 3 10 100 0.000230209
7 3 10 100 2.6985e-06
8 3 10 100 3.14729e-05
9 3 10 100 5.09554e-06
10 3 10 100 2.00564e-05
0 4 10 100 0.00222558
1 4 10 100 0.000448121
2 4 10 100 0.0997302
3 4 10 100 0.275259
4 4 10 100 0.374402
5 4 10 100 0.247928
6 4 10 100 1.32579e-06
7 4 10 100 2.48454e-06
9 4 10 100 8.48635e-07
10 4 10 100 2.60077e-06
0 5 10 100 0.0610504
2 5 10 100 0.0627539
3 5 10 100 0.0250386
4 5 10 100 0.159961
5 5 10 100 0.497908
6 5 10 100 0.0662119
7 5 10 100 0.0629597
8 5 10 100 0.00126874
9 5 10 100 0.0624423
10 5 10 100 0.000405194
0 6 10 100 0.066289
1 6 10 100 0.000935234
2 6 10 100 0.125
3 6 10 100 0.00040945
4 6 10 100 0.180752
5 6 10 100 0.205682
6 6 10 100 0.357231
8 6 10 100 0.00103279
9 6 10 100 2.70576e-06
10 6 10 100 0.062666
0 7 10 100 7.9898e-05
2 7 10 100 9.90274e-07
3 7 10 100 0.124993
5 7 10 100 0.246974
6 7 10 100 0.252144
7 7 10 100 0.25
8 7 10 100 0.0630537
9 7 10 100 0.000223709
10 7 10 100 0.0625304
0 8 10 100 0.00197122
2 8 10 100 3.44698e-05
3 8 10 100 2.16685e-06
4 8 10 100 0.0625013
5 8 10 100 0.0560741
6 8 10 100 0.188826
7 8 10 100 0.43762
8 8 10 100 0.19047
9 8 10 100 6.68417e-07
10 8 10 100 0.0625001
0 9 10 100 0.000166968
1 9 10 100 1.36464e-05
2 9 10 100 0.0666667
3 9 10 100 0.0665876
4 9 10 100 9.80114e-05
5 9 10 100 0.0666667
6 9 10 100 0.066737
7 9 10 100 0.133333
8 9 10 100 0.466339
9 9 10 100 0.133387
10 9 10 100 4.06659e-06
0 10 10 100 0.172691
1 10 10 100 0.00194955
2 10 10 100 0.0211982
3 10 10 100 0.0466363
4 10 10 100 0.00053344
5 10 10 100 2.87064e-06
6 10 10 100 0.0999814
7 10 10 100 0.133335
8 10 10 100 0.0674807
9 10 10 100 0.200232
10 10 10 100 0.255959
0 11 10 100 0.000442589
1 11 10 100 0.00408499
2 11 10 100 4.72604e-06
3 11 10 100 1.00347e-05
4 11 10 100 0.0833347
6 11 10 100 0.000154961
7 11 10 100 0.248069
8 11 10 100 0.167987
9 11 10 100 0.412504
10 11 10 100 0.0834073
0 12 10 100 0.0703743
1 12 10 100 3.35613e-06
4 12 10 100 6.97109e-05
7 12 10 100 0.0909088
8 12 10 100 0.181704
9 12 10 100 0.363666
10 12 10 100 0.293274
1 13 10 100 0.012298
3 13 10 100 4.59734e-05
4 13 10 100 0.152484
8 13 10 100 0.245385
9 13 10 100 0.41411
10 13 10 100 0.175677
0 14 10 100 0.000702965
1 14 10 100 0.000730192
3 14 10 100 2.39732e-05
5 14 10 100 0.10808
8 14 10 100 8.64608e-06
9 14 10 100 0.247316
10 14 10 100 0.643138
8 15 10 100 0.312794
9 15 10 100 0.320254
10 15 10 100 0.366952
10 16 10 100 1
1 1 11 100 0.452967
2 1 11 100 0.545369
3 1 11 100 3.39945e-05
4 1 11 100 2.79842e-05
6 1 11 100 0.00160181
10 1 11 100 7.56627e-07
0 2 11 100 0.000554708
1 2 11 100 0.132833
2 2 11 100 0.400485
3 2 11 100 0.325654
4 2 11 100 0.0118081
5 2 11 100 0.0619868
7 2 11 100 0.0665408
9 2 11 100 4.89381e-06
10 2 11 100 0.000125916
11 2 11 100 6.78477e-06
0 3 11 100 0.0313514
1 3 11 100 0.066664
2 3 11 100 0.132944
3 3 11 100 0.328928
4 3 11 100 0.173615
5 3 11 100 0.0724955
6 3 11 100 0.125564
7 3 11 100 0.0662619
8 3 11 100 4.92e-06
9 3 11 100 8.98856e-06
10 3 11 100 0.00216299
0 4 11 100 8.35864e-05
1 4 11 100 0.0666683
2 4 11 100 0.00409015
3 4 11 100 0.241982
4 4 11 100 0.265111
5 4 11 100 0.118982
6 4 11 100 0.0859175
7 4 11 100 0.215929
8 4 11 100 0.000175639
10 4 11 100 0.00106034
0 5 11 100 0.000366121
1 5 11 100 4.6171e-06
3 5 11 100 0.134529
4 5 11 100 0.241001
5 5 11 100 0.224043
6 5 11 100 0.133557
7 5 11 100 0.0666667
8 5 11 100 0.199779
10 5 11 100 5.32548e-05
0 6 11 100 1.42475e-05
3 6 11 100 7.44888e-06
4 6 11 100 0.133322
5 6 11 100 0.0666667
6 6 11 100 0.4
7 6 11 100 0.0667265
8 6 11 100 0.133294
9 6 11 100 0.199969
0 7 11 100 0.0373161
1 7 11 100 0.00109487
2 7 11 100 3.40697e-06
3 7 11 100 1.58303e-06
4 7 11 100 0.0539472
5 7 11 100 0.133313
6 7 11 100 0.267527
7 7 11 100 0.211387
8 7 11 100 0.0915451
9 7 11 100 0.134393
10 7 11 100 0.069473
0 8 11 100 0.000382522
1 8 11 100 0.000118847
2 8 11 100 1.20593e-06
4 8 11 100 0.0665478
6 8 11 100 0.133334
7 8 11 100 0.466451
9 8 11 100 0.133164
10 8 11 100 0.2
0 9 11 100 0.0213296
1 9 11 100 8.02794e-07
2 9 11 100 0.00018727
4 9 11 100 1.97962e-05
5 9 11 100 0.00494458
6 9 11 100 0.00318766
7 9 11 100 0.1213
8 9 11 100 0.459376
9 9 11 100 0.0666723
10 9 11 100 0.1922
11 9 11 100 0.130781
0 10 11 100 7.68477e-06
6 10 11 100 1.68007e-05
7 10 11 100 0.142857
8 10 11 100 0.214392
9 10 11 100 0.428572
10 10 11 100 0.0714296
11 10 11 100 0.142726
0 11 11 100 0.00399337
1 11 11 100 0.00288202
3 11 11 100 8.43528e-06
4 11 11 100 0.000183292
8 11 11 100 0.230063
9 11 11 100 0.227357
10 11 11 100 0.307552
11 11 11 100 0.227961
0 12 11 100 0.00175321
1 12 11 100 0.00102129
8 12 11 100 0.200056
9 12 11 100 0.298979
10 12 11 100 0.295681
11 12 11 100 0.202509
0 13 11 100 0.098924
1 13 11 100 0.106671
3 13 11 100 1.45187e-06
4 13 11 100 1.26093e-05
5 13 11 100 0.000146717
8 13 11 100 0.100092
9 13 11 100 0.196687
10 13 11 100 0.100412
11 13 11 100 0.397054
1 14 11 100 0.000655456
8 14 11 100 0.000397122
9 14 11 100 0.166269
10 14 11 100 0.332823
11 14 11 100 0.499855
11 15 11 100 1
11 16 11 100 1
11 17 11 100 1
11 18 11 100 1
1 1 12 100 0.444444
2 1 12 100 0.333326
3 1 12 100 0.222209
10 1 12 100 2.03807e-05
0 2 12 100 9.74094e-06
1 2 12 100 0.111119
2 2 12 100 0.330033
3 2 12 100 0.37468
4 2 12 100 0.180839
6 2 12 100 0.00329572
10 2 12 100 2.30697e-05
0 3 12 100 0.00161288
1 3 12 100 1.26921e-05
2 3 12 100 0.102819
3 3 12 100 0.22349
4 3 12 100 0.320795
5 3 12 100 0.110653
6 3 12 100 0.000423379
7 3 12 100 0.110963
8 3 12 100 0.0928564
9 3 12 100 0.0062626
10 3 12 100 0.0301123
0 4 12 100 0.0222395
1 4 12 100 1.6271e-05
2 4 12 100 0.000751928
3 4 12 100 0.175103
4 4 12 100 0.318008
5 4 12 100 0.363342
6 4 12 100 0.10789
7 4 12 100 0.00283924
8 4 12 100 0.00107916
9 4 12 100 0.00873063
3 5 12 100 0.111111
4 5 12 100 0.111111
5 5 12 100 0.222222
6 5 12 100 0.333333
7 5 12 100 0.111111
9 5 12 100 0.111111
0 6 12 100 0.01238
1 6 12 100 0.000121513
3 6 12 100 1.71341e-05
4 6 12 100 0.00458582
5 6 12 100 0.250428
6 6 12 100 0.164371
7 6 12 100 0.226173
8 6 12 100 0.11152
9 6 12 100 0.119292
10 6 12 100 0.111111
0 7 12 100 0.00913736
2 7 12 100 0.0766578
4 7 12 100 0.000955681
5 7 12 100 0.000286981
6 7 12 100 0.222263
8 7 12 100 0.333758
9 7 12 100 0.0242248
10 7 12 100 0.221605
11 7 12 100 0.111111
0 8 12 100 0.00196084
1 8 12 100 0.111069
2 8 12 100 0.000320534
4 8 12 100 0.00025714
5 8 12 100 6.48243e-06
6 8 12 100 0.129061
7 8 12 100 0.284449
8 8 12 100 0.0487244
9 8 12 100 0.142216
10 8 12 100 0.276554
11 8 12 100 0.00408961
12 8 12 100 0.00129123
0 9 12 100 0.00473594
1 9 12 100 0.111158
4 9 12 100 0.00021151
5 9 12 100 1.09313e-05
6 9 12 100 1.1882e-05
7 9 12 100 0.11114
8 9 12 100 0.111169
10 9 12 100 0.111111
11 9 12 100 0.550451
0 10 12 100 0.00228347
1 10 12 100 0.00455369
2 10 12 100 3.57862e-06
3 10 12 100 1.46853e-05
5 10 12 100 0.000185288
6 10 12 100 0.111077
7 10 12 100 0.106755
8 10 12 100 0.000616426
9 10 12 100 0.12508
10 10 12 100 0.00788402
11 10 12 100 0.222223
12 10 12 100 0.419325
0 11 12 100 0.0835077
2 11 12 100 0.00131572
3 11 12 100 0.111718
4 11 12 100 0.000170481
5 11 12 100 1.71526e-06
6 11 12 100 2.97414e-05
7 11 12 100 0.107944
8 11 12 100 0.112895
9 11 12 100 0.00188366
10 11 12 100 0.00030142
11 11 12 100 0.111127
12 11 12 100 0.469104
0 12 12 100 2.72949e-05
2 12 12 100 7.50714e-05
5 12 12 100 7.03176e-06
6 12 12 100 0.16646
7 12 12 100 0.166667
8 12 12 100 0.166667
9 12 12 100 0.166836
11 12 12 100 0.333261
8 13 12 100 0.166667
10 13 12 100 0.333333
12 13 12 100 0.5
0 14 12 100 0.0147817
4 14 12 100 0.0132432
5 14 12 100 0.00126238
6 14 12 100 2.7468e-05
7 14 12 100 0.000396123
8 14 12 100 0.636955
11 14 12 100 0.333334
0 15 12 100 0.286475
2 15 12 100 1.74716e-05
5 15 12 100 0.000770037
6 15 12 100 1.4701e-05
7 15 12 100 0.000620082
8 15 12 100 0.331514
9 15 12 100 0.372901
11 15 12 100 4.88477e-05
12 15 12 100 0.00763905
6 16 12 100 0.333333
9 16 12 100 0.333333
12 16 12 100 0.333333
2 17 12 100 0.0010919
4 17 12 100 0.000524717
7 17 12 100 0.998353
9 17 12 100 3.04292e-05
8 18 12 100 1
8 19 12 100 0.808195
9 19 12 100 0.133583
11 19 12 100 0.0191111
12 19 12 100 0.039111
12 20 12 100 1
1 1 13 100 0.789474
2 1 13 100 0.052633
3 1 13 100 0.105262
4 1 13 100 0.0526316
0 2 13 100 0.00597066
1 2 13 100 0.220498
2 2 13 100 0.474834
3 2 13 100 0.191195
4 2 13 100 0.0495562
5 2 13 100 0.0547506
6 2 13 100 0.00308908
8 2 13 100 8.66899e-06
10 2 13 100 9.67643e-05
11 2 13 100 1.23729e-06
0 3 13 100 0.0385856
1 3 13 100 0.052662
2 3 13 100 0.172595
3 3 13 100 0.313657
4 3 13 100 0.210296
5 3 13 100 0.0526194
6 3 13 100 0.105263
7 3 13 100 0.0540497
8 3 13 100 0.000235496
10 3 13 100 2.38716e-05
11 3 13 100 1.19774e-05
0 4 13 100 0.0174139
1 4 13 100 0.05585
2 4 13 100 0.0525902
3 4 13 100 0.151966
4 4 13 100 0.263258
5 4 13 100 0.242702
7 4 13 100 0.111193
8 4 13 100 0.0523715
9 4 13 100 0.05259
10 4 13 100 4.73043e-05
11 4 13 100 1.4266e-06
12 4 13 100 1.54628e-05
13 4 13 100 1.26783e-06
0 5 13 100 0.00100665
1 5 13 100 2.71265e-05
2 5 13 100 0.0522079
3 5 13 100 0.0526849
4 5 13 100 0.262953
5 5 13 100 0.315382
6 5 13 100 0.105175
7 5 13 100 5.88633e-07
8 5 13 100 0.0526873
9 5 13 100 0.105298
10 5 13 100 8.05971e-07
11 5 13 100 0.0525709
12 5 13 100 4.3971e-06
13 5 13 100 2.79128e-06
0 6 13 100 0.0490812
2 6 13 100 0.0523017
4 6 13 100 0.0331585
5 6 13 100 0.314877
6 6 13 100 0.28215
7 6 13 100 0.0538077
8 6 13 100 0.00229736
9 6 13 100 0.105263
10 6 13 100 0.00238587
11 6 13 100 0.0520459
12 6 13 100 0.0526316
0 7 13 100 0.00803597
1 7 13 100 2.72587e-06
3 7 13 100 0.0526322
5 7 13 100 0.105283
6 7 13 100 0.329201
7 7 13 100 0.263158
8 7 13 100 0.105333
10 7 13 100 0.0837214
12 7 13 100 0.0526326
0 8 13 100 0.102271
1 8 13 100 0.000204734
2 8 13 100 0.036469
3 8 13 100 0.0883337
4 8 13 100 7.17167e-05
5 8 13 100 0.000186563
6 8 13 100 0.105233
7 8 13 100 0.114791
8 8 13 100 0.293681
9 8 13 100 0.198836
10 8 13 100 0.00563864
11 8 13 100 0.0541519
12 8 13 100 2.37534e-05
13 8 13 100 0.000109244
0 9 13 100 0.00519159
3 9 13 100 0.0527037
4 9 13 100 0.0526316
5 9 13 100 0.0428619
6 9 13 100 0.0526316
7 9 13 100 0.157895
8 9 13 100 0.162168
9 9 13 100 0.263009
10 9 13 100 0.053481
11 9 13 100 0.0526474
12 9 13 100 0.104631
13 9 13 100 0.000147268
0 10 13 100 0.0501761
2 10 13 100 0.000108702
3 10 13 100 0.00346595
4 10 13 100 0.0428955
5 10 13 100 0.0108323
6 10 13 100 0.00226907
7 10 13 100 0.153223
8 10 13 100 0.0526317
9 10 13 100 0.263184
10 10 13 100 0.154224
11 10 13 100 0.161636
12 10 13 100 0.0526717
13 10 13 100 0.0526808
0 11 13 100 0.110565
1 11 13 100 0.00912243
2 11 13 100 6.31428e-05
3 11 13 100 0.000106464
4 11 13 100 0.0555556
5 11 13 100 2.48154e-05
6 11 13 100 5.88829e-05
7 11 13 100 8.65544e-07
8 11 13 100 0.157614
9 11 13 100 0.111086
10 11 13 100 0.222226
11 11 13 100 0.0557134
12 11 13 100 0.277795
13 11 13 100 6.95963e-05
0 12 13 100 0.00508197
1 12 13 100 0.0555593
4 12 13 100 0.0544499
5 12 13 100 8.83055e-06
6 12 13 100 0.111112
7 12 13 100 0.0555531
8 12 13 100 7.91332e-05
9 12 13 100 0.277627
10 12 13 100 0.111127
11 12 13 100 0.163666
12 12 13 100 0.0545531
13 12 13 100 0.111181
0 13 13 100 0.0167525
2 13 13 100 0.0402256
3 13 13 100 0.121013
5 13 13 100 1.20438e-06
6 13 13 100 0.117772
7 13 13 100 0.128376
8 13 13 100 0.000160624
9 13 13 100 0.117819
10 13 13 100 0.12936
11 13 13 100 0.14963
12 13 13 100 0.117475
13 13 13 100 0.061416
0 14 13 100 0.0235429
2 14 13 100 0.0569895
3 14 13 100 7.65781e-06
4 14 13 100 0.00306155
6 14 13 100 0.135826
8 14 13 100 0.0793164
9 14 13 100 0.0625002
10 14 13 100 0.249888
12 14 13 100 0.125001
13 14 13 100 0.263868
0 15 13 100 0.00465545
2 15 13 100 5.98632e-06
3 15 13 100 0.076923
5 15 13 100 0.000597953
6 15 13 100 0.0770076
7 15 13 100 2.5669e-06
8 15 13 100 1.12552e-05
9 15 13 100 0.0769232
10 15 13 100 0.149352
11 15 13 100 0.0769203
12 15 13 100 0.151056
13 15 13 100 0.386545
0 16 13 100 0.135754
1 16 13 100 8.62551e-06
2 16 13 100 3.45711e-05
3 16 13 100 0.00647969
5 16 13 100 0.112532
6 16 13 100 0.111112
7 16 13 100 0.0027809
8 16 13 100 0.000530516
9 16 13 100 0.111111
10 16 13 100 0.0715847
11 16 13 100 0.225567
12 16 13 100 1.27109e-05
13 16 13 100 0.222492
0 17 13 100 0.134497
2 17 13 100 7.12598e-06
6 17 13 100 0.11229
10 17 13 100 0.426609
11 17 13 100 0.153031
12 17 13 100 0.142857
13 17 13 100 0.0307087
0 18 13 100 5.57275e-05
7 18 13 100 0.16551
8 18 13 100 0.00115296
12 18 13 100 0.337078
13 18 13 100 0.496203
0 19 13 100 0.0450717
2 19 13 100 0.000470914
3 19 13 100 0.013539
5 19 13 100 0.000168249
6 19 13 100 2.75078e-05
7 19 13 100 0.233263
8 19 13 100 0.204739
9 19 13 100 6.53698e-06
10 19 13 100 0.000229262
11 19 13 100 2.19322e-05
12 19 13 100 0.0223084
13 19 13 100 0.480155
3 20 13 100 0.33232
4 20 13 100 0.334284
11 20 13 100 5.50071e-05
12 20 13 100 0.333336
13 20 13 100 5.34006e-06
4 21 13 100 0.309547
13 21 13 100 0.690453
13 22 13 100 1
1 1 14 100 0.499457
2 1 14 100 0.231313
3 1 14 100 0.0384616
4 1 14 100 0.0769226
5 1 14 100 0.0384616
7 1 14 100 0.0769232
12 1 14 100 0.038461
0 2 14 100 0.034659
1 2 14 100 0.15388
2 2 14 100 0.425035
3 2 14 100 0.155313
4 2 14 100 0.00863436
5 2 14 100 0.0769236
6 2 14 100 0.0951403
7 2 14 100 0.00039508
8 2 14 100 0.0387048
9 2 14 100 0.000345922
10 2 14 100 4.97704e-05
11 2 14 100 0.00163689
12 2 14 100 0.00928291
0 3 14 100 0.00123051
1 3 14 100 0.0384686
2 3 14 100 0.115258
3 3 14 100 0.269688
4 3 14 100 0.268517
5 3 14 100 0.0765318
6 3 14 100 0.049411
7 3 14 100 0.115
8 3 14 100 0.0371424
9 3 14 100 9.83255e-06
10 3 14 100 0.0278243
11 3 14 100 0.000857274
12 3 14 100 3.49937e-06
14 3 14 100 5.7738e-05
0 4 14 100 0.00369261
1 4 14 100 2.30566e-05
2 4 14 100 0.0384605
3 4 14 100 0.0607779
4 4 14 100 0.371291
5 4 14 100 0.285449
6 4 14 100 0.0775019
7 4 14 100 0.0384825
8 4 14 100 0.0766087
9 4 14 100 1.23043e-06
10 4 14 100 0.0455979
11 4 14 100 0.00208742
12 4 14 100 2.5627e-05
0 5 14 100 0.0040536
1 5 14 100 0.07676
2 5 14 100 0.000161152
3 5 14 100 0.0744571
4 5 14 100 0.115335
5 5 14 100 0.227524
6 5 14 100 0.191553
7 5 14 100 0.0775106
8 5 14 100 0.114994
9 5 14 100 0.039736
10 5 14 100 0.0769364
11 5 14 100 1.60888e-06
12 5 14 100 0.00097674
14 5 14 100 8.00159e-07
0 6 14 100 0.047598
1 6 14 100 0.0384921
2 6 14 100 0.0713918
3 6 14 100 0.0330204
4 6 14 100 0.0392534
5 6 14 100 0.0772399
6 6 14 100 0.191934
7 6 14 100 0.191844
8 6 14 100 0.0738095
9 6 14 100 0.155757
10 6 14 100 0.0404932
11 6 14 100 2.29408e-05
12 6 14 100 0.038239
14 6 14 100 0.000904391
0 7 14 100 0.0196618
1 7 14 100 0.000501436
2 7 14 100 0.0385281
3 7 14 100 0.000435701
4 7 14 100 0.00011783
5 7 14 100 0.105892
6 7 14 100 0.0384844
7 7 14 100 0.192319
8 7 14 100 0.232349
9 7 14 100 0.0769228
10 7 14 100 0.229989
11 7 14 100 0.0451907
12 7 14 100 0.00282151
13 7 14 100 0.0122193
14 7 14 100 0.00456775
0 8 14 100 0.022038
1 8 14 100 0.038022
2 8 14 100 0.0773013
3 8 14 100 0.00427124
5 8 14 100 0.0388689
6 8 14 100 0.0769227
7 8 14 100 0.154624
8 8 14 100 0.153956
9 8 14 100 0.153847
10 8 14 100 0.152656
11 8 14 100 0.0890277
12 8 14 100 0.0384657
0 9 14 100 0.107576
1 9 14 100 0.000466225
2 9 14 100 0.0719696
3 9 14 100 0.00508787
4 9 14 100 1.36662e-05
5 9 14 100 0.0150032
6 9 14 100 0.0435876
7 9 14 100 0.115474
8 9 14 100 0.0888561
9 9 14 100 0.153675
10 9 14 100 0.238758
11 9 14 100 0.12113
12 9 14 100 0.0383895
14 9 14 100 1.29768e-05
0 10 14 100 0.0389752
1 10 14 100 0.00131809
2 10 14 100 0.00114465
3 10 14 100 0.0384657
4 10 14 100 0.115384
5 10 14 100 0.0769231
6 10 14 100 0.000407339
7 10 14 100 0.0771183
8 10 14 100 0.114889
9 10 14 100 0.150805
10 10 14 100 0.0384956
11 10 14 100 0.153753
12 10 14 100 0.115415
13 10 14 100 0.0769056
0 11 14 100 0.000378197
1 11 14 100 3.57739e-05
3 11 14 100 1.59034e-05
4 11 14 100 0.0769285
6 11 14 100 0.0761082
8 11 14 100 0.0774114
9 11 14 100 0.115354
10 11 14 100 0.151751
11 11 14 100 0.0404151
12 11 14 100 0.230767
13 11 14 100 0.115466
14 11 14 100 0.115368
0 12 14 100 0.0400346
1 12 14 100 9.57201e-05
2 12 14 100 0.000106344
3 12 14 100 3.97073e-05
4 12 14 100 0.121677
5 12 14 100 0.04
6 12 14 100 1.2391e-05
7 12 14 100 0.0800218
8 12 14 100 0.0468576
9 12 14 100 0.201992
10 12 14 100 0.0407745
11 12 14 100 0.14755
12 12 14 100 0.0408214
13 12 14 100 0.200005
14 12 14 100 0.0400123
0 13 14 100 0.0404326
1 13 14 100 0.000285615
2 13 14 100 0.0372386
3 13 14 100 0.00302317
4 13 14 100 0.0393319
5 13 14 100 0.0450294
6 13 14 100 0.000289927
7 13 14 100 0.000697021
8 13 14 100 0.0353326
9 13 14 100 0.0855445
10 13 14 100 0.160024
11 13 14 100 0.0506669
12 13 14 100 0.201268
13 13 14 100 0.109324
14 13 14 100 0.191511
0 14 14 100 0.0399694
1 14 14 100 5.75064e-06
2 14 14 100 0.00601813
3 14 14 100 0.0909098
4 14 14 100 0.0454469
5 14 14 100 7.08344e-05
6 14 14 100 9.40978e-05
8 14 14 100 0.0673349
9 14 14 100 0.0909925
10 14 14 100 0.0565499
11 14 14 100 0.140076
12 14 14 100 0.045833
13 14 14 100 0.318172
14 14 14 100 0.0985275
0 15 14 100 0.0155211
1 15 14 100 4.42195e-05
4 15 14 100 0.100048
5 15 14 100 0.0476106
6 15 14 100 6.53357e-05
8 15 14 100 0.000231691
9 15 14 100 0.100042
10 15 14 100 0.0999263
11 15 14 100 0.0972914
12 15 14 100 0.134367
13 15 14 100 0.201712
14 15 14 100 0.20314
0 16 14 100 0.0011608
1 16 14 100 6.00653e-06
6 16 14 100 1.70585e-06
7 16 14 100 6.62281e-07
10 16 14 100 0.0615915
11 16 14 100 0.1875
12 16 14 100 0.187242
13 16 14 100 0.187487
14 16 14 100 0.375011
0 17 14 100 4.64617e-06
6 17 14 100 2.54052e-05
7 17 14 100 2.73186e-05
9 17 14 100 0.090881
10 17 14 100 1.64711e-06
11 17 14 100 0.0968101
12 17 14 100 0.175895
13 17 14 100 0.363628
14 17 14 100 0.272727
0 18 14 100 9.73762e-06
8 18 14 100 1.28048e-06
10 18 14 100 0.125
12 18 14 100 0.249994
13 18 14 100 0.24999
14 18 14 100 0.375005
0 19 14 100 0.193648
7 19 14 100 0.000640921
10 19 14 100 0.00480225
13 19 14 100 0.200909
14 19 14 100 0.600001
0 20 14 100 0.00770229
7 20 14 100 0.480102
9 20 14 100 0.000164787
11 20 14 100 0.00170214
13 20 14 100 0.510295
14 20 14 100 3.3382e-05
8 21 14 100 0.000255915
13 21 14 100 0.994186
14 21 14 100 0.00555792
14 22 14 100 1
1 1 15 100 0.388886
2 1 15 100 0.388833
3 1 15 100 0.0555569
4 1 15 100 0.111111
5 1 15 100 0.0550662
9 1 15 100 0.000488857
11 1 15 100 5.65294e-05
14 1 15 100 1.95094e-06
0 2 15 100 0.000520823
1 2 15 100 0.0554858
2 2 15 100 0.443288
3 2 15 100 0.277755
4 2 15 100 0.111111
5 2 15 100 0.110546
8 2 15 100 6.91102e-05
9 2 15 100 0.000565582
10 2 15 100 0.000629867
12 2 15 100 2.28192e-05
15 2 15 100 6.41809e-06
0 3 15 100 0.101244
1 3 15 100 0.0568952
2 3 15 100 0.000155231
3 3 15 100 0.39973
4 3 15 100 0.0684033
5 3 15 100 0.156299
6 3 15 100 0.0493493
8 3 15 100 0.0555772
9 3 15 100 1.08856e-06
10 3 15 100 0.0555597
11 3 15 100 0.0555556
12 3 15 100 0.00122687
13 3 15 100 3.77678e-06
0 4 15 100 0.0936686
1 4 15 100 0.0604139
2 4 15 100 0.00883466
3 4 15 100 0.0569095
4 4 15 100 0.279992
5 4 15 100 0.176321
6 4 15 100 0.108388
7 4 15 100 1.77554e-05
9 4 15 100 0.153644
10 4 15 100 5.2209e-05
11 4 15 100 2.00665e-06
12 4 15 100 0.0554989
13 4 15 100 0.00591559
15 4 15 100 0.00034168
0 5 15 100 0.00188087
3 5 15 100 0.111111
4 5 15 100 0.0559298
5 5 15 100 0.312029
6 5 15 100 0.239504
7 5 15 100 0.0555557
8 5 15 100 1.89633e-05
9 5 15 100 0.0555608
10 5 15 100 0.0552244
11 5 15 100 0.0575857
12 5 15 100 5.66456e-06
14 5 15 100 0.0555948
0 6 15 100 0.0588217
1 6 15 100 1.94654e-05
2 6 15 100 1.7347e-06
3 6 15 100 3.87278e-05
4 6 15 100 0.0446135
5 6 15 100 0.161184
6 6 15 100 0.280708
7 6 15 100 0.168346
8 6 15 100 0.0559789
9 6 15 100 0.000153513
10 6 15 100 0.110351
11 6 15 100 0.053043
12 6 15 100 0.0113323
13 6 15 100 1.584e-05
14 6 15 100 0.055393
0 7 15 100 0.0482447
2 7 15 100 0.00133468
4 7 15 100 0.0575925
5 7 15 100 0.00195358
6 7 15 100 0.22244
7 7 15 100 0.146072
8 7 15 100 0.226521
9 7 15 100 0.000177832
10 7 15 100 0.0555577
11 7 15 100 0.0647181
12 7 15 100 0.116567
13 7 15 100 0.00213267
14 7 15 100 0.0566728
15 7 15 100 1.53201e-05
0 8 15 100 0.000197627
3 8 15 100 0.00103978
4 8 15 100 0.00969518
5 8 15 100 0.0554765
6 8 15 100 0.00107847
7 8 15 100 0.277698
8 8 15 100 0.110675
9 8 15 100 0.222222
10 8 15 100 0.0549045
11 8 15 100 0.0555563
12 8 15 100 0.0553394
13 8 15 100 0.100561
14 8 15 100 0.0555562
0 9 15 100 0.00166174
1 9 15 100 3.94618e-06
3 9 15 100 7.70983e-05
4 9 15 100 0.0537651
5 9 15 100 0.110654
6 9 15 100 0.0555072
8 9 15 100 0.333419
9 9 15 100 0.111307
10 9 15 100 0.111298
11 9 15 100 0.0555783
12 9 15 100 0.0547973
13 9 15 100 0.00058652
14 9 15 100 0.111109
15 9 15 100 0.000235488
0 10 15 100 0.0483484
1 10 15 100 4.95187e-06
2 10 15 100 0.0581167
3 10 15 100 1.44748e-05
4 10 15 100 2.33979e-06
5 10 15 100 0.0555615
6 10 15 100 0.111111
7 10 15 100 6.21502e-05
8 10 15 100 0.109053
9 10 15 100 0.277778
10 10 15 100 0.0557384
11 10 15 100 0.116218
12 10 15 100 0.0555556
13 10 15 100 0.0555295
14 10 15 100 0.00129114
15 10 15 100 0.0556141
0 11 15 100 0.0170408
2 11 15 100 0.0588724
3 11 15 100 0.0588622
4 11 15 100 0.0323635
6 11 15 100 0.0587677
7 11 15 100 0.117659
9 11 15 100 0.293571
10 11 15 100 0.198031
11 11 15 100 2.25965e-05
12 11 15 100 0.0895467
13 11 15 100 0.0164379
14 11 15 100 0.0588237
15 11 15 100 1.9027e-06
0 12 15 100 0.00790345
1 12 15 100 5.79961e-05
2 12 15 100 0.057459
3 12 15 100 0.05892
4 12 15 100 6.0621e-06
5 12 15 100 0.0588691
7 12 15 100 0.0591134
8 12 15 100 0.117161
9 12 15 100 0.116601
10 12 15 100 0.237032
11 12 15 100 0.116144
12 12 15 100 0.0523933
13 12 15 100 0.0595163
15 12 15 100 0.0588236
0 13 15 100 0.00337492
1 13 15 100 4.21553e-06
2 13 15 100 1.94744e-06
4 13 15 100 6.14055e-05
5 13 15 100 4.84938e-05
6 13 15 100 0.0624983
7 13 15 100 0.0625007
8 13 15 100 0.128956
9 13 15 100 0.0624963
10 13 15 100 0.187453
11 13 15 100 0.303906
12 13 15 100 0.117388
13 13 15 100 0.0713101
14 13 15 100 7.91334e-07
0 14 15 100 0.00324947
4 14 15 100 0.0625043
5 14 15 100 1.90494e-05
6 14 15 100 0.00144601
7 14 15 100 0.108677
8 14 15 100 0.111627
9 14 15 100 0.0675187
10 14 15 100 0.0626316
11 14 15 100 0.124847
12 14 15 100 0.0625001
13 14 15 100 0.187557
14 14 15 100 0.134907
15 14 15 100 0.0725158
0 15 15 100 0.0816836
1 15 15 100 4.04124e-05
3 15 15 100 5.21433e-05
4 15 15 100 0.00160566
5 15 15 100 0.0664304
6 15 15 100 0.000162509
7 15 15 100 0.000162885
8 15 15 100 0.00512047
9 15 15 100 0.000354285
10 15 15 100 0.180423
11 15 15 100 0.134912
12 15 15 100 0.15657
13 15 15 100 0.0676619
14 15 15 100 0.185409
15 15 15 100 0.119411
0 16 15 100 0.000857326
2 16 15 100 0.0253431
3 16 15 100 2.56055e-05
7 16 15 100 0.000319961
8 16 15 100 0.0714206
9 16 15 100 0.000334512
10 16 15 100 0.0714031
11 16 15 100 0.0465841
12 16 15 100 0.0714399
13 16 15 100 0.214288
14 16 15 100 0.395733
15 16 15 100 0.10225
0 17 15 100 0.0722989
1 17 15 100 0.0717457
2 17 15 100 0.000207308
3 17 15 100 5.49282e-05
4 17 15 100 1.5555e-06
5 17 15 100 2.10537e-05
6 17 15 100 1.17184e-05
7 17 15 100 1.79954e-05
8 17 15 100 0.0137666
9 17 15 100 0.000382584
11 17 15 100 2.10649e-06
12 17 15 100 0.0715021
13 17 15 100 0.0714101
14 17 15 100 0.198953
15 17 15 100 0.499624
0 18 15 100 0.141967
1 18 15 100 0.000299878
2 18 15 100 0.110421
4 18 15 100 4.02645e-06
5 18 15 100 0.00989848
8 18 15 100 0.113011
9 18 15 100 0.112497
12 18 15 100 0.0153785
13 18 15 100 0.10211
14 18 15 100 0.111853
15 18 15 100 0.28256
2 19 15 100 0.142858
8 19 15 100 0.00155189
9 19 15 100 0.125921
12 19 15 100 0.142858
14 19 15 100 0.141303
15 19 15 100 0.445509
3 20 15 100 0.333333
13 20 15 100 0.333333
15 20 15 100 0.333333
0 21 15 100 0.0106422
4 21 15 100 0.000440413
5 21 15 100 0.000351736
8 21 15 100 6.81928e-06
13 21 15 100 1.98482e-05
14 21 15 100 0.499342
15 21 15 100 0.489197
5 22 15 100 0.000178415
14 22 15 100 0.499822
15 22 15 100 0.5
15 23 15 100 1
1 1 16 100 0.43479
2 1 16 100 0.217391
3 1 16 100 0.0869496
4 1 16 100 0.0869565
5 1 16 100 0.173913
0 2 16 100 0.0364669
1 2 16 100 0.180552
2 2 16 100 0.254193
3 2 16 100 0.130475
4 2 16 100 0.0436039
5 2 16 100 0.17076
6 2 16 100 0.174621
7 2 16 100 0.00286108
8 2 16 100 1.67646e-06
9 2 16 100 0.00109496
10 2 16 100 1.04171e-05
11 2 16 100 8.43495e-06
12 2 16 100 2.89963e-06
14 2 16 100 0.0051046
16 2 16 100 0.000243644
0 3 16 100 0.0582883
1 3 16 100 0.0713951
2 3 16 100 0.0435006
3 3 16 100 0.306135
4 3 16 100 0.126002
5 3 16 100 0.0496601
6 3 16 100 0.128738
7 3 16 100 0.130886
8 3 16 100 0.04348
9 3 16 100 5.42405e-05
10 3 16 100 2.05727e-06
11 3 16 100 0.000153826
12 3 16 100 0.0412575
13 3 16 100 1.9794e-05
14 3 16 100 3.49164e-06
15 3 16 100 0.000423415
0 4 16 100 0.000805184
2 4 16 100 0.064486
3 4 16 100 0.0552484
4 4 16 100 0.303322
5 4 16 100 0.0678922
6 4 16 100 0.115583
7 4 16 100 0.173802
8 4 16 100 0.0435968
9 4 16 100 0.130412
10 4 16 100 7.16285e-05
13 4 16 100 0.0434989
14 4 16 100 0.00127873
15 4 16 100 2.97252e-06
0 5 16 100 0.00127419
1 5 16 100 0.000237709
2 5 16 100 0.000368345
3 5 16 100 0.204664
4 5 16 100 0.043403
5 5 16 100 0.142017
6 5 16 100 0.0864263
7 5 16 100 0.130438
8 5 16 100 0.173697
9 5 16 100 0.0434899
10 5 16 100 0.130435
13 5 16 100 0.0317116
14 5 16 100 0.0118022
16 5 16 100 3.61085e-05
0 6 16 100 0.0348056
1 6 16 100 0.0442014
2 6 16 100 1.76715e-06
4 6 16 100 0.000469676
5 6 16 100 0.162172
6 6 16 100 0.0939249
7 6 16 100 0.133999
8 6 16 100 0.171415
9 6 16 100 0.219977
10 6 16 100 0.00161523
11 6 16 100 0.0885592
12 6 16 100 1.22853e-05
13 6 16 100 0.0416326
14 6 16 100 0.0071216
16 6 16 100 9.18595e-05
0 7 16 100 0.00106148
1 7 16 100 0.0410572
2 7 16 100 0.0851802
4 7 16 100 0.0869692
5 7 16 100 4.56061e-06
6 7 16 100 0.169621
7 7 16 100 0.0874751
8 7 16 100 0.133698
9 7 16 100 0.130726
10 7 16 100 0.131786
11 7 16 100 0.0434784
12 7 16 100 0.0865111
13 7 16 100 1.85519e-06
14 7 16 100 1.00621e-05
15 7 16 100 0.00242068
16 7 16 100 4.64541e-07
0 8 16 100 0.00215502
1 8 16 100 0.0051023
2 8 16 100 0.086652
3 8 16 100 0.0434784
4 8 16 100 0.0431324
5 8 16 100 8.44007e-05
6 8 16 100 0.0435323
7 8 16 100 0.169206
8 8 16 100 0.128097
9 8 16 100 0.0435255
10 8 16 100 0.130637
11 8 16 100 0.0434789
12 8 16 100 0.130332
13 8 16 100 0.0435553
14 8 16 100 0.0869359
15 8 16 100 5.60049e-05
16 8 16 100 3.92269e-05
0 9 16 100 0.160598
1 9 16 100 0.0134876
2 9 16 100 0.0055283
3 9 16 100 0.0441712
4 9 16 100 0.0410714
5 9 16 100 0.130464
6 9 16 100 0.088064
7 9 16 100 0.00021907
8 9 16 100 0.0452217
9 9 16 100 0.168675
10 9 16 100 0.0442504
11 9 16 100 0.11456
12 9 16 100 0.0435543
13 9 16 100 0.100028
14 9 16 100 9.35226e-06
15 9 16 100 4.83395e-05
16 9 16 100 4.95438e-05
0 10 16 100 0.000856631
2 10 16 100 0.0384485
3 10 16 100 0.0486456
4 10 16 100 0.0460882
5 10 16 100 1.6576e-05
6 10 16 100 0.0451622
7 10 16 100 0.0834276
8 10 16 100 0.0869915
9 10 16 100 0.129459
10 10 16 100 0.301086
12 10 16 100 0.130887
13 10 16 100 0.0454242
15 10 16 100 0.0434783
16 10 16 100 2.87567e-05
0 11 16 100 0.0602992
1 11 16 100 0.0420252
2 11 16 100 0.00503334
3 11 16 100 0.0437555
4 11 16 100 0.00216839
5 11 16 100 0.0826232
6 11 16 100 6.23134e-05
7 11 16 100 1.07248e-05
8 11 16 100 0.00196981
9 11 16 100 0.0951841
10 11 16 100 0.133517
11 11 16 100 0.272629
12 11 16 100 0.0328679
13 11 16 100 0.130263
14 11 16 100 0.0832465
16 11 16 100 0.0143449
0 12 16 100 0.0507603
1 12 16 100 0.0434364
2 12 16 100 0.0434879
3 12 16 100 1.31835e-05
4 12 16 100 0.0402943
5 12 16 100 0.00158563
6 12 16 100 0.00522681
7 12 16 100 0.0434783
9 12 16 100 0.0470252
10 12 16 100 0.0827423
11 12 16 100 0.238827
12 12 16 100 0.173881
13 12 16 100 0.0870271
14 12 16 100 0.134488
15 12 16 100 0.00459151
16 12 16 100 0.00313517
0 13 16 100 0.0429643
1 13 16 100 0.0434783
3 13 16 100 0.0434783
4 13 16 100 0.000240979
5 13 16 100 0.0434793
6 13 16 100 6.24791e-06
8 13 16 100 0.000511956
9 13 16 100 0.0868996
10 13 16 100 0.0443162
11 13 16 100 1.3856e-06
12 13 16 100 0.217064
13 13 16 100 0.170919
14 13 16 100 0.133221
15 13 16 100 0.0887951
16 13 16 100 0.0846255
0 14 16 100 0.131141
1 14 16 100 0.0592151
3 14 16 100 9.3338e-07
4 14 16 100 0.000910069
5 14 16 100 0.0454577
6 14 16 100 2.69781e-06
7 14 16 100 0.0475567
8 14 16 100 0.045492
9 14 16 100 0.0462796
10 14 16 100 0.052762
11 14 16 100 0.0126275
12 14 16 100 0.0909092
13 14 16 100 0.12392
14 14 16 100 0.07368
15 14 16 100 0.223338
16 14 16 100 0.0467076
0 15 16 100 0.0540113
1 15 16 100 0.0485318
2 15 16 100 0.0475823
5 15 16 100 0.00032721
6 15 16 100 0.0433286
7 15 16 100 0.0450156
8 15 16 100 0.0468793
9 15 16 100 0.0477075
10 15 16 100 0.14396
11 15 16 100 0.0480605
12 15 16 100 1.70939e-06
13 15 16 100 0.190562
14 15 16 100 0.237553
15 15 16 100 0.000232057
16 15 16 100 0.0462468
0 16 16 100 0.0221246
1 16 16 100 0.04762
3 16 16 100 0.0754944
5 16 16 100 1.25852e-06
6 16 16 100 0.0945768
9 16 16 100 0.000735787
10 16 16 100 0.0101236
11 16 16 100 0.0952469
12 16 16 100 0.18007
13 16 16 100 2.72102e-05
14 16 16 100 0.192131
15 16 16 100 0.234172
16 16 16 100 0.0476762
0 17 16 100 0.048025
1 17 16 100 3.4494e-05
3 17 16 100 0.0500019
4 17 16 100 0.0506041
5 17 16 100 0.0044002
6 17 16 100 0.04894
7 17 16 100 0.0465916
9 17 16 100 3.15451e-06
10 17 16 100 9.95264e-05
11 17 16 100 3.58112e-05
12 17 16 100 0.1
13 17 16 100 0.199999
14 17 16 100 0.0499964
15 17 16 100 0.249849
16 17 16 100 0.15142
0 18 16 100 0.142812
1 18 16 100 0.0607964
2 18 16 100 0.00453957
3 18 16 100 0.000152837
4 18 16 100 0.0585004
5 18 16 100 3.1804e-06
8 18 16 100 0.000270836
9 18 16 100 5.414e-06
10 18 16 100 9.89315e-07
11 18 16 100 0.0173951
12 18 16 100 0.00513387
13 18 16 100 0.00123245
14 18 16 100 0.235297
15 18 16 100 0.115617
16 18 16 100 0.358244
0 19 16 100 0.0106551
1 19 16 100 9.93222e-06
2 19 16 100 0.0666669
3 19 16 100 7.62679e-06
4 19 16 100 6.80589e-07
5 19 16 100 0.0669286
6 19 16 100 2.73061e-05
10 19 16 100 6.38888e-06
11 19 16 100 3.99329e-06
12 19 16 100 0.000123921
13 19 16 100 0.0666791
14 19 16 100 0.133333
15 19 16 100 0.389808
16 19 16 100 0.265749
0 20 16 100 0.104747
1 20 16 100 0.0273102
2 20 16 100 0.00193237
3 20 16 100 0.0235905
4 20 16 100 0.0320945
5 20 16 100 0.0020766
6 20 16 100 1.25659e-06
7 20 16 100 4.7744e-06
8 20 16 100 0.00185916
9 20 16 100 0.00122766
10 20 16 100 0.0628142
11 20 16 100 0.00138415
12 20 16 100 0.000602846
13 20 16 100 0.000664936
14 20 16 100 0.166631
15 20 16 100 0.147966
16 20 16 100 0.425092
2 21 16 100 0.00170959
3 21 16 100 1.89779e-05
4 21 16 100 0.000344581
14 21 16 100 0.125
15 21 16 100 0.622927
16 21 16 100 0.25
0 22 16 100 0.000120131
2 22 16 100 0.000430194
3 22 16 100 0.000262087
4 22 16 100 6.42541e-06
6 22 16 100 2.94427e-06
8 22 16 100 2.04632e-05
9 22 16 100 4.14408e-06
10 22 16 100 0.129594
11 22 16 100 0.000300625
14 22 16 100 0.000257161
15 22 16 100 0.337823
16 22 16 100 0.531179
16 23 16 100 1
1 1 17 100 0.45488
2 1 17 100 0.272854
3 1 17 100 0.0909252
4 1 17 100 0.0601903
5 1 17 100 0.000415834
6 1 17 100 0.0606061
8 1 17 100 0.0301848
11 1 17 100 0.0299441
0 2 17 100 0.0257096
1 2 17 100 0.135324
2 2 17 100 0.307273
3 2 17 100 0.293906
4 2 17 100 0.121661
5 2 17 100 0.000819856
6 2 17 100 0.0311065
7 2 17 100 0.0312871
8 2 17 100 0.0303043
10 2 17 100 4.42453e-05
11 2 17 100 4.85562e-05
12 2 17 100 0.0224708
13 2 17 100 1.8873e-06
15 2 17 100 3.82051e-05
16 2 17 100 2.23967e-06
17 2 17 100 2.51535e-06
0 3 17 100 0.065289
1 3 17 100 0.0317956
2 3 17 100 0.107382
3 3 17 100 0.279956
4 3 17 100 0.266479
5 3 17 100 0.0377814
6 3 17 100 0.0605948
7 3 17 100 0.0603207
8 3 17 100 0.0606096
9 3 17 100 8.27021e-06
10 3 17 100 0.0291196
11 3 17 100 3.95038e-06
12 3 17 100 1.91714e-05
13 3 17 100 3.92232e-06
14 3 17 100 0.000355671
15 3 17 100 1.22192e-05
16 3 17 100 0.000268802
0 4 17 100 0.0266885
1 4 17 100 0.0557423
2 4 17 100 0.065443
3 4 17 100 0.0980726
4 4 17 100 0.416126
5 4 17 100 0.127481
6 4 17 100 0.0303227
7 4 17 100 0.0304155
8 4 17 100 0.121175
10 4 17 100 6.64212e-05
11 4 17 100 0.0283105
12 4 17 100 4.7018e-05
13 4 17 100 8.33226e-06
14 4 17 100 3.22388e-05
15 4 17 100 1.40887e-05
16 4 17 100 3.8339e-05
17 4 17 100 1.62093e-05
0 5 17 100 0.000210352
1 5 17 100 0.0303195
2 5 17 100 0.0303036
3 5 17 100 0.029407
4 5 17 100 0.0962956
5 5 17 100 0.339853
6 5 17 100 0.177812
7 5 17 100 0.0240084
8 5 17 100 0.120472
9 5 17 100 0.0909024
10 5 17 100 2.14037e-05
11 5 17 100 0.060271
13 5 17 100 5.97523e-07
14 5 17 100 0.000120265
15 5 17 100 9.21735e-07
17 5 17 100 2.94055e-06
0 6 17 100 0.027433
1 6 17 100 0.00023827
2 6 17 100 2.45328e-05
3 6 17 100 0.0312887
5 6 17 100 0.0981323
6 6 17 100 0.270808
7 6 17 100 0.206341
8 6 17 100 0.0894703
9 6 17 100 0.121363
10 6 17 100 0.0606105
11 6 17 100 0.0313018
12 6 17 100 0.0594996
13 6 17 100 1.43065e-05
14 6 17 100 0.00347441
15 6 17 100 6.12678e-07
0 7 17 100 0.0294029
1 7 17 100 0.0299844
2 7 17 100 0.000121735
3 7 17 100 0.00044575
4 7 17 100 0.0290361
5 7 17 100 0.0619653
6 7 17 100 0.208111
7 7 17 100 0.0924021
8 7 17 100 0.243161
9 7 17 100 0.0931595
10 7 17 100 0.0605645
11 7 17 100 0.0606618
12 7 17 100 0.0606468
13 7 17 100 0.0303128
14 7 17 100 1.0823e-06
16 7 17 100 1.04892e-05
17 7 17 100 1.25209e-05
0 8 17 100 0.0220576
1 8 17 100 5.39774e-06
2 8 17 100 0.0303052
3 8 17 100 5.27623e-05
4 8 17 100 0.00331548
5 8 17 100 1.11456e-06
6 8 17 100 0.11697
7 8 17 100 0.153791
8 8 17 100 0.0609699
9 8 17 100 0.332112
10 8 17 100 0.121212
11 8 17 100 0.0906335
12 8 17 100 0.000248235
13 8 17 100 0.0630389
16 8 17 100 0.00510906
17 8 17 100 0.000177479
0 9 17 100 0.0163561
2 9 17 100 1.38102e-06
3 9 17 100 0.00428272
4 9 17 100 0.00109393
5 9 17 100 1.00805e-06
6 9 17 100 1.23118e-05
7 9 17 100 0.150836
8 9 17 100 0.213619
9 9 17 100 0.168859
10 9 17 100 0.143837
11 9 17 100 0.151501
12 9 17 100 0.0698833
13 9 17 100 0.0136675
14 9 17 100 0.0621273
17 9 17 100 0.00392302
0 10 17 100 0.0654909
1 10 17 100 6.25401e-06
2 10 17 100 0.000153676
3 10 17 100 1.30639e-05
4 10 17 100 0.000102743
5 10 17 100 0.00014214
6 10 17 100 3.05363e-06
7 10 17 100 0.000146805
8 10 17 100 0.181821
9 10 17 100 0.161576
10 10 17 100 0.144323
11 10 17 100 0.151331
12 10 17 100 0.181783
13 10 17 100 0.022144
14 10 17 100 0.0558722
15 10 17 100 0.0350429
16 10 17 100 4.80783e-06
17 10 17 100 4.3427e-05
0 11 17 100 0.0810314
1 11 17 100 0.000900011
2 11 17 100 4.01577e-06
3 11 17 100 0.000961599
4 11 17 100 0.000109075
5 11 17 100 0.000132337
6 11 17 100 1.90823e-05
7 11 17 100 0.028578
8 11 17 100 0.0295111
9 11 17 100 0.121272
10 11 17 100 0.122962
11 11 17 100 0.0933454
12 11 17 100 0.214723
13 11 17 100 0.119571
14 11 17 100 0.0926565
15 11 17 100 0.0332216
16 11 17 100 0.0610005
17 11 17 100 1.10818e-06
0 12 17 100 0.0140226
1 12 17 100 0.000914175
2 12 17 100 4.54644e-06
3 12 17 100 0.0260125
5 12 17 100 0.00369268
7 12 17 100 3.27088e-06
8 12 17 100 0.0616991
9 12 17 100 0.0789022
10 12 17 100 0.150791
11 12 17 100 0.092602
12 12 17 100 0.0909843
13 12 17 100 0.181564
14 12 17 100 0.126727
15 12 17 100 0.121831
16 12 17 100 0.0286309
17 12 17 100 0.021618
0 13 17 100 0.0011268
1 13 17 100 3.94774e-07
2 13 17 100 0.0291226
4 13 17 100 0.000679715
5 13 17 100 3.15719e-07
6 13 17 100 8.32616e-06
7 13 17 100 4.65666e-05
9 13 17 100 0.0302821
10 13 17 100 0.0606068
11 13 17 100 0.0598187
12 13 17 100 0.212402
13 13 17 100 0.0891165
14 13 17 100 0.211982
15 13 17 100 0.0994293
16 13 17 100 0.175028
17 13 17 100 0.0303498
0 14 17 100 0.0690384
1 14 17 100 0.000272125
2 14 17 100 2.43083e-05
3 14 17 100 0.0327953
4 14 17 100 0.000826375
5 14 17 100 0.0324832
6 14 17 100 0.000902455
7 14 17 100 4.5005e-05
8 14 17 100 0.0303197
9 14 17 100 6.83416e-05
10 14 17 100 0.0377551
11 14 17 100 0.0878447
12 14 17 100 0.0316317
13 14 17 100 0.175266
14 14 17 100 0.0329508
15 14 17 100 0.183415
16 14 17 100 0.20063
17 14 17 100 0.0837312
0 15 17 100 0.0324141
1 15 17 100 4.07191e-05
3 15 17 100 6.16094e-05
4 15 17 100 0.0322938
5 15 17 100 0.033543
6 15 17 100 0.0326414
7 15 17 100 0.0322377
8 15 17 100 2.9986e-06
9 15 17 100 0.0320652
10 15 17 100 0.0321981
11 15 17 100 0.0323874
12 15 17 100 0.0643516
13 15 17 100 0.0976558
14 15 17 100 0.161743
15 15 17 100 0.161246
16 15 17 100 0.16066
17 15 17 100 0.0944576
0 16 17 100 0.0856158
1 16 17 100 4.36618e-05
2 16 17 100 6.03013e-05
3 16 17 100 0.00291073
4 16 17 100 0.00417645
5 16 17 100 0.0661584
6 16 17 100 0.0333369
7 16 17 100 0.0334085
8 16 17 100 3.13634e-05
9 16 17 100 5.86787e-05
10 16 17 100 1.7304e-06
11 16 17 100 8.83333e-05
12 16 17 100 0.000173773
13 16 17 100 0.10815
14 16 17 100 0.143421
15 16 17 100 0.260124
16 16 17 100 0.193912
17 16 17 100 0.0683281
0 17 17 100 0.00505139
1 17 17 100 3.62802e-05
2 17 17 100 7.90195e-05
4 17 17 100 0.0689656
5 17 17 100 0.00129614
6 17 17 100 0.0345819
7 17 17 100 0.0511177
8 17 17 100 0.0352838
9 17 17 100 0.0344828
10 17 17 100 0.000331018
11 17 17 100 0.0344834
12 17 17 100 0.0338372
13 17 17 100 0.00035907
14 17 17 100 0.137934
15 17 17 100 0.114782
16 17 17 100 0.206712
17 17 17 100 0.240666
0 18 17 100 0.0327367
1 18 17 100 6.08215e-07
2 18 17 100 1.84388e-06
3 18 17 100 1.71074e-06
4 18 17 100 0.0963142
5 18 17 100 0.0456002
6 18 17 100 9.2891e-05
7 18 17 100 0.0400978
8 18 17 100 0.0454515
9 18 17 100 4.74374e-06
10 18 17 100 0.0900756
11 18 17 100 5.30966e-07
12 18 17 100 0.037254
14 18 17 100 0.0597978
15 18 17 100 0.29709
16 18 17 100 0.11908
17 18 17 100 0.1364
0 19 17 100 0.0387717
1 19 17 100 0.000233238
2 19 17 100 0.0135311
3 19 17 100 3.02639e-05
4 19 17 100 0.0526317
5 19 17 100 0.105301
6 19 17 100 6.31761e-07
7 19 17 100 2.29261e-05
8 19 17 100 0.105105
9 19 17 100 8.43569e-07
10 19 17 100 0.0526259
11 19 17 100 0.000550268
12 19 17 100 1.79987e-05
13 19 17 100 0.00436988
14 19 17 100 0.105154
15 19 17 100 0.0928465
16 19 17 100 0.374366
17 19 17 100 0.0544418
0 20 17 100 0.0566726
1 20 17 100 7.60648e-06
3 20 17 100 0.00210436
4 20 17 100 0.0555912
5 20 17 100 1.28468e-06
6 20 17 100 0.0556036
7 20 17 100 0.00424247
9 20 17 100 0.0548219
10 20 17 100 0.0555596
11 20 17 100 1.71843e-06
12 20 17 100 0.00148742
13 20 17 100 0.0500936
14 20 17 100 5.53927e-05
15 20 17 100 0.0555759
16 20 17 100 0.193113
17 20 17 100 0.415068
0 21 17 100 0.00152973
3 21 17 100 0.000268626
5 21 17 100 0.0750453
10 21 17 100 0.0769301
13 21 17 100 4.15948e-05
15 21 17 100 0.0781484
16 21 17 100 0.152579
17 21 17 100 0.615458
3 22 17 100 5.58364e-06
5 22 17 100 0.0103457
11 22 17 100 0.164431
12 22 17 100 0.0304864
14 22 17 100 0.0109144
15 22 17 100 0.178611
16 22 17 100 0.200011
17 22 17 100 0.405195
17 23 17 100 1
1 1 18 100 0.441186
2 1 18 100 0.294115
3 1 18 100 0.117639
4 1 18 100 0.0294125
5 1 18 100 0.0882359
13 1 18 100 0.0294118
0 2 18 100 0.0281355
1 2 18 100 0.0882525
2 2 18 100 0.436521
3 2 18 100 0.177997
4 2 18 100 0.118276
5 2 18 100 0.0910069
6 2 18 100 0.0294153
7 2 18 100 5.01955e-06
8 2 18 100 0.000966544
12 2 18 100 1.21588e-05
13 2 18 100 1.0591e-05
14 2 18 100 0.029387
15 2 18 100 1.34527e-06
16 2 18 100 1.17928e-05
18 2 18 100 2.38876e-06
0 3 18 100 0.0810709
1 3 18 100 0.0289866
2 3 18 100 0.0346076
3 3 18 100 0.258613
4 3 18 100 0.261218
5 3 18 100 0.0944349
6 3 18 100 0.117453
7 3 18 100 0.0373012
8 3 18 100 1.10661e-05
9 3 18 100 0.000471927
10 3 18 100 3.15653e-06
11 3 18 100 0.000427434
12 3 18 100 0.000694925
13 3 18 100 0.029514
14 3 18 100 6.45393e-07
15 3 18 100 0.0294229
16 3 18 100 0.0249082
18 3 18 100 0.00086033
0 4 18 100 0.0280814
1 4 18 100 2.90199e-05
2 4 18 100 0.0558451
3 4 18 100 0.0322534
4 4 18 100 0.2069
5 4 18 100 0.292133
6 4 18 100 0.0586029
7 4 18 100 0.147097
8 4 18 100 0.0294614
10 4 18 100 0.000134333
11 4 18 100 0.000984026
12 4 18 100 2.98235e-05
13 4 18 100 0.0294118
14 4 18 100 0.0588272
15 4 18 100 0.0294118
16 4 18 100 0.0012946
17 4 18 100 0.0295027
0 5 18 100 0.0502947
1 5 18 100 0.000805366
2 5 18 100 1.95244e-05
3 5 18 100 0.0350583
4 5 18 100 0.0933988
5 5 18 100 0.253416
6 5 18 100 0.204692
7 5 18 100 0.059391
8 5 18 100 0.121855
9 5 18 100 0.0303101
10 5 18 100 8.16772e-05
11 5 18 100 0.0591239
13 5 18 100 0.0294118
15 5 18 100 0.0576371
16 5 18 100 0.00446979
17 5 18 100 1.84208e-05
18 5 18 100 1.66608e-05
0 6 18 100 0.0297516
1 6 18 100 0.00111201
2 6 18 100 1.28309e-05
3 6 18 100 0.0293555
4 6 18 100 0.0293834
5 6 18 100 0.147028
6 6 18 100 0.184402
7 6 18 100 0.148847
8 6 18 100 0.121263
9 6 18 100 0.16143
10 6 18 100 0.0287347
11 6 18 100 0.000625382
12 6 18 100 0.029487
13 6 18 100 3.99889e-05
14 6 18 100 0.0297184
15 6 18 100 0.0294217
16 6 18 100 0.0290535
17 6 18 100 0.000328653
18 6 18 100 5.85271e-06
0 7 18 100 0.0269989
1 7 18 100 0.00327303
2 7 18 100 0.037188
3 7 18 100 0.0540642
4 7 18 100 0.00176997
5 7 18 100 0.113371
6 7 18 100 0.205544
7 7 18 100 0.0588237
8 7 18 100 0.176459
9 7 18 100 0.0888411
10 7 18 100 0.117486
11 7 18 100 0.0294192
12 7 18 100 0.0588576
13 7 18 100 1.72796e-05
14 7 18 100 1.11817e-06
15 7 18 100 0.0278646
16 7 18 100 1.63966e-05
17 7 18 100 3.37525e-06
18 7 18 100 6.35999e-07
0 8 18 100 0.00165233
1 8 18 100 0.0299094
2 8 18 100 0.000245535
3 8 18 100 0.000374197
4 8 18 100 0.0284463
5 8 18 100 1.02938e-05
6 8 18 100 0.147355
7 8 18 100 0.264655
8 8 18 100 0.0586667
9 8 18 100 0.17434
10 8 18 100 0.142332
11 8 18 100 0.0882234
12 8 18 100 0.00485349
13 8 18 100 0.0294205
14 8 18 100 1.8287e-05
15 8 18 100 0.0294907
16 8 18 100 5.01976e-06
18 8 18 100 2.70259e-06
0 9 18 100 0.00777672
1 9 18 100 0.0294462
2 9 18 100 0.0294123
3 9 18 100 1.18683e-06
5 9 18 100 0.0588582
6 9 18 100 0.095592
7 9 18 100 0.146835
8 9 18 100 0.223401
9 9 18 100 0.0892273
10 9 18 100 0.120347
11 9 18 100 0.0904501
12 9 18 100 0.0294118
13 9 18 100 0.0296763
14 9 18 100 0.0201502
16 9 18 100 0.0294139
0 10 18 100 0.0569616
1 10 18 100 0.0282433
2 10 18 100 3.14523e-05
3 10 18 100 1.29895e-05
4 10 18 100 0.0556155
5 10 18 100 0.000120024
6 10 18 100 0.0298565
7 10 18 100 0.0299089
8 10 18 100 0.116688
9 10 18 100 0.207981
10 10 18 100 0.150407
11 10 18 100 0.0611222
12 10 18 100 0.144938
13 10 18 100 0.0588101
14 10 18 100 0.0294126
15 10 18 100 0.00047154
16 10 18 100 7.04866e-06
17 10 18 100 0.0294124
0 11 18 100 0.0356952
1 11 18 100 1.76891e-05
2 11 18 100 0.0294118
3 11 18 100 0.0294118
4 11 18 100 0.0497653
5 11 18 100 6.12073e-05
6 11 18 100 0.0294171
7 11 18 100 5.73688e-07
8 11 18 100 0.0887484
9 11 18 100 0.0871846
10 11 18 100 0.17685
11 11 18 100 0.235142
12 11 18 100 0.0294371
13 11 18 100 0.14707
14 11 18 100 0.0593163
15 11 18 100 7.0023e-05
16 11 18 100 7.52826e-07
18 11 18 100 0.00239938
0 12 18 100 0.0591791
1 12 18 100 5.93016e-06
2 12 18 100 0.00208148
3 12 18 100 0.0302901
4 12 18 100 1.32482e-06
5 12 18 100 0.0233462
6 12 18 100 0.0294393
7 12 18 100 1.29277e-05
8 12 18 100 0.00130581
9 12 18 100 0.0294224
10 12 18 100 0.117423
11 12 18 100 0.205624
12 12 18 100 0.176785
13 12 18 100 0.117752
14 12 18 100 0.0889546
15 12 18 100 0.118307
16 12 18 100 5.94373e-05
17 12 18 100 9.96079e-06
0 13 18 100 0.0826289
1 13 18 100 1.93675e-06
2 13 18 100 0.000497584
3 13 18 100 0.0294134
4 13 18 100 0.0285184
5 13 18 100 3.33494e-05
6 13 18 100 0.036285
7 13 18 100 0.00118563
8 13 18 100 9.39917e-05
9 13 18 100 0.0768892
10 13 18 100 0.0715043
11 13 18 100 0.1086
12 13 18 100 0.205896
13 13 18 100 0.117648
14 13 18 100 0.0880929
15 13 18 100 0.0599218
16 13 18 100 0.0925198
17 13 18 100 0.000267516
18 13 18 100 2.18492e-06
0 14 18 100 0.00936912
1 14 18 100 1.01544e-06
2 14 18 100 0.0221373
3 14 18 100 0.00181612
4 14 18 100 6.57959e-05
5 14 18 100 0.0571647
7 14 18 100 0.0588294
8 14 18 100 1.05617e-06
9 14 18 100 4.06034e-06
10 14 18 100 0.0587412
11 14 18 100 0.0588564
12 14 18 100 0.137677
13 14 18 100 0.185343
14 14 18 100 0.120066
15 14 18 100 0.059333
16 14 18 100 0.170797
17 14 18 100 0.0597944
18 14 18 100 3.38898e-06
0 15 18 100 0.0711626
1 15 18 100 0.00121429
2 15 18 100 0.000400485
3 15 18 100 0.00426299
4 15 18 100 0.0285621
5 15 18 100 8.08174e-06
7 15 18 100 0.0183022
8 15 18 100 0.0588249
9 15 18 100 0.000694327
10 15 18 100 0.00852747
11 15 18 100 0.0323371
12 15 18 100 0.178211
13 15 18 100 0.0897994
14 15 18 100 0.0886647
15 15 18 100 0.11885
16 15 18 100 0.0899299
17 15 18 100 0.150929
18 15 18 100 0.0593198
0 16 18 100 0.0443677
1 16 18 100 4.93458e-06
2 16 18 100 3.07917e-05
3 16 18 100 0.0275777
4 16 18 100 1.03935e-05
5 16 18 100 1.54005e-05
6 16 18 100 0.0312453
7 16 18 100 3.95539e-07
8 16 18 100 0.000282606
9 16 18 100 0.0316962
10 16 18 100 0.0941083
11 16 18 100 5.56117e-05
12 16 18 100 0.092873
13 16 18 100 0.0655942
14 16 18 100 0.0636122
15 16 18 100 0.216981
16 16 18 100 0.12561
17 16 18 100 0.138393
18 16 18 100 0.0675408
0 17 18 100 0.0317208
1 17 18 100 6.72256e-05
4 17 18 100 0.0341289
5 17 18 100 2.01122e-06
6 17 18 100 1.09413e-05
8 17 18 100 0.0312541
9 17 18 100 1.58692e-05
10 17 18 100 0.0312555
11 17 18 100 0.0931971
12 17 18 100 0.0624683
13 17 18 100 0.0624822
14 17 18 100 0.0920361
15 17 18 100 0.0956554
16 17 18 100 0.156667
17 17 18 100 0.215076
18 17 18 100 0.0939623
0 18 18 100 0.0242921
1 18 18 100 0.000201502
3 18 18 100 2.00313e-06
4 18 18 100 2.18615e-05
5 18 18 100 0.0291882
6 18 18 100 0.0242806
7 18 18 100 0.000182028
8 18 18 100 0.000397838
9 18 18 100 0.00166324
10 18 18 100 0.0332973
11 18 18 100 0.0913539
12 18 18 100 0.0329915
13 18 18 100 0.0666959
14 18 18 100 0.141259
15 18 18 100 0.100601
16 18 18 100 0.141453
17 18 18 100 0.19901
18 18 18 100 0.113109
0 19 18 100 0.00867893
1 19 18 100 0.000558926
3 19 18 100 1.41574e-05
4 19 18 100 1.43493e-05
5 19 18 100 0.0303255
6 19 18 100 0.00523589
9 19 18 100 4.50254e-07
10 19 18 100 0.00181774
11 19 18 100 0.000124089
12 19 18 100 0.0166945
14 19 18 100 0.0714083
15 19 18 100 0.0658959
16 19 18 100 0.107136
17 19 18 100 0.362732
18 19 18 100 0.329362
0 20 18 100 0.000396296
1 20 18 100 0.0462561
2 20 18 100 0.00370051
3 20 18 100 0.0499987
5 20 18 100 0.000312811
6 20 18 100 1.42532e-06
7 20 18 100 0.0500002
9 20 18 100 1.90185e-06
10 20 18 100 6.00155e-06
12 20 18 100 1.6248e-05
13 20 18 100 8.99165e-07
14 20 18 100 2.01271e-06
15 20 18 100 0.1
16 20 18 100 0.0499847
17 20 18 100 0.448566
18 20 18 100 0.250756
0 21 18 100 0.0993926
1 21 18 100 0.000161101
2 21 18 100 2.0782e-06
3 21 18 100 0.126401
4 21 18 100 3.07223e-05
5 21 18 100 0.0625102
6 21 18 100 7.62423e-06
9 21 18 100 1.30109e-05
10 21 18 100 0.000228829
11 21 18 100 1.29952e-05
13 21 18 100 0.000749176
14 21 18 100 0.00808902
15 21 18 100 0.0626286
16 21 18 100 0.0624587
17 21 18 100 0.31483
18 21 18 100 0.262484
0 22 18 100 0.101354
2 22 18 100 4.89531e-05
3 22 18 100 0.000655045
4 22 18 100 0.0822471
5 22 18 100 0.0836436
6 22 18 100 1.36868e-06
7 22 18 100 0.000151814
9 22 18 100 3.74249e-06
14 22 18 100 0.0002009
15 22 18 100 0.16658
16 22 18 100 0.166099
17 22 18 100 0.146151
18 22 18 100 0.252863
0 23 18 100 0.0301394
1 23 18 100 0.0779152
2 23 18 100 0.00638065
3 23 18 100 0.111111
4 23 18 100 3.61733e-06
5 23 18 100 0.207691
7 23 18 100 1.39261e-06
10 23 18 100 0.00239622
12 23 18 100 8.16338e-06
13 23 18 100 0.000471684
15 23 18 100 2.52821e-05
16 23 18 100 1.97835e-05
17 23 18 100 0.222457
18 23 18 100 0.341379
0 24 18 100 0.112012
2 24 18 100 3.75072e-05
3 24 18 100 7.09374e-05
4 24 18 100 1.87895e-06
7 24 18 100 4.05224e-05
8 24 18 100 0.0108323
10 24 18 100 0.0198982
14 24 18 100 0.142857
15 24 18 100 0.143014
17 24 18 100 0.142661
18 24 18 100 0.428575
0 25 18 100 2.98534e-05
2 25 18 100 0.0305315
7 25 18 100 1.81088e-05
14 25 18 100 0.00773567
15 25 18 100 0.0182236
17 25 18 100 0.0330355
18 25 18 100 0.910426
18 26 18 100 1
1 1 19 100 0.641604
2 1 19 100 0.129032
3 1 19 100 0.0645112
4 1 19 100 0.0645131
5 1 19 100 0.0645161
8 1 19 100 0.0322581
15 1 19 100 0.0035657
0 2 19 100 0.0281653
1 2 19 100 0.236892
2 2 19 100 0.419742
3 2 19 100 0.125495
4 2 19 100 0.0648193
5 2 19 100 0.0552406
6 2 19 100 0.0620824
7 2 19 100 0.00241877
8 2 19 100 0.000294012
9 2 19 100 4.63844e-06
10 2 19 100 3.72453e-07
11 2 19 100 3.26544e-06
12 2 19 100 0.000851312
14 2 19 100 3.54305e-07
15 2 19 100 0.000505691
16 2 19 100 0.000184275
18 2 19 100 0.00322825
19 2 19 100 7.25422e-05
0 3 19 100 0.0398395
1 3 19 100 0.0286919
2 3 19 100 0.258739
3 3 19 100 0.283555
4 3 19 100 0.197205
5 3 19 100 0.0326872
6 3 19 100 0.064052
7 3 19 100 0.0353224
8 3 19 100 0.0261227
9 3 19 100 0.032597
10 3 19 100 0.00101413
11 3 19 100 6.48608e-07
12 3 19 100 0.000152085
13 3 19 100 1.641e-06
14 3 19 100 1.97022e-06
15 3 19 100 4.49323e-06
16 3 19 100 6.01697e-06
19 3 19 100 7.38917e-06
0 4 19 100 0.0367452
1 4 19 100 9.04669e-06
2 4 19 100 0.0645163
3 4 19 100 0.151472
4 4 19 100 0.256583
5 4 19 100 0.171141
6 4 19 100 0.065393
7 4 19 100 0.0963687
8 4 19 100 0.0320788
9 4 19 100 0.0594614
10 4 19 100 0.0322581
12 4 19 100 0.00319407
13 4 19 100 0.028132
14 4 19 100 0.00168825
16 4 19 100 0.000916648
17 4 19 100 3.43355e-05
18 4 19 100 7.61836e-06
0 5 19 100 0.000871444
1 5 19 100 6.6325e-05
2 5 19 100 0.0578562
3 5 19 100 0.0328497
4 5 19 100 0.137295
5 5 19 100 0.236478
6 5 19 100 0.269995
7 5 19 100 0.0647512
8 5 19 100 0.0972822
9 5 19 100 4.3399e-07
10 5 19 100 0.00057133
11 5 19 100 0.0325444
12 5 19 100 0.00119932
15 5 19 100 0.0445743
16 5 19 100 0.0231803
17 5 19 100 0.000436129
18 5 19 100 1.39551e-06
19 5 19 100 4.67525e-05
0 6 19 100 0.0403599
1 6 19 100 0.00203809
2 6 19 100 3.6641e-06
3 6 19 100 0.0644727
4 6 19 100 0.0647298
5 6 19 100 0.160791
6 6 19 100 0.0973073
7 6 19 100 0.217121
8 6 19 100 0.096741
9 6 19 100 0.0616383
10 6 19 100 0.0647083
11 6 19 100 0.0319352
12 6 19 100 0.0337071
13 6 19 100 2.82578e-06
15 6 19 100 0.0322772
16 6 19 100 0.0321139
17 6 19 100 1.85523e-05
19 6 19 100 3.35698e-05
0 7 19 100 0.00943362
1 7 19 100 0.000314446
2 7 19 100 0.0322581
3 7 19 100 6.44338e-05
4 7 19 100 1.70179e-06
5 7 19 100 0.0872758
6 7 19 100 0.161286
7 7 19 100 0.225789
8 7 19 100 0.193511
9 7 19 100 2.21259e-05
10 7 19 100 0.0322646
11 7 19 100 0.160639
12 7 19 100 1.92905e-06
13 7 19 100 1.05123e-06
14 7 19 100 0.0326033
15 7 19 100 0.0322581
17 7 19 100 0.032268
18 7 19 100 3.79612e-06
19 7 19 100 3.62995e-06
0 8 19 100 0.0405087
1 8 19 100 0.00085615
2 8 19 100 0.000237486
3 8 19 100 0.0020216
4 8 19 100 0.0322901
5 8 19 100 0.0347212
6 8 19 100 0.129132
7 8 19 100 0.13164
8 8 19 100 0.166643
9 8 19 100 0.203929
10 8 19 100 0.0619108
11 8 19 100 0.0310479
12 8 19 100 0.0678796
13 8 19 100 0.0643102
14 8 19 100 0.000364345
15 8 19 100 9.24474e-06
16 8 19 100 0.00021241
17 8 19 100 0.0322591
19 8 19 100 2.73658e-05
0 9 19 100 0.00320859
3 9 19 100 0.000364869
5 9 19 100 0.0324389
6 9 19 100 0.0322586
7 9 19 100 0.134574
8 9 19 100 0.161274
9 9 19 100 0.161259
10 9 19 100 0.161378
11 9 19 100 0.0967743
12 9 19 100 0.0323054
13 9 19 100 0.119596
14 9 19 100 0.0322877
17 9 19 100 3.28288e-07
18 9 19 100 0.0322601
19 9 19 100 1.85762e-05
0 10 19 100 0.0229091
1 10 19 100 0.000363606
3 10 19 100 0.00028094
4 10 19 100 0.0320246
5 10 19 100 2.58861e-05
6 10 19 100 0.0322746
7 10 19 100 0.0966423
8 10 19 100 0.0630104
9 10 19 100 0.141228
10 10 19 100 0.164775
11 10 19 100 0.12267
12 10 19 100 0.0994225
13 10 19 100 0.00320569
14 10 19 100 0.0967751
15 10 19 100 0.0954653
16 10 19 100 0.00021604
17 10 19 100 6.33441e-07
18 10 19 100 4.19308e-05
19 10 19 100 0.0286678
0 11 19 100 0.0275722
1 11 19 100 0.0260949
2 11 19 100 0.0322749
3 11 19 100 0.000228351
4 11 19 100 0.0321752
5 11 19 100 0.0367225
6 11 19 100 0.00106653
7 11 19 100 0.0322832
8 11 19 100 0.0967505
9 11 19 100 0.0967992
10 11 19 100 0.119263
11 11 19 100 0.102123
12 11 19 100 0.136136
13 11 19 100 0.129034
14 11 19 100 0.00317597
15 11 19 100 0.0645384
16 11 19 100 0.0322581
17 11 19 100 0.0314243
18 11 19 100 7.68847e-06
19 11 19 100 7.2307e-05
0 12 19 100 0.0197476
1 12 19 100 2.9588e-05
3 12 19 100 0.0374203
4 12 19 100 4.23102e-05
5 12 19 100 0.0322602
6 12 19 100 0.0322607
7 12 19 100 1.13264e-06
8 12 19 100 0.0614039
9 12 19 100 0.0352271
10 12 19 100 0.0652561
11 12 19 100 0.193685
12 12 19 100 0.161445
13 12 19 100 0.0974485
14 12 19 100 0.0315686
15 12 19 100 0.0322585
16 12 19 100 0.135429
17 12 19 100 0.0322581
18 12 19 100 0.0322581
19 12 19 100 3.94963e-07
0 13 19 100 0.00032717
1 13 19 100 1.53439e-05
2 13 19 100 1.11722e-05
3 13 19 100 0.0322419
5 13 19 100 3.04197e-05
7 13 19 100 0.0645313
8 13 19 100 0.0322579
9 13 19 100 4.42031e-05
10 13 19 100 0.0644918
11 13 19 100 0.064968
12 13 19 100 0.193285
13 13 19 100 0.162151
14 13 19 100 0.0967627
15 13 19 100 0.0645194
16 13 19 100 0.0952778
17 13 19 100 0.0643655
18 13 19 100 0.032449
19 13 19 100 0.0322706
0 14 19 100 0.054267
1 14 19 100 9.99501e-05
2 14 19 100 2.42967e-05
3 14 19 100 3.78632e-05
4 14 19 100 7.58164e-06
5 14 19 100 2.40681e-06
6 14 19 100 0.000712422
8 14 19 100 0.0666668
9 14 19 100 0.0450613
10 14 19 100 0.0335349
11 14 19 100 0.133335
12 14 19 100 0.0336333
13 14 19 100 0.167489
14 14 19 100 0.136472
15 14 19 100 0.161344
16 14 19 100 4.28014e-07
17 14 19 100 0.1
18 14 19 100 0.0672862
19 14 19 100 2.63005e-05
0 15 19 100 0.0754843
1 15 19 100 7.26661e-06
2 15 19 100 0.00997273
3 15 19 100 0.00574655
4 15 19 100 0.000270636
5 15 19 100 0.0132865
6 15 19 100 0.00172877
7 15 19 100 0.0284641
8 15 19 100 4.83626e-06
9 15 19 100 0.00212474
10 15 19 100 0.00454344
11 15 19 100 0.0333356
12 15 19 100 0.13027
13 15 19 100 0.0999518
14 15 19 100 0.132485
15 15 19 100 0.161463
16 15 19 100 0.167427
17 15 19 100 0.0333471
18 15 19 100 0.0667171
19 15 19 100 0.0333697
0 16 19 100 0.0250209
1 16 19 100 2.45466e-06
3 16 19 100 0.0282086
4 16 19 100 0.00648786
5 16 19 100 0.000155561
6 16 19 100 0.0353852
7 16 19 100 4.49686e-06
8 16 19 100 0.00112827
9 16 19 100 0.00159746
10 16 19 100 0.0333397
11 16 19 100 0.000239962
12 16 19 100 0.035296
13 16 19 100 0.069086
14 16 19 100 0.24472
15 16 19 100 0.106148
16 16 19 100 0.105115
17 16 19 100 0.239723
18 16 19 100 0.0683001
19 16 19 100 4.13607e-05
0 17 19 100 0.0221419
3 17 19 100 0.000320276
4 17 19 100 0.0344828
6 17 19 100 4.15683e-07
7 17 19 100 0.0689684
8 17 19 100 0.0104684
10 17 19 100 0.000960562
11 17 19 100 1.3396e-06
12 17 19 100 0.0693825
13 17 19 100 0.136832
14 17 19 100 0.0697163
15 17 19 100 0.137942
16 17 19 100 0.0688526
17 17 19 100 0.10345
18 17 19 100 0.241993
19 17 19 100 0.0344864
0 18 19 100 0.0435989
1 18 19 100 0.0358239
2 18 19 100 9.54392e-07
3 18 19 100 0.000478543
4 18 19 100 3.18105e-06
6 18 19 100 0.000151862
7 18 19 100 5.76637e-05
8 18 19 100 0.0686534
9 18 19 100 0.000357647
10 18 19 100 0.0336552
11 18 19 100 0.00424465
12 18 19 100 0.0216025
13 18 19 100 0.0742155
14 18 19 100 0.0719213
15 18 19 100 0.10457
16 18 19 100 0.179909
17 18 19 100 0.0360559
18 18 19 100 0.109834
19 18 19 100 0.214866
0 19 19 100 0.0502618
1 19 19 100 0.04
3 19 19 100 0.000313884
4 19 19 100 0.0395819
5 19 19 100 0.000144384
6 19 19 100 2.30308e-05
7 19 19 100 2.06432e-06
8 19 19 100 0.0012046
9 19 19 100 0.0400005
10 19 19 100 6.32219e-05
11 19 19 100 0.0802924
12 19 19 100 1.24124e-05
13 19 19 100 0.0403411
14 19 19 100 0.0400329
15 19 19 100 0.11952
16 19 19 100 0.0809689
17 19 19 100 0.199119
18 19 19 100 0.102144
19 19 19 100 0.165974
0 20 19 100 7.94215e-06
2 20 19 100 0.0407262
4 20 19 100 1.2654e-05
5 20 19 100 0.0476469
6 20 19 100 0.00017632
8 20 19 100 5.17629e-07
9 20 19 100 0.0476182
12 20 19 100 0.0914089
13 20 19 100 0.0943742
14 20 19 100 0.00116736
15 20 19 100 0.0952391
16 20 19 100 0.0513583
17 20 19 100 0.0947395
18 20 19 100 0.237879
19 20 19 100 0.197645
0 21 19 100 0.138569
2 21 19 100 0.000412004
3 21 19 100 0.00150438
4 21 19 100 1.56081e-06
5 21 19 100 0.0579473
7 21 19 100 0.014634
8 21 19 100 0.00278308
9 21 19 100 0.00575555
10 21 19 100 0.000174947
11 21 19 100 0.000131239
12 21 19 100 0.012887
13 21 19 100 0.0418175
14 21 19 100 0.0557544
15 21 19 100 0.0555785
16 21 19 100 0.111205
17 21 19 100 0.0556255
18 21 19 100 0.222536
19 21 19 100 0.222683
0 22 19 100 0.00175686
3 22 19 100 2.7787e-05
4 22 19 100 8.32477e-07
8 22 19 100 6.02105e-06
9 22 19 100 0.0143296
10 22 19 100 0.0523593
11 22 19 100 9.95265e-05
12 22 19 100 3.43041e-05
13 22 19 100 0.0667412
15 22 19 100 0.0649372
16 22 19 100 0.130649
17 22 19 100 0.202509
18 22 19 100 0.199872
19 22 19 100 0.266677
0 23 19 100 5.91086e-05
4 23 19 100 4.17433e-05
5 23 19 100 0.000232034
8 23 19 100 0.000326074
9 23 19 100 1.96557e-06
10 23 19 100 0.0909091
15 23 19 100 2.22965e-06
16 23 19 100 0.090909
17 23 19 100 0.0909105
18 23 19 100 0.280268
19 23 19 100 0.44634
0 24 19 100 0.000906317
3 24 19 100 0.110064
5 24 19 100 6.05595e-05
9 24 19 100 4.97682e-05
11 24 19 100 1.81786e-05
13 24 19 100 5.30912e-05
16 24 19 100 2.66047e-06
17 24 19 100 0.222223
18 24 19 100 0.221615
19 24 19 100 0.445008
0 25 19 100 0.0406742
1 25 19 100 4.12195e-05
3 25 19 100 0.000136551
8 25 19 100 0.124903
10 25 19 100 0.000907325
14 25 19 100 4.34463e-06
16 25 19 100 5.45827e-06
18 25 19 100 0.328662
19 25 19 100 0.504665
9 26 19 100 0.333333
18 26 19 100 0.332608
19 26 19 100 0.334059
0 27 19 100 0.00014504
10 27 19 100 6.8783e-06
17 27 19 100 0.499848
19 27 19 100 0.5
18 28 19 100 1
19 29 19 100 1
1 1 20 100 0.472875
2 1 20 100 0.334626
3 1 20 100 0.066472
4 1 20 100 0.0333333
5 1 20 100 0.000374974
8 1 20 100 0.0329584
9 1 20 100 0.0260275
16 1 20 100 0.0333333
0 2 20 100 0.0359837
1 2 20 100 0.0360405
2 2 20 100 0.465654
3 2 20 100 0.298103
4 2 20 100 0.00382707
5 2 20 100 0.0338336
6 2 20 100 1.11495e-05
7 2 20 100 0.0289991
8 2 20 100 0.0331028
11 2 20 100 1.18986e-05
12 2 20 100 2.76762e-05
14 2 20 100 5.81354e-06
16 2 20 100 0.0310661
17 2 20 100 0.0333335
0 3 20 100 0.0359578
1 3 20 100 0.00050366
2 3 20 100 0.0404211
3 3 20 100 0.341644
4 3 20 100 0.324645
5 3 20 100 0.00711897
6 3 20 100 0.128522
7 3 20 100 7.8684e-06
8 3 20 100 0.0305321
9 3 20 100 0.0336944
11 3 20 100 0.0231068
12 3 20 100 2.5729e-05
13 3 20 100 3.47524e-06
15 3 20 100 5.96147e-06
16 3 20 100 2.10747e-05
17 3 20 100 0.0333352
20 3 20 100 0.000454948
0 4 20 100 0.00769438
1 4 20 100 0.000303208
2 4 20 100 0.00946853
3 4 20 100 0.0917212
4 4 20 100 0.27184
5 4 20 100 0.260995
6 4 20 100 0.120629
7 4 20 100 0.100062
8 4 20 100 0.0337786
9 4 20 100 0.0333349
10 4 20 100 0.0333151
11 4 20 100 2.85324e-05
12 4 20 100 0.00300487
13 4 20 100 2.41048e-05
14 4 20 100 0.0333093
15 4 20 100 0.000182016
16 4 20 100 1.02726e-05
20 4 20 100 0.000298438
0 5 20 100 0.0641537
1 5 20 100 2.19603e-05
2 5 20 100 0.0653312
3 5 20 100 0.0333381
4 5 20 100 0.0988438
5 5 20 100 0.134896
6 5 20 100 0.299517
7 5 20 100 0.0677122
8 5 20 100 0.0666147
9 5 20 100 0.0666732
10 5 20 100 0.066119
11 5 20 100 0.0330051
12 5 20 100 2.26706e-05
13 5 20 100 5.96325e-05
14 5 20 100 9.82359e-05
16 5 20 100 0.00213559
17 5 20 100 0.00123799
18 5 20 100 0.000141452
19 5 20 100 7.78172e-05
20 5 20 100 8.05335e-07
0 6 20 100 0.0211038
1 6 20 100 0.00132177
2 6 20 100 0.00201559
3 6 20 100 0.0666665
4 6 20 100 0.00180988
5 6 20 100 0.16475
6 6 20 100 0.106761
7 6 20 100 0.333223
8 6 20 100 0.0666668
9 6 20 100 0.1
10 6 20 100 0.0681878
11 6 20 100 0.0333361
12 6 20 100 0.0335009
14 6 20 100 0.000366214
16 6 20 100 0.000287447
18 6 20 100 3.27033e-06
0 7 20 100 0.0420626
1 7 20 100 0.00182097
2 7 20 100 2.24495e-05
3 7 20 100 5.77162e-05
4 7 20 100 0.099688
5 7 20 100 8.01792e-06
6 7 20 100 0.164183
7 7 20 100 0.183398
8 7 20 100 0.172175
9 7 20 100 0.100023
10 7 20 100 0.100312
11 7 20 100 0.034758
12 7 20 100 0.000190975
13 7 20 100 0.0987405
14 7 20 100 3.39253e-07
15 7 20 100 0.00201379
16 7 20 100 4.97962e-05
17 7 20 100 0.000195959
18 7 20 100 3.98024e-05
20 7 20 100 0.000260213
0 8 20 100 0.105105
1 8 20 100 7.17707e-06
2 8 20 100 0.00057094
3 8 20 100 0.00096325
4 8 20 100 0.000111652
5 8 20 100 0.067162
6 8 20 100 0.033845
7 8 20 100 0.141403
8 8 20 100 0.0982947
9 8 20 100 0.16972
10 8 20 100 0.17482
11 8 20 100 0.0661616
12 8 20 100 0.000330785
13 8 20 100 0.000394658
14 8 20 100 0.102442
15 8 20 100 3.28005e-05
16 8 20 100 0.000487336
17 8 20 100 0.00484183
18 8 20 100 0.0314487
19 8 20 100 0.00156294
20 8 20 100 0.000294414
0 9 20 100 0.0345276
1 9 20 100 8.15198e-06
2 9 20 100 0.0333135
3 9 20 100 6.3771e-06
4 9 20 100 4.02671e-05
5 9 20 100 2.60322e-05
6 9 20 100 0.0661613
7 9 20 100 0.13356
8 9 20 100 0.126624
9 9 20 100 0.104794
10 9 20 100 0.102432
11 9 20 100 0.197312
12 9 20 100 0.0674305
13 9 20 100 4.77663e-07
14 9 20 100 0.033353
15 9 20 100 0.0640641
16 9 20 100 0.000168931
17 9 20 100 0.00256271
18 9 20 100 8.59663e-06
19 9 20 100 0.0333374
20 9 20 100 0.00026966
0 10 20 100 0.000929499
1 10 20 100 1.305e-06
2 10 20 100 0.0333636
3 10 20 100 0.0323858
4 10 20 100 5.91181e-06
5 10 20 100 1.11934e-05
6 10 20 100 0.0305865
7 10 20 100 0.00258491
8 10 20 100 0.201165
9 10 20 100 0.0786081
10 10 20 100 0.110085
11 10 20 100 0.17639
12 10 20 100 0.16684
13 10 20 100 0.0668642
14 10 20 100 1.46381e-05
15 10 20 100 0.0666422
16 10 20 100 2.47894e-05
17 10 20 100 0.000132548
19 10 20 100 0.0333651
20 10 20 100 5.75833e-07
0 11 20 100 0.0456151
1 11 20 100 5.15742e-05
3 11 20 100 0.000112874
4 11 20 100 0.0335893
5 11 20 100 0.0058277
6 11 20 100 0.000147477
7 11 20 100 0.0333292
8 11 20 100 0.0333406
9 11 20 100 0.135818
10 11 20 100 0.128919
11 11 20 100 0.0709897
12 11 20 100 0.121212
13 11 20 100 0.228477
14 11 20 100 0.121591
15 11 20 100 0.00744043
16 11 20 100 0.0333641
17 11 20 100 0.000162614
18 11 20 100 9.02956e-06
19 11 20 100 2.07674e-06
20 11 20 100 6.16008e-07
0 12 20 100 0.00139182
1 12 20 100 0.00176175
2 12 20 100 0.000542708
3 12 20 100 3.04841e-06
4 12 20 100 0.0333483
5 12 20 100 0.0315898
6 12 20 100 0.000230887
8 12 20 100 0.0665026
9 12 20 100 0.0661941
10 12 20 100 0.166698
11 12 20 100 0.132985
12 12 20 100 0.100582
13 12 20 100 0.133337
14 12 20 100 0.100254
15 12 20 100 0.131206
16 12 20 100 0.0333508
17 12 20 100 9.13815e-06
18 12 20 100 4.81978e-06
19 12 20 100 8.23268e-06
0 13 20 100 0.00515865
1 13 20 100 0.00703178
2 13 20 100 8.53477e-05
3 13 20 100 0.000515401
4 13 20 100 0.0333115
5 13 20 100 0.000376296
6 13 20 100 3.54515e-06
7 13 20 100 0.000136234
8 13 20 100 0.0219358
9 13 20 100 0.0333236
10 13 20 100 0.066669
11 13 20 100 0.16671
12 13 20 100 0.198543
13 13 20 100 0.0961974
14 13 20 100 0.129243
15 13 20 100 0.103374
16 13 20 100 0.070697
17 13 20 100 0.0666675
18 13 20 100 4.54022e-07
20 13 20 100 2.16035e-05
0 14 20 100 0.0551356
1 14 20 100 0.0333479
2 14 20 100 0.0011323
3 14 20 100 0.00643753
4 14 20 100 0.0333356
5 14 20 100 5.70557e-06
6 14 20 100 8.48175e-05
7 14 20 100 6.62823e-07
8 14 20 100 1.31348e-05
9 14 20 100 1.45758e-06
10 14 20 100 0.0333726
11 14 20 100 0.101855
12 14 20 100 0.170211
13 14 20 100 0.164508
14 14 20 100 9.37923e-06
15 14 20 100 0.101374
16 14 20 100 0.0429876
17 14 20 100 0.164371
18 14 20 100 0.0918159
0 15 20 100 0.0768988
1 15 20 100 8.08382e-05
2 15 20 100 0.0332726
3 15 20 100 9.90743e-06
4 15 20 100 1.26201e-05
5 15 20 100 1.26365e-06
6 15 20 100 6.59521e-06
7 15 20 100 0.000207056
8 15 20 100 0.0279003
9 15 20 100 0.00182346
10 15 20 100 8.05385e-05
11 15 20 100 0.100277
12 15 20 100 0.133334
13 15 20 100 0.0666863
14 15 20 100 0.101283
15 15 20 100 0.0577794
16 15 20 100 0.0996716
17 15 20 100 0.0667865
18 15 20 100 0.166667
19 15 20 100 0.0670226
20 15 20 100 0.000197702
0 16 20 100 0.0545139
3 16 20 100 0.0323318
4 16 20 100 0.000198194
5 16 20 100 0.000677821
6 16 20 100 7.44982e-07
7 16 20 100 0.000595883
8 16 20 100 2.52941e-05
9 16 20 100 0.00177094
10 16 20 100 0.000265916
11 16 20 100 3.73451e-05
12 16 20 100 0.134403
13 16 20 100 0.131299
14 16 20 100 0.135335
15 16 20 100 0.0991175
16 16 20 100 0.0332811
17 16 20 100 0.165565
18 16 20 100 0.100004
19 16 20 100 0.100059
20 16 20 100 0.0105195
0 17 20 100 0.0755025
1 17 20 100 0.00271023
2 17 20 100 0.000990559
3 17 20 100 0.0339948
4 17 20 100 0.0331149
5 17 20 100 0.00604617
6 17 20 100 0.0336047
7 17 20 100 0.00273453
8 17 20 100 0.00057354
9 17 20 100 4.19433e-06
10 17 20 100 0.00222509
11 17 20 100 0.000200553
12 17 20 100 0.000214256
13 17 20 100 0.069731
14 17 20 100 0.166944
15 17 20 100 0.163922
16 17 20 100 0.034602
17 17 20 100 0.0999967
18 17 20 100 0.100315
19 17 20 100 0.166755
20 17 20 100 0.00581771
0 18 20 100 0.00577118
1 18 20 100 0.000112115
2 18 20 100 0.000148418
3 18 20 100 0.0012602
4 18 20 100 0.000116116
5 18 20 100 0.0001015
6 18 20 100 0.0333379
8 18 20 100 0.00300676
9 18 20 100 0.0666673
10 18 20 100 1.22453e-06
11 18 20 100 0.066841
12 18 20 100 0.0314174
13 18 20 100 0.0339491
14 18 20 100 0.0605761
15 18 20 100 0.166919
16 18 20 100 0.166463
17 18 20 100 0.0658545
18 18 20 100 0.100199
19 18 20 100 0.133232
20 18 20 100 0.0640264
0 19 20 100 0.0316215
1 19 20 100 2.13708e-06
2 19 20 100 0.0333335
3 19 20 100 0.00323388
4 19 20 100 0.000166889
5 19 20 100 0.00073062
6 19 20 100 1.08356e-06
7 19 20 100 2.22165e-05
8 19 20 100 3.00371e-05
9 19 20 100 0.0664524
10 19 20 100 0.000498959
11 19 20 100 0.000667349
12 19 20 100 0.032865
13 19 20 100 0.00367082
14 19 20 100 0.0620241
15 19 20 100 0.0335451
16 19 20 100 0.133282
17 19 20 100 0.199844
18 19 20 100 0.133338
19 19 20 100 0.133342
20 19 20 100 0.131328
0 20 20 100 0.113308
1 20 20 100 9.55288e-07
2 20 20 100 1.16763e-05
3 20 20 100 0.00131662
4 20 20 100 1.39286e-05
5 20 20 100 0.00325662
6 20 20 100 0.0356901
7 20 20 100 0.000433081
8 20 20 100 0.000198378
10 20 20 100 0.071431
11 20 20 100 0.000470527
12 20 20 100 0.0151301
13 20 20 100 1.39248e-06
14 20 20 100 0.00368592
15 20 20 100 0.071442
16 20 20 100 0.142952
17 20 20 100 0.107154
18 20 20 100 0.178442
19 20 20 100 0.177776
20 20 20 100 0.0772852
0 21 20 100 0.0265273
2 21 20 100 0.0384658
6 21 20 100 0.0351245
7 21 20 100 1.87713e-05
8 21 20 100 0.0769237
10 21 20 100 0.0385138
12 21 20 100 3.98299e-07
13 21 20 100 0.000229618
14 21 20 100 3.02848e-05
15 21 20 100 0.039138
16 21 20 100 0.122983
17 21 20 100 0.0415728
18 21 20 100 0.30621
19 21 20 100 0.153837
20 21 20 100 0.120426
0 22 20 100 0.0857473
1 22 20 100 3.30172e-05
2 22 20 100 1.52349e-05
3 22 20 100 8.09475e-05
4 22 20 100 0.000223169
5 22 20 100 0.00279647
6 22 20 100 0.0340912
7 22 20 100 0.000218017
8 22 20 100 0.000318283
9 22 20 100 0.0437604
11 22 20 100 0.000141968
12 22 20 100 0.0434719
13 22 20 100 9.71252e-05
14 22 20 100 2.53416e-05
15 22 20 100 0.0433696
16 22 20 100 0.0865
17 22 20 100 0.121236
18 22 20 100 0.140604
19 22 20 100 0.179303
20 22 20 100 0.217967
0 23 20 100 0.0536773
1 23 20 100 8.85477e-07
2 23 20 100 0.0864985
4 23 20 100 0.0476383
5 23 20 100 0.00861513
7 23 20 100 0.000464427
8 23 20 100 0.0021358
9 23 20 100 0.0478071
10 23 20 100 0.0883299
11 23 20 100 1.29237e-06
12 23 20 100 0.039204
13 23 20 100 9.163e-05
14 23 20 100 7.03158e-05
15 23 20 100 0.0476192
16 23 20 100 0.0483293
17 23 20 100 0.000270832
18 23 20 100 0.189797
19 23 20 100 0.144329
20 23 20 100 0.19512
0 24 20 100 0.106749
1 24 20 100 3.09262e-06
3 24 20 100 0.000206677
4 24 20 100 0.0593681
5 24 20 100 0.0592374
6 24 20 100 6.581e-05
7 24 20 100 0.00171813
8 24 20 100 0.0620885
9 24 20 100 1.29321e-06
10 24 20 100 0.0588243
11 24 20 100 8.54859e-05
12 24 20 100 0.00131525
15 24 20 100 0.000244141
16 24 20 100 0.0584718
17 24 20 100 0.000353872
18 24 20 100 0.116351
19 24 20 100 0.223071
20 24 20 100 0.251844
0 25 20 100 0.0602313
2 25 20 100 0.000159302
3 25 20 100 0.00130805
5 25 20 100 0.0713895
6 25 20 100 3.03167e-06
7 25 20 100 0.0714304
10 25 20 100 0.0749525
11 25 20 100 0.000254134
12 25 20 100 0.00316626
16 25 20 100 0.0684117
18 25 20 100 0.0758619
20 25 20 100 0.572832
0 26 20 100 7.5698e-05
3 26 20 100 2.17153e-05
5 26 20 100 0.140841
7 26 20 100 8.93564e-06
8 26 20 100 0.143234
11 26 20 100 0.00029571
14 26 20 100 7.42582e-05
16 26 20 100 0.00203833
17 26 20 100 0.0102646
18 26 20 100 1.8044e-05
19 26 20 100 0.269249
20 26 20 100 0.433879
19 27 20 100 0.166667
20 27 20 100 0.833333
2 28 20 100 4.9618e-05
15 28 20 100 0.99995
15 29 20 100 1
20 30 20 100 1
1 1 21 100 0.458362
2 1 21 100 0.296425
3 1 21 100 0.201796
5 1 21 100 0.0433531
12 1 21 100 1.30852e-05
13 1 21 100 5.10299e-05
0 2 21 100 0.000159084
1 2 21 100 0.0840945
2 2 21 100 0.313797
3 2 21 100 0.290815
4 2 21 100 0.125
5 2 21 100 0.0416667
6 2 21 100 0.067143
8 2 21 100 2.6093e-05
9 2 21 100 0.0772855
10 2 21 100 2.39385e-06
15 2 21 100 9.59251e-06
18 2 21 100 1.08631e-06
0 3 21 100 0.0774616
1 3 21 100 0.0473955
2 3 21 100 0.0398857
3 3 21 100 0.256827
4 3 21 100 0.278968
5 3 21 100 0.083395
6 3 21 100 8.43076e-05
7 3 21 100 0.125053
8 3 21 100 0.00465779
9 3 21 100 0.0435415
10 3 21 100 0.0417665
11 3 21 100 5.58532e-06
12 3 21 100 3.43345e-06
13 3 21 100 2.7491e-05
15 3 21 100 9.26909e-06
16 3 21 100 3.22534e-06
17 3 21 100 6.29917e-06
21 3 21 100 0.000908742
0 4 21 100 0.0512961
1 4 21 100 0.0833523
2 4 21 100 0.0833238
3 4 21 100 0.134613
4 4 21 100 0.125587
5 4 21 100 0.265446
6 4 21 100 0.162651
7 4 21 100 0.00990536
8 4 21 100 0.0416751
9 4 21 100 0.0416694
10 4 21 100 3.39537e-06
11 4 21 100 3.14878e-06
12 4 21 100 8.50907e-05
13 4 21 100 1.1631e-05
14 4 21 100 3.5371e-05
16 4 21 100 2.45521e-06
17 4 21 100 0.000323977
18 4 21 100 5.93778e-06
19 4 21 100 3.29101e-06
20 4 21 100 2.79946e-06
21 4 21 100 3.10593e-06
0 5 21 100 0.0416297
1 5 21 100 4.78273e-06
2 5 21 100 0.041828
3 5 21 100 0.0842456
4 5 21 100 0.150011
5 5 21 100 0.290737
6 5 21 100 0.0878953
7 5 21 100 0.133009
8 5 21 100 4.16954e-05
9 5 21 100 0.0857623
10 5 21 100 0.0797358
11 5 21 100 5.31152e-05
12 5 21 100 0.000173898
13 5 21 100 0.00338127
14 5 21 100 0.000286711
15 5 21 100 5.05817e-06
16 5 21 100 4.36455e-05
17 5 21 100 0.00113735
18 5 21 100 1.66025e-05
19 5 21 100 2.59328e-06
0 6 21 100 0.000129441
1 6 21 100 2.2664e-06
2 6 21 100 8.92147e-07
3 6 21 100 0.106526
4 6 21 100 0.124965
5 6 21 100 0.208116
6 6 21 100 0.226654
7 6 21 100 0.0418801
8 6 21 100 0.125
9 6 21 100 3.58292e-06
10 6 21 100 0.0416682
11 6 21 100 0.0833749
13 6 21 100 2.83826e-06
14 6 21 100 0.0416658
16 6 21 100 1.00616e-05
0 7 21 100 0.0452149
1 7 21 100 1.46772e-06
2 7 21 100 1.4787e-05
3 7 21 100 0.00129729
4 7 21 100 0.0433982
5 7 21 100 0.123027
6 7 21 100 0.125547
7 7 21 100 0.247204
8 7 21 100 0.126844
9 7 21 100 0.088481
10 7 21 100 0.0183946
11 7 21 100 0.0421316
12 7 21 100 0.0427846
13 7 21 100 0.0125781
14 7 21 100 4.65212e-07
15 7 21 100 0.0830407
16 7 21 100 4.95009e-06
17 7 21 100 2.32703e-05
18 7 21 100 8.30489e-06
19 7 21 100 1.53086e-06
20 7 21 100 6.69841e-07
21 7 21 100 1.95305e-06
0 8 21 100 0.0412056
3 8 21 100 4.08004e-05
4 8 21 100 0.0416693
5 8 21 100 0.0416692
6 8 21 100 0.124684
7 8 21 100 0.0416937
8 8 21 100 0.208307
9 8 21 100 0.208089
10 8 21 100 0.166605
11 8 21 100 0.000149836
12 8 21 100 0.038299
13 8 21 100 0.000519944
14 8 21 100 0.0450275
16 8 21 100 0.0416668
17 8 21 100 2.15569e-05
18 8 21 100 0.000352503
0 9 21 100 0.0385131
1 9 21 100 9.94629e-05
2 9 21 100 4.94213e-06
4 9 21 100 0.0280534
5 9 21 100 0.0549846
6 9 21 100 0.0326635
7 9 21 100 0.124908
8 9 21 100 0.0430954
9 9 21 100 0.25035
10 9 21 100 0.125006
11 9 21 100 0.126582
12 9 21 100 0.042304
13 9 21 100 0.0911856
14 9 21 100 0.0419489
15 9 21 100 1.32962e-06
16 9 21 100 1.85172e-05
17 9 21 100 1.90663e-05
19 9 21 100 0.000100068
21 9 21 100 0.00016141
0 10 21 100 0.0174942
2 10 21 100 3.33399e-05
3 10 21 100 0.0253212
4 10 21 100 9.12675e-05
6 10 21 100 0.00118365
7 10 21 100 0.124541
8 10 21 100 0.125045
9 10 21 100 0.0838171
10 10 21 100 0.249949
11 10 21 100 0.0833678
12 10 21 100 0.167092
13 10 21 100 4.52232e-07
14 10 21 100 0.00196313
15 10 21 100 0.0832767
16 10 21 100 0.000121365
17 10 21 100 0.0366524
18 10 21 100 4.87148e-05
20 10 21 100 1.45923e-06
0 11 21 100 0.00214806
3 11 21 100 0.0414752
4 11 21 100 0.00552517
5 11 21 100 0.00153099
6 11 21 100 0.0417403
8 11 21 100 0.122617
9 11 21 100 0.126701
10 11 21 100 0.125006
11 11 21 100 0.166639
12 11 21 100 0.0832438
13 11 21 100 0.123588
14 11 21 100 0.0763847
15 11 21 100 0.0416667
16 11 21 100 0.041676
17 11 21 100 4.69613e-05
18 11 21 100 1.03424e-05
19 11 21 100 8.03977e-07
0 12 21 100 0.00115754
1 12 21 100 0.000164101
2 12 21 100 1.95863e-06
3 12 21 100 2.22676e-06
4 12 21 100 0.000652574
5 12 21 100 2.74793e-06
6 12 21 100 0.0832032
7 12 21 100 0.0416672
8 12 21 100 6.15004e-06
9 12 21 100 0.0416988
10 12 21 100 0.166799
11 12 21 100 0.0437403
12 12 21 100 0.249397
13 12 21 100 0.0377451
14 12 21 100 0.208278
15 12 21 100 0.0417138
16 12 21 100 0.0416743
17 12 21 100 0.0416668
18 12 21 100 1.49017e-05
19 12 21 100 0.000384208
20 12 21 100 2.98539e-05
0 13 21 100 0.00216306
2 13 21 100 0.000139697
3 13 21 100 0.00013601
5 13 21 100 5.13195e-06
6 13 21 100 1.93018e-05
7 13 21 100 0.0833348
8 13 21 100 0.0416668
10 13 21 100 0.083319
11 13 21 100 0.24685
12 13 21 100 0.0833297
13 13 21 100 0.125432
15 13 21 100 0.208619
16 13 21 100 0.0406019
17 13 21 100 0.0416676
18 13 21 100 0.00104791
19 13 21 100 0.0416655
20 13 21 100 4.37611e-07
21 13 21 100 1.86281e-06
0 14 21 100 0.0118601
1 14 21 100 1.7772e-05
3 14 21 100 1.17106e-05
4 14 21 100 0.000133699
5 14 21 100 7.39034e-07
6 14 21 100 0.000226583
9 14 21 100 0.0381731
11 14 21 100 0.0741639
12 14 21 100 0.158624
13 14 21 100 0.0924377
14 14 21 100 0.207447
15 14 21 100 5.10761e-07
16 14 21 100 0.166807
17 14 21 100 0.0417514
18 14 21 100 0.0833335
19 14 21 100 0.0831627
20 14 21 100 0.041529
21 14 21 100 0.000320105
0 15 21 100 0.00378889
1 15 21 100 9.40826e-05
3 15 21 100 7.5871e-06
5 15 21 100 4.61108e-06
6 15 21 100 1.5707e-06
7 15 21 100 1.12574e-05
8 15 21 100 9.5734e-07
9 15 21 100 5.88073e-06
10 15 21 100 0.0416643
11 15 21 100 9.77029e-06
12 15 21 100 0.0416668
13 15 21 100 0.12501
14 15 21 100 0.166671
15 15 21 100 0.208218
16 15 21 100 0.0369774
17 15 21 100 0.128783
18 15 21 100 0.0388932
19 15 21 100 0.083198
20 15 21 100 0.0833253
21 15 21 100 0.0416679
0 16 21 100 0.0459435
1 16 21 100 0.00101845
3 16 21 100 5.13619e-05
4 16 21 100 3.15784e-05
5 16 21 100 9.22056e-05
6 16 21 100 0.0434947
7 16 21 100 8.77145e-07
8 16 21 100 0.000252887
9 16 21 100 0.0079002
10 16 21 100 5.93361e-05
11 16 21 100 0.000146778
12 16 21 100 0.025891
13 16 21 100 0.0440345
14 16 21 100 0.173256
15 16 21 100 0.130416
16 16 21 100 0.173909
17 16 21 100 0.0869567
18 16 21 100 0.0942689
19 16 21 100 0.0869576
20 16 21 100 2.98585e-06
21 16 21 100 0.0853154
0 17 21 100 0.12533
1 17 21 100 0.000120695
2 17 21 100 0.000186695
3 17 21 100 0.00226177
4 17 21 100 3.70702e-06
5 17 21 100 8.19878e-05
8 17 21 100 2.80952e-05
9 17 21 100 0.000288821
10 17 21 100 0.0868373
11 17 21 100 0.0434913
12 17 21 100 0.000294262
13 17 21 100 0.00018965
14 17 21 100 0.0871812
15 17 21 100 0.130582
16 17 21 100 0.1289
17 17 21 100 0.0873085
18 17 21 100 0.131512
19 17 21 100 0.0874265
20 17 21 100 0.0875927
21 17 21 100 0.000383331
0 18 21 100 0.0938274
1 18 21 100 0.0435641
2 18 21 100 6.66869e-06
3 18 21 100 8.83013e-06
4 18 21 100 0.000306683
5 18 21 100 0.00423909
6 18 21 100 0.0475443
7 18 21 100 0.00108183
8 18 21 100 2.49181e-06
9 18 21 100 2.18845e-05
10 18 21 100 2.37587e-05
11 18 21 100 0.00128956
12 18 21 100 0.0434779
13 18 21 100 1.00495e-05
15 18 21 100 0.0869581
16 18 21 100 0.197295
17 18 21 100 0.223681
18 18 21 100 7.4211e-06
19 18 21 100 0.203938
20 18 21 100 0.0526745
21 18 21 100 4.08838e-05
0 19 21 100 0.0700021
1 19 21 100 0.0431975
2 19 21 100 6.85211e-07
3 19 21 100 4.18334e-06
4 19 21 100 0.000366359
6 19 21 100 5.34359e-06
7 19 21 100 0.0345341
8 19 21 100 0.00093148
9 19 21 100 0.0322113
11 19 21 100 0.0446368
12 19 21 100 0.0869578
13 19 21 100 0.00207722
14 19 21 100 0.000260426
15 19 21 100 4.80066e-05
16 19 21 100 0.137043
17 19 21 100 0.0904086
18 19 21 100 0.217518
19 19 21 100 0.0449135
20 19 21 100 0.182854
21 19 21 100 0.0120296
0 20 21 100 0.11295
1 20 21 100 6.94744e-07
2 20 21 100 0.0438269
3 20 21 100 2.90121e-05
4 20 21 100 9.56294e-05
5 20 21 100 7.82044e-06
6 20 21 100 0.000621529
7 20 21 100 8.41091e-05
9 20 21 100 0.0014874
10 20 21 100 3.48574e-05
11 20 21 100 0.000358623
12 20 21 100 0.0437578
13 20 21 100 0.0851184
14 20 21 100 0.000332956
15 20 21 100 1.87638e-05
16 20 21 100 0.0871801
17 20 21 100 0.0882368
18 20 21 100 0.13075
19 20 21 100 0.216744
20 20 21 100 0.087395
21 20 21 100 0.100971
0 21 21 100 0.0378686
1 21 21 100 7.36749e-05
2 21 21 100 0.0476192
3 21 21 100 1.01799e-06
6 21 21 100 1.40861e-05
7 21 21 100 4.29944e-05
8 21 21 100 0.00200966
9 21 21 100 0.000215634
10 21 21 100 0.000120744
11 21 21 100 3.46376e-06
12 21 21 100 0.0476192
13 21 21 100 0.0475163
15 21 21 100 0.0476156
16 21 21 100 4.83223e-06
17 21 21 100 0.154279
18 21 21 100 0.0476089
19 21 21 100 0.178359
20 21 21 100 0.285551
21 21 21 100 0.103476
0 22 21 100 0.0553499
1 22 21 100 0.00291219
2 22 21 100 4.48171e-06
4 22 21 100 0.000417761
6 22 21 100 0.000105822
8 22 21 100 3.76463e-06
10 22 21 100 8.7559e-06
11 22 21 100 1.27745e-06
12 22 21 100 0.0526316
13 22 21 100 0.0525148
14 22 21 100 0.0526317
15 22 21 100 2.74905e-05
16 22 21 100 0.000124606
17 22 21 100 0.105284
18 22 21 100 0.0998523
19 22 21 100 0.105266
20 22 21 100 0.262336
21 22 21 100 0.210528
0 23 21 100 0.00664784
1 23 21 100 0.0533442
4 23 21 100 8.29329e-06
5 23 21 100 1.16123e-05
6 23 21 100 0.000517256
7 23 21 100 1.86356e-05
8 23 21 100 1.71074e-05
9 23 21 100 0.0102843
10 23 21 100 3.0076e-05
11 23 21 100 3.82354e-05
12 23 21 100 0.0660533
13 23 21 100 0.00619691
14 23 21 100 0.0584745
16 23 21 100 0.123402
17 23 21 100 0.000182625
18 23 21 100 0.128078
19 23 21 100 0.013555
20 23 21 100 0.394979
21 23 21 100 0.138162
0 24 21 100 0.00810385
5 24 21 100 7.55052e-05
6 24 21 100 1.02445e-06
8 24 21 100 4.91601e-06
9 24 21 100 0.000165628
11 24 21 100 0.000938781
12 24 21 100 0.0666677
13 24 21 100 1.85993e-05
15 24 21 100 4.01207e-06
16 24 21 100 0.066687
17 24 21 100 0.0666675
18 24 21 100 3.9583e-05
19 24 21 100 0.199951
20 24 21 100 0.000224758
21 24 21 100 0.59045
0 25 21 100 0.113762
1 25 21 100 0.000466731
4 25 21 100 0.00434069
5 25 21 100 0.00326987
6 25 21 100 9.01018e-06
7 25 21 100 3.61716e-06
8 25 21 100 0.00255335
9 25 21 100 0.000119495
10 25 21 100 4.5144e-06
11 25 21 100 1.42974e-05
14 25 21 100 0.124945
15 25 21 100 1.54507e-05
16 25 21 100 0.000144685
17 25 21 100 0.125389
18 25 21 100 1.7158e-06
19 25 21 100 0.125247
20 25 21 100 0.123718
21 25 21 100 0.375996
0 26 21 100 0.00394902
4 26 21 100 3.24858e-05
5 26 21 100 0.00248618
6 26 21 100 0.0015677
7 26 21 100 0.000135364
11 26 21 100 2.36372e-05
12 26 21 100 0.160051
15 26 21 100 0.166363
16 26 21 100 0.00192681
17 26 21 100 8.40505e-05
18 26 21 100 0.165099
20 26 21 100 0.164918
21 26 21 100 0.333364
10 27 21 100 0.25
20 27 21 100 0.5
21 27 21 100 0.25
0 28 21 100 0.0178211
2 28 21 100 5.17382e-05
4 28 21 100 0.000474476
8 28 21 100 6.64572e-05
9 28 21 100 0.314457
14 28 21 100 0.000132256
16 28 21 100 2.05653e-05
17 28 21 100 0.000332009
18 28 21 100 0.000338562
20 28 21 100 4.0422e-06
21 28 21 100 0.666301
10 29 21 100 0.5
21 29 21 100 0.5
21 30 21 100 1
1 1 22 100 0.49999
2 1 22 100 0.431825
3 1 22 100 0.0681822
14 1 22 100 2.0614e-06
0 2 22 100 0.0456257
1 2 22 100 0.0702441
2 2 22 100 0.403755
3 2 22 100 0.404346
4 2 22 100 0.0273529
5 2 22 100 0.0422613
6 2 22 100 8.43818e-05
7 2 22 100 0.00286079
8 2 22 100 3.54648e-05
9 2 22 100 3.54675e-06
10 2 22 100 0.000372708
11 2 22 100 0.000117195
12 2 22 100 0.000381497
13 2 22 100 5.49044e-05
14 2 22 100 0.00243781
16 2 22 100 5.76567e-05
17 2 22 100 2.60332e-06
19 2 22 100 3.65552e-06
20 2 22 100 2.21189e-06
22 2 22 100 7.38065e-07
0 3 22 100 0.114289
1 3 22 100 0.0412425
2 3 22 100 0.0922427
3 3 22 100 0.318859
4 3 22 100 0.295013
5 3 22 100 0.101611
6 3 22 100 0.024426
7 3 22 100 4.55121e-05
8 3 22 100 0.000152992
9 3 22 100 5.5171e-06
10 3 22 100 0.000516669
11 3 22 100 0.00114955
12 3 22 100 0.0031717
13 3 22 100 0.000398189
14 3 22 100 0.000345576
15 3 22 100 0.00461529
16 3 22 100 0.000177678
17 3 22 100 0.00101334
18 3 22 100 0.000146844
19 3 22 100 0.000560427
20 3 22 100 1.74841e-05
22 3 22 100 5.21586e-07
0 4 22 100 0.00101976
1 4 22 100 0.0013461
2 4 22 100 1.55264e-06
3 4 22 100 0.273765
4 4 22 100 0.349193
5 4 22 100 0.215694
6 4 22 100 0.0458523
7 4 22 100 0.089518
8 4 22 100 0.000557836
9 4 22 100 0.000117437
10 4 22 100 1.50205e-05
11 4 22 100 2.81129e-05
12 4 22 100 0.000337715
13 4 22 100 5.87956e-06
14 4 22 100 0.0224829
15 4 22 100 7.43922e-06
16 4 22 100 1.24564e-06
17 4 22 100 7.05377e-06
18 4 22 100 3.05505e-06
19 4 22 100 3.70224e-06
20 4 22 100 2.87152e-06
21 4 22 100 6.72468e-07
22 4 22 100 3.9385e-05
0 5 22 100 0.039703
1 5 22 100 2.72945e-05
2 5 22 100 0.00810094
3 5 22 100 0.0678839
4 5 22 100 0.228871
5 5 22 100 0.318686
6 5 22 100 0.181685
7 5 22 100 0.0480671
8 5 22 100 0.0594686
9 5 22 100 1.39143e-05
11 5 22 100 0.0171038
12 5 22 100 0.0221705
13 5 22 100 0.00745644
14 5 22 100 4.85425e-06
15 5 22 100 4.10731e-05
16 5 22 100 2.37359e-06
17 5 22 100 3.41274e-05
18 5 22 100 8.38286e-07
20 5 22 100 0.000295144
21 5 22 100 0.000216799
22 5 22 100 0.000167051
0 6 22 100 0.0396456
1 6 22 100 0.00015998
2 6 22 100 0.0010492
3 6 22 100 0.0229267
4 6 22 100 0.0909572
5 6 22 100 0.136363
6 6 22 100 0.295228
7 6 22 100 0.161233
8 6 22 100 0.16056
9 6 22 100 0.0223793
10 6 22 100 0.000302701
11 6 22 100 8.92954e-07
12 6 22 100 1.16737e-05
13 6 22 100 0.022734
14 6 22 100 0.0227278
15 6 22 100 1.40198e-05
16 6 22 100 1.03652e-05
17 6 22 100 2.18724e-06
18 6 22 100 6.59613e-05
19 6 22 100 0.0207324
20 6 22 100 0.00288701
21 6 22 100 7.66141e-06
22 6 22 100 2.0193e-06
0 7 22 100 0.04073
1 7 22 100 7.03083e-05
2 7 22 100 0.0227632
3 7 22 100 8.38634e-05
4 7 22 100 0.045496
5 7 22 100 0.113612
6 7 22 100 0.212443
7 7 22 100 0.162161
8 7 22 100 0.224265
9 7 22 100 0.131813
10 7 22 100 0.000118447
11 7 22 100 5.99018e-06
12 7 22 100 0.000702558
13 7 22 100 7.36948e-07
14 7 22 100 0.045438
15 7 22 100 1.07522e-05
16 7 22 100 1.43134e-05
17 7 22 100 9.11519e-06
19 7 22 100 0.000181576
20 7 22 100 8.21106e-07
22 7 22 100 8.06457e-05
0 8 22 100 0.000384701
1 8 22 100 0.0228619
2 8 22 100 1.54755e-05
3 8 22 100 0.0227301
4 8 22 100 0.0458173
5 8 22 100 0.0221335
6 8 22 100 0.155229
7 8 22 100 0.158116
8 8 22 100 0.251803
9 8 22 100 0.138297
10 8 22 100 0.133255
11 8 22 100 0.00149251
12 8 22 100 5.38431e-06
13 8 22 100 0.0227399
14 8 22 100 0.000445599
15 8 22 100 0.0225544
16 8 22 100 6.19133e-07
17 8 22 100 0.00211855
0 9 22 100 0.0613195
1 9 22 100 0.0235326
2 9 22 100 0.000349877
3 9 22 100 0.0227364
4 9 22 100 0.0227356
5 9 22 100 0.0453881
6 9 22 100 0.0227512
7 9 22 100 0.137103
8 9 22 100 0.180073
9 9 22 100 0.117497
10 9 22 100 0.141883
11 9 22 100 0.114497
12 9 22 100 3.40133e-06
13 9 22 100 0.0451935
14 9 22 100 2.73662e-05
15 9 22 100 0.0644184
17 9 22 100 2.1378e-06
18 9 22 100 4.15689e-05
20 9 22 100 0.000160491
21 9 22 100 5.1927e-06
22 9 22 100 0.000281728
0 10 22 100 0.00469186
1 10 22 100 0.0228252
2 10 22 100 0.0044563
3 10 22 100 0.0390492
4 10 22 100 0.0201376
5 10 22 100 0.0640896
6 10 22 100 5.4331e-07
7 10 22 100 0.0909421
8 10 22 100 0.110973
9 10 22 100 0.143514
10 10 22 100 0.153799
11 10 22 100 0.137148
12 10 22 100 0.0997617
13 10 22 100 0.0373264
14 10 22 100 0.0455284
15 10 22 100 3.66744e-05
16 10 22 100 0.02275
17 10 22 100 0.00259229
18 10 22 100 1.37876e-06
19 10 22 100 0.000374715
22 10 22 100 2.43924e-06
0 11 22 100 0.00108881
1 11 22 100 0.045455
3 11 22 100 0.0227403
4 11 22 100 1.16133e-06
5 11 22 100 0.022736
6 11 22 100 0.000115633
7 11 22 100 4.81218e-05
8 11 22 100 0.0482302
9 11 22 100 0.156686
10 11 22 100 0.158088
11 11 22 100 0.13717
12 11 22 100 0.179696
13 11 22 100 0.136408
15 11 22 100 0.0227238
16 11 22 100 6.2104e-06
17 11 22 100 0.0454549
19 11 22 100 0.000590735
20 11 22 100 0.0227412
21 11 22 100 1.15563e-06
22 11 22 100 1.78261e-05
0 12 22 100 0.0528197
1 12 22 100 0.0180066
2 12 22 100 0.043624
3 12 22 100 3.93756e-06
4 12 22 100 0.000202179
5 12 22 100 0.0227331
6 12 22 100 6.90267e-05
7 12 22 100 0.0218599
8 12 22 100 0.000430791
9 12 22 100 0.0901394
10 12 22 100 0.139109
11 12 22 100 0.112866
12 12 22 100 0.0668741
13 12 22 100 0.222069
14 12 22 100 0.162665
15 12 22 100 0.000554531
16 12 22 100 0.0227341
17 12 22 100 0.000213118
18 12 22 100 0.0227273
19 12 22 100 9.14444e-05
20 12 22 100 3.72787e-06
21 12 22 100 0.000200025
22 12 22 100 3.90024e-06
0 13 22 100 0.00636681
1 13 22 100 3.24808e-06
2 13 22 100 0.0383895
3 13 22 100 4.54226e-06
4 13 22 100 5.16956e-06
5 13 22 100 5.57126e-07
6 13 22 100 0.0454421
7 13 22 100 7.43075e-07
8 13 22 100 0.000107687
9 13 22 100 0.0425236
10 13 22 100 0.0964183
11 13 22 100 0.130811
12 13 22 100 0.0940005
13 13 22 100 0.114261
14 13 22 100 0.231559
15 13 22 100 0.0962914
16 13 22 100 0.0356232
17 13 22 100 0.022736
18 13 22 100 0.0227262
19 13 22 100 0.0227273
22 13 22 100 1.34992e-06
0 14 22 100 0.00388775
1 14 22 100 4.30924e-07
2 14 22 100 0.0227411
3 14 22 100 3.85124e-05
4 14 22 100 0.000203076
5 14 22 100 0.0227364
6 14 22 100 9.47664e-06
7 14 22 100 0.00138081
8 14 22 100 0.022736
9 14 22 100 0.0225109
10 14 22 100 0.133727
11 14 22 100 0.0674929
12 14 22 100 0.111046
13 14 22 100 0.159459
14 14 22 100 0.114194
15 14 22 100 0.113083
16 14 22 100 0.0879251
17 14 22 100 0.0486944
18 14 22 100 0.0227398
19 14 22 100 0.00010042
20 14 22 100 0.0227341
21 14 22 100 0.0225563
22 14 22 100 3.93953e-06
0 15 22 100 0.0510302
1 15 22 100 7.93238e-06
2 15 22 100 0.000559862
3 15 22 100 0.00102339
4 15 22 100 0.000271626
5 15 22 100 0.000144339
6 15 22 100 0.0448899
7 15 22 100 0.0227819
8 15 22 100 0.000190164
9 15 22 100 0.0269684
10 15 22 100 0.056888
11 15 22 100 0.0691194
12 15 22 100 0.0222623
13 15 22 100 0.140436
14 15 22 100 0.176656
15 15 22 100 0.0913721
16 15 22 100 0.113464
17 15 22 100 0.0910119
18 15 22 100 0.0227036
19 15 22 100 2.91822e-05
20 15 22 100 0.0454558
21 15 22 100 0.0227273
22 15 22 100 6.20471e-06
0 16 22 100 0.00316622
1 16 22 100 5.2508e-06
3 16 22 100 8.75621e-05
4 16 22 100 8.06611e-07
5 16 22 100 9.82482e-07
6 16 22 100 9.74419e-06
7 16 22 100 0.045375
8 16 22 100 0.0226885
9 16 22 100 0.00010556
10 16 22 100 0.0227247
11 16 22 100 0.0454553
12 16 22 100 0.0460803
13 16 22 100 0.0679221
14 16 22 100 0.113541
15 16 22 100 0.182327
16 16 22 100 0.155457
17 16 22 100 0.113259
18 16 22 100 0.0677494
19 16 22 100 0.045848
20 16 22 100 0.0227157
21 16 22 100 0.0454608
22 16 22 100 1.86651e-05
0 17 22 100 0.105487
1 17 22 100 7.97163e-05
2 17 22 100 1.59572e-05
3 17 22 100 3.34971e-06
4 17 22 100 4.79398e-07
5 17 22 100 0.00110637
6 17 22 100 0.0227276
7 17 22 100 0.0278585
8 17 22 100 0.00114059
9 17 22 100 0.000114486
10 17 22 100 0.000580219
11 17 22 100 0.0228644
12 17 22 100 0.0490837
13 17 22 100 0.0459495
14 17 22 100 0.0727134
15 17 22 100 0.137399
16 17 22 100 0.117923
17 17 22 100 0.0681857
18 17 22 100 0.113745
19 17 22 100 0.0604129
20 17 22 100 0.108181
21 17 22 100 3.28853e-05
22 17 22 100 0.0443946
0 18 22 100 0.102654
1 18 22 100 4.36059e-05
2 18 22 100 0.000102933
3 18 22 100 3.37259e-06
4 18 22 100 0.000105061
5 18 22 100 0.00276141
6 18 22 100 0.000265916
7 18 22 100 0.0157798
8 18 22 100 0.023253
9 18 22 100 0.00356225
10 18 22 100 8.70996e-05
11 18 22 100 0.0260732
12 18 22 100 0.0464745
13 18 22 100 0.0935534
14 18 22 100 0.0233295
15 18 22 100 0.0234118
16 18 22 100 0.140846
17 18 22 100 0.166456
18 18 22 100 0.0922009
19 18 22 100 0.0959614
20 18 22 100 0.0732238
21 18 22 100 0.0697689
22 18 22 100 8.3254e-05
0 19 22 100 0.048138
1 19 22 100 0.000832906
2 19 22 100 3.23564e-07
4 19 22 100 9.35222e-05
5 19 22 100 1.24792e-06
6 19 22 100 9.83662e-06
7 19 22 100 0.000375431
8 19 22 100 0.000287886
9 19 22 100 0.046582
10 19 22 100 7.83339e-05
11 19 22 100 0.000149231
12 19 22 100 0.0464537
13 19 22 100 0.046571
14 19 22 100 0.0699506
15 19 22 100 0.0238277
16 19 22 100 0.116373
17 19 22 100 0.129328
18 19 22 100 0.126444
19 19 22 100 0.127769
20 19 22 100 0.11627
21 19 22 100 0.0541981
22 19 22 100 0.0462663
0 20 22 100 0.0363458
1 20 22 100 1.53269e-05
2 20 22 100 5.3743e-05
3 20 22 100 0.0233212
4 20 22 100 8.95064e-06
5 20 22 100 3.02827e-05
6 20 22 100 1.05996e-05
7 20 22 100 8.95816e-07
8 20 22 100 2.70088e-05
9 20 22 100 0.0038068
10 20 22 100 0.0469082
11 20 22 100 0.000388229
12 20 22 100 0.0439837
13 20 22 100 0.0455088
14 20 22 100 0.0671122
15 20 22 100 0.0674774
16 20 22 100 0.0700299
17 20 22 100 0.0701752
18 20 22 100 0.0932776
19 20 22 100 0.109955
20 20 22 100 0.135634
21 20 22 100 0.116775
22 20 22 100 0.0691537
0 21 22 100 0.0415635
1 21 22 100 0.0243948
2 21 22 100 3.74966e-05
4 21 22 100 0.0025551
5 21 22 100 1.16885e-06
7 21 22 100 7.13169e-05
8 21 22 100 3.12922e-06
9 21 22 100 1.37645e-05
10 21 22 100 0.0260027
11 21 22 100 0.0243974
12 21 22 100 0.000553515
13 21 22 100 0.0710366
14 21 22 100 0.025031
15 21 22 100 0.0484845
16 21 22 100 0.0958805
17 21 22 100 0.0951428
18 21 22 100 0.0731803
19 21 22 100 0.079738
20 21 22 100 0.121616
21 21 22 100 0.189537
22 21 22 100 0.0807589
0 22 22 100 0.0651851
1 22 22 100 0.0256473
2 22 22 100 2.47271e-05
3 22 22 100 5.03516e-06
4 22 22 100 0.000504428
5 22 22 100 0.0233207
6 22 22 100 1.44303e-05
7 22 22 100 0.00050174
8 22 22 100 7.40716e-05
9 22 22 100 1.53457e-05
10 22 22 100 0.0256439
11 22 22 100 2.6464e-05
12 22 22 100 0.0257002
13 22 22 100 0.000240402
14 22 22 100 3.50943e-05
15 22 22 100 0.0725031
16 22 22 100 0.0770184
17 22 22 100 0.0771573
18 22 22 100 0.151698
19 22 22 100 0.0802327
20 22 22 100 0.117057
21 22 22 100 0.10285
22 22 22 100 0.154545
0 23 22 100 0.0278584
1 23 22 100 0.000839536
2 23 22 100 0.0285715
3 23 22 100 0.0286609
5 23 22 100 0.0274782
6 23 22 100 3.51051e-06
7 23 22 100 5.17247e-06
8 23 22 100 1.24976e-06
10 23 22 100 1.67504e-06
11 23 22 100 0.056848
12 23 22 100 0.000933893
13 23 22 100 0.0266997
14 23 22 100 0.00113629
16 23 22 100 0.0867986
17 23 22 100 0.0571405
18 23 22 100 0.0857153
19 23 22 100 0.14315
20 23 22 100 0.171414
21 23 22 100 0.113886
22 23 22 100 0.142858
0 24 22 100 0.0623082
1 24 22 100 7.98596e-05
2 24 22 100 0.0336003
3 24 22 100 6.82765e-05
4 24 22 100 0.000107151
5 24 22 100 0.000370913
6 24 22 100 0.000190107
7 24 22 100 0.000815887
8 24 22 100 1.85577e-05
9 24 22 100 1.80739e-05
10 24 22 100 1.45705e-05
11 24 22 100 4.24641e-07
12 24 22 100 7.79961e-05
13 24 22 100 0.000214335
14 24 22 100 0.0328338
15 24 22 100 0.00269571
16 24 22 100 0.0672135
17 24 22 100 0.0998756
18 24 22 100 0.0333489
19 24 22 100 0.0998046
20 24 22 100 0.233172
21 24 22 100 0.166447
22 24 22 100 0.166725
0 25 22 100 0.143778
1 25 22 100 0.000745083
2 25 22 100 8.75468e-05
3 25 22 100 0.0387422
4 25 22 100 0.0400063
5 25 22 100 1.0824e-05
7 25 22 100 0.000643363
8 25 22 100 0.000215524
9 25 22 100 0.00200363
10 25 22 100 0.00717215
11 25 22 100 0.000181958
12 25 22 100 0.0401589
13 25 22 100 0.000307163
14 25 22 100 0.0435864
15 25 22 100 0.00113157
16 25 22 100 1.03325e-06
17 25 22 100 0.0418003
18 25 22 100 0.0334542
19 25 22 100 0.00598947
20 25 22 100 0.160589
21 25 22 100 0.316807
22 25 22 100 0.122589
0 26 22 100 0.0414762
1 26 22 100 5.81395e-05
2 26 22 100 0.000265123
3 26 22 100 5.71577e-06
4 26 22 100 0.044945
5 26 22 100 0.0433969
6 26 22 100 0.00422033
8 26 22 100 0.000106119
9 26 22 100 0.00657009
10 26 22 100 8.14546e-06
11 26 22 100 0.00343021
12 26 22 100 0.04354
13 26 22 100 0.0434862
14 26 22 100 0.00678267
15 26 22 100 1.22238e-06
16 26 22 100 1.35001e-05
17 26 22 100 0.0825625
18 26 22 100 0.0825799
19 26 22 100 0.0444485
20 26 22 100 0.0763167
21 26 22 100 0.259175
22 26 22 100 0.216611
0 27 22 100 0.102503
1 27 22 100 0.000129056
2 27 22 100 0.000480687
3 27 22 100 6.75493e-05
5 27 22 100 0.000220341
6 27 22 100 0.0526317
8 27 22 100 1.8589e-05
9 27 22 100 3.35174e-06
10 27 22 100 0.0022198
11 27 22 100 5.65337e-05
12 27 22 100 0.00446673
13 27 22 100 0.0528732
14 27 22 100 0.105263
15 27 22 100 8.5185e-05
16 27 22 100 0.000435098
17 27 22 100 0.0451592
18 27 22 100 0.105741
19 27 22 100 3.22408e-05
20 27 22 100 0.105266
21 27 22 100 0.156196
22 27 22 100 0.266152
2 28 22 100 7.57786e-06
3 28 22 100 0.0666666
7 28 22 100 0.0661201
8 28 22 100 1.47262e-05
9 28 22 100 0.000158841
11 28 22 100 0.00139769
12 28 22 100 0.0666667
14 28 22 100 0.0666686
15 28 22 100 0.00373854
16 28 22 100 0.0005288
18 28 22 100 0.0728596
19 28 22 100 0.121667
20 28 22 100 0.0682365
21 28 22 100 0.198602
22 28 22 100 0.266667
0 29 22 100 0.00167647
1 29 22 100 2.58851e-06
2 29 22 100 0.00020768
8 29 22 100 0.00162441
9 29 22 100 4.67946e-06
10 29 22 100 1.76904e-06
12 29 22 100 0.00215857
13 29 22 100 0.0894292
14 29 22 100 0.00502462
15 29 22 100 0.175096
19 29 22 100 0.181804
20 29 22 100 0.18172
21 29 22 100 5.29243e-05
22 29 22 100 0.361196
0 30 22 100 0.114531
1 30 22 100 0.0011544
2 30 22 100 7.41772e-05
4 30 22 100 5.02268e-05
5 30 22 100 0.00127813
7 30 22 100 0.0158608
8 30 22 100 4.93215e-05
9 30 22 100 0.000613519
10 30 22 100 3.18555e-06
11 30 22 100 0.000200708
12 30 22 100 0.000836373
13 30 22 100 0.00030368
14 30 22 100 0.169263
15 30 22 100 0.000166626
16 30 22 100 0.00204394
17 30 22 100 0.0365533
18 30 22 100 0.116608
19 30 22 100 0.00461345
20 30 22 100 0.111113
21 30 22 100 0.12136
22 30 22 100 0.303323
0 31 22 100 4.84338e-06
8 31 22 100 0.000154348
13 31 22 100 0.142857
15 31 22 100 0.142712
19 31 22 100 0.142857
20 31 22 100 0.285749
22 31 22 100 0.285665
0 32 22 100 0.00742482
5 32 22 100 2.73969e-05
7 32 22 100 0.00100182
8 32 22 100 7.19413e-05
12 32 22 100 2.00971e-05
13 32 22 100 0.00325094
14 32 22 100 0.166467
15 32 22 100 0.321702
20 32 22 100 0.166315
21 32 22 100 0.166667
22 32 22 100 0.167051
0 33 22 100 0.00413672
2 33 22 100 0.0330624
3 33 22 100 7.36499e-06
7 33 22 100 0.00158658
8 33 22 100 0.166925
13 33 22 100 2.19883e-06
14 33 22 100 0.00049593
15 33 22 100 0.199998
16 33 22 100 0.199634
22 33 22 100 0.394151
0 34 22 100 1.74869e-05
9 34 22 100 0.249985
14 34 22 100 2.6223e-06
15 34 22 100 5.43278e-06
17 34 22 100 0.249985
20 34 22 100 0.250002
22 34 22 100 0.250002
7 35 22 100 5.75833e-06
10 35 22 100 0.333328
18 35 22 100 0.333333
20 35 22 100 0.333333
0 36 22 100 1.27461e-05
7 36 22 100 0.000140056
10 36 22 100 0.000178287
14 36 22 100 3.71871e-05
19 36 22 100 0.333141
20 36 22 100 0.666491
20 37 22 100 0.333333
21 37 22 100 0.333333
22 37 22 100 0.333333
16 38 22 100 0.5
21 38 22 100 0.5
0 39 22 100 0.0417919
7 39 22 100 0.392282
11 39 22 100 0.0136353
16 39 22 100 0.513557
19 39 22 100 0.0379618
20 39 22 100 0.000569488
22 39 22 100 0.000202934
0 40 22 100 0.00908547
3 40 22 100 2.54634e-05
7 40 22 100 0.000205262
13 40 22 100 2.51097e-05
15 40 22 100 0.0350132
16 40 22 100 0.454611
20 40 22 100 0.499992
22 40 22 100 0.00104236
16 41 22 100 0.00334808
21 41 22 100 0.496652
22 41 22 100 0.5
22 42 22 100 1
