2 0.222771 0.764009 0.0131324 8.19815e-05 4.23228e-06 8.29239e-07 2.55743e-07 1.28362e-07 0 0 
3 0.15702 0.765017 0.0774029 0.000548341 9.33818e-06 1.35102e-06 4.16664e-07 2.09131e-07 0 0 
4 0.00212366 0.662421 0.327383 0.00805749 1.14534e-05 2.23357e-06 6.88847e-07 3.45745e-07 0 0 
5 0.633149 0.32391 0.042843 6.64941e-05 2.47362e-05 4.84662e-06 1.49473e-06 7.50234e-07 0 0 
6 0.562838 0.404949 0.0302175 0.00196183 2.61765e-05 5.06804e-06 1.56302e-06 7.84508e-07 0 0 
7 0.0896815 0.907959 0.00225577 6.817e-05 2.74699e-05 5.38223e-06 1.65992e-06 8.33144e-07 0 0 
8 0.0765167 0.905355 0.0179902 9.11871e-05 3.66595e-05 7.18276e-06 2.21521e-06 1.11186e-06 0 0 
9 0.0346778 0.959825 0.0053398 0.000103689 4.17677e-05 8.18364e-06 2.52389e-06 1.26679e-06 0 0 
10 0.133235 0.709503 0.157066 0.000137679 4.52948e-05 8.8747e-06 2.73702e-06 1.37376e-06 0 0 
11 0.261467 0.660827 0.0735697 0.00367068 0.000342801 9.23466e-05 2.34103e-05 5.03818e-06 1.3133e-06 0 
12 0.0501174 0.943877 0.00582921 0.000116013 4.67492e-05 9.15967e-06 2.82491e-06 1.41787e-06 0 0 
13 0.246344 0.676243 0.0772095 0.000134375 5.39224e-05 1.05651e-05 3.25836e-06 1.63543e-06 0 0 
14 0.0164725 0.971635 0.00999657 0.00127708 0.000447564 0.000129403 3.28042e-05 7.05987e-06 1.84029e-06 0 
15 0.5286 0.398935 0.0721709 0.000209033 6.61775e-05 1.29663e-05 3.99889e-06 2.00712e-06 0 0 
16 0.282696 0.676332 0.0406823 0.000203905 6.661e-05 1.3051e-05 4.02503e-06 2.02024e-06 0 0 
17 0.288788 0.634505 0.0763963 0.000207504 8.02467e-05 1.57229e-05 4.84905e-06 2.43383e-06 0 0 
18 0.365226 0.532261 0.100876 0.00152862 8.35355e-05 1.63673e-05 5.04778e-06 2.53358e-06 0 0 
19 0.578187 0.411801 0.0075528 0.00165678 0.000580724 0.000167903 4.25642e-05 9.16033e-06 2.38782e-06 0 
20 0.159117 0.782328 0.0473805 0.0103354 0.000607005 0.00017514 4.43988e-05 9.55517e-06 2.49074e-06 0 
21 0.188104 0.799874 0.00426142 0.0074593 0.000276163 1.73635e-05 5.35504e-06 2.68779e-06 0 0 
22 0.558966 0.36679 0.0658297 0.00755715 0.000621365 0.000178213 4.51778e-05 9.7228e-06 2.53444e-06 0 
23 0.581504 0.358921 0.0476269 0.0110531 0.000657558 0.00017979 4.55776e-05 9.80884e-06 2.55687e-06 0 
24 0.236119 0.76087 0.00266776 0.000225812 9.0994e-05 1.78286e-05 5.49847e-06 2.75979e-06 0 0 
25 0.301355 0.679631 0.0157223 0.00232986 0.000695718 0.000201151 5.09927e-05 1.09743e-05 2.86065e-06 0 
26 0.550106 0.446485 0.00301722 0.000258071 0.000103993 2.03756e-05 6.28397e-06 3.15404e-06 0 0 
27 0.370316 0.360142 0.174777 0.0933473 0.00114376 0.000207309 5.25537e-05 1.13102e-05 2.94822e-06 0 
28 0.112138 0.884323 0.0031351 0.00026622 0.000107277 2.1019e-05 6.48241e-06 3.25364e-06 0 0 
29 0.606482 0.213434 0.179636 0.000309657 0.000107277 2.1019e-05 6.48241e-06 3.25364e-06 0 0 
30 0.482144 0.514136 0.00330207 0.000274902 0.000110775 2.17044e-05 6.6938e-06 3.35974e-06 0 0 
31 0.137754 0.852561 0.00641453 0.00220297 0.000772171 0.000223256 5.65963e-05 1.21802e-05 3.17501e-06 0 
32 0.50923 0.350926 0.139366 0.000325666 0.000118504 2.32187e-05 7.16081e-06 3.59414e-06 0 0 
33 0.243236 0.728675 0.0273584 0.000571285 0.000124284 2.43513e-05 7.51011e-06 3.76947e-06 0 0 
34 0.153197 0.797766 0.0453539 0.0024845 0.000867501 0.000250818 6.35835e-05 1.36839e-05 3.56699e-06 0 
35 0.585211 0.361851 0.0522231 0.000553087 0.000125819 2.46519e-05 7.60283e-06 3.816e-06 0 0 
36 0.513101 0.335152 0.151191 0.000389281 0.000129004 2.5276e-05 7.79531e-06 3.91261e-06 0 0 
37 0.283457 0.626013 0.0864584 0.00279376 0.000924573 0.000267319 6.77666e-05 1.45842e-05 3.80166e-06 0 
38 0.215633 0.779895 0.00396056 0.000337212 0.000135884 2.66241e-05 8.21106e-06 4.12128e-06 0 0 
39 0.218557 0.669679 0.111191 0.000397025 0.000135884 2.66241e-05 8.21106e-06 4.12128e-06 0 0 
40 0.324224 0.657166 0.0180978 0.000337251 0.000135884 2.66241e-05 8.21106e-06 4.12128e-06 0 0 
41 0.335559 0.658816 0.00510668 0.000341769 0.000137721 2.69839e-05 8.32202e-06 4.17698e-06 0 0 
42 0.165868 0.643296 0.175888 0.000477851 0.014428 2.98156e-05 8.79756e-06 4.41566e-06 0 0 
43 0.541663 0.38261 0.0501816 0.0251968 0.000306364 2.85258e-05 8.79756e-06 4.41566e-06 0 0 
44 0.0665426 0.849224 0.0799204 0.00290546 0.00101837 0.000294438 7.46415e-05 1.60638e-05 4.18733e-06 0 
45 0.234224 0.70468 0.0560925 0.00357493 0.00103335 0.000298768 7.57392e-05 1.63e-05 4.24891e-06 0 
46 0.0383487 0.9484 0.00880979 0.00299209 0.00104877 0.000303228 7.68696e-05 1.65433e-05 4.31233e-06 0 
47 0.696566 0.265268 0.0375934 0.000377508 0.000152109 2.98031e-05 9.19148e-06 4.61338e-06 0 0 
48 0.118365 0.831884 0.0491744 0.000380963 0.000152109 2.98031e-05 9.19148e-06 4.61338e-06 0 0 
49 0.175204 0.811441 0.00884535 0.00303743 0.00106466 0.000307822 7.80343e-05 1.67939e-05 4.37767e-06 0 
50 0.317803 0.602564 0.0790473 0.000387086 0.000154414 3.02547e-05 9.33075e-06 4.68328e-06 0 0 
51 0.449845 0.543814 0.00575016 0.000389091 0.00015679 3.07201e-05 9.4743e-06 4.75533e-06 0 0 
52 0.162769 0.829825 0.00680604 0.000395171 0.00015924 3.12001e-05 9.62233e-06 4.82963e-06 0 0 
53 0.10825 0.88653 0.00461956 0.000395171 0.00015924 3.12001e-05 9.62233e-06 4.82963e-06 0 0 
54 0.352686 0.496266 0.150023 0.000817055 0.000161767 3.16954e-05 9.77507e-06 4.90629e-06 0 0 
55 0.35145 0.552458 0.0906822 0.00386706 0.00111536 0.00032248 8.17502e-05 1.75936e-05 4.58613e-06 0 
56 0.422574 0.472507 0.0437239 0.0607948 0.00035439 3.16954e-05 9.77507e-06 4.90629e-06 0 0 
57 0.153595 0.832184 0.00942098 0.00323339 0.00113335 0.000327681 8.30687e-05 1.78774e-05 4.66009e-06 0 
58 0.371409 0.472451 0.155489 0.000429004 0.000172734 3.38442e-05 1.04378e-05 5.23892e-06 0 0 
59 0.078706 0.888985 0.0271781 0.00345641 0.00121151 0.00035028 8.87977e-05 1.91103e-05 4.98148e-06 0 
60 0.242525 0.734005 0.0227827 0.00045741 0.000178795 3.50317e-05 1.0804e-05 5.42274e-06 0 0 
61 0.424165 0.569102 0.00604768 0.000451624 0.000181988 3.56573e-05 1.0997e-05 5.51958e-06 0 0 
62 0.0351571 0.922933 0.0412118 0.000459851 0.000185297 3.63056e-05 1.11969e-05 5.61993e-06 0 0 
63 0.0656355 0.918158 0.0107953 0.00364491 0.00127759 0.000369386 9.36412e-05 2.01527e-05 5.2532e-06 0 
64 0.271365 0.72256 0.00537618 0.000459835 0.000185297 3.63056e-05 1.11969e-05 5.61993e-06 0 0 
65 0.347889 0.645356 0.00603057 0.000477188 0.000192289 3.76756e-05 1.16194e-05 5.83201e-06 0 0 
66 0.47038 0.477701 0.0497063 0.0019653 0.000192289 3.76756e-05 1.16194e-05 5.83201e-06 0 0 
67 0.141921 0.744522 0.107682 0.00400689 0.0013513 0.000390697 9.90435e-05 2.13154e-05 5.55627e-06 0 
68 0.109641 0.706636 0.17761 0.00420873 0.0013778 0.000398358 0.000100986 2.17333e-05 5.66521e-06 0 
69 0.0183054 0.936798 0.0441433 0.000495921 0.00019983 3.91531e-05 1.20751e-05 6.06071e-06 0 0 
70 0.202805 0.742523 0.0486907 0.00403864 0.00140535 0.000406325 0.000103005 2.2168e-05 5.77852e-06 0 
71 0.0324783 0.868173 0.0933961 0.00400974 0.00140535 0.000406325 0.000103005 2.2168e-05 5.77852e-06 0 
72 0.192413 0.775045 0.0317473 0.000527504 0.000207986 4.07512e-05 1.25679e-05 6.30809e-06 0 0 
73 0.0725297 0.909447 0.0119496 0.00409123 0.00143403 0.000414617 0.000105107 2.26204e-05 5.89645e-06 0 
74 0.721879 0.191882 0.0548219 0.00902728 0.00763919 0.0144674 0.000255347 2.26204e-05 5.89645e-06 0 
75 0.29323 0.546244 0.10834 0.0496318 0.0019942 0.000423255 0.000107297 2.30917e-05 6.01929e-06 0 
76 0.24093 0.740708 0.012162 0.00417646 0.00146391 0.000423255 0.000107297 2.30917e-05 6.01929e-06 0 
77 0.188049 0.78928 0.016339 0.00426532 0.00149505 0.000432261 0.00010958 2.3583e-05 6.14736e-06 0 
78 0.481842 0.22616 0.28985 0.001863 0.000221551 4.34089e-05 1.33876e-05 6.71948e-06 0 0 
79 0.2476 0.691884 0.0525651 0.00583942 0.00152756 0.000441658 0.000111962 2.40956e-05 6.281e-06 0 
80 0.0777783 0.881932 0.0338199 0.00435818 0.00152756 0.000441658 0.000111962 2.40956e-05 6.281e-06 0 
81 0.555384 0.422924 0.0208579 0.000549831 0.000221551 4.34089e-05 1.33876e-05 6.71948e-06 0 0 
82 0.12522 0.847251 0.0266937 0.000549835 0.000221551 4.34089e-05 1.33876e-05 6.71948e-06 0 0 
83 0.122584 0.775979 0.0988334 0.00231287 0.000226474 4.43735e-05 1.36851e-05 6.86881e-06 0 0 
84 0.309799 0.621176 0.0680796 0.000653976 0.000226474 4.43735e-05 1.36851e-05 6.86881e-06 0 0 
85 0.322558 0.669386 0.00718355 0.000574794 0.000231621 4.5382e-05 1.39961e-05 7.02492e-06 0 0 
86 0.452446 0.418964 0.127715 0.000575954 0.000231621 4.5382e-05 1.39961e-05 7.02492e-06 0 0 
87 0.0218177 0.963237 0.0140527 0.000588161 0.000237008 4.64374e-05 1.43216e-05 7.18828e-06 0 0 
88 0.0455474 0.899854 0.0536808 0.000605953 0.000242651 4.7543e-05 1.46626e-05 7.35944e-06 0 0 
89 0.221524 0.770518 0.00704343 0.000602165 0.000242651 4.7543e-05 1.46626e-05 7.35944e-06 0 0 
90 0.183121 0.769109 0.0406542 0.00480247 0.00167304 0.00048372 0.000122625 2.63905e-05 6.87919e-06 0 
91 0.323667 0.553022 0.116226 0.0047731 0.00167304 0.00048372 0.000122625 2.63905e-05 6.87919e-06 0 
92 0.5637 0.4275 0.00786331 0.000616852 0.000248569 4.87026e-05 1.50202e-05 7.53893e-06 0 0 
93 0.269059 0.678672 0.044954 0.00494622 0.00171384 0.000495518 0.000125616 2.70341e-05 7.04697e-06 0 
94 0.7429 0.156808 0.0917545 0.00610912 0.00175669 0.000507906 0.000128757 2.771e-05 7.22315e-06 0 
95 0.337588 0.621686 0.0332859 0.00501186 0.00175669 0.000507906 0.000128757 2.771e-05 7.22315e-06 0 
96 0.0889127 0.707879 0.122604 0.0781662 0.00176637 0.000507906 0.000128757 2.771e-05 7.22315e-06 0 
97 0.117042 0.834727 0.0405999 0.00514034 0.00180173 0.000520929 0.000132058 2.84205e-05 7.40836e-06 0 
98 0.228868 0.737036 0.0331121 0.000648526 0.000261316 5.12002e-05 1.57905e-05 7.92555e-06 0 0 
99 0.197948 0.752227 0.0156886 0.0315806 0.0018492 0.000534638 0.000135533 2.91684e-05 7.60331e-06 0 
100 0.0411716 0.935635 0.0153618 0.00527553 0.00184915 0.000534638 0.000135533 2.91684e-05 7.60331e-06 0 
101 0.213629 0.740552 0.0447534 0.000720446 0.000268193 5.25476e-05 1.6206e-05 8.13411e-06 0 0 
102 0.390708 0.501329 0.106945 0.000673113 0.000268193 5.25476e-05 1.6206e-05 8.13411e-06 0 0 
103 0.11635 0.835631 0.0401848 0.00527812 0.00184915 0.000534638 0.000135533 2.91684e-05 7.60331e-06 0 
104 0.104595 0.886613 0.0077812 0.000665551 0.000268193 5.25476e-05 1.6206e-05 8.13411e-06 0 0 
105 0.258462 0.0693092 0.635056 0.00752155 0.0285206 0.000953185 0.000139196 2.99567e-05 7.80881e-06 0 
106 0.435022 0.359641 0.204197 0.000786037 0.000275441 5.39678e-05 1.6644e-05 8.35395e-06 0 0 
107 0.042321 0.92716 0.0224758 0.00541811 0.00189912 0.000549088 0.000139196 2.99567e-05 7.80881e-06 0 
108 0.556491 0.315868 0.11697 0.00804524 0.00189912 0.000549088 0.000139196 2.99567e-05 7.80881e-06 0 
109 0.125294 0.850773 0.0158903 0.00541811 0.00189912 0.000549088 0.000139196 2.99567e-05 7.80881e-06 0 
110 0.385621 0.584542 0.0276319 0.00185144 0.000275441 5.39678e-05 1.6644e-05 8.35395e-06 0 0 
111 0.29301 0.670874 0.0350769 0.000685167 0.000275441 5.39678e-05 1.6644e-05 8.35395e-06 0 0 
112 0.0404973 0.935682 0.0157772 0.00541811 0.00189912 0.000549088 0.000139196 2.99567e-05 7.80881e-06 0 
113 0.0693108 0.83464 0.0814293 0.0119945 0.00189912 0.000549088 0.000139196 2.99567e-05 7.80881e-06 0 
114 0.172141 0.795612 0.0242033 0.00541811 0.00189912 0.000549088 0.000139196 2.99567e-05 7.80881e-06 0 
115 0.448523 0.230819 0.299677 0.0183557 0.00189912 0.000549088 0.000139196 2.99567e-05 7.80881e-06 0 
116 0.234584 0.740931 0.0162182 0.00556862 0.00195188 0.00056434 0.000143063 3.07889e-05 8.02572e-06 0 
117 0.317038 0.658408 0.0162875 0.00556862 0.00195188 0.00056434 0.000143063 3.07889e-05 8.02572e-06 0 
118 0.162282 0.828438 0.00821262 0.000702526 0.000283092 5.54669e-05 1.71064e-05 8.58601e-06 0 0 
119 0.364597 0.477224 0.157111 0.000703288 0.000283093 5.54669e-05 1.71064e-05 8.58601e-06 0 0 
120 0.151992 0.816961 0.0227803 0.00556862 0.00195188 0.00056434 0.000143063 3.07889e-05 8.02572e-06 0 
121 0.465986 0.522187 0.0107603 0.000702526 0.000283092 5.54669e-05 1.71064e-05 8.58601e-06 0 0 
122 0.163931 0.82678 0.00822253 0.000702526 0.000283092 5.54669e-05 1.71064e-05 8.58601e-06 0 0 
123 0.29714 0.449158 0.161913 0.0890475 0.00199394 0.00056434 0.000143063 3.07889e-05 8.02572e-06 0 
124 0.473312 0.487956 0.0376346 0.000722664 0.000291181 5.70516e-05 1.75951e-05 8.83132e-06 0 0 
125 0.313713 0.630669 0.0186893 0.0340886 0.00207293 0.000580464 0.00014715 3.16686e-05 8.25502e-06 0 
126 0.0673852 0.907434 0.0166778 0.00572772 0.00200764 0.000580464 0.00014715 3.16686e-05 8.25502e-06 0 
127 0.644134 0.298132 0.0490274 0.00593185 0.00200764 0.000580464 0.00014715 3.16686e-05 8.25503e-06 0 
128 0.187667 0.702824 0.101005 0.00572829 0.00200764 0.000580464 0.00014715 3.16686e-05 8.25502e-06 0 
129 0.596294 0.24398 0.151213 0.00573764 0.00200764 0.000580464 0.00014715 3.16686e-05 8.25503e-06 0 
130 0.488723 0.379043 0.12301 0.00644917 0.00200764 0.000580464 0.00014715 3.16686e-05 8.25503e-06 0 
131 0.0565543 0.904312 0.0380043 0.00074386 0.000299745 5.87296e-05 1.81126e-05 9.09107e-06 0 0 
132 0.163156 0.810898 0.017193 0.00589618 0.00206669 0.000597537 0.000151478 3.26e-05 8.49782e-06 0 
133 0.106576 0.866125 0.0185459 0.00589618 0.00206669 0.000597537 0.000151478 3.26e-05 8.49782e-06 0 
134 0.101404 0.841035 0.0465842 0.00811909 0.00206669 0.000597537 0.000151478 3.26e-05 8.49782e-06 0 
135 0.318541 0.671598 0.00873076 0.000743851 0.000299745 5.87296e-05 1.81126e-05 9.09107e-06 0 0 
136 0.322599 0.19983 0.464376 0.0103385 0.00206669 0.000597537 0.000151478 3.26e-05 8.49782e-06 0 
137 0.33472 0.519426 0.133342 0.00965497 0.00206669 0.000597537 0.000151478 3.26e-05 8.49782e-06 0 
138 0.410121 0.46725 0.112252 0.00751971 0.00206669 0.000597537 0.000151478 3.26e-05 8.49782e-06 0 
139 0.105374 0.840016 0.0458433 0.00590953 0.00206669 0.000597537 0.000151478 3.26e-05 8.49782e-06 0 
140 0.32045 0.529465 0.135255 0.0118867 0.00212932 0.000615644 0.000156069 3.35879e-05 8.75533e-06 0 
141 0.0485699 0.924368 0.0180435 0.00607485 0.00212932 0.000615644 0.000156069 3.35879e-05 8.75533e-06 0 
142 0.364008 0.272464 0.174329 0.140453 0.0176507 0.0308958 0.000156628 3.35879e-05 8.75533e-06 0 
143 0.199508 0.773522 0.0179521 0.00607485 0.00212932 0.000615644 0.000156069 3.35879e-05 8.75533e-06 0 
144 0.559734 0.42146 0.017642 0.000766392 0.000308828 6.05093e-05 1.86615e-05 9.36655e-06 0 0 
145 0.125932 0.681068 0.153469 0.00918131 0.0302018 0.000119512 1.86615e-05 9.36655e-06 0 0 
146 0.157728 0.795208 0.0458633 0.000790944 0.000318479 6.24002e-05 1.92447e-05 9.65926e-06 0 0 
147 0.246591 0.742969 0.00923943 0.000790342 0.000318479 6.24002e-05 1.92447e-05 9.65926e-06 0 0 
148 0.321875 0.608003 0.0665907 0.00312102 0.000318479 6.24002e-05 1.92447e-05 9.65926e-06 0 0 
149 0.0488146 0.923607 0.0182779 0.00626469 0.00219586 0.000634883 0.000160946 3.46375e-05 9.02893e-06 0 
150 0.0886131 0.879516 0.0225713 0.00626469 0.00219586 0.000634883 0.000160946 3.46375e-05 9.02893e-06 0 
151 0.0806007 0.891858 0.018241 0.00626469 0.00219586 0.000634883 0.000160946 3.46375e-05 9.02893e-06 0 
152 0.214196 0.602776 0.172345 0.00764814 0.00219586 0.000634883 0.000160946 3.46375e-05 9.02893e-06 0 
153 0.0504039 0.91797 0.0220266 0.00646678 0.0022667 0.000655363 0.000166138 3.57548e-05 9.32019e-06 0 
154 0.255675 0.693334 0.0497412 0.000826798 0.000328753 6.44131e-05 1.98655e-05 9.97085e-06 0 0 
155 0.0509284 0.920548 0.0189232 0.00646678 0.0022667 0.000655363 0.000166138 3.57548e-05 9.32019e-06 0 
156 0.483021 0.319284 0.154987 0.0394828 0.00235854 0.000655363 0.000166138 3.57548e-05 9.32019e-06 0 
157 0.189912 0.710372 0.0984685 0.000824573 0.000328753 6.44131e-05 1.98655e-05 9.97085e-06 0 0 
158 0.0837146 0.868107 0.0385784 0.00646711 0.0022667 0.000655363 0.000166138 3.57548e-05 9.32019e-06 0 
159 0.18541 0.550144 0.253409 0.00790398 0.0022667 0.000655363 0.000166138 3.57548e-05 9.32019e-06 0 
160 0.10838 0.712287 0.178047 0.000848345 0.000339711 6.65602e-05 2.05276e-05 1.03032e-05 0 0 
161 0.383214 0.561762 0.0443668 0.00741976 0.00234225 0.000677208 0.000171675 3.69467e-05 9.63086e-06 0 
162 0.326766 0.601162 0.0617389 0.00698467 0.00242302 0.00070056 0.000177595 3.82207e-05 9.96296e-06 0 
163 0.199911 0.746472 0.021294 0.0318861 0.000339788 6.65602e-05 2.05276e-05 1.03032e-05 0 0 
164 0.0188213 0.951774 0.019485 0.00668234 0.00234225 0.000677208 0.000171675 3.69467e-05 9.63086e-06 0 
165 0.450663 0.49565 0.0215412 0.0317058 0.000342581 6.65602e-05 2.05276e-05 1.03032e-05 0 0 
166 0.423095 0.332539 0.142375 0.0305454 0.0319849 0.0387684 0.000643589 3.82207e-05 9.96296e-06 0 
167 0.260499 0.709109 0.02013 0.00691276 0.00242302 0.00070056 0.000177595 3.82207e-05 9.96296e-06 0 
168 0.349453 0.39281 0.247437 0.0069507 0.00242302 0.00070056 0.000177595 3.82207e-05 9.96296e-06 0 
169 0.170045 0.783967 0.0446637 0.000872251 0.000351425 6.88554e-05 2.12355e-05 1.06585e-05 0 0 
170 0.439533 0.418974 0.104809 0.036015 0.000567659 6.88554e-05 2.12355e-05 1.06585e-05 0 0 
171 0.266328 0.598235 0.0886701 0.0432928 0.00251482 0.00072558 0.000183938 3.95857e-05 1.03188e-05 0 
172 0.160515 0.727976 0.100738 0.00730243 0.00250956 0.00072558 0.000183938 3.95857e-05 1.03188e-05 0 
173 0.0908171 0.839388 0.0234519 0.00715965 0.00254753 0.0363824 0.000203401 3.95857e-05 1.03188e-05 0 
174 0.234266 0.627606 0.0871026 0.0118414 0.00250956 0.00072558 0.00455452 0.030535 0.000858578 0 
175 0.300842 0.687162 0.0106239 0.000903248 0.000363976 7.13145e-05 2.19939e-05 1.10392e-05 0 0 
176 0.291202 0.670039 0.0277362 0.00742482 0.0026025 0.000752454 0.000190751 4.10518e-05 1.0701e-05 0 
177 0.322253 0.418068 0.132834 0.122608 0.00324217 0.000752454 0.000190751 4.10518e-05 1.0701e-05 0 
178 0.355957 0.590738 0.051753 0.0010668 0.000377457 7.39558e-05 2.28085e-05 1.1448e-05 0 0 
179 0.141414 0.846214 0.0109497 0.000936701 0.000377457 7.39558e-05 2.28085e-05 1.1448e-05 0 0 
180 0.0949363 0.865065 0.028976 0.00742482 0.0026025 0.000752454 0.000190751 4.10518e-05 1.0701e-05 0 
181 0.222614 0.70681 0.0595239 0.00745509 0.0026025 0.000752454 0.00019075 4.10518e-05 1.0701e-05 0 
182 0.0209126 0.870015 0.0980498 0.00742484 0.0026025 0.000752454 0.000190751 4.10518e-05 1.0701e-05 0 
183 0.0580426 0.850393 0.0805422 0.00742492 0.0026025 0.000752454 0.000190751 4.10518e-05 1.0701e-05 0 
184 0.0422738 0.888228 0.0584737 0.00742751 0.0026025 0.000752454 0.00019075 4.10518e-05 1.0701e-05 0 
185 0.0217169 0.944387 0.02245 0.00771039 0.0027026 0.000781394 0.000198087 4.26308e-05 1.11125e-05 0 
186 0.404967 0.561136 0.0224504 0.00771039 0.0027026 0.000781394 0.000198087 4.26308e-05 1.11125e-05 0 
187 0.0217201 0.909596 0.0572381 0.00771044 0.0027026 0.000781394 0.000198087 4.26307e-05 1.11125e-05 0 
188 0.6931 0.235583 0.059728 0.00785314 0.0027026 0.000781394 0.000198087 4.26308e-05 1.11125e-05 0 
189 0.0623434 0.865754 0.0599965 0.00802124 0.0028107 0.00081265 0.000206011 4.4336e-05 1.1557e-05 0 
190 0.0622537 0.70514 0.220666 0.00805537 0.0028107 0.00081265 0.000206011 4.4336e-05 1.1557e-05 0 
191 0.200398 0.782952 0.0151143 0.00101164 0.000407653 7.98723e-05 2.46332e-05 1.23639e-05 0 0 
192 0.259258 0.703387 0.0254503 0.00801881 0.0028107 0.00081265 0.000206011 4.4336e-05 1.1557e-05 0 
193 0.118382 0.677147 0.189608 0.0109779 0.0028107 0.00081265 0.000206011 4.4336e-05 1.1557e-05 0 
194 0.0225866 0.942161 0.0233488 0.00801881 0.0028107 0.00081265 0.000206011 4.4336e-05 1.1557e-05 0 
195 0.262455 0.664006 0.0616176 0.00803661 0.0028107 0.00081265 0.000206011 4.4336e-05 1.1557e-05 0 
196 0.159251 0.827328 0.0118851 0.00101164 0.000407653 7.98723e-05 2.46332e-05 1.23639e-05 0 0 
197 0.102576 0.862113 0.023407 0.00801881 0.0028107 0.00081265 0.000206011 4.4336e-05 1.1557e-05 0 
198 0.229116 0.735524 0.0234562 0.00801881 0.0028107 0.00081265 0.000206011 4.4336e-05 1.1557e-05 0 
199 0.0225855 0.942162 0.0233481 0.00801881 0.0028107 0.00081265 0.000206011 4.4336e-05 1.1557e-05 0 
200 0.292021 0.692941 0.0134377 0.00105379 0.000424639 8.32003e-05 2.56596e-05 1.2879e-05 0 0 
201 0.10397 0.858326 0.0253037 0.00835292 0.00292781 0.000846511 0.000214594 4.61833e-05 1.20386e-05 0 
202 0.228686 0.153653 0.498337 0.111088 0.00711697 0.000846511 0.000214594 4.61833e-05 1.20386e-05 0 
203 0.433106 0.530024 0.0244696 0.00835292 0.00292782 0.000846511 0.000214594 4.61833e-05 1.20386e-05 0 
204 0.0235307 0.939744 0.0243249 0.00835292 0.00292781 0.00084651 0.000214594 4.61833e-05 1.20386e-05 0 
205 0.354062 0.272404 0.31422 0.0140446 0.0441197 0.000877313 0.000214594 4.61833e-05 1.20386e-05 0 
206 0.0650711 0.897692 0.0248374 0.00835293 0.00292782 0.000846511 0.000214594 4.61833e-05 1.20386e-05 0 
207 0.218498 0.74471 0.0243916 0.00835292 0.00292782 0.000846511 0.000214594 4.61833e-05 1.20386e-05 0 
208 0.174897 0.576502 0.0838158 0.159929 0.00373692 0.000846511 0.000214594 4.61833e-05 1.20386e-05 0 
209 0.0651869 0.898027 0.0243864 0.00835292 0.00292781 0.000846511 0.000214594 4.61833e-05 1.20386e-05 0 
210 0.232345 0.688828 0.0664021 0.0083779 0.00292781 0.000846511 0.000214594 4.61833e-05 1.20386e-05 0 
211 0.231606 0.731565 0.0244289 0.00835292 0.00292781 0.000846511 0.000214594 4.61833e-05 1.20386e-05 0 
212 0.267354 0.576404 0.143687 0.00850821 0.00292782 0.000846511 0.000214594 4.61833e-05 1.20386e-05 0 
213 0.20547 0.780216 0.0127136 0.00105379 0.000424639 8.32003e-05 2.56596e-05 1.2879e-05 0 0 
214 0.306859 0.655978 0.0247627 0.00835292 0.00292781 0.000846511 0.000214594 4.61833e-05 1.20386e-05 0 
215 0.163266 0.798367 0.0254277 0.00871609 0.00305511 0.000883315 0.000223925 4.81913e-05 1.2562e-05 0 
216 0.149093 0.65283 0.139737 0.0541026 0.00306988 0.000883315 0.000223925 4.81913e-05 1.2562e-05 0 
217 0.154998 0.71279 0.119248 0.00874039 0.00305511 0.000883315 0.000223925 4.81913e-05 1.2562e-05 0 
218 0.110846 0.806311 0.0699001 0.00871944 0.00305511 0.000883315 0.000223925 4.81913e-05 1.2562e-05 0 
219 0.152584 0.809089 0.025388 0.00871609 0.00305511 0.000883315 0.000223925 4.81913e-05 1.2562e-05 0 
220 0.368291 0.470441 0.148325 0.00871956 0.00305511 0.000883315 0.000223925 4.81913e-05 1.2562e-05 0 
221 0.198463 0.76322 0.0253786 0.00871609 0.00305511 0.000883315 0.000223925 4.81913e-05 1.2562e-05 0 
222 0.349799 0.591114 0.0574136 0.00110303 0.000443101 8.68177e-05 2.67752e-05 1.3439e-05 0 0 
223 0.0680347 0.893648 0.0253785 0.00871609 0.00305511 0.000883315 0.000223925 4.81913e-05 1.2562e-05 0 
224 0.391329 0.504564 0.102438 0.00109969 0.000443101 8.68177e-05 2.67752e-05 1.3439e-05 0 0 
225 0.37738 0.607611 0.0133388 0.00109961 0.000443101 8.68177e-05 2.67752e-05 1.3439e-05 0 0 
226 0.222284 0.687956 0.0760068 0.00953016 0.00305511 0.000883315 0.000223925 4.81913e-05 1.2562e-05 0 
227 0.11441 0.713039 0.1596 0.00872841 0.00305511 0.000883315 0.000223925 4.81913e-05 1.2562e-05 0 
228 0.360077 0.483993 0.133981 0.0177266 0.00305511 0.000883315 0.000223925 4.81913e-05 1.2562e-05 0 
229 0.0245497 0.937133 0.0253784 0.00871609 0.00305511 0.000883315 0.000223925 4.81913e-05 1.2562e-05 0 
230 0.027534 0.841178 0.115729 0.0111443 0.00319398 0.000923466 0.000234103 5.03818e-05 1.3133e-05 0 
231 0.0712303 0.888533 0.0267093 0.00911228 0.00319398 0.000923466 0.000234103 5.03818e-05 1.3133e-05 0 
232 0.162106 0.797813 0.0265537 0.00911228 0.00319398 0.000923466 0.000234103 5.03818e-05 1.3133e-05 0 
233 0.162008 0.694298 0.0500216 0.0892223 0.00322939 0.000923466 0.000234103 5.03818e-05 1.3133e-05 0 
234 0.162023 0.70691 0.117528 0.00912367 0.00319398 0.000923466 0.000234103 5.03818e-05 1.3133e-05 0 
235 0.206356 0.617191 0.0265626 0.00918645 0.139481 0.000926168 0.000234103 5.03818e-05 1.3133e-05 0 
236 0.340533 0.617073 0.0288676 0.00911228 0.00319398 0.000923466 0.000234103 5.03818e-05 1.3133e-05 0 
237 0.200588 0.6246 0.16127 0.00912712 0.00319398 0.000923466 0.000234103 5.03818e-05 1.3133e-05 0 
238 0.0256654 0.888515 0.072292 0.00911231 0.00319398 0.000923466 0.000234103 5.03818e-05 1.3133e-05 0 
239 0.0711185 0.697994 0.215956 0.0105162 0.00319398 0.000923466 0.000234103 5.03818e-05 1.3133e-05 0 
240 0.0711177 0.752263 0.163089 0.0091159 0.00319398 0.000923466 0.000234103 5.03818e-05 1.3133e-05 0 
241 0.0443731 0.93972 0.0140784 0.00120433 0.000485301 9.50861e-05 2.93252e-05 1.47189e-05 0 0 
242 0.0268883 0.833252 0.125681 0.00955375 0.00334607 0.000967441 0.000245251 5.27809e-05 1.37584e-05 0 
243 0.118771 0.794539 0.072518 0.00954683 0.00334607 0.000967441 0.000245251 5.27809e-05 1.37584e-05 0 
244 0.442315 0.468314 0.0745606 0.0101852 0.00334607 0.000967441 0.000245251 5.27809e-05 1.37584e-05 0 
245 0.187257 0.657198 0.153705 0.00121608 0.000485301 9.50861e-05 2.93252e-05 1.47189e-05 0 0 
246 0.695683 0.262235 0.0279098 0.0095462 0.00334607 0.000967441 0.000245251 5.27809e-05 1.37584e-05 0 
247 0.151383 0.706922 0.127443 0.00962685 0.00334607 0.000967441 0.000245251 5.27809e-05 1.37584e-05 0 
248 0.312374 0.595429 0.0780253 0.00954622 0.00334607 0.000967441 0.000245251 5.27809e-05 1.37584e-05 0 
249 0.0876947 0.870338 0.0277957 0.0095462 0.00334607 0.000967441 0.000245251 5.27809e-05 1.37584e-05 0 
250 0.407083 0.550544 0.0282014 0.0095462 0.00334607 0.000967441 0.000245251 5.27809e-05 1.37584e-05 0 
251 0.192211 0.765803 0.027815 0.0095462 0.00334607 0.000967441 0.000245251 5.27809e-05 1.37584e-05 0 
252 0.18712 0.749339 0.0617112 0.00120441 0.000485301 9.50861e-05 2.93252e-05 1.47189e-05 0 0 
253 0.169736 0.743971 0.0721119 0.00955649 0.00334607 0.000967441 0.000245251 5.27809e-05 1.37584e-05 0 
254 0.250446 0.70663 0.0287525 0.0095462 0.00334607 0.000967441 0.000245251 5.27809e-05 1.37584e-05 0 
255 0.385832 0.375479 0.200128 0.0299416 0.00848008 9.50861e-05 2.93252e-05 1.47189e-05 0 0 
256 0.0737564 0.872311 0.039761 0.0095462 0.00334607 0.000967441 0.000245251 5.27809e-05 1.37584e-05 0 
257 0.0268876 0.931145 0.0277955 0.0095462 0.00334607 0.000967441 0.000245251 5.27809e-05 1.37584e-05 0 
258 0.330639 0.579083 0.0761063 0.00954626 0.00334607 0.000967441 0.000245251 5.27809e-05 1.37584e-05 0 
259 0.139615 0.790392 0.0273173 0.0420468 0.000490437 9.50861e-05 2.93252e-05 1.47189e-05 0 0 
260 0.143818 0.74205 0.112212 0.00126475 0.000509567 9.98404e-05 3.07915e-05 1.54548e-05 0 0 
261 0.177511 0.735275 0.0722937 0.0100631 0.00351338 0.00101581 0.000257513 5.542e-05 1.44463e-05 0 
262 0.0926867 0.863054 0.0293798 0.0100235 0.00351338 0.00101581 0.000257513 5.542e-05 1.44463e-05 0 
263 0.0782319 0.877703 0.0291855 0.0100235 0.00351338 0.00101581 0.000257513 5.542e-05 1.44463e-05 0 
264 0.077254 0.87868 0.029186 0.0100235 0.00351338 0.00101581 0.000257513 5.542e-05 1.44463e-05 0 
265 0.0282319 0.927703 0.0291855 0.0100235 0.00351338 0.00101581 0.000257513 5.542e-05 1.44463e-05 0 
266 0.0288741 0.926419 0.0298272 0.0100235 0.00351338 0.00101581 0.000257513 5.542e-05 1.44463e-05 0 
267 0.0282464 0.873968 0.0828985 0.010031 0.00351338 0.00101581 0.000257513 5.542e-05 1.44463e-05 0 
268 0.273836 0.58185 0.129433 0.0100243 0.00351338 0.00101581 0.000257513 5.542e-05 1.44463e-05 0 
269 0.0780897 0.723517 0.183513 0.0100242 0.00351338 0.00101581 0.000257513 5.542e-05 1.44463e-05 0 
270 0.275624 0.617069 0.0546696 0.0519812 0.000509567 9.98404e-05 3.07915e-05 1.54548e-05 0 0 
271 0.0965884 0.786711 0.11478 0.00126474 0.000509567 9.98404e-05 3.07915e-05 1.54548e-05 0 0 
272 0.000700682 0.089642 0.833658 0.047529 0.0193986 0.00737327 0.00169808 0 0 0 
273 0.134766 0.766214 0.0833535 0.0105539 0.00369829 0.00106928 0.000271066 5.83368e-05 1.52066e-05 0 
274 0.189907 0.584297 0.209709 0.0109754 0.00369829 0.00106928 0.000271067 5.83368e-05 1.52066e-05 0 
275 0.132758 0.766667 0.0849114 0.0105517 0.00369829 0.00106928 0.000271066 5.83368e-05 1.52066e-05 0 
276 0.282062 0.566087 0.0835502 0.0105568 0.0563298 0.00106928 0.000271066 5.83368e-05 1.52066e-05 0 
277 0.0823699 0.868402 0.033565 0.0105511 0.00369829 0.00106928 0.000271066 5.83368e-05 1.52066e-05 0 
278 0.0823493 0.816401 0.0855866 0.0105511 0.00369829 0.00106928 0.000271066 5.83368e-05 1.52066e-05 0 
279 0.13756 0.815979 0.0307977 0.0105511 0.00369829 0.00106928 0.000271066 5.83368e-05 1.52066e-05 0 
280 0.286692 0.657786 0.0398584 0.0105511 0.00369829 0.00106928 0.000271067 5.83368e-05 1.52066e-05 0 
281 0.237664 0.715033 0.0316403 0.0105511 0.00369829 0.00106928 0.000271067 5.83368e-05 1.52066e-05 0 
282 0.134904 0.714104 0.135328 0.0105517 0.00369829 0.00106928 0.000271066 5.83368e-05 1.52066e-05 0 
283 0.134968 0.766016 0.0307212 0.0631826 0.0036983 0.00106928 0.000271067 5.83368e-05 1.52066e-05 0 
284 0.0297279 0.775853 0.176087 0.01322 0.00369829 0.00106928 0.000271066 5.83368e-05 1.52066e-05 0 
285 0.0854431 0.868039 0.0308548 0.0105511 0.00369829 0.00106928 0.000271067 5.83368e-05 1.52066e-05 0 
286 0.189251 0.465028 0.276449 0.0639507 0.00390729 0.00106928 0.000271066 5.83368e-05 1.52066e-05 0 
287 0.0864285 0.867139 0.0307697 0.0105511 0.00369829 0.00106928 0.000271066 5.83368e-05 1.52066e-05 0 
288 0.074846 0.877556 0.031935 0.0105511 0.00369829 0.00106928 0.000271066 5.83368e-05 1.52066e-05 0 
289 0.0300336 0.868356 0.0335134 0.0629462 0.00373683 0.00106928 0.000271067 5.83368e-05 1.52066e-05 0 
290 0.0823538 0.871262 0.0307211 0.0105511 0.00369829 0.00106928 0.000271066 5.83368e-05 1.52066e-05 0 
291 0.346558 0.596138 0.0552769 0.00133746 0.000536386 0.000105095 3.24121e-05 1.62682e-05 0 0 
292 0.0869244 0.72312 0.173422 0.0111382 0.00390375 0.00112868 0.000286126 6.15778e-05 1.60514e-05 0 
293 0.0517686 0.929673 0.0164245 0.00140505 0.000566185 0.000110934 3.42127e-05 1.7172e-05 0 0 
294 0.0869328 0.863728 0.0328054 0.0111372 0.00390375 0.00112868 0.000286126 6.15778e-05 1.60514e-05 0 
295 0.252079 0.448744 0.171928 0.121853 0.00390446 0.00112868 0.000286126 6.15778e-05 1.60514e-05 0 
296 0.142477 0.647492 0.144643 0.0599923 0.00390394 0.00112868 0.000286126 6.15778e-05 1.60514e-05 0 
297 0.253428 0.69733 0.0327085 0.0111372 0.00390375 0.00112868 0.000286126 6.15778e-05 1.60514e-05 0 
298 0.211399 0.714494 0.0719244 0.00145445 0.000566185 0.000110934 3.42127e-05 1.7172e-05 0 0 
299 0.31574 0.663586 0.0185398 0.00140505 0.000566185 0.000110934 3.42127e-05 1.7172e-05 0 0 
300 0.407314 0.363703 0.211571 0.0120154 0.00390375 0.00112868 0.000286126 6.15778e-05 1.60514e-05 0 
301 0.361714 0.378852 0.141996 0.102963 0.0129831 0.00112868 0.000286126 6.15778e-05 1.60514e-05 0 
302 0.133428 0.424951 0.42292 0.0133043 0.00390375 0.00112868 0.000286126 6.15778e-05 1.60514e-05 0 
303 0.355631 0.483086 0.144317 0.0115691 0.00390375 0.00112868 0.000286126 6.15778e-05 1.60514e-05 0 
304 0.412376 0.246654 0.175857 0.158066 0.00555522 0.00112868 0.000286126 6.15778e-05 1.60514e-05 0 
305 0.0867264 0.864125 0.0326152 0.0111372 0.00390375 0.00112868 0.000286126 6.15778e-05 1.60514e-05 0 
306 0.0322847 0.637481 0.311885 0.0129536 0.00390375 0.00112868 0.000286126 6.15778e-05 1.60514e-05 0 
307 0.244014 0.664219 0.0752143 0.011156 0.00390375 0.00112868 0.000286126 6.15778e-05 1.60514e-05 0 
308 0.0313703 0.86822 0.083853 0.0111608 0.00390375 0.00112868 0.000286126 6.15778e-05 1.60514e-05 0 
309 0.0331898 0.730571 0.16704 0.0638032 0.00390375 0.00112868 0.000286126 6.15778e-05 1.60514e-05 0 
310 0.0313907 0.919626 0.03245 0.0111372 0.00390375 0.00112868 0.000286126 6.15778e-05 1.60514e-05 0 
311 0.154056 0.77183 0.0719805 0.00140505 0.000566185 0.000110934 3.42127e-05 1.7172e-05 0 0 
312 0.140179 0.810843 0.0324446 0.0111372 0.00390375 0.00112868 0.000286126 6.15778e-05 1.60514e-05 0 
313 0.209357 0.734825 0.038312 0.0117924 0.00413339 0.00119507 0.000302957 6.52e-05 1.69956e-05 0 
314 0.290975 0.688447 0.0183188 0.0014877 0.00059949 0.000117459 3.62253e-05 1.81821e-05 0 0 
315 0.0332263 0.503121 0.380462 0.0186777 0.0629329 0.00119514 0.000302957 6.52e-05 1.69956e-05 0 
316 0.29038 0.689885 0.0174766 0.0014877 0.00059949 0.000117459 3.62253e-05 1.81821e-05 0 0 
317 0.0875844 0.860574 0.0343353 0.0117924 0.00413339 0.00119507 0.000302957 6.52e-05 1.69956e-05 0 
318 0.0332513 0.797314 0.151892 0.0118296 0.00413339 0.00119507 0.000302957 6.52e-05 1.69956e-05 0 
319 0.0548833 0.925397 0.0174602 0.0014877 0.00059949 0.000117459 3.62253e-05 1.81821e-05 0 0 
320 0.212574 0.660498 0.109413 0.0118021 0.00413339 0.00119507 0.000302957 6.52e-05 1.69956e-05 0 
321 0.122669 0.784517 0.0753075 0.0117924 0.00413339 0.00119507 0.000302957 6.52e-05 1.69956e-05 0 
322 0.033214 0.796235 0.153007 0.0118304 0.00413339 0.00119507 0.000302957 6.52e-05 1.69956e-05 0 
323 0.149364 0.789121 0.0440096 0.0117924 0.00413339 0.00119507 0.000302957 6.52e-05 1.69956e-05 0 
324 0.092082 0.856077 0.0343355 0.0117924 0.00413339 0.00119507 0.000302957 6.52e-05 1.69956e-05 0 
325 0.118121 0.560575 0.319013 0.00151957 0.00059949 0.000117459 3.62253e-05 1.81821e-05 0 0 
326 0.0961165 0.728367 0.0403634 0.0127251 0.116285 0.0057573 0.000302957 6.52e-05 1.69956e-05 0 
327 0.210763 0.498407 0.273154 0.0119615 0.00413339 0.00119507 0.000302957 6.52e-05 1.69956e-05 0 
328 0.0589821 0.862532 0.0174033 0.0603112 0.00059949 0.000117459 3.62253e-05 1.81821e-05 0 0 
329 0.375469 0.513225 0.0349767 0.0330396 0.0417001 0.0012046 0.000302957 6.52e-05 1.69956e-05 0 
330 0.362098 0.617933 0.0177094 0.0014877 0.00059949 0.000117459 3.62253e-05 1.81821e-05 0 0 
331 0.299996 0.556931 0.140794 0.00150708 0.00059949 0.000117459 3.62253e-05 1.81821e-05 0 0 
332 0.0447518 0.822308 0.0575803 0.0688956 0.00488411 0.00119507 0.000302957 6.52e-05 1.69956e-05 0 
333 0.0908229 0.857173 0.0344979 0.0117924 0.00413339 0.00119507 0.000302957 6.52e-05 1.69956e-05 0 
334 0.153169 0.717633 0.0531306 0.0701242 0.00436302 0.00119507 0.000302957 6.52e-05 1.69956e-05 0 
335 0.234298 0.738177 0.0252657 0.0014877 0.00059949 0.000117459 3.62253e-05 1.81821e-05 0 0 
336 0.0388553 0.723924 0.109443 0.122065 0.00413339 0.00119507 0.000302957 6.52e-05 1.69956e-05 0 
337 0.0332287 0.85612 0.0931452 0.0117924 0.00413339 0.00119507 0.000302957 6.52e-05 1.69956e-05 0 
338 0 0.986935 0.0130653 0 0 0 0 0 0 0 
339 0.161504 0.560709 0.258896 0.0128201 0.00439172 0.00126977 0.000321891 6.9275e-05 1.80579e-05 0 
340 0.12074 0.858382 0.0184786 0.00158068 0.000636958 0.0001248 3.84893e-05 1.93185e-05 0 0 
341 0.158557 0.786361 0.0364814 0.0125294 0.00439172 0.00126977 0.000321891 6.9275e-05 1.80579e-05 0 
342 0.160265 0.784552 0.0365832 0.0125294 0.00439172 0.00126977 0.000321891 6.9275e-05 1.80579e-05 0 
343 0.0932477 0.793706 0.0944466 0.0125294 0.00439172 0.00126977 0.000321891 6.9275e-05 1.80579e-05 0 
344 0.0352899 0.15966 0.786449 0.0125303 0.00439172 0.00126977 0.000321891 6.9275e-05 1.80579e-05 0 
345 0.0352899 0.863139 0.08297 0.0125302 0.00439172 0.00126977 0.000321891 6.9275e-05 1.80579e-05 0 
346 0.0352939 0.909624 0.0364824 0.0125294 0.00439172 0.00126977 0.000321891 6.9275e-05 1.80579e-05 0 
347 0.0352899 0.909629 0.0364812 0.0125294 0.00439172 0.00126977 0.000321891 6.9275e-05 1.80579e-05 0 
348 0.03529 0.909629 0.0364812 0.0125294 0.00439172 0.00126977 0.000321891 6.9275e-05 1.80579e-05 0 
349 0.222661 0.722167 0.0365721 0.0125294 0.00439172 0.00126977 0.000321891 6.9275e-05 1.80579e-05 0 
350 0.09779 0.847128 0.0364816 0.0125294 0.00439172 0.00126977 0.000321891 6.9275e-05 1.80579e-05 0 
351 0.0352902 0.909627 0.0364828 0.0125294 0.00439172 0.00126977 0.000321891 6.9275e-05 1.80579e-05 0 
352 0.349811 0.407479 0.161019 0.0675502 0.0124625 0.00126977 0.000321891 6.9275e-05 1.80579e-05 0 
353 0.119572 0.823556 0.0382718 0.0125294 0.00439172 0.00126977 0.000321891 6.9275e-05 1.80579e-05 0 
354 0.0352906 0.838947 0.107145 0.0125473 0.00439172 0.00126977 0.000321891 6.9275e-05 1.80579e-05 0 
355 0.0586592 0.920449 0.0184912 0.00158068 0.000636958 0.0001248 3.84893e-05 1.93185e-05 0 0 
356 0.551104 0.390299 0.0399969 0.0125294 0.00439172 0.00126977 0.000321891 6.9275e-05 1.80579e-05 0 
357 0.219807 0.725111 0.036482 0.0125294 0.00439172 0.00126977 0.000321891 6.9275e-05 1.80579e-05 0 
358 0.0600741 0.546406 0.332555 0.0425456 0.0107087 0.00525074 0.00215238 0.000307727 0 0 
359 0.0944157 0.849165 0.0378189 0.0125294 0.00439172 0.00126977 0.000321891 6.9275e-05 1.80579e-05 0 
360 0.128788 0.848942 0.0197094 0.00168606 0.000679422 0.00013312 4.10553e-05 2.06064e-05 0 0 
361 0 0.0436457 0.870752 0.0421576 0.0268365 0.0166082 0 0 0 0 
362 0 0.10974 0.804721 0.0420949 0.0268365 0.0166082 0 0 0 0 
363 0.128774 0.848956 0.0197097 0.00168606 0.000679422 0.00013312 4.10553e-05 2.06064e-05 0 0 
364 0.104315 0.836915 0.0389299 0.0133647 0.0046845 0.00135442 0.000343351 7.38933e-05 1.92617e-05 0 
365 0.292607 0.53673 0.149733 0.0144548 0.0046845 0.00135442 0.000343351 7.38933e-05 1.92617e-05 0 
366 0.0430703 0.485734 0.451237 0.0134835 0.0046845 0.00135442 0.000343351 7.38933e-05 1.92617e-05 0 
367 0.101554 0.709114 0.169492 0.0133648 0.0046845 0.00135442 0.000343351 7.38933e-05 1.92617e-05 0 
368 0.130905 0.846683 0.0198522 0.00168606 0.000679422 0.00013312 4.10553e-05 2.06064e-05 0 0 
369 0.170192 0.694196 0.0491049 0.0133647 0.0207683 0.0425555 0.00972505 7.38933e-05 1.92617e-05 0 
370 0.104218 0.770357 0.105392 0.0135572 0.0046845 0.00135442 0.000343351 7.38933e-05 1.92617e-05 0 
371 0.0376518 0.903584 0.0389238 0.0133647 0.0046845 0.00135442 0.000343351 7.38933e-05 1.92617e-05 0 
372 0.104326 0.76999 0.105844 0.0133647 0.0046845 0.00135442 0.000343351 7.38933e-05 1.92617e-05 0 
373 0.104262 0.836973 0.0389251 0.0133647 0.0046845 0.00135442 0.000343351 7.38933e-05 1.92617e-05 0 
374 0.149593 0.791045 0.0395224 0.0133647 0.0046845 0.00135442 0.000343351 7.38933e-05 1.92617e-05 0 
375 0.366575 0.574225 0.0393596 0.0133647 0.0046845 0.00135442 0.000343351 7.38933e-05 1.92617e-05 0 
376 0.17677 0.63592 0.167174 0.0136597 0.0046845 0.00135442 0.000343351 7.38933e-05 1.92617e-05 0 
377 0.104313 0.83693 0.0389168 0.0133647 0.0046845 0.00135442 0.000343351 7.38933e-05 1.92617e-05 0 
378 0.237668 0.636817 0.0425165 0.0765214 0.00468651 0.00135442 0.000343351 7.38933e-05 1.92617e-05 0 
379 0.454784 0.457092 0.085525 0.00172447 0.000679422 0.00013312 4.10553e-05 2.06064e-05 0 0 
380 0.165557 0.423094 0.255167 0.149519 0.00487286 0.00135442 0.000343351 7.38933e-05 1.92617e-05 0 
381 0.226039 0.582489 0.171632 0.0133647 0.0046845 0.00135442 0.000343351 7.38933e-05 1.92617e-05 0 
382 0.170752 0.637215 0.172192 0.0133655 0.0046845 0.00135442 0.000343351 7.38933e-05 1.92617e-05 0 
383 0.0376426 0.836937 0.10558 0.0133647 0.0046845 0.00135442 0.000343351 7.38933e-05 1.92617e-05 0 
384 0.279446 0.593542 0.10714 0.0133957 0.0046845 0.00135442 0.000343351 7.38933e-05 1.92617e-05 0 
385 0.164915 0.5109 0.301899 0.0158108 0.0046845 0.00135442 0.000343351 7.38933e-05 1.92617e-05 0 
386 0.0376426 0.836928 0.0389327 0.0800214 0.0046847 0.00135442 0.000343351 7.38933e-05 1.92617e-05 0 
387 0.271892 0.623489 0.102058 0.0016867 0.000679422 0.00013312 4.10553e-05 2.06064e-05 0 0 
388 0.104303 0.836942 0.0389145 0.0133647 0.0046845 0.00135442 0.000343351 7.38933e-05 1.92617e-05 0 
389 0.190122 0.648934 0.158147 0.0019228 0.000679422 0.00013312 4.10553e-05 2.06064e-05 0 0 
390 0.171343 0.689681 0.119135 0.0133647 0.0046845 0.00135442 0.000343351 7.38933e-05 1.92617e-05 0 
391 0.195732 0.781964 0.0197439 0.00168606 0.000679422 0.00013312 4.10553e-05 2.06064e-05 0 0 
392 0.104311 0.836934 0.0389148 0.0133647 0.0046845 0.00135442 0.000343351 7.38933e-05 1.92617e-05 0 
393 0.229061 0.372364 0.317677 0.0743561 0.00475076 0.00135442 0.000343351 7.38933e-05 1.92617e-05 0 
394 0.265485 0.711667 0.0202871 0.00168606 0.000679422 0.00013312 4.10553e-05 2.06064e-05 0 0 
395 0.104306 0.836317 0.0395366 0.0133647 0.0046845 0.00135442 0.000343351 7.38933e-05 1.92617e-05 0 
396 0.0376619 0.688086 0.161391 0.106385 0.00468502 0.00135442 0.000343351 7.38933e-05 1.92617e-05 0 
397 0.0376437 0.9036 0.0389165 0.0133647 0.0046845 0.00135442 0.000343351 7.38933e-05 1.92617e-05 0 
398 0.297704 0.373556 0.239963 0.0823011 0.0046845 0.00135442 0.000343351 7.38933e-05 1.92617e-05 0 
399 0.104309 0.836735 0.0391163 0.0133647 0.0046845 0.00135442 0.000343351 7.38933e-05 1.92617e-05 0 
400 0.200437 0.770131 0.0268721 0.00168606 0.000679422 0.00013312 4.10553e-05 2.06064e-05 0 0 
401 0.236923 0.696464 0.0467728 0.0133647 0.0046845 0.00135442 0.000343351 7.38933e-05 1.92617e-05 0 
402 0.0916176 0.451781 0.370955 0.0791708 0.00468467 0.00135442 0.000343351 7.38933e-05 1.92617e-05 0 
403 0.10431 0.639211 0.169905 0.0134863 0.0690211 0.00363058 0.000343351 7.38933e-05 1.92617e-05 0 
404 0.234295 0.639672 0.106113 0.0134438 0.0046845 0.00135442 0.000343351 7.38933e-05 1.92617e-05 0 
405 0.0385075 0.83685 0.104604 0.0135633 0.0046845 0.00135442 0.000343351 7.38933e-05 1.92617e-05 0 
406 0.0665596 0.838337 0.09236 0.0018065 0.000727952 0.000142629 4.39878e-05 2.20783e-05 0 0 
407 0 0.117419 0.790635 0.0453973 0.0287534 0.0177944 0 0 0 0 
408 0.262285 0.713587 0.021385 0.0018065 0.000727952 0.000142629 4.39878e-05 2.20783e-05 0 0 
409 0.182444 0.667867 0.1284 0.0143506 0.00501911 0.00145116 0.000367876 7.91714e-05 2.06376e-05 0 
410 0.0406873 0.824907 0.0417198 0.0172895 0.0734745 0.00145405 0.000367876 7.91714e-05 2.06376e-05 0 
411 0.277284 0.696279 0.0236938 0.0018065 0.000727952 0.000142629 4.39878e-05 2.20783e-05 0 0 
412 0.432122 0.295381 0.251029 0.0145304 0.00501911 0.00145116 0.000367876 7.91714e-05 2.06376e-05 0 
413 0.111759 0.774582 0.0923828 0.0143378 0.00501911 0.00145116 0.000367876 7.91714e-05 2.06376e-05 0 
414 0.111761 0.753647 0.113335 0.0143193 0.00501911 0.00145116 0.000367876 7.91714e-05 2.06376e-05 0 
415 0.0403333 0.835938 0.102471 0.0143201 0.00501911 0.00145116 0.000367876 7.91714e-05 2.06376e-05 0 
416 0.111758 0.823577 0.043408 0.0143193 0.00501911 0.00145116 0.000367876 7.91714e-05 2.06376e-05 0 
417 0.137988 0.838151 0.0211173 0.0018065 0.000727952 0.000142629 4.39878e-05 2.20783e-05 0 0 
418 0.335153 0.601655 0.0419342 0.0143193 0.00501911 0.00145116 0.000367876 7.91714e-05 2.06376e-05 0 
419 0.0403313 0.825395 0.113015 0.0143208 0.00501911 0.00145116 0.000367876 7.91714e-05 2.06376e-05 0 
420 0.11176 0.825281 0.0417026 0.0143193 0.00501911 0.00145116 0.000367876 7.91714e-05 2.06376e-05 0 
421 0.0403314 0.896719 0.0416928 0.0143193 0.00501911 0.00145116 0.000367876 7.91714e-05 2.06376e-05 0 
422 0.0403313 0.824932 0.113479 0.0143194 0.00501911 0.00145116 0.000367876 7.91714e-05 2.06376e-05 0 
423 0.11176 0.825214 0.0417686 0.0143193 0.00501911 0.00145116 0.000367876 7.91714e-05 2.06376e-05 0 
424 0.11176 0.753861 0.113122 0.0143193 0.00501911 0.00145116 0.000367876 7.91714e-05 2.06376e-05 0 
425 0.0403315 0.682434 0.255976 0.0143201 0.00501911 0.00145116 0.000367876 7.91714e-05 2.06376e-05 0 
426 0.0404163 0.825239 0.113087 0.0143196 0.00501911 0.00145116 0.000367876 7.91714e-05 2.06376e-05 0 
427 0.0403326 0.896713 0.0416969 0.0143193 0.00501911 0.00145116 0.000367876 7.91714e-05 2.06376e-05 0 
428 0.0405438 0.896293 0.0419058 0.0143193 0.00501911 0.00145116 0.000367876 7.91714e-05 2.06376e-05 0 
429 0.181302 0.699683 0.097758 0.0143193 0.00501911 0.00145116 0.000367876 7.91714e-05 2.06376e-05 0 
430 0.0403313 0.725613 0.212798 0.0143194 0.00501911 0.00145116 0.000367876 7.91714e-05 2.06376e-05 0 
431 0.040907 0.824714 0.113122 0.0143193 0.00501911 0.00145116 0.000367876 7.91714e-05 2.06376e-05 0 
432 0.119354 0.745717 0.105377 0.0226145 0.00501911 0.00145116 0.000367876 7.91714e-05 2.06376e-05 0 
433 0.275455 0.629145 0.0261205 0.0678564 0.00121461 0.000142629 4.39878e-05 2.20783e-05 0 0 
434 0.437976 0.284455 0.042028 0.227113 0.00650944 0.00145116 0.000367876 7.91714e-05 2.06376e-05 0 
435 0.526627 0.341796 0.110264 0.0143752 0.00501911 0.00145116 0.000367876 7.91714e-05 2.06376e-05 0 
436 0.0403313 0.896719 0.0416927 0.0143193 0.00501911 0.00145116 0.000367876 7.91714e-05 2.06376e-05 0 
437 0.0403322 0.753573 0.184838 0.0143193 0.00501911 0.00145116 0.000367876 7.91714e-05 2.06376e-05 0 
438 0.0403388 0.323456 0.613423 0.0158441 0.00501911 0.00145116 0.000367876 7.91714e-05 2.06376e-05 0 
439 0.183188 0.611049 0.184504 0.0143215 0.00501911 0.00145116 0.000367876 7.91714e-05 2.06376e-05 0 
440 0.185839 0.751097 0.0418063 0.0143193 0.00501911 0.00145116 0.000367876 7.91714e-05 2.06376e-05 0 
441 0.0403322 0.827145 0.111266 0.0143193 0.00501911 0.00145116 0.000367876 7.91714e-05 2.06376e-05 0 
442 0.0403613 0.89532 0.0430619 0.0143193 0.00501911 0.00145116 0.000367876 7.91714e-05 2.06376e-05 0 
443 0.0403313 0.896719 0.0416928 0.0143193 0.00501911 0.00145116 0.000367876 7.91714e-05 2.06376e-05 0 
444 0.111744 0.601498 0.265501 0.0143195 0.00501911 0.00145116 0.000367876 7.91714e-05 2.06376e-05 0 
445 0.111318 0.825707 0.0417179 0.0143193 0.00501911 0.00145116 0.000367876 7.91714e-05 2.06376e-05 0 
446 0.111687 0.75306 0.043282 0.0848915 0.00515993 0.00145116 0.000367876 7.91714e-05 2.06376e-05 0 
447 0.0403313 0.825269 0.113143 0.0143193 0.00501911 0.00145116 0.000367876 7.91714e-05 2.06376e-05 0 
448 0.331764 0.390749 0.0621239 0.205984 0.00746038 0.00145116 0.000367876 7.91714e-05 2.06376e-05 0 
449 0.0403313 0.896718 0.0416933 0.0143193 0.00501911 0.00145116 0.000367876 7.91714e-05 2.06376e-05 0 
450 0.105257 0.486726 0.386675 0.0144037 0.00501911 0.00145116 0.000367876 7.91714e-05 2.06376e-05 0 
451 0.0531792 0.865561 0.0600023 0.0143193 0.00501911 0.00145116 0.000367876 7.91714e-05 2.06376e-05 0 
452 0.0403313 0.896718 0.0416936 0.0143193 0.00501911 0.00145116 0.000367876 7.91714e-05 2.06376e-05 0 
453 0.0404837 0.744599 0.19366 0.0143197 0.00501911 0.00145116 0.000367876 7.91714e-05 2.06376e-05 0 
454 0.182912 0.682708 0.112723 0.0147197 0.00501911 0.00145116 0.000367876 7.91714e-05 2.06376e-05 0 
455 0.111711 0.751364 0.115667 0.0143193 0.00501911 0.00145116 0.000367876 7.91714e-05 2.06376e-05 0 
456 0.0868071 0.885051 0.0251876 0.00194546 0.000783948 0.000153601 4.73715e-05 2.37766e-05 0 0 
457 0.0434337 0.734508 0.199166 0.0154209 0.0054052 0.00156279 0.000396174 8.52615e-05 2.22251e-05 0 
458 0.101193 0.831014 0.0449002 0.0154208 0.0054052 0.00156279 0.000396174 8.52615e-05 2.22251e-05 0 
459 0.241458 0.732278 0.0233094 0.00194546 0.000783948 0.000153601 4.73715e-05 2.37766e-05 0 0 
460 0.270767 0.581154 0.124857 0.0157505 0.0054052 0.00156279 0.000396174 8.52615e-05 2.22251e-05 0 
461 0.116049 0.738483 0.0594553 0.0782673 0.00567921 0.00156279 0.000396174 8.52615e-05 2.22251e-05 0 
462 0.121693 0.659759 0.195611 0.0154655 0.0054052 0.00156279 0.000396174 8.52615e-05 2.22251e-05 0 
463 0.0434351 0.888771 0.0449015 0.0154208 0.0054052 0.00156279 0.000396174 8.52615e-05 2.22251e-05 0 
464 0.226137 0.748162 0.0227464 0.00194546 0.000783948 0.000153601 4.73715e-05 2.37766e-05 0 0 
465 0.0434337 0.888773 0.0449006 0.0154208 0.0054052 0.00156279 0.000396174 8.52615e-05 2.22251e-05 0 
466 0.043434 0.811782 0.0450377 0.0922743 0.00540523 0.00156279 0.000396174 8.52615e-05 2.22251e-05 0 
467 0.00301297 0.823093 0.102702 0.0485223 0.01318 0.00646245 0.00264908 0.00037874 0 0 
468 0.043434 0.888753 0.0449204 0.0154208 0.0054052 0.00156279 0.000396174 8.52615e-05 2.22251e-05 0 
469 0.504556 0.412624 0.0599277 0.0154208 0.0054052 0.00156279 0.000396174 8.52615e-05 2.22251e-05 0 
470 0.220472 0.672682 0.0269848 0.078848 0.000788553 0.000153601 4.73715e-05 2.37766e-05 0 0 
471 0.0441922 0.887999 0.0449159 0.0154208 0.0054052 0.00156279 0.000396174 8.52615e-05 2.22251e-05 0 
472 0.148603 0.825699 0.0227432 0.00194546 0.000783948 0.000153601 4.73715e-05 2.37766e-05 0 0 
473 0.120354 0.578668 0.12653 0.166976 0.00540522 0.00156279 0.000396174 8.52615e-05 2.22251e-05 0 
474 0.0434337 0.748469 0.185153 0.0154723 0.0054052 0.00156279 0.000396174 8.52615e-05 2.22251e-05 0 
475 0.159018 0.814502 0.0235256 0.00194546 0.000783948 0.000153601 4.73715e-05 2.37766e-05 0 0 
476 0.197176 0.733855 0.0460768 0.0154208 0.0054052 0.00156279 0.000396174 8.52615e-05 2.22251e-05 0 
477 0.0434348 0.731512 0.125369 0.0922031 0.00541405 0.00156279 0.000396174 8.52615e-05 2.22251e-05 0 
478 0.197257 0.734948 0.0449031 0.0154208 0.0054052 0.00156279 0.000396174 8.52615e-05 2.22251e-05 0 
479 0.0434337 0.196467 0.737205 0.0154228 0.0054052 0.00156279 0.000396174 8.52615e-05 2.22251e-05 0 
480 0.0434366 0.808032 0.0496194 0.0914402 0.00540521 0.00156279 0.000396174 8.52615e-05 2.22251e-05 0 
481 0.350529 0.58167 0.044909 0.0154208 0.0054052 0.00156279 0.000396174 8.52615e-05 2.22251e-05 0 
482 0.172703 0.606939 0.197287 0.015599 0.0054052 0.00156279 0.000396174 8.52615e-05 2.22251e-05 0 
483 0.120334 0.811873 0.0449002 0.0154208 0.0054052 0.00156279 0.000396174 8.52615e-05 2.22251e-05 0 
484 0.0716796 0.902625 0.0227418 0.00194546 0.000783948 0.000153601 4.73715e-05 2.37766e-05 0 0 
485 0.270211 0.508139 0.044912 0.169266 0.00540522 0.00156279 0.000396174 8.52615e-05 2.22251e-05 0 
486 0.120378 0.734764 0.0493207 0.088064 0.00540705 0.00156279 0.000396174 8.52615e-05 2.22251e-05 0 
487 0.495043 0.435662 0.0464023 0.0154208 0.0054052 0.00156279 0.000396174 8.52615e-05 2.22251e-05 0 
488 0.0438357 0.888221 0.0450513 0.0154208 0.0054052 0.00156279 0.000396174 8.52615e-05 2.22251e-05 0 
489 0.0434357 0.888769 0.0449027 0.0154208 0.0054052 0.00156279 0.000396174 8.52615e-05 2.22251e-05 0 
490 0.197263 0.645682 0.0572392 0.0154208 0.00553175 0.078355 0.000400491 8.52615e-05 2.22251e-05 0 
491 0.0454957 0.876417 0.0551948 0.0154208 0.0054052 0.00156279 0.000396174 8.52615e-05 2.22251e-05 0 
492 0.0435267 0.734835 0.198674 0.0154933 0.0054052 0.00156279 0.000396174 8.52615e-05 2.22251e-05 0 
493 0.0716837 0.902616 0.0227459 0.00194546 0.000783949 0.000153601 4.73715e-05 2.37766e-05 0 0 
494 0.210528 0.702606 0.0639732 0.0154208 0.0054052 0.00156279 0.000396174 8.52615e-05 2.22251e-05 0 
495 0.0445885 0.887619 0.0449 0.0154208 0.0054052 0.00156279 0.000396174 8.52615e-05 2.22251e-05 0 
496 0.121674 0.74391 0.111523 0.0154211 0.0054052 0.00156279 0.000396174 8.52615e-05 2.22251e-05 0 
497 0.120257 0.81195 0.0449008 0.0154208 0.0054052 0.00156279 0.000396174 8.52615e-05 2.22251e-05 0 
498 0.120356 0.729149 0.127426 0.0155975 0.0054052 0.00156279 0.000396174 8.52615e-05 2.22251e-05 0 
499 0.140625 0.613533 0.242375 0.0024584 0.000783948 0.000153601 4.73715e-05 2.37766e-05 0 0 
500 0.00326427 0.80835 0.11126 0.0525659 0.0142783 0.00700098 0.00286984 0.000410302 0 0 
501 0.0776528 0.89451 0.024637 0.00210758 0.000849277 0.000166401 5.13191e-05 2.5758e-05 0 0 
502 0.130766 0.71243 0.0486711 0.100039 0.00585563 0.00169302 0.000429189 9.23666e-05 2.40772e-05 0 
503 0.0470532 0.879505 0.0486415 0.0167058 0.00585563 0.00169302 0.000429189 9.23666e-05 2.40772e-05 0 
504 0.130386 0.634807 0.207582 0.0191301 0.00585563 0.00169302 0.000429189 9.23666e-05 2.40772e-05 0 
505 0.0470535 0.712418 0.215728 0.0167061 0.00585563 0.00169302 0.000429189 9.23666e-05 2.40772e-05 0 
506 0.0470532 0.791767 0.136293 0.0167928 0.00585563 0.00169302 0.000429189 9.23666e-05 2.40772e-05 0 
507 0.0470532 0.879505 0.0486416 0.0167058 0.00585563 0.00169302 0.000429189 9.23666e-05 2.40772e-05 0 
508 0.292745 0.54464 0.137795 0.0167259 0.00585563 0.00169302 0.000429189 9.23666e-05 2.40772e-05 0 
509 0.0487937 0.644209 0.198857 0.100046 0.00585565 0.00169302 0.000429189 9.23666e-05 2.40772e-05 0 
510 0.0470532 0.879505 0.0486422 0.0167058 0.00585563 0.00169302 0.000429189 9.23666e-05 2.40772e-05 0 
511 0.213715 0.54614 0.131998 0.100052 0.00585571 0.00169302 0.000429189 9.23666e-05 2.40772e-05 0 
512 0.130396 0.7128 0.131993 0.0167166 0.00585563 0.00169302 0.000429189 9.23666e-05 2.40772e-05 0 
513 0.0470532 0.879505 0.0486418 0.0167058 0.00585563 0.00169302 0.000429189 9.23666e-05 2.40772e-05 0 
514 0.130378 0.709051 0.0557294 0.0566256 0.0459774 0.00169302 0.000429189 9.23666e-05 2.40772e-05 0 
515 0.0470558 0.878658 0.0494866 0.0167058 0.00585563 0.00169302 0.000429189 9.23666e-05 2.40772e-05 0 
516 0.0472455 0.879292 0.0486624 0.0167058 0.00585563 0.00169302 0.000429189 9.23666e-05 2.40772e-05 0 
517 0.280123 0.395206 0.299266 0.0173112 0.00585563 0.00169302 0.000429189 9.23666e-05 2.40772e-05 0 
518 0.0470532 0.212854 0.715292 0.0167064 0.00585563 0.00169302 0.000429189 9.23666e-05 2.40772e-05 0 
519 0.130899 0.711827 0.132333 0.0168478 0.00585563 0.00169302 0.000429189 9.23666e-05 2.40772e-05 0 
520 0.130361 0.796155 0.0486841 0.0167058 0.00585563 0.00169302 0.000429189 9.23666e-05 2.40772e-05 0 
521 0.24432 0.727835 0.0246444 0.00210758 0.000849277 0.000166401 5.13191e-05 2.5758e-05 0 0 
522 0.0776528 0.893595 0.0255522 0.00210758 0.000849277 0.000166401 5.13191e-05 2.5758e-05 0 0 
523 0.377528 0.536458 0.0612145 0.0167058 0.00585563 0.00169302 0.000429189 9.23666e-05 2.40772e-05 0 
524 0.0801753 0.88554 0.0310841 0.00210758 0.000849278 0.000166401 5.13191e-05 2.5758e-05 0 0 
525 0.366583 0.559952 0.0486644 0.0167058 0.00585563 0.00169302 0.000429189 9.23666e-05 2.40772e-05 0 
526 0.0470532 0.796172 0.131975 0.0167058 0.00585563 0.00169302 0.000429189 9.23666e-05 2.40772e-05 0 
527 0.0776543 0.825114 0.093954 0.0021845 0.000849277 0.000166401 5.13191e-05 2.5758e-05 0 0 
528 0.298982 0.626302 0.0499164 0.0167058 0.00585563 0.00169302 0.000429189 9.23666e-05 2.40772e-05 0 
529 0.0470549 0.879497 0.0486479 0.0167058 0.00585563 0.00169302 0.000429189 9.23666e-05 2.40772e-05 0 
530 0.130389 0.796168 0.0486424 0.0167058 0.00585563 0.00169302 0.000429189 9.23666e-05 2.40772e-05 0 
531 0.29465 0.435054 0.244069 0.0181326 0.00585563 0.00169302 0.000429189 9.23666e-05 2.40772e-05 0 
532 0.288003 0.411085 0.275904 0.0169137 0.00585563 0.00169302 0.000429189 9.23666e-05 2.40772e-05 0 
533 0.122832 0.803726 0.0486416 0.0167058 0.00585563 0.00169302 0.000429189 9.23666e-05 2.40772e-05 0 
534 0.0514862 0.783053 0.0573328 0.100033 0.00585594 0.00169302 0.000429189 9.23666e-05 2.40772e-05 0 
535 0.00326404 0.306571 0.193513 0.472091 0.0142804 0.00700098 0.00286984 0.000410302 0 0 
536 0.21388 0.4639 0.213917 0.0169657 0.0878343 0.0029566 0.000429189 9.23666e-05 2.40772e-05 0 
537 0.00326404 0.141684 0.777926 0.0525664 0.0142783 0.00700098 0.00286984 0.000410302 0 0 
538 0.130386 0.796171 0.048643 0.0167058 0.00585563 0.00169302 0.000429189 9.23666e-05 2.40772e-05 0 
539 0.0470532 0.79639 0.131755 0.0167077 0.00585563 0.00169302 0.000429189 9.23666e-05 2.40772e-05 0 
540 0.130547 0.546838 0.297814 0.0167061 0.00585563 0.00169302 0.000429189 9.23666e-05 2.40772e-05 0 
541 0.213672 0.632993 0.128534 0.0167059 0.00585563 0.00169302 0.000429189 9.23666e-05 2.40772e-05 0 
542 0.211756 0.714803 0.0486418 0.0167058 0.00585563 0.00169302 0.000429189 9.23666e-05 2.40772e-05 0 
543 0.162396 0.809549 0.0248539 0.00210758 0.000849277 0.000166401 5.13191e-05 2.5758e-05 0 0 
544 0.417582 0.554394 0.0248236 0.00210758 0.000849277 0.000166401 5.13191e-05 2.5758e-05 0 0 
545 0.0476211 0.795588 0.0486577 0.0167058 0.00596436 0.0849172 0.000429537 9.23666e-05 2.40772e-05 0 
546 0.0475556 0.600992 0.238477 0.10488 0.00585649 0.00169302 0.000429189 9.23666e-05 2.40772e-05 0 
547 0.160986 0.811177 0.0246369 0.00210758 0.000849277 0.000166401 5.13191e-05 2.5758e-05 0 0 
548 0.13037 0.712804 0.132026 0.016706 0.00585563 0.00169302 0.000429189 9.23666e-05 2.40772e-05 0 
549 0.462721 0.297275 0.131707 0.0168693 0.0256828 0.065193 0.000435363 9.23666e-05 2.40772e-05 0 
550 0.293393 0.472849 0.208957 0.0167063 0.00585563 0.00169302 0.000429189 9.23666e-05 2.40772e-05 0 
551 0.0547861 0.788347 0.048735 0.100037 0.00585638 0.00169302 0.000429189 9.23666e-05 2.40772e-05 0 
552 0.0470532 0.879505 0.0486416 0.0167058 0.00585563 0.00169302 0.000429189 9.23666e-05 2.40772e-05 0 
553 0.0533091 0.783699 0.138191 0.0167063 0.00585563 0.00169302 0.000429189 9.23666e-05 2.40772e-05 0 
554 0.0470532 0.879336 0.0488107 0.0167058 0.00585563 0.00169302 0.000429189 9.23666e-05 2.40772e-05 0 
555 0.0490433 0.62305 0.303107 0.0167059 0.00585563 0.00169302 0.000429189 9.23666e-05 2.40772e-05 0 
556 0.0470532 0.879505 0.0486417 0.0167058 0.00585563 0.00169302 0.000429189 9.23666e-05 2.40772e-05 0 
557 0.0776528 0.89451 0.0246367 0.00210758 0.000849277 0.000166401 5.13191e-05 2.5758e-05 0 0 
558 0.219611 0.541623 0.212934 0.017738 0.00585563 0.00169302 0.000429189 9.23666e-05 2.40772e-05 0 
559 0.297045 0.547667 0.130488 0.0167058 0.00585563 0.00169302 0.000429189 9.23666e-05 2.40772e-05 0 
560 0.289121 0.637437 0.0486421 0.0167058 0.00585563 0.00169302 0.000429189 9.23666e-05 2.40772e-05 0 
561 0.130301 0.712924 0.131972 0.0167093 0.00585563 0.00169302 0.000429189 9.23666e-05 2.40772e-05 0 
562 0.22531 0.360345 0.253714 0.0730031 0.0847291 0.00235188 0.000429189 9.23666e-05 2.40772e-05 0 
563 0.0470533 0.718005 0.209994 0.0168525 0.00585563 0.00169302 0.000429189 9.23666e-05 2.40772e-05 0 
564 0.316791 0.496349 0.183659 0.00210758 0.000849278 0.000166401 5.13191e-05 2.5758e-05 0 0 
565 0.306723 0.366008 0.302468 0.0167059 0.00585563 0.00169302 0.000429189 9.23666e-05 2.40772e-05 0 
566 0.0471541 0.713021 0.21479 0.0169413 0.00585563 0.00169302 0.000429189 9.23666e-05 2.40772e-05 0 
567 0.0470548 0.534875 0.39311 0.0168664 0.00585563 0.00169302 0.000429189 9.23666e-05 2.40772e-05 0 
568 0.130387 0.796171 0.048642 0.0167058 0.00585563 0.00169302 0.000429189 9.23666e-05 2.40772e-05 0 
569 0.0470532 0.879505 0.0486415 0.0167058 0.00585563 0.00169302 0.000429189 9.23666e-05 2.40772e-05 0 
570 0.0695887 0.237711 0.0901135 0.55442 0.0330475 0.0122888 0.00283013 0 0 0 
571 0.296304 0.547689 0.131206 0.0167059 0.00585563 0.00169302 0.000429189 9.23666e-05 2.40772e-05 0 
572 0.0513307 0.595825 0.325789 0.0182254 0.00638796 0.00184693 0.000468206 0.000100764 2.6266e-05 0 
573 0.00127397 0.786996 0.0835276 0.0764389 0.0352701 0.0134059 0.00308741 0 0 0 
574 0.0513307 0.473547 0.416027 0.0502652 0.00638796 0.00184693 0.000468206 0.000100764 2.6266e-05 0 
575 0.0513307 0.777642 0.0531181 0.109079 0.00638797 0.00184693 0.000468206 0.000100764 2.6266e-05 0 
576 0.0931243 0.611799 0.21094 0.0573446 0.0155763 0.00763744 0.00313074 0.000447602 0 0 
577 0.14156 0.778322 0.0530635 0.0182246 0.00638796 0.00184693 0.000468206 0.000100764 2.6266e-05 0 
578 0.227502 0.422049 0.223333 0.118286 0.00638801 0.00184693 0.000468206 0.000100764 2.6266e-05 0 
579 0.0513309 0.868548 0.0530666 0.0182246 0.00638796 0.00184693 0.000468206 0.000100764 2.6266e-05 0 
580 0.0540017 0.862512 0.0564313 0.0182246 0.00638796 0.00184693 0.000468206 0.000100764 2.6266e-05 0 
581 0.0513309 0.595818 0.325795 0.0182261 0.00638796 0.00184693 0.000468206 0.000100764 2.6266e-05 0 
582 0.0035728 0.501761 0.319938 0.147918 0.0155948 0.00763744 0.00313074 0.000447602 0 0 
583 0.00361862 0.697889 0.214355 0.0573451 0.0155763 0.00763744 0.00313074 0.000447602 0 0 
584 0.0532229 0.77316 0.146532 0.0182552 0.00638796 0.00184693 0.000468206 0.000100764 2.6266e-05 0 
585 0.0513307 0.868551 0.0530637 0.0182246 0.00638796 0.00184693 0.000468206 0.000100764 2.6266e-05 0 
586 0.142177 0.777704 0.053065 0.0182246 0.00638796 0.00184693 0.000468206 0.000100764 2.6266e-05 0 
587 0.354925 0.523779 0.0269029 0.0930947 0.00103243 0.000181528 5.59845e-05 2.80997e-05 0 0 
588 0.142204 0.686167 0.144575 0.0182246 0.00638796 0.00184693 0.000468206 0.000100764 2.6266e-05 0 
589 0.25337 0.715977 0.0271617 0.00229918 0.000926484 0.000181528 5.59845e-05 2.80997e-05 0 0 
590 0.142208 0.666012 0.0741155 0.108829 0.00639342 0.00184693 0.000468206 0.000100764 2.6266e-05 0 
591 0.140568 0.597488 0.0530722 0.200042 0.0063881 0.00184693 0.000468206 0.000100764 2.6266e-05 0 
592 0.2326 0.687282 0.0530638 0.0182246 0.00638796 0.00184693 0.000468206 0.000100764 2.6266e-05 0 
593 0.0513308 0.868551 0.0530636 0.0182246 0.00638796 0.00184693 0.000468206 0.000100764 2.6266e-05 0 
594 0.0847136 0.794007 0.117785 0.0023022 0.000926485 0.000181528 5.59845e-05 2.80997e-05 0 0 
595 0.0513365 0.673963 0.247646 0.0182248 0.00638796 0.00184693 0.000468206 0.000100764 2.6266e-05 0 
596 0.323685 0.504795 0.0535605 0.109091 0.00642717 0.00184693 0.000468206 0.000100764 2.6266e-05 0 
597 0.0545244 0.493763 0.237872 0.10997 0.0122251 0.0910385 0.000479372 0.000100764 2.6266e-05 0 
598 0.0513307 0.868551 0.0530635 0.0182246 0.00638796 0.00184693 0.000468206 0.000100764 2.6266e-05 0 
599 0.14224 0.686053 0.053744 0.109134 0.00638802 0.00184693 0.000468206 0.000100764 2.6266e-05 0 
600 0.142245 0.506429 0.233829 0.108666 0.00638874 0.00184693 0.000468206 0.000100764 2.6266e-05 0 
601 0.142374 0.576601 0.253883 0.0183122 0.00638796 0.00184693 0.000468206 0.000100764 2.6266e-05 0 
602 0.0513428 0.868478 0.0531251 0.0182246 0.00638796 0.00184693 0.000468206 0.000100764 2.6266e-05 0 
603 0.0539917 0.774283 0.0537626 0.108445 0.00707508 0.00184693 0.000468206 0.000100764 2.6266e-05 0 
604 0.0513307 0.413979 0.416677 0.109168 0.00640271 0.00184693 0.000468206 0.000100764 2.6266e-05 0 
605 0.0513307 0.777642 0.143971 0.018226 0.00638796 0.00184693 0.000468206 0.000100764 2.6266e-05 0 
606 0.140806 0.691198 0.140793 0.0183731 0.00638796 0.00184693 0.000468206 0.000100764 2.6266e-05 0 
607 0.0513308 0.86855 0.0530644 0.0182246 0.00638796 0.00184693 0.000468206 0.000100764 2.6266e-05 0 
608 0.0527416 0.779178 0.14044 0.0188109 0.00638796 0.00184693 0.000468206 0.000100764 2.6266e-05 0 
609 0.14224 0.686725 0.0530814 0.109123 0.00638813 0.00184693 0.000468206 0.000100764 2.6266e-05 0 
610 0.142235 0.777646 0.0530641 0.0182246 0.00638796 0.00184693 0.000468206 0.000100764 2.6266e-05 0 
611 0.0513307 0.686733 0.143973 0.10913 0.00639184 0.00184693 0.000468206 0.000100764 2.6266e-05 0 
612 0.0513308 0.868551 0.0530637 0.0182246 0.00638796 0.00184693 0.000468206 0.000100764 2.6266e-05 0 
613 0.0513308 0.868551 0.0530638 0.0182246 0.00638796 0.00184693 0.000468206 0.000100764 2.6266e-05 0 
614 0.0513466 0.86552 0.0560788 0.0182246 0.00638796 0.00184693 0.000468206 0.000100764 2.6266e-05 0 
615 0.0513307 0.433027 0.488474 0.0183381 0.00638796 0.00184693 0.000468206 0.000100764 2.6266e-05 0 
616 0.227134 0.431413 0.312721 0.0199016 0.00638796 0.00184693 0.000468206 0.000100764 2.6266e-05 0 
617 0.175621 0.794011 0.0268764 0.00229918 0.000926484 0.000181528 5.59845e-05 2.80997e-05 0 0 
618 0.0513517 0.867577 0.0540168 0.0182246 0.00638796 0.00184693 0.000468206 0.000100764 2.6266e-05 0 
619 0.0513307 0.868551 0.0530636 0.0182246 0.00638796 0.00184693 0.000468206 0.000100764 2.6266e-05 0 
620 0.05137 0.868511 0.0530646 0.0182246 0.00638796 0.00184693 0.000468206 0.000100764 2.6266e-05 0 
621 0.0513307 0.777625 0.143989 0.0182246 0.00638796 0.00184693 0.000468206 0.000100764 2.6266e-05 0 
622 0.316721 0.6024 0.0538247 0.0182246 0.00638796 0.00184693 0.000468206 0.000100764 2.6266e-05 0 
623 0.0513315 0.777344 0.144114 0.0183806 0.00638796 0.00184693 0.000468206 0.000100764 2.6266e-05 0 
624 0.0847123 0.88492 0.0268765 0.00229918 0.000926485 0.000181528 5.59845e-05 2.80997e-05 0 0 
625 0.232346 0.686548 0.0540515 0.0182246 0.00638796 0.00184693 0.000468206 0.000100764 2.6266e-05 0 
626 0.192054 0.77388 0.0305746 0.00229918 0.000926485 0.000181528 5.59845e-05 2.80997e-05 0 0 
627 0.140847 0.59861 0.233487 0.0182266 0.00638796 0.00184693 0.000468206 0.000100764 2.6266e-05 0 
628 0.265614 0.704018 0.0268766 0.00229918 0.000926484 0.000181528 5.59845e-05 2.80997e-05 0 0 
629 0.0513743 0.777282 0.0533795 0.0182389 0.0972827 0.00184694 0.000468206 0.000100764 2.6266e-05 0 
630 0.0513311 0.868549 0.0530654 0.0182246 0.00638796 0.00184693 0.000468206 0.000100764 2.6266e-05 0 
631 0.0847259 0.884902 0.0268804 0.00229918 0.000926485 0.000181528 5.59845e-05 2.80997e-05 0 0 
632 0.141614 0.598811 0.232412 0.0183333 0.00638796 0.00184693 0.000468206 0.000100764 2.6266e-05 0 
633 0.142156 0.232473 0.507407 0.0183066 0.0970157 0.00204643 0.000468206 0.000100764 2.6266e-05 0 
634 0.226336 0.573812 0.172797 0.0182246 0.00638796 0.00184693 0.000468206 0.000100764 2.6266e-05 0 
635 0.321895 0.415676 0.235374 0.0182247 0.00638796 0.00184693 0.000468206 0.000100764 2.6266e-05 0 
636 0.0575135 0.862322 0.0531101 0.0182246 0.00638796 0.00184693 0.000468206 0.000100764 2.6266e-05 0 
637 0.129533 0.789638 0.053775 0.0182246 0.00638796 0.00184693 0.000468206 0.000100764 2.6266e-05 0 
638 0.0513307 0.868551 0.0530641 0.0182246 0.00638796 0.00184693 0.000468206 0.000100764 2.6266e-05 0 
639 0.051331 0.777127 0.144487 0.0182247 0.00638796 0.00184693 0.000468206 0.000100764 2.6266e-05 0 
640 0.26505 0.61315 0.0273992 0.00230174 0.091833 0.000181528 5.59845e-05 2.80997e-05 0 0 
641 0.175621 0.703752 0.117136 0.00229921 0.000926485 0.000181528 5.59845e-05 2.80997e-05 0 0 
642 0.051336 0.868543 0.0530659 0.0182246 0.00638796 0.00184693 0.000468206 0.000100764 2.6266e-05 0 
643 0.0847123 0.70335 0.208432 0.0023134 0.000926485 0.000181528 5.59845e-05 2.80997e-05 0 0 
644 0.0603785 0.768593 0.143973 0.0182246 0.00638796 0.00184693 0.000468206 0.000100764 2.6266e-05 0 
645 0.0513308 0.868551 0.0530636 0.0182246 0.00638796 0.00184693 0.000468206 0.000100764 2.6266e-05 0 
646 0.051336 0.781742 0.139855 0.0182373 0.00638796 0.00184693 0.000468206 0.000100764 2.6266e-05 0 
647 0.0513308 0.609101 0.219143 0.0211747 0.0968078 0.00184815 0.000468206 0.000100764 2.6266e-05 0 
648 0.0847129 0.791892 0.119904 0.00229918 0.000926485 0.000181528 5.59845e-05 2.80997e-05 0 0 
649 0.237839 0.409053 0.235019 0.109259 0.00638813 0.00184693 0.000468206 0.000100764 2.6266e-05 0 
650 0.0513319 0.868543 0.0530703 0.0182246 0.00638796 0.00184693 0.000468206 0.000100764 2.6266e-05 0 
651 0.0513307 0.868551 0.0530635 0.0182246 0.00638796 0.00184693 0.000468206 0.000100764 2.6266e-05 0 
652 0.0526532 0.86721 0.0530823 0.0182246 0.00638796 0.00184693 0.000468206 0.000100764 2.6266e-05 0 
653 0.353055 0.615851 0.0276027 0.00229918 0.000926485 0.000181528 5.59845e-05 2.80997e-05 0 0 
654 0.175626 0.521274 0.299608 0.00229918 0.000926485 0.000181528 5.59845e-05 2.80997e-05 0 0 
655 0.337764 0.39505 0.240029 0.0183272 0.00638796 0.00184693 0.000468206 0.000100764 2.6266e-05 0 
656 0.179116 0.624154 0.193239 0.00229918 0.000926485 0.000181528 5.59845e-05 2.80997e-05 0 0 
657 0.0513308 0.868328 0.053287 0.0182246 0.00638796 0.00184693 0.000468206 0.000100764 2.6266e-05 0 
658 0.304569 0.522775 0.145115 0.0187105 0.00638796 0.00184693 0.000468206 0.000100764 2.6266e-05 0 
659 0.175613 0.611672 0.209203 0.00231904 0.000926484 0.000181528 5.59845e-05 2.80997e-05 0 0 
660 0.0513307 0.868551 0.0530635 0.0182246 0.00638796 0.00184693 0.000468206 0.000100764 2.6266e-05 0 
661 0.0513313 0.777629 0.143984 0.0182252 0.00638796 0.00184693 0.000468206 0.000100764 2.6266e-05 0 
662 0.0513399 0.867737 0.0538689 0.0182246 0.00638796 0.00184693 0.000468206 0.000100764 2.6266e-05 0 
663 0.175347 0.794217 0.0269443 0.00229918 0.000926485 0.000181528 5.59845e-05 2.80997e-05 0 0 
664 0.0513307 0.602677 0.318931 0.0182315 0.00638796 0.00184693 0.000468206 0.000100764 2.6266e-05 0 
665 0.0514143 0.777532 0.143875 0.0183486 0.00638796 0.00184693 0.000468206 0.000100764 2.6266e-05 0 
666 0.219496 0.609028 0.0537459 0.1089 0.00638799 0.00184693 0.000468206 0.000100764 2.6266e-05 0 
667 0.218154 0.612368 0.137523 0.0231247 0.00638796 0.00184693 0.000468206 0.000100764 2.6266e-05 0 
668 0.0847137 0.884898 0.0268971 0.00229918 0.000926485 0.000181528 5.59845e-05 2.80997e-05 0 0 
669 0.0513308 0.785658 0.135956 0.0182246 0.00638796 0.00184693 0.000468206 0.000100764 2.6266e-05 0 
670 0.0513308 0.86855 0.0530647 0.0182246 0.00638796 0.00184693 0.000468206 0.000100764 2.6266e-05 0 
671 0.0513307 0.856396 0.0652186 0.0182246 0.00638796 0.00184693 0.000468206 0.000100764 2.6266e-05 0 
672 0.448341 0.248564 0.0268892 0.0938631 0.0909692 0.0912893 5.59907e-05 2.80997e-05 0 0 
673 0.17562 0.794012 0.0268765 0.00229918 0.000926485 0.000181528 5.59845e-05 2.80997e-05 0 0 
674 0.171827 0.794768 0.0295641 0.00252909 0.00101913 0.000199681 6.15829e-05 3.09096e-05 0 0 
675 0.00141079 0.467347 0.290207 0.0840959 0.138796 0.0147474 0.00339615 0 0 0 
676 0.00391685 0.77002 0.133513 0.063079 0.0171339 0.00840118 0.00344381 0.000492362 0 0 
677 0.00391701 0.470579 0.432954 0.0630795 0.0171339 0.00840118 0.00344381 0.000492362 0 0 
678 0.056488 0.755337 0.158414 0.0200487 0.00702676 0.00203163 0.000515026 0.00011084 2.88926e-05 0 
679 0.256464 0.655406 0.0583698 0.020047 0.00702676 0.00203163 0.000515026 0.00011084 2.88926e-05 0 
680 0.0564638 0.255427 0.658346 0.0200494 0.00702676 0.00203163 0.000515026 0.00011084 2.88926e-05 0 
681 0.0564638 0.255408 0.658367 0.0200483 0.00702676 0.00203163 0.000515026 0.00011084 2.88926e-05 0 
682 0 0.0646296 0.807086 0.063117 0.0402547 0.0249122 0 0 0 0 
683 0.0564638 0.746082 0.167688 0.0200536 0.00702676 0.00203163 0.000515026 0.00011084 2.88926e-05 0 
684 0.493183 0.273413 0.229564 0.00252915 0.00101913 0.000199681 6.15829e-05 3.09096e-05 0 0 
685 0.248474 0.464279 0.257065 0.020469 0.00702676 0.00203163 0.000515026 0.00011084 2.88926e-05 0 
686 0.0564647 0.754607 0.159168 0.020047 0.00702676 0.00203163 0.000515026 0.00011084 2.88926e-05 0 
687 0.056464 0.755383 0.158393 0.020047 0.00702676 0.00203163 0.000515026 0.00011084 2.88926e-05 0 
688 0.1563 0.35559 0.364541 0.113483 0.00740004 0.00203163 0.000515026 0.00011084 2.88926e-05 0 
689 0.0565095 0.851509 0.0622209 0.020047 0.00702675 0.00203163 0.000515026 0.00011084 2.88926e-05 0 
690 0.056466 0.755387 0.0584039 0.12003 0.00702699 0.00203163 0.000515026 0.00011084 2.88926e-05 0 
691 0.0564638 0.655426 0.258348 0.0200489 0.00702676 0.00203163 0.000515026 0.00011084 2.88926e-05 0 
692 0.0564641 0.855406 0.0583702 0.020047 0.00702676 0.00203163 0.000515026 0.00011084 2.88926e-05 0 
693 0.25598 0.262436 0.451811 0.0200596 0.00702676 0.00203163 0.000515026 0.00011084 2.88926e-05 0 
694 0.356462 0.455461 0.158317 0.0200472 0.00702675 0.00203163 0.000515026 0.00011084 2.88926e-05 0 
695 0.155204 0.553759 0.255907 0.0254162 0.00702676 0.00203163 0.000515026 0.00011084 2.88926e-05 0 
696 0.456416 0.255457 0.258367 0.020047 0.00702676 0.00203163 0.000515026 0.00011084 2.88926e-05 0 
697 0.2657 0.510135 0.220324 0.00252971 0.00101913 0.000199681 6.15829e-05 3.09096e-05 0 0 
698 0.154753 0.391222 0.424222 0.0200903 0.00702675 0.00203163 0.000515026 0.00011084 2.88926e-05 0 
699 0.150792 0.661073 0.158357 0.0200643 0.00702676 0.00203163 0.000515026 0.00011084 2.88926e-05 0 
700 0.056612 0.855223 0.0584054 0.020047 0.00702676 0.00203163 0.000515026 0.00011084 2.88926e-05 0 
701 0.0567767 0.473101 0.316849 0.0448266 0.105521 0.00227091 0.000515026 0.00011084 2.88926e-05 0 
702 0.156464 0.538446 0.27533 0.0200471 0.00702675 0.00203163 0.000515026 0.00011084 2.88926e-05 0 
703 0.0931837 0.873412 0.0295643 0.00252909 0.00101913 0.000199681 6.15829e-05 3.09096e-05 0 0 
704 0.0564638 0.855405 0.0583711 0.020047 0.00702675 0.00203163 0.000515026 0.00011084 2.88926e-05 0 
705 0.47563 0.366836 0.0807628 0.0734415 0.00303792 0.000199681 6.15829e-05 3.09096e-05 0 0 
706 0.093186 0.667366 0.235608 0.00252909 0.00101913 0.000199681 6.15829e-05 3.09096e-05 0 0 
707 0.098901 0.561731 0.335366 0.00269085 0.00101913 0.000199681 6.15829e-05 3.09096e-05 0 0 
708 0.0564638 0.855406 0.05837 0.020047 0.00702676 0.00203163 0.000515026 0.00011084 2.88926e-05 0 
709 0.0564639 0.755406 0.158369 0.0200476 0.00702676 0.00203163 0.000515026 0.00011084 2.88926e-05 0 
710 0.193184 0.674046 0.128929 0.00252911 0.00101913 0.000199681 6.15829e-05 3.09096e-05 0 0 
711 0.0564638 0.663997 0.248957 0.0208692 0.00702676 0.00203163 0.000515026 0.00011084 2.88926e-05 0 
712 0.292247 0.391414 0.312496 0.00253154 0.00101913 0.000199681 6.15829e-05 3.09096e-05 0 0 
713 0.0564638 0.855406 0.0583703 0.020047 0.00702676 0.00203163 0.000515026 0.00011084 2.88926e-05 0 
714 0.056508 0.755412 0.158276 0.0200911 0.00702676 0.00203163 0.000515026 0.00011084 2.88926e-05 0 
715 0.0564638 0.855221 0.0585551 0.020047 0.00702676 0.00203163 0.000515026 0.00011084 2.88926e-05 0 
716 0.0564638 0.555406 0.35837 0.020047 0.00702676 0.00203163 0.000515026 0.00011084 2.88926e-05 0 
717 0.158446 0.748425 0.0633681 0.020047 0.00702676 0.00203163 0.000515026 0.00011084 2.88926e-05 0 
718 0.0564638 0.855404 0.0583718 0.020047 0.00702676 0.00203163 0.000515026 0.00011084 2.88926e-05 0 
719 0.0564638 0.855406 0.0583705 0.020047 0.00702676 0.00203163 0.000515026 0.00011084 2.88926e-05 0 
720 0.0931834 0.873412 0.0295641 0.00252909 0.00101913 0.000199681 6.15829e-05 3.09096e-05 0 0 
721 0.0564638 0.855406 0.0583699 0.020047 0.00702676 0.00203163 0.000515026 0.00011084 2.88926e-05 0 
722 0.0574275 0.746703 0.16564 0.0205168 0.00702676 0.00203163 0.000515026 0.00011084 2.88926e-05 0 
723 0.0564638 0.654548 0.0608996 0.216734 0.00866839 0.00203163 0.000515026 0.00011084 2.88926e-05 0 
724 0.0564641 0.855404 0.0583714 0.020047 0.00702676 0.00203163 0.000515026 0.00011084 2.88926e-05 0 
725 0.0564638 0.855406 0.0583699 0.020047 0.00702676 0.00203163 0.000515026 0.00011084 2.88926e-05 0 
726 0.056465 0.536619 0.274985 0.0552934 0.0730853 0.00289741 0.000515026 0.00011084 2.88926e-05 0 
727 0.0564729 0.755398 0.15836 0.020056 0.00702676 0.00203163 0.000515026 0.00011084 2.88926e-05 0 
728 0.0564638 0.855384 0.0583925 0.020047 0.00702676 0.00203163 0.000515026 0.00011084 2.88926e-05 0 
729 0.00391856 0.640354 0.192824 0.13343 0.0171362 0.00840118 0.00344381 0.000492362 0 0 
730 0.154441 0.757355 0.058444 0.020047 0.00702676 0.00203163 0.000515026 0.00011084 2.88926e-05 0 
731 0.0564641 0.855406 0.0583701 0.020047 0.00702676 0.00203163 0.000515026 0.00011084 2.88926e-05 0 
732 0.156451 0.755419 0.0583699 0.020047 0.00702676 0.00203163 0.000515026 0.00011084 2.88926e-05 0 
733 0.193185 0.58772 0.215239 0.00254548 0.00101913 0.000199681 6.15829e-05 3.09096e-05 0 0 
734 0.0564638 0.855406 0.0583699 0.020047 0.00702676 0.00203163 0.000515026 0.00011084 2.88926e-05 0 
735 0.0564721 0.655414 0.258214 0.0201863 0.00702676 0.00203163 0.000515026 0.00011084 2.88926e-05 0 
736 0.0564638 0.855406 0.0583704 0.020047 0.00702676 0.00203163 0.000515026 0.00011084 2.88926e-05 0 
737 0.0564687 0.557253 0.356514 0.0200506 0.00702676 0.00203163 0.000515026 0.00011084 2.88926e-05 0 
738 0.25617 0.455641 0.258412 0.0200644 0.00702676 0.00203163 0.000515026 0.00011084 2.88926e-05 0 
739 0.256523 0.65475 0.0589671 0.020047 0.00702676 0.00203163 0.000515026 0.00011084 2.88926e-05 0 
740 0.0564643 0.750447 0.163253 0.0201227 0.00702676 0.00203163 0.000515026 0.00011084 2.88926e-05 0 
741 0.353119 0.258752 0.356305 0.0221114 0.00702676 0.00203163 0.000515026 0.00011084 2.88926e-05 0 
742 0.0564638 0.855406 0.0583701 0.020047 0.00702676 0.00203163 0.000515026 0.00011084 2.88926e-05 0 
743 0.156455 0.656979 0.156806 0.0200471 0.00702676 0.00203163 0.000515026 0.00011084 2.88926e-05 0 
744 0.056466 0.674886 0.238888 0.0200474 0.00702676 0.00203163 0.000515026 0.00011084 2.88926e-05 0 
745 0.0564638 0.855406 0.0583699 0.020047 0.00702676 0.00203163 0.000515026 0.00011084 2.88926e-05 0 
746 0.339588 0.472274 0.0583855 0.120037 0.00702934 0.00203163 0.000515026 0.00011084 2.88926e-05 0 
747 0.156754 0.752425 0.061061 0.020047 0.00702676 0.00203163 0.000515026 0.00011084 2.88926e-05 0 
748 0.0564639 0.650306 0.263442 0.0200754 0.00702675 0.00203163 0.000515026 0.00011084 2.88926e-05 0 
749 0.156464 0.555408 0.258368 0.020047 0.00702676 0.00203163 0.000515026 0.00011084 2.88926e-05 0 
750 0.0564638 0.851486 0.0622906 0.020047 0.00702676 0.00203163 0.000515026 0.00011084 2.88926e-05 0 
751 0.056464 0.755404 0.158372 0.0200471 0.00702676 0.00203163 0.000515026 0.00011084 2.88926e-05 0 
752 0.276267 0.635593 0.0583793 0.020047 0.00702676 0.00203163 0.000515026 0.00011084 2.88926e-05 0 
753 0.0564638 0.648759 0.166367 0.118694 0.0070303 0.00203163 0.000515026 0.00011084 2.88926e-05 0 
754 0.0564638 0.267874 0.645902 0.0200471 0.00702676 0.00203163 0.000515026 0.00011084 2.88926e-05 0 
755 0.0564638 0.755403 0.0765731 0.0985085 0.0103651 0.00203163 0.000515026 0.00011084 2.88926e-05 0 
756 0.0568164 0.447345 0.366032 0.0202708 0.10685 0.00203164 0.000515026 0.00011084 2.88926e-05 0 
757 0.193183 0.773412 0.0295641 0.00252909 0.00101913 0.000199681 6.15829e-05 3.09096e-05 0 0 
758 0.155159 0.756711 0.05837 0.020047 0.00702676 0.00203163 0.000515026 0.00011084 2.88926e-05 0 
759 0.156485 0.755246 0.0585082 0.020047 0.00702676 0.00203163 0.000515026 0.00011084 2.88926e-05 0 
760 0.0572416 0.755137 0.150406 0.027503 0.00702675 0.00203163 0.000515026 0.00011084 2.88926e-05 0 
761 0.456066 0.455788 0.0583861 0.020047 0.00702676 0.00203163 0.000515026 0.00011084 2.88926e-05 0 
762 0.158422 0.651835 0.159979 0.0200503 0.00702675 0.00203163 0.000515026 0.00011084 2.88926e-05 0 
763 0.32362 0.587973 0.0586467 0.020047 0.00702676 0.00203163 0.000515026 0.00011084 2.88926e-05 0 
764 0.15605 0.495685 0.207887 0.130652 0.007039 0.00203163 0.000515026 0.00011084 2.88926e-05 0 
765 0.194638 0.67068 0.130514 0.0028566 0.00101913 0.000199681 6.15829e-05 3.09096e-05 0 0 
766 0.0932079 0.772894 0.0300579 0.00271275 0.100835 0.000199681 6.15829e-05 3.09096e-05 0 0 
767 0.0564638 0.661886 0.251642 0.0202947 0.00702676 0.00203163 0.000515026 0.00011084 2.88926e-05 0 
768 0.0564638 0.855406 0.0583698 0.020047 0.00702676 0.00203163 0.000515026 0.00011084 2.88926e-05 0 
769 0.258896 0.446723 0.264621 0.0200473 0.00702676 0.00203163 0.000515026 0.00011084 2.88926e-05 0 
770 0.0564638 0.855406 0.0583701 0.020047 0.00702676 0.00203163 0.000515026 0.00011084 2.88926e-05 0 
771 0.0931834 0.773432 0.129544 0.00252912 0.00101913 0.000199681 6.15829e-05 3.09096e-05 0 0 
772 0.356462 0.45539 0.156408 0.0220264 0.00702676 0.00203163 0.000515026 0.00011084 2.88926e-05 0 
773 0.0587939 0.739409 0.171536 0.020548 0.00702676 0.00203163 0.000515026 0.00011084 2.88926e-05 0 
774 0.16061 0.447164 0.362399 0.0201144 0.00702676 0.00203163 0.000515026 0.00011084 2.88926e-05 0 
775 0.0564638 0.855233 0.0585436 0.020047 0.00702676 0.00203163 0.000515026 0.00011084 2.88926e-05 0 
776 0.157406 0.654075 0.0587597 0.120047 0.00702688 0.00203163 0.000515026 0.00011084 2.88926e-05 0 
777 0.0564638 0.853913 0.0598633 0.020047 0.00702676 0.00203163 0.000515026 0.00011084 2.88926e-05 0 
778 0.0564638 0.255831 0.356527 0.318421 0.0100721 0.00203163 0.000515026 0.00011084 2.88926e-05 0 
779 0.0564638 0.561164 0.150339 0.222065 0.00728199 0.00203163 0.000515026 0.00011084 2.88926e-05 0 
780 0.29307 0.358628 0.344461 0.00252931 0.00101913 0.000199681 6.15829e-05 3.09096e-05 0 0 
781 0.15012 0.669013 0.151106 0.0200474 0.00702676 0.00203163 0.000515026 0.00011084 2.88926e-05 0 
782 0.293759 0.566363 0.136038 0.00252912 0.00101913 0.000199681 6.15829e-05 3.09096e-05 0 0 
783 0.0564638 0.855406 0.0583698 0.020047 0.00702676 0.00203163 0.000515026 0.00011084 2.88926e-05 0 
784 0.159328 0.747276 0.0636362 0.020047 0.00702676 0.00203163 0.000515026 0.00011084 2.88926e-05 0 
785 0.0564783 0.671561 0.237845 0.0244029 0.00702676 0.00203163 0.000515026 0.00011084 2.88926e-05 0 
786 0.0564638 0.755418 0.158358 0.020047 0.00702676 0.00203163 0.000515026 0.00011084 2.88926e-05 0 
787 0.0564649 0.56106 0.15267 0.220079 0.00703945 0.00203163 0.000515026 0.00011084 2.88926e-05 0 
788 0.272927 0.438476 0.257044 0.0218405 0.00702676 0.00203163 0.000515026 0.00011084 2.88926e-05 0 
789 0.155494 0.754414 0.0603318 0.020047 0.00702676 0.00203163 0.000515026 0.00011084 2.88926e-05 0 
790 0.0956659 0.771469 0.129025 0.00252976 0.00101913 0.000199681 6.15829e-05 3.09096e-05 0 0 
791 0.156465 0.653804 0.159971 0.020047 0.00702676 0.00203163 0.000515026 0.00011084 2.88926e-05 0 
792 0.0564709 0.667261 0.246508 0.0200473 0.00702676 0.00203163 0.000515026 0.00011084 2.88926e-05 0 
793 0.156261 0.755609 0.0583698 0.020047 0.00702676 0.00203163 0.000515026 0.00011084 2.88926e-05 0 
794 0.156462 0.755408 0.0583698 0.020047 0.00702676 0.00203163 0.000515026 0.00011084 2.88926e-05 0 
795 0.0039196 0.770017 0.133513 0.063079 0.0171339 0.00840118 0.00344381 0.000492362 0 0 
796 0.0564638 0.655456 0.258305 0.020062 0.00702675 0.00203163 0.000515026 0.00011084 2.88926e-05 0 
797 0.235676 0.575719 0.155094 0.0237978 0.00702676 0.00203163 0.000515026 0.00011084 2.88926e-05 0 
798 0.056464 0.755446 0.158329 0.0200473 0.00702676 0.00203163 0.000515026 0.00011084 2.88926e-05 0 
799 0.0564638 0.855406 0.0583704 0.020047 0.00702675 0.00203163 0.000515026 0.00011084 2.88926e-05 0 
800 0.350892 0.459509 0.059839 0.120044 0.0070296 0.00203163 0.000515026 0.00011084 2.88926e-05 0 
801 0.156363 0.655419 0.0629284 0.115573 0.00703058 0.00203163 0.000515026 0.00011084 2.88926e-05 0 
802 0.293171 0.507553 0.195416 0.0025484 0.00101913 0.000199681 6.15829e-05 3.09096e-05 0 0 
803 0.256405 0.655224 0.0586109 0.020047 0.00702676 0.00203163 0.000515026 0.00011084 2.88926e-05 0 
804 0.156463 0.755406 0.0583705 0.020047 0.00702676 0.00203163 0.000515026 0.00011084 2.88926e-05 0 
805 0.0564638 0.458043 0.177982 0.297798 0.00702676 0.00203163 0.000515026 0.00011084 2.88926e-05 0 
806 0.158915 0.655277 0.156047 0.020047 0.00702676 0.00203163 0.000515026 0.00011084 2.88926e-05 0 
807 0.0660625 0.741841 0.159899 0.0224846 0.00702676 0.00203163 0.000515026 0.00011084 2.88926e-05 0 
808 0.152073 0.75892 0.0592463 0.020047 0.00702676 0.00203163 0.000515026 0.00011084 2.88926e-05 0 
809 0.0620098 0.843464 0.064766 0.020047 0.00702676 0.00203163 0.000515026 0.00011084 2.88926e-05 0 
810 0.160739 0.640225 0.0692773 0.119679 0.00739301 0.00203163 0.000515026 0.00011084 2.88926e-05 0 
811 0 0.701751 0.274857 0 0.0233919 0 0 0 0 0 
812 0.0627376 0.83934 0.0648555 0.0222745 0.00780751 0.00225736 0.000572252 0.000123156 3.21029e-05 0 
813 0.00435206 0.744467 0.148347 0.0700878 0.0190377 0.00933464 0.00382645 0.000547069 0 0 
814 0.0627376 0.72893 0.175266 0.0222745 0.00780751 0.00225736 0.000572252 0.000123156 3.21029e-05 0 
815 0.00435206 0.744467 0.148347 0.0700878 0.0190377 0.00933464 0.00382645 0.000547069 0 0 
816 0.00435206 0.188912 0.148347 0.625643 0.0190378 0.00933464 0.00382645 0.000547069 0 0 
817 0.103694 0.858559 0.0334795 0.0028101 0.00113237 0.000221867 6.84255e-05 3.4344e-05 0 0 
818 0.103537 0.757001 0.135169 0.00283549 0.00113237 0.000221867 6.84255e-05 3.4344e-05 0 0 
819 0.103537 0.676182 0.216013 0.00281016 0.00113237 0.000221867 6.84255e-05 3.4344e-05 0 0 
820 0.0627376 0.284128 0.513193 0.129149 0.00780751 0.00225736 0.000572252 0.000123156 3.21029e-05 0 
821 0 0.0718075 0.674522 0.0717493 0.154241 0.0276803 1.10777e-07 0 0 0 
822 0 0.0718072 0.785658 0.0701269 0.0447275 0.0276803 1.10777e-07 0 0 0 
823 0.0627376 0.83934 0.0648556 0.0222745 0.00780751 0.00225736 0.000572252 0.000123156 3.21029e-05 0 
824 0.0627376 0.283785 0.620411 0.0222745 0.00780751 0.00225736 0.000572252 0.000123156 3.21029e-05 0 
825 0.284297 0.617781 0.0648555 0.0222745 0.00780751 0.00225736 0.000572252 0.000123156 3.21029e-05 0 
826 0.173765 0.686925 0.106243 0.0222745 0.00780751 0.00225736 0.000572252 0.000123156 3.21029e-05 0 
827 0.214649 0.640509 0.140564 0.00282008 0.00113237 0.000221867 6.84255e-05 3.4344e-05 0 0 
828 0.173831 0.506025 0.178344 0.131007 0.00780771 0.00225736 0.000572252 0.000123156 3.21029e-05 0 
829 0.0627376 0.83934 0.0648555 0.0222745 0.00780751 0.00225736 0.000572252 0.000123156 3.21029e-05 0 
830 0.17423 0.725851 0.0668523 0.0222745 0.00780751 0.00225736 0.000572252 0.000123156 3.21029e-05 0 
831 0.282328 0.397535 0.176373 0.132923 0.00785558 0.00225736 0.000572252 0.000123156 3.21029e-05 0 
832 0.17403 0.728029 0.0648741 0.0222745 0.00780751 0.00225736 0.000572252 0.000123156 3.21029e-05 0 
833 0.173183 0.399293 0.393718 0.0230137 0.00780751 0.00225736 0.000572252 0.000123156 3.21029e-05 0 
834 0.0629053 0.839168 0.06486 0.0222745 0.00780751 0.00225736 0.000572252 0.000123156 3.21029e-05 0 
835 0.0627382 0.729071 0.175124 0.0222745 0.00780751 0.00225736 0.000572252 0.000123156 3.21029e-05 0 
836 0.0627376 0.83934 0.0648556 0.0222745 0.00780751 0.00225736 0.000572252 0.000123156 3.21029e-05 0 
837 0.0627376 0.728201 0.175994 0.0222745 0.00780751 0.00225736 0.000572252 0.000123156 3.21029e-05 0 
838 0.173809 0.547818 0.245254 0.0223271 0.00780751 0.00225736 0.000572252 0.000123156 3.21029e-05 0 
839 0.0627376 0.615188 0.177076 0.0231323 0.118879 0.00225868 0.000572251 0.000123155 3.21029e-05 0 
840 0.0627376 0.506235 0.397569 0.0226668 0.00780751 0.00225736 0.000572252 0.000123156 3.21029e-05 0 
841 0.172087 0.729933 0.0649133 0.0222745 0.00780751 0.00225736 0.000572252 0.000123156 3.21029e-05 0 
842 0.173848 0.728229 0.0648555 0.0222745 0.00780751 0.00225736 0.000572251 0.000123155 3.21029e-05 0 
843 0.0627432 0.728115 0.0650719 0.133277 0.00780763 0.00225736 0.000572252 0.000123156 3.21029e-05 0 
844 0.280959 0.510008 0.175966 0.0222745 0.00780751 0.00225736 0.000572252 0.000123156 3.21029e-05 0 
845 0.0627376 0.838399 0.0657963 0.0222745 0.00780751 0.00225736 0.000572252 0.000123156 3.21029e-05 0 
846 0.0627376 0.388456 0.296531 0.241451 0.00783967 0.00225736 0.000572252 0.000123156 3.21029e-05 0 
847 0.0627395 0.722679 0.181493 0.022296 0.00780751 0.00225736 0.000572252 0.000123156 3.21029e-05 0 
848 0.063885 0.727253 0.175795 0.0222745 0.00780751 0.00225736 0.000572252 0.000123156 3.21029e-05 0 
849 0.0627377 0.724753 0.179441 0.0222751 0.00780751 0.00225736 0.000572252 0.000123156 3.21029e-05 0 
850 0.0627376 0.506001 0.398194 0.0222749 0.00780751 0.00225736 0.000572252 0.000123156 3.21029e-05 0 
851 0.0627376 0.722112 0.182083 0.0222752 0.00780751 0.00225736 0.000572252 0.000123156 3.21029e-05 0 
852 0.0627376 0.83934 0.0648555 0.0222745 0.00780751 0.00225736 0.000572252 0.000123156 3.21029e-05 0 
853 0.0627376 0.728229 0.0702085 0.128032 0.00780767 0.00225736 0.000572252 0.000123156 3.21029e-05 0 
854 0.103537 0.859344 0.0328514 0.0028101 0.00113237 0.000221867 6.84255e-05 3.4344e-05 0 0 
855 0.103539 0.748221 0.143973 0.0028102 0.00113237 0.000221867 6.84255e-05 3.4344e-05 0 0 
856 0.0627376 0.731075 0.172587 0.022809 0.00780751 0.00225736 0.000572252 0.000123156 3.21029e-05 0 
857 0.0627376 0.728295 0.175901 0.0222745 0.00780751 0.00225736 0.000572252 0.000123156 3.21029e-05 0 
858 0.0627392 0.727248 0.0664624 0.132756 0.00780914 0.00225736 0.000572252 0.000123156 3.21029e-05 0 
859 0.325608 0.620581 0.0495437 0.0028101 0.00113237 0.000221867 6.84255e-05 3.4344e-05 0 0 
860 0.103538 0.637075 0.0329995 0.224931 0.00113292 0.000221867 6.84255e-05 3.4344e-05 0 0 
861 0.284998 0.509414 0.172154 0.0226416 0.00780751 0.00225736 0.000572252 0.000123156 3.21029e-05 0 
862 0.103562 0.853398 0.0387732 0.0028101 0.00113237 0.000221867 6.84255e-05 3.4344e-05 0 0 
863 0.0627376 0.727193 0.177003 0.0222745 0.00780751 0.00225736 0.000572251 0.000123155 3.21029e-05 0 
864 0.00435206 0.744466 0.148348 0.0700878 0.0190377 0.00933464 0.00382645 0.000547069 0 0 
865 0.430229 0.471844 0.0648598 0.0222745 0.00780751 0.00225736 0.000572252 0.000123156 3.21029e-05 0 
866 0.325772 0.526001 0.14396 0.0028101 0.00113237 0.000221867 6.84255e-05 3.4344e-05 0 0 
867 0.145139 0.756939 0.0648555 0.0222745 0.00780751 0.00225736 0.000572252 0.000123156 3.21029e-05 0 
868 0.0627376 0.837749 0.0664467 0.0222745 0.00780751 0.00225736 0.000572252 0.000123156 3.21029e-05 0 
869 0.103541 0.748094 0.144098 0.00281011 0.00113237 0.000221867 6.84255e-05 3.4344e-05 0 0 
870 0.0627376 0.839338 0.0648576 0.0222745 0.00780751 0.00225736 0.000572252 0.000123156 3.21029e-05 0 
871 0.0627376 0.502905 0.401237 0.0223287 0.00780751 0.00225736 0.000572252 0.000123156 3.21029e-05 0 
872 0.214272 0.74861 0.0328507 0.0028101 0.00113237 0.000221867 6.84255e-05 3.4344e-05 0 0 
873 0.0627377 0.618176 0.28602 0.0222746 0.00780751 0.00225736 0.000572252 0.000123156 3.21029e-05 0 
874 0.0627382 0.838969 0.0652256 0.0222745 0.00780751 0.00225736 0.000572252 0.000123156 3.21029e-05 0 
875 0.0627386 0.839338 0.0648564 0.0222745 0.00780751 0.00225736 0.000572252 0.000123156 3.21029e-05 0 
876 0.173489 0.39538 0.169353 0.250983 0.00780948 0.00225736 0.000572252 0.000123156 3.21029e-05 0 
877 0.394321 0.507757 0.0648554 0.0222745 0.00780751 0.00225736 0.000572252 0.000123156 3.21029e-05 0 
878 0.173074 0.729003 0.0648561 0.0222745 0.00780751 0.00225736 0.000572252 0.000123156 3.21029e-05 0 
879 0.0631358 0.616798 0.286999 0.0222745 0.00780751 0.00225736 0.000572252 0.000123156 3.21029e-05 0 
880 0.173833 0.600981 0.0811461 0.133247 0.00780761 0.00225736 0.000572252 0.000123156 3.21029e-05 0 
881 0.173848 0.72823 0.0648554 0.0222745 0.00780751 0.00225736 0.000572252 0.000123156 3.21029e-05 0 
882 0.0627381 0.839337 0.0648578 0.0222745 0.00780751 0.00225736 0.000572252 0.000123156 3.21029e-05 0 
883 0.173849 0.728228 0.0648562 0.0222745 0.00780751 0.00225736 0.000572251 0.000123155 3.21029e-05 0 
884 0.0627376 0.839333 0.0648631 0.0222745 0.00780751 0.00225736 0.000572252 0.000123156 3.21029e-05 0 
885 0.0627389 0.72822 0.065174 0.133071 0.00781147 0.00225736 0.000572252 0.000123156 3.21029e-05 0 
886 0.0627376 0.725644 0.178552 0.0222745 0.00780751 0.00225736 0.000572251 0.000123155 3.21029e-05 0 
887 0.173833 0.613773 0.0684018 0.133196 0.00781183 0.00225736 0.000572252 0.000123156 3.21029e-05 0 
888 0.274995 0.537455 0.154158 0.0226 0.00780751 0.00225736 0.000572252 0.000123156 3.21029e-05 0 
889 0.0627376 0.83934 0.0648556 0.0222745 0.00780751 0.00225736 0.000572252 0.000123156 3.21029e-05 0 
890 0.0627376 0.83934 0.0648555 0.0222745 0.00780751 0.00225736 0.000572252 0.000123156 3.21029e-05 0 
891 0.0627381 0.728432 0.175762 0.0222751 0.00780751 0.00225736 0.000572252 0.000123156 3.21029e-05 0 
892 0.103802 0.747967 0.143964 0.0028101 0.00113237 0.000221867 6.84255e-05 3.4344e-05 0 0 
893 0.0627376 0.83934 0.0648554 0.0222745 0.00780751 0.00225736 0.000572251 0.000123155 3.21029e-05 0 
894 0.0627376 0.839317 0.0648787 0.0222745 0.00780751 0.00225736 0.000572252 0.000123156 3.21029e-05 0 
895 0.0627402 0.728523 0.17567 0.0222747 0.00780751 0.00225736 0.000572251 0.000123155 3.21029e-05 0 
896 0.0627376 0.83934 0.0648554 0.0222745 0.00780751 0.00225736 0.000572251 0.000123155 3.21029e-05 0 
897 0.0627376 0.621832 0.278096 0.0265421 0.00780751 0.00225736 0.000572252 0.000123156 3.21029e-05 0 
898 0.396071 0.283785 0.287078 0.0222745 0.00780751 0.00225736 0.000572252 0.000123156 3.21029e-05 0 
899 0.0627376 0.83934 0.0648554 0.0222745 0.00780751 0.00225736 0.000572252 0.000123156 3.21029e-05 0 
900 0.101703 0.689227 0.176003 0.0222747 0.00780751 0.00225736 0.000572252 0.000123156 3.21029e-05 0 
901 0.103745 0.748026 0.0350922 0.111675 0.00113744 0.000221867 6.84255e-05 3.4344e-05 0 0 
902 0.284529 0.286917 0.284388 0.133373 0.00780936 0.00225736 0.000572252 0.000123156 3.21029e-05 0 
903 0.0627376 0.728194 0.0648907 0.0223324 0.118861 0.00225738 0.000572252 0.000123156 3.21029e-05 0 
904 0.0627377 0.728201 0.175994 0.0222745 0.00780751 0.00225736 0.000572252 0.000123156 3.21029e-05 0 
905 0.173846 0.617108 0.0648681 0.0222756 0.118365 0.00280989 0.000572252 0.000123156 3.21029e-05 0 
906 0.0627401 0.616799 0.286411 0.0232578 0.00780751 0.00225736 0.000572252 0.000123156 3.21029e-05 0 
907 0.00435211 0.743899 0.148916 0.0700878 0.0190377 0.00933464 0.00382645 0.000547069 0 0 
908 0.0043522 0.530504 0.251239 0.181157 0.0190399 0.00933464 0.00382645 0.000547069 0 0 
909 0.0627376 0.617122 0.287055 0.0222928 0.00780751 0.00225736 0.000572251 0.000123155 3.21029e-05 0 
910 0.243707 0.547254 0.0651202 0.133094 0.00784025 0.00225736 0.000572252 0.000123156 3.21029e-05 0 
911 0.0627376 0.839324 0.0648719 0.0222745 0.00780751 0.00225736 0.000572252 0.000123156 3.21029e-05 0 
912 0.0627381 0.505844 0.287238 0.13337 0.00782499 0.00225736 0.000572252 0.000123156 3.21029e-05 0 
913 0.0627376 0.512074 0.392121 0.0222751 0.00780751 0.00225736 0.000572252 0.000123156 3.21029e-05 0 
914 0.0675511 0.832406 0.0669767 0.0222745 0.00780751 0.00225736 0.000572252 0.000123156 3.21029e-05 0 
915 0.0627377 0.728241 0.175954 0.022275 0.00780751 0.00225736 0.000572252 0.000123156 3.21029e-05 0 
916 0.173849 0.728196 0.0648888 0.0222745 0.00780751 0.00225736 0.000572251 0.000123155 3.21029e-05 0 
917 0.0640664 0.504772 0.179148 0.233935 0.0150947 0.00225736 0.000572252 0.000123156 3.21029e-05 0 
918 0.0627376 0.83934 0.064856 0.0222745 0.00780751 0.00225736 0.000572252 0.000123156 3.21029e-05 0 
919 0.395939 0.283921 0.175946 0.132473 0.0087362 0.00225736 0.000572252 0.000123156 3.21029e-05 0 
920 0.0627376 0.617106 0.0651603 0.244201 0.00781028 0.00225736 0.000572252 0.000123156 3.21029e-05 0 
921 0.0627376 0.728228 0.175967 0.0222745 0.00780751 0.00225736 0.000572252 0.000123156 3.21029e-05 0 
922 0.0627376 0.698073 0.0950113 0.0222747 0.118918 0.0022574 0.000572252 0.000123156 3.21029e-05 0 
923 0.106985 0.855899 0.0328491 0.0028101 0.00113237 0.000221867 6.84255e-05 3.4344e-05 0 0 
924 0.173482 0.604548 0.188829 0.0223488 0.00780751 0.00225736 0.000572251 0.000123155 3.21029e-05 0 
925 0.173845 0.728231 0.0648567 0.0222745 0.00780751 0.00225736 0.000572252 0.000123156 3.21029e-05 0 
926 0.153695 0.526925 0.266741 0.0418469 0.00780751 0.00225736 0.000572252 0.000123156 3.21029e-05 0 
927 0.173815 0.283818 0.39819 0.133384 0.00780751 0.00225736 0.000572252 0.000123156 3.21029e-05 0 
928 0.32556 0.415 0.255064 0.00291906 0.00113237 0.000221867 6.84255e-05 3.4344e-05 0 0 
929 0.0627376 0.807764 0.0964314 0.0222745 0.00780751 0.00225736 0.000572252 0.000123156 3.21029e-05 0 
930 0.173817 0.72826 0.064856 0.0222745 0.00780751 0.00225736 0.000572252 0.000123156 3.21029e-05 0 
931 0.214648 0.637705 0.143349 0.00284134 0.00113237 0.000221867 6.84255e-05 3.4344e-05 0 0 
932 0.214648 0.637125 0.0328491 0.113921 0.00113237 0.000221867 6.84255e-05 3.4344e-05 0 0 
933 0.0627376 0.283785 0.509339 0.133347 0.00780751 0.00225736 0.000572252 0.000123156 3.21029e-05 0 
934 0.0627675 0.83931 0.0648554 0.0222745 0.00780751 0.00225736 0.000572252 0.000123156 3.21029e-05 0 
935 0.373077 0.528961 0.0648949 0.0222745 0.00780751 0.00225736 0.000572252 0.000123156 3.21029e-05 0 
936 0.153517 0.748474 0.0649421 0.0222745 0.00780751 0.00225736 0.000572252 0.000123156 3.21029e-05 0 
937 0.0627376 0.839339 0.0648561 0.0222745 0.00780751 0.00225736 0.000572252 0.000123156 3.21029e-05 0 
938 0.0627376 0.506089 0.3981 0.0222809 0.00780751 0.00225736 0.000572252 0.000123156 3.21029e-05 0 
939 0.0627842 0.394743 0.285117 0.246427 0.00794355 0.00225736 0.000572252 0.000123156 3.21029e-05 0 
940 0.0627376 0.728113 0.176083 0.0222745 0.00780751 0.00225736 0.000572252 0.000123156 3.21029e-05 0 
941 0.0627377 0.728219 0.173755 0.0244964 0.00780751 0.00225736 0.000572252 0.000123156 3.21029e-05 0 
942 0.0641139 0.528062 0.363719 0.033313 0.00780751 0.00225736 0.000572252 0.000123156 3.21029e-05 0 
943 0.0638478 0.716215 0.18687 0.0222745 0.00780751 0.00225736 0.000572252 0.000123156 3.21029e-05 0 
944 0.0627377 0.728205 0.175693 0.0225715 0.00780751 0.00225736 0.000572252 0.000123156 3.21029e-05 0 
945 0.173849 0.617088 0.0649483 0.133322 0.00780751 0.00225736 0.000572252 0.000123156 3.21029e-05 0 
946 0.173862 0.72821 0.0648618 0.0222745 0.00780751 0.00225736 0.000572252 0.000123156 3.21029e-05 0 
947 0.284957 0.394899 0.0648554 0.0275345 0.22477 0.00225736 0.000572252 0.000123156 3.21029e-05 0 
948 0.0627376 0.394811 0.29862 0.113767 0.124812 0.00452488 0.000572252 0.000123156 3.21029e-05 0 
949 0.23109 0.449256 0.175805 0.132527 0.00833703 0.00225736 0.000572252 0.000123156 3.21029e-05 0 
950 0.0627376 0.72822 0.0648647 0.0307462 0.110447 0.00225746 0.000572252 0.000123156 3.21029e-05 0 
951 0.173833 0.508304 0.185314 0.121237 0.00832661 0.00225736 0.000572252 0.000123156 3.21029e-05 0 
952 0.173844 0.366013 0.315933 0.0223378 0.118848 0.00229681 0.000572252 0.000123156 3.21029e-05 0 
953 0.0627376 0.839315 0.0648805 0.0222745 0.00780751 0.00225736 0.000572252 0.000123156 3.21029e-05 0 
954 0.0627376 0.728216 0.0648768 0.133377 0.0078077 0.00225736 0.000572252 0.000123156 3.21029e-05 0 
955 0.0627387 0.839339 0.0648559 0.0222745 0.00780751 0.00225736 0.000572252 0.000123156 3.21029e-05 0 
956 0.173861 0.505991 0.287082 0.0222745 0.00780751 0.00225736 0.000572252 0.000123156 3.21029e-05 0 
957 0.103538 0.748243 0.143952 0.0028101 0.00113237 0.000221867 6.84255e-05 3.4344e-05 0 0 
958 0.172083 0.516025 0.278825 0.0222756 0.00780751 0.00225736 0.000572251 0.000123155 3.21029e-05 0 
959 0.0627376 0.283847 0.178671 0.461106 0.0106532 0.00225736 0.000572252 0.000123156 3.21029e-05 0 
960 0.0627396 0.629976 0.274217 0.0222745 0.00780751 0.00225736 0.000572252 0.000123156 3.21029e-05 0 
961 0.173803 0.615883 0.0661393 0.133285 0.00790485 0.00225736 0.000572252 0.000123156 3.21029e-05 0 
962 0.0627376 0.72795 0.176245 0.022275 0.00780751 0.00225736 0.000572252 0.000123156 3.21029e-05 0 
963 0.0627383 0.497022 0.406773 0.0226738 0.00780751 0.00225736 0.000572252 0.000123156 3.21029e-05 0 
964 0.0627376 0.506468 0.397646 0.0223563 0.00780751 0.00225736 0.000572252 0.000123156 3.21029e-05 0 
965 0.103539 0.859345 0.0328491 0.0028101 0.00113237 0.000221867 6.84255e-05 3.4344e-05 0 0 
966 0.103537 0.859347 0.0328489 0.0028101 0.00113237 0.000221867 6.84255e-05 3.4344e-05 0 0 
967 0.0627377 0.728196 0.0649214 0.133352 0.00780817 0.00225736 0.000572252 0.000123156 3.21029e-05 0 
968 0.0627376 0.728229 0.0648554 0.133386 0.00780753 0.00225736 0.000572252 0.000123156 3.21029e-05 0 
969 0.0627381 0.616662 0.176423 0.133384 0.00780828 0.00225736 0.000572252 0.000123156 3.21029e-05 0 
970 0.0627711 0.72988 0.174276 0.0222801 0.00780751 0.00225736 0.000572252 0.000123156 3.21029e-05 0 
971 0.0735547 0.498468 0.384725 0.0324591 0.00780751 0.00225736 0.000572252 0.000123156 3.21029e-05 0 
972 0.325759 0.414903 0.25507 0.00281028 0.00113237 0.000221867 6.84255e-05 3.4344e-05 0 0 
973 0.0678643 0.794447 0.104622 0.0222745 0.00780751 0.00225736 0.000572252 0.000123156 3.21029e-05 0 
974 0.00435235 0.661964 0.230655 0.0702828 0.0190377 0.00933465 0.00382645 0.000547069 0 0 
975 0.17384 0.506015 0.17642 0.132933 0.00780751 0.00225736 0.000572252 0.000123156 3.21029e-05 0 
976 0.394017 0.28661 0.285892 0.0226899 0.00780751 0.00225736 0.000572252 0.000123156 3.21029e-05 0 
977 0.173841 0.727182 0.0659106 0.0222745 0.00780751 0.00225736 0.000572252 0.000123156 3.21029e-05 0 
978 0.0627376 0.83934 0.0648554 0.0222745 0.00780751 0.00225736 0.000572252 0.000123156 3.21029e-05 0 
979 0.192814 0.598153 0.0648582 0.133383 0.00780754 0.00225736 0.000572252 0.000123156 3.21029e-05 0 
980 0.0627376 0.839339 0.0648571 0.0222745 0.00780751 0.00225736 0.000572252 0.000123156 3.21029e-05 0 
981 0.479481 0.483403 0.0328492 0.0028101 0.00113237 0.000221867 6.84255e-05 3.4344e-05 0 0 
982 0.278767 0.623311 0.0648555 0.0222745 0.00780751 0.00225736 0.000572252 0.000123156 3.21029e-05 0 
983 0.325689 0.525776 0.0333602 0.113662 0.0011882 0.000221867 6.84255e-05 3.4344e-05 0 0 
984 0.182956 0.71292 0.0710572 0.0222745 0.00780751 0.00225736 0.000572252 0.000123156 3.21029e-05 0 
985 0.0627376 0.285621 0.174445 0.354737 0.119475 0.00225736 0.000572251 0.000123155 3.21029e-05 0 
986 0.2141 0.748784 0.0328492 0.0028101 0.00113237 0.000221867 6.84255e-05 3.4344e-05 0 0 
987 0.0627376 0.83934 0.0648555 0.0222745 0.00780751 0.00225736 0.000572252 0.000123156 3.21029e-05 0 
988 0.103537 0.639106 0.240865 0.0150347 0.00113237 0.000221867 6.84255e-05 3.4344e-05 0 0 
989 0.172452 0.39334 0.082193 0.229025 0.00889491 0.0343514 0.0792552 0.000457241 3.21029e-05 0 
990 0.0627377 0.739002 0.165192 0.0222754 0.00780751 0.00225736 0.000572252 0.000123156 3.21029e-05 0 
991 0.195717 0.355577 0.083556 0.254569 0.107577 0.00227743 0.000572252 0.000123156 3.21029e-05 0 
992 0.241192 0.59205 0.0373263 0.127783 0.0012831 0.000249601 7.69787e-05 3.8637e-05 0 0 
993 0.232933 0.724784 0.0374821 0.00316137 0.00127392 0.000249601 7.69787e-05 3.8637e-05 0 0 
994 0.0705805 0.44747 0.193742 0.0260708 0.13492 0.12582 0.00122217 0.00013855 3.61157e-05 0 
995 0.0705825 0.813804 0.0784137 0.0250588 0.00878344 0.00253953 0.000643783 0.00013855 3.61157e-05 0 
996 0.241479 0.716765 0.0369551 0.00316137 0.00127392 0.000249601 7.69787e-05 3.8637e-05 0 0 
997 0.116479 0.592348 0.286372 0.00316144 0.00127392 0.000249601 7.69787e-05 3.8637e-05 0 0 
998 0.00489607 0.706003 0.173412 0.0788488 0.0214174 0.0105015 0.00430476 0.000615453 0 0 
999 0.0705798 0.569258 0.322962 0.0250595 0.00878344 0.00253953 0.000643783 0.00013855 3.61157e-05 0 
1000 0.00489606 0.712526 0.16689 0.0788488 0.0214174 0.0105015 0.00430476 0.000615453 0 0 
1001 0.00489606 0.462975 0.41644 0.0788488 0.0214174 0.0105015 0.00430476 0.000615453 0 0 
1002 0.0705798 0.819258 0.0729623 0.0250588 0.00878344 0.00253953 0.000643783 0.00013855 3.61157e-05 0 
1003 0.00489618 0.712525 0.16689 0.0788488 0.0214174 0.0105015 0.00430476 0.000615453 0 0 
