2 0 100 7 0.742956
3 0 100 7 0.0121111
4 0 100 7 0.00270038
5 0 100 7 0.242232
1 1 100 7 0.675356
2 1 100 7 0.324644
1 2 100 7 0.366695
2 2 100 7 0.3641
3 2 100 7 0.186615
4 2 100 7 0.00114417
5 2 100 7 0.0801871
6 2 100 7 0.00125937
2 3 100 7 1.10368e-05
3 3 100 7 0.747196
4 3 100 7 0.252793
2 4 100 7 0.00041099
3 4 100 7 0.203111
4 4 100 7 0.59237
5 4 100 7 0.204108
1 5 100 7 0.21317
2 5 100 7 0.186267
3 5 100 7 0.00504332
4 5 100 7 0.231186
5 5 100 7 0.359814
6 5 100 7 0.00452011
2 6 100 7 0.151144
5 6 100 7 0.270255
6 6 100 7 0.578602
4 7 100 7 7.52087e-05
5 7 100 7 4.06131e-05
6 7 100 7 0.203422
7 7 100 7 0.796462
6 8 100 7 0.0413127
7 8 100 7 0.958687
2 0 100 8 0.000153155
3 0 100 8 0.287758
4 0 100 8 0.0749726
5 0 100 8 0.636249
6 0 100 8 0.000728465
7 0 100 8 0.000138645
1 1 100 8 0.45117
2 1 100 8 0.24706
3 1 100 8 0.0618372
4 1 100 8 0.0617885
5 1 100 8 0.0545677
6 1 100 8 0.0617885
7 1 100 8 0.0617885
1 2 100 8 0.128632
2 2 100 8 0.386092
3 2 100 8 4.48817e-06
4 2 100 8 0.128632
5 2 100 8 0.228007
6 2 100 8 0.128632
3 3 100 8 0.647291
4 3 100 8 0.115914
5 3 100 8 0.115973
6 3 100 8 0.0200536
7 3 100 8 0.100769
1 4 100 8 0.0972898
2 4 100 8 0.0972913
4 4 100 8 0.389194
5 4 100 8 0.123812
6 4 100 8 0.194551
7 4 100 8 0.000570824
8 4 100 8 0.0972898
1 5 100 8 0.0726733
2 5 100 8 0.10407
3 5 100 8 0.104123
4 5 100 8 0.0908999
5 5 100 8 0.211932
6 5 100 8 0.20811
7 5 100 8 0.208192
2 6 100 8 0.121754
3 6 100 8 0.121754
4 6 100 8 0.00229868
5 6 100 8 0.121754
6 6 100 8 0.122148
7 6 100 8 0.266782
8 6 100 8 0.243509
3 7 100 8 0.197952
4 7 100 8 0.19799
5 7 100 8 0.00144253
6 7 100 8 0.19799
7 7 100 8 0.00864684
8 7 100 8 0.395979
4 8 100 8 0.171396
5 8 100 8 0.0192983
6 8 100 8 0.141706
7 8 100 8 0.324808
8 8 100 8 0.342792
5 9 100 8 0.252753
7 9 100 8 0.248008
8 9 100 8 0.499239
2 10 100 8 1.15365e-05
4 10 100 8 3.38043e-05
5 10 100 8 0.00612873
6 10 100 8 0.317308
7 10 100 8 0.337665
8 10 100 8 0.338853
2 0 100 9 0.0350049
3 0 100 9 0.583964
4 0 100 9 0.375351
5 0 100 9 0.000585721
6 0 100 9 0.00486306
7 0 100 9 0.000231127
1 1 100 9 0.621652
2 1 100 9 0.155425
3 1 100 9 0.167618
6 1 100 9 0.0548312
8 1 100 9 0.000473955
1 2 100 9 0.242235
2 2 100 9 0.457865
3 2 100 9 0.299483
5 2 100 9 0.000352558
8 2 100 9 6.42406e-05
1 3 100 9 0.140936
2 3 100 9 0.00783628
3 3 100 9 0.279176
4 3 100 9 0.428745
5 3 100 9 0.140864
6 3 100 9 0.000174334
9 3 100 9 0.00226882
1 4 100 9 5.64474e-05
2 4 100 9 0.166498
3 4 100 9 4.37721e-06
4 4 100 9 0.275586
5 4 100 9 0.28205
6 4 100 9 0.275805
1 5 100 9 0.113693
2 5 100 9 0.109913
3 5 100 9 7.65247e-06
4 5 100 9 0.11374
5 5 100 9 0.207753
6 5 100 9 0.113733
7 5 100 9 0.341161
1 6 100 9 0.00247462
2 6 100 9 0.103541
3 6 100 9 0.110578
4 6 100 9 0.00014107
5 6 100 9 0.233556
6 6 100 9 0.109857
7 6 100 9 0.109977
8 6 100 9 0.329874
3 7 100 9 8.42918e-07
4 7 100 9 0.0733657
5 7 100 9 0.0734599
6 7 100 9 0.193539
7 7 100 9 0.22038
8 7 100 9 0.146598
9 7 100 9 0.292657
6 8 100 9 0.249917
8 8 100 9 0.500166
9 8 100 9 0.249917
2 9 100 9 0.00118657
7 9 100 9 0.332867
9 9 100 9 0.665947
8 10 100 9 1
2 11 100 9 6.37864e-06
3 11 100 9 4.81926e-05
9 11 100 9 0.999945
2 0 100 10 3.3955e-05
3 0 100 10 0.0128259
4 0 100 10 0.068813
5 0 100 10 0.240542
6 0 100 10 0.00673548
7 0 100 10 0.126691
8 0 100 10 0.54005
9 0 100 10 0.00430795
1 1 100 10 0.636422
2 1 100 10 0.0909159
3 1 100 10 1.23238e-05
4 1 100 10 0.096745
5 1 100 10 0.0836614
6 1 100 10 6.20473e-06
7 1 100 10 0.0920715
8 1 100 10 0.00016208
9 1 100 10 3.24584e-06
1 2 100 10 0.350143
2 2 100 10 0.398139
3 2 100 10 0.127858
4 2 100 10 0.0489203
7 2 100 10 7.40718e-05
8 2 100 10 0.0300137
9 2 100 10 0.0448459
10 2 100 10 5.9119e-06
2 3 100 10 0.459147
3 3 100 10 0.307964
4 3 100 10 0.229515
5 3 100 10 2.41646e-05
6 3 100 10 8.5503e-06
10 3 100 10 0.00334146
1 4 100 10 0.057669
3 4 100 10 0.369409
4 4 100 10 0.173433
5 4 100 10 0.17518
6 4 100 10 0.0576324
7 4 100 10 0.106397
8 4 100 10 0.0602759
9 4 100 10 3.35093e-06
2 5 100 10 0.00210995
3 5 100 10 0.00458119
4 5 100 10 0.202457
5 5 100 10 0.297191
6 5 100 10 0.261663
7 5 100 10 0.104817
8 5 100 10 0.123594
9 5 100 10 0.00358685
3 6 100 10 0.144654
4 6 100 10 0.000384821
5 6 100 10 0.0831048
6 6 100 10 0.308324
7 6 100 10 0.15358
8 6 100 10 0.0771343
9 6 100 10 0.232818
3 7 100 10 4.09894e-06
4 7 100 10 0.14537
6 7 100 10 0.0726773
7 7 100 10 0.336223
8 7 100 10 0.227687
9 7 100 10 0.0726841
10 7 100 10 0.145355
2 8 100 10 3.82177e-06
3 8 100 10 1.2263e-06
5 8 100 10 0.131095
6 8 100 10 0.129484
7 8 100 10 0.130571
8 8 100 10 0.276281
9 8 100 10 0.202123
10 8 100 10 0.13044
3 9 100 10 6.81719e-06
4 9 100 10 0.0838396
5 9 100 10 5.43915e-05
6 9 100 10 0.0836041
7 9 100 10 0.000295418
8 9 100 10 0.0835772
9 9 100 10 0.334188
10 9 100 10 0.414435
3 10 100 10 0.00465191
4 10 100 10 6.96916e-06
5 10 100 10 0.167561
7 10 100 10 0.00609942
8 10 100 10 0.165566
9 10 100 10 0.153679
10 10 100 10 0.502436
5 11 100 10 0.45531
7 11 100 10 0.0862183
8 11 100 10 0.00212467
10 11 100 10 0.456347
4 12 100 10 2.6899e-05
6 12 100 10 0.34233
7 12 100 10 0.395087
8 12 100 10 0.00045692
9 12 100 10 0.2621
5 13 100 10 2.68167e-06
7 13 100 10 0.0151948
8 13 100 10 0.000778816
10 13 100 10 0.984024
1 14 100 10 1.8736e-05
9 14 100 10 0.999981
2 15 100 10 0.000116761
7 15 100 10 8.18161e-06
8 15 100 10 0.00129708
10 15 100 10 0.998578
2 0 100 11 0.324848
3 0 100 11 0.0738675
4 0 100 11 0.0762237
5 0 100 11 0.00434016
6 0 100 11 0.345245
7 0 100 11 0.143338
8 0 100 11 0.0194169
9 0 100 11 0.0125164
10 0 100 11 0.00020457
1 1 100 11 0.591632
2 1 100 11 6.98969e-06
3 1 100 11 1.166e-05
4 1 100 11 0.102093
5 1 100 11 0.102075
6 1 100 11 0.102075
9 1 100 11 0.102094
10 1 100 11 1.23676e-05
1 2 100 11 0.181003
2 2 100 11 0.326001
3 2 100 11 0.0821265
4 2 100 11 0.000176022
5 2 100 11 0.0821178
6 2 100 11 0.0821219
7 2 100 11 0.164247
8 2 100 11 0.00198093
10 2 100 11 0.0802262
1 3 100 11 0.163565
2 3 100 11 0.167493
3 3 100 11 0.0820788
4 3 100 11 0.262811
5 3 100 11 0.160256
6 3 100 11 0.000217125
7 3 100 11 0.0817896
8 3 100 11 0.0817876
9 3 100 11 1.09807e-06
1 4 100 11 8.96676e-07
2 4 100 11 0.171742
3 4 100 11 0.416724
4 4 100 11 0.0699863
5 4 100 11 0.169399
6 4 100 11 0.0858888
7 4 100 11 5.97307e-06
8 4 100 11 0.0860423
9 4 100 11 7.73676e-06
11 4 100 11 0.000202195
1 5 100 11 0.100875
3 5 100 11 0.100461
4 5 100 11 0.394984
7 5 100 11 0.10089
9 5 100 11 0.100875
10 5 100 11 0.101038
11 5 100 11 0.100875
2 6 100 11 0.118415
3 6 100 11 0.0322541
4 6 100 11 0.148144
5 6 100 11 0.230349
6 6 100 11 0.219727
7 6 100 11 6.86052e-05
8 6 100 11 0.24861
9 6 100 11 0.00242888
10 6 100 11 3.48106e-06
1 7 100 11 0.0647085
2 7 100 11 0.0645862
3 7 100 11 0.131317
4 7 100 11 0.0822603
5 7 100 11 0.0647083
6 7 100 11 0.0694296
7 7 100 11 0.165445
8 7 100 11 0.165656
9 7 100 11 0.191889
2 8 100 11 0.0971974
3 8 100 11 0.0812303
4 8 100 11 0.000650565
5 8 100 11 0.194072
6 8 100 11 0.0973631
7 8 100 11 0.0975968
8 8 100 11 0.0426386
9 8 100 11 0.194059
10 8 100 11 0.195192
3 9 100 11 0.00422482
4 9 100 11 0.00589841
5 9 100 11 0.0775886
6 9 100 11 0.22528
7 9 100 11 0.00134964
8 9 100 11 0.147073
9 9 100 11 0.0750989
10 9 100 11 0.238183
11 9 100 11 0.225303
1 10 100 11 1.06259e-06
2 10 100 11 0.000176833
3 10 100 11 0.0681615
4 10 100 11 0.017366
5 10 100 11 7.47895e-05
6 10 100 11 0.0936248
7 10 100 11 0.280885
8 10 100 11 0.260788
9 10 100 11 0.0917488
11 10 100 11 0.187173
7 11 100 11 0.142878
8 11 100 11 0.000119133
9 11 100 11 0.428633
10 11 100 11 0.142614
11 11 100 11 0.285755
5 12 100 11 0.00360644
8 12 100 11 0.0019782
10 12 100 11 0.484001
11 12 100 11 0.510414
5 13 100 11 1.74108e-05
10 13 100 11 0.999983
5 14 100 11 4.66153e-05
11 14 100 11 0.999953
2 0 100 12 0.0361946
3 0 100 12 0.0407157
4 0 100 12 0.0266785
5 0 100 12 0.308362
6 0 100 12 0.332349
7 0 100 12 0.000216505
8 0 100 12 0.00872477
9 0 100 12 0.000765122
10 0 100 12 0.245948
11 0 100 12 4.58317e-05
1 1 100 12 0.947277
2 1 100 12 0.0348063
3 1 100 12 0.000252665
4 1 100 12 1.46171e-05
6 1 100 12 0.00282203
10 1 100 12 0.00554029
11 1 100 12 0.00928705
1 2 100 12 0.199877
2 2 100 12 0.299815
3 2 100 12 0.299793
4 2 100 12 0.0999305
5 2 100 12 0.0999261
8 2 100 12 5.18055e-05
10 2 100 12 0.000606731
2 3 100 12 0.334979
3 3 100 12 0.396019
4 3 100 12 1.43529e-05
5 3 100 12 0.134357
6 3 100 12 0.000537673
8 3 100 12 4.60195e-06
9 3 100 12 0.132578
10 3 100 12 0.00150546
11 3 100 12 4.06763e-06
2 4 100 12 0.176256
3 4 100 12 0.000906039
4 4 100 12 0.395273
6 4 100 12 0.278385
9 4 100 12 2.25058e-06
10 4 100 12 2.70957e-05
11 4 100 12 0.148468
12 4 100 12 0.000682234
1 5 100 12 0.0687539
2 5 100 12 0.0686588
3 5 100 12 0.069354
4 5 100 12 0.226119
5 5 100 12 0.208867
6 5 100 12 0.0219045
7 5 100 12 0.204739
8 5 100 12 0.131598
9 5 100 12 3.05174e-06
10 5 100 12 2.98683e-06
2 6 100 12 9.26466e-06
3 6 100 12 0.10855
4 6 100 12 0.121932
5 6 100 12 0.129139
6 6 100 12 0.341627
7 6 100 12 0.126619
8 6 100 12 0.00328745
9 6 100 12 0.121955
10 6 100 12 0.046875
11 6 100 12 6.31194e-06
5 7 100 12 0.142819
6 7 100 12 0.142807
7 7 100 12 0.285613
8 7 100 12 0.285955
10 7 100 12 0.142807
5 8 100 12 0.00149246
6 8 100 12 0.0774843
7 8 100 12 0.077047
8 8 100 12 0.156367
9 8 100 12 0.305482
10 8 100 12 0.153638
11 8 100 12 0.152471
12 8 100 12 0.0760195
1 9 100 12 0.0012611
2 9 100 12 0.00145903
6 9 100 12 6.20447e-06
7 9 100 12 6.6434e-06
8 9 100 12 0.143317
9 9 100 12 0.000475292
10 9 100 12 0.143606
11 9 100 12 0.423315
12 9 100 12 0.286554
3 10 100 12 5.48823e-05
6 10 100 12 0.00100783
7 10 100 12 0.17109
9 10 100 12 0.171025
10 10 100 12 0.143551
11 10 100 12 0.000101255
12 10 100 12 0.51317
2 11 100 12 6.0001e-06
8 11 100 12 0.500054
10 11 100 12 0.49994
3 12 100 12 0.00014203
9 12 100 12 0.496493
11 12 100 12 0.503365
9 13 100 12 0.0044919
10 13 100 12 0.497637
12 13 100 12 0.497871
11 14 100 12 1
6 15 100 12 2.70185e-06
9 15 100 12 6.7331e-05
12 15 100 12 0.99993
2 0 100 13 0.128516
3 0 100 13 0.0869518
4 0 100 13 0.197602
5 0 100 13 0.00119119
6 0 100 13 0.00181006
7 0 100 13 0.0189074
8 0 100 13 0.104034
9 0 100 13 0.130876
10 0 100 13 0.183272
11 0 100 13 0.139738
12 0 100 13 0.00710168
1 1 100 13 0.64969
2 1 100 13 0.081337
3 1 100 13 7.24526e-06
4 1 100 13 0.0304286
5 1 100 13 4.18566e-05
6 1 100 13 3.66808e-05
8 1 100 13 0.000646484
9 1 100 13 0.000721786
11 1 100 13 0.000267004
12 1 100 13 0.0744005
13 1 100 13 0.162423
1 2 100 13 0.171363
2 2 100 13 0.406973
3 2 100 13 0.109983
4 2 100 13 0.0660043
6 2 100 13 0.114242
8 2 100 13 3.73981e-05
9 2 100 13 0.0574808
10 2 100 13 0.0681395
11 2 100 13 0.000680997
12 2 100 13 0.00509662
1 3 100 13 0.234281
2 3 100 13 0.190511
3 3 100 13 0.208768
4 3 100 13 0.0240354
5 3 100 13 0.0586375
7 3 100 13 0.111305
8 3 100 13 0.00581552
9 3 100 13 0.000661637
10 3 100 13 0.0472669
11 3 100 13 0.118717
12 3 100 13 1.64866e-06
1 4 100 13 0.0478193
2 4 100 13 0.136124
3 4 100 13 0.288318
4 4 100 13 0.216387
5 4 100 13 0.143156
6 4 100 13 0.0299778
8 4 100 13 0.0478233
9 4 100 13 0.000185774
10 4 100 13 5.43956e-05
11 4 100 13 7.33372e-05
12 4 100 13 0.09008
1 5 100 13 0.0534913
2 5 100 13 0.0537582
3 5 100 13 0.106713
4 5 100 13 0.28659
5 5 100 13 0.320782
6 5 100 13 0.123028
8 5 100 13 2.73625e-05
9 5 100 13 0.053492
11 5 100 13 0.0021162
12 5 100 13 1.47283e-06
2 6 100 13 0.0926363
3 6 100 13 0.0925648
4 6 100 13 0.0503232
5 6 100 13 0.198329
6 6 100 13 0.224421
7 6 100 13 0.202924
8 6 100 13 0.0925635
9 6 100 13 9.3528e-06
10 6 100 13 0.0461441
11 6 100 13 8.50122e-05
3 7 100 13 0.118282
4 7 100 13 0.0579787
5 7 100 13 1.44623e-06
6 7 100 13 0.244793
7 7 100 13 0.1546
8 7 100 13 0.236547
9 7 100 13 0.128269
10 7 100 13 0.000344519
11 7 100 13 0.0591798
12 7 100 13 5.26706e-06
3 8 100 13 2.9623e-05
4 8 100 13 0.0870415
5 8 100 13 5.73873e-07
6 8 100 13 0.0436895
7 8 100 13 0.218551
8 8 100 13 0.131154
9 8 100 13 0.174966
10 8 100 13 0.0874185
11 8 100 13 0.129219
12 8 100 13 0.127931
2 9 100 13 0.000580299
3 9 100 13 6.97699e-06
4 9 100 13 0.0644943
5 9 100 13 0.129042
6 9 100 13 0.0692716
7 9 100 13 4.90058e-06
8 9 100 13 0.145564
9 9 100 13 0.0705506
10 9 100 13 0.19205
11 9 100 13 0.0656182
12 9 100 13 0.133776
13 9 100 13 0.129042
2 10 100 13 8.876e-05
3 10 100 13 2.83037e-06
5 10 100 13 0.0699616
6 10 100 13 0.06996
7 10 100 13 0.0699782
8 10 100 13 0.119232
9 10 100 13 0.183782
10 10 100 13 0.140004
11 10 100 13 0.140131
12 10 100 13 0.136899
13 10 100 13 0.0699605
2 11 100 13 0.00253148
3 11 100 13 3.12709e-05
6 11 100 13 0.0595698
7 11 100 13 0.118696
8 11 100 13 0.020948
9 11 100 13 0.196852
10 11 100 13 0.123122
11 11 100 13 0.11682
12 11 100 13 0.182923
13 11 100 13 0.178507
1 12 100 13 0.0822326
3 12 100 13 4.57012e-05
7 12 100 13 0.0822352
8 12 100 13 0.0826661
10 12 100 13 0.158762
11 12 100 13 0.265123
13 12 100 13 0.328935
4 13 100 13 0.00012375
8 13 100 13 0.141516
9 13 100 13 0.147752
10 13 100 13 0.142285
11 13 100 13 1.05325e-05
12 13 100 13 0.426029
13 13 100 13 0.142285
8 14 100 13 0.163816
9 14 100 13 0.163966
10 14 100 13 0.138171
11 14 100 13 0.163816
12 14 100 13 0.0426008
13 14 100 13 0.327631
4 15 100 13 7.16983e-06
7 15 100 13 5.26587e-05
8 15 100 13 0.00112421
9 15 100 13 6.93828e-05
10 15 100 13 0.987115
11 15 100 13 0.000385133
12 15 100 13 0.0112465
3 16 100 13 0.00477541
4 16 100 13 0.00880951
5 16 100 13 0.149926
6 16 100 13 5.56905e-06
7 16 100 13 1.45539e-05
8 16 100 13 0.00949579
9 16 100 13 0.000294031
10 16 100 13 7.02838e-06
11 16 100 13 0.174788
12 16 100 13 0.0202713
13 16 100 13 0.631613
4 17 100 13 5.82513e-06
7 17 100 13 0.0011272
9 17 100 13 2.6493e-05
11 17 100 13 0.44348
12 17 100 13 0.0717862
13 17 100 13 0.483574
5 18 100 13 6.52174e-06
7 18 100 13 3.27983e-05
8 18 100 13 0.00201754
10 18 100 13 2.36547e-05
11 18 100 13 0.000359916
12 18 100 13 0.99756
7 19 100 13 0.00336689
9 19 100 13 2.26124e-06
11 19 100 13 0.00429641
13 19 100 13 0.992334
2 0 100 14 0.05162
3 0 100 14 0.00182411
4 0 100 14 0.0908863
5 0 100 14 0.0236435
6 0 100 14 0.0263872
7 0 100 14 0.000501449
8 0 100 14 0.00265444
9 0 100 14 0.00982452
10 0 100 14 0.26253
11 0 100 14 0.147909
12 0 100 14 0.11292
13 0 100 14 0.2693
1 1 100 14 0.776413
2 1 100 14 0.0972112
3 1 100 14 4.25919e-06
4 1 100 14 0.00598356
5 1 100 14 2.85797e-05
6 1 100 14 4.45028e-05
8 1 100 14 9.71647e-05
9 1 100 14 2.68101e-06
10 1 100 14 0.003326
11 1 100 14 0.0159395
12 1 100 14 0.0973027
13 1 100 14 0.00326383
14 1 100 14 0.00038316
1 2 100 14 0.126958
2 2 100 14 0.372506
3 2 100 14 0.127123
4 2 100 14 0.0634779
5 2 100 14 0.0637059
6 2 100 14 0.0698768
8 2 100 14 0.0634758
9 2 100 14 0.0634779
10 2 100 14 0.00188299
11 2 100 14 0.00410757
13 2 100 14 0.0434083
1 3 100 14 0.0762809
2 3 100 14 0.238865
3 3 100 14 0.258762
4 3 100 14 0.152563
5 3 100 14 0.0296294
6 3 100 14 0.0654724
7 3 100 14 0.0762832
10 3 100 14 0.0813357
11 3 100 14 2.69937e-05
13 3 100 14 0.0207816
1 4 100 14 0.123165
2 4 100 14 0.00510536
3 4 100 14 0.283516
4 4 100 14 0.185889
5 4 100 14 0.0936939
6 4 100 14 0.124356
8 4 100 14 0.0615819
11 4 100 14 0.0010556
12 4 100 14 0.0616536
13 4 100 14 0.0599841
1 5 100 14 0.0655358
2 5 100 14 0.131072
4 5 100 14 0.235023
5 5 100 14 0.241595
6 5 100 14 0.130147
7 5 100 14 0.131069
8 5 100 14 1.29862e-05
9 5 100 14 0.0655358
12 5 100 14 1.01264e-05
2 6 100 14 0.0933727
3 6 100 14 0.127129
4 6 100 14 0.000390809
5 6 100 14 0.207423
6 6 100 14 0.127256
7 6 100 14 0.0634335
8 6 100 14 0.126865
9 6 100 14 0.0634317
10 6 100 14 0.0634335
11 6 100 14 9.09118e-07
12 6 100 14 0.000399939
13 6 100 14 0.0634335
14 6 100 14 0.0634313
2 7 100 14 0.000485404
3 7 100 14 0.094817
4 7 100 14 0.0952053
5 7 100 14 0.000347453
6 7 100 14 0.0953507
7 7 100 14 0.190603
8 7 100 14 0.142954
9 7 100 14 0.095457
10 7 100 14 0.190583
11 7 100 14 0.0941973
2 8 100 14 0.000330015
3 8 100 14 1.46898e-06
4 8 100 14 0.0523325
5 8 100 14 0.156892
6 8 100 14 0.0947246
8 8 100 14 0.104188
9 8 100 14 0.104875
10 8 100 14 4.41093e-06
11 8 100 14 0.201911
12 8 100 14 0.180009
13 8 100 14 0.104734
4 9 100 14 1.80607e-06
6 9 100 14 0.134704
7 9 100 14 0.134585
9 9 100 14 0.134711
10 9 100 14 0.19674
12 9 100 14 0.14532
13 9 100 14 0.186587
14 9 100 14 0.0673519
4 10 100 14 0.0579011
5 10 100 14 0.0578067
6 10 100 14 8.44909e-06
7 10 100 14 0.173417
8 10 100 14 0.115613
9 10 100 14 2.72186e-05
10 10 100 14 0.115613
11 10 100 14 0.176916
12 10 100 14 0.0577044
13 10 100 14 0.0715749
14 10 100 14 0.173418
2 11 100 14 1.33804e-06
4 11 100 14 2.46407e-06
5 11 100 14 0.00332179
6 11 100 14 0.000462883
7 11 100 14 0.090907
8 11 100 14 0.181645
9 11 100 14 0.178322
10 11 100 14 0.000189004
11 11 100 14 0.090907
12 11 100 14 0.272785
14 11 100 14 0.181457
2 12 100 14 0.0333972
4 12 100 14 0.000132852
5 12 100 14 0.000604412
6 12 100 14 0.0163288
8 12 100 14 0.138436
9 12 100 14 0.276378
10 12 100 14 0.138314
12 12 100 14 0.136588
13 12 100 14 0.259821
5 13 100 14 8.73342e-06
6 13 100 14 4.69522e-05
8 13 100 14 0.00017984
9 13 100 14 0.164527
10 13 100 14 0.000153745
11 13 100 14 0.478545
12 13 100 14 0.000291213
13 13 100 14 0.0268908
14 13 100 14 0.329356
3 14 100 14 0.000398381
5 14 100 14 0.000203557
6 14 100 14 0.000282202
10 14 100 14 0.000173329
12 14 100 14 1.63463e-05
13 14 100 14 0.0146296
14 14 100 14 0.984297
9 15 100 14 1.7165e-05
10 15 100 14 0.318895
11 15 100 14 0.0305554
12 15 100 14 0.31888
13 15 100 14 0.0127408
14 15 100 14 0.318912
6 16 100 14 6.3054e-06
10 16 100 14 7.73735e-07
11 16 100 14 0.211419
13 16 100 14 0.450393
14 16 100 14 0.338181
11 17 100 14 2.49059e-06
14 17 100 14 0.999998
2 0 100 15 0.00326957
3 0 100 15 0.169609
4 0 100 15 0.0087849
5 0 100 15 0.00164914
6 0 100 15 0.000427426
7 0 100 15 0.0539703
8 0 100 15 0.000564123
9 0 100 15 0.0687724
10 0 100 15 0.153033
11 0 100 15 0.00331534
12 0 100 15 0.252078
13 0 100 15 0.0611746
14 0 100 15 0.223353
1 1 100 15 0.699103
2 1 100 15 0.174494
3 1 100 15 0.0583349
4 1 100 15 5.87054e-06
5 1 100 15 0.0580813
7 1 100 15 3.02124e-06
8 1 100 15 0.000140977
9 1 100 15 7.02461e-07
11 1 100 15 0.00199807
12 1 100 15 0.000609736
13 1 100 15 0.00697325
14 1 100 15 0.000255573
1 2 100 15 0.263515
2 2 100 15 0.469327
3 2 100 15 0.209906
4 2 100 15 0.00197128
5 2 100 15 1.62586e-06
6 2 100 15 0.0525614
7 2 100 15 1.63487e-05
9 2 100 15 0.000147628
10 2 100 15 0.00240712
12 2 100 15 2.07525e-06
13 2 100 15 2.92265e-05
14 2 100 15 0.000114676
2 3 100 15 0.173223
3 3 100 15 0.226915
4 3 100 15 0.370953
5 3 100 15 0.113897
7 3 100 15 2.25407e-05
8 3 100 15 5.66389e-05
9 3 100 15 7.79785e-05
10 3 100 15 7.37411e-07
11 3 100 15 0.0569446
13 3 100 15 0.0579092
1 4 100 15 0.0593521
2 4 100 15 0.118746
3 4 100 15 0.17887
4 4 100 15 0.116259
5 4 100 15 0.274982
6 4 100 15 0.118876
7 4 100 15 8.69328e-06
9 4 100 15 0.00010335
11 4 100 15 1.68034e-06
12 4 100 15 0.0631344
13 4 100 15 0.0692023
14 4 100 15 0.000464511
1 5 100 15 0.0498243
2 5 100 15 0.0479632
3 5 100 15 0.0999862
4 5 100 15 0.149473
5 5 100 15 0.0679637
6 5 100 15 0.199027
7 5 100 15 0.19887
9 5 100 15 0.040861
11 5 100 15 0.049115
12 5 100 15 0.0498283
13 5 100 15 7.31007e-05
14 5 100 15 0.0470152
1 6 100 15 7.71356e-05
2 6 100 15 0.0532949
3 6 100 15 0.0501819
4 6 100 15 0.166998
5 6 100 15 0.100429
6 6 100 15 0.152391
7 6 100 15 0.215102
8 6 100 15 0.1517
11 6 100 15 7.24694e-05
12 6 100 15 0.0505484
13 6 100 15 0.0505597
14 6 100 15 0.00864539
3 7 100 15 0.108335
4 7 100 15 0.0590277
5 7 100 15 0.158828
6 7 100 15 0.105369
7 7 100 15 0.157915
8 7 100 15 0.210754
9 7 100 15 0.0956903
10 7 100 15 0.0527583
12 7 100 15 5.55756e-06
13 7 100 15 0.0108565
14 7 100 15 0.0404601
2 8 100 15 5.42917e-06
3 8 100 15 0.0512322
4 8 100 15 0.0509408
5 8 100 15 0.0512537
6 8 100 15 0.152744
7 8 100 15 0.153422
8 8 100 15 0.102212
9 8 100 15 0.269222
10 8 100 15 0.0511634
11 8 100 15 0.0511675
12 8 100 15 0.0149103
13 8 100 15 0.0368069
14 8 100 15 0.01492
2 9 100 15 1.532e-06
3 9 100 15 3.93907e-06
4 9 100 15 0.0584071
5 9 100 15 0.116641
6 9 100 15 0.058431
7 9 100 15 0.0600603
8 9 100 15 0.14605
9 9 100 15 0.058431
10 9 100 15 0.175285
11 9 100 15 0.0864507
12 9 100 15 0.0873708
13 9 100 15 0.0866241
14 9 100 15 0.0370277
15 9 100 15 0.0292155
3 10 100 15 0.000138462
4 10 100 15 0.000891925
5 10 100 15 7.75977e-06
6 10 100 15 0.0530797
7 10 100 15 0.0552356
8 10 100 15 0.145641
9 10 100 15 0.159286
10 10 100 15 0.0532474
11 10 100 15 0.209646
12 10 100 15 0.118143
13 10 100 15 4.1874e-06
14 10 100 15 0.1516
15 10 100 15 0.0530789
2 11 100 15 7.41038e-06
3 11 100 15 1.02436e-06
4 11 100 15 1.65874e-06
5 11 100 15 8.1177e-06
7 11 100 15 0.00421357
8 11 100 15 1.1667e-05
9 11 100 15 0.124366
10 11 100 15 0.225413
11 11 100 15 0.00372081
12 11 100 15 0.21866
13 11 100 15 0.204857
14 11 100 15 0.000297338
15 11 100 15 0.218442
2 12 100 15 9.06623e-07
7 12 100 15 0.0753745
8 12 100 15 0.0200204
10 12 100 15 0.226121
11 12 100 15 0.30148
12 12 100 15 0.000148253
13 12 100 15 0.226125
14 12 100 15 0.150731
3 13 100 15 3.44121e-05
4 13 100 15 1.48695e-06
5 13 100 15 4.73749e-05
7 13 100 15 0.0185643
8 13 100 15 0.0608455
9 13 100 15 0.123643
10 13 100 15 6.69966e-07
11 13 100 15 0.123451
12 13 100 15 0.0621809
13 13 100 15 0.0420428
14 13 100 15 0.322277
15 13 100 15 0.246911
5 14 100 15 1.6074e-06
6 14 100 15 0.077262
8 14 100 15 0.0772637
9 14 100 15 0.154527
10 14 100 15 0.154527
11 14 100 15 0.0772637
12 14 100 15 0.0762165
13 14 100 15 0.0738664
14 14 100 15 1.61498e-05
15 14 100 15 0.309055
5 15 100 15 2.22385e-05
10 15 100 15 0.183144
11 15 100 15 0.18319
12 15 100 15 0.368641
13 15 100 15 0.0523028
14 15 100 15 0.0295096
15 15 100 15 0.18319
11 16 100 15 0.210825
12 16 100 15 0.210825
13 16 100 15 0.36302
14 16 100 15 0.21533
2 17 100 15 1.36805e-05
4 17 100 15 0.00127437
5 17 100 15 5.38312e-05
6 17 100 15 0.000828871
8 17 100 15 4.74097e-05
9 17 100 15 3.56526e-06
11 17 100 15 8.4598e-05
12 17 100 15 0.278284
13 17 100 15 0.161362
14 17 100 15 0.279812
15 17 100 15 0.278235
2 18 100 15 1.22896e-06
3 18 100 15 1.45357e-06
5 18 100 15 0.0190758
7 18 100 15 3.48994e-05
10 18 100 15 8.37184e-05
13 18 100 15 0.000365278
14 18 100 15 0.326282
15 18 100 15 0.654156
2 19 100 15 0.000132624
6 19 100 15 1.17443e-05
13 19 100 15 0.549093
14 19 100 15 9.38878e-05
15 19 100 15 0.450669
3 20 100 15 0.000211789
7 20 100 15 2.14434e-05
14 20 100 15 0.999767
5 21 100 15 2.87858e-05
14 21 100 15 0.00278826
15 21 100 15 0.997183
2 0 100 16 0.00121745
3 0 100 16 0.00725098
4 0 100 16 0.00652921
5 0 100 16 0.00277602
6 0 100 16 0.0250687
7 0 100 16 0.112064
8 0 100 16 0.0076436
9 0 100 16 0.0910548
10 0 100 16 0.417858
11 0 100 16 0.228424
12 0 100 16 0.0698602
13 0 100 16 0.0117504
14 0 100 16 0.0184445
15 0 100 16 5.85579e-05
1 1 100 16 0.814854
2 1 100 16 0.181
3 1 100 16 2.52749e-05
4 1 100 16 1.03912e-05
5 1 100 16 4.35783e-05
6 1 100 16 9.90153e-05
9 1 100 16 3.85366e-05
10 1 100 16 0.00371059
11 1 100 16 4.61432e-06
12 1 100 16 0.0002125
13 1 100 16 1.1795e-06
1 2 100 16 0.234952
2 2 100 16 0.409742
3 2 100 16 0.156658
5 2 100 16 0.000359748
7 2 100 16 0.000107773
8 2 100 16 0.0539037
12 2 100 16 0.000127883
13 2 100 16 0.072903
14 2 100 16 0.0712455
2 3 100 16 0.319032
3 3 100 16 0.162985
4 3 100 16 0.126505
5 3 100 16 0.0802229
8 3 100 16 0.00163985
11 3 100 16 0.000153737
13 3 100 16 0.0687677
14 3 100 16 0.160469
15 3 100 16 0.0802239
2 4 100 16 0.0543223
3 4 100 16 0.32443
4 4 100 16 0.271975
5 4 100 16 0.0691962
6 4 100 16 0.0041146
7 4 100 16 0.000244738
8 4 100 16 9.58941e-05
9 4 100 16 2.18874e-05
10 4 100 16 0.000543949
11 4 100 16 9.71593e-06
12 4 100 16 5.71104e-05
13 4 100 16 0.0612301
14 4 100 16 0.0753208
15 4 100 16 0.138438
2 5 100 16 0.0544226
3 5 100 16 0.108236
4 5 100 16 0.295185
5 5 100 16 0.174378
6 5 100 16 0.213828
7 5 100 16 0.00438997
8 5 100 16 0.000548435
9 5 100 16 0.00108053
10 5 100 16 0.0544219
11 5 100 16 8.40131e-07
13 5 100 16 0.00684431
14 5 100 16 0.0354977
15 5 100 16 0.051167
3 6 100 16 0.0712455
4 6 100 16 0.071209
5 6 100 16 0.216709
6 6 100 16 0.21378
7 6 100 16 0.277877
8 6 100 16 0.0708348
9 6 100 16 0.000235389
10 6 100 16 0.0082137
11 6 100 16 0.0697014
12 6 100 16 2.207e-05
14 6 100 16 0.000168595
15 6 100 16 3.14213e-06
1 7 100 16 0.0509997
4 7 100 16 0.0512293
5 7 100 16 0.0898129
6 7 100 16 0.0965611
7 7 100 16 0.102687
8 7 100 16 0.20399
9 7 100 16 0.051013
10 7 100 16 0.0489328
11 7 100 16 0.100547
12 7 100 16 0.204023
13 7 100 16 2.44172e-05
14 7 100 16 6.06065e-05
15 7 100 16 0.000119885
2 8 100 16 1.31872e-06
3 8 100 16 0.0564219
4 8 100 16 0.000330336
5 8 100 16 0.115398
6 8 100 16 0.0586516
7 8 100 16 0.182952
8 8 100 16 0.125299
9 8 100 16 0.116925
10 8 100 16 1.85577e-06
11 8 100 16 0.00104853
12 8 100 16 0.0014488
13 8 100 16 0.116934
14 8 100 16 0.111653
15 8 100 16 0.112936
5 9 100 16 9.83692e-07
6 9 100 16 0.108457
7 9 100 16 0.0542287
8 9 100 16 0.0542287
9 9 100 16 0.162718
10 9 100 16 0.10857
11 9 100 16 0.0542287
12 9 100 16 0.16256
13 9 100 16 0.0611974
14 9 100 16 0.0732559
15 9 100 16 0.106325
16 9 100 16 0.0542287
1 10 100 16 1.1265e-05
2 10 100 16 0.000125663
3 10 100 16 0.0166484
5 10 100 16 0.0614354
6 10 100 16 0.0614143
7 10 100 16 0.0614143
8 10 100 16 0.189237
9 10 100 16 0.221688
10 10 100 16 0.0613881
11 10 100 16 0.0614302
12 10 100 16 2.33906e-05
13 10 100 16 0.0747232
14 10 100 16 0.0614374
15 10 100 16 0.00619471
16 10 100 16 0.122829
3 11 100 16 0.00159048
5 11 100 16 1.75219e-06
7 11 100 16 0.0920383
8 11 100 16 0.00193788
9 11 100 16 0.231517
10 11 100 16 0.234908
11 11 100 16 0.0783334
12 11 100 16 0.128743
13 11 100 16 0.0742339
15 11 100 16 0.156697
3 12 100 16 8.19927e-06
7 12 100 16 0.00661101
8 12 100 16 0.0901183
10 12 100 16 0.270355
11 12 100 16 0.360564
12 12 100 16 0.0913283
13 12 100 16 0.0905763
15 12 100 16 0.000320476
16 12 100 16 0.0901183
7 13 100 16 3.55912e-06
8 13 100 16 7.60845e-05
11 13 100 16 0.167101
12 13 100 16 0.166881
13 13 100 16 0.165413
14 13 100 16 0.166877
15 13 100 16 0.166825
16 13 100 16 0.166823
3 14 100 16 9.7793e-05
4 14 100 16 0.00415804
7 14 100 16 0.0166727
12 14 100 16 0.141417
13 14 100 16 0.122481
14 14 100 16 1.06393e-05
15 14 100 16 0.00827353
16 14 100 16 0.706889
13 15 100 16 0.499795
14 15 100 16 0.500177
15 15 100 16 2.77981e-05
13 16 100 16 1.32507e-05
14 16 100 16 0.499917
15 16 100 16 0.000130018
16 16 100 16 0.49994
13 17 100 16 1.5611e-05
15 17 100 16 0.499776
16 17 100 16 0.500208
2 0 100 17 0.0580953
3 0 100 17 0.078074
4 0 100 17 0.0142843
5 0 100 17 0.000290696
6 0 100 17 0.0470824
7 0 100 17 0.0716827
8 0 100 17 0.0219506
9 0 100 17 0.00189922
10 0 100 17 0.0753933
11 0 100 17 0.154402
12 0 100 17 0.0825137
13 0 100 17 0.000118785
14 0 100 17 0.139253
15 0 100 17 0.190441
16 0 100 17 0.0645195
1 1 100 17 0.620289
2 1 100 17 0.144316
3 1 100 17 1.74138e-05
4 1 100 17 0.0444267
5 1 100 17 6.65718e-06
6 1 100 17 0.000742326
7 1 100 17 6.61168e-06
8 1 100 17 0.0467363
9 1 100 17 1.68558e-06
10 1 100 17 4.25249e-06
12 1 100 17 0.000159821
13 1 100 17 0.0477092
14 1 100 17 5.26722e-06
15 1 100 17 0.0478376
16 1 100 17 0.0477186
17 1 100 17 2.20481e-05
1 2 100 17 0.18739
2 2 100 17 0.476105
3 2 100 17 0.0843422
4 2 100 17 0.0467785
5 2 100 17 0.0468174
7 2 100 17 0.00146268
8 2 100 17 0.000404667
9 2 100 17 0.0407853
10 2 100 17 0.0468744
11 2 100 17 2.40908e-05
12 2 100 17 0.0488364
14 2 100 17 0.00623336
15 2 100 17 0.0139434
16 2 100 17 2.52631e-06
1 3 100 17 0.106215
2 3 100 17 0.254042
3 3 100 17 0.491554
4 3 100 17 0.00025978
5 3 100 17 1.35661e-05
6 3 100 17 0.0531461
7 3 100 17 0.0451424
8 3 100 17 0.0357733
9 3 100 17 0.00655531
10 3 100 17 1.04445e-06
11 3 100 17 0.00142586
12 3 100 17 0.00262238
14 3 100 17 2.44795e-05
15 3 100 17 0.00012728
16 3 100 17 0.00309728
1 4 100 17 0.0719764
3 4 100 17 0.145372
4 4 100 17 0.392683
5 4 100 17 0.11432
6 4 100 17 2.27702e-06
7 4 100 17 0.0704719
8 4 100 17 0.0419208
9 4 100 17 0.0347861
10 4 100 17 0.071927
11 4 100 17 0.055823
12 4 100 17 9.468e-05
14 4 100 17 0.000117827
15 4 100 17 0.00050522
2 5 100 17 0.139051
3 5 100 17 0.0846904
4 5 100 17 0.101236
5 5 100 17 0.315745
6 5 100 17 0.092009
7 5 100 17 0.0800282
9 5 100 17 0.0926807
10 5 100 17 0.0463587
11 5 100 17 0.000204731
12 5 100 17 0.04408
13 5 100 17 4.67108e-06
14 5 100 17 0.00127697
15 5 100 17 0.00263494
1 6 100 17 0.0391974
2 6 100 17 0.00139612
3 6 100 17 0.0391974
4 6 100 17 0.156761
5 6 100 17 0.156976
6 6 100 17 0.242321
7 6 100 17 0.198179
8 6 100 17 0.0784805
9 6 100 17 0.0392003
10 6 100 17 0.00151296
11 6 100 17 0.0391753
12 6 100 17 0.00470805
14 6 100 17 0.00174737
15 6 100 17 0.000351883
16 6 100 17 0.00079501
2 7 100 17 0.00203796
3 7 100 17 0.0907502
4 7 100 17 0.0452167
5 7 100 17 0.0900441
6 7 100 17 0.183383
7 7 100 17 0.0409262
8 7 100 17 0.229381
9 7 100 17 0.134205
10 7 100 17 0.0471692
12 7 100 17 0.0451875
13 7 100 17 0.045185
14 7 100 17 0.0453278
15 7 100 17 0.000108355
16 7 100 17 0.00107857
1 8 100 17 0.053948
2 8 100 17 0.0542267
3 8 100 17 0.000201902
4 8 100 17 0.0544753
5 8 100 17 0.108713
6 8 100 17 0.052799
7 8 100 17 0.2183
8 8 100 17 0.000523592
9 8 100 17 0.228759
10 8 100 17 0.108374
11 8 100 17 8.97419e-05
12 8 100 17 0.000448801
13 8 100 17 0.0604312
14 8 100 17 0.0542859
15 8 100 17 0.00416321
16 8 100 17 0.000260031
2 9 100 17 0.00107074
3 9 100 17 8.22488e-05
4 9 100 17 0.0325503
5 9 100 17 0.0849681
6 9 100 17 0.17271
7 9 100 17 0.00330638
8 9 100 17 0.295903
9 9 100 17 0.109474
10 9 100 17 0.127578
11 9 100 17 0.127518
12 9 100 17 0.0416287
14 9 100 17 0.000438785
15 9 100 17 0.00249054
16 9 100 17 0.000281521
2 10 100 17 0.000493253
3 10 100 17 0.0435064
4 10 100 17 4.34857e-05
5 10 100 17 6.16592e-07
6 10 100 17 0.0457455
7 10 100 17 0.172683
8 10 100 17 0.0435123
9 10 100 17 0.160831
10 10 100 17 0.17054
11 10 100 17 0.0906746
12 10 100 17 0.132892
13 10 100 17 0.0435092
14 10 100 17 0.00110285
15 10 100 17 0.0488405
16 10 100 17 0.0021202
17 10 100 17 0.0435058
3 11 100 17 0.0464414
4 11 100 17 7.59782e-05
5 11 100 17 0.0464191
6 11 100 17 0.0438867
7 11 100 17 0.0463693
8 11 100 17 0.0927277
9 11 100 17 0.0463771
10 11 100 17 0.0924791
11 11 100 17 0.188475
12 11 100 17 0.130791
13 11 100 17 0.180082
14 11 100 17 0.0845414
15 11 100 17 0.00129154
16 11 100 17 4.29327e-05
2 12 100 17 2.06804e-06
3 12 100 17 5.59736e-06
4 12 100 17 0.0445331
6 12 100 17 0.0463145
7 12 100 17 0.0498253
8 12 100 17 0.0498305
9 12 100 17 0.114997
10 12 100 17 0.0989959
11 12 100 17 0.195412
12 12 100 17 0.149569
13 12 100 17 0.099652
14 12 100 17 0.0996483
15 12 100 17 0.0512108
16 12 100 17 4.38077e-06
2 13 100 17 2.23589e-06
3 13 100 17 2.86245e-05
4 13 100 17 0.00382267
6 13 100 17 1.42646e-06
7 13 100 17 0.0114141
8 13 100 17 0.0296058
9 13 100 17 0.044182
10 13 100 17 0.0718005
11 13 100 17 0.0456042
12 13 100 17 0.137789
13 13 100 17 0.179499
14 13 100 17 0.182138
15 13 100 17 0.215963
16 13 100 17 0.0781502
2 14 100 17 0.0037589
4 14 100 17 6.44695e-06
5 14 100 17 0.0320424
6 14 100 17 0.0371483
7 14 100 17 0.0319171
8 14 100 17 0.0320167
9 14 100 17 0.000143806
10 14 100 17 0.0640318
11 14 100 17 0.0640169
12 14 100 17 0.0941219
13 14 100 17 0.128065
14 14 100 17 0.106341
15 14 100 17 0.0960857
16 14 100 17 0.214255
17 14 100 17 0.0960487
2 15 100 17 2.49252e-06
4 15 100 17 0.000127607
7 15 100 17 0.00633749
9 15 100 17 0.000224036
11 15 100 17 0.109119
12 15 100 17 0.00734652
13 15 100 17 0.108791
14 15 100 17 0.109468
15 15 100 17 0.152264
16 15 100 17 0.233848
17 15 100 17 0.272472
2 16 100 17 0.000406833
3 16 100 17 0.000310137
4 16 100 17 1.06848e-06
6 16 100 17 3.31102e-05
7 16 100 17 2.51298e-05
10 16 100 17 1.73654e-05
11 16 100 17 1.85826e-06
12 16 100 17 0.14118
13 16 100 17 0.0727589
14 16 100 17 0.146991
15 16 100 17 0.145408
16 16 100 17 0.202503
17 16 100 17 0.290363
3 17 100 17 2.59705e-05
5 17 100 17 2.1122e-06
8 17 100 17 0.000459657
10 17 100 17 0.000114488
13 17 100 17 0.0798701
14 17 100 17 0.131751
15 17 100 17 0.154124
16 17 100 17 0.154318
17 17 100 17 0.479335
3 18 100 17 0.00124237
14 18 100 17 0.192948
16 18 100 17 0.41164
17 18 100 17 0.394169
3 19 100 17 1.26193e-05
14 19 100 17 0.000239974
15 19 100 17 0.0058443
16 19 100 17 4.75225e-05
17 19 100 17 0.993856
7 20 100 17 0.000115543
13 20 100 17 3.91503e-05
14 20 100 17 0.00524012
15 20 100 17 0.994605
7 21 100 17 5.08675e-05
13 21 100 17 3.30723e-06
14 21 100 17 0.000170081
15 21 100 17 0.000811307
16 21 100 17 0.998964
3 22 100 17 9.07379e-06
6 22 100 17 0.109248
14 22 100 17 1.9391e-05
17 22 100 17 0.890723
2 0 100 18 0.0865522
3 0 100 18 0.000721889
4 0 100 18 0.000231494
5 0 100 18 0.0121943
6 0 100 18 0.00554429
7 0 100 18 0.0932147
8 0 100 18 0.00384397
9 0 100 18 0.11761
10 0 100 18 0.00346565
11 0 100 18 0.117956
13 0 100 18 0.0199586
14 0 100 18 0.186512
15 0 100 18 0.139977
16 0 100 18 0.209779
17 0 100 18 0.0024389
1 1 100 18 0.530599
2 1 100 18 0.183808
3 1 100 18 0.117655
4 1 100 18 0.117851
5 1 100 18 1.60486e-06
6 1 100 18 6.76445e-05
8 1 100 18 0.000266584
9 1 100 18 7.16663e-06
10 1 100 18 8.17404e-06
11 1 100 18 0.0476905
13 1 100 18 0.000430756
15 1 100 18 0.0016145
1 2 100 18 0.337005
2 2 100 18 0.474215
3 2 100 18 0.0918978
4 2 100 18 0.00112781
5 2 100 18 0.047731
6 2 100 18 0.0478423
7 2 100 18 7.29468e-07
8 2 100 18 8.21982e-07
11 2 100 18 5.52121e-05
14 2 100 18 9.45941e-06
15 2 100 18 6.38174e-05
16 2 100 18 5.09618e-05
1 3 100 18 0.0475546
2 3 100 18 0.142686
3 3 100 18 0.43221
4 3 100 18 0.188432
5 3 100 18 0.0485763
7 3 100 18 0.0475958
8 3 100 18 0.0474877
9 3 100 18 1.34625e-06
11 3 100 18 1.83752e-05
12 3 100 18 7.73113e-05
13 3 100 18 3.37709e-05
14 3 100 18 0.00232144
15 3 100 18 4.18188e-05
16 3 100 18 0.0429631
1 4 100 18 1.26902e-06
2 4 100 18 0.0544813
3 4 100 18 0.108942
4 4 100 18 0.382054
5 4 100 18 0.162464
6 4 100 18 1.40905e-06
7 4 100 18 9.39636e-07
9 4 100 18 0.0544843
10 4 100 18 0.0569312
11 4 100 18 0.0544813
12 4 100 18 0.0544788
14 4 100 18 0.00131099
16 4 100 18 0.0158854
17 4 100 18 0.0544825
2 5 100 18 0.00148674
3 5 100 18 9.0091e-06
4 5 100 18 0.09262
5 5 100 18 0.475984
6 5 100 18 0.207409
7 5 100 18 0.00243643
8 5 100 18 3.90932e-05
9 5 100 18 1.55408e-05
10 5 100 18 0.0691051
11 5 100 18 0.00956411
13 5 100 18 0.0691024
14 5 100 18 0.000954161
15 5 100 18 0.000961787
16 5 100 18 0.0702926
17 5 100 18 2.03665e-05
2 6 100 18 4.66619e-06
3 6 100 18 0.0582353
4 6 100 18 0.0383505
5 6 100 18 0.116487
6 6 100 18 0.347629
7 6 100 18 0.152972
9 6 100 18 5.72855e-06
10 6 100 18 0.00313692
11 6 100 18 0.0601297
13 6 100 18 0.000361795
14 6 100 18 0.00126422
15 6 100 18 0.00315839
16 6 100 18 0.116165
17 6 100 18 0.102099
2 7 100 18 0.00446113
4 7 100 18 0.059487
5 7 100 18 0.0594968
6 7 100 18 0.119538
7 7 100 18 0.238147
8 7 100 18 0.238817
9 7 100 18 0.0595131
10 7 100 18 0.0542818
11 7 100 18 1.25261e-05
12 7 100 18 0.0594961
13 7 100 18 9.02307e-05
14 7 100 18 2.07362e-05
15 7 100 18 0.106548
16 7 100 18 8.99124e-05
1 8 100 18 0.0372555
3 8 100 18 0.0372552
4 8 100 18 0.0372877
5 8 100 18 0.0745236
6 8 100 18 0.0745652
7 8 100 18 0.165944
8 8 100 18 0.148607
9 8 100 18 0.104293
10 8 100 18 0.109872
11 8 100 18 0.0741666
13 8 100 18 0.0328807
14 8 100 18 0.0584253
15 8 100 18 0.000555326
16 8 100 18 5.5045e-06
17 8 100 18 0.00717197
18 8 100 18 0.0371913
3 9 100 18 0.045818
4 9 100 18 1.0288e-06
5 9 100 18 6.08511e-07
6 9 100 18 0.0915935
7 9 100 18 0.0458176
8 9 100 18 0.179931
9 9 100 18 0.268717
11 9 100 18 0.0921524
12 9 100 18 0.183272
13 9 100 18 0.0459811
14 9 100 18 0.000879881
15 9 100 18 0.0458346
17 9 100 18 1.21738e-06
2 10 100 18 1.24243e-06
3 10 100 18 2.33482e-05
4 10 100 18 0.0490838
5 10 100 18 5.48743e-07
6 10 100 18 0.000321719
7 10 100 18 0.147137
8 10 100 18 0.0014984
9 10 100 18 0.0551892
10 10 100 18 0.151016
11 10 100 18 0.0180519
12 10 100 18 0.097594
13 10 100 18 0.146819
14 10 100 18 0.175339
15 10 100 18 0.0788576
16 10 100 18 0.0789831
17 10 100 18 8.29772e-05
5 11 100 18 0.0444824
6 11 100 18 0.0439168
8 11 100 18 0.133298
9 11 100 18 0.138941
10 11 100 18 0.0888675
11 11 100 18 0.100495
12 11 100 18 2.03351e-06
13 11 100 18 0.088491
14 11 100 18 0.0888655
15 11 100 18 0.093246
16 11 100 18 0.0460951
17 11 100 18 0.0888668
18 11 100 18 0.0444328
2 12 100 18 0.00136815
5 12 100 18 1.37227e-06
6 12 100 18 0.0502168
7 12 100 18 6.62524e-05
8 12 100 18 0.0519241
9 12 100 18 0.0519788
10 12 100 18 0.255678
11 12 100 18 0.117569
12 12 100 18 0.0519255
13 12 100 18 0.00138932
14 12 100 18 0.000568418
15 12 100 18 0.209552
16 12 100 18 0.155835
17 12 100 18 0.0519264
4 13 100 18 1.02083e-05
6 13 100 18 3.24872e-05
7 13 100 18 7.63077e-06
8 13 100 18 0.0671377
9 13 100 18 0.000282052
10 13 100 18 0.0671021
11 13 100 18 0.204043
12 13 100 18 0.202087
13 13 100 18 0.00146478
14 13 100 18 0.0343462
15 13 100 18 0.00180313
16 13 100 18 0.0715599
17 13 100 18 0.215848
18 13 100 18 0.134276
2 14 100 18 6.12826e-07
4 14 100 18 8.43048e-07
5 14 100 18 1.62354e-05
7 14 100 18 0.0570819
8 14 100 18 3.12544e-05
9 14 100 18 0.0558005
10 14 100 18 0.00129671
11 14 100 18 0.111591
12 14 100 18 0.0557954
13 14 100 18 0.274804
14 14 100 18 0.0650134
15 14 100 18 0.0563917
16 14 100 18 0.0558302
17 14 100 18 0.0989609
18 14 100 18 0.167386
2 15 100 18 0.00155723
4 15 100 18 2.14977e-05
6 15 100 18 3.64855e-05
10 15 100 18 0.0975305
11 15 100 18 6.54065e-05
12 15 100 18 0.397345
13 15 100 18 0.000151612
14 15 100 18 0.187223
15 15 100 18 0.00325686
16 15 100 18 0.0146825
17 15 100 18 0.198623
18 15 100 18 0.099507
2 16 100 18 2.97397e-05
6 16 100 18 0.000109106
8 16 100 18 1.04058e-05
10 16 100 18 5.59043e-05
12 16 100 18 0.0609697
13 16 100 18 0.301861
14 16 100 18 0.147434
15 16 100 18 0.182899
16 16 100 18 0.0610628
17 16 100 18 0.123629
18 16 100 18 0.121939
14 17 100 18 0.251912
15 17 100 18 0.0831227
16 17 100 18 0.249387
17 17 100 18 0.166231
18 17 100 18 0.249347
2 18 100 18 0.0241911
10 18 100 18 0.000312961
11 18 100 18 2.67468e-05
13 18 100 18 0.00142374
15 18 100 18 0.243072
16 18 100 18 0.000139691
17 18 100 18 0.245493
18 18 100 18 0.485341
6 19 100 18 0.000262179
15 19 100 18 3.15653e-05
18 19 100 18 0.999706
2 0 100 19 0.010165
3 0 100 19 0.139026
4 0 100 19 0.169666
5 0 100 19 0.00132855
6 0 100 19 0.0357889
7 0 100 19 0.0174542
8 0 100 19 0.000565494
9 0 100 19 0.162346
10 0 100 19 0.00832366
11 0 100 19 0.0277753
12 0 100 19 0.0216542
13 0 100 19 0.00087547
14 0 100 19 0.0888599
15 0 100 19 0.0418714
16 0 100 19 0.0600218
17 0 100 19 0.20442
18 0 100 19 0.00985841
1 1 100 19 0.485983
2 1 100 19 0.121593
3 1 100 19 0.0998882
4 1 100 19 0.00522023
5 1 100 19 0.0607577
6 1 100 19 8.23649e-05
7 1 100 19 0.0573872
8 1 100 19 0.000905869
9 1 100 19 0.019101
10 1 100 19 0.0583245
11 1 100 19 7.17818e-05
12 1 100 19 0.00207395
14 1 100 19 0.018531
15 1 100 19 0.00199441
16 1 100 19 1.39168e-05
17 1 100 19 0.0659906
18 1 100 19 0.00208104
1 2 100 19 0.334517
2 2 100 19 0.367241
3 2 100 19 0.0846363
4 2 100 19 0.0430792
6 2 100 19 0.0280728
7 2 100 19 4.05405e-07
8 2 100 19 0.0374504
10 2 100 19 1.22074e-05
11 2 100 19 0.0389509
12 2 100 19 0.000207471
13 2 100 19 0.000483028
14 2 100 19 0.0279505
15 2 100 19 3.21218e-06
16 2 100 19 0.000264756
17 2 100 19 0.000192766
18 2 100 19 0.0369376
1 3 100 19 0.136968
2 3 100 19 0.271806
3 3 100 19 0.313186
4 3 100 19 0.046794
5 3 100 19 0.0906611
6 3 100 19 0.000276643
8 3 100 19 0.000474764
9 3 100 19 0.00119456
10 3 100 19 0.000226438
11 3 100 19 0.00017695
12 3 100 19 0.0448104
13 3 100 19 0.0450084
14 3 100 19 0.00282677
15 3 100 19 0.00637879
16 3 100 19 0.0391178
17 3 100 19 6.53824e-05
18 3 100 19 2.85637e-05
1 4 100 19 0.152003
2 4 100 19 0.114191
3 4 100 19 0.187352
4 4 100 19 0.259667
5 4 100 19 0.0367778
6 4 100 19 0.0377179
7 4 100 19 6.79729e-05
8 4 100 19 0.0366758
9 4 100 19 0.0356286
10 4 100 19 4.53969e-07
11 4 100 19 0.026297
12 4 100 19 9.86001e-06
14 4 100 19 0.0387075
15 4 100 19 0.0368092
16 4 100 19 4.83301e-05
17 4 100 19 0.0380095
18 4 100 19 3.77119e-05
1 5 100 19 0.0522605
2 5 100 19 0.104812
3 5 100 19 0.129553
4 5 100 19 0.187947
5 5 100 19 0.201902
6 5 100 19 0.0245154
7 5 100 19 0.0522289
8 5 100 19 0.0262082
9 5 100 19 0.0784133
11 5 100 19 5.40731e-05
12 5 100 19 2.07201e-05
13 5 100 19 0.0261302
14 5 100 19 0.0522595
15 5 100 19 0.0360256
16 5 100 19 1.28774e-05
17 5 100 19 0.00261857
18 5 100 19 0.0250366
2 6 100 19 0.0302908
3 6 100 19 0.0898445
4 6 100 19 0.0300152
5 6 100 19 0.177993
6 6 100 19 0.189994
7 6 100 19 0.119643
8 6 100 19 0.0607064
9 6 100 19 0.0934474
10 6 100 19 0.0300993
11 6 100 19 0.0300934
12 6 100 19 0.03009
13 6 100 19 0.0300889
14 6 100 19 1.92773e-06
15 6 100 19 0.027374
16 6 100 19 0.0599705
17 6 100 19 0.000341931
18 6 100 19 4.73097e-06
2 7 100 19 0.0013622
3 7 100 19 0.000690576
4 7 100 19 0.165173
5 7 100 19 0.00170496
6 7 100 19 0.208056
7 7 100 19 0.165627
8 7 100 19 0.124717
9 7 100 19 0.0413166
10 7 100 19 0.123873
11 7 100 19 1.22698e-05
12 7 100 19 2.9936e-05
13 7 100 19 4.14773e-05
14 7 100 19 0.0417126
15 7 100 19 0.0257387
16 7 100 19 0.000191304
17 7 100 19 0.0997078
18 7 100 19 4.49828e-05
2 8 100 19 0.000316127
4 8 100 19 1.35115e-06
5 8 100 19 0.171876
6 8 100 19 0.0694179
7 8 100 19 0.207951
8 8 100 19 0.103174
9 8 100 19 0.138772
10 8 100 19 0.0373353
11 8 100 19 0.10446
12 8 100 19 0.0296946
13 8 100 19 2.07692e-05
14 8 100 19 4.69719e-05
15 8 100 19 0.0346842
16 8 100 19 0.0347096
17 8 100 19 0.035497
18 8 100 19 0.0320441
3 9 100 19 0.000383942
4 9 100 19 0.0239291
5 9 100 19 6.97708e-07
6 9 100 19 0.160115
7 9 100 19 0.0484404
8 9 100 19 0.167525
9 9 100 19 0.0720572
10 9 100 19 0.16756
11 9 100 19 0.119238
12 9 100 19 0.123346
13 9 100 19 0.0239322
14 9 100 19 0.0239284
15 9 100 19 0.000473321
16 9 100 19 3.72698e-06
17 9 100 19 0.0240513
18 9 100 19 0.0239246
19 9 100 19 0.0210915
5 10 100 19 0.0251423
6 10 100 19 1.73573e-06
7 10 100 19 0.1252
8 10 100 19 0.0495742
9 10 100 19 0.100143
10 10 100 19 0.100156
11 10 100 19 0.12558
12 10 100 19 0.0986555
13 10 100 19 0.1252
14 10 100 19 0.02504
15 10 100 19 0.0750834
16 10 100 19 0.0500878
17 10 100 19 0.0500827
18 10 100 19 0.0500529
3 11 100 19 0.000568731
4 11 100 19 0.00174546
5 11 100 19 0.00151832
6 11 100 19 4.51475e-05
8 11 100 19 0.128588
9 11 100 19 0.0680168
10 11 100 19 0.125991
11 11 100 19 0.0702061
12 11 100 19 0.12666
13 11 100 19 0.09512
14 11 100 19 0.0965845
15 11 100 19 0.0304902
16 11 100 19 0.128509
17 11 100 19 0.0638039
18 11 100 19 0.062154
3 12 100 19 3.26297e-05
4 12 100 19 0.00508916
5 12 100 19 5.94025e-06
6 12 100 19 0.000122009
7 12 100 19 0.0480128
8 12 100 19 2.65264e-06
9 12 100 19 0.0960474
10 12 100 19 0.0997265
11 12 100 19 0.0875723
12 12 100 19 0.234858
13 12 100 19 0.191856
14 12 100 19 0.000390027
15 12 100 19 0.0939085
16 12 100 19 5.79127e-05
17 12 100 19 0.0960665
18 12 100 19 0.0462508
1 13 100 19 0.032309
2 13 100 19 1.16343e-05
3 13 100 19 0.0323089
4 13 100 19 0.032309
5 13 100 19 0.0323093
6 13 100 19 0.0309706
9 13 100 19 0.000292354
10 13 100 19 0.0646184
11 13 100 19 0.0966012
12 13 100 19 0.0647293
13 13 100 19 0.129233
14 13 100 19 0.193299
15 13 100 19 0.0351437
16 13 100 19 0.0652743
17 13 100 19 0.0323728
18 13 100 19 0.125908
19 13 100 19 0.032309
2 14 100 19 0.0417938
4 14 100 19 0.0418354
6 14 100 19 0.0418601
7 14 100 19 4.70553e-05
8 14 100 19 0.0418153
9 14 100 19 1.41151e-05
11 14 100 19 0.163731
12 14 100 19 0.0418624
13 14 100 19 0.125407
14 14 100 19 0.126725
15 14 100 19 0.116397
16 14 100 19 0.0911544
17 14 100 19 0.0418425
18 14 100 19 8.30452e-06
19 14 100 19 0.125506
3 15 100 19 0.0311424
4 15 100 19 0.0312558
5 15 100 19 0.072877
7 15 100 19 0.0276195
8 15 100 19 0.0311841
9 15 100 19 2.71183e-05
10 15 100 19 5.1094e-06
11 15 100 19 7.05351e-07
12 15 100 19 0.0931753
13 15 100 19 0.0323312
14 15 100 19 0.0628113
15 15 100 19 0.174923
16 15 100 19 0.148493
17 15 100 19 0.103443
18 15 100 19 0.0936083
19 15 100 19 0.0971032
2 16 100 19 0.000276316
4 16 100 19 2.72411e-06
5 16 100 19 0.000126467
6 16 100 19 0.0978696
9 16 100 19 0.0499228
10 16 100 19 2.17497e-06
12 16 100 19 9.13882e-07
13 16 100 19 0.14975
14 16 100 19 0.149842
15 16 100 19 0.050273
16 16 100 19 0.103834
17 16 100 19 0.0996707
18 16 100 19 0.148679
19 16 100 19 0.14975
6 17 100 19 0.000718769
7 17 100 19 0.0643292
8 17 100 19 0.0643241
10 17 100 19 0.0643253
12 17 100 19 2.17844e-05
14 17 100 19 0.128646
15 17 100 19 0.201433
16 17 100 19 0.160328
17 17 100 19 0.128769
18 17 100 19 0.122781
19 17 100 19 0.0643241
3 18 100 19 0.0016729
6 18 100 19 6.23397e-07
7 18 100 19 7.99848e-06
9 18 100 19 0.0574178
10 18 100 19 5.85397e-07
11 18 100 19 0.00448968
15 18 100 19 0.115792
16 18 100 19 0.0603125
17 18 100 19 0.1156
18 18 100 19 0.185364
19 18 100 19 0.459342
2 19 100 19 0.000250672
10 19 100 19 0.0984858
16 19 100 19 0.222938
17 19 100 19 0.000280842
18 19 100 19 0.232169
19 19 100 19 0.445876
17 20 100 19 0.345309
19 20 100 19 0.654691
2 21 100 19 1.94289e-05
5 21 100 19 2.29409e-05
8 21 100 19 2.72942e-05
14 21 100 19 7.17721e-05
17 21 100 19 0.999859
18 22 100 19 1
17 23 100 19 0.00152048
19 23 100 19 0.99848
2 0 100 20 0.0103719
3 0 100 20 0.172008
4 0 100 20 0.00110329
5 0 100 20 0.0770551
6 0 100 20 0.0573892
7 0 100 20 0.00629657
8 0 100 20 0.00309867
9 0 100 20 0.112333
10 0 100 20 0.0563733
11 0 100 20 0.0994816
12 0 100 20 0.0012675
13 0 100 20 4.47247e-05
14 0 100 20 0.0768754
15 0 100 20 0.110914
16 0 100 20 0.0606841
17 0 100 20 0.1036
18 0 100 20 0.0321158
19 0 100 20 0.0189882
1 1 100 20 0.446725
2 1 100 20 0.183483
3 1 100 20 0.0817073
4 1 100 20 0.0369151
5 1 100 20 0.0407249
6 1 100 20 2.79996e-05
8 1 100 20 0.0859213
9 1 100 20 0.0812977
10 1 100 20 8.38117e-06
11 1 100 20 0.00115841
12 1 100 20 2.92482e-06
13 1 100 20 2.73908e-06
14 1 100 20 0.0409506
15 1 100 20 0.000376324
17 1 100 20 2.39594e-05
18 1 100 20 0.00040821
19 1 100 20 0.000184732
20 1 100 20 8.10871e-05
1 2 100 20 0.361489
2 2 100 20 0.263981
3 2 100 20 0.166519
4 2 100 20 0.0734008
5 2 100 20 1.81986e-06
6 2 100 20 3.30037e-05
7 2 100 20 0.0763643
10 2 100 20 0.00019313
11 2 100 20 6.07515e-05
12 2 100 20 0.000417702
13 2 100 20 0.000115701
14 2 100 20 2.61913e-05
15 2 100 20 0.0451144
17 2 100 20 0.00156763
18 2 100 20 0.000280038
19 2 100 20 0.0104351
1 3 100 20 0.211041
2 3 100 20 0.266657
3 3 100 20 0.116488
4 3 100 20 0.186681
5 3 100 20 0.0419285
6 3 100 20 0.0351065
7 3 100 20 1.23553e-06
9 3 100 20 1.41932e-06
10 3 100 20 0.0341684
11 3 100 20 0.0346716
12 3 100 20 5.13573e-06
13 3 100 20 4.40318e-05
14 3 100 20 2.66595e-05
15 3 100 20 5.66514e-06
16 3 100 20 0.0351985
17 3 100 20 0.03788
18 3 100 20 7.55495e-05
19 3 100 20 2.02252e-05
2 4 100 20 0.225094
3 4 100 20 0.304085
4 4 100 20 0.171779
5 4 100 20 0.157552
6 4 100 20 0.000134635
7 4 100 20 0.0452543
8 4 100 20 8.51497e-05
9 4 100 20 0.00167169
10 4 100 20 0.00269698
11 4 100 20 0.0448696
12 4 100 20 1.64955e-06
14 4 100 20 4.80119e-06
15 4 100 20 0.00220265
17 4 100 20 2.44896e-05
18 4 100 20 0.0445086
19 4 100 20 3.54572e-05
2 5 100 20 0.0791904
3 5 100 20 0.0954892
4 5 100 20 0.303312
5 5 100 20 0.0798343
6 5 100 20 0.180521
7 5 100 20 0.0430127
8 5 100 20 0.0428631
9 5 100 20 0.0429406
10 5 100 20 0.000215745
11 5 100 20 7.70328e-07
12 5 100 20 0.0405548
13 5 100 20 0.000244402
14 5 100 20 3.09758e-06
15 5 100 20 0.0429319
16 5 100 20 1.24e-05
17 5 100 20 0.0049808
18 5 100 20 0.000166359
19 5 100 20 0.0437263
2 6 100 20 6.50659e-05
3 6 100 20 0.0322674
4 6 100 20 0.064969
5 6 100 20 0.259158
6 6 100 20 0.127748
7 6 100 20 0.161337
8 6 100 20 0.0322499
9 6 100 20 0.0644998
10 6 100 20 0.0967398
11 6 100 20 6.15319e-05
12 6 100 20 0.032226
14 6 100 20 0.000254245
15 6 100 20 0.000139429
16 6 100 20 0.0967442
17 6 100 20 1.19282e-06
18 6 100 20 0.0315397
2 7 100 20 0.000648589
3 7 100 20 0.0707283
4 7 100 20 0.00750284
5 7 100 20 0.0629009
6 7 100 20 0.183602
7 7 100 20 0.125176
8 7 100 20 0.21474
9 7 100 20 0.0310347
10 7 100 20 0.0275774
11 7 100 20 0.0312659
12 7 100 20 0.00015298
13 7 100 20 0.0312658
14 7 100 20 0.00017117
15 7 100 20 0.0311522
16 7 100 20 0.0313487
17 7 100 20 0.0937456
18 7 100 20 0.0321517
19 7 100 20 0.0248347
2 8 100 20 1.22573e-06
3 8 100 20 0.000185548
4 8 100 20 0.0615219
5 8 100 20 0.0519352
6 8 100 20 0.0643175
7 8 100 20 0.123041
8 8 100 20 0.0910341
9 8 100 20 0.243693
10 8 100 20 0.0615412
11 8 100 20 0.0610851
12 8 100 20 0.0612562
14 8 100 20 0.03078
15 8 100 20 7.06749e-07
16 8 100 20 0.000261757
17 8 100 20 0.000511328
18 8 100 20 0.0624345
19 8 100 20 0.0864004
2 9 100 20 5.3622e-06
3 9 100 20 1.21699e-05
4 9 100 20 1.34295e-06
5 9 100 20 0.0775811
6 9 100 20 0.0297504
7 9 100 20 0.120013
8 9 100 20 0.223814
9 9 100 20 0.077384
10 9 100 20 0.263896
11 9 100 20 0.00732297
12 9 100 20 0.0372267
13 9 100 20 0.0745241
14 9 100 20 5.7597e-06
15 9 100 20 0.00476101
16 9 100 20 0.00109298
17 9 100 20 0.0375443
18 9 100 20 0.00233565
19 9 100 20 0.0054383
20 9 100 20 0.0372915
2 10 100 20 6.96737e-05
3 10 100 20 4.24266e-05
4 10 100 20 2.08542e-06
5 10 100 20 0.0913421
6 10 100 20 0.0477636
8 10 100 20 0.0953854
9 10 100 20 0.0975803
10 10 100 20 0.0955613
11 10 100 20 0.334042
12 10 100 20 0.04765
13 10 100 20 0.0954374
14 10 100 20 0.0477187
15 10 100 20 7.58652e-07
16 10 100 20 2.47717e-06
17 10 100 20 0.000548795
18 10 100 20 0.0468525
19 10 100 20 7.50858e-07
2 11 100 20 4.3332e-06
3 11 100 20 1.53801e-05
4 11 100 20 2.23006e-06
5 11 100 20 2.10466e-05
6 11 100 20 0.130891
7 11 100 20 0.0408173
8 11 100 20 3.58497e-06
9 11 100 20 0.11185
10 11 100 20 0.128155
11 11 100 20 0.0428058
12 11 100 20 0.342131
13 11 100 20 2.69731e-05
14 11 100 20 0.0856585
15 11 100 20 0.0428072
18 11 100 20 0.0739919
19 11 100 20 0.000818071
2 12 100 20 1.92329e-05
3 12 100 20 0.000892728
4 12 100 20 7.28051e-05
6 12 100 20 0.00615315
7 12 100 20 0.0827346
8 12 100 20 0.0375925
9 12 100 20 0.00061246
10 12 100 20 0.123843
11 12 100 20 0.16756
12 12 100 20 0.0425039
13 12 100 20 0.325816
14 12 100 20 0.041231
15 12 100 20 0.0416691
16 12 100 20 0.0402678
17 12 100 20 0.000410538
18 12 100 20 0.00551209
19 12 100 20 0.042213
20 12 100 20 0.0408958
3 13 100 20 0.000593756
4 13 100 20 9.41282e-06
5 13 100 20 0.0123866
7 13 100 20 5.92224e-06
8 13 100 20 0.0938984
9 13 100 20 0.0664413
10 13 100 20 0.00209917
11 13 100 20 0.0921902
12 13 100 20 0.272981
13 13 100 20 0.0469031
14 13 100 20 0.222195
15 13 100 20 0.0469018
16 13 100 20 0.0939222
17 13 100 20 0.0470272
18 13 100 20 0.00234116
19 13 100 20 8.25732e-05
20 13 100 20 2.09413e-05
2 14 100 20 7.67362e-07
3 14 100 20 5.72537e-06
4 14 100 20 0.038596
5 14 100 20 0.000268871
6 14 100 20 0.0391515
7 14 100 20 0.0391084
8 14 100 20 0.00316999
9 14 100 20 0.00194697
10 14 100 20 1.26066e-05
11 14 100 20 0.0429834
12 14 100 20 0.0455324
13 14 100 20 0.157555
14 14 100 20 0.0819884
15 14 100 20 0.195759
16 14 100 20 0.0783029
17 14 100 20 0.118457
18 14 100 20 0.0791775
19 14 100 20 0.0779832
3 15 100 20 1.57532e-05
4 15 100 20 1.07965e-05
5 15 100 20 3.86738e-05
6 15 100 20 6.79923e-07
7 15 100 20 0.0338553
8 15 100 20 9.36558e-06
9 15 100 20 0.0288028
10 15 100 20 0.0340711
11 15 100 20 0.0340711
12 15 100 20 0.0343397
13 15 100 20 0.102187
14 15 100 20 0.13106
15 15 100 20 0.102221
16 15 100 20 0.134781
17 15 100 20 0.0681276
18 15 100 20 0.13409
19 15 100 20 0.128248
20 15 100 20 0.0340711
2 16 100 20 4.42523e-06
3 16 100 20 0.0317569
4 16 100 20 9.48422e-06
5 16 100 20 0.00571127
8 16 100 20 3.88049e-05
10 16 100 20 0.0375454
12 16 100 20 0.0374777
13 16 100 20 0.0375034
14 16 100 20 0.113022
15 16 100 20 0.11141
16 16 100 20 0.150579
17 16 100 20 0.0812811
18 16 100 20 0.0941767
19 16 100 20 0.149583
20 16 100 20 0.149901
2 17 100 20 3.77204e-06
3 17 100 20 1.76037e-06
4 17 100 20 0.0454074
6 17 100 20 5.24952e-07
9 17 100 20 0.0059017
11 17 100 20 0.0454435
12 17 100 20 0.000418717
13 17 100 20 0.0454428
14 17 100 20 0.0457854
15 17 100 20 0.0908495
16 17 100 20 0.0908845
17 17 100 20 0.220847
18 17 100 20 0.0909151
19 17 100 20 0.0908843
20 17 100 20 0.227214
2 18 100 20 6.53429e-07
5 18 100 20 3.6731e-05
6 18 100 20 4.28407e-06
9 18 100 20 3.69536e-06
12 18 100 20 0.0602417
13 18 100 20 0.0602388
14 18 100 20 0.120486
15 18 100 20 0.0602417
16 18 100 20 0.0602417
17 18 100 20 0.121005
18 18 100 20 0.0628736
19 18 100 20 0.213659
20 18 100 20 0.240967
3 19 100 20 0.000118389
5 19 100 20 0.000136612
6 19 100 20 0.082445
9 19 100 20 3.34339e-05
12 19 100 20 2.99974e-05
13 19 100 20 0.0903782
14 19 100 20 1.22792e-05
15 19 100 20 0.0900842
16 19 100 20 0.0903782
17 19 100 20 0.0912903
18 19 100 20 0.270442
19 19 100 20 0.0135166
20 19 100 20 0.271135
7 20 100 20 1.32535e-06
10 20 100 20 1.42418e-06
11 20 100 20 0.0824418
14 20 100 20 0.0824418
15 20 100 20 0.0824418
16 20 100 20 0.0824053
17 20 100 20 0.0819003
18 20 100 20 0.161248
19 20 100 20 0.262235
20 20 100 20 0.164884
9 21 100 20 0.000965278
13 21 100 20 1.11402e-05
15 21 100 20 0.249187
16 21 100 20 0.24918
17 21 100 20 0.00219134
19 21 100 20 0.000105409
20 21 100 20 0.49836
3 22 100 20 1.7386e-05
5 22 100 20 0.000550527
7 22 100 20 0.00031376
12 22 100 20 9.25478e-05
16 22 100 20 0.00863625
17 22 100 20 0.191567
18 22 100 20 0.000374955
19 22 100 20 0.00114645
20 22 100 20 0.797301
2 0 100 21 0.0563678
3 0 100 21 0.115809
4 0 100 21 0.0245857
5 0 100 21 0.0321643
6 0 100 21 0.0931749
7 0 100 21 0.0295147
8 0 100 21 0.0743671
9 0 100 21 0.0378804
10 0 100 21 0.0134404
11 0 100 21 0.0329131
12 0 100 21 0.0415281
13 0 100 21 0.0138527
14 0 100 21 0.0567645
15 0 100 21 0.0262108
16 0 100 21 0.0100004
17 0 100 21 0.181581
18 0 100 21 0.0896486
19 0 100 21 0.0697805
20 0 100 21 0.000416771
1 1 100 21 0.652347
2 1 100 21 0.195028
3 1 100 21 0.00186676
4 1 100 21 0.00158617
5 1 100 21 2.79944e-06
6 1 100 21 0.00515364
7 1 100 21 0.000140124
8 1 100 21 1.59165e-05
9 1 100 21 6.83151e-05
10 1 100 21 0.000511543
12 1 100 21 0.000805052
14 1 100 21 9.67291e-06
15 1 100 21 1.75418e-06
16 1 100 21 0.000371997
17 1 100 21 0.000193841
18 1 100 21 0.0942197
19 1 100 21 0.0476772
1 2 100 21 0.34337
2 2 100 21 0.339954
3 2 100 21 0.0931791
4 2 100 21 0.0312308
5 2 100 21 0.000146115
6 2 100 21 0.00189355
7 2 100 21 0.0384664
8 2 100 21 0.00016666
9 2 100 21 0.0312161
10 2 100 21 0.000155031
11 2 100 21 1.62392e-06
12 2 100 21 0.000222353
13 2 100 21 0.0299865
14 2 100 21 8.01716e-06
15 2 100 21 0.0312153
16 2 100 21 4.73421e-06
17 2 100 21 3.28953e-05
18 2 100 21 7.58666e-06
19 2 100 21 0.0320922
20 2 100 21 0.0266505
1 3 100 21 0.0330924
2 3 100 21 0.208746
3 3 100 21 0.332636
4 3 100 21 0.0347922
5 3 100 21 0.0651495
6 3 100 21 0.00139324
7 3 100 21 0.0330781
8 3 100 21 0.0598002
9 3 100 21 1.1558e-06
10 3 100 21 0.0331023
11 3 100 21 0.0330917
12 3 100 21 0.0337183
13 3 100 21 0.000493321
14 3 100 21 0.0330884
15 3 100 21 0.000307548
16 3 100 21 0.0193858
17 3 100 21 0.000236203
18 3 100 21 9.57226e-05
19 3 100 21 0.0348969
20 3 100 21 0.0428953
1 4 100 21 0.0518175
2 4 100 21 0.0828205
3 4 100 21 0.200788
4 4 100 21 0.335995
5 4 100 21 0.0822977
6 4 100 21 0.0260625
7 4 100 21 0.0259113
8 4 100 21 0.00365972
9 4 100 21 1.2259e-05
10 4 100 21 0.023211
11 4 100 21 0.0259705
12 4 100 21 3.42685e-05
13 4 100 21 0.000581179
14 4 100 21 4.597e-05
15 4 100 21 0.0259993
16 4 100 21 1.90692e-06
17 4 100 21 0.0560926
18 4 100 21 0.0293447
19 4 100 21 0.0259115
20 4 100 21 0.00344305
1 5 100 21 0.0614328
2 5 100 21 0.0307477
3 5 100 21 0.0963597
4 5 100 21 0.109692
5 5 100 21 0.304664
6 5 100 21 0.122144
7 5 100 21 0.0620227
8 5 100 21 0.000131632
9 5 100 21 1.21592e-05
10 5 100 21 0.000119336
11 5 100 21 1.39782e-05
12 5 100 21 0.0306115
13 5 100 21 6.65849e-05
14 5 100 21 0.0305448
15 5 100 21 3.66443e-07
16 5 100 21 0.0300909
17 5 100 21 0.0267269
18 5 100 21 0.0635013
19 5 100 21 0.030647
20 5 100 21 0.00047029
1 6 100 21 0.0252834
2 6 100 21 0.0747412
3 6 100 21 0.0252834
4 6 100 21 0.0950797
5 6 100 21 0.126277
6 6 100 21 0.155205
7 6 100 21 0.172516
8 6 100 21 0.0977888
11 6 100 21 4.55384e-06
12 6 100 21 0.0254301
13 6 100 21 0.0506006
14 6 100 21 0.0252884
15 6 100 21 0.0505952
16 6 100 21 0.0252884
17 6 100 21 0.025311
18 6 100 21 8.05395e-07
19 6 100 21 5.28555e-07
20 6 100 21 0.025306
2 7 100 21 0.0295234
3 7 100 21 0.00278647
4 7 100 21 0.117191
5 7 100 21 0.0880076
6 7 100 21 0.0884273
7 7 100 21 0.121134
8 7 100 21 0.146663
9 7 100 21 0.176325
10 7 100 21 3.29845e-05
11 7 100 21 0.0276227
12 7 100 21 0.029316
13 7 100 21 0.0557088
14 7 100 21 0.0274208
15 7 100 21 5.71929e-06
16 7 100 21 0.0294163
17 7 100 21 0.000111593
18 7 100 21 0.0549271
19 7 100 21 0.00314181
20 7 100 21 0.0022387
1 8 100 21 0.051429
2 8 100 21 0.025681
3 8 100 21 0.0475597
4 8 100 21 0.0512157
5 8 100 21 0.104356
6 8 100 21 0.103206
7 8 100 21 0.10345
8 8 100 21 0.103527
9 8 100 21 0.155457
10 8 100 21 0.102988
12 8 100 21 0.0270079
13 8 100 21 6.88065e-05
14 8 100 21 0.0767808
15 8 100 21 1.2512e-06
16 8 100 21 2.04598e-05
17 8 100 21 0.0258722
18 8 100 21 0.000195954
19 8 100 21 0.0211776
20 8 100 21 4.99696e-06
2 9 100 21 0.0294597
3 9 100 21 0.000293623
5 9 100 21 0.0295315
6 9 100 21 0.144697
7 9 100 21 0.0883433
8 9 100 21 0.146005
9 9 100 21 0.118524
10 9 100 21 0.159012
11 9 100 21 0.117567
12 9 100 21 0.0475366
13 9 100 21 0.0294398
14 9 100 21 1.5728e-05
15 9 100 21 0.0588693
16 9 100 21 0.0294692
17 9 100 21 0.000811861
18 9 100 21 0.000145861
20 9 100 21 0.000274439
21 9 100 21 3.72867e-06
3 10 100 21 0.051897
4 10 100 21 0.0264297
5 10 100 21 1.28967e-05
6 10 100 21 0.0541048
7 10 100 21 0.0312826
8 10 100 21 0.183951
9 10 100 21 0.131224
10 10 100 21 0.192721
11 10 100 21 0.100495
12 10 100 21 0.0533944
13 10 100 21 0.0265942
14 10 100 21 0.0264081
15 10 100 21 0.0076233
16 10 100 21 0.00597157
17 10 100 21 0.0265147
18 10 100 21 0.0263991
19 10 100 21 0.0281673
20 10 100 21 0.0268094
2 11 100 21 1.41087e-05
3 11 100 21 0.0327947
4 11 100 21 0.0307556
5 11 100 21 0.065557
6 11 100 21 0.00115387
7 11 100 21 0.0598211
8 11 100 21 0.0982393
9 11 100 21 0.0659913
10 11 100 21 0.17477
11 11 100 21 0.169171
12 11 100 21 0.097023
13 11 100 21 0.0573697
14 11 100 21 0.0407626
15 11 100 21 0.0334941
16 11 100 21 3.39458e-07
17 11 100 21 0.00237026
18 11 100 21 0.0370933
19 11 100 21 0.0332479
20 11 100 21 0.000371105
3 12 100 21 0.000572649
4 12 100 21 0.0248034
5 12 100 21 0.024805
6 12 100 21 0.0508256
7 12 100 21 0.0744358
8 12 100 21 0.000706394
9 12 100 21 0.074412
10 12 100 21 0.0746197
11 12 100 21 0.124571
12 12 100 21 0.123539
13 12 100 21 0.124167
14 12 100 21 0.0507312
15 12 100 21 0.0492456
16 12 100 21 2.85137e-05
17 12 100 21 0.0244604
18 12 100 21 0.0646762
19 12 100 21 0.0633348
20 12 100 21 0.0500663
2 13 100 21 2.5369e-05
3 13 100 21 0.000115924
4 13 100 21 3.63365e-06
5 13 100 21 0.0295643
7 13 100 21 0.0295695
8 13 100 21 0.0027013
9 13 100 21 0.00406106
10 13 100 21 0.0259519
11 13 100 21 0.143979
12 13 100 21 0.118248
13 13 100 21 0.176031
14 13 100 21 0.0895793
15 13 100 21 0.118363
16 13 100 21 0.0886866
17 13 100 21 0.0293901
18 13 100 21 0.00223423
19 13 100 21 0.0296168
20 13 100 21 0.052754
21 13 100 21 0.0591252
1 14 100 21 4.7256e-07
3 14 100 21 0.000360543
4 14 100 21 0.0305729
5 14 100 21 0.000121334
6 14 100 21 0.0343342
9 14 100 21 0.0917412
10 14 100 21 0.0563953
11 14 100 21 0.0611524
12 14 100 21 0.124707
13 14 100 21 0.0916564
14 14 100 21 0.109077
15 14 100 21 0.122334
16 14 100 21 0.0930482
17 14 100 21 0.0620465
18 14 100 21 0.0609271
19 14 100 21 0.0613647
20 14 100 21 0.000160249
1 15 100 21 0.00291422
2 15 100 21 3.32391e-05
3 15 100 21 0.000257293
4 15 100 21 0.000143619
6 15 100 21 0.0263707
7 15 100 21 0.0263643
8 15 100 21 1.31546e-05
10 15 100 21 0.0790692
11 15 100 21 0.0527366
12 15 100 21 0.0782738
13 15 100 21 0.105475
14 15 100 21 0.101968
15 15 100 21 0.0527618
16 15 100 21 0.170106
17 15 100 21 0.105452
18 15 100 21 0.0527121
19 15 100 21 0.0750084
20 15 100 21 0.0703407
3 16 100 21 0.000262967
4 16 100 21 0.00031543
5 16 100 21 3.88304e-06
6 16 100 21 0.000358435
8 16 100 21 0.00507636
9 16 100 21 0.00841012
10 16 100 21 8.08553e-05
11 16 100 21 0.06555
12 16 100 21 0.0349454
13 16 100 21 0.0587714
14 16 100 21 0.082272
15 16 100 21 0.0874329
16 16 100 21 0.133178
17 16 100 21 0.0878398
18 16 100 21 0.0973183
19 16 100 21 0.149068
20 16 100 21 0.130828
21 16 100 21 0.0582882
3 17 100 21 4.16981e-06
4 17 100 21 0.000229517
5 17 100 21 8.04044e-06
6 17 100 21 1.41305e-05
8 17 100 21 0.0295212
9 17 100 21 0.0275442
11 17 100 21 6.26639e-07
12 17 100 21 0.0590193
13 17 100 21 0.0296896
14 17 100 21 0.0893497
15 17 100 21 0.0609495
16 17 100 21 0.0600228
17 17 100 21 0.0592736
18 17 100 21 0.092186
19 17 100 21 0.0350306
20 17 100 21 0.221012
21 17 100 21 0.236145
4 18 100 21 6.10373e-06
8 18 100 21 5.38971e-06
9 18 100 21 0.0301304
11 18 100 21 1.55847e-05
13 18 100 21 0.105006
14 18 100 21 0.0524915
15 18 100 21 0.153973
16 18 100 21 0.155555
17 18 100 21 0.220756
18 18 100 21 0.00623888
19 18 100 21 0.0643741
20 18 100 21 0.00148662
21 18 100 21 0.209961
2 19 100 21 6.65818e-06
3 19 100 21 3.72755e-06
4 19 100 21 5.92994e-06
6 19 100 21 1.90617e-05
9 19 100 21 0.00147515
10 19 100 21 0.000566401
12 19 100 21 8.30958e-06
13 19 100 21 4.57343e-05
15 19 100 21 0.0751672
16 19 100 21 0.0752025
17 19 100 21 0.0781037
18 19 100 21 0.159294
19 19 100 21 0.149976
20 19 100 21 0.234892
21 19 100 21 0.225233
4 20 100 21 0.00074672
8 20 100 21 2.39254e-05
11 20 100 21 2.28802e-05
13 20 100 21 8.6943e-07
14 20 100 21 0.165564
15 20 100 21 0.0827924
16 20 100 21 1.37886e-06
17 20 100 21 0.166652
18 20 100 21 0.087531
19 20 100 21 0.0827823
20 20 100 21 0.165535
21 20 100 21 0.248347
4 21 100 21 3.59542e-06
5 21 100 21 1.08868e-05
6 21 100 21 0.0829964
7 21 100 21 0.0834106
12 21 100 21 0.0834155
13 21 100 21 2.22966e-06
15 21 100 21 0.166832
16 21 100 21 0.0704407
17 21 100 21 0.000134425
18 21 100 21 0.247487
19 21 100 21 0.0983992
20 21 100 21 3.58246e-05
21 21 100 21 0.166832
6 22 100 21 1.01588e-05
7 22 100 21 8.46767e-06
11 22 100 21 0.01236
12 22 100 21 2.34282e-05
13 22 100 21 0.110065
16 22 100 21 0.221917
17 22 100 21 0.111312
18 22 100 21 1.71854e-06
19 22 100 21 0.213746
20 22 100 21 0.110451
21 22 100 21 0.220105
2 23 100 21 1.25887e-06
6 23 100 21 1.42023e-05
8 23 100 21 3.83733e-05
9 23 100 21 0.00051353
10 23 100 21 2.44039e-06
11 23 100 21 2.54713e-05
14 23 100 21 0.118961
15 23 100 21 0.000250361
16 23 100 21 3.01113e-06
17 23 100 21 0.00122252
18 23 100 21 0.289727
19 23 100 21 3.74903e-05
20 23 100 21 0.299509
21 23 100 21 0.289694
6 24 100 21 0.000139059
9 24 100 21 0.00152281
13 24 100 21 2.43638e-05
15 24 100 21 0.233883
16 24 100 21 0.233843
17 24 100 21 0.0614954
18 24 100 21 0.000253053
19 24 100 21 0.00107045
20 24 100 21 2.29713e-06
21 24 100 21 0.467767
10 25 100 21 1.23042e-06
16 25 100 21 0.304258
17 25 100 21 0.00327392
18 25 100 21 6.65854e-05
19 25 100 21 0.304187
20 25 100 21 0.0839562
21 25 100 21 0.304258
9 26 100 21 2.23141e-05
13 26 100 21 3.03384e-05
17 26 100 21 0.00106797
18 26 100 21 3.48363e-05
20 26 100 21 0.473031
21 26 100 21 0.525814
13 27 100 21 1.62944e-06
17 27 100 21 0.00270687
20 27 100 21 0.0337425
21 27 100 21 0.963549
2 0 100 22 0.000544196
3 0 100 22 0.00228847
4 0 100 22 0.0391258
5 0 100 22 0.0383068
6 0 100 22 0.0808425
7 0 100 22 0.000434486
8 0 100 22 0.0294769
9 0 100 22 0.0477256
10 0 100 22 0.0580712
11 0 100 22 0.0369171
12 0 100 22 0.0500433
13 0 100 22 0.0417115
14 0 100 22 0.0762583
15 0 100 22 0.0629392
16 0 100 22 0.0624079
17 0 100 22 0.0486677
18 0 100 22 0.101012
19 0 100 22 0.0916543
20 0 100 22 0.131452
21 0 100 22 0.000119998
1 1 100 22 0.630992
2 1 100 22 0.180332
3 1 100 22 0.00550693
4 1 100 22 0.0448879
5 1 100 22 9.5226e-07
6 1 100 22 0.000231613
7 1 100 22 0.0450929
8 1 100 22 0.00126659
9 1 100 22 5.1524e-06
10 1 100 22 0.000193503
11 1 100 22 4.98713e-05
12 1 100 22 2.22207e-05
14 1 100 22 4.76466e-05
15 1 100 22 7.41653e-07
16 1 100 22 2.69863e-05
18 1 100 22 0.0449392
19 1 100 22 0.0463968
20 1 100 22 6.8912e-06
1 2 100 22 0.305068
2 2 100 22 0.303629
3 2 100 22 0.163963
4 2 100 22 0.037487
5 2 100 22 0.0244926
6 2 100 22 5.12002e-07
7 2 100 22 0.03124
8 2 100 22 0.0611952
9 2 100 22 8.27564e-07
10 2 100 22 5.29921e-05
11 2 100 22 0.000105678
15 2 100 22 1.0206e-05
16 2 100 22 0.0106408
17 2 100 22 1.33717e-06
18 2 100 22 7.03875e-05
20 2 100 22 0.0315322
21 2 100 22 0.0305097
1 3 100 22 0.0950522
2 3 100 22 0.317999
3 3 100 22 0.190368
4 3 100 22 0.123098
5 3 100 22 0.117988
6 3 100 22 0.0311495
7 3 100 22 0.000498176
8 3 100 22 0.000594111
9 3 100 22 0.0678597
10 3 100 22 0.0193734
11 3 100 22 0.0329102
13 3 100 22 7.81219e-05
14 3 100 22 1.52487e-05
16 3 100 22 3.74444e-05
17 3 100 22 4.56669e-05
18 3 100 22 0.00153918
19 3 100 22 3.04978e-06
20 3 100 22 0.00138658
21 3 100 22 4.81233e-06
1 4 100 22 0.0290312
2 4 100 22 0.0883245
3 4 100 22 0.203225
4 4 100 22 0.2126
5 4 100 22 0.0589037
6 4 100 22 0.0592361
7 4 100 22 2.0027e-05
8 4 100 22 7.1878e-06
9 4 100 22 0.000129144
10 4 100 22 0.0812225
11 4 100 22 0.0628107
12 4 100 22 7.91652e-06
13 4 100 22 1.18968e-05
15 4 100 22 0.000509693
16 4 100 22 1.8432e-05
17 4 100 22 0.0297867
18 4 100 22 2.847e-05
19 4 100 22 0.058557
20 4 100 22 0.0587189
21 4 100 22 0.056851
1 5 100 22 0.0364388
2 5 100 22 4.11906e-07
3 5 100 22 0.145894
4 5 100 22 0.178585
5 5 100 22 0.261149
6 5 100 22 0.0721986
7 5 100 22 0.0358592
8 5 100 22 3.10603e-05
9 5 100 22 0.0490038
10 5 100 22 0.0369042
11 5 100 22 0.0359444
12 5 100 22 0.0359609
13 5 100 22 2.86261e-05
14 5 100 22 4.77455e-07
15 5 100 22 0.00027723
17 5 100 22 0.00316334
18 5 100 22 0.0361729
19 5 100 22 0.000271567
20 5 100 22 0.0361709
21 5 100 22 0.0359455
22 5 100 22 6.47546e-07
2 6 100 22 0.0437871
3 6 100 22 0.0760678
4 6 100 22 0.153
5 6 100 22 0.229027
6 6 100 22 0.152283
7 6 100 22 0.149464
8 6 100 22 0.0783444
9 6 100 22 0.00188672
10 6 100 22 0.0391115
11 6 100 22 5.48067e-05
12 6 100 22 0.0764814
13 6 100 22 7.01737e-05
14 6 100 22 2.6903e-05
15 6 100 22 4.07594e-07
16 6 100 22 1.74174e-05
17 6 100 22 0.000323397
19 6 100 22 2.1968e-05
20 6 100 22 8.10205e-06
21 6 100 22 2.3015e-05
3 7 100 22 0.0319392
4 7 100 22 0.0644828
5 7 100 22 0.127129
6 7 100 22 0.259237
7 7 100 22 0.131878
8 7 100 22 0.129038
9 7 100 22 0.0325821
10 7 100 22 0.0328323
11 7 100 22 0.0322855
12 7 100 22 4.34849e-06
13 7 100 22 0.0969623
15 7 100 22 3.62472e-06
16 7 100 22 4.64957e-06
17 7 100 22 9.69444e-06
19 7 100 22 0.0306321
20 7 100 22 0.0309786
2 8 100 22 1.74152e-05
3 8 100 22 0.050301
4 8 100 22 0.02781
5 8 100 22 0.0886469
6 8 100 22 0.0870209
7 8 100 22 0.221935
8 8 100 22 0.144774
9 8 100 22 0.163111
10 8 100 22 0.0866211
11 8 100 22 2.00463e-05
12 8 100 22 0.0279799
13 8 100 22 0.0263494
14 8 100 22 0.0472478
15 8 100 22 0.0278091
16 8 100 22 0.000159986
17 8 100 22 3.81007e-07
18 8 100 22 0.000181827
19 8 100 22 4.70694e-07
21 8 100 22 1.42337e-05
2 9 100 22 0.0263786
3 9 100 22 2.52596e-06
4 9 100 22 0.0617223
5 9 100 22 0.000459934
6 9 100 22 0.0632073
7 9 100 22 0.0918493
8 9 100 22 0.128307
9 9 100 22 0.152937
10 9 100 22 0.120306
11 9 100 22 0.0925589
12 9 100 22 0.0308534
13 9 100 22 0.0540585
14 9 100 22 0.107125
15 9 100 22 0.0310066
16 9 100 22 0.0308564
17 9 100 22 7.87254e-05
18 9 100 22 0.00313907
19 9 100 22 9.31669e-05
20 9 100 22 0.00506038
1 10 100 22 8.60963e-07
2 10 100 22 3.90018e-07
3 10 100 22 0.0277847
4 10 100 22 1.17461e-05
5 10 100 22 0.0285687
6 10 100 22 0.0557926
7 10 100 22 0.0833027
8 10 100 22 0.1623
9 10 100 22 0.137573
10 10 100 22 0.141612
11 10 100 22 0.107261
12 10 100 22 0.0554335
13 10 100 22 0.0107532
14 10 100 22 0.0280748
15 10 100 22 0.0810635
16 10 100 22 0.0274162
17 10 100 22 0.052333
19 10 100 22 0.000694919
20 10 100 22 2.38629e-05
1 11 100 22 3.65558e-05
2 11 100 22 6.96979e-06
3 11 100 22 0.0249786
4 11 100 22 3.07516e-05
6 11 100 22 0.107388
7 11 100 22 0.0709999
8 11 100 22 0.00237028
9 11 100 22 0.107772
10 11 100 22 0.110703
11 11 100 22 0.179675
12 11 100 22 0.14599
13 11 100 22 0.0347043
14 11 100 22 0.0398318
15 11 100 22 9.78675e-05
16 11 100 22 0.0953983
17 11 100 22 0.0789109
18 11 100 22 0.000499539
19 11 100 22 0.000482801
20 11 100 22 0.000122302
22 11 100 22 7.24168e-07
2 12 100 22 1.90173e-05
3 12 100 22 5.34235e-05
4 12 100 22 0.00213482
6 12 100 22 6.12757e-06
7 12 100 22 0.028016
8 12 100 22 0.0543596
9 12 100 22 0.0175885
10 12 100 22 0.0375353
11 12 100 22 0.0910642
12 12 100 22 0.082631
13 12 100 22 0.165735
14 12 100 22 0.0736432
15 12 100 22 0.131465
16 12 100 22 0.0163403
17 12 100 22 0.0821532
18 12 100 22 0.133043
19 12 100 22 0.0276275
20 12 100 22 0.050593
21 12 100 22 0.00599223
1 13 100 22 3.65991e-05
3 13 100 22 3.39788e-07
5 13 100 22 8.63981e-06
8 13 100 22 0.0597682
9 13 100 22 0.0890636
10 13 100 22 0.049591
11 13 100 22 0.0300259
12 13 100 22 0.0820738
13 13 100 22 0.0561328
14 13 100 22 0.0995399
15 13 100 22 0.119952
16 13 100 22 0.0597675
17 13 100 22 0.0324967
18 13 100 22 0.0298773
19 13 100 22 0.0300904
20 13 100 22 0.0905346
21 13 100 22 0.141157
22 13 100 22 0.0298838
2 14 100 22 5.09229e-06
3 14 100 22 1.3549e-06
4 14 100 22 2.38932e-05
5 14 100 22 0.00528713
6 14 100 22 0.0008613
7 14 100 22 1.30716e-06
8 14 100 22 1.93932e-06
9 14 100 22 1.82189e-05
10 14 100 22 0.0750404
11 14 100 22 0.103739
12 14 100 22 0.192225
13 14 100 22 0.109777
14 14 100 22 0.0365878
15 14 100 22 0.0733193
16 14 100 22 0.146396
17 14 100 22 0.0366115
18 14 100 22 0.109755
19 14 100 22 0.000146462
20 14 100 22 4.52882e-05
21 14 100 22 0.0369601
22 14 100 22 0.0731973
1 15 100 22 6.39638e-07
5 15 100 22 4.7864e-05
7 15 100 22 0.0308873
8 15 100 22 4.72064e-05
10 15 100 22 0.0301688
11 15 100 22 0.0617667
12 15 100 22 0.0617741
13 15 100 22 0.154391
14 15 100 22 0.154475
15 15 100 22 0.0368386
16 15 100 22 0.102131
17 15 100 22 0.0899319
18 15 100 22 0.0925787
19 15 100 22 0.061487
20 15 100 22 0.0308981
21 15 100 22 0.0616873
22 15 100 22 0.0308885
3 16 100 22 1.31741e-06
4 16 100 22 1.42366e-05
5 16 100 22 2.9568e-05
6 16 100 22 0.00044669
7 16 100 22 0.000166697
8 16 100 22 0.0390259
10 16 100 22 0.000329725
11 16 100 22 0.038781
12 16 100 22 0.0775636
13 16 100 22 0.0812666
14 16 100 22 0.116343
15 16 100 22 0.11634
16 16 100 22 0.103966
17 16 100 22 0.0775852
18 16 100 22 0.0421114
19 16 100 22 0.116645
20 16 100 22 0.0346952
21 16 100 22 0.0771301
22 16 100 22 0.077559
3 17 100 22 3.83079e-07
7 17 100 22 1.58502e-06
9 17 100 22 0.0290395
10 17 100 22 0.00120734
11 17 100 22 0.0289828
12 17 100 22 0.02898
13 17 100 22 0.05796
14 17 100 22 0.0869134
15 17 100 22 0.103893
16 17 100 22 0.144887
17 17 100 22 0.02898
18 17 100 22 0.0850168
19 17 100 22 0.115924
20 17 100 22 0.143438
21 17 100 22 0.0868157
22 17 100 22 0.05796
2 18 100 22 1.99309e-05
4 18 100 22 0.0370415
8 18 100 22 3.84145e-06
10 18 100 22 4.74845e-05
11 18 100 22 0.000171059
12 18 100 22 0.0404122
13 18 100 22 0.049279
14 18 100 22 0.0499782
15 18 100 22 0.0961684
16 18 100 22 0.0996298
17 18 100 22 0.240556
19 18 100 22 0.096327
20 18 100 22 0.0481449
21 18 100 22 0.0979901
22 18 100 22 0.144231
4 19 100 22 2.39089e-05
5 19 100 22 3.48573e-06
6 19 100 22 1.90363e-05
7 19 100 22 8.67439e-07
9 19 100 22 5.66696e-06
10 19 100 22 6.7021e-07
12 19 100 22 8.8153e-06
14 19 100 22 0.0467039
15 19 100 22 0.0466839
16 19 100 22 0.0466746
17 19 100 22 0.170638
18 19 100 22 0.222511
19 19 100 22 0.0466766
20 19 100 22 0.14
21 19 100 22 0.0933567
22 19 100 22 0.186693
5 20 100 22 0.00478757
9 20 100 22 2.71471e-06
11 20 100 22 4.85465e-06
15 20 100 22 0.070511
16 20 100 22 0.000972923
17 20 100 22 0.148147
19 20 100 22 0.423054
20 20 100 22 5.90016e-06
21 20 100 22 0.211492
22 20 100 22 0.141022
4 21 100 22 2.29216e-06
6 21 100 22 0.000557994
16 21 100 22 0.141386
18 21 100 22 0.214749
19 21 100 22 1.42274e-05
20 21 100 22 0.230487
21 21 100 22 0.126521
22 21 100 22 0.286283
4 22 100 22 1.42764e-06
5 22 100 22 0.000202334
6 22 100 22 2.04546e-06
7 22 100 22 1.77446e-06
9 22 100 22 1.01538e-05
10 22 100 22 5.23565e-06
17 22 100 22 0.136852
18 22 100 22 0.000351683
19 22 100 22 0.270169
20 22 100 22 1.862e-05
21 22 100 22 0.181615
22 22 100 22 0.410771
4 23 100 22 1.45184e-05
5 23 100 22 4.37839e-06
15 23 100 22 0.0166996
16 23 100 22 0.000350849
18 23 100 22 0.164194
19 23 100 22 0.164206
20 23 100 22 0.161773
21 23 100 22 0.000140075
22 23 100 22 0.492617
18 24 100 22 0.000154875
19 24 100 22 0.0122857
20 24 100 22 0.514066
21 24 100 22 0.473493
14 25 100 22 2.77594e-05
21 25 100 22 0.328521
22 25 100 22 0.671452
2 0 100 23 0.00273361
3 0 100 23 0.0712902
4 0 100 23 0.0373649
5 0 100 23 0.0312904
6 0 100 23 0.0476132
7 0 100 23 0.00105509
8 0 100 23 0.025897
9 0 100 23 0.146681
10 0 100 23 0.0391557
11 0 100 23 0.0343803
12 0 100 23 0.0536537
13 0 100 23 0.079792
14 0 100 23 0.00114995
15 0 100 23 0.000273132
16 0 100 23 0.0159398
17 0 100 23 0.00938529
18 0 100 23 0.126227
19 0 100 23 0.0873875
20 0 100 23 0.0853713
21 0 100 23 0.0933969
22 0 100 23 0.00996134
1 1 100 23 0.779073
2 1 100 23 0.0910755
3 1 100 23 0.00109367
4 1 100 23 9.42377e-05
5 1 100 23 0.000186536
6 1 100 23 0.0389519
7 1 100 23 7.3446e-06
8 1 100 23 5.87295e-06
9 1 100 23 0.000267992
11 1 100 23 0.0376316
12 1 100 23 0.0389002
13 1 100 23 1.12767e-06
16 1 100 23 7.68908e-07
17 1 100 23 9.89345e-07
19 1 100 23 2.17167e-05
20 1 100 23 0.0126833
21 1 100 23 4.64611e-06
1 2 100 23 0.212274
2 2 100 23 0.494137
3 2 100 23 0.0687529
4 2 100 23 3.68441e-06
5 2 100 23 0.00596791
6 2 100 23 3.09308e-06
7 2 100 23 0.0694264
8 2 100 23 0.0351502
9 2 100 23 0.00427804
10 2 100 23 8.87846e-06
11 2 100 23 0.0353706
12 2 100 23 0.0356144
13 2 100 23 0.000104441
14 2 100 23 5.46452e-07
15 2 100 23 6.5255e-06
16 2 100 23 2.50408e-05
17 2 100 23 2.32837e-05
18 2 100 23 0.00251438
19 2 100 23 0.0353702
20 2 100 23 4.61905e-05
21 2 100 23 0.000805356
22 2 100 23 0.000116758
1 3 100 23 0.0611021
2 3 100 23 0.241747
3 3 100 23 0.329339
4 3 100 23 0.148278
5 3 100 23 0.0310941
6 3 100 23 0.000265548
7 3 100 23 9.93729e-05
8 3 100 23 0.0314111
9 3 100 23 0.0305567
10 3 100 23 0.0305622
11 3 100 23 0.000100555
12 3 100 23 0.0305478
13 3 100 23 0.0307896
14 3 100 23 1.20677e-06
16 3 100 23 1.92028e-05
19 3 100 23 0.00296665
20 3 100 23 0.0309462
21 3 100 23 0.000123098
22 3 100 23 5.03901e-05
1 4 100 23 0.0289956
2 4 100 23 0.058252
3 4 100 23 0.26368
4 4 100 23 0.234487
5 4 100 23 0.145169
6 4 100 23 0.0235058
7 4 100 23 0.0580061
8 4 100 23 0.0289956
9 4 100 23 0.0290224
10 4 100 23 0.0290945
11 4 100 23 0.000916187
13 4 100 23 5.29443e-05
14 4 100 23 3.8886e-05
16 4 100 23 0.00012887
17 4 100 23 0.0289956
18 4 100 23 0.0290923
19 4 100 23 0.00138509
20 4 100 23 0.0401448
21 4 100 23 3.63507e-05
22 4 100 23 1.11785e-06
1 5 100 23 0.0265101
2 5 100 23 0.0775935
3 5 100 23 0.107784
4 5 100 23 0.218092
5 5 100 23 0.210768
6 5 100 23 0.125384
7 5 100 23 0.0265101
8 5 100 23 1.65683e-06
9 5 100 23 0.000160983
10 5 100 23 3.57737e-07
11 5 100 23 0.0503768
12 5 100 23 6.50126e-06
13 5 100 23 0.000158236
14 5 100 23 3.5585e-07
16 5 100 23 0.026492
18 5 100 23 2.47237e-05
19 5 100 23 0.0490782
20 5 100 23 0.000729446
21 5 100 23 0.0524366
22 5 100 23 0.0278929
2 6 100 23 0.0354686
3 6 100 23 0.0381361
4 6 100 23 0.137739
5 6 100 23 0.248382
6 6 100 23 0.181123
7 6 100 23 0.178348
8 6 100 23 0.104499
9 6 100 23 0.0443502
10 6 100 23 6.12829e-06
11 6 100 23 1.71256e-05
12 6 100 23 3.20698e-05
13 6 100 23 8.56179e-06
14 6 100 23 3.07947e-05
15 6 100 23 1.45662e-06
16 6 100 23 1.44416e-06
17 6 100 23 1.05165e-06
18 6 100 23 0.0264518
19 6 100 23 0.00523079
20 6 100 23 0.000152385
21 6 100 23 1.97344e-05
22 6 100 23 6.26576e-07
2 7 100 23 0.000150148
3 7 100 23 0.0310152
4 7 100 23 0.0936962
5 7 100 23 0.0929182
6 7 100 23 0.185934
7 7 100 23 0.128457
8 7 100 23 0.125225
9 7 100 23 0.12456
10 7 100 23 0.123717
11 7 100 23 1.82546e-06
12 7 100 23 0.0318113
13 7 100 23 0.000110008
14 7 100 23 0.0310233
16 7 100 23 2.08803e-06
17 7 100 23 5.75995e-06
18 7 100 23 4.73202e-05
19 7 100 23 9.60844e-05
20 7 100 23 0.031146
21 7 100 23 6.61213e-05
22 7 100 23 1.72266e-05
2 8 100 23 8.9457e-07
3 8 100 23 2.94507e-05
4 8 100 23 0.000613301
5 8 100 23 0.0693545
6 8 100 23 0.184816
7 8 100 23 0.162422
8 8 100 23 0.139576
9 8 100 23 0.093449
10 8 100 23 0.13923
11 8 100 23 0.0467866
12 8 100 23 0.0470774
13 8 100 23 0.0234431
14 8 100 23 0.0464074
15 8 100 23 0.022609
16 8 100 23 1.95876e-06
17 8 100 23 2.88141e-06
18 8 100 23 2.57987e-05
19 8 100 23 0.023411
20 8 100 23 0.000517847
21 8 100 23 0.000222391
22 8 100 23 3.67583e-06
3 9 100 23 4.08793e-06
4 9 100 23 0.0222976
5 9 100 23 0.031038
6 9 100 23 0.0653488
7 9 100 23 0.150802
8 9 100 23 0.195358
9 9 100 23 0.0937261
10 9 100 23 0.0979269
11 9 100 23 0.126737
12 9 100 23 0.0614884
13 9 100 23 0.0620181
14 9 100 23 0.0310085
15 9 100 23 0.0310078
16 9 100 23 4.45634e-05
17 9 100 23 1.85502e-06
18 9 100 23 1.12458e-05
19 9 100 23 1.14558e-05
20 9 100 23 0.0310444
21 9 100 23 0.000124136
22 9 100 23 7.70994e-07
2 10 100 23 0.000126194
3 10 100 23 0.000696204
4 10 100 23 1.02909e-05
5 10 100 23 1.7251e-06
6 10 100 23 0.0351521
7 10 100 23 0.0352432
8 10 100 23 0.201754
9 10 100 23 0.167973
10 10 100 23 0.130637
11 10 100 23 0.0963739
12 10 100 23 0.0356224
13 10 100 23 0.0677942
14 10 100 23 0.0674125
15 10 100 23 0.0680265
16 10 100 23 0.00736707
17 10 100 23 3.93426e-06
18 10 100 23 0.000391345
19 10 100 23 5.81899e-05
20 10 100 23 0.0253282
21 10 100 23 0.0338961
22 10 100 23 0.026133
1 11 100 23 0.0355734
2 11 100 23 4.26941e-05
3 11 100 23 2.48027e-06
4 11 100 23 0.00121142
5 11 100 23 0.0359809
6 11 100 23 1.60727e-05
7 11 100 23 0.0373437
8 11 100 23 0.0360029
9 11 100 23 0.216428
10 11 100 23 0.139776
11 11 100 23 0.108089
12 11 100 23 0.0950167
13 11 100 23 0.0369207
14 11 100 23 0.107864
15 11 100 23 0.0720312
16 11 100 23 0.0360028
17 11 100 23 2.89591e-06
18 11 100 23 0.0101762
19 11 100 23 0.000217509
20 11 100 23 0.000861914
21 11 100 23 0.000780359
22 11 100 23 0.0296592
2 12 100 23 0.0244889
3 12 100 23 0.0372458
4 12 100 23 0.0036793
5 12 100 23 0.00145939
6 12 100 23 0.0323392
7 12 100 23 0.0323137
9 12 100 23 0.000787419
10 12 100 23 0.161691
11 12 100 23 0.0710249
12 12 100 23 0.129264
13 12 100 23 0.0950625
14 12 100 23 0.0323427
15 12 100 23 0.0646338
16 12 100 23 0.187455
17 12 100 23 0.068072
18 12 100 23 0.0296851
19 12 100 23 3.59826e-05
20 12 100 23 0.022735
21 12 100 23 0.000602935
22 12 100 23 0.00508166
2 13 100 23 2.45116e-06
3 13 100 23 2.47403e-05
4 13 100 23 0.0287147
5 13 100 23 0.0198866
6 13 100 23 1.10609e-05
7 13 100 23 0.0511112
8 13 100 23 0.0272784
9 13 100 23 1.73712e-06
10 13 100 23 0.0290617
11 13 100 23 0.244406
12 13 100 23 0.136815
13 13 100 23 0.0551141
14 13 100 23 0.0816735
15 13 100 23 0.0273432
16 13 100 23 0.0256588
17 13 100 23 0.136321
18 13 100 23 0.0278041
19 13 100 23 0.0545497
20 13 100 23 0.0267577
21 13 100 23 0.000198085
22 13 100 23 0.0272661
2 14 100 23 1.12546e-06
4 14 100 23 6.53769e-07
5 14 100 23 0.00642302
6 14 100 23 4.91901e-06
7 14 100 23 5.53162e-07
9 14 100 23 0.0399931
11 14 100 23 0.0492118
12 14 100 23 0.162803
13 14 100 23 0.200136
14 14 100 23 0.0474891
15 14 100 23 0.0948742
16 14 100 23 0.0489046
17 14 100 23 0.0950041
18 14 100 23 0.0846979
19 14 100 23 0.0711488
20 14 100 23 0.0503601
21 14 100 23 0.0238783
22 14 100 23 0.0250696
3 15 100 23 1.37185e-06
4 15 100 23 3.36883e-07
5 15 100 23 2.23511e-05
7 15 100 23 9.09604e-06
8 15 100 23 1.26213e-05
9 15 100 23 3.7114e-05
10 15 100 23 0.0260227
12 15 100 23 1.46594e-05
13 15 100 23 0.157045
14 15 100 23 0.206737
15 15 100 23 0.0780606
16 15 100 23 0.0684998
17 15 100 23 0.026227
18 15 100 23 0.053641
19 15 100 23 0.0742771
20 15 100 23 0.0542135
21 15 100 23 0.15318
22 15 100 23 0.0759787
23 15 100 23 0.0260202
2 16 100 23 3.78629e-06
3 16 100 23 0.000105266
4 16 100 23 1.35675e-05
5 16 100 23 9.07233e-07
6 16 100 23 2.43871e-06
9 16 100 23 6.58942e-06
10 16 100 23 1.68668e-05
11 16 100 23 0.0302904
12 16 100 23 0.00990967
13 16 100 23 0.00875121
14 16 100 23 0.0693931
15 16 100 23 0.180501
16 16 100 23 0.120494
17 16 100 23 0.0603246
18 16 100 23 0.0634557
19 16 100 23 0.030411
20 16 100 23 0.066083
21 16 100 23 0.0606111
22 16 100 23 0.148818
23 16 100 23 0.150808
4 17 100 23 2.08108e-05
6 17 100 23 4.98885e-07
7 17 100 23 1.39475e-05
8 17 100 23 2.49646e-05
9 17 100 23 0.00239584
10 17 100 23 3.94711e-06
11 17 100 23 0.000169983
12 17 100 23 0.0621808
13 17 100 23 0.000239977
14 17 100 23 0.0373843
15 17 100 23 0.111885
16 17 100 23 0.232121
17 17 100 23 0.115795
18 17 100 23 0.0788499
19 17 100 23 0.123961
20 17 100 23 0.00048374
21 17 100 23 0.0778299
22 17 100 23 0.0399224
23 17 100 23 0.116717
2 18 100 23 3.25656e-06
3 18 100 23 4.88631e-07
4 18 100 23 0.000570064
6 18 100 23 0.000113699
7 18 100 23 0.000179788
8 18 100 23 2.67634e-06
9 18 100 23 5.0048e-06
10 18 100 23 2.40059e-06
11 18 100 23 1.75616e-06
12 18 100 23 0.00304606
13 18 100 23 0.00909089
14 18 100 23 0.0694261
15 18 100 23 0.0839887
16 18 100 23 0.0792242
17 18 100 23 0.19761
18 18 100 23 0.121428
19 18 100 23 0.0718719
20 18 100 23 0.118184
21 18 100 23 0.126488
22 18 100 23 0.0396212
23 18 100 23 0.0791425
3 19 100 23 0.000390994
4 19 100 23 8.46412e-06
5 19 100 23 3.70747e-06
7 19 100 23 2.40137e-06
9 19 100 23 3.26103e-05
10 19 100 23 6.36758e-06
13 19 100 23 0.0983523
14 19 100 23 0.0521954
15 19 100 23 0.000555168
16 19 100 23 0.0527166
17 19 100 23 0.0519596
18 19 100 23 0.195599
19 19 100 23 0.122911
20 19 100 23 0.158823
21 19 100 23 0.00019646
22 19 100 23 0.162328
23 19 100 23 0.103919
2 20 100 23 6.00115e-05
4 20 100 23 7.8447e-05
5 20 100 23 0.000541357
7 20 100 23 2.60367e-05
8 20 100 23 0.000185249
9 20 100 23 0.000337001
13 20 100 23 0.00133281
14 20 100 23 0.0417599
15 20 100 23 0.083433
16 20 100 23 4.7325e-06
17 20 100 23 0.111527
18 20 100 23 0.0896593
19 20 100 23 0.0820186
20 20 100 23 0.13055
21 20 100 23 0.171583
22 20 100 23 0.119911
23 20 100 23 0.166993
4 21 100 23 1.8831e-06
7 21 100 23 6.79386e-06
11 21 100 23 3.23609e-06
14 21 100 23 0.0636579
15 21 100 23 0.127297
16 21 100 23 0.127305
18 21 100 23 0.0635301
19 21 100 23 0.148263
20 21 100 23 0.0637529
21 21 100 23 0.279632
22 21 100 23 0.12655
3 22 100 23 7.53584e-07
12 22 100 23 1.10869e-06
13 22 100 23 5.57358e-06
16 22 100 23 0.0477178
17 22 100 23 0.150297
18 22 100 23 0.0495198
19 22 100 23 0.0539657
20 22 100 23 0.100199
21 22 100 23 0.0466621
22 22 100 23 0.301135
23 22 100 23 0.250496
2 23 100 23 2.89592e-06
4 23 100 23 0.000227369
6 23 100 23 3.08185e-06
7 23 100 23 8.84887e-06
13 23 100 23 0.000195562
16 23 100 23 0.16691
18 23 100 23 0.164784
19 23 100 23 7.01193e-05
20 23 100 23 5.82808e-05
21 23 100 23 8.33612e-05
22 23 100 23 1.86727e-05
23 23 100 23 0.667638
16 24 100 23 6.70545e-05
17 24 100 23 0.24993
18 24 100 23 0.24993
19 24 100 23 0.000212076
20 24 100 23 0.24993
23 24 100 23 0.24993
2 25 100 23 4.57576e-05
4 25 100 23 3.40633e-05
7 25 100 23 1.70203e-06
12 25 100 23 0.00015411
13 25 100 23 3.99417e-05
16 25 100 23 2.29873e-06
18 25 100 23 0.330469
19 25 100 23 0.319997
21 25 100 23 0.34917
22 25 100 23 8.57954e-05
4 26 100 23 1.42009e-06
5 26 100 23 7.07075e-07
14 26 100 23 5.56047e-05
15 26 100 23 5.60265e-07
16 26 100 23 8.72164e-07
18 26 100 23 0.000287085
19 26 100 23 0.40367
20 26 100 23 0.195717
21 26 100 23 0.000118812
22 26 100 23 0.198287
23 26 100 23 0.201861
3 27 100 23 0.000126991
5 27 100 23 2.24148e-06
7 27 100 23 0.00767653
12 27 100 23 5.243e-06
18 27 100 23 2.74183e-05
20 27 100 23 0.201881
21 27 100 23 0.263002
22 27 100 23 0.263348
23 27 100 23 0.263931
4 28 100 23 0.000364959
6 28 100 23 1.07467e-05
11 28 100 23 1.80587e-05
13 28 100 23 0.000140713
20 28 100 23 2.83135e-05
22 28 100 23 0.0157511
23 28 100 23 0.983686
20 29 100 23 5.11077e-05
23 29 100 23 0.999949
2 0 100 24 0.0367926
3 0 100 24 0.10526
4 0 100 24 0.00421215
5 0 100 24 0.0249575
6 0 100 24 0.00721462
7 0 100 24 0.103285
8 0 100 24 0.0626889
9 0 100 24 0.0432594
10 0 100 24 0.00304433
11 0 100 24 0.00201437
12 0 100 24 0.0313056
13 0 100 24 0.000675391
14 0 100 24 0.00148951
15 0 100 24 0.0665639
16 0 100 24 0.0653504
17 0 100 24 0.0391564
18 0 100 24 0.0863608
19 0 100 24 0.0679507
20 0 100 24 0.0752984
21 0 100 24 0.168866
22 0 100 24 0.00340848
23 0 100 24 0.000845247
1 1 100 24 0.763741
2 1 100 24 0.0664785
3 1 100 24 0.0662825
4 1 100 24 3.2667e-05
6 1 100 24 1.35327e-05
7 1 100 24 0.0386929
8 1 100 24 0.0332434
9 1 100 24 7.92672e-05
10 1 100 24 0.00032513
14 1 100 24 2.7738e-05
15 1 100 24 7.50504e-05
18 1 100 24 0.000108407
19 1 100 24 1.71675e-05
20 1 100 24 0.0307524
21 1 100 24 0.000120136
22 1 100 24 1.01836e-05
1 2 100 24 0.187739
2 2 100 24 0.494596
3 2 100 24 0.0777641
4 2 100 24 0.12719
5 2 100 24 0.0267959
6 2 100 24 1.28237e-06
7 2 100 24 0.0267815
8 2 100 24 6.40879e-05
9 2 100 24 0.00024841
10 2 100 24 0.0267892
11 2 100 24 9.84321e-06
12 2 100 24 0.000301462
14 2 100 24 4.19768e-05
15 2 100 24 1.4033e-05
16 2 100 24 1.20806e-06
17 2 100 24 2.98684e-06
18 2 100 24 1.2005e-06
19 2 100 24 0.026789
20 2 100 24 0.00484197
21 2 100 24 2.33269e-05
22 2 100 24 2.58531e-06
1 3 100 24 0.063719
2 3 100 24 0.158837
3 3 100 24 0.417813
4 3 100 24 0.1039
5 3 100 24 0.0655198
6 3 100 24 0.0319805
7 3 100 24 0.00294733
8 3 100 24 0.0336177
9 3 100 24 0.0242046
10 3 100 24 1.18749e-06
11 3 100 24 4.51718e-05
12 3 100 24 1.14426e-06
14 3 100 24 2.74188e-05
16 3 100 24 0.000843472
17 3 100 24 3.21763e-05
18 3 100 24 0.0316433
20 3 100 24 2.54129e-05
21 3 100 24 0.0648367
22 3 100 24 5.2072e-06
23 3 100 24 1.04749e-06
2 4 100 24 0.0959746
3 4 100 24 0.184648
4 4 100 24 0.37354
5 4 100 24 0.125712
6 4 100 24 0.0777003
7 4 100 24 0.00286961
8 4 100 24 0.00809824
11 4 100 24 0.00372161
12 4 100 24 0.0313996
13 4 100 24 0.0313804
14 4 100 24 0.0313991
15 4 100 24 0.00123909
16 4 100 24 0.000657549
18 4 100 24 5.63837e-06
19 4 100 24 1.23785e-05
20 4 100 24 4.91327e-05
21 4 100 24 2.17136e-05
22 4 100 24 0.0315585
23 4 100 24 1.18653e-05
1 5 100 24 0.025557
2 5 100 24 0.0255445
3 5 100 24 0.0511727
4 5 100 24 0.104896
5 5 100 24 0.282651
6 5 100 24 0.153226
7 5 100 24 0.123341
8 5 100 24 0.0290023
9 5 100 24 0.0255444
10 5 100 24 0.025557
11 5 100 24 0.0533323
12 5 100 24 0.0255657
13 5 100 24 1.00912e-05
14 5 100 24 0.025557
15 5 100 24 0.000158676
19 5 100 24 1.34011e-06
20 5 100 24 5.58638e-05
21 5 100 24 0.00110188
22 5 100 24 9.24383e-06
23 5 100 24 0.0477156
2 6 100 24 0.0135164
3 6 100 24 0.0290186
4 6 100 24 0.112566
5 6 100 24 0.172943
6 6 100 24 0.206992
7 6 100 24 0.125482
8 6 100 24 0.164563
9 6 100 24 1.05473e-05
11 6 100 24 0.000943053
12 6 100 24 0.0580501
13 6 100 24 0.0289504
14 6 100 24 0.0289465
15 6 100 24 0.0578917
16 6 100 24 3.42712e-05
18 6 100 24 4.88541e-05
19 6 100 24 5.54262e-06
20 6 100 24 7.56661e-06
21 6 100 24 1.20933e-05
22 6 100 24 1.00582e-05
23 6 100 24 7.66674e-06
2 7 100 24 1.70849e-05
3 7 100 24 0.0500149
4 7 100 24 0.0996639
5 7 100 24 0.121452
6 7 100 24 0.124633
7 7 100 24 0.191384
8 7 100 24 0.0924065
9 7 100 24 0.149736
10 7 100 24 0.049914
11 7 100 24 3.78864e-07
13 7 100 24 0.0249578
14 7 100 24 4.11481e-06
15 7 100 24 0.000608398
16 7 100 24 0.0452167
17 7 100 24 0.024957
18 7 100 24 1.69306e-06
19 7 100 24 3.71865e-06
20 7 100 24 5.52249e-05
21 7 100 24 0.0249727
23 7 100 24 3.12798e-07
2 8 100 24 0.0301944
3 8 100 24 0.00331235
4 8 100 24 0.000367492
5 8 100 24 0.0771414
6 8 100 24 0.225763
7 8 100 24 0.0421782
8 8 100 24 0.151063
9 8 100 24 0.112638
10 8 100 24 0.175385
11 8 100 24 0.116336
12 8 100 24 0.0264494
13 8 100 24 1.30871e-05
14 8 100 24 0.000882659
15 8 100 24 2.93538e-05
16 8 100 24 0.000947399
17 8 100 24 1.47753e-05
18 8 100 24 0.00557272
19 8 100 24 2.14034e-05
21 8 100 24 0.00235101
22 8 100 24 0.0292343
23 8 100 24 0.000104858
1 9 100 24 0.0323009
3 9 100 24 0.0324043
4 9 100 24 0.0273908
5 9 100 24 0.0322888
6 9 100 24 0.0345514
7 9 100 24 0.19314
8 9 100 24 0.152284
9 9 100 24 0.198793
10 9 100 24 0.0969046
11 9 100 24 0.0975839
12 9 100 24 0.0352877
13 9 100 24 0.0323009
14 9 100 24 9.17975e-06
15 9 100 24 0.000180176
16 9 100 24 0.00159208
17 9 100 24 1.43213e-06
18 9 100 24 8.39077e-07
19 9 100 24 1.44946e-05
20 9 100 24 0.000480428
21 9 100 24 0.000165833
22 9 100 24 2.39178e-05
23 9 100 24 0.0323016
2 10 100 24 0.00124503
4 10 100 24 1.62217e-06
6 10 100 24 0.0647151
7 10 100 24 0.0319264
8 10 100 24 0.136994
9 10 100 24 0.128984
10 10 100 24 0.127529
11 10 100 24 0.214235
12 10 100 24 0.158384
13 10 100 24 0.0637651
14 10 100 24 0.0318769
15 10 100 24 0.00042492
16 10 100 24 0.0314438
17 10 100 24 6.78756e-07
18 10 100 24 1.28472e-05
19 10 100 24 5.67997e-07
20 10 100 24 0.00507623
21 10 100 24 0.000199924
22 10 100 24 3.91541e-07
23 10 100 24 0.00318375
3 11 100 24 1.79612e-06
4 11 100 24 0.000140246
6 11 100 24 0.00209496
7 11 100 24 0.0268614
8 11 100 24 0.000243226
9 11 100 24 0.133596
10 11 100 24 0.214575
11 11 100 24 0.135432
12 11 100 24 0.161941
13 11 100 24 0.133611
14 11 100 24 0.0805088
15 11 100 24 0.0534121
16 11 100 24 0.000199651
17 11 100 24 0.0268309
18 11 100 24 1.52583e-06
19 11 100 24 0.000711065
20 11 100 24 7.19746e-05
21 11 100 24 0.0295863
22 11 100 24 6.24633e-05
23 11 100 24 0.000117559
2 12 100 24 0.0295282
3 12 100 24 1.82801e-06
4 12 100 24 2.64391e-05
5 12 100 24 0.00121747
6 12 100 24 0.00102559
7 12 100 24 0.00335029
8 12 100 24 0.0600738
9 12 100 24 5.67323e-06
10 12 100 24 0.139244
11 12 100 24 0.116777
12 12 100 24 0.147479
13 12 100 24 0.147549
14 12 100 24 0.116828
15 12 100 24 0.116406
16 12 100 24 0.059523
17 12 100 24 0.0295099
18 12 100 24 0.00144037
19 12 100 24 0.000403744
21 12 100 24 9.69744e-05
22 12 100 24 0.0295102
23 12 100 24 3.32485e-06
2 13 100 24 1.15293e-05
3 13 100 24 0.0306864
4 13 100 24 8.21957e-06
5 13 100 24 0.00407202
6 13 100 24 0.0011357
7 13 100 24 0.0313003
8 13 100 24 0.0389942
9 13 100 24 0.0307547
10 13 100 24 0.0307713
11 13 100 24 0.148665
12 13 100 24 0.0615349
13 13 100 24 0.184876
14 13 100 24 0.155486
15 13 100 24 0.12305
16 13 100 24 0.0390789
17 13 100 24 0.061509
18 13 100 24 6.26907e-07
19 13 100 24 0.00146509
20 13 100 24 0.0307185
21 13 100 24 0.0257059
22 13 100 24 4.87444e-06
23 13 100 24 0.000170658
2 14 100 24 5.9094e-05
3 14 100 24 2.60998e-06
4 14 100 24 0.0278185
5 14 100 24 4.24287e-07
6 14 100 24 0.0064104
7 14 100 24 1.18673e-06
8 14 100 24 0.0624526
9 14 100 24 0.0312304
11 14 100 24 0.031277
12 14 100 24 0.124752
13 14 100 24 0.0372124
14 14 100 24 0.180215
15 14 100 24 0.0937163
16 14 100 24 0.130171
17 14 100 24 0.124888
18 14 100 24 0.0622593
19 14 100 24 0.0205929
20 14 100 24 1.35623e-06
21 14 100 24 0.0351926
22 14 100 24 0.0317468
2 15 100 24 7.28894e-06
3 15 100 24 7.11672e-06
4 15 100 24 0.00351935
5 15 100 24 4.63177e-06
6 15 100 24 1.7337e-05
7 15 100 24 0.0019105
8 15 100 24 3.19863e-06
9 15 100 24 0.0956492
10 15 100 24 0.0633207
12 15 100 24 0.0633559
13 15 100 24 0.165777
14 15 100 24 0.0396656
15 15 100 24 0.126914
16 15 100 24 0.0916529
17 15 100 24 0.127345
18 15 100 24 0.126655
19 15 100 24 0.00124045
20 15 100 24 3.9408e-06
21 15 100 24 8.5595e-05
22 15 100 24 0.062936
23 15 100 24 0.0299292
2 16 100 24 0.0213533
3 16 100 24 1.42371e-05
4 16 100 24 2.52038e-05
5 16 100 24 4.73476e-05
7 16 100 24 3.06311e-05
8 16 100 24 0.000129711
9 16 100 24 0.023024
10 16 100 24 0.0229234
11 16 100 24 0.047212
12 16 100 24 1.94293e-05
13 16 100 24 0.0359305
14 16 100 24 0.113319
15 16 100 24 0.0892455
16 16 100 24 0.114806
17 16 100 24 0.0909111
18 16 100 24 0.114208
19 16 100 24 0.137844
20 16 100 24 0.0709912
21 16 100 24 0.00457705
22 16 100 24 0.0684952
23 16 100 24 0.0448862
24 16 100 24 6.25595e-06
3 17 100 24 0.000927187
4 17 100 24 1.00754e-05
5 17 100 24 6.5886e-06
6 17 100 24 2.49439e-06
7 17 100 24 0.0001751
8 17 100 24 0.000177092
9 17 100 24 0.000305912
10 17 100 24 0.00595512
11 17 100 24 0.0295209
12 17 100 24 0.0294795
13 17 100 24 0.0294638
14 17 100 24 0.11617
15 17 100 24 0.147795
16 17 100 24 0.0878731
17 17 100 24 0.117143
18 17 100 24 0.12211
19 17 100 24 0.102983
20 17 100 24 0.142476
21 17 100 24 0.0378868
22 17 100 24 9.60194e-06
23 17 100 24 0.0295292
24 17 100 24 3.24041e-07
2 18 100 24 1.55204e-05
3 18 100 24 2.70115e-06
4 18 100 24 3.14029e-06
5 18 100 24 0.00760316
6 18 100 24 6.90485e-07
8 18 100 24 1.21387e-06
9 18 100 24 4.27287e-05
11 18 100 24 4.60611e-06
12 18 100 24 0.0467313
13 18 100 24 0.0467202
14 18 100 24 2.18186e-05
15 18 100 24 0.0700846
16 18 100 24 0.0934953
17 18 100 24 0.0233798
18 18 100 24 0.112017
19 18 100 24 0.17613
20 18 100 24 0.0705658
21 18 100 24 0.116035
22 18 100 24 0.116703
23 18 100 24 0.0503581
24 18 100 24 0.0700846
3 19 100 24 0.00188363
5 19 100 24 4.27532e-06
6 19 100 24 0.0266412
7 19 100 24 0.000215856
8 19 100 24 3.17702e-05
10 19 100 24 1.49777e-06
11 19 100 24 3.62471e-05
12 19 100 24 0.00440912
13 19 100 24 0.0265465
14 19 100 24 5.8898e-07
15 19 100 24 3.67811e-07
16 19 100 24 0.0802856
17 19 100 24 0.106225
18 19 100 24 0.0953866
19 19 100 24 0.158003
20 19 100 24 0.132547
21 19 100 24 0.0780673
22 19 100 24 0.079712
23 19 100 24 0.130365
24 19 100 24 0.079638
4 20 100 24 0.00267262
6 20 100 24 5.05853e-05
7 20 100 24 0.0266442
9 20 100 24 0.000186976
11 20 100 24 0.00215321
12 20 100 24 2.11243e-05
14 20 100 24 0.0529559
15 20 100 24 3.16089e-07
16 20 100 24 0.0265458
17 20 100 24 0.0794337
18 20 100 24 0.0786274
19 20 100 24 0.0291146
20 20 100 24 0.152308
21 20 100 24 0.128043
22 20 100 24 0.158456
23 20 100 24 0.183353
24 20 100 24 0.0794339
2 21 100 24 0.000201906
3 21 100 24 0.000760199
6 21 100 24 2.06025e-06
7 21 100 24 1.6338e-06
8 21 100 24 1.53396e-06
9 21 100 24 7.69097e-06
11 21 100 24 0.000224377
15 21 100 24 0.0350571
16 21 100 24 0.0687417
17 21 100 24 0.0348594
18 21 100 24 0.0349626
19 21 100 24 0.0444128
20 21 100 24 0.0706918
21 21 100 24 0.215511
22 21 100 24 0.104426
23 21 100 24 0.146158
24 21 100 24 0.243981
4 22 100 24 3.76463e-05
5 22 100 24 0.0114405
7 22 100 24 0.0234885
8 22 100 24 1.46298e-05
9 22 100 24 0.000623301
11 22 100 24 1.30918e-05
12 22 100 24 5.29731e-07
13 22 100 24 2.98425e-06
14 22 100 24 5.95228e-06
15 22 100 24 0.0148051
16 22 100 24 0.0502389
17 22 100 24 0.050296
18 22 100 24 0.0502792
19 22 100 24 0.100493
20 22 100 24 0.050298
21 22 100 24 0.00212302
22 22 100 24 0.246123
23 22 100 24 0.148503
24 22 100 24 0.251215
3 23 100 24 6.05909e-06
7 23 100 24 5.51286e-05
8 23 100 24 3.71134e-05
11 23 100 24 6.19811e-06
14 23 100 24 4.81658e-06
16 23 100 24 7.21805e-06
17 23 100 24 0.188397
18 23 100 24 0.00156303
19 23 100 24 0.0970078
20 23 100 24 0.0943122
21 23 100 24 0.0627321
22 23 100 24 0.00292923
23 23 100 24 0.270345
24 23 100 24 0.282596
12 24 100 24 1.24216e-06
14 24 100 24 4.35091e-05
15 24 100 24 4.24807e-05
18 24 100 24 0.239857
19 24 100 24 0.000278274
20 24 100 24 0.124094
21 24 100 24 0.0206636
22 24 100 24 1.01241e-05
23 24 100 24 0.0100243
24 24 100 24 0.604985
2 25 100 24 0.00620686
6 25 100 24 0.000250527
11 25 100 24 4.61242e-05
19 25 100 24 0.500832
21 25 100 24 1.08186e-05
22 25 100 24 4.9922e-06
24 25 100 24 0.492649
6 26 100 24 2.22727e-06
11 26 100 24 7.62261e-07
15 26 100 24 3.97319e-06
18 26 100 24 2.59854e-05
19 26 100 24 0.166978
20 26 100 24 0.165716
21 26 100 24 0.168647
22 26 100 24 0.163563
23 26 100 24 0.167193
24 26 100 24 0.16787
4 27 100 24 2.98655e-06
10 27 100 24 6.78097e-07
19 27 100 24 0.000845583
20 27 100 24 0.331627
21 27 100 24 0.165815
22 27 100 24 0.331853
23 27 100 24 0.00404123
24 27 100 24 0.165815
5 28 100 24 7.24395e-06
11 28 100 24 9.24179e-06
17 28 100 24 1.68126e-05
21 28 100 24 0.0216858
23 28 100 24 0.615318
24 28 100 24 0.362963
23 29 100 24 0.0947181
24 29 100 24 0.905282
2 0 100 25 0.000361775
3 0 100 25 0.0437818
4 0 100 25 0.092041
5 0 100 25 0.0685314
6 0 100 25 0.0447368
7 0 100 25 0.0170768
8 0 100 25 0.0805149
9 0 100 25 0.027953
10 0 100 25 0.0164286
11 0 100 25 0.00870173
12 0 100 25 0.00714908
13 0 100 25 0.021483
14 0 100 25 0.0316504
15 0 100 25 0.138746
16 0 100 25 0.0280264
17 0 100 25 0.00416575
18 0 100 25 0.0704864
19 0 100 25 0.0826571
20 0 100 25 0.0210776
21 0 100 25 0.054629
22 0 100 25 0.0683514
23 0 100 25 0.0714327
24 0 100 25 1.71936e-05
1 1 100 25 0.72755
2 1 100 25 0.0633026
3 1 100 25 0.0571536
4 1 100 25 0.00377116
5 1 100 25 0.00203158
6 1 100 25 0.00212399
7 1 100 25 0.000613542
8 1 100 25 1.13363e-05
9 1 100 25 5.6391e-05
10 1 100 25 2.34804e-05
11 1 100 25 0.000110935
12 1 100 25 0.0484585
13 1 100 25 0.000195363
14 1 100 25 1.64862e-06
15 1 100 25 3.62691e-05
17 1 100 25 0.000249581
18 1 100 25 5.68517e-06
19 1 100 25 6.40126e-07
20 1 100 25 3.40079e-05
21 1 100 25 3.09428e-05
22 1 100 25 0.00320754
23 1 100 25 0.0910284
24 1 100 25 3.1875e-06
1 2 100 25 0.377878
2 2 100 25 0.374883
3 2 100 25 0.0422855
4 2 100 25 0.0106419
5 2 100 25 0.0751045
6 2 100 25 0.0375662
7 2 100 25 1.08318e-05
8 2 100 25 0.00294006
9 2 100 25 0.0375606
10 2 100 25 0.0379179
11 2 100 25 2.60145e-06
12 2 100 25 4.20683e-06
14 2 100 25 8.38526e-05
15 2 100 25 0.00038214
16 2 100 25 0.000167684
17 2 100 25 7.56264e-05
18 2 100 25 0.000212635
21 2 100 25 0.000120804
23 2 100 25 0.00216207
1 3 100 25 0.0787336
2 3 100 25 0.45745
3 3 100 25 0.25002
4 3 100 25 0.0836916
5 3 100 25 0.0431927
6 3 100 25 0.0416193
8 3 100 25 0.00393522
9 3 100 25 0.000658464
10 3 100 25 4.75623e-05
11 3 100 25 0.0400972
12 3 100 25 8.31986e-06
13 3 100 25 5.96061e-07
14 3 100 25 7.73245e-05
15 3 100 25 1.99488e-05
16 3 100 25 2.01058e-05
19 3 100 25 0.000325527
21 3 100 25 1.64642e-05
22 3 100 25 7.54083e-05
23 3 100 25 1.13753e-05
2 4 100 25 0.00322339
3 4 100 25 0.437693
4 4 100 25 0.250466
5 4 100 25 0.0480362
6 4 100 25 0.0741587
7 4 100 25 0.0735636
8 4 100 25 0.000125458
9 4 100 25 0.0371155
10 4 100 25 6.57617e-06
11 4 100 25 0.0370893
12 4 100 25 0.000580024
14 4 100 25 2.50324e-06
15 4 100 25 1.40383e-05
18 4 100 25 9.09161e-05
19 4 100 25 0.000315091
22 4 100 25 0.000413269
23 4 100 25 0.0371062
24 4 100 25 8.00946e-07
1 5 100 25 0.0309988
2 5 100 25 0.0297959
3 5 100 25 0.0223958
4 5 100 25 0.243561
5 5 100 25 0.258062
6 5 100 25 0.147813
7 5 100 25 0.110325
8 5 100 25 0.0578498
9 5 100 25 1.92394e-06
10 5 100 25 0.0297951
11 5 100 25 0.00109419
12 5 100 25 0.00249114
13 5 100 25 3.18161e-05
14 5 100 25 0.00165331
15 5 100 25 0.000196764
16 5 100 25 0.00505785
17 5 100 25 3.05766e-07
19 5 100 25 3.06236e-05
20 5 100 25 0.000187163
21 5 100 25 5.04248e-06
22 5 100 25 0.000434281
23 5 100 25 0.0288472
24 5 100 25 0.0293726
2 6 100 25 0.000644522
3 6 100 25 0.0421714
4 6 100 25 0.0435335
5 6 100 25 0.166336
6 6 100 25 0.249566
7 6 100 25 0.204246
8 6 100 25 0.167137
9 6 100 25 0.115455
10 6 100 25 1.77388e-05
11 6 100 25 0.000669814
13 6 100 25 0.00971205
14 6 100 25 4.10079e-06
15 6 100 25 1.7781e-05
16 6 100 25 0.000291779
17 6 100 25 5.34128e-06
19 6 100 25 1.25209e-06
20 6 100 25 4.13438e-06
21 6 100 25 1.73022e-05
22 6 100 25 0.000170654
2 7 100 25 0.0388462
3 7 100 25 0.0446583
4 7 100 25 0.0446794
5 7 100 25 0.0838358
6 7 100 25 0.122169
7 7 100 25 0.0936929
8 7 100 25 0.148892
9 7 100 25 0.267757
10 7 100 25 0.0888727
11 7 100 25 2.96111e-06
12 7 100 25 0.0072205
14 7 100 25 0.0466072
15 7 100 25 0.000315358
16 7 100 25 3.2461e-06
17 7 100 25 1.32807e-06
19 7 100 25 4.66544e-05
20 7 100 25 0.000137379
21 7 100 25 0.0116855
22 7 100 25 0.000155736
23 7 100 25 0.000404887
24 7 100 25 1.5525e-05
3 8 100 25 0.00277477
4 8 100 25 0.0728241
5 8 100 25 0.0413899
6 8 100 25 0.0365206
7 8 100 25 0.142341
8 8 100 25 0.145732
9 8 100 25 0.0653144
10 8 100 25 0.210776
11 8 100 25 0.111211
12 8 100 25 0.0279237
13 8 100 25 8.61353e-07
14 8 100 25 0.000145281
15 8 100 25 0.0670019
16 8 100 25 1.16801e-06
17 8 100 25 5.55329e-06
18 8 100 25 1.22194e-05
19 8 100 25 0.00140722
20 8 100 25 8.1671e-07
21 8 100 25 0.0365353
22 8 100 25 4.59452e-06
23 8 100 25 0.00162737
24 8 100 25 0.0364502
1 9 100 25 0.000196646
2 9 100 25 0.0349207
3 9 100 25 0.0702266
4 9 100 25 0.0349205
5 9 100 25 0.0694982
6 9 100 25 0.10478
7 9 100 25 0.070561
8 9 100 25 0.07318
9 9 100 25 0.10903
10 9 100 25 0.0372535
11 9 100 25 0.137675
12 9 100 25 0.0698745
13 9 100 25 0.0348396
14 9 100 25 7.85251e-07
15 9 100 25 0.00191048
16 9 100 25 0.0349383
17 9 100 25 0.0348604
18 9 100 25 0.0348808
19 9 100 25 5.88531e-06
20 9 100 25 0.0349251
21 9 100 25 0.0036084
22 9 100 25 0.00760662
23 9 100 25 0.000306571
